         0 3.2597e+04 0.0000e+00 3.8336e-01 -2.0079e-01 2.9517e-01 -1.4763e-01
         1 9.9816e+04 0.0000e+00 3.8405e-01 -2.0016e-01 2.9455e-01 -1.4939e-01
         2 8.8093e+04 0.0000e+00 4.1473e-01 -1.7045e-01 3.2102e-01 -1.3218e-01
         3 3.4327e+05 0.0000e+00 3.8218e-01 -1.7150e-01 2.8936e-01 -1.3703e-01
         4 7.6581e+05 0.0000e+00 4.4475e-01 -2.3799e-01 3.5269e-01 -1.6214e-01
         5 3.5906e+04 0.0000e+00 3.8762e-01 -1.9389e-01 3.0453e-01 -1.4383e-01
         6 5.5210e+04 0.0000e+00 4.1059e-01 -2.5296e-01 3.1989e-01 -1.6552e-01
         7 5.7283e+02 4.5326e-125 3.9549e-01 -1.9509e-01 3.0740e-01 -1.4265e-01
         8 6.6569e+05 0.0000e+00 3.5427e-01 -1.6013e-01 2.7596e-01 -1.2181e-01
         9 2.4831e+05 0.0000e+00 3.9400e-01 -1.2863e-01 3.0122e-01 -1.0490e-01
        10 2.0172e+05 0.0000e+00 3.7776e-01 -2.2257e-01 2.9176e-01 -1.5740e-01
        11 2.7078e+03 0.0000e+00 3.9453e-01 -1.9549e-01 3.0245e-01 -1.5383e-01
        12 1.1056e+05 0.0000e+00 4.2369e-01 -1.7161e-01 3.3170e-01 -1.2722e-01
        13 2.7867e+05 0.0000e+00 4.2777e-01 -1.9388e-01 3.3542e-01 -1.5056e-01
        14 7.2659e+05 0.0000e+00 4.3943e-01 -1.9602e-01 3.4673e-01 -1.4195e-01
        15 4.8844e+04 0.0000e+00 3.7063e-01 -2.3717e-01 2.8856e-01 -1.6326e-01
        16 1.9754e+03 0.0000e+00 3.9546e-01 -1.9247e-01 3.0817e-01 -1.4283e-01
        17 2.1029e+05 0.0000e+00 3.7341e-01 -2.0402e-01 2.8713e-01 -1.4351e-01
        18 2.0574e+05 0.0000e+00 3.7138e-01 -2.1476e-01 2.8843e-01 -1.5660e-01
        19 4.4427e+05 0.0000e+00 4.3151e-01 -2.1910e-01 3.3571e-01 -1.5949e-01
        20 2.3847e+05 0.0000e+00 4.3031e-01 -2.1601e-01 3.3470e-01 -1.5962e-01
        21 4.1262e+04 0.0000e+00 3.8894e-01 -1.8195e-01 3.0110e-01 -1.3891e-01
        22 9.9871e+04 0.0000e+00 3.8570e-01 -1.8542e-01 2.9796e-01 -1.3892e-01
        23 5.6286e+05 0.0000e+00 3.5481e-01 -1.8674e-01 2.7155e-01 -1.4220e-01
        24 5.2265e+04 0.0000e+00 4.0479e-01 -1.8824e-01 3.1580e-01 -1.4927e-01
        25 3.3773e+05 0.0000e+00 4.3315e-01 -1.7184e-01 3.3820e-01 -1.4143e-01
        26 5.8694e+03 0.0000e+00 3.8697e-01 -2.0206e-01 3.0071e-01 -1.4794e-01
        27 1.3967e+06 0.0000e+00 3.1433e-01 -2.8783e-01 2.4077e-01 -1.7585e-01
        28 2.2720e+03 0.0000e+00 3.9242e-01 -2.1745e-01 3.0420e-01 -1.6208e-01
        29 9.8950e+04 0.0000e+00 4.1013e-01 -2.2118e-01 3.1973e-01 -1.5703e-01
        30 1.0905e+06 0.0000e+00 3.3756e-01 -2.0459e-01 2.5812e-01 -1.4222e-01
        31 6.3150e+04 0.0000e+00 4.1450e-01 -2.0341e-01 3.2343e-01 -1.5141e-01
        32 7.6415e+02 1.2919e-166 4.0621e-01 -1.7757e-01 3.1563e-01 -1.4157e-01
        33 1.3816e+05 0.0000e+00 4.2063e-01 -1.8953e-01 3.2492e-01 -1.4630e-01
        34 1.6493e+06 0.0000e+00 4.6223e-01 -1.7331e-01 3.6599e-01 -1.3873e-01
        35 2.3311e+04 0.0000e+00 4.0957e-01 -1.6176e-01 3.2047e-01 -1.2160e-01
        36 1.2331e+04 0.0000e+00 3.9959e-01 -1.5797e-01 3.0983e-01 -1.2659e-01
        37 2.2385e+05 0.0000e+00 4.4849e-01 -1.9147e-01 3.4810e-01 -1.4757e-01
        38 5.8632e+04 0.0000e+00 4.1081e-01 -2.2199e-01 3.2004e-01 -1.5440e-01
        39 1.5086e+05 0.0000e+00 3.7538e-01 -2.1313e-01 2.8782e-01 -1.5575e-01
        40 6.1466e+04 0.0000e+00 3.7827e-01 -2.2975e-01 2.9302e-01 -1.6457e-01
        41 2.6185e+05 0.0000e+00 3.6403e-01 -2.1872e-01 2.8158e-01 -1.5581e-01
        42 2.5550e+04 0.0000e+00 4.0909e-01 -1.9901e-01 3.2429e-01 -1.4065e-01
        43 3.4597e+03 0.0000e+00 3.9513e-01 -2.0481e-01 3.0479e-01 -1.4786e-01
        44 1.8687e+06 0.0000e+00 3.2847e-01 -1.6186e-01 2.4930e-01 -1.2321e-01
        45 8.6816e+05 0.0000e+00 3.6708e-01 -1.5183e-01 2.8021e-01 -1.2003e-01
        46 6.6189e+03 0.0000e+00 4.1197e-01 -1.4867e-01 3.1714e-01 -1.1595e-01
        47 1.7472e+05 0.0000e+00 3.7728e-01 -1.8675e-01 2.9281e-01 -1.4338e-01
        48 8.3878e+04 0.0000e+00 3.7769e-01 -1.9447e-01 2.9553e-01 -1.4146e-01
        49 7.2422e+04 0.0000e+00 4.1448e-01 -2.3646e-01 3.1906e-01 -1.5845e-01
        50 2.6475e+05 0.0000e+00 4.2543e-01 -2.1999e-01 3.2993e-01 -1.6133e-01
        51 2.2275e+02 4.7251e-49 3.9985e-01 -2.3384e-01 3.0651e-01 -1.6608e-01
        52 9.7933e+03 0.0000e+00 3.9819e-01 -2.2469e-01 3.1353e-01 -1.5941e-01
        53 1.0730e+05 0.0000e+00 4.1956e-01 -1.6295e-01 3.3068e-01 -1.2069e-01
        54 7.0779e+05 0.0000e+00 3.4109e-01 -2.1066e-01 2.6406e-01 -1.5654e-01
        55 8.3981e+04 0.0000e+00 4.2001e-01 -2.2007e-01 3.2971e-01 -1.5680e-01
        56 3.9160e+03 0.0000e+00 4.1100e-01 -2.0894e-01 3.1983e-01 -1.5062e-01
        57 2.9518e+04 0.0000e+00 3.9448e-01 -1.9262e-01 3.0694e-01 -1.5170e-01
        58 1.4231e+05 0.0000e+00 3.7021e-01 -1.9320e-01 2.8196e-01 -1.4952e-01
        59 2.3682e+05 0.0000e+00 3.7519e-01 -1.6440e-01 2.9191e-01 -1.2962e-01
        60 8.7543e+03 0.0000e+00 3.8542e-01 -2.1693e-01 3.0378e-01 -1.5518e-01
        61 8.0789e+05 0.0000e+00 3.4072e-01 -2.2140e-01 2.6098e-01 -1.5668e-01
        62 2.0407e+06 0.0000e+00 3.1872e-01 -1.9504e-01 2.4415e-01 -1.4186e-01
        63 2.1274e+04 0.0000e+00 3.9298e-01 -1.8266e-01 3.0256e-01 -1.4833e-01
        64 5.0014e+05 0.0000e+00 3.5732e-01 -1.7252e-01 2.7129e-01 -1.2684e-01
        65 6.7224e+04 0.0000e+00 4.1721e-01 -1.8418e-01 3.2874e-01 -1.4558e-01
        66 1.1454e+05 0.0000e+00 3.7402e-01 -2.1625e-01 2.8969e-01 -1.6085e-01
        67 8.7526e+03 0.0000e+00 4.0323e-01 -2.1938e-01 3.1570e-01 -1.5388e-01
        68 1.1273e+04 0.0000e+00 4.0434e-01 -1.9998e-01 3.1267e-01 -1.4889e-01
        69 1.1681e+05 0.0000e+00 4.0551e-01 -2.1699e-01 3.1998e-01 -1.4684e-01
        70 1.6162e+05 0.0000e+00 4.0461e-01 -2.1400e-01 3.1848e-01 -1.5242e-01
        71 1.4932e+05 0.0000e+00 3.8313e-01 -1.7355e-01 2.9423e-01 -1.3343e-01
        72 4.5800e+03 0.0000e+00 3.9484e-01 -1.7819e-01 3.0577e-01 -1.4266e-01
        73 2.8361e+04 0.0000e+00 3.9437e-01 -1.9142e-01 3.0517e-01 -1.4845e-01
        74 7.0283e+05 0.0000e+00 4.3930e-01 -2.2213e-01 3.4359e-01 -1.6024e-01
        75 4.1517e+02 7.7748e-91 3.9850e-01 -2.1351e-01 3.1044e-01 -1.5882e-01
        76 2.1227e+05 0.0000e+00 3.7603e-01 -2.0034e-01 2.9013e-01 -1.5449e-01
        77 1.2211e+03 7.6779e-266 4.1631e-01 -1.6388e-01 3.2534e-01 -1.2889e-01
        78 3.0508e+05 0.0000e+00 3.5774e-01 -2.2404e-01 2.7471e-01 -1.5955e-01
        79 2.4829e+05 0.0000e+00 3.6186e-01 -1.8645e-01 2.8181e-01 -1.4014e-01
        80 7.5720e+03 0.0000e+00 4.0438e-01 -1.9543e-01 3.1287e-01 -1.4006e-01
        81 6.9946e+05 0.0000e+00 3.5848e-01 -2.0588e-01 2.8008e-01 -1.5707e-01
        82 2.4462e+05 0.0000e+00 4.3102e-01 -1.8443e-01 3.3742e-01 -1.4399e-01
        83 1.1597e+05 0.0000e+00 4.2032e-01 -2.0033e-01 3.2682e-01 -1.5145e-01
        84 3.3488e+05 0.0000e+00 3.8088e-01 -1.4372e-01 2.9432e-01 -1.1127e-01
        85 1.6342e+00 4.8879e-01 3.9459e-01 -1.9859e-01 3.0605e-01 -1.4106e-01
        86 7.9726e+03 0.0000e+00 3.7999e-01 -2.1902e-01 2.9421e-01 -1.5156e-01
        87 3.1746e+05 0.0000e+00 3.7141e-01 -1.7597e-01 2.8357e-01 -1.3164e-01
        88 4.6247e+04 0.0000e+00 3.9707e-01 -2.0486e-01 3.0498e-01 -1.5582e-01
        89 4.1702e+04 0.0000e+00 3.9685e-01 -2.2641e-01 3.0733e-01 -1.5842e-01
        90 1.2894e+05 0.0000e+00 3.8398e-01 -1.8480e-01 3.0063e-01 -1.4424e-01
        91 1.2936e+06 0.0000e+00 4.6166e-01 -2.1130e-01 3.6336e-01 -1.5203e-01
        92 8.2065e+05 0.0000e+00 4.5808e-01 -1.8157e-01 3.6308e-01 -1.3197e-01
        93 1.1281e+05 0.0000e+00 3.7833e-01 -2.0226e-01 2.9413e-01 -1.5132e-01
        94 2.8930e+04 0.0000e+00 4.0470e-01 -1.8577e-01 3.0703e-01 -1.4347e-01
        95 6.4741e+05 0.0000e+00 4.3312e-01 -2.1848e-01 3.3944e-01 -1.5897e-01
        96 1.2602e+04 0.0000e+00 4.0386e-01 -1.6597e-01 3.1759e-01 -1.3185e-01
        97 2.3137e+06 0.0000e+00 4.7742e-01 -1.9554e-01 3.7656e-01 -1.4800e-01
        98 1.0166e+02 9.3173e-23 3.8760e-01 -2.3581e-01 2.9836e-01 -1.6548e-01
        99 1.0308e+05 0.0000e+00 4.1765e-01 -2.0840e-01 3.2850e-01 -1.5889e-01
       100 1.1379e+06 0.0000e+00 3.3071e-01 -2.0719e-01 2.5366e-01 -1.5179e-01
       101 9.0691e+04 0.0000e+00 3.8548e-01 -2.0431e-01 3.0380e-01 -1.5237e-01
       102 4.7297e+05 0.0000e+00 3.6906e-01 -1.9006e-01 2.8601e-01 -1.4325e-01
       103 7.2696e+04 0.0000e+00 4.1097e-01 -1.9927e-01 3.2257e-01 -1.4461e-01
       104 4.0230e+04 0.0000e+00 3.9539e-01 -1.6814e-01 3.0124e-01 -1.3463e-01
       105 2.9122e+05 0.0000e+00 4.2487e-01 -2.2272e-01 3.2913e-01 -1.6117e-01
       106 1.5968e+04 0.0000e+00 4.0332e-01 -1.8406e-01 3.1015e-01 -1.4274e-01
       107 1.1784e+05 0.0000e+00 3.9086e-01 -1.8828e-01 3.0087e-01 -1.4209e-01
       108 1.5418e+04 0.0000e+00 3.8214e-01 -1.9406e-01 2.9835e-01 -1.4634e-01
       109 4.5740e+01 1.2932e-10 4.0190e-01 -1.7438e-01 3.1226e-01 -1.3193e-01
       110 1.4540e+05 0.0000e+00 4.2657e-01 -2.0249e-01 3.3651e-01 -1.5704e-01
       111 4.6465e+05 0.0000e+00 3.6139e-01 -1.9319e-01 2.7493e-01 -1.4389e-01
       112 6.8256e+05 0.0000e+00 3.5875e-01 -1.7253e-01 2.7308e-01 -1.3635e-01
       113 9.6452e+03 0.0000e+00 4.0131e-01 -2.4486e-01 3.0892e-01 -1.6070e-01
       114 1.7617e+04 0.0000e+00 4.0305e-01 -2.2609e-01 3.1280e-01 -1.6350e-01
       115 6.9651e+03 0.0000e+00 4.0450e-01 -2.2011e-01 3.1567e-01 -1.4984e-01
       116 5.6583e+03 0.0000e+00 4.0164e-01 -1.9607e-01 3.0885e-01 -1.4450e-01
       117 3.6011e+05 0.0000e+00 4.3386e-01 -2.0037e-01 3.4001e-01 -1.5049e-01
       118 1.4311e+06 0.0000e+00 3.2719e-01 -1.9688e-01 2.4806e-01 -1.4632e-01
       119 2.7551e+04 0.0000e+00 3.8501e-01 -1.9325e-01 2.9884e-01 -1.4674e-01
       120 6.9932e+05 0.0000e+00 3.3653e-01 -2.0402e-01 2.5549e-01 -1.5360e-01
       121 6.0961e+05 0.0000e+00 4.4138e-01 -1.8803e-01 3.5199e-01 -1.4236e-01
       122 4.7634e+05 0.0000e+00 4.4149e-01 -1.7764e-01 3.4781e-01 -1.3680e-01
       123 5.6290e+02 6.4734e-123 3.9508e-01 -2.2335e-01 3.0705e-01 -1.6229e-01
       124 7.5141e+05 0.0000e+00 3.6655e-01 -1.4683e-01 2.8305e-01 -1.2160e-01
       125 5.8120e+04 0.0000e+00 4.1450e-01 -1.8112e-01 3.2169e-01 -1.2963e-01
       126 1.3547e+05 0.0000e+00 3.7809e-01 -2.1598e-01 2.9180e-01 -1.6040e-01
       127 2.4269e+04 0.0000e+00 3.7816e-01 -2.4103e-01 2.9220e-01 -1.6685e-01
       128 2.3205e+05 0.0000e+00 4.3167e-01 -1.9160e-01 3.3641e-01 -1.4379e-01
       129 7.7081e+05 0.0000e+00 3.6009e-01 -1.4830e-01 2.7921e-01 -1.1602e-01
       130 3.8776e+05 0.0000e+00 3.6574e-01 -1.9410e-01 2.7557e-01 -1.4936e-01
       131 3.1567e+05 0.0000e+00 3.6159e-01 -2.0744e-01 2.7883e-01 -1.4899e-01
       132 3.5311e+02 2.3343e-77 3.9201e-01 -2.3135e-01 3.0397e-01 -1.6619e-01
       133 1.2364e+05 0.0000e+00 3.6948e-01 -2.2181e-01 2.8701e-01 -1.6169e-01
       134 5.7504e+05 0.0000e+00 4.3670e-01 -2.0495e-01 3.4250e-01 -1.5562e-01
       135 2.6673e+04 0.0000e+00 4.0709e-01 -2.0321e-01 3.1805e-01 -1.5221e-01
       136 8.7803e+03 0.0000e+00 3.9192e-01 -2.0258e-01 3.0546e-01 -1.5399e-01
       137 7.1174e+04 0.0000e+00 4.0644e-01 -2.1807e-01 3.1675e-01 -1.5488e-01
       138 1.2423e+05 0.0000e+00 4.3126e-01 -1.8175e-01 3.3485e-01 -1.3781e-01
       139 4.1946e+05 0.0000e+00 3.5775e-01 -2.0935e-01 2.7712e-01 -1.4177e-01
       140 5.2960e+05 0.0000e+00 4.3289e-01 -2.2459e-01 3.3733e-01 -1.5326e-01
       141 3.0940e+04 0.0000e+00 4.0056e-01 -1.6224e-01 3.1821e-01 -1.2512e-01
       142 2.6100e+04 0.0000e+00 3.7437e-01 -2.0111e-01 2.9125e-01 -1.5083e-01
       143 3.7961e+04 0.0000e+00 3.7816e-01 -1.9260e-01 2.9455e-01 -1.4619e-01
       144 5.3024e+01 3.3883e-12 3.8914e-01 -2.4788e-01 3.0320e-01 -1.6861e-01
       145 1.6843e+04 0.0000e+00 4.0919e-01 -1.9004e-01 3.1757e-01 -1.4313e-01
       146 1.1033e+06 0.0000e+00 3.5095e-01 -1.6026e-01 2.6746e-01 -1.1985e-01
       147 4.4628e+03 0.0000e+00 4.0256e-01 -2.0602e-01 3.1214e-01 -1.5779e-01
       148 3.4039e+05 0.0000e+00 4.2914e-01 -1.9079e-01 3.3922e-01 -1.4356e-01
       149 6.3526e+04 0.0000e+00 4.0454e-01 -1.5125e-01 3.1452e-01 -1.1519e-01
       150 4.0619e+05 0.0000e+00 4.3204e-01 -1.8689e-01 3.3355e-01 -1.2659e-01
       151 1.5159e+05 0.0000e+00 4.1509e-01 -2.1321e-01 3.2568e-01 -1.5495e-01
       152 1.1643e+06 0.0000e+00 4.5868e-01 -1.7251e-01 3.6434e-01 -1.3451e-01
       153 3.0869e+04 0.0000e+00 4.1113e-01 -1.9653e-01 3.2251e-01 -1.4427e-01
       154 2.9544e+03 0.0000e+00 3.9848e-01 -1.9586e-01 3.0720e-01 -1.4871e-01
       155 1.0874e+05 0.0000e+00 3.8022e-01 -1.9401e-01 2.9198e-01 -1.3836e-01
       156 6.0817e+04 0.0000e+00 4.0912e-01 -1.9451e-01 3.2033e-01 -1.5358e-01
       157 8.9624e+05 0.0000e+00 3.4378e-01 -1.8868e-01 2.6435e-01 -1.3397e-01
       158 1.0638e+05 0.0000e+00 3.8216e-01 -1.8092e-01 2.9849e-01 -1.2754e-01
       159 1.6421e+06 0.0000e+00 4.7083e-01 -1.9764e-01 3.7083e-01 -1.5469e-01
       160 6.0543e+04 0.0000e+00 4.2053e-01 -1.8528e-01 3.2612e-01 -1.4453e-01
       161 7.3765e+04 0.0000e+00 3.8677e-01 -1.8324e-01 2.9773e-01 -1.4637e-01
       162 9.0422e+05 0.0000e+00 4.5219e-01 -2.0676e-01 3.4920e-01 -1.5289e-01
       163 3.3391e+05 0.0000e+00 4.2790e-01 -2.0667e-01 3.3844e-01 -1.4736e-01
       164 6.9240e+05 0.0000e+00 3.3663e-01 -2.2340e-01 2.5561e-01 -1.5958e-01
       165 1.1001e+04 0.0000e+00 3.9934e-01 -2.3019e-01 3.0705e-01 -1.6407e-01
       166 1.7491e+05 0.0000e+00 3.8379e-01 -1.8800e-01 2.9575e-01 -1.4546e-01
       167 4.8310e+04 0.0000e+00 3.8588e-01 -1.8740e-01 2.9864e-01 -1.4075e-01
       168 9.3612e+04 0.0000e+00 4.1489e-01 -1.8374e-01 3.1904e-01 -1.4635e-01
       169 2.3368e+05 0.0000e+00 3.7621e-01 -1.7623e-01 2.8407e-01 -1.3242e-01
       170 2.3521e+05 0.0000e+00 3.7529e-01 -1.9459e-01 2.8640e-01 -1.4613e-01
       171 9.4179e+05 0.0000e+00 3.2955e-01 -2.2033e-01 2.5122e-01 -1.5932e-01
       172 1.0484e+05 0.0000e+00 4.1582e-01 -2.2530e-01 3.2235e-01 -1.6162e-01
       173 3.8076e+05 0.0000e+00 4.4522e-01 -1.7823e-01 3.4715e-01 -1.4301e-01
       174 1.8660e+05 0.0000e+00 3.8502e-01 -1.5766e-01 2.9735e-01 -1.1818e-01
       175 3.7714e+05 0.0000e+00 3.6643e-01 -1.9569e-01 2.8239e-01 -1.4452e-01
       176 4.0018e+05 0.0000e+00 4.3478e-01 -1.9810e-01 3.4301e-01 -1.5485e-01
       177 1.7473e+05 0.0000e+00 4.2323e-01 -2.0720e-01 3.3025e-01 -1.4469e-01
       178 2.6515e+05 0.0000e+00 4.1872e-01 -2.2004e-01 3.2813e-01 -1.5715e-01
       179 4.7364e+05 0.0000e+00 3.5226e-01 -2.0248e-01 2.6924e-01 -1.4936e-01
       180 4.0869e+04 0.0000e+00 4.1665e-01 -1.7753e-01 3.1933e-01 -1.2945e-01
       181 4.1606e+05 0.0000e+00 3.7404e-01 -1.9847e-01 2.8664e-01 -1.4098e-01
       182 2.3409e+04 0.0000e+00 4.1512e-01 -1.8185e-01 3.2115e-01 -1.3632e-01
       183 3.9874e+05 0.0000e+00 4.2050e-01 -2.1914e-01 3.2496e-01 -1.5432e-01
       184 1.3030e+05 0.0000e+00 3.8288e-01 -2.1338e-01 2.8924e-01 -1.4726e-01
       185 2.0700e+06 0.0000e+00 3.1157e-01 -1.8319e-01 2.3855e-01 -1.4426e-01
       186 3.1504e+05 0.0000e+00 4.3782e-01 -1.9679e-01 3.4033e-01 -1.4072e-01
       187 1.1741e+06 0.0000e+00 4.6134e-01 -1.7987e-01 3.6346e-01 -1.3584e-01
       188 9.2577e+04 0.0000e+00 3.5693e-01 -2.6620e-01 2.7618e-01 -1.7078e-01
       189 3.7127e+04 0.0000e+00 3.8716e-01 -2.2738e-01 3.0145e-01 -1.6080e-01
       190 3.1405e+05 0.0000e+00 3.7058e-01 -1.9489e-01 2.8506e-01 -1.5162e-01
       191 6.0438e+05 0.0000e+00 3.5208e-01 -1.8254e-01 2.7079e-01 -1.4269e-01
       192 8.9650e+05 0.0000e+00 3.3737e-01 -2.0688e-01 2.6049e-01 -1.5695e-01
       193 3.2190e+04 0.0000e+00 4.1305e-01 -1.7199e-01 3.2135e-01 -1.3421e-01
       194 1.7266e+05 0.0000e+00 3.5599e-01 -2.3736e-01 2.7433e-01 -1.6457e-01
       195 2.7859e+03 0.0000e+00 4.0507e-01 -1.9984e-01 3.1448e-01 -1.4496e-01
       196 1.5380e+06 0.0000e+00 3.5231e-01 -1.3492e-01 2.6882e-01 -1.0753e-01
       197 6.1910e+05 0.0000e+00 3.4840e-01 -1.9639e-01 2.6710e-01 -1.5019e-01
       198 6.5711e+03 0.0000e+00 3.9933e-01 -2.1450e-01 3.1658e-01 -1.5923e-01
       199 5.6415e+01 6.2184e-13 3.9056e-01 -1.9214e-01 3.0442e-01 -1.4740e-01
       200 2.1524e+05 0.0000e+00 4.2498e-01 -1.6640e-01 3.2987e-01 -1.2720e-01
       201 2.4741e+05 0.0000e+00 3.7850e-01 -1.7212e-01 2.8880e-01 -1.2983e-01
       202 2.7103e+04 0.0000e+00 3.9089e-01 -1.7928e-01 3.0272e-01 -1.3167e-01
       203 4.0814e+05 0.0000e+00 4.2170e-01 -2.3350e-01 3.3277e-01 -1.5813e-01
       204 8.3291e+04 0.0000e+00 4.1454e-01 -1.3266e-01 3.1858e-01 -1.0018e-01
       205 7.0566e+04 0.0000e+00 3.9168e-01 -1.7127e-01 3.0498e-01 -1.3142e-01
       206 1.9551e+05 0.0000e+00 3.6571e-01 -2.1624e-01 2.8151e-01 -1.5868e-01
       207 6.4178e+03 0.0000e+00 3.8521e-01 -2.0302e-01 2.9795e-01 -1.5635e-01
       208 5.6180e+05 0.0000e+00 3.6247e-01 -1.8631e-01 2.7944e-01 -1.4078e-01
       209 7.0108e+03 0.0000e+00 3.9459e-01 -1.8056e-01 3.0574e-01 -1.3816e-01
       210 2.9024e+05 0.0000e+00 3.6510e-01 -1.8702e-01 2.8033e-01 -1.4858e-01
       211 6.8773e+05 0.0000e+00 3.4626e-01 -2.3503e-01 2.6355e-01 -1.6537e-01
       212 5.4438e+03 0.0000e+00 3.9248e-01 -2.0949e-01 3.0467e-01 -1.5140e-01
       213 1.1531e+06 0.0000e+00 4.4900e-01 -2.0233e-01 3.5452e-01 -1.4894e-01
       214 1.0753e+06 0.0000e+00 3.4754e-01 -1.9927e-01 2.6591e-01 -1.3992e-01
       215 1.0395e+05 0.0000e+00 3.7825e-01 -2.0717e-01 2.9118e-01 -1.4598e-01
       216 1.8750e+05 0.0000e+00 3.6985e-01 -2.1251e-01 2.8421e-01 -1.5099e-01
       217 4.8665e+03 0.0000e+00 4.0002e-01 -2.0267e-01 3.1196e-01 -1.4754e-01
       218 9.0005e+05 0.0000e+00 3.5790e-01 -1.8245e-01 2.7489e-01 -1.4077e-01
       219 1.7353e+05 0.0000e+00 4.1311e-01 -2.2123e-01 3.2817e-01 -1.5524e-01
       220 1.2499e+06 0.0000e+00 4.5816e-01 -2.0494e-01 3.6036e-01 -1.4913e-01
       221 8.6447e+05 0.0000e+00 3.4348e-01 -1.9329e-01 2.6444e-01 -1.4076e-01
       222 1.2513e+05 0.0000e+00 3.8983e-01 -1.6883e-01 2.9800e-01 -1.3733e-01
       223 4.2369e+03 0.0000e+00 4.0585e-01 -1.6156e-01 3.1694e-01 -1.2974e-01
       224 1.5240e+05 0.0000e+00 3.8948e-01 -1.7692e-01 2.9816e-01 -1.3467e-01
       225 4.4381e+05 0.0000e+00 3.7032e-01 -1.7519e-01 2.8535e-01 -1.3270e-01
       226 8.5096e+05 0.0000e+00 4.4143e-01 -2.1065e-01 3.4323e-01 -1.5210e-01
       227 7.3523e+01 1.1983e-16 3.9753e-01 -1.9774e-01 3.0924e-01 -1.3685e-01
       228 3.2934e+05 0.0000e+00 3.5944e-01 -1.9784e-01 2.7785e-01 -1.5289e-01
       229 1.0188e+03 6.6474e-222 3.9348e-01 -1.9539e-01 3.0571e-01 -1.3467e-01
       230 1.0746e+06 0.0000e+00 3.3621e-01 -1.6213e-01 2.5721e-01 -1.3128e-01
       231 5.1259e+05 0.0000e+00 3.7395e-01 -1.8613e-01 2.8509e-01 -1.3994e-01
       232 1.2918e+06 0.0000e+00 3.4188e-01 -1.7183e-01 2.6491e-01 -1.3285e-01
       233 1.2949e+06 0.0000e+00 3.2805e-01 -1.8321e-01 2.5251e-01 -1.4713e-01
       234 3.9944e+03 0.0000e+00 4.0122e-01 -1.7243e-01 3.1087e-01 -1.2609e-01
       235 1.0483e+05 0.0000e+00 4.1772e-01 -1.9481e-01 3.2832e-01 -1.3889e-01
       236 3.2725e+05 0.0000e+00 3.7349e-01 -1.8193e-01 2.8627e-01 -1.3461e-01
       237 6.1801e+05 0.0000e+00 3.4731e-01 -1.7639e-01 2.6972e-01 -1.3757e-01
       238 1.2892e+05 0.0000e+00 4.3256e-01 -1.7328e-01 3.3707e-01 -1.3280e-01
       239 1.2068e+05 0.0000e+00 4.2561e-01 -2.2168e-01 3.3143e-01 -1.6127e-01
       240 3.2092e+04 0.0000e+00 3.8378e-01 -2.2095e-01 2.9615e-01 -1.5947e-01
       241 1.9268e+05 0.0000e+00 3.6788e-01 -2.2834e-01 2.8699e-01 -1.6434e-01
       242 3.6427e+05 0.0000e+00 4.3713e-01 -1.6540e-01 3.4038e-01 -1.2326e-01
       243 4.4303e+03 0.0000e+00 4.0193e-01 -1.6154e-01 3.1294e-01 -1.2929e-01
       244 5.9202e+04 0.0000e+00 3.8361e-01 -1.8794e-01 2.9979e-01 -1.4144e-01
       245 1.9250e+01 7.3108e-05 3.8891e-01 -2.0865e-01 3.0103e-01 -1.5449e-01
       246 5.5897e+05 0.0000e+00 4.3435e-01 -2.1925e-01 3.4062e-01 -1.5767e-01
       247 2.5422e+05 0.0000e+00 4.3750e-01 -1.5979e-01 3.4317e-01 -1.0627e-01
       248 9.4994e+03 0.0000e+00 4.1816e-01 -1.9020e-01 3.2396e-01 -1.5075e-01
       249 1.2035e+06 0.0000e+00 3.3441e-01 -1.9067e-01 2.5726e-01 -1.4785e-01
       250 3.6349e+05 0.0000e+00 3.6822e-01 -1.7366e-01 2.8206e-01 -1.3046e-01
       251 3.3725e+05 0.0000e+00 3.6759e-01 -2.3353e-01 2.8436e-01 -1.5240e-01
       252 1.3465e+04 0.0000e+00 4.0923e-01 -1.6327e-01 3.2285e-01 -1.1573e-01
       253 2.1010e+03 0.0000e+00 3.8854e-01 -2.2059e-01 2.9981e-01 -1.5826e-01
       254 1.5394e+05 0.0000e+00 3.8248e-01 -1.6412e-01 2.9412e-01 -1.2444e-01
       255 4.7047e+05 0.0000e+00 4.3512e-01 -2.0477e-01 3.4165e-01 -1.5460e-01
       256 1.0741e+06 0.0000e+00 4.5759e-01 -2.1654e-01 3.6222e-01 -1.5576e-01
       257 5.9690e+05 0.0000e+00 4.3591e-01 -1.9557e-01 3.4333e-01 -1.3984e-01
       258 5.5226e+05 0.0000e+00 4.4607e-01 -1.9810e-01 3.5109e-01 -1.4720e-01
       259 2.1351e+05 0.0000e+00 4.1238e-01 -2.3693e-01 3.2274e-01 -1.5885e-01
       260 7.6061e+04 0.0000e+00 3.7629e-01 -1.9126e-01 2.9111e-01 -1.4394e-01
       261 6.6592e+05 0.0000e+00 3.4181e-01 -1.9723e-01 2.5748e-01 -1.4708e-01
       262 1.7452e+05 0.0000e+00 3.8817e-01 -1.6295e-01 2.9978e-01 -1.2168e-01
       263 2.6135e+03 0.0000e+00 3.8813e-01 -2.5152e-01 3.0064e-01 -1.6993e-01
       264 2.3074e+06 0.0000e+00 3.1972e-01 -1.9374e-01 2.4199e-01 -1.3956e-01
       265 4.2203e+05 0.0000e+00 3.4910e-01 -2.3678e-01 2.6734e-01 -1.6530e-01
       266 3.4366e+04 0.0000e+00 4.0252e-01 -1.5736e-01 3.1290e-01 -1.2567e-01
       267 8.6292e+03 0.0000e+00 3.8819e-01 -2.0383e-01 2.9879e-01 -1.4756e-01
       268 1.2123e+05 0.0000e+00 3.7915e-01 -1.7878e-01 2.9602e-01 -1.3382e-01
       269 1.2751e+05 0.0000e+00 3.7558e-01 -2.3486e-01 2.8603e-01 -1.5999e-01
       270 3.4875e+04 0.0000e+00 4.1408e-01 -1.7835e-01 3.2466e-01 -1.3584e-01
       271 1.0789e+03 5.9442e-235 3.9892e-01 -1.4597e-01 3.0763e-01 -1.1472e-01
       272 4.4242e+04 0.0000e+00 3.8075e-01 -1.8843e-01 2.9675e-01 -1.4288e-01
       273 1.0512e+06 0.0000e+00 4.5696e-01 -2.0077e-01 3.5770e-01 -1.4321e-01
       274 8.1740e+03 0.0000e+00 4.0413e-01 -1.8696e-01 3.1461e-01 -1.4494e-01
       275 6.0547e+05 0.0000e+00 4.4480e-01 -1.7994e-01 3.4927e-01 -1.3369e-01
       276 2.5696e+05 0.0000e+00 4.3192e-01 -2.1260e-01 3.3433e-01 -1.5847e-01
       277 1.3781e+01 1.1259e-03 4.0080e-01 -2.2155e-01 3.1158e-01 -1.5966e-01
       278 1.1983e+05 0.0000e+00 4.2069e-01 -1.4426e-01 3.3047e-01 -1.0935e-01
       279 1.0214e+05 0.0000e+00 3.9092e-01 -1.8023e-01 3.0155e-01 -1.4559e-01
       280 1.2688e+06 0.0000e+00 4.5996e-01 -2.0981e-01 3.6177e-01 -1.5466e-01
       281 3.0413e+05 0.0000e+00 3.6757e-01 -2.0055e-01 2.8513e-01 -1.4857e-01
       282 1.1216e+06 0.0000e+00 3.3531e-01 -2.1915e-01 2.5843e-01 -1.5649e-01
       283 2.7057e+03 0.0000e+00 3.9549e-01 -1.8583e-01 3.0887e-01 -1.4029e-01
       284 3.8857e+04 0.0000e+00 4.0660e-01 -1.9947e-01 3.1793e-01 -1.5097e-01
       285 1.0512e+04 0.0000e+00 3.9196e-01 -1.7847e-01 3.0659e-01 -1.3732e-01
       286 1.1313e+04 0.0000e+00 4.1306e-01 -1.6760e-01 3.1539e-01 -1.2982e-01
       287 4.8651e+05 0.0000e+00 3.6084e-01 -1.9030e-01 2.7731e-01 -1.2719e-01
       288 2.9473e+05 0.0000e+00 4.2792e-01 -1.9840e-01 3.3293e-01 -1.4834e-01
       289 7.2898e+02 5.5949e-159 4.0400e-01 -1.6617e-01 3.1742e-01 -1.2624e-01
       290 2.0579e+05 0.0000e+00 4.2358e-01 -1.9328e-01 3.2957e-01 -1.4472e-01
       291 1.0468e+06 0.0000e+00 4.6069e-01 -1.9109e-01 3.6437e-01 -1.4121e-01
       292 2.2308e+05 0.0000e+00 3.6685e-01 -2.2418e-01 2.8265e-01 -1.6281e-01
       293 1.6561e+04 0.0000e+00 3.9940e-01 -2.2770e-01 3.0972e-01 -1.6267e-01
       294 2.5955e+05 0.0000e+00 3.6089e-01 -1.9350e-01 2.7757e-01 -1.3903e-01
       295 8.5664e+05 0.0000e+00 3.4303e-01 -1.8634e-01 2.6360e-01 -1.3997e-01
       296 9.7871e+04 0.0000e+00 3.7335e-01 -1.9806e-01 2.8893e-01 -1.4593e-01
       297 1.1345e+04 0.0000e+00 4.1540e-01 -1.7616e-01 3.2792e-01 -1.2621e-01
       298 7.7658e+03 0.0000e+00 3.9098e-01 -2.0539e-01 3.0511e-01 -1.4946e-01
       299 6.8177e+05 0.0000e+00 3.4718e-01 -1.9122e-01 2.6540e-01 -1.4857e-01
       300 7.8033e+01 1.2572e-17 4.0036e-01 -1.9432e-01 3.1446e-01 -1.4242e-01
       301 1.7674e+05 0.0000e+00 4.1489e-01 -1.8934e-01 3.1946e-01 -1.3670e-01
       302 4.1099e+05 0.0000e+00 4.4434e-01 -2.0351e-01 3.4819e-01 -1.5468e-01
       303 1.6251e+02 5.6922e-36 3.9280e-01 -1.9340e-01 3.0846e-01 -1.4987e-01
       304 4.0692e+05 0.0000e+00 4.3399e-01 -1.8855e-01 3.3637e-01 -1.3760e-01
       305 9.2318e+05 0.0000e+00 3.5880e-01 -1.7061e-01 2.7542e-01 -1.2773e-01
       306 9.6524e+03 0.0000e+00 4.0135e-01 -1.7323e-01 3.1519e-01 -1.3583e-01
       307 9.8763e+04 0.0000e+00 3.7864e-01 -1.7164e-01 2.9471e-01 -1.3504e-01
       308 6.8415e+05 0.0000e+00 3.3727e-01 -2.8558e-01 2.5968e-01 -1.7535e-01
       309 1.6804e+06 0.0000e+00 3.3931e-01 -1.4043e-01 2.5959e-01 -1.0992e-01
       310 9.0529e+03 0.0000e+00 4.0791e-01 -1.7307e-01 3.2241e-01 -1.3174e-01
       311 2.2354e+06 0.0000e+00 3.2476e-01 -1.6021e-01 2.4580e-01 -1.1943e-01
       312 2.3336e+06 0.0000e+00 4.7046e-01 -2.2000e-01 3.6980e-01 -1.5661e-01
       313 2.9310e+06 0.0000e+00 2.9019e-01 -2.0611e-01 2.2413e-01 -1.5127e-01
       314 2.3168e+04 0.0000e+00 4.0141e-01 -1.9203e-01 3.1217e-01 -1.3847e-01
       315 5.6495e+05 0.0000e+00 3.5808e-01 -2.1397e-01 2.7601e-01 -1.5825e-01
       316 1.3456e+05 0.0000e+00 4.2468e-01 -1.9247e-01 3.2960e-01 -1.4841e-01
       317 2.6665e+06 0.0000e+00 2.9692e-01 -1.6758e-01 2.2791e-01 -1.2049e-01
       318 3.1643e+03 0.0000e+00 3.9184e-01 -2.2148e-01 3.0562e-01 -1.6041e-01
       319 4.6303e+04 0.0000e+00 3.8714e-01 -1.9170e-01 3.0343e-01 -1.4076e-01
       320 1.0531e+06 0.0000e+00 3.4075e-01 -1.7546e-01 2.5949e-01 -1.3290e-01
       321 6.7956e+05 0.0000e+00 4.3804e-01 -2.0324e-01 3.4313e-01 -1.5289e-01
       322 1.5020e+04 0.0000e+00 4.1962e-01 -1.6264e-01 3.2554e-01 -1.2783e-01
       323 4.7749e+04 0.0000e+00 3.8417e-01 -2.0481e-01 2.9556e-01 -1.5509e-01
       324 7.6474e+05 0.0000e+00 3.4525e-01 -2.0292e-01 2.6216e-01 -1.5381e-01
       325 9.4714e+03 0.0000e+00 3.9439e-01 -1.9297e-01 3.0364e-01 -1.4110e-01
       326 2.8964e+05 0.0000e+00 3.7525e-01 -2.0512e-01 2.8711e-01 -1.5393e-01
       327 3.6371e+05 0.0000e+00 4.5746e-01 -1.3338e-01 3.6006e-01 -1.0486e-01
       328 4.1540e+05 0.0000e+00 4.2366e-01 -2.1326e-01 3.3135e-01 -1.5744e-01
       329 1.2934e+05 0.0000e+00 4.2187e-01 -1.8058e-01 3.3078e-01 -1.3471e-01
       330 1.3482e+06 0.0000e+00 3.2188e-01 -2.1460e-01 2.4822e-01 -1.5708e-01
       331 8.3104e+04 0.0000e+00 4.1473e-01 -1.7308e-01 3.2407e-01 -1.4243e-01
       332 1.2292e+05 0.0000e+00 3.6599e-01 -2.2070e-01 2.8548e-01 -1.6078e-01
       333 6.1722e+01 4.3766e-14 3.8633e-01 -2.2655e-01 2.9757e-01 -1.6351e-01
       334 3.9223e+05 0.0000e+00 3.4009e-01 -2.4079e-01 2.6402e-01 -1.6512e-01
       335 2.9663e+04 0.0000e+00 4.0962e-01 -2.0513e-01 3.2283e-01 -1.5503e-01
       336 1.7623e+04 0.0000e+00 4.1144e-01 -1.7758e-01 3.2185e-01 -1.3710e-01
       337 4.3946e+04 0.0000e+00 3.8495e-01 -1.9674e-01 2.9811e-01 -1.4122e-01
       338 4.3152e+05 0.0000e+00 4.4061e-01 -2.1754e-01 3.4404e-01 -1.5480e-01
       339 9.3022e+03 0.0000e+00 4.1067e-01 -2.0068e-01 3.1663e-01 -1.5527e-01
       340 1.4188e+06 0.0000e+00 3.4876e-01 -1.7949e-01 2.6896e-01 -1.3544e-01
       341 1.0265e+06 0.0000e+00 3.4110e-01 -1.8212e-01 2.6305e-01 -1.3919e-01
       342 1.8712e+03 0.0000e+00 3.8186e-01 -2.2061e-01 2.9518e-01 -1.5505e-01
       343 1.4856e+05 0.0000e+00 3.7903e-01 -1.7360e-01 2.9064e-01 -1.3824e-01
       344 4.3950e+04 0.0000e+00 3.6600e-01 -2.2382e-01 2.8407e-01 -1.6072e-01
       345 1.7191e+05 0.0000e+00 3.6478e-01 -1.8880e-01 2.8547e-01 -1.3474e-01
       346 1.0116e+05 0.0000e+00 3.9844e-01 -1.4104e-01 3.1248e-01 -1.1028e-01
       347 1.2838e+06 0.0000e+00 4.5784e-01 -2.0703e-01 3.6061e-01 -1.5760e-01
       348 1.8358e+05 0.0000e+00 3.6431e-01 -2.3752e-01 2.8044e-01 -1.6545e-01
       349 7.1661e+04 0.0000e+00 3.7903e-01 -2.2009e-01 2.9285e-01 -1.5541e-01
       350 1.6679e+05 0.0000e+00 3.7444e-01 -2.1225e-01 2.8525e-01 -1.5810e-01
       351 4.3715e+00 1.2438e-01 4.0265e-01 -2.0887e-01 3.1084e-01 -1.5747e-01
       352 2.1397e+02 3.8184e-47 4.0560e-01 -1.8070e-01 3.1596e-01 -1.4418e-01
       353 3.9889e+04 0.0000e+00 3.8947e-01 -1.9290e-01 3.0066e-01 -1.4482e-01
       354 2.4465e+05 0.0000e+00 3.6733e-01 -2.1027e-01 2.8310e-01 -1.5126e-01
       355 5.0082e+04 0.0000e+00 4.1190e-01 -2.0217e-01 3.1586e-01 -1.5212e-01
       356 3.8851e+05 0.0000e+00 4.2588e-01 -1.9762e-01 3.3432e-01 -1.5017e-01
       357 6.0439e+05 0.0000e+00 3.5753e-01 -1.9917e-01 2.7710e-01 -1.4647e-01
       358 1.6580e+05 0.0000e+00 4.2997e-01 -1.9841e-01 3.3089e-01 -1.4741e-01
       359 5.9892e+04 0.0000e+00 3.7442e-01 -2.0796e-01 2.9101e-01 -1.4772e-01
       360 7.4557e+05 0.0000e+00 3.4691e-01 -1.8786e-01 2.6440e-01 -1.4575e-01
       361 1.2905e+06 0.0000e+00 3.4661e-01 -1.6724e-01 2.6582e-01 -1.3322e-01
       362 4.0248e+05 0.0000e+00 3.6992e-01 -2.0654e-01 2.8473e-01 -1.5238e-01
       363 1.1229e+04 0.0000e+00 3.9050e-01 -2.1792e-01 3.0119e-01 -1.5889e-01
       364 2.2268e+05 0.0000e+00 4.3057e-01 -2.0373e-01 3.3554e-01 -1.5022e-01
       365 1.5407e+05 0.0000e+00 4.1926e-01 -2.0823e-01 3.2758e-01 -1.5113e-01
       366 2.1359e+04 0.0000e+00 3.9556e-01 -1.9087e-01 3.0597e-01 -1.4987e-01
       367 2.7289e+05 0.0000e+00 3.7730e-01 -1.7703e-01 2.8823e-01 -1.3560e-01
       368 5.8437e+05 0.0000e+00 3.5252e-01 -2.3522e-01 2.7185e-01 -1.6037e-01
       369 5.9477e+05 0.0000e+00 4.3029e-01 -2.1008e-01 3.4011e-01 -1.5234e-01
       370 2.6802e+05 0.0000e+00 3.6210e-01 -1.6893e-01 2.7947e-01 -1.2971e-01
       371 2.3436e+05 0.0000e+00 3.5542e-01 -2.2960e-01 2.7296e-01 -1.6001e-01
       372 1.2837e+05 0.0000e+00 4.2051e-01 -2.1687e-01 3.3030e-01 -1.5655e-01
       373 3.2040e+05 0.0000e+00 3.8186e-01 -1.7015e-01 2.9289e-01 -1.3391e-01
       374 1.9888e+05 0.0000e+00 3.7300e-01 -2.2195e-01 2.8686e-01 -1.5876e-01
       375 3.4838e+02 2.4823e-76 3.9521e-01 -1.9451e-01 3.0830e-01 -1.5035e-01
       376 1.1076e+05 0.0000e+00 3.7035e-01 -2.3897e-01 2.8309e-01 -1.6423e-01
       377 8.5496e+04 0.0000e+00 3.8769e-01 -2.1618e-01 3.0014e-01 -1.5442e-01
       378 9.7490e+04 0.0000e+00 3.8115e-01 -2.0756e-01 2.9658e-01 -1.5792e-01
       379 4.6177e+04 0.0000e+00 3.9395e-01 -1.6660e-01 3.0083e-01 -1.2655e-01
       380 1.7989e+06 0.0000e+00 3.3315e-01 -1.5157e-01 2.5195e-01 -1.2412e-01
       381 7.6904e+05 0.0000e+00 4.4895e-01 -1.9545e-01 3.5660e-01 -1.4520e-01
       382 8.9739e+05 0.0000e+00 3.3425e-01 -1.9294e-01 2.5561e-01 -1.3980e-01
       383 8.0635e+04 0.0000e+00 3.7500e-01 -1.8190e-01 2.9231e-01 -1.3698e-01
       384 2.7622e+05 0.0000e+00 4.3867e-01 -1.7054e-01 3.4783e-01 -1.1379e-01
       385 1.9716e+06 0.0000e+00 3.3307e-01 -1.3935e-01 2.5230e-01 -1.0915e-01
       386 2.4696e+05 0.0000e+00 4.3557e-01 -1.9092e-01 3.3838e-01 -1.4820e-01
       387 2.2521e+05 0.0000e+00 3.6528e-01 -1.8658e-01 2.8630e-01 -1.4388e-01
       388 2.0905e+05 0.0000e+00 4.1977e-01 -2.2165e-01 3.2708e-01 -1.6095e-01
       389 5.4652e+05 0.0000e+00 3.5970e-01 -1.9247e-01 2.8021e-01 -1.4760e-01
       390 2.0378e+05 0.0000e+00 3.5687e-01 -2.5585e-01 2.7862e-01 -1.6589e-01
       391 4.2931e+05 0.0000e+00 4.3322e-01 -2.0796e-01 3.4094e-01 -1.4236e-01
       392 1.0471e+05 0.0000e+00 3.7917e-01 -1.8349e-01 2.9351e-01 -1.4813e-01
       393 3.2221e+02 1.1928e-70 3.9874e-01 -2.0124e-01 3.0641e-01 -1.4712e-01
       394 1.1156e+04 0.0000e+00 4.0164e-01 -1.8333e-01 3.1228e-01 -1.4449e-01
       395 5.8042e+05 0.0000e+00 3.6228e-01 -1.3598e-01 2.7868e-01 -1.0905e-01
       396 9.2488e+04 0.0000e+00 4.1898e-01 -1.7145e-01 3.3027e-01 -1.2519e-01
       397 1.4974e+05 0.0000e+00 4.2077e-01 -2.1524e-01 3.3338e-01 -1.4621e-01
       398 5.0716e+05 0.0000e+00 3.5717e-01 -1.6461e-01 2.7680e-01 -1.2855e-01
       399 6.1092e+05 0.0000e+00 4.4352e-01 -1.8953e-01 3.4817e-01 -1.4270e-01
       400 5.4073e+05 0.0000e+00 3.6073e-01 -1.9186e-01 2.7349e-01 -1.4404e-01
       401 8.3602e+05 0.0000e+00 3.3430e-01 -2.3417e-01 2.5730e-01 -1.4828e-01
       402 4.6170e+05 0.0000e+00 4.4086e-01 -1.9562e-01 3.5129e-01 -1.3977e-01
       403 6.1887e+05 0.0000e+00 4.4243e-01 -1.8798e-01 3.4228e-01 -1.4845e-01
       404 3.9584e+05 0.0000e+00 3.3926e-01 -2.5625e-01 2.6143e-01 -1.6854e-01
       405 2.9462e+05 0.0000e+00 4.3635e-01 -2.2226e-01 3.4110e-01 -1.5709e-01
       406 7.4174e+03 0.0000e+00 3.8800e-01 -2.2143e-01 3.0046e-01 -1.6024e-01
       407 2.6014e+05 0.0000e+00 3.6214e-01 -1.9719e-01 2.8004e-01 -1.4287e-01
       408 2.8595e+04 0.0000e+00 4.0443e-01 -1.5208e-01 3.0779e-01 -1.2956e-01
       409 3.6596e+04 0.0000e+00 4.0223e-01 -2.1997e-01 3.1340e-01 -1.5492e-01
       410 3.9087e+04 0.0000e+00 4.2467e-01 -2.2417e-01 3.2491e-01 -1.5799e-01
       411 4.1340e+05 0.0000e+00 3.3659e-01 -2.5363e-01 2.5656e-01 -1.7007e-01
       412 7.0545e+04 0.0000e+00 4.1906e-01 -1.7350e-01 3.3072e-01 -1.3415e-01
       413 4.6362e+04 0.0000e+00 3.8533e-01 -2.0431e-01 3.0010e-01 -1.4432e-01
       414 6.7241e+04 0.0000e+00 4.1561e-01 -2.1250e-01 3.2411e-01 -1.4667e-01
       415 3.7909e+05 0.0000e+00 3.5913e-01 -1.9637e-01 2.7224e-01 -1.5297e-01
       416 3.2845e+03 0.0000e+00 4.0672e-01 -2.0736e-01 3.1440e-01 -1.5262e-01
       417 1.3272e+05 0.0000e+00 4.2398e-01 -1.6489e-01 3.2287e-01 -1.2054e-01
       418 5.9713e+03 0.0000e+00 4.0468e-01 -1.9762e-01 3.1671e-01 -1.5393e-01
       419 2.4711e+04 0.0000e+00 3.8535e-01 -2.1549e-01 2.9910e-01 -1.5325e-01
       420 9.1397e+05 0.0000e+00 3.5376e-01 -1.8002e-01 2.7034e-01 -1.3608e-01
       421 5.4206e+05 0.0000e+00 3.5008e-01 -2.3461e-01 2.6667e-01 -1.5730e-01
       422 3.4162e+04 0.0000e+00 3.9082e-01 -1.8119e-01 3.0322e-01 -1.4096e-01
       423 3.6450e+05 0.0000e+00 3.6228e-01 -1.9389e-01 2.7963e-01 -1.4419e-01
       424 7.0020e+05 0.0000e+00 3.5179e-01 -1.9859e-01 2.7208e-01 -1.4315e-01
       425 9.2306e+05 0.0000e+00 4.5576e-01 -1.5858e-01 3.5870e-01 -1.2124e-01
       426 1.1197e+06 0.0000e+00 3.4787e-01 -1.7345e-01 2.6610e-01 -1.3118e-01
       427 2.3586e+04 0.0000e+00 3.8960e-01 -2.0239e-01 2.9942e-01 -1.4679e-01
       428 1.9799e+05 0.0000e+00 3.7729e-01 -2.1567e-01 2.9060e-01 -1.5707e-01
       429 1.1634e+05 0.0000e+00 3.7445e-01 -1.8507e-01 2.8928e-01 -1.3907e-01
       430 2.7011e+05 0.0000e+00 4.3359e-01 -2.0305e-01 3.4220e-01 -1.5292e-01
       431 3.6188e+04 0.0000e+00 4.0374e-01 -2.1256e-01 3.1291e-01 -1.5342e-01
       432 4.6198e+04 0.0000e+00 4.1199e-01 -1.9784e-01 3.2155e-01 -1.4552e-01
       433 8.1891e+05 0.0000e+00 3.5039e-01 -2.1781e-01 2.6696e-01 -1.5506e-01
       434 1.3294e+06 0.0000e+00 3.1865e-01 -2.1091e-01 2.4404e-01 -1.5296e-01
       435 1.0269e+06 0.0000e+00 4.5051e-01 -1.9836e-01 3.5467e-01 -1.5054e-01
       436 5.9957e+05 0.0000e+00 4.3807e-01 -2.2751e-01 3.4665e-01 -1.6104e-01
       437 5.2474e+04 0.0000e+00 4.0639e-01 -2.2235e-01 3.1151e-01 -1.5720e-01
       438 9.0925e+05 0.0000e+00 4.4692e-01 -2.0158e-01 3.5247e-01 -1.5002e-01
       439 3.7638e+04 0.0000e+00 3.8427e-01 -2.1652e-01 2.9714e-01 -1.5230e-01
       440 2.5224e+04 0.0000e+00 4.1054e-01 -2.0896e-01 3.1921e-01 -1.5695e-01
       441 4.3856e+05 0.0000e+00 3.6045e-01 -1.9874e-01 2.7496e-01 -1.4962e-01
       442 3.8022e+05 0.0000e+00 3.4944e-01 -2.5116e-01 2.6658e-01 -1.6650e-01
       443 3.4201e+01 4.1430e-08 3.9766e-01 -2.1815e-01 3.0969e-01 -1.5689e-01
       444 8.1385e+05 0.0000e+00 3.5095e-01 -1.7031e-01 2.6493e-01 -1.3142e-01
       445 1.9271e+04 0.0000e+00 4.0997e-01 -1.8254e-01 3.1728e-01 -1.4034e-01
       446 3.9821e+05 0.0000e+00 4.4553e-01 -1.7824e-01 3.5306e-01 -1.3461e-01
       447 2.7557e+04 0.0000e+00 4.2035e-01 -1.7448e-01 3.2961e-01 -1.3743e-01
       448 4.2057e+03 0.0000e+00 3.9662e-01 -1.9058e-01 3.0824e-01 -1.4961e-01
       449 3.7750e+05 0.0000e+00 3.7437e-01 -1.5580e-01 2.9119e-01 -1.2200e-01
       450 5.8622e+03 0.0000e+00 4.1684e-01 -1.7222e-01 3.1695e-01 -1.4275e-01
       451 3.3832e+04 0.0000e+00 3.8994e-01 -2.0408e-01 2.9543e-01 -1.4854e-01
       452 6.0181e+05 0.0000e+00 3.4477e-01 -1.9380e-01 2.6312e-01 -1.4945e-01
       453 3.9286e+04 0.0000e+00 4.2455e-01 -1.6591e-01 3.2501e-01 -1.2915e-01
       454 5.0605e+04 0.0000e+00 4.0914e-01 -2.1530e-01 3.1770e-01 -1.5460e-01
       455 1.3734e+05 0.0000e+00 4.1248e-01 -2.0966e-01 3.2206e-01 -1.5385e-01
       456 4.7645e+04 0.0000e+00 4.1311e-01 -1.6618e-01 3.2021e-01 -1.2686e-01
       457 3.9293e+05 0.0000e+00 3.5933e-01 -2.0356e-01 2.7468e-01 -1.5119e-01
       458 3.3445e+05 0.0000e+00 4.3302e-01 -2.0177e-01 3.3933e-01 -1.5585e-01
       459 5.4361e+05 0.0000e+00 3.6934e-01 -1.8860e-01 2.8042e-01 -1.3759e-01
       460 1.7927e+04 0.0000e+00 4.0992e-01 -1.8717e-01 3.1948e-01 -1.4638e-01
       461 3.2410e+01 1.0144e-07 3.8620e-01 -2.0029e-01 2.9665e-01 -1.5399e-01
       462 4.4304e+04 0.0000e+00 4.0062e-01 -2.0310e-01 3.1112e-01 -1.5396e-01
       463 1.2334e+05 0.0000e+00 3.7344e-01 -2.0323e-01 2.8520e-01 -1.5288e-01
       464 8.9767e+04 0.0000e+00 4.1269e-01 -1.9301e-01 3.2388e-01 -1.5163e-01
       465 9.8691e+05 0.0000e+00 4.5009e-01 -2.1374e-01 3.5396e-01 -1.5436e-01
       466 1.8301e+05 0.0000e+00 4.2571e-01 -2.0064e-01 3.2773e-01 -1.4339e-01
       467 4.5609e+03 0.0000e+00 3.9875e-01 -1.9646e-01 3.0780e-01 -1.5079e-01
       468 2.6116e+05 0.0000e+00 3.8117e-01 -1.9096e-01 2.9201e-01 -1.4523e-01
       469 7.8455e+03 0.0000e+00 3.9095e-01 -2.1547e-01 3.0535e-01 -1.5889e-01
       470 1.2775e+04 0.0000e+00 4.0220e-01 -1.7984e-01 3.0855e-01 -1.4238e-01
       471 1.2478e+04 0.0000e+00 4.1273e-01 -1.7832e-01 3.2274e-01 -1.3585e-01
       472 5.2408e+05 0.0000e+00 3.4617e-01 -2.3689e-01 2.6853e-01 -1.5136e-01
       473 9.1635e+03 0.0000e+00 3.9608e-01 -1.7261e-01 3.0873e-01 -1.3966e-01
       474 2.0932e+05 0.0000e+00 3.7990e-01 -1.6845e-01 2.9051e-01 -1.3079e-01
       475 7.9114e+05 0.0000e+00 3.3964e-01 -2.4594e-01 2.6190e-01 -1.5947e-01
       476 1.2870e+06 0.0000e+00 3.4784e-01 -1.6714e-01 2.6744e-01 -1.3170e-01
       477 8.3233e+05 0.0000e+00 4.5242e-01 -1.8854e-01 3.5859e-01 -1.4682e-01
       478 1.0964e+05 0.0000e+00 4.1629e-01 -1.8891e-01 3.2359e-01 -1.4776e-01
       479 7.0498e+05 0.0000e+00 4.4728e-01 -2.0173e-01 3.5049e-01 -1.5332e-01
       480 5.0207e+05 0.0000e+00 4.4594e-01 -1.8659e-01 3.5210e-01 -1.4194e-01
       481 1.1427e+05 0.0000e+00 3.8473e-01 -1.8604e-01 2.9938e-01 -1.4523e-01
       482 1.8236e+04 0.0000e+00 3.7090e-01 -2.2360e-01 2.8491e-01 -1.5437e-01
       483 8.4094e+05 0.0000e+00 4.4747e-01 -1.9907e-01 3.5318e-01 -1.4630e-01
       484 1.2273e+06 0.0000e+00 3.4269e-01 -1.6191e-01 2.6152e-01 -1.2655e-01
       485 2.3545e+05 0.0000e+00 3.6235e-01 -1.9479e-01 2.7806e-01 -1.4910e-01
       486 6.3703e+04 0.0000e+00 3.7209e-01 -2.1878e-01 2.9168e-01 -1.5545e-01
       487 3.6603e+03 0.0000e+00 3.9912e-01 -1.8179e-01 3.0980e-01 -1.3652e-01
       488 7.3044e+03 0.0000e+00 3.9988e-01 -2.0855e-01 3.0899e-01 -1.5323e-01
       489 8.2191e+05 0.0000e+00 4.5693e-01 -1.8177e-01 3.5932e-01 -1.3247e-01
       490 2.1980e+05 0.0000e+00 3.6596e-01 -1.8487e-01 2.8213e-01 -1.3959e-01
       491 2.8978e+05 0.0000e+00 3.7784e-01 -1.7371e-01 2.8862e-01 -1.2795e-01
       492 2.9261e+05 0.0000e+00 3.6440e-01 -1.9328e-01 2.8328e-01 -1.4852e-01
       493 1.3588e+04 0.0000e+00 3.9697e-01 -2.1960e-01 3.0831e-01 -1.5306e-01
       494 1.8492e+05 0.0000e+00 3.7183e-01 -2.2531e-01 2.8186e-01 -1.6295e-01
       495 1.2588e+04 0.0000e+00 4.0013e-01 -2.0482e-01 3.1030e-01 -1.4544e-01
       496 5.8100e+05 0.0000e+00 3.5048e-01 -2.0798e-01 2.7280e-01 -1.4186e-01
       497 1.6418e+06 0.0000e+00 3.3176e-01 -1.5880e-01 2.5238e-01 -1.2278e-01
       498 1.4702e+06 0.0000e+00 3.3726e-01 -1.5842e-01 2.5869e-01 -1.2075e-01
       499 4.9440e+05 0.0000e+00 4.3851e-01 -2.1548e-01 3.4944e-01 -1.5563e-01
       500 9.6656e+05 0.0000e+00 3.4991e-01 -1.6957e-01 2.6974e-01 -1.2984e-01
       501 2.8006e+04 0.0000e+00 4.2439e-01 -1.6140e-01 3.3002e-01 -1.2403e-01
       502 1.2988e+04 0.0000e+00 3.8524e-01 -2.1043e-01 2.9904e-01 -1.5624e-01
       503 1.1074e+05 0.0000e+00 3.9116e-01 -1.6774e-01 3.0175e-01 -1.3388e-01
       504 1.7478e+05 0.0000e+00 4.2276e-01 -2.3765e-01 3.3102e-01 -1.6299e-01
       505 9.5618e+05 0.0000e+00 3.3042e-01 -2.2194e-01 2.5284e-01 -1.5899e-01
       506 2.4932e+05 0.0000e+00 3.6526e-01 -2.0833e-01 2.8279e-01 -1.5564e-01
       507 5.2583e+04 0.0000e+00 4.1186e-01 -1.9432e-01 3.1757e-01 -1.4152e-01
       508 1.4453e+06 0.0000e+00 4.6000e-01 -2.0182e-01 3.6709e-01 -1.5538e-01
       509 5.2146e+05 0.0000e+00 3.5213e-01 -2.0549e-01 2.6888e-01 -1.5091e-01
       510 4.1620e+05 0.0000e+00 3.7145e-01 -2.0505e-01 2.8705e-01 -1.5271e-01
       511 3.7126e+05 0.0000e+00 4.2556e-01 -2.1501e-01 3.3393e-01 -1.5094e-01
       512 4.4779e+05 0.0000e+00 3.5784e-01 -2.1046e-01 2.7505e-01 -1.5078e-01
       513 3.5531e+05 0.0000e+00 4.3025e-01 -1.9555e-01 3.3509e-01 -1.4999e-01
       514 4.9402e+04 0.0000e+00 4.1049e-01 -2.0800e-01 3.1894e-01 -1.5367e-01
       515 1.8977e+06 0.0000e+00 3.4074e-01 -1.4031e-01 2.5860e-01 -1.1380e-01
       516 1.1023e+05 0.0000e+00 3.8042e-01 -1.8303e-01 2.9637e-01 -1.3148e-01
       517 3.0216e+05 0.0000e+00 3.6783e-01 -2.0162e-01 2.8160e-01 -1.5426e-01
       518 5.3888e+04 0.0000e+00 4.2712e-01 -1.5948e-01 3.3276e-01 -1.2519e-01
       519 6.9495e+05 0.0000e+00 3.4157e-01 -2.1650e-01 2.6055e-01 -1.5755e-01
       520 3.3989e+05 0.0000e+00 4.3467e-01 -1.8604e-01 3.4145e-01 -1.4203e-01
       521 1.1601e+05 0.0000e+00 4.1657e-01 -1.8865e-01 3.2505e-01 -1.3373e-01
       522 1.0439e+06 0.0000e+00 4.4279e-01 -2.3626e-01 3.4682e-01 -1.5428e-01
       523 2.5043e+05 0.0000e+00 3.6720e-01 -2.0064e-01 2.8112e-01 -1.4927e-01
       524 1.2784e+05 0.0000e+00 3.8073e-01 -2.0123e-01 2.9257e-01 -1.5312e-01
       525 1.0505e+05 0.0000e+00 4.1605e-01 -2.1982e-01 3.2641e-01 -1.6136e-01
       526 3.0694e+05 0.0000e+00 3.5929e-01 -1.7046e-01 2.7880e-01 -1.2957e-01
       527 2.7399e+05 0.0000e+00 4.2388e-01 -1.8881e-01 3.3006e-01 -1.4429e-01
       528 1.6336e+05 0.0000e+00 4.2154e-01 -1.9761e-01 3.2802e-01 -1.4909e-01
       529 7.7227e+05 0.0000e+00 3.3846e-01 -2.0843e-01 2.5926e-01 -1.5039e-01
       530 1.0596e+06 0.0000e+00 4.5724e-01 -1.9948e-01 3.6021e-01 -1.4662e-01
       531 2.2374e+05 0.0000e+00 4.2710e-01 -1.9134e-01 3.3439e-01 -1.4961e-01
       532 1.0142e+06 0.0000e+00 3.5501e-01 -1.4701e-01 2.7275e-01 -1.1532e-01
       533 9.6407e+05 0.0000e+00 4.3987e-01 -2.1205e-01 3.4102e-01 -1.4760e-01
       534 1.3896e+06 0.0000e+00 3.3127e-01 -1.4011e-01 2.5636e-01 -1.0972e-01
       535 9.9879e+05 0.0000e+00 3.5879e-01 -1.6065e-01 2.7352e-01 -1.2417e-01
       536 2.5853e+05 0.0000e+00 3.5873e-01 -2.0599e-01 2.8151e-01 -1.5438e-01
       537 1.1683e+05 0.0000e+00 3.9111e-01 -1.8119e-01 3.0526e-01 -1.4123e-01
       538 3.2857e+05 0.0000e+00 4.3756e-01 -1.7596e-01 3.4233e-01 -1.3161e-01
       539 1.0353e+05 0.0000e+00 4.1869e-01 -1.9132e-01 3.2483e-01 -1.5228e-01
       540 8.9761e+04 0.0000e+00 3.9444e-01 -1.9575e-01 3.0422e-01 -1.4955e-01
       541 9.8369e+03 0.0000e+00 4.0450e-01 -1.8944e-01 3.1570e-01 -1.4711e-01
       542 1.1027e+04 0.0000e+00 4.0988e-01 -1.9626e-01 3.1513e-01 -1.4677e-01
       543 9.1289e+05 0.0000e+00 3.4085e-01 -1.6539e-01 2.6499e-01 -1.2591e-01
       544 2.0180e+06 0.0000e+00 3.2019e-01 -1.5548e-01 2.4558e-01 -1.1403e-01
       545 6.4867e+04 0.0000e+00 4.1078e-01 -1.7419e-01 3.2473e-01 -1.3154e-01
       546 6.3672e+04 0.0000e+00 3.9473e-01 -1.9396e-01 3.0747e-01 -1.4405e-01
       547 3.7810e+03 0.0000e+00 4.1071e-01 -2.0644e-01 3.1768e-01 -1.3956e-01
       548 3.6654e+04 0.0000e+00 3.8946e-01 -1.8206e-01 2.9711e-01 -1.3825e-01
       549 1.3408e+01 1.3570e-03 3.9366e-01 -2.0222e-01 3.0635e-01 -1.5076e-01
       550 3.2523e+05 0.0000e+00 3.6714e-01 -1.6928e-01 2.8343e-01 -1.2882e-01
       551 1.2416e+02 1.2096e-27 3.8945e-01 -2.2772e-01 3.0133e-01 -1.6162e-01
       552 1.0034e+06 0.0000e+00 4.6505e-01 -1.9759e-01 3.6146e-01 -1.5315e-01
       553 3.5642e+05 0.0000e+00 3.7690e-01 -1.9755e-01 2.8636e-01 -1.4791e-01
       554 3.9498e+05 0.0000e+00 3.6800e-01 -1.8293e-01 2.8080e-01 -1.3941e-01
       555 7.7644e+05 0.0000e+00 3.5332e-01 -1.6228e-01 2.6857e-01 -1.2739e-01
       556 2.7725e+04 0.0000e+00 4.1085e-01 -2.0564e-01 3.1842e-01 -1.5418e-01
       557 9.9380e+05 0.0000e+00 3.3608e-01 -1.7899e-01 2.5572e-01 -1.3426e-01
       558 2.0029e+04 0.0000e+00 3.8029e-01 -2.1315e-01 2.9789e-01 -1.5648e-01
       559 2.6987e+05 0.0000e+00 4.1508e-01 -2.1208e-01 3.2785e-01 -1.5348e-01
       560 6.1571e+04 0.0000e+00 4.0881e-01 -2.0628e-01 3.1779e-01 -1.4038e-01
       561 7.6136e+05 0.0000e+00 4.4531e-01 -1.7529e-01 3.4717e-01 -1.2844e-01
       562 1.1579e+05 0.0000e+00 3.8021e-01 -1.9481e-01 2.9153e-01 -1.5146e-01
       563 1.9070e+05 0.0000e+00 4.2278e-01 -2.0336e-01 3.2787e-01 -1.4977e-01
       564 8.2428e+03 0.0000e+00 3.9746e-01 -2.1168e-01 3.0778e-01 -1.5614e-01
       565 2.9651e+05 0.0000e+00 4.2343e-01 -1.9626e-01 3.3156e-01 -1.5178e-01
       566 7.2360e+04 0.0000e+00 4.0932e-01 -2.1999e-01 3.2147e-01 -1.4767e-01
       567 1.1717e+05 0.0000e+00 4.2263e-01 -1.6177e-01 3.3185e-01 -1.2739e-01
       568 1.6743e+05 0.0000e+00 4.2705e-01 -1.8253e-01 3.3234e-01 -1.3985e-01
       569 1.9967e+04 0.0000e+00 4.0886e-01 -2.0361e-01 3.1865e-01 -1.4814e-01
       570 4.7774e+05 0.0000e+00 4.5106e-01 -2.1364e-01 3.5005e-01 -1.5656e-01
       571 3.3027e+05 0.0000e+00 4.2427e-01 -2.1922e-01 3.3410e-01 -1.5910e-01
       572 2.6489e+04 0.0000e+00 4.1664e-01 -1.8775e-01 3.2512e-01 -1.3578e-01
       573 2.0281e+05 0.0000e+00 4.0315e-01 -2.1464e-01 3.1478e-01 -1.5448e-01
       574 2.2174e+05 0.0000e+00 4.2038e-01 -1.6941e-01 3.2809e-01 -1.2203e-01
       575 5.4581e+03 0.0000e+00 4.0536e-01 -1.6753e-01 3.1833e-01 -1.3109e-01
       576 1.0601e+05 0.0000e+00 3.9636e-01 -1.3734e-01 3.0771e-01 -1.0771e-01
       577 2.0275e+06 0.0000e+00 4.7570e-01 -1.9405e-01 3.7310e-01 -1.3930e-01
       578 9.3737e+04 0.0000e+00 3.7873e-01 -2.1765e-01 2.9421e-01 -1.6111e-01
       579 1.3058e+05 0.0000e+00 3.8920e-01 -1.7421e-01 3.0126e-01 -1.3379e-01
       580 1.8447e+06 0.0000e+00 4.6081e-01 -2.0893e-01 3.6364e-01 -1.4356e-01
       581 2.7490e+04 0.0000e+00 3.7800e-01 -2.2367e-01 2.9432e-01 -1.5826e-01
       582 2.9362e+05 0.0000e+00 3.6430e-01 -2.0370e-01 2.8310e-01 -1.5602e-01
       583 1.3049e+05 0.0000e+00 4.2589e-01 -1.6992e-01 3.3516e-01 -1.2061e-01
       584 5.2913e+04 0.0000e+00 4.1154e-01 -1.8580e-01 3.2067e-01 -1.4859e-01
       585 3.5897e+05 0.0000e+00 4.4144e-01 -1.8336e-01 3.4307e-01 -1.3944e-01
       586 2.9252e+05 0.0000e+00 3.5536e-01 -2.2984e-01 2.7343e-01 -1.6306e-01
       587 1.0442e+06 0.0000e+00 3.4421e-01 -1.8331e-01 2.6095e-01 -1.4047e-01
       588 2.8267e+05 0.0000e+00 3.6792e-01 -1.9984e-01 2.8194e-01 -1.5274e-01
       589 1.3140e+05 0.0000e+00 4.1007e-01 -2.1934e-01 3.1928e-01 -1.6014e-01
       590 2.9332e+05 0.0000e+00 3.6206e-01 -2.1262e-01 2.7973e-01 -1.5832e-01
       591 5.1837e+05 0.0000e+00 3.6033e-01 -1.9699e-01 2.7694e-01 -1.5032e-01
       592 2.8300e+05 0.0000e+00 4.2078e-01 -1.9552e-01 3.2899e-01 -1.4826e-01
       593 5.2080e+05 0.0000e+00 3.5723e-01 -1.6849e-01 2.7605e-01 -1.3191e-01
       594 3.3414e+01 6.1416e-08 3.9781e-01 -2.1115e-01 3.0611e-01 -1.5511e-01
       595 4.8340e+05 0.0000e+00 3.6324e-01 -1.6490e-01 2.7989e-01 -1.2923e-01
       596 2.4859e+04 0.0000e+00 4.1045e-01 -1.6319e-01 3.1727e-01 -1.2913e-01
       597 9.8183e+05 0.0000e+00 3.5385e-01 -1.3913e-01 2.7046e-01 -1.0441e-01
       598 4.9588e+02 2.3153e-108 4.1175e-01 -1.7301e-01 3.1844e-01 -1.3446e-01
       599 5.1088e+04 0.0000e+00 3.8837e-01 -2.0077e-01 3.0128e-01 -1.5329e-01
       600 2.0174e+04 0.0000e+00 3.8275e-01 -2.2592e-01 2.9550e-01 -1.5648e-01
       601 4.3140e+04 0.0000e+00 4.0633e-01 -2.0690e-01 3.1675e-01 -1.5654e-01
       602 4.6303e+04 0.0000e+00 4.0028e-01 -2.3436e-01 3.1012e-01 -1.6079e-01
       603 8.3273e+05 0.0000e+00 4.4900e-01 -1.8875e-01 3.5368e-01 -1.3616e-01
       604 3.1464e+04 0.0000e+00 4.1225e-01 -1.8237e-01 3.2463e-01 -1.3494e-01
       605 4.0200e+05 0.0000e+00 4.3373e-01 -2.1365e-01 3.4132e-01 -1.5962e-01
       606 3.3908e+05 0.0000e+00 3.7196e-01 -1.9040e-01 2.8800e-01 -1.4291e-01
       607 3.3780e+02 4.9085e-74 4.0409e-01 -1.7786e-01 3.1450e-01 -1.2999e-01
       608 3.2240e+05 0.0000e+00 4.3221e-01 -2.1929e-01 3.4046e-01 -1.4622e-01
       609 1.3531e+06 0.0000e+00 4.6364e-01 -2.0748e-01 3.6577e-01 -1.4690e-01
       610 3.3563e+05 0.0000e+00 4.3637e-01 -1.8471e-01 3.3683e-01 -1.4656e-01
       611 1.5820e+05 0.0000e+00 3.8005e-01 -1.9559e-01 2.9482e-01 -1.4496e-01
       612 8.6323e+05 0.0000e+00 3.3764e-01 -2.0745e-01 2.5920e-01 -1.5082e-01
       613 7.0236e+05 0.0000e+00 3.5233e-01 -2.1336e-01 2.7039e-01 -1.5964e-01
       614 2.3394e+05 0.0000e+00 3.6270e-01 -1.9975e-01 2.8506e-01 -1.5259e-01
       615 4.7451e+05 0.0000e+00 3.6208e-01 -1.8334e-01 2.7997e-01 -1.4535e-01
       616 4.7834e+05 0.0000e+00 3.5393e-01 -2.1572e-01 2.7342e-01 -1.6024e-01
       617 2.2110e+05 0.0000e+00 3.8526e-01 -1.6503e-01 3.0092e-01 -1.2873e-01
       618 2.6240e+05 0.0000e+00 4.3886e-01 -1.7666e-01 3.4190e-01 -1.3870e-01
       619 1.2528e+05 0.0000e+00 4.0809e-01 -2.1790e-01 3.1632e-01 -1.6075e-01
       620 1.9223e+05 0.0000e+00 4.2369e-01 -2.1225e-01 3.3245e-01 -1.6057e-01
       621 1.9254e+04 0.0000e+00 3.9238e-01 -2.0228e-01 3.0428e-01 -1.4236e-01
       622 2.2207e+05 0.0000e+00 4.2210e-01 -2.1464e-01 3.3348e-01 -1.6102e-01
       623 1.0271e+05 0.0000e+00 4.2852e-01 -1.7275e-01 3.3533e-01 -1.2256e-01
       624 4.4035e+05 0.0000e+00 4.3980e-01 -1.6376e-01 3.4655e-01 -1.2840e-01
       625 6.5677e+04 0.0000e+00 3.8631e-01 -1.8093e-01 2.9746e-01 -1.3917e-01
       626 1.8400e+05 0.0000e+00 4.1674e-01 -1.9643e-01 3.2313e-01 -1.4233e-01
       627 1.1561e+05 0.0000e+00 3.8387e-01 -1.6326e-01 2.9445e-01 -1.2747e-01
       628 1.9541e+05 0.0000e+00 4.3073e-01 -1.5363e-01 3.3805e-01 -1.1666e-01
       629 7.4318e+05 0.0000e+00 4.5738e-01 -1.6128e-01 3.5556e-01 -1.2215e-01
       630 6.7668e+05 0.0000e+00 3.5233e-01 -1.7335e-01 2.6609e-01 -1.3188e-01
       631 1.7087e+05 0.0000e+00 4.3352e-01 -1.5347e-01 3.3372e-01 -1.2288e-01
       632 6.2084e+03 0.0000e+00 3.9942e-01 -2.3186e-01 3.0827e-01 -1.6448e-01
       633 1.5975e+05 0.0000e+00 4.1633e-01 -2.1329e-01 3.1878e-01 -1.5848e-01
       634 1.0424e+06 0.0000e+00 4.6246e-01 -2.0175e-01 3.6076e-01 -1.5090e-01
       635 1.4737e+05 0.0000e+00 4.1405e-01 -1.9005e-01 3.2603e-01 -1.4368e-01
       636 4.7307e+04 0.0000e+00 3.7906e-01 -2.4148e-01 2.9605e-01 -1.6812e-01
       637 1.0676e+05 0.0000e+00 3.8649e-01 -1.7454e-01 2.9787e-01 -1.3994e-01
       638 4.4965e+05 0.0000e+00 3.5393e-01 -1.8546e-01 2.7216e-01 -1.3279e-01
       639 3.7697e+05 0.0000e+00 3.5433e-01 -2.1458e-01 2.7171e-01 -1.5643e-01
       640 5.9846e+05 0.0000e+00 3.4840e-01 -1.8956e-01 2.6671e-01 -1.4644e-01
       641 1.0517e+05 0.0000e+00 4.1886e-01 -2.0419e-01 3.2120e-01 -1.5074e-01
       642 6.2609e+05 0.0000e+00 4.4406e-01 -1.9801e-01 3.4887e-01 -1.4904e-01
       643 2.6434e+04 0.0000e+00 3.9417e-01 -1.6552e-01 3.0412e-01 -1.2365e-01
       644 5.4432e+05 0.0000e+00 3.6594e-01 -1.6084e-01 2.8261e-01 -1.2775e-01
       645 8.7581e+03 0.0000e+00 3.9736e-01 -2.0348e-01 3.0823e-01 -1.5426e-01
       646 1.8074e+05 0.0000e+00 4.2426e-01 -2.1010e-01 3.3330e-01 -1.5170e-01
       647 5.8079e+03 0.0000e+00 3.8962e-01 -2.2429e-01 3.0167e-01 -1.5242e-01
       648 9.1770e+01 1.3070e-20 4.1187e-01 -1.8509e-01 3.1850e-01 -1.4484e-01
       649 1.2588e+06 0.0000e+00 3.5071e-01 -1.1714e-01 2.6761e-01 -9.4864e-02
       650 6.0853e+05 0.0000e+00 3.4676e-01 -1.9925e-01 2.6570e-01 -1.4258e-01
       651 2.1607e+05 0.0000e+00 3.6360e-01 -2.3689e-01 2.8165e-01 -1.6342e-01
       652 1.0209e+06 0.0000e+00 3.4854e-01 -1.5784e-01 2.6733e-01 -1.2740e-01
       653 4.5530e+04 0.0000e+00 4.1179e-01 -2.0943e-01 3.2330e-01 -1.5815e-01
       654 1.0572e+04 0.0000e+00 4.2374e-01 -1.3324e-01 3.3119e-01 -1.0737e-01
       655 7.6235e+04 0.0000e+00 3.7769e-01 -2.4980e-01 2.9194e-01 -1.6925e-01
       656 3.2022e+05 0.0000e+00 3.6978e-01 -1.6987e-01 2.8644e-01 -1.2807e-01
       657 8.3713e+03 0.0000e+00 3.9520e-01 -2.2629e-01 3.0465e-01 -1.5534e-01
       658 7.8851e+04 0.0000e+00 3.9473e-01 -1.8134e-01 2.9899e-01 -1.3521e-01
       659 1.2518e+06 0.0000e+00 4.4870e-01 -2.1015e-01 3.5847e-01 -1.5076e-01
       660 4.1453e+05 0.0000e+00 4.3588e-01 -1.7848e-01 3.3818e-01 -1.3841e-01
       661 1.1214e+06 0.0000e+00 3.3617e-01 -1.6079e-01 2.5658e-01 -1.2814e-01
       662 1.9075e+04 0.0000e+00 3.8346e-01 -2.2911e-01 3.0011e-01 -1.6175e-01
       663 7.0179e+05 0.0000e+00 4.4485e-01 -1.8229e-01 3.4806e-01 -1.3775e-01
       664 1.9643e+03 0.0000e+00 3.9940e-01 -2.1453e-01 3.0934e-01 -1.5733e-01
       665 2.6122e+03 0.0000e+00 4.0310e-01 -1.7823e-01 3.1156e-01 -1.3789e-01
       666 3.9715e+04 0.0000e+00 4.0102e-01 -1.7672e-01 3.0988e-01 -1.4111e-01
       667 1.6988e+05 0.0000e+00 4.3366e-01 -1.7579e-01 3.3126e-01 -1.4061e-01
       668 3.3902e+04 0.0000e+00 4.0273e-01 -2.1624e-01 3.1417e-01 -1.5067e-01
       669 1.4045e+05 0.0000e+00 4.1687e-01 -2.0508e-01 3.2645e-01 -1.5293e-01
       670 4.9727e+04 0.0000e+00 3.8984e-01 -2.1140e-01 3.0120e-01 -1.5678e-01
       671 2.2979e+04 0.0000e+00 4.0605e-01 -1.9401e-01 3.1349e-01 -1.4538e-01
       672 6.6258e+05 0.0000e+00 3.5400e-01 -1.9554e-01 2.7129e-01 -1.5073e-01
       673 6.1200e+05 0.0000e+00 3.5671e-01 -1.9386e-01 2.7262e-01 -1.4557e-01
       674 3.2241e+05 0.0000e+00 3.7341e-01 -1.6615e-01 2.8743e-01 -1.3015e-01
       675 1.0023e+06 0.0000e+00 4.6418e-01 -1.6276e-01 3.6149e-01 -1.2455e-01
       676 4.7811e+05 0.0000e+00 4.4537e-01 -1.7418e-01 3.4535e-01 -1.3550e-01
       677 1.7022e+04 0.0000e+00 4.1621e-01 -2.2491e-01 3.2238e-01 -1.6159e-01
       678 7.9000e+05 0.0000e+00 4.4075e-01 -2.1969e-01 3.4790e-01 -1.5786e-01
       679 1.6145e+05 0.0000e+00 4.1022e-01 -2.1143e-01 3.2298e-01 -1.5709e-01
       680 2.5694e+05 0.0000e+00 3.6466e-01 -1.9738e-01 2.8224e-01 -1.5427e-01
       681 1.8871e+06 0.0000e+00 4.7166e-01 -2.1006e-01 3.7441e-01 -1.5302e-01
       682 1.4825e+05 0.0000e+00 3.7847e-01 -1.9928e-01 2.9641e-01 -1.4856e-01
       683 9.4330e+04 0.0000e+00 3.8241e-01 -1.8050e-01 2.9716e-01 -1.3883e-01
       684 1.4629e+05 0.0000e+00 3.8041e-01 -1.8497e-01 2.9213e-01 -1.4710e-01
       685 3.0244e+05 0.0000e+00 4.3899e-01 -1.9546e-01 3.3934e-01 -1.4418e-01
       686 2.1603e+05 0.0000e+00 4.3056e-01 -2.0531e-01 3.3513e-01 -1.5511e-01
       687 4.2447e+05 0.0000e+00 4.3270e-01 -2.1336e-01 3.3578e-01 -1.5402e-01
       688 4.4360e+05 0.0000e+00 4.4465e-01 -1.6462e-01 3.4636e-01 -1.2960e-01
       689 3.8242e+04 0.0000e+00 3.7443e-01 -2.3234e-01 2.9201e-01 -1.6528e-01
       690 1.6129e+05 0.0000e+00 3.7752e-01 -2.1155e-01 2.9056e-01 -1.5801e-01
       691 2.8065e+05 0.0000e+00 3.6570e-01 -2.0565e-01 2.8141e-01 -1.4649e-01
       692 1.9958e+04 0.0000e+00 4.1278e-01 -1.6038e-01 3.2292e-01 -1.2716e-01
       693 3.8335e+05 0.0000e+00 3.7337e-01 -1.7564e-01 2.8645e-01 -1.2072e-01
       694 5.5822e+05 0.0000e+00 4.4662e-01 -1.8253e-01 3.4835e-01 -1.4132e-01
       695 5.3128e+05 0.0000e+00 3.6501e-01 -1.8652e-01 2.8148e-01 -1.2798e-01
       696 1.2120e+02 5.3204e-27 3.8841e-01 -2.3107e-01 3.0241e-01 -1.6218e-01
       697 1.6225e+05 0.0000e+00 3.7875e-01 -2.2202e-01 2.8879e-01 -1.5867e-01
       698 1.4175e+06 0.0000e+00 3.2251e-01 -1.9862e-01 2.4533e-01 -1.5005e-01
       699 3.7842e+05 0.0000e+00 3.5306e-01 -2.0078e-01 2.7433e-01 -1.4624e-01
       700 1.3152e+06 0.0000e+00 3.4845e-01 -1.7367e-01 2.6766e-01 -1.3197e-01
       701 7.6089e+05 0.0000e+00 3.4207e-01 -2.1022e-01 2.6521e-01 -1.5117e-01
       702 4.1588e+01 1.0311e-09 3.9331e-01 -1.9780e-01 3.0695e-01 -1.4782e-01
       703 1.7504e+06 0.0000e+00 4.7198e-01 -2.1459e-01 3.7287e-01 -1.5702e-01
       704 1.0434e+06 0.0000e+00 3.4721e-01 -2.0123e-01 2.6314e-01 -1.5005e-01
       705 9.4059e+04 0.0000e+00 3.7236e-01 -2.0053e-01 2.8601e-01 -1.4844e-01
       706 8.5585e+05 0.0000e+00 3.4969e-01 -1.5843e-01 2.6718e-01 -1.3050e-01
       707 1.7418e+06 0.0000e+00 3.4975e-01 -1.4221e-01 2.6248e-01 -1.1212e-01
       708 7.4940e+05 0.0000e+00 4.5204e-01 -1.7513e-01 3.5214e-01 -1.3465e-01
       709 3.6277e+05 0.0000e+00 3.7318e-01 -2.2481e-01 2.8728e-01 -1.6215e-01
       710 1.7595e+05 0.0000e+00 3.8209e-01 -1.9562e-01 2.9573e-01 -1.5149e-01
       711 5.5420e+05 0.0000e+00 4.3959e-01 -2.1296e-01 3.4705e-01 -1.5925e-01
       712 1.2695e+05 0.0000e+00 4.2612e-01 -2.1774e-01 3.2948e-01 -1.5315e-01
       713 2.7160e+05 0.0000e+00 3.6423e-01 -2.1646e-01 2.8332e-01 -1.6125e-01
       714 1.8080e+05 0.0000e+00 4.2408e-01 -1.8878e-01 3.2699e-01 -1.5006e-01
       715 8.1556e+05 0.0000e+00 4.5229e-01 -1.8154e-01 3.5403e-01 -1.3592e-01
       716 1.5675e+02 1.0149e-34 4.0749e-01 -1.7365e-01 3.1800e-01 -1.2940e-01
       717 2.6625e+05 0.0000e+00 4.3075e-01 -1.8718e-01 3.3888e-01 -1.4619e-01
       718 1.1381e+06 0.0000e+00 3.4090e-01 -1.8106e-01 2.6228e-01 -1.4111e-01
       719 4.6392e+04 0.0000e+00 3.9156e-01 -1.8753e-01 3.0240e-01 -1.3910e-01
       720 1.3262e+05 0.0000e+00 4.3285e-01 -1.5194e-01 3.4049e-01 -1.1725e-01
       721 8.7404e+05 0.0000e+00 4.4730e-01 -1.8373e-01 3.5131e-01 -1.3671e-01
       722 6.3545e+04 0.0000e+00 4.2335e-01 -2.1198e-01 3.2906e-01 -1.5547e-01
       723 7.8046e+05 0.0000e+00 3.5176e-01 -2.0265e-01 2.7321e-01 -1.5463e-01
       724 5.6857e+04 0.0000e+00 4.1997e-01 -1.4671e-01 3.2943e-01 -1.1045e-01
       725 6.6287e+05 0.0000e+00 3.6072e-01 -1.7473e-01 2.7869e-01 -1.4028e-01
       726 1.1941e+06 0.0000e+00 4.6609e-01 -1.9589e-01 3.6527e-01 -1.5001e-01
       727 6.1560e+05 0.0000e+00 4.4763e-01 -1.9380e-01 3.5202e-01 -1.4761e-01
       728 7.0063e+02 8.0001e-153 4.0369e-01 -1.8251e-01 3.1653e-01 -1.3257e-01
       729 7.2584e+05 0.0000e+00 3.4849e-01 -2.0033e-01 2.7004e-01 -1.4910e-01
       730 4.1954e+05 0.0000e+00 3.6043e-01 -2.0338e-01 2.7535e-01 -1.5623e-01
       731 1.9134e+06 0.0000e+00 4.8047e-01 -1.8801e-01 3.7932e-01 -1.4103e-01
       732 8.8062e+05 0.0000e+00 3.4624e-01 -1.6633e-01 2.6560e-01 -1.2907e-01
       733 1.3375e+06 0.0000e+00 4.5692e-01 -1.9366e-01 3.6104e-01 -1.4936e-01
       734 3.4444e+03 0.0000e+00 3.9648e-01 -1.8874e-01 3.0648e-01 -1.3052e-01
       735 7.5735e+04 0.0000e+00 4.0970e-01 -1.9659e-01 3.2182e-01 -1.4214e-01
       736 2.8490e+05 0.0000e+00 3.7417e-01 -1.7189e-01 2.9104e-01 -1.4134e-01
       737 2.1832e+05 0.0000e+00 4.2566e-01 -1.9715e-01 3.2898e-01 -1.4836e-01
       738 1.3782e+06 0.0000e+00 3.3049e-01 -1.9988e-01 2.5279e-01 -1.4400e-01
       739 5.3206e+05 0.0000e+00 4.2939e-01 -1.8591e-01 3.3581e-01 -1.4724e-01
       740 9.6815e+04 0.0000e+00 3.8044e-01 -1.8210e-01 2.9796e-01 -1.4276e-01
       741 5.2980e+05 0.0000e+00 3.5404e-01 -1.8660e-01 2.7299e-01 -1.4590e-01
       742 2.1044e+04 0.0000e+00 3.8966e-01 -2.0293e-01 3.0137e-01 -1.4631e-01
       743 2.5579e+05 0.0000e+00 4.2579e-01 -2.2219e-01 3.3284e-01 -1.5836e-01
       744 3.6297e+05 0.0000e+00 3.5184e-01 -2.1535e-01 2.7087e-01 -1.5565e-01
       745 9.4157e+04 0.0000e+00 4.1512e-01 -2.2373e-01 3.2345e-01 -1.5924e-01
       746 1.2769e+05 0.0000e+00 4.1840e-01 -1.9309e-01 3.2578e-01 -1.4690e-01
       747 9.1143e+03 0.0000e+00 3.8810e-01 -2.0315e-01 3.0380e-01 -1.5429e-01
       748 5.1099e+03 0.0000e+00 3.9711e-01 -1.9508e-01 3.0661e-01 -1.4359e-01
       749 2.8502e+04 0.0000e+00 4.0294e-01 -2.0959e-01 3.0604e-01 -1.5378e-01
       750 1.0855e+04 0.0000e+00 4.0722e-01 -2.0032e-01 3.1380e-01 -1.5306e-01
       751 1.7730e+06 0.0000e+00 3.3008e-01 -1.8291e-01 2.4735e-01 -1.3604e-01
       752 5.5784e+05 0.0000e+00 3.4549e-01 -2.0480e-01 2.6553e-01 -1.5386e-01
       753 3.8814e+05 0.0000e+00 3.6225e-01 -1.8428e-01 2.7969e-01 -1.4381e-01
       754 7.6907e+05 0.0000e+00 3.5295e-01 -1.9265e-01 2.7409e-01 -1.4229e-01
       755 4.4800e+05 0.0000e+00 4.2364e-01 -1.9803e-01 3.3280e-01 -1.3661e-01
       756 1.5298e+06 0.0000e+00 3.3152e-01 -2.0924e-01 2.5256e-01 -1.5734e-01
       757 9.9835e+05 0.0000e+00 4.6202e-01 -1.5429e-01 3.6569e-01 -1.2272e-01
       758 1.3164e+06 0.0000e+00 3.3762e-01 -1.5395e-01 2.5750e-01 -1.2380e-01
       759 4.7735e+04 0.0000e+00 4.0740e-01 -1.9686e-01 3.1661e-01 -1.4801e-01
       760 4.8476e+05 0.0000e+00 4.3217e-01 -2.3069e-01 3.4248e-01 -1.4946e-01
       761 5.8056e+03 0.0000e+00 4.0077e-01 -1.8382e-01 3.0958e-01 -1.4500e-01
       762 5.6223e+05 0.0000e+00 3.4332e-01 -2.1213e-01 2.6318e-01 -1.5798e-01
       763 3.3422e+04 0.0000e+00 3.7972e-01 -1.9431e-01 2.9277e-01 -1.5016e-01
       764 5.4106e+05 0.0000e+00 3.6396e-01 -2.0537e-01 2.8103e-01 -1.5164e-01
       765 2.3030e+02 1.0817e-50 3.9850e-01 -2.3340e-01 3.0393e-01 -1.6101e-01
       766 1.2797e+03 1.4579e-278 4.0982e-01 -1.7285e-01 3.1831e-01 -1.2773e-01
       767 2.5674e+06 0.0000e+00 4.7967e-01 -1.9911e-01 3.7975e-01 -1.5251e-01
       768 3.4415e+05 0.0000e+00 3.7476e-01 -2.0693e-01 2.8507e-01 -1.5152e-01
       769 7.4752e+03 0.0000e+00 4.0677e-01 -1.9204e-01 3.1930e-01 -1.3416e-01
       770 9.5651e+05 0.0000e+00 3.3837e-01 -1.7887e-01 2.6028e-01 -1.3331e-01
       771 1.2067e+05 0.0000e+00 4.2641e-01 -1.9897e-01 3.3357e-01 -1.5345e-01
       772 1.4699e+02 1.3346e-32 4.0223e-01 -1.8832e-01 3.1222e-01 -1.4086e-01
       773 2.3878e+03 0.0000e+00 4.0561e-01 -1.6404e-01 3.1323e-01 -1.2857e-01
       774 5.3005e+02 8.8221e-116 4.0937e-01 -1.8618e-01 3.1792e-01 -1.3777e-01
       775 5.7973e+05 0.0000e+00 4.4501e-01 -2.0744e-01 3.4999e-01 -1.5733e-01
       776 1.0063e+05 0.0000e+00 4.0343e-01 -2.2415e-01 3.1221e-01 -1.5601e-01
       777 3.4118e+05 0.0000e+00 4.3734e-01 -1.6944e-01 3.4250e-01 -1.3256e-01
       778 2.9858e+05 0.0000e+00 3.7357e-01 -1.7073e-01 2.8880e-01 -1.3377e-01
       779 5.5092e+05 0.0000e+00 3.7256e-01 -1.5549e-01 2.8462e-01 -1.2571e-01
       780 3.5498e+05 0.0000e+00 3.6153e-01 -1.9626e-01 2.7931e-01 -1.4805e-01
       781 5.5921e+05 0.0000e+00 4.4268e-01 -1.9478e-01 3.4792e-01 -1.4850e-01
       782 8.8514e+05 0.0000e+00 3.6877e-01 -1.5637e-01 2.7913e-01 -1.1693e-01
       783 4.1837e+05 0.0000e+00 3.4979e-01 -2.3632e-01 2.6746e-01 -1.6438e-01
       784 3.0081e+05 0.0000e+00 3.7280e-01 -1.8019e-01 2.8413e-01 -1.3309e-01
       785 3.1576e+05 0.0000e+00 4.2624e-01 -2.1821e-01 3.3379e-01 -1.5437e-01
       786 1.7075e+04 0.0000e+00 3.9335e-01 -1.9377e-01 3.0477e-01 -1.4292e-01
       787 4.3794e+01 3.4212e-10 4.1174e-01 -1.7150e-01 3.1944e-01 -1.3443e-01
       788 1.0365e+06 0.0000e+00 4.6512e-01 -1.7113e-01 3.6517e-01 -1.2090e-01
       789 2.5551e+05 0.0000e+00 3.5711e-01 -2.3060e-01 2.7300e-01 -1.6499e-01
       790 8.8980e+05 0.0000e+00 3.5407e-01 -1.5683e-01 2.7357e-01 -1.2333e-01
       791 2.1019e+05 0.0000e+00 4.3076e-01 -1.9180e-01 3.3752e-01 -1.3488e-01
       792 3.2077e+03 0.0000e+00 3.9823e-01 -2.0941e-01 3.0888e-01 -1.5737e-01
       793 5.9421e+05 0.0000e+00 4.3935e-01 -2.2098e-01 3.4120e-01 -1.5733e-01
       794 5.7285e+05 0.0000e+00 3.5901e-01 -1.9426e-01 2.7733e-01 -1.4479e-01
       795 2.2231e+05 0.0000e+00 4.2776e-01 -2.0264e-01 3.3337e-01 -1.5243e-01
       796 1.4997e+06 0.0000e+00 3.2765e-01 -2.0658e-01 2.5095e-01 -1.3498e-01
       797 4.8722e+05 0.0000e+00 3.5171e-01 -2.0074e-01 2.7089e-01 -1.5100e-01
       798 1.3009e+05 0.0000e+00 4.2942e-01 -2.0445e-01 3.3538e-01 -1.4127e-01
       799 8.6990e+03 0.0000e+00 4.0693e-01 -1.7638e-01 3.1633e-01 -1.2959e-01
       800 1.0375e+06 0.0000e+00 4.5959e-01 -2.0094e-01 3.6263e-01 -1.4909e-01
       801 7.6293e+04 0.0000e+00 3.7400e-01 -2.0891e-01 2.8824e-01 -1.5188e-01
       802 7.1840e+05 0.0000e+00 4.5119e-01 -1.5215e-01 3.5358e-01 -1.2363e-01
       803 4.7588e+05 0.0000e+00 4.4089e-01 -1.9050e-01 3.4413e-01 -1.4632e-01
       804 1.2046e+05 0.0000e+00 4.2558e-01 -1.2868e-01 3.3406e-01 -9.7738e-02
       805 4.4917e+05 0.0000e+00 3.4725e-01 -2.2097e-01 2.6796e-01 -1.6307e-01
       806 7.1741e+05 0.0000e+00 4.4803e-01 -1.8445e-01 3.5257e-01 -1.2996e-01
       807 5.3208e+04 0.0000e+00 4.0953e-01 -1.8571e-01 3.1688e-01 -1.3322e-01
       808 9.8853e+04 0.0000e+00 3.7755e-01 -2.3240e-01 2.9370e-01 -1.6067e-01
       809 1.2253e+05 0.0000e+00 3.6339e-01 -2.1396e-01 2.7797e-01 -1.5361e-01
       810 1.4388e+06 0.0000e+00 3.3146e-01 -1.7499e-01 2.5386e-01 -1.3617e-01
       811 8.8517e+04 0.0000e+00 4.2358e-01 -1.5519e-01 3.3065e-01 -1.2168e-01
       812 1.1368e+05 0.0000e+00 3.7992e-01 -1.7135e-01 2.9623e-01 -1.2694e-01
       813 5.9625e+04 0.0000e+00 4.1555e-01 -2.3133e-01 3.2593e-01 -1.6265e-01
       814 3.3969e+04 0.0000e+00 3.8838e-01 -2.0107e-01 3.0247e-01 -1.4092e-01
       815 5.5758e+04 0.0000e+00 3.9415e-01 -1.6103e-01 3.0655e-01 -1.2647e-01
       816 7.9996e+04 0.0000e+00 4.2199e-01 -1.9739e-01 3.2603e-01 -1.4330e-01
       817 5.6945e+03 0.0000e+00 4.2513e-01 -1.6777e-01 3.3276e-01 -1.3611e-01
       818 4.6459e+05 0.0000e+00 3.6812e-01 -1.9510e-01 2.8302e-01 -1.4519e-01
       819 1.7117e+06 0.0000e+00 4.5838e-01 -2.0849e-01 3.6128e-01 -1.5411e-01
       820 1.5396e+04 0.0000e+00 4.0164e-01 -1.7677e-01 3.1282e-01 -1.3568e-01
       821 4.8179e+03 0.0000e+00 3.9454e-01 -1.7102e-01 3.0550e-01 -1.3432e-01
       822 1.9892e+06 0.0000e+00 4.6957e-01 -2.0177e-01 3.6981e-01 -1.4924e-01
       823 4.8713e+05 0.0000e+00 3.5407e-01 -2.0529e-01 2.6990e-01 -1.5595e-01
       824 3.3388e+04 0.0000e+00 3.6961e-01 -2.3602e-01 2.8615e-01 -1.6601e-01
       825 2.5328e+03 0.0000e+00 3.8439e-01 -2.6361e-01 2.9729e-01 -1.6264e-01
       826 2.9455e+05 0.0000e+00 4.2297e-01 -2.0586e-01 3.3221e-01 -1.5575e-01
       827 6.6002e+01 5.1505e-15 4.0728e-01 -1.7682e-01 3.1726e-01 -1.4403e-01
       828 1.2966e+05 0.0000e+00 3.7618e-01 -1.9382e-01 2.8963e-01 -1.4697e-01
       829 1.1283e+04 0.0000e+00 4.0212e-01 -1.9732e-01 3.1017e-01 -1.4675e-01
       830 5.9676e+04 0.0000e+00 4.1676e-01 -2.3333e-01 3.2389e-01 -1.5883e-01
       831 1.4905e+05 0.0000e+00 4.1616e-01 -2.0994e-01 3.2167e-01 -1.4847e-01
       832 1.1784e+06 0.0000e+00 3.5195e-01 -1.5035e-01 2.7304e-01 -1.1959e-01
       833 1.7890e+05 0.0000e+00 3.7039e-01 -2.1343e-01 2.8458e-01 -1.5220e-01
       834 1.4315e+06 0.0000e+00 4.5980e-01 -2.0065e-01 3.6355e-01 -1.3512e-01
       835 1.7721e+05 0.0000e+00 4.0594e-01 -2.3509e-01 3.1935e-01 -1.5533e-01
       836 4.6901e+05 0.0000e+00 4.3356e-01 -1.9075e-01 3.4331e-01 -1.4564e-01
       837 1.1166e+06 0.0000e+00 3.3484e-01 -2.0066e-01 2.5515e-01 -1.5360e-01
       838 1.3709e+04 0.0000e+00 3.8213e-01 -2.0407e-01 2.9800e-01 -1.4260e-01
       839 9.3452e+03 0.0000e+00 4.2302e-01 -1.4830e-01 3.2659e-01 -1.2209e-01
       840 4.7335e+05 0.0000e+00 3.6552e-01 -1.8127e-01 2.7746e-01 -1.3007e-01
       841 1.9645e+05 0.0000e+00 4.1699e-01 -1.9286e-01 3.2633e-01 -1.4342e-01
       842 1.6876e+04 0.0000e+00 4.0301e-01 -2.0486e-01 3.1436e-01 -1.4581e-01
       843 2.4390e+06 0.0000e+00 3.0027e-01 -1.8659e-01 2.2914e-01 -1.4077e-01
       844 1.2964e+05 0.0000e+00 4.1974e-01 -1.8180e-01 3.2584e-01 -1.4392e-01
       845 1.1410e+05 0.0000e+00 4.2850e-01 -2.2107e-01 3.3591e-01 -1.5795e-01
       846 7.7323e+05 0.0000e+00 4.5133e-01 -1.8149e-01 3.5324e-01 -1.3501e-01
       847 8.7580e+04 0.0000e+00 4.1089e-01 -2.1845e-01 3.2041e-01 -1.5347e-01
       848 6.5271e+04 0.0000e+00 4.1633e-01 -2.2732e-01 3.2202e-01 -1.6365e-01
       849 5.6642e+04 0.0000e+00 3.7758e-01 -2.0551e-01 2.9236e-01 -1.4116e-01
       850 2.9741e+03 0.0000e+00 4.1403e-01 -1.7227e-01 3.1933e-01 -1.3466e-01
       851 5.6216e+04 0.0000e+00 3.9070e-01 -1.9141e-01 3.0051e-01 -1.4335e-01
       852 1.4429e+04 0.0000e+00 4.1244e-01 -1.4393e-01 3.2229e-01 -1.0444e-01
       853 4.5047e+04 0.0000e+00 3.8520e-01 -2.1322e-01 2.9451e-01 -1.5882e-01
       854 3.0573e+05 0.0000e+00 4.4933e-01 -1.7959e-01 3.4772e-01 -1.4354e-01
       855 1.5725e+06 0.0000e+00 3.5788e-01 -1.4434e-01 2.7297e-01 -1.0940e-01
       856 1.4639e+04 0.0000e+00 3.8566e-01 -2.0402e-01 2.9903e-01 -1.5573e-01
       857 1.1272e+06 0.0000e+00 4.6625e-01 -1.7423e-01 3.6642e-01 -1.3447e-01
       858 2.6176e+04 0.0000e+00 3.8252e-01 -1.8743e-01 2.9576e-01 -1.4529e-01
       859 5.1364e+04 0.0000e+00 4.0268e-01 -2.0550e-01 3.1476e-01 -1.5615e-01
       860 9.3149e+05 0.0000e+00 3.5992e-01 -1.7396e-01 2.7266e-01 -1.3301e-01
       861 1.2480e+05 0.0000e+00 3.7661e-01 -1.7678e-01 2.9481e-01 -1.3301e-01
       862 1.0359e+05 0.0000e+00 4.2062e-01 -1.8347e-01 3.2582e-01 -1.3562e-01
       863 3.9676e+04 0.0000e+00 3.9098e-01 -2.0460e-01 3.0601e-01 -1.5019e-01
       864 4.9964e+05 0.0000e+00 4.3891e-01 -2.0065e-01 3.4390e-01 -1.5385e-01
       865 6.9445e+04 0.0000e+00 4.1198e-01 -1.9315e-01 3.2360e-01 -1.4698e-01
       866 2.7047e+05 0.0000e+00 4.2507e-01 -2.1778e-01 3.3102e-01 -1.5902e-01
       867 1.8047e+04 0.0000e+00 3.8800e-01 -2.2442e-01 3.0216e-01 -1.5468e-01
       868 3.3572e+04 0.0000e+00 3.7362e-01 -2.0502e-01 2.9196e-01 -1.5218e-01
       869 3.4513e+04 0.0000e+00 3.9084e-01 -1.7490e-01 3.0727e-01 -1.2517e-01
       870 6.9395e+05 0.0000e+00 3.6207e-01 -1.7383e-01 2.8029e-01 -1.3440e-01
       871 1.0381e+05 0.0000e+00 3.7860e-01 -2.0703e-01 2.9189e-01 -1.5238e-01
       872 6.6920e+05 0.0000e+00 3.6186e-01 -1.7017e-01 2.7995e-01 -1.3664e-01
       873 1.0789e+06 0.0000e+00 3.4082e-01 -2.0810e-01 2.6121e-01 -1.5312e-01
       874 5.8769e+05 0.0000e+00 4.2940e-01 -2.3749e-01 3.3361e-01 -1.5204e-01
       875 5.8602e+03 0.0000e+00 3.9998e-01 -2.0714e-01 3.1241e-01 -1.4889e-01
       876 1.5001e+05 0.0000e+00 3.9086e-01 -1.8199e-01 3.0074e-01 -1.3573e-01
       877 6.5774e+04 0.0000e+00 4.3117e-01 -1.5135e-01 3.3408e-01 -1.2329e-01
       878 2.1565e+04 0.0000e+00 3.9276e-01 -1.8185e-01 3.1039e-01 -1.3217e-01
       879 6.5941e+05 0.0000e+00 4.5209e-01 -1.7324e-01 3.5408e-01 -1.2649e-01
       880 9.2574e+05 0.0000e+00 4.4809e-01 -2.1113e-01 3.5052e-01 -1.4834e-01
       881 1.3235e+06 0.0000e+00 4.6294e-01 -1.8867e-01 3.6477e-01 -1.3715e-01
       882 4.1700e+05 0.0000e+00 3.5777e-01 -1.7482e-01 2.7515e-01 -1.3603e-01
       883 1.6200e+05 0.0000e+00 4.2212e-01 -2.0180e-01 3.2785e-01 -1.5536e-01
       884 1.4283e+05 0.0000e+00 4.2757e-01 -1.9447e-01 3.3552e-01 -1.4805e-01
       885 1.9401e+03 0.0000e+00 4.1810e-01 -1.5372e-01 3.2455e-01 -1.2488e-01
       886 1.5521e+05 0.0000e+00 4.2375e-01 -2.1403e-01 3.3009e-01 -1.5751e-01
       887 6.7467e+05 0.0000e+00 3.4895e-01 -1.7215e-01 2.7197e-01 -1.3697e-01
       888 5.1386e+05 0.0000e+00 4.2871e-01 -1.9145e-01 3.4240e-01 -1.4351e-01
       889 1.3172e+04 0.0000e+00 4.0465e-01 -1.8167e-01 3.0985e-01 -1.4207e-01
       890 6.7019e+05 0.0000e+00 4.4280e-01 -1.6113e-01 3.5185e-01 -1.1708e-01
       891 1.7305e+05 0.0000e+00 3.7228e-01 -2.0116e-01 2.8801e-01 -1.5003e-01
       892 1.2622e+06 0.0000e+00 3.5416e-01 -1.4344e-01 2.6929e-01 -1.1647e-01
       893 6.4670e+04 0.0000e+00 4.0730e-01 -2.0188e-01 3.2043e-01 -1.4884e-01
       894 5.5000e+05 0.0000e+00 4.3557e-01 -2.1853e-01 3.4306e-01 -1.6044e-01
       895 2.9471e+05 0.0000e+00 4.2184e-01 -2.1199e-01 3.3035e-01 -1.5568e-01
       896 5.1415e+05 0.0000e+00 3.4244e-01 -2.3956e-01 2.6298e-01 -1.6362e-01
       897 2.6535e+03 0.0000e+00 4.0161e-01 -1.9452e-01 3.1034e-01 -1.5087e-01
       898 4.5994e+04 0.0000e+00 4.0773e-01 -2.0271e-01 3.1758e-01 -1.4923e-01
       899 1.5140e+03 0.0000e+00 3.9918e-01 -2.1061e-01 3.1021e-01 -1.5609e-01
       900 2.3823e+05 0.0000e+00 3.7492e-01 -2.0200e-01 2.8689e-01 -1.4748e-01
       901 1.5722e+05 0.0000e+00 4.2242e-01 -2.0352e-01 3.2926e-01 -1.4960e-01
       902 1.6203e+05 0.0000e+00 4.2291e-01 -1.7582e-01 3.2873e-01 -1.3850e-01
       903 1.0931e+06 0.0000e+00 3.2489e-01 -2.3125e-01 2.5184e-01 -1.6261e-01
       904 2.2493e+05 0.0000e+00 4.2298e-01 -2.2856e-01 3.2760e-01 -1.5660e-01
       905 1.2571e+04 0.0000e+00 4.0947e-01 -1.6409e-01 3.2067e-01 -1.1772e-01
       906 4.5487e+05 0.0000e+00 4.3295e-01 -2.1260e-01 3.4224e-01 -1.5009e-01
       907 7.2794e+05 0.0000e+00 3.5134e-01 -2.0613e-01 2.6749e-01 -1.4756e-01
       908 1.2799e+06 0.0000e+00 4.5595e-01 -2.0244e-01 3.5947e-01 -1.5231e-01
       909 1.6236e+05 0.0000e+00 3.7930e-01 -2.1852e-01 2.9307e-01 -1.6197e-01
       910 2.5831e+05 0.0000e+00 3.6873e-01 -2.0638e-01 2.7944e-01 -1.5553e-01
       911 7.1111e+04 0.0000e+00 4.1270e-01 -2.0354e-01 3.2156e-01 -1.5374e-01
       912 1.5105e+06 0.0000e+00 4.5957e-01 -1.8912e-01 3.6642e-01 -1.3542e-01
       913 1.8795e+04 0.0000e+00 3.8765e-01 -1.8507e-01 3.0250e-01 -1.3276e-01
       914 1.1306e+06 0.0000e+00 3.3239e-01 -1.8155e-01 2.5664e-01 -1.3887e-01
       915 4.1214e+04 0.0000e+00 4.1542e-01 -2.1066e-01 3.1831e-01 -1.5451e-01
       916 3.3043e+04 0.0000e+00 3.8421e-01 -2.2552e-01 2.9730e-01 -1.6188e-01
       917 2.1052e+04 0.0000e+00 3.8696e-01 -1.9362e-01 3.0360e-01 -1.4719e-01
       918 6.9523e+05 0.0000e+00 3.5940e-01 -1.9956e-01 2.7926e-01 -1.3844e-01
       919 9.5614e+04 0.0000e+00 4.0995e-01 -1.8151e-01 3.2344e-01 -1.4470e-01
       920 3.0303e+05 0.0000e+00 3.6080e-01 -2.4604e-01 2.7488e-01 -1.6812e-01
       921 4.5995e+04 0.0000e+00 3.9969e-01 -1.8833e-01 3.1175e-01 -1.3106e-01
       922 1.8063e+06 0.0000e+00 4.6325e-01 -1.9613e-01 3.6753e-01 -1.4479e-01
       923 1.3455e+05 0.0000e+00 4.0522e-01 -2.2800e-01 3.1759e-01 -1.6140e-01
       924 3.3186e+05 0.0000e+00 3.8954e-01 -1.4118e-01 3.0035e-01 -1.1621e-01
       925 3.7894e+05 0.0000e+00 3.6725e-01 -1.8846e-01 2.8371e-01 -1.3911e-01
       926 2.4724e+05 0.0000e+00 3.7020e-01 -2.1035e-01 2.8441e-01 -1.5476e-01
       927 1.1161e+05 0.0000e+00 4.1967e-01 -1.9436e-01 3.3006e-01 -1.4826e-01
       928 1.0756e+05 0.0000e+00 4.1582e-01 -2.2815e-01 3.2511e-01 -1.6382e-01
       929 6.1162e+05 0.0000e+00 4.4656e-01 -1.9617e-01 3.5046e-01 -1.4281e-01
       930 4.5488e+02 1.8545e-99 4.0289e-01 -1.9576e-01 3.0992e-01 -1.4634e-01
       931 7.6796e+04 0.0000e+00 3.7633e-01 -1.9338e-01 2.9108e-01 -1.5130e-01
       932 1.1628e+05 0.0000e+00 3.8613e-01 -2.0098e-01 3.0064e-01 -1.5117e-01
       933 8.5990e+04 0.0000e+00 4.2231e-01 -1.8814e-01 3.2876e-01 -1.4914e-01
       934 9.9435e+05 0.0000e+00 3.4194e-01 -1.9343e-01 2.6188e-01 -1.4967e-01
       935 7.5991e+04 0.0000e+00 4.1525e-01 -1.7920e-01 3.2196e-01 -1.3565e-01
       936 1.3653e+05 0.0000e+00 3.8103e-01 -1.8276e-01 2.9543e-01 -1.3504e-01
       937 1.5271e+05 0.0000e+00 4.0942e-01 -2.0067e-01 3.1838e-01 -1.5132e-01
       938 3.4062e+04 0.0000e+00 4.0642e-01 -2.0891e-01 3.1682e-01 -1.5142e-01
       939 1.0514e+05 0.0000e+00 3.7784e-01 -1.7330e-01 2.9532e-01 -1.2172e-01
       940 7.7929e+02 6.6426e-170 3.9955e-01 -2.1693e-01 3.0776e-01 -1.5297e-01
       941 4.7008e+04 0.0000e+00 3.8580e-01 -1.9204e-01 2.9861e-01 -1.4979e-01
       942 2.5511e+05 0.0000e+00 3.6846e-01 -1.9045e-01 2.8458e-01 -1.3740e-01
       943 3.7184e+05 0.0000e+00 3.5330e-01 -2.2789e-01 2.7264e-01 -1.4785e-01
       944 1.0869e+05 0.0000e+00 3.8296e-01 -2.1148e-01 2.9009e-01 -1.5691e-01
       945 1.0866e+05 0.0000e+00 4.0703e-01 -1.9938e-01 3.1633e-01 -1.4689e-01
       946 7.4992e+03 0.0000e+00 3.8781e-01 -2.0650e-01 3.0061e-01 -1.5059e-01
       947 8.5342e+04 0.0000e+00 4.1394e-01 -2.0461e-01 3.2319e-01 -1.5592e-01
       948 6.9720e+05 0.0000e+00 4.4135e-01 -2.1033e-01 3.4709e-01 -1.5158e-01
       949 4.0551e+05 0.0000e+00 4.4427e-01 -1.5113e-01 3.5241e-01 -1.2116e-01
       950 1.1906e+06 0.0000e+00 3.3607e-01 -1.5729e-01 2.5788e-01 -1.2094e-01
       951 1.2121e+06 0.0000e+00 3.2348e-01 -2.1303e-01 2.4751e-01 -1.5844e-01
       952 1.3663e+05 0.0000e+00 3.7761e-01 -1.8796e-01 2.9095e-01 -1.3960e-01
       953 5.7200e+04 0.0000e+00 4.1994e-01 -1.7677e-01 3.2600e-01 -1.4464e-01
       954 6.6720e+05 0.0000e+00 4.3913e-01 -2.0381e-01 3.4771e-01 -1.4739e-01
       955 2.2818e+05 0.0000e+00 3.6746e-01 -2.0171e-01 2.8359e-01 -1.5294e-01
       956 9.0871e+03 0.0000e+00 3.9650e-01 -1.8599e-01 3.0592e-01 -1.4492e-01
       957 2.6339e+04 0.0000e+00 3.8425e-01 -1.9596e-01 2.9998e-01 -1.5482e-01
       958 1.0756e+05 0.0000e+00 3.7889e-01 -1.9480e-01 2.9435e-01 -1.4498e-01
       959 1.5721e+06 0.0000e+00 3.3330e-01 -1.7685e-01 2.5259e-01 -1.3121e-01
       960 6.9920e+01 7.2613e-16 4.0125e-01 -1.8105e-01 3.1644e-01 -1.2583e-01
       961 1.2226e+04 0.0000e+00 3.9194e-01 -1.6900e-01 3.0467e-01 -1.2673e-01
       962 4.5875e+05 0.0000e+00 4.3573e-01 -1.9603e-01 3.4116e-01 -1.4659e-01
       963 3.1872e+05 0.0000e+00 4.2902e-01 -1.6226e-01 3.3727e-01 -1.1360e-01
       964 5.3963e+05 0.0000e+00 4.5338e-01 -1.5438e-01 3.5740e-01 -1.2418e-01
       965 8.9055e+04 0.0000e+00 4.1878e-01 -1.7294e-01 3.2849e-01 -1.2576e-01
       966 3.6623e+05 0.0000e+00 3.7638e-01 -1.4789e-01 2.9138e-01 -1.1329e-01
       967 8.1605e+04 0.0000e+00 3.8699e-01 -1.9412e-01 2.9799e-01 -1.3417e-01
       968 6.5884e+05 0.0000e+00 3.4800e-01 -1.9214e-01 2.6737e-01 -1.4551e-01
       969 5.7255e+05 0.0000e+00 3.5125e-01 -2.0400e-01 2.6653e-01 -1.5512e-01
       970 4.4799e+05 0.0000e+00 4.3286e-01 -2.2697e-01 3.3659e-01 -1.6045e-01
       971 2.1842e+04 0.0000e+00 4.0834e-01 -2.0199e-01 3.1796e-01 -1.5488e-01
       972 6.6231e+04 0.0000e+00 4.1522e-01 -2.0730e-01 3.1968e-01 -1.4528e-01
       973 9.6201e+05 0.0000e+00 3.4421e-01 -1.9533e-01 2.6332e-01 -1.3111e-01
       974 3.0150e+05 0.0000e+00 3.6171e-01 -2.2682e-01 2.8065e-01 -1.4652e-01
       975 3.7940e+05 0.0000e+00 3.5133e-01 -2.1430e-01 2.7174e-01 -1.4989e-01
       976 6.8739e+05 0.0000e+00 4.4669e-01 -1.6048e-01 3.5223e-01 -1.2177e-01
       977 2.5453e+05 0.0000e+00 4.3686e-01 -2.0448e-01 3.4274e-01 -1.4871e-01
       978 5.2576e+03 0.0000e+00 3.9619e-01 -2.0955e-01 3.0334e-01 -1.5512e-01
       979 2.0674e+05 0.0000e+00 3.7667e-01 -1.9829e-01 2.8886e-01 -1.4271e-01
       980 1.6883e+05 0.0000e+00 3.8124e-01 -1.6903e-01 2.9306e-01 -1.2868e-01
       981 4.7787e+03 0.0000e+00 3.9460e-01 -2.2101e-01 3.0600e-01 -1.5575e-01
       982 4.5042e+05 0.0000e+00 3.5902e-01 -2.0343e-01 2.7419e-01 -1.5276e-01
       983 1.9761e+02 1.3567e-43 3.9756e-01 -1.9052e-01 3.1013e-01 -1.5142e-01
       984 4.2348e+05 0.0000e+00 4.4443e-01 -1.8287e-01 3.4934e-01 -1.3883e-01
       985 1.1640e+04 0.0000e+00 3.9364e-01 -1.9132e-01 3.0693e-01 -1.5104e-01
       986 2.1096e+03 0.0000e+00 4.1078e-01 -1.7299e-01 3.2218e-01 -1.3167e-01
       987 1.9982e+05 0.0000e+00 4.2587e-01 -1.9122e-01 3.3402e-01 -1.4383e-01
       988 4.2233e+05 0.0000e+00 4.2786e-01 -2.3653e-01 3.3808e-01 -1.5859e-01
       989 3.0951e+05 0.0000e+00 4.3403e-01 -2.0703e-01 3.4076e-01 -1.5499e-01
       990 1.9705e+04 0.0000e+00 4.0780e-01 -1.8877e-01 3.1862e-01 -1.3947e-01
       991 2.0375e+05 0.0000e+00 3.7179e-01 -2.0190e-01 2.8829e-01 -1.5432e-01
       992 6.7083e+05 0.0000e+00 3.3511e-01 -2.1893e-01 2.5713e-01 -1.5689e-01
       993 1.0522e+06 0.0000e+00 4.4947e-01 -1.6969e-01 3.5387e-01 -1.3418e-01
       994 1.1303e+05 0.0000e+00 4.0375e-01 -2.1942e-01 3.1844e-01 -1.5458e-01
       995 2.4013e+05 0.0000e+00 3.6880e-01 -1.8686e-01 2.8810e-01 -1.3802e-01
       996 1.4077e+05 0.0000e+00 3.7895e-01 -2.1276e-01 2.9433e-01 -1.5530e-01
       997 3.8571e+04 0.0000e+00 4.2133e-01 -1.8728e-01 3.2503e-01 -1.4170e-01
       998 1.0708e+04 0.0000e+00 3.9143e-01 -2.1205e-01 3.0425e-01 -1.4677e-01
       999 1.6583e+05 0.0000e+00 4.1839e-01 -2.1138e-01 3.2483e-01 -1.5908e-01
      1000 3.8567e+05 0.0000e+00 3.5849e-01 -1.9096e-01 2.7489e-01 -1.4669e-01
      1001 2.3698e+05 0.0000e+00 3.7866e-01 -1.7077e-01 2.8812e-01 -1.2774e-01
      1002 1.5016e+05 0.0000e+00 4.3617e-01 -1.6825e-01 3.3614e-01 -1.2769e-01
      1003 6.9830e+04 0.0000e+00 4.2365e-01 -2.0736e-01 3.2706e-01 -1.5565e-01
      1004 8.8952e+05 0.0000e+00 3.3665e-01 -2.3245e-01 2.5764e-01 -1.6390e-01
      1005 3.1729e+04 0.0000e+00 4.1326e-01 -1.5824e-01 3.1842e-01 -1.2280e-01
      1006 7.0689e+05 0.0000e+00 3.4881e-01 -2.0536e-01 2.7085e-01 -1.4740e-01
      1007 6.7814e+05 0.0000e+00 3.4282e-01 -2.1661e-01 2.6141e-01 -1.6184e-01
      1008 2.0963e+04 0.0000e+00 4.0457e-01 -1.9635e-01 3.1431e-01 -1.4549e-01
      1009 2.2862e+06 0.0000e+00 3.2271e-01 -1.5916e-01 2.4601e-01 -1.2409e-01
      1010 1.1373e+06 0.0000e+00 3.2729e-01 -2.3050e-01 2.5198e-01 -1.6239e-01
      1011 5.4452e+05 0.0000e+00 4.3681e-01 -1.7688e-01 3.4715e-01 -1.3381e-01
      1012 2.6936e+04 0.0000e+00 4.2208e-01 -1.7147e-01 3.2695e-01 -1.3123e-01
      1013 1.6550e+06 0.0000e+00 3.2589e-01 -1.5830e-01 2.4884e-01 -1.1929e-01
      1014 2.2210e+04 0.0000e+00 4.0395e-01 -2.2362e-01 3.1312e-01 -1.4714e-01
      1015 1.9907e+05 0.0000e+00 3.7422e-01 -1.9910e-01 2.9168e-01 -1.5246e-01
      1016 1.3417e+04 0.0000e+00 3.9369e-01 -1.7880e-01 3.0067e-01 -1.4028e-01
      1017 5.4276e+03 0.0000e+00 4.0455e-01 -1.8819e-01 3.1081e-01 -1.4628e-01
      1018 6.8374e+03 0.0000e+00 3.9572e-01 -1.9947e-01 3.0820e-01 -1.4605e-01
      1019 2.9505e+03 0.0000e+00 3.9581e-01 -2.0292e-01 3.0640e-01 -1.5240e-01
      1020 2.4027e+05 0.0000e+00 3.8065e-01 -1.4192e-01 2.9088e-01 -1.1673e-01
      1021 1.7366e+05 0.0000e+00 3.7613e-01 -2.2991e-01 2.8961e-01 -1.6321e-01
      1022 6.7032e+05 0.0000e+00 3.4801e-01 -2.2027e-01 2.6869e-01 -1.6222e-01
      1023 3.9412e+05 0.0000e+00 3.6858e-01 -1.6800e-01 2.8433e-01 -1.3611e-01
      1024 1.3361e+06 0.0000e+00 4.7232e-01 -1.6566e-01 3.7187e-01 -1.3844e-01
      1025 2.1008e+04 0.0000e+00 3.8996e-01 -1.9632e-01 3.0098e-01 -1.4126e-01
      1026 2.7128e+05 0.0000e+00 4.2539e-01 -2.2566e-01 3.3058e-01 -1.5849e-01
      1027 1.3777e+05 0.0000e+00 3.6502e-01 -1.9959e-01 2.7947e-01 -1.4029e-01
      1028 1.9216e+06 0.0000e+00 3.2730e-01 -1.8638e-01 2.4861e-01 -1.3106e-01
      1029 6.0370e+05 0.0000e+00 4.4293e-01 -1.5361e-01 3.4903e-01 -1.1176e-01
      1030 1.9450e+04 0.0000e+00 3.9970e-01 -1.9290e-01 3.1073e-01 -1.4865e-01
      1031 2.4612e+06 0.0000e+00 3.1375e-01 -1.5329e-01 2.3639e-01 -1.1428e-01
      1032 1.4162e+04 0.0000e+00 4.0310e-01 -2.0851e-01 3.1357e-01 -1.4927e-01
      1033 6.5663e+04 0.0000e+00 3.8291e-01 -2.0021e-01 2.9183e-01 -1.4707e-01
      1034 2.9259e+05 0.0000e+00 4.3740e-01 -1.7321e-01 3.4391e-01 -1.3834e-01
      1035 9.3408e+04 0.0000e+00 3.7722e-01 -2.2898e-01 2.8815e-01 -1.6537e-01
      1036 2.0393e+04 0.0000e+00 3.8415e-01 -1.9776e-01 3.0132e-01 -1.3666e-01
      1037 3.1986e+05 0.0000e+00 4.2252e-01 -2.1569e-01 3.3477e-01 -1.5581e-01
      1038 1.3822e+05 0.0000e+00 4.1302e-01 -2.3124e-01 3.2211e-01 -1.5983e-01
      1039 3.6308e+05 0.0000e+00 4.2942e-01 -2.0322e-01 3.3498e-01 -1.5664e-01
      1040 1.0155e+06 0.0000e+00 3.5686e-01 -1.3921e-01 2.7229e-01 -1.1230e-01
      1041 1.3920e+05 0.0000e+00 4.3078e-01 -1.7781e-01 3.3426e-01 -1.3403e-01
      1042 3.9659e+05 0.0000e+00 3.5675e-01 -1.9918e-01 2.7452e-01 -1.4816e-01
      1043 5.8217e+04 0.0000e+00 3.9482e-01 -2.1720e-01 3.0049e-01 -1.5903e-01
      1044 3.4022e+04 0.0000e+00 4.0680e-01 -2.2665e-01 3.2007e-01 -1.5582e-01
      1045 1.7511e+02 1.0461e-38 3.9211e-01 -1.9698e-01 3.0943e-01 -1.4667e-01
      1046 1.2134e+05 0.0000e+00 4.1831e-01 -1.8099e-01 3.2408e-01 -1.3434e-01
      1047 3.4368e+02 2.5992e-75 4.1125e-01 -1.4817e-01 3.2033e-01 -1.1457e-01
      1048 3.1830e+04 0.0000e+00 3.9298e-01 -1.9789e-01 3.0154e-01 -1.4831e-01
      1049 6.0489e+03 0.0000e+00 4.0322e-01 -1.6482e-01 3.1117e-01 -1.3021e-01
      1050 5.0938e+04 0.0000e+00 4.1156e-01 -2.1079e-01 3.2437e-01 -1.4861e-01
      1051 4.0005e+05 0.0000e+00 4.3425e-01 -2.1512e-01 3.4117e-01 -1.5802e-01
      1052 1.0282e+06 0.0000e+00 4.5816e-01 -2.1091e-01 3.6178e-01 -1.5640e-01
      1053 2.6574e+04 0.0000e+00 4.0301e-01 -1.9369e-01 3.1249e-01 -1.4893e-01
      1054 6.5013e+05 0.0000e+00 4.3558e-01 -2.4036e-01 3.4318e-01 -1.6174e-01
      1055 8.6103e+03 0.0000e+00 4.0902e-01 -1.7440e-01 3.1932e-01 -1.3752e-01
      1056 1.5979e+05 0.0000e+00 3.7243e-01 -2.0212e-01 2.9113e-01 -1.3815e-01
      1057 7.5120e+04 0.0000e+00 3.8452e-01 -1.7339e-01 3.0046e-01 -1.2977e-01
      1058 9.8051e+05 0.0000e+00 4.5246e-01 -2.1546e-01 3.5575e-01 -1.5272e-01
      1059 8.4216e+04 0.0000e+00 3.7341e-01 -2.1863e-01 2.8907e-01 -1.5378e-01
      1060 6.4494e+05 0.0000e+00 4.4149e-01 -2.1347e-01 3.4410e-01 -1.5846e-01
      1061 1.9758e+05 0.0000e+00 4.3073e-01 -2.0603e-01 3.3244e-01 -1.5026e-01
      1062 4.3147e+02 2.2411e-94 3.9101e-01 -2.0979e-01 3.0607e-01 -1.5410e-01
      1063 4.7385e+04 0.0000e+00 3.9966e-01 -2.2854e-01 3.1278e-01 -1.6191e-01
      1064 4.9355e+05 0.0000e+00 4.3276e-01 -1.9136e-01 3.4107e-01 -1.4518e-01
      1065 2.1044e+03 0.0000e+00 3.9635e-01 -2.0751e-01 3.0920e-01 -1.4686e-01
      1066 2.5609e+05 0.0000e+00 4.2134e-01 -2.3287e-01 3.2531e-01 -1.6179e-01
      1067 3.0331e+03 0.0000e+00 4.0552e-01 -1.7503e-01 3.1397e-01 -1.3419e-01
      1068 5.6838e+05 0.0000e+00 3.7228e-01 -1.5775e-01 2.8255e-01 -1.2315e-01
      1069 3.0275e+04 0.0000e+00 3.9220e-01 -1.8421e-01 3.0498e-01 -1.4392e-01
      1070 6.1799e+05 0.0000e+00 3.4935e-01 -1.7031e-01 2.6839e-01 -1.2941e-01
      1071 1.7061e+05 0.0000e+00 3.8263e-01 -1.7769e-01 2.9317e-01 -1.3688e-01
      1072 1.0777e+05 0.0000e+00 3.8774e-01 -1.7196e-01 2.9786e-01 -1.3893e-01
      1073 1.3459e+05 0.0000e+00 3.8520e-01 -1.9983e-01 2.9427e-01 -1.5288e-01
      1074 7.8618e+05 0.0000e+00 4.5960e-01 -1.7814e-01 3.6217e-01 -1.4288e-01
      1075 2.9981e+05 0.0000e+00 3.7274e-01 -1.7866e-01 2.8668e-01 -1.3617e-01
      1076 8.4088e+05 0.0000e+00 3.4901e-01 -1.9233e-01 2.6161e-01 -1.3810e-01
      1077 4.6245e+04 0.0000e+00 3.8002e-01 -2.0930e-01 2.9169e-01 -1.5539e-01
      1078 2.9082e+05 0.0000e+00 4.2820e-01 -1.9501e-01 3.3413e-01 -1.5046e-01
      1079 5.2665e+05 0.0000e+00 4.2582e-01 -2.3391e-01 3.3479e-01 -1.6047e-01
      1080 1.2062e+06 0.0000e+00 3.5219e-01 -1.5064e-01 2.7200e-01 -1.2226e-01
      1081 2.2386e+05 0.0000e+00 3.5471e-01 -2.6664e-01 2.7654e-01 -1.7003e-01
      1082 6.7255e+05 0.0000e+00 3.3492e-01 -2.3005e-01 2.5974e-01 -1.6146e-01
      1083 8.6150e+05 0.0000e+00 4.4817e-01 -2.0114e-01 3.4815e-01 -1.4647e-01
      1084 4.0780e+04 0.0000e+00 4.1040e-01 -1.8611e-01 3.1766e-01 -1.3622e-01
      1085 1.1681e+05 0.0000e+00 3.7570e-01 -2.0481e-01 2.9140e-01 -1.5451e-01
      1086 9.4167e+05 0.0000e+00 3.5101e-01 -2.0110e-01 2.6979e-01 -1.4487e-01
      1087 1.4770e+05 0.0000e+00 4.2605e-01 -1.5594e-01 3.3545e-01 -1.2245e-01
      1088 1.5517e+06 0.0000e+00 3.4958e-01 -1.7446e-01 2.6835e-01 -1.2493e-01
      1089 4.9623e+05 0.0000e+00 3.5333e-01 -2.3734e-01 2.6973e-01 -1.6136e-01
      1090 4.9691e+05 0.0000e+00 3.6308e-01 -1.7117e-01 2.7852e-01 -1.3065e-01
      1091 1.1176e+05 0.0000e+00 4.0386e-01 -2.3461e-01 3.1670e-01 -1.6149e-01
      1092 8.8371e+03 0.0000e+00 4.1363e-01 -1.6518e-01 3.1977e-01 -1.2557e-01
      1093 6.5546e+05 0.0000e+00 3.5000e-01 -2.0476e-01 2.6810e-01 -1.4899e-01
      1094 8.3522e+03 0.0000e+00 3.9758e-01 -2.3944e-01 3.0567e-01 -1.6433e-01
      1095 1.4237e+06 0.0000e+00 4.6421e-01 -1.9075e-01 3.6372e-01 -1.4861e-01
      1096 1.3477e+05 0.0000e+00 3.6360e-01 -2.5145e-01 2.8057e-01 -1.7063e-01
      1097 4.2000e+02 6.9676e-92 4.0554e-01 -2.1353e-01 3.1655e-01 -1.5649e-01
      1098 7.2487e+04 0.0000e+00 3.9352e-01 -1.4427e-01 3.0389e-01 -1.1179e-01
      1099 2.7352e+05 0.0000e+00 4.2910e-01 -1.5030e-01 3.3364e-01 -1.1555e-01
      1100 1.4801e+05 0.0000e+00 4.2287e-01 -1.9397e-01 3.3046e-01 -1.4962e-01
      1101 3.9068e+02 1.6170e-85 3.9066e-01 -2.1005e-01 3.0013e-01 -1.5296e-01
      1102 1.7539e+05 0.0000e+00 4.2136e-01 -1.8238e-01 3.2641e-01 -1.2945e-01
      1103 1.2563e+06 0.0000e+00 4.6165e-01 -1.7372e-01 3.6271e-01 -1.3332e-01
      1104 6.5888e+04 0.0000e+00 4.0637e-01 -1.8392e-01 3.1982e-01 -1.3974e-01
      1105 1.2111e+06 0.0000e+00 3.4601e-01 -1.3998e-01 2.6313e-01 -1.0144e-01
      1106 4.1190e+05 0.0000e+00 4.3788e-01 -1.9180e-01 3.4239e-01 -1.4827e-01
      1107 4.6329e+05 0.0000e+00 3.4708e-01 -2.1696e-01 2.6760e-01 -1.5585e-01
      1108 6.0795e+02 1.0706e-132 3.9300e-01 -1.5662e-01 3.0590e-01 -1.1080e-01
      1109 1.3916e+06 0.0000e+00 3.2042e-01 -2.2647e-01 2.4079e-01 -1.5633e-01
      1110 4.4877e+04 0.0000e+00 4.0650e-01 -2.1310e-01 3.1614e-01 -1.5921e-01
      1111 8.2517e+05 0.0000e+00 3.3810e-01 -2.2780e-01 2.6045e-01 -1.6119e-01
      1112 1.2558e+06 0.0000e+00 4.6514e-01 -1.7375e-01 3.6978e-01 -1.3621e-01
      1113 3.1269e+04 0.0000e+00 3.8578e-01 -2.0718e-01 2.9921e-01 -1.5002e-01
      1114 4.6226e+05 0.0000e+00 4.4470e-01 -1.6393e-01 3.4473e-01 -1.2621e-01
      1115 7.6397e+04 0.0000e+00 3.8800e-01 -2.2108e-01 2.9718e-01 -1.5500e-01
      1116 2.0045e+05 0.0000e+00 3.6728e-01 -1.9963e-01 2.8545e-01 -1.4850e-01
      1117 3.7389e+05 0.0000e+00 3.6057e-01 -1.7633e-01 2.7730e-01 -1.2739e-01
      1118 1.4223e+06 0.0000e+00 4.6209e-01 -2.0836e-01 3.5897e-01 -1.5863e-01
      1119 9.1971e+04 0.0000e+00 3.8540e-01 -1.9350e-01 2.9821e-01 -1.4800e-01
      1120 2.0738e+05 0.0000e+00 3.7703e-01 -2.0853e-01 2.9153e-01 -1.5876e-01
      1121 1.1604e+06 0.0000e+00 4.4967e-01 -2.0234e-01 3.5245e-01 -1.4397e-01
      1122 2.2903e+05 0.0000e+00 3.6146e-01 -2.0736e-01 2.7987e-01 -1.4144e-01
      1123 2.3931e+05 0.0000e+00 3.7645e-01 -1.7556e-01 2.9076e-01 -1.3902e-01
      1124 8.5767e+05 0.0000e+00 3.3314e-01 -2.1533e-01 2.5710e-01 -1.5930e-01
      1125 1.3602e+06 0.0000e+00 4.6071e-01 -1.9103e-01 3.6329e-01 -1.5022e-01
      1126 6.8068e+05 0.0000e+00 4.4364e-01 -2.1229e-01 3.5063e-01 -1.5742e-01
      1127 1.6732e+06 0.0000e+00 4.6829e-01 -2.0033e-01 3.6859e-01 -1.4847e-01
      1128 5.0547e+04 0.0000e+00 4.1343e-01 -2.1628e-01 3.2405e-01 -1.5574e-01
      1129 3.2394e+05 0.0000e+00 3.5581e-01 -2.2441e-01 2.7553e-01 -1.5409e-01
      1130 1.5425e+04 0.0000e+00 3.8135e-01 -1.9092e-01 2.8974e-01 -1.4693e-01
      1131 7.2611e+05 0.0000e+00 3.3613e-01 -2.0367e-01 2.5673e-01 -1.4580e-01
      1132 1.1538e+06 0.0000e+00 3.5382e-01 -1.8437e-01 2.6816e-01 -1.3779e-01
      1133 6.4284e+03 0.0000e+00 3.9471e-01 -2.0603e-01 3.0602e-01 -1.5712e-01
      1134 7.7047e+02 5.4658e-168 3.9443e-01 -1.9877e-01 3.0912e-01 -1.4968e-01
      1135 1.8790e+04 0.0000e+00 3.9337e-01 -2.0454e-01 3.0775e-01 -1.5656e-01
      1136 3.4940e+04 0.0000e+00 4.1912e-01 -2.0151e-01 3.2835e-01 -1.5303e-01
      1137 1.2075e+06 0.0000e+00 3.4096e-01 -1.8108e-01 2.6094e-01 -1.3723e-01
      1138 2.3142e+05 0.0000e+00 4.2557e-01 -1.8719e-01 3.3491e-01 -1.4275e-01
      1139 4.9990e+02 3.1043e-109 4.0547e-01 -1.5225e-01 3.1893e-01 -1.1427e-01
      1140 1.2655e+06 0.0000e+00 3.2221e-01 -2.0989e-01 2.4708e-01 -1.4990e-01
      1141 6.1017e+04 0.0000e+00 3.8167e-01 -2.2389e-01 2.9528e-01 -1.6094e-01
      1142 1.3172e+05 0.0000e+00 3.9253e-01 -1.7749e-01 3.0130e-01 -1.3470e-01
      1143 1.9561e+05 0.0000e+00 3.7296e-01 -2.1492e-01 2.8654e-01 -1.5560e-01
      1144 8.4671e+05 0.0000e+00 4.5258e-01 -1.4795e-01 3.5138e-01 -1.1924e-01
      1145 1.3884e+05 0.0000e+00 3.8736e-01 -1.7161e-01 2.9832e-01 -1.3675e-01
      1146 8.5240e+02 8.8569e-186 3.9862e-01 -1.9596e-01 3.0971e-01 -1.4943e-01
      1147 2.0206e+05 0.0000e+00 3.7461e-01 -1.8142e-01 2.8964e-01 -1.2905e-01
      1148 8.2732e+05 0.0000e+00 3.4226e-01 -2.3143e-01 2.6067e-01 -1.6260e-01
      1149 1.8063e+06 0.0000e+00 3.3537e-01 -1.5940e-01 2.5764e-01 -1.1779e-01
      1150 1.4554e+06 0.0000e+00 3.2571e-01 -1.8980e-01 2.4833e-01 -1.3289e-01
      1151 5.8913e+04 0.0000e+00 4.0985e-01 -2.3611e-01 3.1632e-01 -1.6183e-01
      1152 3.4444e+02 1.7756e-75 4.0800e-01 -1.8573e-01 3.1374e-01 -1.4201e-01
      1153 4.8008e+05 0.0000e+00 4.4357e-01 -2.0182e-01 3.4587e-01 -1.4932e-01
      1154 7.5222e+05 0.0000e+00 3.4209e-01 -2.2472e-01 2.6524e-01 -1.6098e-01
      1155 2.5868e+06 0.0000e+00 3.2991e-01 -1.4062e-01 2.4605e-01 -1.0949e-01
      1156 8.0269e+04 0.0000e+00 3.7455e-01 -2.1524e-01 2.8622e-01 -1.5666e-01
      1157 8.6776e+04 0.0000e+00 4.2261e-01 -2.0149e-01 3.3295e-01 -1.5099e-01
      1158 4.4044e+00 1.2234e-01 3.8466e-01 -2.1556e-01 2.9912e-01 -1.6026e-01
      1159 1.0248e+06 0.0000e+00 4.5638e-01 -1.7710e-01 3.5714e-01 -1.3912e-01
      1160 1.0422e+03 5.3225e-227 3.8439e-01 -2.3973e-01 2.9766e-01 -1.6594e-01
      1161 1.0341e+05 0.0000e+00 3.7717e-01 -2.1645e-01 2.8999e-01 -1.5370e-01
      1162 4.4935e+04 0.0000e+00 3.8115e-01 -2.0134e-01 2.9873e-01 -1.4924e-01
      1163 9.3994e+04 0.0000e+00 3.8894e-01 -2.0092e-01 2.9855e-01 -1.4752e-01
      1164 7.8643e+05 0.0000e+00 3.4908e-01 -1.8303e-01 2.7159e-01 -1.3963e-01
      1165 1.6077e+05 0.0000e+00 4.2048e-01 -2.0760e-01 3.2588e-01 -1.4955e-01
      1166 9.0376e+03 0.0000e+00 4.0345e-01 -2.2292e-01 3.1410e-01 -1.6307e-01
      1167 1.0167e+06 0.0000e+00 4.4812e-01 -2.0876e-01 3.5582e-01 -1.5276e-01
      1168 2.4105e+04 0.0000e+00 3.9596e-01 -2.1040e-01 3.0715e-01 -1.5243e-01
      1169 1.0984e+04 0.0000e+00 4.0398e-01 -1.9565e-01 3.1082e-01 -1.4284e-01
      1170 1.7950e+05 0.0000e+00 3.5944e-01 -2.0702e-01 2.7866e-01 -1.5363e-01
      1171 6.0850e+03 0.0000e+00 3.9604e-01 -2.1368e-01 3.0944e-01 -1.5232e-01
      1172 1.0646e+04 0.0000e+00 3.8311e-01 -2.0949e-01 2.9937e-01 -1.4870e-01
      1173 2.3662e+05 0.0000e+00 4.1917e-01 -2.1598e-01 3.2768e-01 -1.5983e-01
      1174 2.3311e+05 0.0000e+00 4.1803e-01 -2.3326e-01 3.2705e-01 -1.6266e-01
      1175 1.3903e+05 0.0000e+00 4.1702e-01 -1.5538e-01 3.3004e-01 -1.1475e-01
      1176 1.0388e+06 0.0000e+00 3.6135e-01 -1.7483e-01 2.7727e-01 -1.3387e-01
      1177 4.1050e+05 0.0000e+00 3.4808e-01 -2.2877e-01 2.6872e-01 -1.6230e-01
      1178 2.1734e+04 0.0000e+00 4.0034e-01 -2.6177e-01 3.0930e-01 -1.7011e-01
      1179 3.7498e+04 0.0000e+00 4.0546e-01 -2.1934e-01 3.1546e-01 -1.6023e-01
      1180 3.0795e+05 0.0000e+00 3.7481e-01 -1.6481e-01 2.9129e-01 -1.3254e-01
      1181 1.0332e+01 6.3168e-03 4.0206e-01 -1.9648e-01 3.1009e-01 -1.4286e-01
      1182 4.9231e+05 0.0000e+00 3.5932e-01 -1.9025e-01 2.7397e-01 -1.4529e-01
      1183 9.6284e+05 0.0000e+00 3.4568e-01 -1.9638e-01 2.6668e-01 -1.3770e-01
      1184 5.8134e+05 0.0000e+00 4.4032e-01 -1.8932e-01 3.4647e-01 -1.4307e-01
      1185 6.5203e+04 0.0000e+00 3.8873e-01 -1.9966e-01 3.0085e-01 -1.4654e-01
      1186 1.6208e+05 0.0000e+00 3.7777e-01 -1.8661e-01 2.8970e-01 -1.4489e-01
      1187 6.0228e+05 0.0000e+00 4.3363e-01 -2.0381e-01 3.3806e-01 -1.4674e-01
      1188 1.1349e+05 0.0000e+00 4.1049e-01 -2.1093e-01 3.2069e-01 -1.6002e-01
      1189 1.5449e+05 0.0000e+00 3.7704e-01 -1.9692e-01 2.8958e-01 -1.5413e-01
      1190 1.4535e+04 0.0000e+00 3.9521e-01 -1.6093e-01 3.0578e-01 -1.2949e-01
      1191 1.4248e+05 0.0000e+00 4.0939e-01 -2.2584e-01 3.2250e-01 -1.6174e-01
      1192 4.2445e+05 0.0000e+00 3.5273e-01 -2.2566e-01 2.7320e-01 -1.5496e-01
      1193 4.1582e+05 0.0000e+00 3.3942e-01 -2.3391e-01 2.5993e-01 -1.6307e-01
      1194 8.5275e+05 0.0000e+00 3.4906e-01 -1.8882e-01 2.6796e-01 -1.4649e-01
      1195 1.6708e+05 0.0000e+00 3.6478e-01 -2.0833e-01 2.8023e-01 -1.5268e-01
      1196 4.0974e+04 0.0000e+00 3.8743e-01 -2.0761e-01 2.9983e-01 -1.5774e-01
      1197 1.1670e+05 0.0000e+00 3.9455e-01 -1.5018e-01 3.0267e-01 -1.1380e-01
      1198 3.7503e+04 0.0000e+00 4.1265e-01 -1.9623e-01 3.2096e-01 -1.4491e-01
      1199 1.6310e+05 0.0000e+00 3.7854e-01 -1.8463e-01 2.9038e-01 -1.3364e-01
      1200 7.4606e+05 0.0000e+00 3.5910e-01 -1.9868e-01 2.7300e-01 -1.4747e-01
      1201 1.6578e+06 0.0000e+00 4.7388e-01 -1.7591e-01 3.7608e-01 -1.4384e-01
      1202 9.4204e+04 0.0000e+00 3.9311e-01 -1.8389e-01 3.0124e-01 -1.3846e-01
      1203 2.5097e+03 0.0000e+00 3.9828e-01 -2.1810e-01 3.0652e-01 -1.4922e-01
      1204 2.5539e+06 0.0000e+00 4.8667e-01 -1.7908e-01 3.8171e-01 -1.3488e-01
      1205 7.8715e+04 0.0000e+00 3.8896e-01 -1.9915e-01 2.9847e-01 -1.5264e-01
      1206 6.5203e+05 0.0000e+00 3.7600e-01 -1.4118e-01 2.8808e-01 -1.1856e-01
      1207 1.7695e+05 0.0000e+00 3.7010e-01 -1.8725e-01 2.8765e-01 -1.4902e-01
      1208 9.2893e+04 0.0000e+00 3.8369e-01 -2.1726e-01 2.9724e-01 -1.5391e-01
      1209 2.4502e+05 0.0000e+00 4.1922e-01 -1.9947e-01 3.2649e-01 -1.5099e-01
      1210 2.4682e+02 2.7968e-54 3.9414e-01 -1.8928e-01 3.0678e-01 -1.4357e-01
      1211 1.2238e+06 0.0000e+00 4.6338e-01 -1.7567e-01 3.6814e-01 -1.2882e-01
      1212 1.0288e+05 0.0000e+00 4.1030e-01 -2.1175e-01 3.1958e-01 -1.4837e-01
      1213 8.8297e+03 0.0000e+00 4.2078e-01 -1.3862e-01 3.2551e-01 -1.0512e-01
      1214 7.5234e+04 0.0000e+00 3.7834e-01 -1.9792e-01 2.9561e-01 -1.3617e-01
      1215 1.6684e+05 0.0000e+00 3.7751e-01 -1.9374e-01 2.9165e-01 -1.5030e-01
      1216 3.7918e+05 0.0000e+00 4.3633e-01 -1.8710e-01 3.4109e-01 -1.4414e-01
      1217 1.2984e+06 0.0000e+00 3.3629e-01 -1.6796e-01 2.5921e-01 -1.2594e-01
      1218 1.5174e+05 0.0000e+00 4.2573e-01 -1.9366e-01 3.3374e-01 -1.5063e-01
      1219 1.3491e+04 0.0000e+00 4.0395e-01 -2.1686e-01 3.1317e-01 -1.5403e-01
      1220 1.5808e+05 0.0000e+00 4.2082e-01 -2.0461e-01 3.2783e-01 -1.5269e-01
      1221 3.1137e+05 0.0000e+00 3.7991e-01 -1.5175e-01 2.9212e-01 -1.1470e-01
      1222 4.8293e+03 0.0000e+00 4.0039e-01 -1.9173e-01 3.1227e-01 -1.4717e-01
      1223 6.2274e+01 3.3218e-14 4.0488e-01 -2.0454e-01 3.1440e-01 -1.5716e-01
      1224 9.1793e+05 0.0000e+00 4.5543e-01 -1.9189e-01 3.5457e-01 -1.4914e-01
      1225 4.0378e+05 0.0000e+00 4.3078e-01 -1.8192e-01 3.4110e-01 -1.4052e-01
      1226 1.6324e+06 0.0000e+00 4.7139e-01 -2.0604e-01 3.6873e-01 -1.4574e-01
      1227 4.5102e+03 0.0000e+00 4.0723e-01 -1.8261e-01 3.1805e-01 -1.4240e-01
      1228 4.1342e+05 0.0000e+00 4.3666e-01 -1.8439e-01 3.4216e-01 -1.4398e-01
      1229 3.5267e+03 0.0000e+00 4.0518e-01 -1.7311e-01 3.1542e-01 -1.3820e-01
      1230 3.2552e+05 0.0000e+00 4.2524e-01 -1.7175e-01 3.3171e-01 -1.3315e-01
      1231 7.3897e+05 0.0000e+00 3.3801e-01 -2.1145e-01 2.6166e-01 -1.5115e-01
      1232 9.6413e+03 0.0000e+00 3.9614e-01 -2.0929e-01 3.0528e-01 -1.5062e-01
      1233 1.4620e+03 3.8369e-318 3.9994e-01 -1.7862e-01 3.0989e-01 -1.4294e-01
      1234 2.8920e+04 0.0000e+00 3.9097e-01 -2.0366e-01 3.0431e-01 -1.5330e-01
      1235 6.5386e+05 0.0000e+00 3.5558e-01 -1.8736e-01 2.7070e-01 -1.4283e-01
      1236 2.3950e+06 0.0000e+00 3.0494e-01 -1.7782e-01 2.3232e-01 -1.3473e-01
      1237 1.5814e+02 5.0577e-35 4.1610e-01 -1.4673e-01 3.2773e-01 -1.1144e-01
      1238 3.1523e+03 0.0000e+00 3.9060e-01 -1.7993e-01 3.0367e-01 -1.3753e-01
      1239 6.6022e+05 0.0000e+00 3.5751e-01 -1.6424e-01 2.7464e-01 -1.2044e-01
      1240 3.3112e+05 0.0000e+00 3.6917e-01 -1.7725e-01 2.8462e-01 -1.4250e-01
      1241 5.5544e+04 0.0000e+00 4.1977e-01 -1.8152e-01 3.3069e-01 -1.4020e-01
      1242 5.3150e+04 0.0000e+00 3.9479e-01 -2.2637e-01 3.0101e-01 -1.5598e-01
      1243 6.7524e+04 0.0000e+00 4.0891e-01 -2.1162e-01 3.1877e-01 -1.4944e-01
      1244 2.1564e+06 0.0000e+00 3.1480e-01 -1.8221e-01 2.4164e-01 -1.3803e-01
      1245 1.3844e+05 0.0000e+00 3.7171e-01 -2.3200e-01 2.8609e-01 -1.5815e-01
      1246 3.7982e+04 0.0000e+00 4.0168e-01 -2.1827e-01 3.1101e-01 -1.5973e-01
      1247 5.2448e+05 0.0000e+00 4.3750e-01 -1.9011e-01 3.4571e-01 -1.3946e-01
      1248 1.2088e+06 0.0000e+00 3.5351e-01 -1.5449e-01 2.7072e-01 -1.1689e-01
      1249 2.9401e+05 0.0000e+00 3.5968e-01 -1.9324e-01 2.7555e-01 -1.4939e-01
      1250 3.2576e+03 0.0000e+00 3.9962e-01 -1.9071e-01 3.1015e-01 -1.4386e-01
      1251 7.6434e+05 0.0000e+00 4.6307e-01 -1.5653e-01 3.6085e-01 -1.2941e-01
      1252 4.5117e+05 0.0000e+00 3.5287e-01 -2.0265e-01 2.7452e-01 -1.5497e-01
      1253 3.9564e+05 0.0000e+00 3.5553e-01 -1.8829e-01 2.7607e-01 -1.3757e-01
      1254 5.0375e+04 0.0000e+00 3.9214e-01 -1.8731e-01 3.0591e-01 -1.4234e-01
      1255 1.6155e+05 0.0000e+00 4.3025e-01 -1.6955e-01 3.3483e-01 -1.2708e-01
      1256 2.2708e+05 0.0000e+00 3.7187e-01 -2.1252e-01 2.8764e-01 -1.5618e-01
      1257 9.6238e+05 0.0000e+00 4.5708e-01 -1.7349e-01 3.6088e-01 -1.3476e-01
      1258 1.4786e+05 0.0000e+00 4.1428e-01 -2.0955e-01 3.2788e-01 -1.4306e-01
      1259 2.9625e+04 0.0000e+00 4.0800e-01 -2.1656e-01 3.1870e-01 -1.5568e-01
      1260 4.8966e+03 0.0000e+00 3.9801e-01 -2.0138e-01 3.1206e-01 -1.4210e-01
      1261 7.4039e+05 0.0000e+00 3.5177e-01 -1.8321e-01 2.6897e-01 -1.4048e-01
      1262 1.9451e+05 0.0000e+00 3.7939e-01 -1.7389e-01 2.9207e-01 -1.3130e-01
      1263 1.4219e+06 0.0000e+00 3.2088e-01 -2.0469e-01 2.4657e-01 -1.4573e-01
      1264 1.3914e+06 0.0000e+00 4.5970e-01 -2.0528e-01 3.6266e-01 -1.4802e-01
