         0 3.0803e-02 1.0406e-02 3.9497e-01 -2.1892e-01 3.2003e-01 -1.7100e-01 1.0000e-04 5.5495e-04 -2.6707e-06 1.0100e-01 9.6250e-02 -1.0803e-01 2.0190e-01 1.7459e-01 -1.1031e-01 3.0280e-01 2.0441e-01 -5.2702e-02 4.0370e-01 1.8493e-01 -1.5545e-02 5.0460e-01 1.3488e-01 -2.9625e-03 6.0549e-01 7.8710e-02 -3.4652e-04 7.0639e-01 3.4531e-02 -2.2408e-05 8.0729e-01 9.5823e-03 -5.5592e-07 9.0819e-01 9.4056e-04 -1.0936e-09
         1 6.8959e+00 3.3617e-04 3.9466e-01 -2.1942e-01 3.1981e-01 -1.7108e-01 1.0000e-04 5.5332e-04 -2.7588e-06 1.0100e-01 9.6166e-02 -1.0837e-01 2.0190e-01 1.7447e-01 -1.1015e-01 3.0280e-01 2.0429e-01 -5.2430e-02 4.0370e-01 1.8483e-01 -1.5411e-02 5.0460e-01 1.3481e-01 -2.9264e-03 6.0549e-01 7.8672e-02 -3.4092e-04 7.0639e-01 3.4514e-02 -2.1939e-05 8.0729e-01 9.5775e-03 -5.4073e-07 9.0819e-01 9.4002e-04 -1.0521e-09
         2 3.1870e+02 6.5792e-72 3.9331e-01 -2.1868e-01 3.1868e-01 -1.7078e-01 1.0000e-04 5.5306e-04 -2.8036e-06 1.0100e-01 9.5837e-02 -1.0753e-01 2.0190e-01 1.7384e-01 -1.1024e-01 3.0280e-01 2.0355e-01 -5.3111e-02 4.0370e-01 1.8417e-01 -1.5846e-02 5.0460e-01 1.3434e-01 -3.0649e-03 6.0549e-01 7.8407e-02 -3.6544e-04 7.0639e-01 3.4405e-02 -2.4248e-05 8.0729e-01 9.5506e-03 -6.2458e-07 9.0819e-01 9.3800e-04 -1.3141e-09
         3 8.4874e-01 6.9132e-03 3.9487e-01 -2.1899e-01 3.1997e-01 -1.7096e-01 1.0000e-04 5.5381e-04 -2.7164e-06 1.0100e-01 9.6214e-02 -1.0804e-01 2.0190e-01 1.7455e-01 -1.1023e-01 3.0280e-01 2.0439e-01 -5.2677e-02 4.0370e-01 1.8493e-01 -1.5549e-02 5.0460e-01 1.3489e-01 -2.9671e-03 6.0549e-01 7.8719e-02 -3.4769e-04 7.0639e-01 3.4537e-02 -2.2542e-05 8.0729e-01 9.5847e-03 -5.6146e-07 9.0819e-01 9.4089e-04 -1.1126e-09
         4 9.1283e+01 1.5928e-22 3.9574e-01 -2.1799e-01 3.2083e-01 -1.7053e-01 1.0000e-04 5.4933e-04 -2.5374e-06 1.0100e-01 9.6393e-02 -1.0770e-01 2.0190e-01 1.7502e-01 -1.1013e-01 3.0280e-01 2.0501e-01 -5.2542e-02 4.0370e-01 1.8553e-01 -1.5450e-02 5.0460e-01 1.3534e-01 -2.9308e-03 6.0549e-01 7.8984e-02 -3.4060e-04 7.0639e-01 3.4649e-02 -2.1826e-05 8.0729e-01 9.6132e-03 -5.3410e-07 9.0819e-01 9.4307e-04 -1.0246e-09
         5 3.3220e+01 6.4620e-10 3.9477e-01 -2.1869e-01 3.1981e-01 -1.7082e-01 1.0000e-04 5.5676e-04 -2.6878e-06 1.0100e-01 9.6213e-02 -1.0787e-01 2.0190e-01 1.7447e-01 -1.1020e-01 3.0280e-01 2.0424e-01 -5.2710e-02 4.0370e-01 1.8477e-01 -1.5572e-02 5.0460e-01 1.3476e-01 -2.9738e-03 6.0549e-01 7.8639e-02 -3.4878e-04 7.0639e-01 3.4501e-02 -2.2636e-05 8.0729e-01 9.5752e-03 -5.6455e-07 9.0819e-01 9.4011e-04 -1.1211e-09
         6 9.1887e+02 3.1219e-202 3.9725e-01 -2.1703e-01 3.2198e-01 -1.6961e-01 1.0000e-04 5.5446e-04 -2.5301e-06 1.0100e-01 9.6801e-02 -1.0740e-01 2.0190e-01 1.7566e-01 -1.0939e-01 3.0280e-01 2.0569e-01 -5.1944e-02 4.0370e-01 1.8610e-01 -1.5189e-02 5.0460e-01 1.3572e-01 -2.8620e-03 6.0549e-01 7.9181e-02 -3.2985e-04 7.0639e-01 3.4726e-02 -2.0909e-05 8.0729e-01 9.6308e-03 -5.0377e-07 9.0819e-01 9.4427e-04 -9.4031e-10
         7 3.4834e+02 2.4130e-78 3.9419e-01 -2.1809e-01 3.1932e-01 -1.7050e-01 1.0000e-04 5.5655e-04 -2.7458e-06 1.0100e-01 9.6071e-02 -1.0719e-01 2.0190e-01 1.7420e-01 -1.1018e-01 3.0280e-01 2.0393e-01 -5.3188e-02 4.0370e-01 1.8448e-01 -1.5898e-02 5.0460e-01 1.3456e-01 -3.0808e-03 6.0549e-01 7.8523e-02 -3.6809e-04 7.0639e-01 3.4453e-02 -2.4484e-05 8.0729e-01 9.5630e-03 -6.3269e-07 9.0819e-01 9.3913e-04 -1.3383e-09
         8 9.8535e+02 1.1415e-216 3.9342e-01 -2.1800e-01 3.1873e-01 -1.7021e-01 1.0000e-04 5.5460e-04 -2.7590e-06 1.0100e-01 9.5882e-02 -1.0735e-01 2.0190e-01 1.7388e-01 -1.0981e-01 3.0280e-01 2.0356e-01 -5.2709e-02 4.0370e-01 1.8415e-01 -1.5651e-02 5.0460e-01 1.3431e-01 -3.0091e-03 6.0549e-01 7.8381e-02 -3.5604e-04 7.0639e-01 3.4389e-02 -2.3384e-05 8.0729e-01 9.5444e-03 -5.9347e-07 9.0819e-01 9.3714e-04 -1.2161e-09
         9 5.8412e+02 1.5277e-129 3.9481e-01 -2.1801e-01 3.2007e-01 -1.7043e-01 1.0000e-04 5.4840e-04 -2.6389e-06 1.0100e-01 9.6150e-02 -1.0750e-01 2.0190e-01 1.7458e-01 -1.1005e-01 3.0280e-01 2.0453e-01 -5.2714e-02 4.0370e-01 1.8513e-01 -1.5593e-02 5.0460e-01 1.3508e-01 -2.9817e-03 6.0549e-01 7.8847e-02 -3.5019e-04 7.0639e-01 3.4601e-02 -2.2763e-05 8.0729e-01 9.6046e-03 -5.6887e-07 9.0819e-01 9.4307e-04 -1.1334e-09
        10 3.0046e+02 6.0122e-68 3.9446e-01 -2.1764e-01 3.1954e-01 -1.7038e-01 1.0000e-04 5.5685e-04 -2.5386e-06 1.0100e-01 9.6153e-02 -1.0735e-01 2.0190e-01 1.7434e-01 -1.1016e-01 3.0280e-01 2.0406e-01 -5.2798e-02 4.0370e-01 1.8458e-01 -1.5611e-02 5.0460e-01 1.3461e-01 -2.9812e-03 6.0549e-01 7.8535e-02 -3.4936e-04 7.0639e-01 3.4449e-02 -2.2634e-05 8.0729e-01 9.5580e-03 -5.6264e-07 9.0819e-01 9.3796e-04 -1.1097e-09
        11 9.2503e+02 1.4308e-203 3.9375e-01 -2.1762e-01 3.1885e-01 -1.7030e-01 1.0000e-04 5.6050e-04 -2.7188e-06 1.0100e-01 9.5997e-02 -1.0683e-01 2.0190e-01 1.7395e-01 -1.1019e-01 3.0280e-01 2.0356e-01 -5.3387e-02 4.0370e-01 1.8411e-01 -1.6024e-02 5.0460e-01 1.3427e-01 -3.1204e-03 6.0549e-01 7.8350e-02 -3.7505e-04 7.0639e-01 3.4377e-02 -2.5139e-05 8.0729e-01 9.5426e-03 -6.5674e-07 9.0819e-01 9.3738e-04 -1.4160e-09
        12 1.6647e+00 4.5971e-03 3.9430e-01 -2.1886e-01 3.1926e-01 -1.7094e-01 1.0000e-04 5.6276e-04 -2.7790e-06 1.0100e-01 9.6143e-02 -1.0767e-01 2.0190e-01 1.7418e-01 -1.1035e-01 3.0280e-01 2.0380e-01 -5.3098e-02 4.0370e-01 1.8432e-01 -1.5815e-02 5.0460e-01 1.3441e-01 -3.0521e-03 6.0549e-01 7.8427e-02 -3.6286e-04 7.0639e-01 3.4410e-02 -2.3982e-05 8.0729e-01 9.5517e-03 -6.1414e-07 9.0819e-01 9.3831e-04 -1.2787e-09
        13 1.3996e+03 1.2932e-306 3.9325e-01 -2.1744e-01 3.1851e-01 -1.7016e-01 1.0000e-04 5.5724e-04 -2.7120e-06 1.0100e-01 9.5860e-02 -1.0676e-01 2.0190e-01 1.7377e-01 -1.1009e-01 3.0280e-01 2.0338e-01 -5.3323e-02 4.0370e-01 1.8397e-01 -1.5997e-02 5.0460e-01 1.3417e-01 -3.1133e-03 6.0549e-01 7.8295e-02 -3.7391e-04 7.0639e-01 3.4352e-02 -2.5036e-05 8.0729e-01 9.5348e-03 -6.5307e-07 9.0819e-01 9.3640e-04 -1.4043e-09
        14 3.0379e+01 2.6743e-09 3.9251e-01 -2.1978e-01 3.1795e-01 -1.7125e-01 1.0000e-04 5.5468e-04 -2.9717e-06 1.0100e-01 9.5660e-02 -1.0806e-01 2.0190e-01 1.7345e-01 -1.1031e-01 3.0280e-01 2.0305e-01 -5.3043e-02 4.0370e-01 1.8369e-01 -1.5816e-02 5.0460e-01 1.3398e-01 -3.0601e-03 6.0549e-01 7.8195e-02 -3.6530e-04 7.0639e-01 3.4313e-02 -2.4294e-05 8.0729e-01 9.5254e-03 -6.2826e-07 9.0819e-01 9.3570e-04 -1.3325e-09
        15 7.6072e+01 3.2008e-19 3.9721e-01 -2.1874e-01 3.2211e-01 -1.7095e-01 1.0000e-04 5.4798e-04 -2.4963e-06 1.0100e-01 9.6731e-02 -1.0842e-01 2.0190e-01 1.7571e-01 -1.1020e-01 3.0280e-01 2.0588e-01 -5.2120e-02 4.0370e-01 1.8634e-01 -1.5157e-02 5.0460e-01 1.3594e-01 -2.8361e-03 6.0549e-01 7.9332e-02 -3.2392e-04 7.0639e-01 3.4800e-02 -2.0285e-05 8.0729e-01 9.6534e-03 -4.8019e-07 9.0819e-01 9.4664e-04 -8.6839e-10
        16 4.5953e+02 1.7341e-102 3.9568e-01 -2.1753e-01 3.2061e-01 -1.7006e-01 1.0000e-04 5.5568e-04 -2.5520e-06 1.0100e-01 9.6431e-02 -1.0752e-01 2.0190e-01 1.7491e-01 -1.0974e-01 3.0280e-01 2.0478e-01 -5.2271e-02 4.0370e-01 1.8525e-01 -1.5343e-02 5.0460e-01 1.3511e-01 -2.9046e-03 6.0549e-01 7.8831e-02 -3.3676e-04 7.0639e-01 3.4578e-02 -2.1515e-05 8.0729e-01 9.5931e-03 -5.2430e-07 9.0819e-01 9.4120e-04 -9.9856e-10
        17 7.8120e+01 1.1495e-19 3.9369e-01 -2.1827e-01 3.1883e-01 -1.7075e-01 1.0000e-04 5.5952e-04 -2.6701e-06 1.0100e-01 9.5978e-02 -1.0740e-01 2.0190e-01 1.7394e-01 -1.1038e-01 3.0280e-01 2.0356e-01 -5.3166e-02 4.0370e-01 1.8412e-01 -1.5836e-02 5.0460e-01 1.3427e-01 -3.0540e-03 6.0549e-01 7.8352e-02 -3.6256e-04 7.0639e-01 3.4377e-02 -2.3906e-05 8.0729e-01 9.5423e-03 -6.0982e-07 9.0819e-01 9.3726e-04 -1.2601e-09
        18 1.2316e+03 3.9211e-270 3.9406e-01 -2.1829e-01 3.1937e-01 -1.7026e-01 1.0000e-04 5.5074e-04 -2.7219e-06 1.0100e-01 9.5985e-02 -1.0782e-01 2.0190e-01 1.7420e-01 -1.0965e-01 3.0280e-01 2.0404e-01 -5.2207e-02 4.0370e-01 1.8466e-01 -1.5345e-02 5.0460e-01 1.3473e-01 -2.9134e-03 6.0549e-01 7.8645e-02 -3.3930e-04 7.0639e-01 3.4515e-02 -2.1823e-05 8.0729e-01 9.5828e-03 -5.3740e-07 9.0819e-01 9.4134e-04 -1.0438e-09
        19 1.5832e+02 4.4185e-37 3.9768e-01 -2.1802e-01 3.2243e-01 -1.7069e-01 1.0000e-04 5.5130e-04 -2.3372e-06 1.0100e-01 9.6879e-02 -1.0825e-01 2.0190e-01 1.7590e-01 -1.1018e-01 3.0280e-01 2.0603e-01 -5.1982e-02 4.0370e-01 1.8643e-01 -1.5044e-02 5.0460e-01 1.3598e-01 -2.7949e-03 6.0549e-01 7.9339e-02 -3.1610e-04 7.0639e-01 3.4795e-02 -1.9527e-05 8.0729e-01 9.6493e-03 -4.5288e-07 9.0819e-01 9.4586e-04 -7.8900e-10
        20 4.7406e+02 1.2119e-105 3.9430e-01 -2.1762e-01 3.1937e-01 -1.7037e-01 1.0000e-04 5.5873e-04 -2.5888e-06 1.0100e-01 9.6110e-02 -1.0717e-01 2.0190e-01 1.7423e-01 -1.1019e-01 3.0280e-01 2.0393e-01 -5.3013e-02 4.0370e-01 1.8447e-01 -1.5754e-02 5.0460e-01 1.3454e-01 -3.0283e-03 6.0549e-01 7.8517e-02 -3.5788e-04 7.0639e-01 3.4452e-02 -2.3449e-05 8.0729e-01 9.5638e-03 -5.9256e-07 9.0819e-01 9.3945e-04 -1.2036e-09
        21 4.8628e+02 2.6925e-108 3.9913e-01 -2.1724e-01 3.2384e-01 -1.6978e-01 1.0000e-04 5.4448e-04 -2.3140e-06 1.0100e-01 9.7165e-02 -1.0828e-01 2.0190e-01 1.7665e-01 -1.0928e-01 3.0280e-01 2.0706e-01 -5.1005e-02 4.0370e-01 1.8745e-01 -1.4569e-02 5.0460e-01 1.3676e-01 -2.6638e-03 6.0549e-01 7.9809e-02 -2.9533e-04 7.0639e-01 3.5003e-02 -1.7772e-05 8.0729e-01 9.7063e-03 -3.9700e-07 9.0819e-01 9.5105e-04 -6.4718e-10
        22 2.5695e+00 2.9243e-03 3.9577e-01 -2.1903e-01 3.2072e-01 -1.7090e-01 1.0000e-04 5.5469e-04 -2.6697e-06 1.0100e-01 9.6435e-02 -1.0832e-01 2.0190e-01 1.7496e-01 -1.1006e-01 3.0280e-01 2.0487e-01 -5.2265e-02 4.0370e-01 1.8536e-01 -1.5303e-02 5.0460e-01 1.3520e-01 -2.8909e-03 6.0549e-01 7.8898e-02 -3.3445e-04 7.0639e-01 3.4613e-02 -2.1319e-05 8.0729e-01 9.6051e-03 -5.1810e-07 9.0819e-01 9.4273e-04 -9.8273e-10
        23 5.4497e+02 4.8339e-121 3.9412e-01 -2.1900e-01 3.1935e-01 -1.7078e-01 1.0000e-04 5.5342e-04 -2.8390e-06 1.0100e-01 9.6033e-02 -1.0787e-01 2.0190e-01 1.7421e-01 -1.1004e-01 3.0280e-01 2.0399e-01 -5.2725e-02 4.0370e-01 1.8457e-01 -1.5633e-02 5.0460e-01 1.3463e-01 -3.0019e-03 6.0549e-01 7.8573e-02 -3.5477e-04 7.0639e-01 3.4476e-02 -2.3272e-05 8.0729e-01 9.5691e-03 -5.8978e-07 9.0819e-01 9.3962e-04 -1.2060e-09
        24 1.2993e+02 6.4546e-31 3.9361e-01 -2.1863e-01 3.1893e-01 -1.7077e-01 1.0000e-04 5.5323e-04 -2.7925e-06 1.0100e-01 9.5914e-02 -1.0751e-01 2.0190e-01 1.7398e-01 -1.1025e-01 3.0280e-01 2.0371e-01 -5.3116e-02 4.0370e-01 1.8431e-01 -1.5846e-02 5.0460e-01 1.3444e-01 -3.0646e-03 6.0549e-01 7.8456e-02 -3.6531e-04 7.0639e-01 3.4424e-02 -2.4231e-05 8.0729e-01 9.5543e-03 -6.2378e-07 9.0819e-01 9.3812e-04 -1.3110e-09
        25 7.2032e+00 2.8829e-04 3.9461e-01 -2.1854e-01 3.1965e-01 -1.7078e-01 1.0000e-04 5.5777e-04 -2.6330e-06 1.0100e-01 9.6174e-02 -1.0787e-01 2.0190e-01 1.7438e-01 -1.1021e-01 3.0280e-01 2.0413e-01 -5.2646e-02 4.0370e-01 1.8467e-01 -1.5520e-02 5.0460e-01 1.3470e-01 -2.9550e-03 6.0549e-01 7.8612e-02 -3.4519e-04 7.0639e-01 3.4495e-02 -2.2280e-05 8.0729e-01 9.5761e-03 -5.5113e-07 9.0819e-01 9.4068e-04 -1.0783e-09
        26 7.3856e+02 4.4461e-163 3.9434e-01 -2.1800e-01 3.1947e-01 -1.7041e-01 1.0000e-04 5.5602e-04 -2.7449e-06 1.0100e-01 9.6102e-02 -1.0717e-01 2.0190e-01 1.7428e-01 -1.1011e-01 3.0280e-01 2.0403e-01 -5.3117e-02 4.0370e-01 1.8458e-01 -1.5865e-02 5.0460e-01 1.3463e-01 -3.0715e-03 6.0549e-01 7.8568e-02 -3.6657e-04 7.0639e-01 3.4473e-02 -2.4346e-05 8.0729e-01 9.5685e-03 -6.2780e-07 9.0819e-01 9.3965e-04 -1.3230e-09
        27 1.0423e+03 4.8754e-229 3.9188e-01 -2.1787e-01 3.1717e-01 -1.7034e-01 1.0000e-04 5.6406e-04 -2.8083e-06 1.0100e-01 9.5572e-02 -1.0686e-01 2.0190e-01 1.7304e-01 -1.1014e-01 3.0280e-01 2.0242e-01 -5.3426e-02 4.0370e-01 1.8304e-01 -1.6073e-02 5.0460e-01 1.3348e-01 -3.1407e-03 6.0549e-01 7.7891e-02 -3.7927e-04 7.0639e-01 3.4182e-02 -2.5591e-05 8.0729e-01 9.4924e-03 -6.7518e-07 9.0819e-01 9.3327e-04 -1.4822e-09
        28 3.7614e+01 7.1819e-11 3.9437e-01 -2.1865e-01 3.1924e-01 -1.7084e-01 1.0000e-04 5.6564e-04 -2.7081e-06 1.0100e-01 9.6184e-02 -1.0772e-01 2.0190e-01 1.7418e-01 -1.1028e-01 3.0280e-01 2.0375e-01 -5.2916e-02 4.0370e-01 1.8424e-01 -1.5695e-02 5.0460e-01 1.3434e-01 -3.0123e-03 6.0549e-01 7.8378e-02 -3.5553e-04 7.0639e-01 3.4386e-02 -2.3267e-05 8.0729e-01 9.5446e-03 -5.8732e-07 9.0819e-01 9.3759e-04 -1.1916e-09
        29 7.0726e+02 2.7875e-156 3.9322e-01 -2.1824e-01 3.1835e-01 -1.7033e-01 1.0000e-04 5.6225e-04 -2.9099e-06 1.0100e-01 9.5876e-02 -1.0710e-01 2.0190e-01 1.7368e-01 -1.0993e-01 3.0280e-01 2.0322e-01 -5.3172e-02 4.0370e-01 1.8379e-01 -1.5958e-02 5.0460e-01 1.3403e-01 -3.1112e-03 6.0549e-01 7.8218e-02 -3.7485e-04 7.0639e-01 3.4324e-02 -2.5227e-05 8.0729e-01 9.5302e-03 -6.6347e-07 9.0819e-01 9.3664e-04 -1.4493e-09
        30 9.4682e+01 2.9103e-23 3.9731e-01 -2.1783e-01 3.2217e-01 -1.7031e-01 1.0000e-04 5.4887e-04 -2.3724e-06 1.0100e-01 9.6768e-02 -1.0829e-01 2.0190e-01 1.7575e-01 -1.0975e-01 3.0280e-01 2.0590e-01 -5.1560e-02 4.0370e-01 1.8634e-01 -1.4853e-02 5.0460e-01 1.3593e-01 -2.7451e-03 6.0549e-01 7.9317e-02 -3.0854e-04 7.0639e-01 3.4788e-02 -1.8908e-05 8.0729e-01 9.6485e-03 -4.3366e-07 9.0819e-01 9.4589e-04 -7.4097e-10
        31 4.8928e+02 5.9894e-109 3.9371e-01 -2.1818e-01 3.1910e-01 -1.7039e-01 1.0000e-04 5.4971e-04 -2.6609e-06 1.0100e-01 9.5905e-02 -1.0772e-01 2.0190e-01 1.7406e-01 -1.0988e-01 3.0280e-01 2.0387e-01 -5.2429e-02 4.0370e-01 1.8450e-01 -1.5441e-02 5.0460e-01 1.3460e-01 -2.9374e-03 6.0549e-01 7.8562e-02 -3.4281e-04 7.0639e-01 3.4474e-02 -2.2103e-05 8.0729e-01 9.5692e-03 -5.4603e-07 9.0819e-01 9.3962e-04 -1.0661e-09
        32 2.4856e+01 4.2319e-08 3.9630e-01 -2.1945e-01 3.2133e-01 -1.7117e-01 1.0000e-04 5.4881e-04 -2.6495e-06 1.0100e-01 9.6525e-02 -1.0867e-01 2.0190e-01 1.7528e-01 -1.1016e-01 3.0280e-01 2.0534e-01 -5.2134e-02 4.0370e-01 1.8584e-01 -1.5199e-02 5.0460e-01 1.3557e-01 -2.8554e-03 6.0549e-01 7.9113e-02 -3.2806e-04 7.0639e-01 3.4704e-02 -2.0720e-05 8.0729e-01 9.6273e-03 -4.9689e-07 9.0819e-01 9.4424e-04 -9.2043e-10
        33 3.6187e+01 1.4661e-10 3.9431e-01 -2.1909e-01 3.1948e-01 -1.7106e-01 1.0000e-04 5.5445e-04 -2.7195e-06 1.0100e-01 9.6084e-02 -1.0806e-01 2.0190e-01 1.7428e-01 -1.1031e-01 3.0280e-01 2.0406e-01 -5.2744e-02 4.0370e-01 1.8462e-01 -1.5580e-02 5.0460e-01 1.3467e-01 -2.9756e-03 6.0549e-01 7.8592e-02 -3.4908e-04 7.0639e-01 3.4484e-02 -2.2665e-05 8.0729e-01 9.5711e-03 -5.6571e-07 9.0819e-01 9.3981e-04 -1.1251e-09
        34 3.6252e+02 2.0147e-81 3.9442e-01 -2.1855e-01 3.1962e-01 -1.7062e-01 1.0000e-04 5.5296e-04 -2.6802e-06 1.0100e-01 9.6104e-02 -1.0793e-01 2.0190e-01 1.7436e-01 -1.0998e-01 3.0280e-01 2.0417e-01 -5.2427e-02 4.0370e-01 1.8473e-01 -1.5425e-02 5.0460e-01 1.3475e-01 -2.9313e-03 6.0549e-01 7.8635e-02 -3.4168e-04 7.0639e-01 3.4500e-02 -2.1996e-05 8.0729e-01 9.5745e-03 -5.4223e-07 9.0819e-01 9.3988e-04 -1.0548e-09
        35 3.1834e+00 2.1513e-03 3.9527e-01 -2.1870e-01 3.2044e-01 -1.7092e-01 1.0000e-04 5.4926e-04 -2.5590e-06 1.0100e-01 9.6276e-02 -1.0818e-01 2.0190e-01 1.7480e-01 -1.1025e-01 3.0280e-01 2.0475e-01 -5.2399e-02 4.0370e-01 1.8530e-01 -1.5340e-02 5.0460e-01 1.3518e-01 -2.8948e-03 6.0549e-01 7.8897e-02 -3.3427e-04 7.0639e-01 3.4615e-02 -2.1243e-05 8.0729e-01 9.6055e-03 -5.1374e-07 9.0819e-01 9.4262e-04 -9.6530e-10
        36 4.7860e+02 1.2509e-106 3.9533e-01 -2.1811e-01 3.2043e-01 -1.7025e-01 1.0000e-04 5.5143e-04 -2.5844e-06 1.0100e-01 9.6317e-02 -1.0802e-01 2.0190e-01 1.7480e-01 -1.0965e-01 3.0280e-01 2.0472e-01 -5.1907e-02 4.0370e-01 1.8524e-01 -1.5130e-02 5.0460e-01 1.3511e-01 -2.8408e-03 6.0549e-01 7.8841e-02 -3.2605e-04 7.0639e-01 3.4584e-02 -2.0560e-05 8.0729e-01 9.5948e-03 -4.9180e-07 9.0819e-01 9.4126e-04 -9.0658e-10
        37 8.0866e+02 2.6680e-178 3.9650e-01 -2.1701e-01 3.2124e-01 -1.6979e-01 1.0000e-04 5.5800e-04 -2.5200e-06 1.0100e-01 9.6646e-02 -1.0719e-01 2.0190e-01 1.7527e-01 -1.0968e-01 3.0280e-01 2.0516e-01 -5.2360e-02 4.0370e-01 1.8558e-01 -1.5406e-02 5.0460e-01 1.3533e-01 -2.9246e-03 6.0549e-01 7.8952e-02 -3.4019e-04 7.0639e-01 3.4627e-02 -2.1824e-05 8.0729e-01 9.6052e-03 -5.3488e-07 9.0819e-01 9.4217e-04 -1.0289e-09
        38 1.2429e+02 1.0853e-29 3.9385e-01 -2.1869e-01 3.1897e-01 -1.7080e-01 1.0000e-04 5.5889e-04 -2.7544e-06 1.0100e-01 9.6015e-02 -1.0768e-01 2.0190e-01 1.7402e-01 -1.1022e-01 3.0280e-01 2.0366e-01 -5.2935e-02 4.0370e-01 1.8421e-01 -1.5726e-02 5.0460e-01 1.3434e-01 -3.0250e-03 6.0549e-01 7.8385e-02 -3.5812e-04 7.0639e-01 3.4388e-02 -2.3536e-05 8.0729e-01 9.5440e-03 -5.9785e-07 9.0819e-01 9.3715e-04 -1.2269e-09
        39 5.8640e+01 1.9524e-15 3.9451e-01 -2.1867e-01 3.1955e-01 -1.7077e-01 1.0000e-04 5.5806e-04 -2.6858e-06 1.0100e-01 9.6166e-02 -1.0790e-01 2.0190e-01 1.7434e-01 -1.1014e-01 3.0280e-01 2.0405e-01 -5.2621e-02 4.0370e-01 1.8457e-01 -1.5524e-02 5.0460e-01 1.3460e-01 -2.9598e-03 6.0549e-01 7.8540e-02 -3.4642e-04 7.0639e-01 3.4454e-02 -2.2422e-05 8.0729e-01 9.5612e-03 -5.5702e-07 9.0819e-01 9.3861e-04 -1.0985e-09
        40 6.9312e+02 3.2757e-153 3.9346e-01 -2.1800e-01 3.1871e-01 -1.7040e-01 1.0000e-04 5.5660e-04 -2.7010e-06 1.0100e-01 9.5896e-02 -1.0732e-01 2.0190e-01 1.7386e-01 -1.1005e-01 3.0280e-01 2.0352e-01 -5.2914e-02 4.0370e-01 1.8411e-01 -1.5733e-02 5.0460e-01 1.3429e-01 -3.0285e-03 6.0549e-01 7.8372e-02 -3.5876e-04 7.0639e-01 3.4390e-02 -2.3593e-05 8.0729e-01 9.5468e-03 -5.9968e-07 9.0819e-01 9.3781e-04 -1.2316e-09
        41 1.2116e+00 5.7662e-03 3.9454e-01 -2.1883e-01 3.1959e-01 -1.7092e-01 1.0000e-04 5.5767e-04 -2.6995e-06 1.0100e-01 9.6173e-02 -1.0791e-01 2.0190e-01 1.7436e-01 -1.1026e-01 3.0280e-01 2.0408e-01 -5.2762e-02 4.0370e-01 1.8460e-01 -1.5597e-02 5.0460e-01 1.3462e-01 -2.9811e-03 6.0549e-01 7.8547e-02 -3.5002e-04 7.0639e-01 3.4456e-02 -2.2751e-05 8.0729e-01 9.5609e-03 -5.6863e-07 9.0819e-01 9.3843e-04 -1.1336e-09
        42 1.2890e+02 1.0828e-30 3.9653e-01 -2.1802e-01 3.2139e-01 -1.7030e-01 1.0000e-04 5.5365e-04 -2.5651e-06 1.0100e-01 9.6621e-02 -1.0790e-01 2.0190e-01 1.7533e-01 -1.0978e-01 3.0280e-01 2.0532e-01 -5.2088e-02 4.0370e-01 1.8576e-01 -1.5221e-02 5.0460e-01 1.3548e-01 -2.8663e-03 6.0549e-01 7.9049e-02 -3.3013e-04 7.0639e-01 3.4671e-02 -2.0912e-05 8.0729e-01 9.6170e-03 -5.0340e-07 9.0819e-01 9.4316e-04 -9.3831e-10
        43 5.8307e+02 2.5813e-129 3.9399e-01 -2.1861e-01 3.1926e-01 -1.7035e-01 1.0000e-04 5.5280e-04 -2.8194e-06 1.0100e-01 9.5997e-02 -1.0787e-01 2.0190e-01 1.7416e-01 -1.0963e-01 3.0280e-01 2.0393e-01 -5.2276e-02 4.0370e-01 1.8452e-01 -1.5409e-02 5.0460e-01 1.3460e-01 -2.9373e-03 6.0549e-01 7.8555e-02 -3.4398e-04 7.0639e-01 3.4468e-02 -2.2295e-05 8.0729e-01 9.5670e-03 -5.5536e-07 9.0819e-01 9.3938e-04 -1.1015e-09
        44 6.2750e+03 0.0000e+00 3.9692e-01 -2.1488e-01 3.2172e-01 -1.6842e-01 1.0000e-04 5.5333e-04 -2.3945e-06 1.0100e-01 9.6700e-02 -1.0615e-01 2.0190e-01 1.7551e-01 -1.0897e-01 3.0280e-01 2.0555e-01 -5.2092e-02 4.0370e-01 1.8599e-01 -1.5332e-02 5.0460e-01 1.3567e-01 -2.9094e-03 6.0549e-01 7.9167e-02 -3.3803e-04 7.0639e-01 3.4728e-02 -2.1641e-05 8.0729e-01 9.6350e-03 -5.2854e-07 9.0819e-01 9.4524e-04 -1.0096e-09
        45 8.2852e+02 1.2991e-182 3.9455e-01 -2.1766e-01 3.1974e-01 -1.7031e-01 1.0000e-04 5.5274e-04 -2.5962e-06 1.0100e-01 9.6132e-02 -1.0728e-01 2.0190e-01 1.7442e-01 -1.1008e-01 3.0280e-01 2.0425e-01 -5.2833e-02 4.0370e-01 1.8481e-01 -1.5658e-02 5.0460e-01 1.3481e-01 -2.9999e-03 6.0549e-01 7.8673e-02 -3.5311e-04 7.0639e-01 3.4518e-02 -2.3015e-05 8.0729e-01 9.5797e-03 -5.7729e-07 9.0819e-01 9.4043e-04 -1.1573e-09
        46 9.9229e+00 7.4004e-05 3.9456e-01 -2.1896e-01 3.1971e-01 -1.7101e-01 1.0000e-04 5.5415e-04 -2.6666e-06 1.0100e-01 9.6153e-02 -1.0810e-01 2.0190e-01 1.7441e-01 -1.1028e-01 3.0280e-01 2.0421e-01 -5.2630e-02 4.0370e-01 1.8474e-01 -1.5502e-02 5.0460e-01 1.3475e-01 -2.9492e-03 6.0549e-01 7.8627e-02 -3.4422e-04 7.0639e-01 3.4493e-02 -2.2196e-05 8.0729e-01 9.5709e-03 -5.4838e-07 9.0819e-01 9.3931e-04 -1.0709e-09
        47 3.8875e+01 3.8236e-11 3.9490e-01 -2.1855e-01 3.1977e-01 -1.7080e-01 1.0000e-04 5.6232e-04 -2.7117e-06 1.0100e-01 9.6289e-02 -1.0761e-01 2.0190e-01 1.7447e-01 -1.1030e-01 3.0280e-01 2.0415e-01 -5.3001e-02 4.0370e-01 1.8462e-01 -1.5749e-02 5.0460e-01 1.3462e-01 -3.0296e-03 6.0549e-01 7.8546e-02 -3.5858e-04 7.0639e-01 3.4457e-02 -2.3555e-05 8.0729e-01 9.5623e-03 -5.9780e-07 9.0819e-01 9.3889e-04 -1.2245e-09
        48 2.3731e+03 0.0000e+00 3.9464e-01 -2.1709e-01 3.1978e-01 -1.6954e-01 1.0000e-04 5.5382e-04 -2.7006e-06 1.0100e-01 9.6159e-02 -1.0700e-01 2.0190e-01 1.7445e-01 -1.0938e-01 3.0280e-01 2.0426e-01 -5.2406e-02 4.0370e-01 1.8482e-01 -1.5518e-02 5.0460e-01 1.3481e-01 -2.9726e-03 6.0549e-01 7.8677e-02 -3.5003e-04 7.0639e-01 3.4521e-02 -2.2840e-05 8.0729e-01 9.5810e-03 -5.7411e-07 9.0819e-01 9.4069e-04 -1.1563e-09
        49 1.1574e+03 4.9078e-254 3.9285e-01 -2.1800e-01 3.1826e-01 -1.7034e-01 1.0000e-04 5.5415e-04 -2.8086e-06 1.0100e-01 9.5741e-02 -1.0705e-01 2.0190e-01 1.7362e-01 -1.1005e-01 3.0280e-01 2.0325e-01 -5.3201e-02 4.0370e-01 1.8388e-01 -1.5942e-02 5.0460e-01 1.3412e-01 -3.0999e-03 6.0549e-01 7.8271e-02 -3.7210e-04 7.0639e-01 3.4343e-02 -2.4909e-05 8.0729e-01 9.5327e-03 -6.4979e-07 9.0819e-01 9.3618e-04 -1.3983e-09
        50 7.0318e+00 3.1408e-04 3.9388e-01 -2.1972e-01 3.1912e-01 -1.7113e-01 1.0000e-04 5.5475e-04 -2.8325e-06 1.0100e-01 9.5983e-02 -1.0852e-01 2.0190e-01 1.7408e-01 -1.1006e-01 3.0280e-01 2.0381e-01 -5.2346e-02 4.0370e-01 1.8440e-01 -1.5381e-02 5.0460e-01 1.3451e-01 -2.9212e-03 6.0549e-01 7.8503e-02 -3.4051e-04 7.0639e-01 3.4447e-02 -2.1937e-05 8.0729e-01 9.5623e-03 -5.4169e-07 9.0819e-01 9.3919e-04 -1.0580e-09
        51 7.8697e+01 8.6127e-20 3.9502e-01 -2.1972e-01 3.2006e-01 -1.7129e-01 1.0000e-04 5.5537e-04 -2.8015e-06 1.0100e-01 9.6255e-02 -1.0844e-01 2.0190e-01 1.7460e-01 -1.1028e-01 3.0280e-01 2.0443e-01 -5.2582e-02 4.0370e-01 1.8496e-01 -1.5493e-02 5.0460e-01 1.3492e-01 -2.9514e-03 6.0549e-01 7.8741e-02 -3.4528e-04 7.0639e-01 3.4550e-02 -2.2347e-05 8.0729e-01 9.5900e-03 -5.5537e-07 9.0819e-01 9.4174e-04 -1.0969e-09
        52 1.8046e+02 6.8972e-42 3.9660e-01 -2.1844e-01 3.2141e-01 -1.7060e-01 1.0000e-04 5.5504e-04 -2.6512e-06 1.0100e-01 9.6637e-02 -1.0788e-01 2.0190e-01 1.7534e-01 -1.1001e-01 3.0280e-01 2.0532e-01 -5.2452e-02 4.0370e-01 1.8577e-01 -1.5432e-02 5.0460e-01 1.3549e-01 -2.9316e-03 6.0549e-01 7.9064e-02 -3.4154e-04 7.0639e-01 3.4683e-02 -2.1969e-05 8.0729e-01 9.6231e-03 -5.4085e-07 9.0819e-01 9.4424e-04 -1.0495e-09
        53 6.7877e+02 4.2671e-150 3.9442e-01 -2.1856e-01 3.1953e-01 -1.7047e-01 1.0000e-04 5.5624e-04 -2.7942e-06 1.0100e-01 9.6129e-02 -1.0775e-01 2.0190e-01 1.7432e-01 -1.0983e-01 3.0280e-01 2.0407e-01 -5.2527e-02 4.0370e-01 1.8461e-01 -1.5534e-02 5.0460e-01 1.3464e-01 -2.9726e-03 6.0549e-01 7.8570e-02 -3.4973e-04 7.0639e-01 3.4471e-02 -2.2803e-05 8.0729e-01 9.5668e-03 -5.7280e-07 9.0819e-01 9.3927e-04 -1.1528e-09
        54 3.2236e+01 1.0569e-09 3.9535e-01 -2.1852e-01 3.2034e-01 -1.7061e-01 1.0000e-04 5.5542e-04 -2.6298e-06 1.0100e-01 9.6362e-02 -1.0805e-01 2.0190e-01 1.7478e-01 -1.0995e-01 3.0280e-01 2.0460e-01 -5.2267e-02 4.0370e-01 1.8508e-01 -1.5318e-02 5.0460e-01 1.3497e-01 -2.8959e-03 6.0549e-01 7.8741e-02 -3.3530e-04 7.0639e-01 3.4534e-02 -2.1392e-05 8.0729e-01 9.5789e-03 -5.2044e-07 9.0819e-01 9.3948e-04 -9.8881e-10
        55 1.5704e+03 0.0000e+00 3.9261e-01 -2.1794e-01 3.1791e-01 -1.7014e-01 1.0000e-04 5.5944e-04 -2.8350e-06 1.0100e-01 9.5715e-02 -1.0711e-01 2.0190e-01 1.7344e-01 -1.0981e-01 3.0280e-01 2.0296e-01 -5.2943e-02 4.0370e-01 1.8357e-01 -1.5818e-02 5.0460e-01 1.3388e-01 -3.0655e-03 6.0549e-01 7.8130e-02 -3.6648e-04 7.0639e-01 3.4284e-02 -2.4407e-05 8.0729e-01 9.5186e-03 -6.3212e-07 9.0819e-01 9.3534e-04 -1.3432e-09
        56 2.3031e+02 1.0316e-52 3.9401e-01 -2.1899e-01 3.1919e-01 -1.7079e-01 1.0000e-04 5.5605e-04 -2.7721e-06 1.0100e-01 9.6032e-02 -1.0807e-01 2.0190e-01 1.7413e-01 -1.1000e-01 3.0280e-01 2.0384e-01 -5.2484e-02 4.0370e-01 1.8440e-01 -1.5473e-02 5.0460e-01 1.3449e-01 -2.9491e-03 6.0549e-01 7.8479e-02 -3.4520e-04 7.0639e-01 3.4431e-02 -2.2355e-05 8.0729e-01 9.5555e-03 -5.5602e-07 9.0819e-01 9.3816e-04 -1.0995e-09
        57 7.9100e+00 2.0247e-04 3.9694e-01 -2.1896e-01 3.2187e-01 -1.7071e-01 1.0000e-04 5.4874e-04 -2.5869e-06 1.0100e-01 9.6684e-02 -1.0871e-01 2.0190e-01 1.7559e-01 -1.0974e-01 3.0280e-01 2.0570e-01 -5.1588e-02 4.0370e-01 1.8615e-01 -1.4910e-02 5.0460e-01 1.3579e-01 -2.7710e-03 6.0549e-01 7.9232e-02 -3.1399e-04 7.0639e-01 3.4750e-02 -1.9470e-05 8.0729e-01 9.6376e-03 -4.5466e-07 9.0819e-01 9.4477e-04 -8.0320e-10
        58 1.1405e+03 2.3454e-250 3.9434e-01 -2.1742e-01 3.1954e-01 -1.7003e-01 1.0000e-04 5.5344e-04 -2.6122e-06 1.0100e-01 9.6077e-02 -1.0720e-01 2.0190e-01 1.7430e-01 -1.0983e-01 3.0280e-01 2.0411e-01 -5.2644e-02 4.0370e-01 1.8469e-01 -1.5580e-02 5.0460e-01 1.3473e-01 -2.9805e-03 6.0549e-01 7.8639e-02 -3.5020e-04 7.0639e-01 3.4509e-02 -2.2775e-05 8.0729e-01 9.5797e-03 -5.6948e-07 9.0819e-01 9.4090e-04 -1.1356e-09
        59 2.0165e+03 0.0000e+00 3.9608e-01 -2.1658e-01 3.2088e-01 -1.6930e-01 1.0000e-04 5.5827e-04 -2.5764e-06 1.0100e-01 9.6547e-02 -1.0696e-01 2.0190e-01 1.7507e-01 -1.0926e-01 3.0280e-01 2.0493e-01 -5.2142e-02 4.0370e-01 1.8537e-01 -1.5347e-02 5.0460e-01 1.3517e-01 -2.9158e-03 6.0549e-01 7.8865e-02 -3.3963e-04 7.0639e-01 3.4591e-02 -2.1835e-05 8.0729e-01 9.5964e-03 -5.3700e-07 9.0819e-01 9.4153e-04 -1.0397e-09
        60 8.1324e+00 1.8116e-04 3.9724e-01 -2.1817e-01 3.2192e-01 -1.7057e-01 1.0000e-04 5.5617e-04 -2.5233e-06 1.0100e-01 9.6808e-02 -1.0796e-01 2.0190e-01 1.7563e-01 -1.1004e-01 3.0280e-01 2.0564e-01 -5.2276e-02 4.0370e-01 1.8603e-01 -1.5290e-02 5.0460e-01 1.3567e-01 -2.8814e-03 6.0549e-01 7.9151e-02 -3.3210e-04 7.0639e-01 3.4713e-02 -2.1050e-05 8.0729e-01 9.6283e-03 -5.0708e-07 9.0819e-01 9.4421e-04 -9.4602e-10
        61 7.9701e+02 9.0453e-176 3.9554e-01 -2.1791e-01 3.2055e-01 -1.7022e-01 1.0000e-04 5.5362e-04 -2.7266e-06 1.0100e-01 9.6375e-02 -1.0731e-01 2.0190e-01 1.7487e-01 -1.0986e-01 3.0280e-01 2.0477e-01 -5.2746e-02 4.0370e-01 1.8527e-01 -1.5661e-02 5.0460e-01 1.3514e-01 -3.0100e-03 6.0549e-01 7.8863e-02 -3.5595e-04 7.0639e-01 3.4597e-02 -2.3358e-05 8.0729e-01 9.6001e-03 -5.9196e-07 9.0819e-01 9.4214e-04 -1.2097e-09
        62 1.2111e+01 2.4782e-05 3.9755e-01 -2.1817e-01 3.2223e-01 -1.7068e-01 1.0000e-04 5.5423e-04 -2.4942e-06 1.0100e-01 9.6868e-02 -1.0792e-01 2.0190e-01 1.7580e-01 -1.1020e-01 3.0280e-01 2.0587e-01 -5.2424e-02 4.0370e-01 1.8626e-01 -1.5353e-02 5.0460e-01 1.3584e-01 -2.8972e-03 6.0549e-01 7.9253e-02 -3.3442e-04 7.0639e-01 3.4757e-02 -2.1236e-05 8.0729e-01 9.6396e-03 -5.1279e-07 9.0819e-01 9.4510e-04 -9.6056e-10
        63 1.4205e+01 8.6979e-06 3.9530e-01 -2.1851e-01 3.2037e-01 -1.7080e-01 1.0000e-04 5.5250e-04 -2.5470e-06 1.0100e-01 9.6308e-02 -1.0809e-01 2.0190e-01 1.7477e-01 -1.1019e-01 3.0280e-01 2.0467e-01 -5.2377e-02 4.0370e-01 1.8520e-01 -1.5334e-02 5.0460e-01 1.3509e-01 -2.8936e-03 6.0549e-01 7.8836e-02 -3.3410e-04 7.0639e-01 3.4587e-02 -2.1228e-05 8.0729e-01 9.5979e-03 -5.1321e-07 9.0819e-01 9.4199e-04 -9.6368e-10
        64 3.2812e+02 5.9379e-74 3.9464e-01 -2.1795e-01 3.1974e-01 -1.7051e-01 1.0000e-04 5.5539e-04 -2.6253e-06 1.0100e-01 9.6167e-02 -1.0736e-01 2.0190e-01 1.7442e-01 -1.1020e-01 3.0280e-01 2.0422e-01 -5.2946e-02 4.0370e-01 1.8476e-01 -1.5715e-02 5.0460e-01 1.3477e-01 -3.0170e-03 6.0549e-01 7.8652e-02 -3.5608e-04 7.0639e-01 3.4510e-02 -2.3294e-05 8.0729e-01 9.5789e-03 -5.8740e-07 9.0819e-01 9.4065e-04 -1.1890e-09
        65 6.0617e+02 2.4934e-134 3.9308e-01 -2.1863e-01 3.1821e-01 -1.7065e-01 1.0000e-04 5.6296e-04 -2.8440e-06 1.0100e-01 9.5861e-02 -1.0750e-01 2.0190e-01 1.7362e-01 -1.1009e-01 3.0280e-01 2.0311e-01 -5.3018e-02 4.0370e-01 1.8367e-01 -1.5818e-02 5.0460e-01 1.3392e-01 -3.0602e-03 6.0549e-01 7.8139e-02 -3.6508e-04 7.0639e-01 3.4281e-02 -2.4246e-05 8.0729e-01 9.5157e-03 -6.2543e-07 9.0819e-01 9.3475e-04 -1.3197e-09
        66 5.0780e+02 5.7058e-113 3.9488e-01 -2.1762e-01 3.1994e-01 -1.7038e-01 1.0000e-04 5.5557e-04 -2.5944e-06 1.0100e-01 9.6238e-02 -1.0714e-01 2.0190e-01 1.7454e-01 -1.1022e-01 3.0280e-01 2.0434e-01 -5.3063e-02 4.0370e-01 1.8485e-01 -1.5784e-02 5.0460e-01 1.3482e-01 -3.0375e-03 6.0549e-01 7.8666e-02 -3.5951e-04 7.0639e-01 3.4508e-02 -2.3602e-05 8.0729e-01 9.5751e-03 -5.9812e-07 9.0819e-01 9.3971e-04 -1.2211e-09
        67 6.2438e+02 2.7586e-138 3.9564e-01 -2.1769e-01 3.2044e-01 -1.7020e-01 1.0000e-04 5.6074e-04 -2.6979e-06 1.0100e-01 9.6469e-02 -1.0711e-01 2.0190e-01 1.7484e-01 -1.0996e-01 3.0280e-01 2.0460e-01 -5.2942e-02 4.0370e-01 1.8503e-01 -1.5767e-02 5.0460e-01 1.3491e-01 -3.0411e-03 6.0549e-01 7.8699e-02 -3.6114e-04 7.0639e-01 3.4514e-02 -2.3826e-05 8.0729e-01 9.5738e-03 -6.0840e-07 9.0819e-01 9.3919e-04 -1.2597e-09
        68 8.7755e+01 9.2943e-22 3.9486e-01 -2.1848e-01 3.1998e-01 -1.7051e-01 1.0000e-04 5.5312e-04 -2.6563e-06 1.0100e-01 9.6204e-02 -1.0802e-01 2.0190e-01 1.7455e-01 -1.0984e-01 3.0280e-01 2.0441e-01 -5.2205e-02 4.0370e-01 1.8496e-01 -1.5300e-02 5.0460e-01 1.3492e-01 -2.8932e-03 6.0549e-01 7.8741e-02 -3.3514e-04 7.0639e-01 3.4549e-02 -2.1397e-05 8.0729e-01 9.5888e-03 -5.2120e-07 9.0819e-01 9.4141e-04 -9.9255e-10
        69 1.7502e+02 1.0460e-40 3.9702e-01 -2.1826e-01 3.2208e-01 -1.7049e-01 1.0000e-04 5.4340e-04 -2.4613e-06 1.0100e-01 9.6666e-02 -1.0839e-01 2.0190e-01 1.7569e-01 -1.0980e-01 3.0280e-01 2.0591e-01 -5.1671e-02 4.0370e-01 1.8639e-01 -1.4932e-02 5.0460e-01 1.3598e-01 -2.7721e-03 6.0549e-01 7.9348e-02 -3.1348e-04 7.0639e-01 3.4800e-02 -1.9374e-05 8.0729e-01 9.6498e-03 -4.5000e-07 9.0819e-01 9.4554e-04 -7.8675e-10
        70 5.9524e+02 5.8821e-132 3.9511e-01 -2.1736e-01 3.2007e-01 -1.7005e-01 1.0000e-04 5.5795e-04 -2.6468e-06 1.0100e-01 9.6310e-02 -1.0698e-01 2.0190e-01 1.7462e-01 -1.0993e-01 3.0280e-01 2.0439e-01 -5.2919e-02 4.0370e-01 1.8488e-01 -1.5750e-02 5.0460e-01 1.3483e-01 -3.0343e-03 6.0549e-01 7.8667e-02 -3.5973e-04 7.0639e-01 3.4508e-02 -2.3676e-05 8.0729e-01 9.5750e-03 -6.0231e-07 9.0819e-01 9.3975e-04 -1.2385e-09
        71 1.7587e+02 6.8204e-41 3.9573e-01 -2.1838e-01 3.2066e-01 -1.7075e-01 1.0000e-04 5.5544e-04 -2.6000e-06 1.0100e-01 9.6446e-02 -1.0779e-01 2.0190e-01 1.7494e-01 -1.1024e-01 3.0280e-01 2.0481e-01 -5.2693e-02 4.0370e-01 1.8528e-01 -1.5538e-02 5.0460e-01 1.3512e-01 -2.9589e-03 6.0549e-01 7.8834e-02 -3.4565e-04 7.0639e-01 3.4577e-02 -2.2306e-05 8.0729e-01 9.5915e-03 -5.5154e-07 9.0819e-01 9.4084e-04 -1.0781e-09
        72 2.2419e+03 0.0000e+00 3.9327e-01 -2.1716e-01 3.1847e-01 -1.6980e-01 1.0000e-04 5.5948e-04 -2.7599e-06 1.0100e-01 9.5877e-02 -1.0662e-01 2.0190e-01 1.7375e-01 -1.0977e-01 3.0280e-01 2.0333e-01 -5.3126e-02 4.0370e-01 1.8390e-01 -1.5933e-02 5.0460e-01 1.3412e-01 -3.1006e-03 6.0549e-01 7.8261e-02 -3.7246e-04 7.0639e-01 3.4338e-02 -2.4953e-05 8.0729e-01 9.5318e-03 -6.5157e-07 9.0819e-01 9.3630e-04 -1.4041e-09
        73 1.9862e+02 7.8330e-46 3.9295e-01 -2.1844e-01 3.1827e-01 -1.7065e-01 1.0000e-04 5.5701e-04 -2.6565e-06 1.0100e-01 9.5785e-02 -1.0780e-01 2.0190e-01 1.7363e-01 -1.1010e-01 3.0280e-01 2.0322e-01 -5.2603e-02 4.0370e-01 1.8383e-01 -1.5515e-02 5.0460e-01 1.3407e-01 -2.9564e-03 6.0549e-01 7.8239e-02 -3.4575e-04 7.0639e-01 3.4329e-02 -2.2352e-05 8.0729e-01 9.5292e-03 -5.5427e-07 9.0819e-01 9.3598e-04 -1.0894e-09
        74 1.0644e+02 8.1298e-26 3.9507e-01 -2.1840e-01 3.2002e-01 -1.7053e-01 1.0000e-04 5.5825e-04 -2.6768e-06 1.0100e-01 9.6304e-02 -1.0781e-01 2.0190e-01 1.7460e-01 -1.0996e-01 3.0280e-01 2.0436e-01 -5.2473e-02 4.0370e-01 1.8485e-01 -1.5458e-02 5.0460e-01 1.3480e-01 -2.9419e-03 6.0549e-01 7.8650e-02 -3.4355e-04 7.0639e-01 3.4500e-02 -2.2170e-05 8.0729e-01 9.5725e-03 -5.4839e-07 9.0819e-01 9.3947e-04 -1.0733e-09
        75 5.9435e+02 9.1749e-132 3.9473e-01 -2.1744e-01 3.1979e-01 -1.7022e-01 1.0000e-04 5.5630e-04 -2.6487e-06 1.0100e-01 9.6206e-02 -1.0688e-01 2.0190e-01 1.7446e-01 -1.1015e-01 3.0280e-01 2.0423e-01 -5.3217e-02 4.0370e-01 1.8476e-01 -1.5907e-02 5.0460e-01 1.3475e-01 -3.0808e-03 6.0549e-01 7.8627e-02 -3.6764e-04 7.0639e-01 3.4493e-02 -2.4403e-05 8.0729e-01 9.5719e-03 -6.2847e-07 9.0819e-01 9.3957e-04 -1.3206e-09
        76 6.6963e+01 3.0418e-17 3.9734e-01 -2.1849e-01 3.2219e-01 -1.7082e-01 1.0000e-04 5.4932e-04 -2.4753e-06 1.0100e-01 9.6789e-02 -1.0829e-01 2.0190e-01 1.7577e-01 -1.1017e-01 3.0280e-01 2.0590e-01 -5.2137e-02 4.0370e-01 1.8632e-01 -1.5170e-02 5.0460e-01 1.3590e-01 -2.8400e-03 6.0549e-01 7.9291e-02 -3.2453e-04 7.0639e-01 3.4772e-02 -2.0335e-05 8.0729e-01 9.6418e-03 -4.8172e-07 9.0819e-01 9.4488e-04 -8.7215e-10
        77 2.6046e+02 2.9163e-59 3.9379e-01 -2.1847e-01 3.1895e-01 -1.7069e-01 1.0000e-04 5.5789e-04 -2.7628e-06 1.0100e-01 9.5988e-02 -1.0746e-01 2.0190e-01 1.7400e-01 -1.1022e-01 3.0280e-01 2.0366e-01 -5.3083e-02 4.0370e-01 1.8422e-01 -1.5824e-02 5.0460e-01 1.3436e-01 -3.0569e-03 6.0549e-01 7.8404e-02 -3.6384e-04 7.0639e-01 3.4400e-02 -2.4082e-05 8.0729e-01 9.5483e-03 -6.1797e-07 9.0819e-01 9.3774e-04 -1.2912e-09
        78 8.3983e+01 6.1285e-21 3.9411e-01 -2.1925e-01 3.1938e-01 -1.7100e-01 1.0000e-04 5.5217e-04 -2.7146e-06 1.0100e-01 9.6020e-02 -1.0837e-01 2.0190e-01 1.7422e-01 -1.1010e-01 3.0280e-01 2.0402e-01 -5.2332e-02 4.0370e-01 1.8461e-01 -1.5347e-02 5.0460e-01 1.3467e-01 -2.9056e-03 6.0549e-01 7.8597e-02 -3.3716e-04 7.0639e-01 3.4487e-02 -2.1581e-05 8.0729e-01 9.5724e-03 -5.2769e-07 9.0819e-01 9.3990e-04 -1.0121e-09
        79 3.7156e+02 2.1900e-83 3.9564e-01 -2.1753e-01 3.2066e-01 -1.7026e-01 1.0000e-04 5.5231e-04 -2.4841e-06 1.0100e-01 9.6387e-02 -1.0751e-01 2.0190e-01 1.7493e-01 -1.1001e-01 3.0280e-01 2.0486e-01 -5.2458e-02 4.0370e-01 1.8538e-01 -1.5407e-02 5.0460e-01 1.3522e-01 -2.9173e-03 6.0549e-01 7.8913e-02 -3.3816e-04 7.0639e-01 3.4620e-02 -2.1592e-05 8.0729e-01 9.6067e-03 -5.2552e-07 9.0819e-01 9.4276e-04 -9.9815e-10
        80 1.0348e+02 3.5864e-25 3.9393e-01 -2.1826e-01 3.1904e-01 -1.7069e-01 1.0000e-04 5.5895e-04 -2.7723e-06 1.0100e-01 9.6024e-02 -1.0714e-01 2.0190e-01 1.7405e-01 -1.1037e-01 3.0280e-01 2.0371e-01 -5.3451e-02 4.0370e-01 1.8427e-01 -1.6043e-02 5.0460e-01 1.3439e-01 -3.1250e-03 6.0549e-01 7.8425e-02 -3.7584e-04 7.0639e-01 3.4412e-02 -2.5218e-05 8.0729e-01 9.5526e-03 -6.5993e-07 9.0819e-01 9.3837e-04 -1.4276e-09
        81 3.1098e+02 3.1298e-70 3.9837e-01 -2.1804e-01 3.2309e-01 -1.7027e-01 1.0000e-04 5.4847e-04 -2.4885e-06 1.0100e-01 9.7018e-02 -1.0823e-01 2.0190e-01 1.7625e-01 -1.0964e-01 3.0280e-01 2.0651e-01 -5.1644e-02 4.0370e-01 1.8690e-01 -1.4946e-02 5.0460e-01 1.3634e-01 -2.7801e-03 6.0549e-01 7.9552e-02 -3.1521e-04 7.0639e-01 3.4889e-02 -1.9551e-05 8.0729e-01 9.6749e-03 -4.5652e-07 9.0819e-01 9.4818e-04 -8.0587e-10
        82 4.2349e+02 1.1615e-94 3.9556e-01 -2.1785e-01 3.2064e-01 -1.7033e-01 1.0000e-04 5.5098e-04 -2.5601e-06 1.0100e-01 9.6362e-02 -1.0764e-01 2.0190e-01 1.7491e-01 -1.0994e-01 3.0280e-01 2.0486e-01 -5.2417e-02 4.0370e-01 1.8538e-01 -1.5404e-02 5.0460e-01 1.3523e-01 -2.9208e-03 6.0549e-01 7.8918e-02 -3.3929e-04 7.0639e-01 3.4621e-02 -2.1732e-05 8.0729e-01 9.6063e-03 -5.3153e-07 9.0819e-01 9.4258e-04 -1.0189e-09
        83 1.3665e+03 1.9759e-299 3.9526e-01 -2.1731e-01 3.2020e-01 -1.6982e-01 1.0000e-04 5.5760e-04 -2.6652e-06 1.0100e-01 9.6342e-02 -1.0711e-01 2.0190e-01 1.7469e-01 -1.0963e-01 3.0280e-01 2.0449e-01 -5.2544e-02 4.0370e-01 1.8497e-01 -1.5560e-02 5.0460e-01 1.3490e-01 -2.9800e-03 6.0549e-01 7.8709e-02 -3.5074e-04 7.0639e-01 3.4527e-02 -2.2868e-05 8.0729e-01 9.5802e-03 -5.7406e-07 9.0819e-01 9.4024e-04 -1.1531e-09
        84 8.0531e+02 1.4261e-177 3.9379e-01 -2.1816e-01 3.1893e-01 -1.7016e-01 1.0000e-04 5.5889e-04 -2.8100e-06 1.0100e-01 9.5987e-02 -1.0748e-01 2.0190e-01 1.7399e-01 -1.0966e-01 3.0280e-01 2.0364e-01 -5.2530e-02 4.0370e-01 1.8421e-01 -1.5569e-02 5.0460e-01 1.3436e-01 -2.9876e-03 6.0549e-01 7.8411e-02 -3.5276e-04 7.0639e-01 3.4409e-02 -2.3110e-05 8.0729e-01 9.5531e-03 -5.8456e-07 9.0819e-01 9.3866e-04 -1.1912e-09
        85 2.9865e+02 1.4920e-67 3.9377e-01 -2.1867e-01 3.1890e-01 -1.7079e-01 1.0000e-04 5.5946e-04 -2.7888e-06 1.0100e-01 9.5999e-02 -1.0756e-01 2.0190e-01 1.7398e-01 -1.1024e-01 3.0280e-01 2.0361e-01 -5.3076e-02 4.0370e-01 1.8416e-01 -1.5820e-02 5.0460e-01 1.3430e-01 -3.0560e-03 6.0549e-01 7.8365e-02 -3.6377e-04 7.0639e-01 3.4382e-02 -2.4083e-05 8.0729e-01 9.5429e-03 -6.1828e-07 9.0819e-01 9.3721e-04 -1.2932e-09
        86 2.1445e+02 2.8562e-49 3.9578e-01 -2.1811e-01 3.2080e-01 -1.7053e-01 1.0000e-04 5.5185e-04 -2.5721e-06 1.0100e-01 9.6416e-02 -1.0774e-01 2.0190e-01 1.7500e-01 -1.1007e-01 3.0280e-01 2.0496e-01 -5.2504e-02 4.0370e-01 1.8547e-01 -1.5440e-02 5.0460e-01 1.3530e-01 -2.9302e-03 6.0549e-01 7.8959e-02 -3.4077e-04 7.0639e-01 3.4641e-02 -2.1861e-05 8.0729e-01 9.6126e-03 -5.3589e-07 9.0819e-01 9.4336e-04 -1.0315e-09
        87 6.0593e+02 2.7989e-134 3.9206e-01 -2.1791e-01 3.1738e-01 -1.7050e-01 1.0000e-04 5.6201e-04 -2.7385e-06 1.0100e-01 9.5600e-02 -1.0695e-01 2.0190e-01 1.7315e-01 -1.1030e-01 3.0280e-01 2.0258e-01 -5.3455e-02 4.0370e-01 1.8320e-01 -1.6051e-02 5.0460e-01 1.3360e-01 -3.1277e-03 6.0549e-01 7.7969e-02 -3.7626e-04 7.0639e-01 3.4216e-02 -2.5252e-05 8.0729e-01 9.5014e-03 -6.6091e-07 9.0819e-01 9.3402e-04 -1.4298e-09
        88 3.9714e-01 8.6644e-03 3.9587e-01 -2.1856e-01 3.2072e-01 -1.7080e-01 1.0000e-04 5.5756e-04 -2.5630e-06 1.0100e-01 9.6488e-02 -1.0811e-01 2.0190e-01 1.7498e-01 -1.1016e-01 3.0280e-01 2.0483e-01 -5.2359e-02 4.0370e-01 1.8529e-01 -1.5330e-02 5.0460e-01 1.3512e-01 -2.8934e-03 6.0549e-01 7.8839e-02 -3.3419e-04 7.0639e-01 3.4582e-02 -2.1245e-05 8.0729e-01 9.5946e-03 -5.1405e-07 9.0819e-01 9.4146e-04 -9.6680e-10
        89 1.4616e+03 4.2954e-320 3.9465e-01 -2.1677e-01 3.1974e-01 -1.6972e-01 1.0000e-04 5.5563e-04 -2.6254e-06 1.0100e-01 9.6188e-02 -1.0658e-01 2.0190e-01 1.7444e-01 -1.0983e-01 3.0280e-01 2.0420e-01 -5.3045e-02 4.0370e-01 1.8472e-01 -1.5846e-02 5.0460e-01 1.3472e-01 -3.0662e-03 6.0549e-01 7.8602e-02 -3.6547e-04 7.0639e-01 3.4478e-02 -2.4221e-05 8.0729e-01 9.5659e-03 -6.2230e-07 9.0819e-01 9.3866e-04 -1.3020e-09
        90 6.1845e+02 5.3559e-137 3.9382e-01 -2.1815e-01 3.1912e-01 -1.7038e-01 1.0000e-04 5.5256e-04 -2.6624e-06 1.0100e-01 9.5949e-02 -1.0769e-01 2.0190e-01 1.7408e-01 -1.0988e-01 3.0280e-01 2.0385e-01 -5.2457e-02 4.0370e-01 1.8446e-01 -1.5458e-02 5.0460e-01 1.3456e-01 -2.9427e-03 6.0549e-01 7.8542e-02 -3.4374e-04 7.0639e-01 3.4466e-02 -2.2189e-05 8.0729e-01 9.5682e-03 -5.4907e-07 9.0819e-01 9.3980e-04 -1.0752e-09
        91 3.8027e+03 0.0000e+00 3.9417e-01 -2.1635e-01 3.1938e-01 -1.6935e-01 1.0000e-04 5.5398e-04 -2.5806e-06 1.0100e-01 9.6065e-02 -1.0654e-01 2.0190e-01 1.7424e-01 -1.0953e-01 3.0280e-01 2.0399e-01 -5.2690e-02 4.0370e-01 1.8454e-01 -1.5658e-02 5.0460e-01 1.3458e-01 -3.0101e-03 6.0549e-01 7.8526e-02 -3.5579e-04 7.0639e-01 3.4445e-02 -2.3317e-05 8.0729e-01 9.5566e-03 -5.8941e-07 9.0819e-01 9.3771e-04 -1.1980e-09
        92 1.5552e+03 0.0000e+00 3.9383e-01 -2.1718e-01 3.1898e-01 -1.6978e-01 1.0000e-04 5.5801e-04 -2.6356e-06 1.0100e-01 9.6002e-02 -1.0707e-01 2.0190e-01 1.7402e-01 -1.0962e-01 3.0280e-01 2.0368e-01 -5.2529e-02 4.0370e-01 1.8424e-01 -1.5546e-02 5.0460e-01 1.3436e-01 -2.9744e-03 6.0549e-01 7.8405e-02 -3.4960e-04 7.0639e-01 3.4399e-02 -2.2749e-05 8.0729e-01 9.5475e-03 -5.6940e-07 9.0819e-01 9.3757e-04 -1.1376e-09
        93 4.3798e+02 8.2753e-98 3.9536e-01 -2.1825e-01 3.2036e-01 -1.7052e-01 1.0000e-04 5.5498e-04 -2.6025e-06 1.0100e-01 9.6352e-02 -1.0786e-01 2.0190e-01 1.7478e-01 -1.0998e-01 3.0280e-01 2.0463e-01 -5.2373e-02 4.0370e-01 1.8512e-01 -1.5377e-02 5.0460e-01 1.3501e-01 -2.9130e-03 6.0549e-01 7.8776e-02 -3.3809e-04 7.0639e-01 3.4555e-02 -2.1635e-05 8.0729e-01 9.5869e-03 -5.2855e-07 9.0819e-01 9.4063e-04 -1.0115e-09
        94 2.1811e+03 0.0000e+00 3.9401e-01 -2.1768e-01 3.1924e-01 -1.6975e-01 1.0000e-04 5.5418e-04 -2.7626e-06 1.0100e-01 9.6016e-02 -1.0741e-01 2.0190e-01 1.7415e-01 -1.0932e-01 3.0280e-01 2.0390e-01 -5.2157e-02 4.0370e-01 1.8448e-01 -1.5377e-02 5.0460e-01 1.3456e-01 -2.9311e-03 6.0549e-01 7.8525e-02 -3.4315e-04 7.0639e-01 3.4453e-02 -2.2227e-05 8.0729e-01 9.5623e-03 -5.5305e-07 9.0819e-01 9.3887e-04 -1.0944e-09
        95 9.5610e+02 2.5735e-210 3.9386e-01 -2.1743e-01 3.1895e-01 -1.7008e-01 1.0000e-04 5.6030e-04 -2.6808e-06 1.0100e-01 9.6013e-02 -1.0693e-01 2.0190e-01 1.7400e-01 -1.0996e-01 3.0280e-01 2.0363e-01 -5.3036e-02 4.0370e-01 1.8419e-01 -1.5826e-02 5.0460e-01 1.3434e-01 -3.0595e-03 6.0549e-01 7.8398e-02 -3.6433e-04 7.0639e-01 3.4403e-02 -2.4122e-05 8.0729e-01 9.5516e-03 -6.1906e-07 9.0819e-01 9.3856e-04 -1.2931e-09
        96 3.3515e+01 5.5760e-10 3.9804e-01 -2.1813e-01 3.2268e-01 -1.7046e-01 1.0000e-04 5.5309e-04 -2.5071e-06 1.0100e-01 9.6983e-02 -1.0808e-01 2.0190e-01 1.7605e-01 -1.0989e-01 3.0280e-01 2.0618e-01 -5.2016e-02 4.0370e-01 1.8655e-01 -1.5146e-02 5.0460e-01 1.3605e-01 -2.8387e-03 6.0549e-01 7.9370e-02 -3.2492e-04 7.0639e-01 3.4805e-02 -2.0408e-05 8.0729e-01 9.6509e-03 -4.8517e-07 9.0819e-01 9.4583e-04 -8.8423e-10
        97 1.5769e+03 0.0000e+00 3.9343e-01 -2.1803e-01 3.1863e-01 -1.7012e-01 1.0000e-04 5.5828e-04 -2.8101e-06 1.0100e-01 9.5900e-02 -1.0733e-01 2.0190e-01 1.7383e-01 -1.0970e-01 3.0280e-01 2.0345e-01 -5.2659e-02 4.0370e-01 1.8404e-01 -1.5647e-02 5.0460e-01 1.3423e-01 -3.0118e-03 6.0549e-01 7.8332e-02 -3.5699e-04 7.0639e-01 3.4372e-02 -2.3506e-05 8.0729e-01 9.5424e-03 -5.9886e-07 9.0819e-01 9.3748e-04 -1.2360e-09
        98 3.1209e+01 1.7660e-09 3.9592e-01 -2.1858e-01 3.2085e-01 -1.7075e-01 1.0000e-04 5.5441e-04 -2.6668e-06 1.0100e-01 9.6473e-02 -1.0786e-01 2.0190e-01 1.7504e-01 -1.1015e-01 3.0280e-01 2.0495e-01 -5.2639e-02 4.0370e-01 1.8543e-01 -1.5530e-02 5.0460e-01 1.3525e-01 -2.9607e-03 6.0549e-01 7.8922e-02 -3.4646e-04 7.0639e-01 3.4621e-02 -2.2417e-05 8.0729e-01 9.6057e-03 -5.5656e-07 9.0819e-01 9.4253e-04 -1.0963e-09
        99 7.5833e+01 3.6069e-19 3.9540e-01 -2.1914e-01 3.2025e-01 -1.7104e-01 1.0000e-04 5.6026e-04 -2.6859e-06 1.0100e-01 9.6397e-02 -1.0826e-01 2.0190e-01 1.7473e-01 -1.1022e-01 3.0280e-01 2.0449e-01 -5.2489e-02 4.0370e-01 1.8494e-01 -1.5424e-02 5.0460e-01 1.3486e-01 -2.9264e-03 6.0549e-01 7.8683e-02 -3.4045e-04 7.0639e-01 3.4514e-02 -2.1861e-05 8.0729e-01 9.5763e-03 -5.3693e-07 9.0819e-01 9.3989e-04 -1.0378e-09
       100 1.4854e+02 5.8878e-35 3.9702e-01 -2.1797e-01 3.2190e-01 -1.7042e-01 1.0000e-04 5.4998e-04 -2.4991e-06 1.0100e-01 9.6722e-02 -1.0791e-01 2.0190e-01 1.7562e-01 -1.0994e-01 3.0280e-01 2.0570e-01 -5.2168e-02 4.0370e-01 1.8613e-01 -1.5233e-02 5.0460e-01 1.3575e-01 -2.8644e-03 6.0549e-01 7.9199e-02 -3.2920e-04 7.0639e-01 3.4730e-02 -2.0786e-05 8.0729e-01 9.6297e-03 -4.9792e-07 9.0819e-01 9.4365e-04 -9.1961e-10
       101 6.9336e+02 2.8982e-153 3.9458e-01 -2.1735e-01 3.1968e-01 -1.7005e-01 1.0000e-04 5.5571e-04 -2.6515e-06 1.0100e-01 9.6161e-02 -1.0694e-01 2.0190e-01 1.7440e-01 -1.0995e-01 3.0280e-01 2.0417e-01 -5.2971e-02 4.0370e-01 1.8471e-01 -1.5782e-02 5.0460e-01 1.3473e-01 -3.0443e-03 6.0549e-01 7.8621e-02 -3.6149e-04 7.0639e-01 3.4494e-02 -2.3842e-05 8.0729e-01 9.5734e-03 -6.0840e-07 9.0819e-01 9.3994e-04 -1.2579e-09
       102 1.0267e+02 5.3575e-25 3.9672e-01 -2.1848e-01 3.2148e-01 -1.7059e-01 1.0000e-04 5.5638e-04 -2.6487e-06 1.0100e-01 9.6691e-02 -1.0795e-01 2.0190e-01 1.7539e-01 -1.0997e-01 3.0280e-01 2.0534e-01 -5.2369e-02 4.0370e-01 1.8575e-01 -1.5384e-02 5.0460e-01 1.3546e-01 -2.9171e-03 6.0549e-01 7.9024e-02 -3.3906e-04 7.0639e-01 3.4657e-02 -2.1743e-05 8.0729e-01 9.6122e-03 -5.3294e-07 9.0819e-01 9.4259e-04 -1.0261e-09
       103 8.6676e+02 6.4444e-191 3.9426e-01 -2.1787e-01 3.1928e-01 -1.7023e-01 1.0000e-04 5.6047e-04 -2.7141e-06 1.0100e-01 9.6112e-02 -1.0729e-01 2.0190e-01 1.7419e-01 -1.0990e-01 3.0280e-01 2.0385e-01 -5.2786e-02 4.0370e-01 1.8439e-01 -1.5678e-02 5.0460e-01 1.3448e-01 -3.0145e-03 6.0549e-01 7.8475e-02 -3.5663e-04 7.0639e-01 3.4434e-02 -2.3413e-05 8.0729e-01 9.5592e-03 -5.9369e-07 9.0819e-01 9.3912e-04 -1.2144e-09
       104 4.0907e+02 1.5649e-91 3.9665e-01 -2.1906e-01 3.2148e-01 -1.7100e-01 1.0000e-04 5.5424e-04 -2.5982e-06 1.0100e-01 9.6652e-02 -1.0848e-01 2.0190e-01 1.7538e-01 -1.1014e-01 3.0280e-01 2.0537e-01 -5.2160e-02 4.0370e-01 1.8581e-01 -1.5211e-02 5.0460e-01 1.3552e-01 -2.8577e-03 6.0549e-01 7.9072e-02 -3.2825e-04 7.0639e-01 3.4682e-02 -2.0720e-05 8.0729e-01 9.6209e-03 -4.9635e-07 9.0819e-01 9.4366e-04 -9.1739e-10
       105 5.5680e+00 6.5297e-04 3.9416e-01 -2.1898e-01 3.1936e-01 -1.7098e-01 1.0000e-04 5.5432e-04 -2.7186e-06 1.0100e-01 9.6050e-02 -1.0799e-01 2.0190e-01 1.7422e-01 -1.1027e-01 3.0280e-01 2.0398e-01 -5.2741e-02 4.0370e-01 1.8455e-01 -1.5585e-02 5.0460e-01 1.3461e-01 -2.9779e-03 6.0549e-01 7.8560e-02 -3.4955e-04 7.0639e-01 3.4469e-02 -2.2713e-05 8.0729e-01 9.5669e-03 -5.6753e-07 9.0819e-01 9.3937e-04 -1.1309e-09
       106 2.8410e+00 2.5531e-03 3.9618e-01 -2.1823e-01 3.2109e-01 -1.7061e-01 1.0000e-04 5.5352e-04 -2.5485e-06 1.0100e-01 9.6527e-02 -1.0791e-01 2.0190e-01 1.7517e-01 -1.1009e-01 3.0280e-01 2.0513e-01 -5.2393e-02 4.0370e-01 1.8560e-01 -1.5361e-02 5.0460e-01 1.3538e-01 -2.9038e-03 6.0549e-01 7.9001e-02 -3.3603e-04 7.0639e-01 3.4656e-02 -2.1414e-05 8.0729e-01 9.6155e-03 -5.1992e-07 9.0819e-01 9.4347e-04 -9.8370e-10
       107 3.6283e+00 1.7223e-03 3.9486e-01 -2.1878e-01 3.2003e-01 -1.7088e-01 1.0000e-04 5.5167e-04 -2.5487e-06 1.0100e-01 9.6196e-02 -1.0837e-01 2.0190e-01 1.7458e-01 -1.1012e-01 3.0280e-01 2.0445e-01 -5.2140e-02 4.0370e-01 1.8501e-01 -1.5192e-02 5.0460e-01 1.3496e-01 -2.8505e-03 6.0549e-01 7.8767e-02 -3.2678e-04 7.0639e-01 3.4560e-02 -2.0570e-05 8.0729e-01 9.5913e-03 -4.9070e-07 9.0819e-01 9.4153e-04 -8.9990e-10
       108 2.8347e+03 0.0000e+00 3.9511e-01 -2.1664e-01 3.2016e-01 -1.6941e-01 1.0000e-04 5.5450e-04 -2.6019e-06 1.0100e-01 9.6291e-02 -1.0683e-01 2.0190e-01 1.7467e-01 -1.0941e-01 3.0280e-01 2.0450e-01 -5.2409e-02 4.0370e-01 1.8500e-01 -1.5499e-02 5.0460e-01 1.3492e-01 -2.9623e-03 6.0549e-01 7.8720e-02 -3.4767e-04 7.0639e-01 3.4529e-02 -2.2576e-05 8.0729e-01 9.5789e-03 -5.6332e-07 9.0819e-01 9.3973e-04 -1.1191e-09
       109 1.0878e+02 2.5333e-26 3.9590e-01 -2.1979e-01 3.2084e-01 -1.7117e-01 1.0000e-04 5.5410e-04 -2.7346e-06 1.0100e-01 9.6473e-02 -1.0888e-01 2.0190e-01 1.7504e-01 -1.0999e-01 3.0280e-01 2.0495e-01 -5.1929e-02 4.0370e-01 1.8543e-01 -1.5111e-02 5.0460e-01 1.3524e-01 -2.8341e-03 6.0549e-01 7.8908e-02 -3.2508e-04 7.0639e-01 3.4611e-02 -2.0496e-05 8.0729e-01 9.6017e-03 -4.9053e-07 9.0819e-01 9.4189e-04 -9.0589e-10
       110 9.5457e+02 5.5271e-210 3.9314e-01 -2.1819e-01 3.1831e-01 -1.7033e-01 1.0000e-04 5.6156e-04 -2.8280e-06 1.0100e-01 9.5850e-02 -1.0726e-01 2.0190e-01 1.7365e-01 -1.0992e-01 3.0280e-01 2.0320e-01 -5.2961e-02 4.0370e-01 1.8378e-01 -1.5808e-02 5.0460e-01 1.3403e-01 -3.0600e-03 6.0549e-01 7.8223e-02 -3.6526e-04 7.0639e-01 3.4328e-02 -2.4275e-05 8.0729e-01 9.5322e-03 -6.2680e-07 9.0819e-01 9.3695e-04 -1.3247e-09
       111 3.3723e+02 6.2335e-76 3.9441e-01 -2.1792e-01 3.1949e-01 -1.7047e-01 1.0000e-04 5.5730e-04 -2.6379e-06 1.0100e-01 9.6135e-02 -1.0732e-01 2.0190e-01 1.7430e-01 -1.1018e-01 3.0280e-01 2.0403e-01 -5.2962e-02 4.0370e-01 1.8456e-01 -1.5732e-02 5.0460e-01 1.3460e-01 -3.0234e-03 6.0549e-01 7.8543e-02 -3.5731e-04 7.0639e-01 3.4458e-02 -2.3417e-05 8.0729e-01 9.5631e-03 -5.9211e-07 9.0819e-01 9.3892e-04 -1.2044e-09
       112 5.3758e+01 2.2413e-14 3.9561e-01 -2.1823e-01 3.2055e-01 -1.7055e-01 1.0000e-04 5.5573e-04 -2.5567e-06 1.0100e-01 9.6404e-02 -1.0795e-01 2.0190e-01 1.7487e-01 -1.1000e-01 3.0280e-01 2.0475e-01 -5.2281e-02 4.0370e-01 1.8524e-01 -1.5306e-02 5.0460e-01 1.3511e-01 -2.8885e-03 6.0549e-01 7.8844e-02 -3.3357e-04 7.0639e-01 3.4591e-02 -2.1201e-05 8.0729e-01 9.5993e-03 -5.1282e-07 9.0819e-01 9.4228e-04 -9.6390e-10
       113 5.8200e+02 4.3982e-129 3.9420e-01 -2.1790e-01 3.1929e-01 -1.7029e-01 1.0000e-04 5.5804e-04 -2.6827e-06 1.0100e-01 9.6088e-02 -1.0735e-01 2.0190e-01 1.7419e-01 -1.0995e-01 3.0280e-01 2.0388e-01 -5.2761e-02 4.0370e-01 1.8442e-01 -1.5648e-02 5.0460e-01 1.3450e-01 -3.0027e-03 6.0549e-01 7.8484e-02 -3.5427e-04 7.0639e-01 3.4433e-02 -2.3174e-05 8.0729e-01 9.5565e-03 -5.8447e-07 9.0819e-01 9.3837e-04 -1.1839e-09
       114 7.6738e+02 2.4567e-169 3.9278e-01 -2.1776e-01 3.1807e-01 -1.7029e-01 1.0000e-04 5.5882e-04 -2.7551e-06 1.0100e-01 9.5758e-02 -1.0693e-01 2.0190e-01 1.7353e-01 -1.1010e-01 3.0280e-01 2.0307e-01 -5.3273e-02 4.0370e-01 1.8367e-01 -1.5970e-02 5.0460e-01 1.3395e-01 -3.1061e-03 6.0549e-01 7.8165e-02 -3.7283e-04 7.0639e-01 3.4296e-02 -2.4951e-05 8.0729e-01 9.5205e-03 -6.5048e-07 9.0819e-01 9.3523e-04 -1.3977e-09
       115 2.3939e+01 6.6954e-08 3.9557e-01 -2.1903e-01 3.2055e-01 -1.7075e-01 1.0000e-04 5.5452e-04 -2.6978e-06 1.0100e-01 9.6398e-02 -1.0839e-01 2.0190e-01 1.7488e-01 -1.0986e-01 3.0280e-01 2.0476e-01 -5.2042e-02 4.0370e-01 1.8524e-01 -1.5200e-02 5.0460e-01 1.3510e-01 -2.8631e-03 6.0549e-01 7.8829e-02 -3.3011e-04 7.0639e-01 3.4577e-02 -2.0952e-05 8.0729e-01 9.5927e-03 -5.0613e-07 9.0819e-01 9.4111e-04 -9.5007e-10
       116 1.7989e+01 1.3114e-06 3.9774e-01 -2.1754e-01 3.2254e-01 -1.7049e-01 1.0000e-04 5.4872e-04 -2.2703e-06 1.0100e-01 9.6874e-02 -1.0804e-01 2.0190e-01 1.7596e-01 -1.1016e-01 3.0280e-01 2.0614e-01 -5.1994e-02 4.0370e-01 1.8656e-01 -1.5042e-02 5.0460e-01 1.3608e-01 -2.7920e-03 6.0549e-01 7.9399e-02 -3.1528e-04 7.0639e-01 3.4821e-02 -1.9428e-05 8.0729e-01 9.6558e-03 -4.4887e-07 9.0819e-01 9.4629e-04 -7.7630e-10
       117 3.3498e+01 5.6219e-10 3.9515e-01 -2.1899e-01 3.2032e-01 -1.7095e-01 1.0000e-04 5.4958e-04 -2.6357e-06 1.0100e-01 9.6253e-02 -1.0832e-01 2.0190e-01 1.7474e-01 -1.1014e-01 3.0280e-01 2.0467e-01 -5.2305e-02 4.0370e-01 1.8522e-01 -1.5311e-02 5.0460e-01 1.3512e-01 -2.8904e-03 6.0549e-01 7.8856e-02 -3.3407e-04 7.0639e-01 3.4596e-02 -2.1264e-05 8.0729e-01 9.5996e-03 -5.1563e-07 9.0819e-01 9.4196e-04 -9.7395e-10
       118 3.3801e+03 0.0000e+00 3.9319e-01 -2.1693e-01 3.1835e-01 -1.6960e-01 1.0000e-04 5.6137e-04 -2.8428e-06 1.0100e-01 9.5873e-02 -1.0627e-01 2.0190e-01 1.7369e-01 -1.0969e-01 3.0280e-01 2.0322e-01 -5.3352e-02 4.0370e-01 1.8379e-01 -1.6112e-02 5.0460e-01 1.3402e-01 -3.1638e-03 6.0549e-01 7.8204e-02 -3.8451e-04 7.0639e-01 3.4312e-02 -2.6166e-05 8.0729e-01 9.5247e-03 -6.9902e-07 9.0819e-01 9.3568e-04 -1.5692e-09
       119 7.9538e+02 2.0363e-175 3.9505e-01 -2.1777e-01 3.2011e-01 -1.7013e-01 1.0000e-04 5.5432e-04 -2.6206e-06 1.0100e-01 9.6271e-02 -1.0755e-01 2.0190e-01 1.7464e-01 -1.0974e-01 3.0280e-01 2.0447e-01 -5.2338e-02 4.0370e-01 1.8498e-01 -1.5398e-02 5.0460e-01 1.3491e-01 -2.9249e-03 6.0549e-01 7.8720e-02 -3.4064e-04 7.0639e-01 3.4531e-02 -2.1900e-05 8.0729e-01 9.5805e-03 -5.3866e-07 9.0819e-01 9.4004e-04 -1.0434e-09
       120 5.1431e+01 7.1777e-14 3.9466e-01 -2.1919e-01 3.1985e-01 -1.7080e-01 1.0000e-04 5.5179e-04 -2.7728e-06 1.0100e-01 9.6147e-02 -1.0833e-01 2.0190e-01 1.7448e-01 -1.0988e-01 3.0280e-01 2.0434e-01 -5.2199e-02 4.0370e-01 1.8491e-01 -1.5308e-02 5.0460e-01 1.3489e-01 -2.8995e-03 6.0549e-01 7.8726e-02 -3.3674e-04 7.0639e-01 3.4543e-02 -2.1584e-05 8.0729e-01 9.5873e-03 -5.2899e-07 9.0819e-01 9.4126e-04 -1.0192e-09
       121 7.8448e+01 9.7551e-20 3.9734e-01 -2.1868e-01 3.2202e-01 -1.7077e-01 1.0000e-04 5.5542e-04 -2.5687e-06 1.0100e-01 9.6831e-02 -1.0829e-01 2.0190e-01 1.7569e-01 -1.1003e-01 3.0280e-01 2.0571e-01 -5.2122e-02 4.0370e-01 1.8610e-01 -1.5200e-02 5.0460e-01 1.3572e-01 -2.8551e-03 6.0549e-01 7.9175e-02 -3.2782e-04 7.0639e-01 3.4721e-02 -2.0680e-05 8.0729e-01 9.6291e-03 -4.9488e-07 9.0819e-01 9.4403e-04 -9.1281e-10
       122 1.3235e+02 1.9232e-31 3.9529e-01 -2.1825e-01 3.2043e-01 -1.7055e-01 1.0000e-04 5.5022e-04 -2.6436e-06 1.0100e-01 9.6288e-02 -1.0768e-01 2.0190e-01 1.7479e-01 -1.1007e-01 3.0280e-01 2.0474e-01 -5.2630e-02 4.0370e-01 1.8528e-01 -1.5535e-02 5.0460e-01 1.3516e-01 -2.9629e-03 6.0549e-01 7.8884e-02 -3.4688e-04 7.0639e-01 3.4609e-02 -2.2455e-05 8.0729e-01 9.6039e-03 -5.5785e-07 9.0819e-01 9.4252e-04 -1.0999e-09
       123 6.7938e+02 3.1573e-150 3.9345e-01 -2.1760e-01 3.1862e-01 -1.7031e-01 1.0000e-04 5.5942e-04 -2.6702e-06 1.0100e-01 9.5912e-02 -1.0694e-01 2.0190e-01 1.7382e-01 -1.1019e-01 3.0280e-01 2.0343e-01 -5.3258e-02 4.0370e-01 1.8401e-01 -1.5930e-02 5.0460e-01 1.3420e-01 -3.0882e-03 6.0549e-01 7.8320e-02 -3.6900e-04 7.0639e-01 3.4368e-02 -2.4538e-05 8.0729e-01 9.5415e-03 -6.3365e-07 9.0819e-01 9.3750e-04 -1.3380e-09
       124 2.1485e+00 3.6094e-03 3.9785e-01 -2.1801e-01 3.2246e-01 -1.7045e-01 1.0000e-04 5.5543e-04 -2.4844e-06 1.0100e-01 9.6956e-02 -1.0800e-01 2.0190e-01 1.7593e-01 -1.0994e-01 3.0280e-01 2.0600e-01 -5.2096e-02 4.0370e-01 1.8635e-01 -1.5184e-02 5.0460e-01 1.3590e-01 -2.8485e-03 6.0549e-01 7.9277e-02 -3.2640e-04 7.0639e-01 3.4763e-02 -2.0527e-05 8.0729e-01 9.6395e-03 -4.8887e-07 9.0819e-01 9.4480e-04 -8.9357e-10
       125 9.9162e+00 7.4253e-05 3.9596e-01 -2.1871e-01 3.2103e-01 -1.7087e-01 1.0000e-04 5.4921e-04 -2.5325e-06 1.0100e-01 9.6446e-02 -1.0834e-01 2.0190e-01 1.7512e-01 -1.1014e-01 3.0280e-01 2.0514e-01 -5.2155e-02 4.0370e-01 1.8565e-01 -1.5197e-02 5.0460e-01 1.3543e-01 -2.8509e-03 6.0549e-01 7.9034e-02 -3.2675e-04 7.0639e-01 3.4670e-02 -2.0560e-05 8.0729e-01 9.6186e-03 -4.9011e-07 9.0819e-01 9.4352e-04 -8.9762e-10
       126 8.7093e+02 8.0182e-192 3.9459e-01 -2.1774e-01 3.1962e-01 -1.7005e-01 1.0000e-04 5.5827e-04 -2.7066e-06 1.0100e-01 9.6197e-02 -1.0733e-01 2.0190e-01 1.7438e-01 -1.0970e-01 3.0280e-01 2.0409e-01 -5.2545e-02 4.0370e-01 1.8460e-01 -1.5554e-02 5.0460e-01 1.3461e-01 -2.9781e-03 6.0549e-01 7.8534e-02 -3.5048e-04 7.0639e-01 3.4447e-02 -2.2852e-05 8.0729e-01 9.5574e-03 -5.7382e-07 9.0819e-01 9.3790e-04 -1.1535e-09
       127 1.7173e+03 0.0000e+00 3.9179e-01 -2.1799e-01 3.1719e-01 -1.7034e-01 1.0000e-04 5.6041e-04 -2.9587e-06 1.0100e-01 9.5523e-02 -1.0660e-01 2.0190e-01 1.7304e-01 -1.1015e-01 3.0280e-01 2.0247e-01 -5.3782e-02 4.0370e-01 1.8313e-01 -1.6332e-02 5.0460e-01 1.3356e-01 -3.2309e-03 6.0549e-01 7.7945e-02 -3.9650e-04 7.0639e-01 3.4207e-02 -2.7341e-05 8.0729e-01 9.4993e-03 -7.4469e-07 9.0819e-01 9.3385e-04 -1.7310e-09
       128 1.0825e+01 4.7146e-05 3.9574e-01 -2.1952e-01 3.2076e-01 -1.7108e-01 1.0000e-04 5.5183e-04 -2.6244e-06 1.0100e-01 9.6417e-02 -1.0896e-01 2.0190e-01 1.7499e-01 -1.0994e-01 3.0280e-01 2.0493e-01 -5.1693e-02 4.0370e-01 1.8543e-01 -1.4949e-02 5.0460e-01 1.3525e-01 -2.7809e-03 6.0549e-01 7.8919e-02 -3.1554e-04 7.0639e-01 3.4617e-02 -1.9604e-05 8.0729e-01 9.6034e-03 -4.5912e-07 9.0819e-01 9.4202e-04 -8.1548e-10
       129 1.9125e+02 3.1227e-44 3.9730e-01 -2.1800e-01 3.2213e-01 -1.7033e-01 1.0000e-04 5.5010e-04 -2.4811e-06 1.0100e-01 9.6777e-02 -1.0812e-01 2.0190e-01 1.7573e-01 -1.0977e-01 3.0280e-01 2.0586e-01 -5.1835e-02 4.0370e-01 1.8629e-01 -1.5045e-02 5.0460e-01 1.3588e-01 -2.8084e-03 6.0549e-01 7.9287e-02 -3.1979e-04 7.0639e-01 3.4774e-02 -1.9947e-05 8.0729e-01 9.6445e-03 -4.6949e-07 9.0819e-01 9.4551e-04 -8.4045e-10
       130 5.5814e+02 6.7005e-124 3.9620e-01 -2.1784e-01 3.2110e-01 -1.7012e-01 1.0000e-04 5.5360e-04 -2.6884e-06 1.0100e-01 9.6534e-02 -1.0745e-01 2.0190e-01 1.7517e-01 -1.0973e-01 3.0280e-01 2.0514e-01 -5.2472e-02 4.0370e-01 1.8561e-01 -1.5499e-02 5.0460e-01 1.3538e-01 -2.9597e-03 6.0549e-01 7.8997e-02 -3.4711e-04 7.0639e-01 3.4653e-02 -2.2528e-05 8.0729e-01 9.6141e-03 -5.6186e-07 9.0819e-01 9.4324e-04 -1.1159e-09
       131 1.5171e+01 5.3671e-06 3.9537e-01 -2.1899e-01 3.2059e-01 -1.7103e-01 1.0000e-04 5.4647e-04 -2.6130e-06 1.0100e-01 9.6281e-02 -1.0829e-01 2.0190e-01 1.7488e-01 -1.1025e-01 3.0280e-01 2.0489e-01 -5.2408e-02 4.0370e-01 1.8545e-01 -1.5354e-02 5.0460e-01 1.3530e-01 -2.9011e-03 6.0549e-01 7.8967e-02 -3.3563e-04 7.0639e-01 3.4645e-02 -2.1388e-05 8.0729e-01 9.6125e-03 -5.1940e-07 9.0819e-01 9.4304e-04 -9.8351e-10
       132 3.9856e+00 1.4405e-03 3.9406e-01 -2.1950e-01 3.1934e-01 -1.7118e-01 1.0000e-04 5.5189e-04 -2.8045e-06 1.0100e-01 9.6002e-02 -1.0824e-01 2.0190e-01 1.7420e-01 -1.1027e-01 3.0280e-01 2.0400e-01 -5.2699e-02 4.0370e-01 1.8460e-01 -1.5571e-02 5.0460e-01 1.3467e-01 -2.9765e-03 6.0549e-01 7.8605e-02 -3.4972e-04 7.0639e-01 3.4494e-02 -2.2762e-05 8.0729e-01 9.5753e-03 -5.7032e-07 9.0819e-01 9.4039e-04 -1.1427e-09
       133 7.6407e+00 2.3164e-04 3.9660e-01 -2.1851e-01 3.2148e-01 -1.7084e-01 1.0000e-04 5.5248e-04 -2.5103e-06 1.0100e-01 9.6618e-02 -1.0818e-01 2.0190e-01 1.7537e-01 -1.1021e-01 3.0280e-01 2.0539e-01 -5.2301e-02 4.0370e-01 1.8586e-01 -1.5274e-02 5.0460e-01 1.3557e-01 -2.8729e-03 6.0549e-01 7.9114e-02 -3.3030e-04 7.0639e-01 3.4705e-02 -2.0866e-05 8.0729e-01 9.6288e-03 -5.0020e-07 9.0819e-01 9.4465e-04 -9.2506e-10
       134 9.0941e+01 1.8899e-22 3.9562e-01 -2.1901e-01 3.2061e-01 -1.7086e-01 1.0000e-04 5.5381e-04 -2.7407e-06 1.0100e-01 9.6396e-02 -1.0812e-01 2.0190e-01 1.7490e-01 -1.1007e-01 3.0280e-01 2.0481e-01 -5.2484e-02 4.0370e-01 1.8530e-01 -1.5456e-02 5.0460e-01 1.3516e-01 -2.9416e-03 6.0549e-01 7.8872e-02 -3.4363e-04 7.0639e-01 3.4600e-02 -2.2191e-05 8.0729e-01 9.6005e-03 -5.4963e-07 9.0819e-01 9.4212e-04 -1.0786e-09
       135 9.5434e+02 6.1805e-210 3.9382e-01 -2.1719e-01 3.1912e-01 -1.7004e-01 1.0000e-04 5.5269e-04 -2.4946e-06 1.0100e-01 9.5956e-02 -1.0725e-01 2.0190e-01 1.7408e-01 -1.0992e-01 3.0280e-01 2.0384e-01 -5.2543e-02 4.0370e-01 1.8444e-01 -1.5479e-02 5.0460e-01 1.3454e-01 -2.9422e-03 6.0549e-01 7.8523e-02 -3.4271e-04 7.0639e-01 3.4455e-02 -2.2023e-05 8.0729e-01 9.5636e-03 -5.4101e-07 9.0819e-01 9.3912e-04 -1.0447e-09
       136 1.5244e+03 0.0000e+00 3.9579e-01 -2.1733e-01 3.2083e-01 -1.6975e-01 1.0000e-04 5.5086e-04 -2.5525e-06 1.0100e-01 9.6412e-02 -1.0759e-01 2.0190e-01 1.7502e-01 -1.0940e-01 3.0280e-01 2.0499e-01 -5.1867e-02 4.0370e-01 1.8551e-01 -1.5141e-02 5.0460e-01 1.3533e-01 -2.8475e-03 6.0549e-01 7.8976e-02 -3.2744e-04 7.0639e-01 3.4648e-02 -2.0697e-05 8.0729e-01 9.6139e-03 -4.9670e-07 9.0819e-01 9.4337e-04 -9.2076e-10
       137 3.6157e+03 0.0000e+00 3.9075e-01 -2.1738e-01 3.1633e-01 -1.6995e-01 1.0000e-04 5.5957e-04 -2.8981e-06 1.0100e-01 9.5259e-02 -1.0634e-01 2.0190e-01 1.7256e-01 -1.0995e-01 3.0280e-01 2.0192e-01 -5.3652e-02 4.0370e-01 1.8265e-01 -1.6274e-02 5.0460e-01 1.3323e-01 -3.2136e-03 6.0549e-01 7.7768e-02 -3.9341e-04 7.0639e-01 3.4138e-02 -2.7034e-05 8.0729e-01 9.4839e-03 -7.3250e-07 9.0819e-01 9.3300e-04 -1.6866e-09
       138 6.0311e+01 8.4656e-16 3.9814e-01 -2.1868e-01 3.2277e-01 -1.7085e-01 1.0000e-04 5.5296e-04 -2.4736e-06 1.0100e-01 9.6991e-02 -1.0854e-01 2.0190e-01 1.7608e-01 -1.1006e-01 3.0280e-01 2.0624e-01 -5.1876e-02 4.0370e-01 1.8663e-01 -1.5020e-02 5.0460e-01 1.3613e-01 -2.7952e-03 6.0549e-01 7.9432e-02 -3.1704e-04 7.0639e-01 3.4840e-02 -1.9673e-05 8.0729e-01 9.6638e-03 -4.5955e-07 9.0819e-01 9.4764e-04 -8.1170e-10
       139 6.7820e+02 5.6969e-150 3.9503e-01 -2.1778e-01 3.2006e-01 -1.7030e-01 1.0000e-04 5.5563e-04 -2.6565e-06 1.0100e-01 9.6269e-02 -1.0726e-01 2.0190e-01 1.7461e-01 -1.1002e-01 3.0280e-01 2.0442e-01 -5.2857e-02 4.0370e-01 1.8494e-01 -1.5694e-02 5.0460e-01 1.3489e-01 -3.0150e-03 6.0549e-01 7.8714e-02 -3.5620e-04 7.0639e-01 3.4533e-02 -2.3336e-05 8.0729e-01 9.5833e-03 -5.8983e-07 9.0819e-01 9.4073e-04 -1.1991e-09
       140 1.1119e+03 3.7863e-244 3.9508e-01 -2.1746e-01 3.2012e-01 -1.6984e-01 1.0000e-04 5.5486e-04 -2.6848e-06 1.0100e-01 9.6281e-02 -1.0724e-01 2.0190e-01 1.7464e-01 -1.0956e-01 3.0280e-01 2.0447e-01 -5.2427e-02 4.0370e-01 1.8498e-01 -1.5498e-02 5.0460e-01 1.3491e-01 -2.9621e-03 6.0549e-01 7.8720e-02 -3.4780e-04 7.0639e-01 3.4531e-02 -2.2607e-05 8.0729e-01 9.5810e-03 -5.6509e-07 9.0819e-01 9.4016e-04 -1.1267e-09
       141 2.7283e+03 0.0000e+00 3.9571e-01 -2.1624e-01 3.2052e-01 -1.6912e-01 1.0000e-04 5.6029e-04 -2.5773e-06 1.0100e-01 9.6460e-02 -1.0667e-01 2.0190e-01 1.7486e-01 -1.0924e-01 3.0280e-01 2.0467e-01 -5.2295e-02 4.0370e-01 1.8513e-01 -1.5451e-02 5.0460e-01 1.3501e-01 -2.9494e-03 6.0549e-01 7.8782e-02 -3.4557e-04 7.0639e-01 3.4563e-02 -2.2388e-05 8.0729e-01 9.5925e-03 -5.5672e-07 9.0819e-01 9.4188e-04 -1.0992e-09
       142 7.0691e+01 4.7159e-18 3.9739e-01 -2.1860e-01 3.2231e-01 -1.7047e-01 1.0000e-04 5.4643e-04 -2.5722e-06 1.0100e-01 9.6773e-02 -1.0852e-01 2.0190e-01 1.7582e-01 -1.0961e-01 3.0280e-01 2.0602e-01 -5.1548e-02 4.0370e-01 1.8647e-01 -1.4903e-02 5.0460e-01 1.3603e-01 -2.7706e-03 6.0549e-01 7.9376e-02 -3.1406e-04 7.0639e-01 3.4813e-02 -1.9482e-05 8.0729e-01 9.6542e-03 -4.5517e-07 9.0819e-01 9.4619e-04 -8.0476e-10
       143 3.2098e+02 2.1072e-72 3.9569e-01 -2.1836e-01 3.2073e-01 -1.7061e-01 1.0000e-04 5.5148e-04 -2.6437e-06 1.0100e-01 9.6394e-02 -1.0778e-01 2.0190e-01 1.7496e-01 -1.1007e-01 3.0280e-01 2.0492e-01 -5.2576e-02 4.0370e-01 1.8543e-01 -1.5499e-02 5.0460e-01 1.3527e-01 -2.9514e-03 6.0549e-01 7.8940e-02 -3.4484e-04 7.0639e-01 3.4632e-02 -2.2265e-05 8.0729e-01 9.6096e-03 -5.5108e-07 9.0819e-01 9.4299e-04 -1.0794e-09
       144 6.3560e+02 1.0111e-140 3.9364e-01 -2.1825e-01 3.1879e-01 -1.7054e-01 1.0000e-04 5.5903e-04 -2.8499e-06 1.0100e-01 9.5958e-02 -1.0706e-01 2.0190e-01 1.7392e-01 -1.1020e-01 3.0280e-01 2.0355e-01 -5.3419e-02 4.0370e-01 1.8411e-01 -1.6064e-02 5.0460e-01 1.3428e-01 -3.1380e-03 6.0549e-01 7.8357e-02 -3.7889e-04 7.0639e-01 3.4381e-02 -2.5563e-05 8.0729e-01 9.5441e-03 -6.7454e-07 9.0819e-01 9.3754e-04 -1.4815e-09
       145 2.2834e+03 0.0000e+00 3.9412e-01 -2.1768e-01 3.1932e-01 -1.6988e-01 1.0000e-04 5.5453e-04 -2.8083e-06 1.0100e-01 9.6044e-02 -1.0713e-01 2.0190e-01 1.7420e-01 -1.0956e-01 3.0280e-01 2.0395e-01 -5.2638e-02 4.0370e-01 1.8452e-01 -1.5657e-02 5.0460e-01 1.3459e-01 -3.0176e-03 6.0549e-01 7.8541e-02 -3.5824e-04 7.0639e-01 3.4460e-02 -2.3638e-05 8.0729e-01 9.5641e-03 -6.0406e-07 9.0819e-01 9.3904e-04 -1.2534e-09
       146 5.1759e+01 6.0908e-14 3.9422e-01 -2.1878e-01 3.1945e-01 -1.7089e-01 1.0000e-04 5.5276e-04 -2.6601e-06 1.0100e-01 9.6043e-02 -1.0801e-01 2.0190e-01 1.7426e-01 -1.1022e-01 3.0280e-01 2.0406e-01 -5.2609e-02 4.0370e-01 1.8466e-01 -1.5498e-02 5.0460e-01 1.3471e-01 -2.9491e-03 6.0549e-01 7.8627e-02 -3.4428e-04 7.0639e-01 3.4504e-02 -2.2205e-05 8.0729e-01 9.5786e-03 -5.4880e-07 9.0819e-01 9.4080e-04 -1.0723e-09
       147 4.2517e+02 5.0155e-95 3.9672e-01 -2.1755e-01 3.2159e-01 -1.7010e-01 1.0000e-04 5.5203e-04 -2.5521e-06 1.0100e-01 9.6649e-02 -1.0751e-01 2.0190e-01 1.7544e-01 -1.0979e-01 3.0280e-01 2.0548e-01 -5.2326e-02 4.0370e-01 1.8593e-01 -1.5371e-02 5.0460e-01 1.3562e-01 -2.9126e-03 6.0549e-01 7.9136e-02 -3.3807e-04 7.0639e-01 3.4712e-02 -2.1631e-05 8.0729e-01 9.6291e-03 -5.2825e-07 9.0819e-01 9.4443e-04 -1.0099e-09
       148 1.1881e+02 1.6783e-28 3.9747e-01 -2.1897e-01 3.2218e-01 -1.7101e-01 1.0000e-04 5.5383e-04 -2.5422e-06 1.0100e-01 9.6848e-02 -1.0853e-01 2.0190e-01 1.7577e-01 -1.1017e-01 3.0280e-01 2.0583e-01 -5.2082e-02 4.0370e-01 1.8623e-01 -1.5146e-02 5.0460e-01 1.3582e-01 -2.8350e-03 6.0549e-01 7.9239e-02 -3.2403e-04 7.0639e-01 3.4750e-02 -2.0315e-05 8.0729e-01 9.6373e-03 -4.8182e-07 9.0819e-01 9.4480e-04 -8.7456e-10
       149 3.5587e+01 1.9786e-10 3.9752e-01 -2.1835e-01 3.2216e-01 -1.7071e-01 1.0000e-04 5.5596e-04 -2.5371e-06 1.0100e-01 9.6873e-02 -1.0800e-01 2.0190e-01 1.7576e-01 -1.1016e-01 3.0280e-01 2.0580e-01 -5.2391e-02 4.0370e-01 1.8618e-01 -1.5347e-02 5.0460e-01 1.3578e-01 -2.8976e-03 6.0549e-01 7.9216e-02 -3.3480e-04 7.0639e-01 3.4742e-02 -2.1291e-05 8.0729e-01 9.6358e-03 -5.1533e-07 9.0819e-01 9.4487e-04 -9.6963e-10
       150 2.9961e+02 9.2123e-68 3.9165e-01 -2.1849e-01 3.1712e-01 -1.7072e-01 1.0000e-04 5.5869e-04 -2.8075e-06 1.0100e-01 9.5481e-02 -1.0731e-01 2.0190e-01 1.7300e-01 -1.1029e-01 3.0280e-01 2.0245e-01 -5.3298e-02 4.0370e-01 1.8311e-01 -1.5961e-02 5.0460e-01 1.3355e-01 -3.1014e-03 6.0549e-01 7.7939e-02 -3.7192e-04 7.0639e-01 3.4203e-02 -2.4865e-05 8.0729e-01 9.4972e-03 -6.4741e-07 9.0819e-01 9.3345e-04 -1.3884e-09
       151 1.0072e+03 2.0316e-221 3.9531e-01 -2.1747e-01 3.2023e-01 -1.6990e-01 1.0000e-04 5.5818e-04 -2.6286e-06 1.0100e-01 9.6349e-02 -1.0737e-01 2.0190e-01 1.7470e-01 -1.0961e-01 3.0280e-01 2.0450e-01 -5.2319e-02 4.0370e-01 1.8500e-01 -1.5411e-02 5.0460e-01 1.3492e-01 -2.9316e-03 6.0549e-01 7.8733e-02 -3.4210e-04 7.0639e-01 3.4543e-02 -2.2050e-05 8.0729e-01 9.5868e-03 -5.4442e-07 9.0819e-01 9.4128e-04 -1.0617e-09
       152 7.4286e+01 7.8173e-19 3.9722e-01 -2.1913e-01 3.2205e-01 -1.7090e-01 1.0000e-04 5.5098e-04 -2.5905e-06 1.0100e-01 9.6756e-02 -1.0871e-01 2.0190e-01 1.7568e-01 -1.0993e-01 3.0280e-01 2.0579e-01 -5.1789e-02 4.0370e-01 1.8624e-01 -1.5007e-02 5.0460e-01 1.3585e-01 -2.7978e-03 6.0549e-01 7.9277e-02 -3.1827e-04 7.0639e-01 3.4776e-02 -1.9837e-05 8.0729e-01 9.6471e-03 -4.6664e-07 9.0819e-01 9.4620e-04 -8.3516e-10
       153 2.2540e+03 0.0000e+00 3.9507e-01 -2.1678e-01 3.2004e-01 -1.6958e-01 1.0000e-04 5.5787e-04 -2.6325e-06 1.0100e-01 9.6304e-02 -1.0674e-01 2.0190e-01 1.7461e-01 -1.0960e-01 3.0280e-01 2.0438e-01 -5.2712e-02 4.0370e-01 1.8486e-01 -1.5668e-02 5.0460e-01 1.3481e-01 -3.0139e-03 6.0549e-01 7.8655e-02 -3.5660e-04 7.0639e-01 3.4501e-02 -2.3408e-05 8.0729e-01 9.5725e-03 -5.9322e-07 9.0819e-01 9.3940e-04 -1.2116e-09
       154 8.6172e+00 1.4216e-04 3.9494e-01 -2.1900e-01 3.2006e-01 -1.7095e-01 1.0000e-04 5.5275e-04 -2.7301e-06 1.0100e-01 9.6228e-02 -1.0802e-01 2.0190e-01 1.7460e-01 -1.1021e-01 3.0280e-01 2.0446e-01 -5.2686e-02 4.0370e-01 1.8499e-01 -1.5560e-02 5.0460e-01 1.3494e-01 -2.9713e-03 6.0549e-01 7.8743e-02 -3.4854e-04 7.0639e-01 3.4545e-02 -2.2629e-05 8.0729e-01 9.5857e-03 -5.6477e-07 9.0819e-01 9.4074e-04 -1.1233e-09
       155 1.4565e+02 2.4955e-34 3.9558e-01 -2.1838e-01 3.2054e-01 -1.7060e-01 1.0000e-04 5.5515e-04 -2.6380e-06 1.0100e-01 9.6400e-02 -1.0783e-01 2.0190e-01 1.7487e-01 -1.1005e-01 3.0280e-01 2.0474e-01 -5.2510e-02 4.0370e-01 1.8523e-01 -1.5460e-02 5.0460e-01 1.3509e-01 -2.9394e-03 6.0549e-01 7.8825e-02 -3.4276e-04 7.0639e-01 3.4577e-02 -2.2072e-05 8.0729e-01 9.5933e-03 -5.4424e-07 9.0819e-01 9.4131e-04 -1.0589e-09
       156 3.8370e+01 4.9217e-11 3.9636e-01 -2.1783e-01 3.2114e-01 -1.7032e-01 1.0000e-04 5.5749e-04 -2.5298e-06 1.0100e-01 9.6611e-02 -1.0773e-01 2.0190e-01 1.7521e-01 -1.0991e-01 3.0280e-01 2.0510e-01 -5.2283e-02 4.0370e-01 1.8552e-01 -1.5318e-02 5.0460e-01 1.3529e-01 -2.8930e-03 6.0549e-01 7.8928e-02 -3.3436e-04 7.0639e-01 3.4616e-02 -2.1271e-05 8.0729e-01 9.6019e-03 -5.1514e-07 9.0819e-01 9.4178e-04 -9.7019e-10
       157 1.4277e+03 1.0169e-312 3.9367e-01 -2.1760e-01 3.1892e-01 -1.6999e-01 1.0000e-04 5.5508e-04 -2.7130e-06 1.0100e-01 9.5949e-02 -1.0718e-01 2.0190e-01 1.7399e-01 -1.0972e-01 3.0280e-01 2.0368e-01 -5.2667e-02 4.0370e-01 1.8425e-01 -1.5632e-02 5.0460e-01 1.3437e-01 -3.0029e-03 6.0549e-01 7.8409e-02 -3.5487e-04 7.0639e-01 3.4398e-02 -2.3265e-05 8.0729e-01 9.5452e-03 -5.8879e-07 9.0819e-01 9.3696e-04 -1.2002e-09
       158 1.0212e+02 7.0663e-25 3.9463e-01 -2.1910e-01 3.1980e-01 -1.7075e-01 1.0000e-04 5.5281e-04 -2.7435e-06 1.0100e-01 9.6160e-02 -1.0835e-01 2.0190e-01 1.7446e-01 -1.0984e-01 3.0280e-01 2.0428e-01 -5.2109e-02 4.0370e-01 1.8483e-01 -1.5252e-02 5.0460e-01 1.3481e-01 -2.8815e-03 6.0549e-01 7.8667e-02 -3.3354e-04 7.0639e-01 3.4510e-02 -2.1283e-05 8.0729e-01 9.5755e-03 -5.1821e-07 9.0819e-01 9.3966e-04 -9.8671e-10
       159 1.1061e+03 6.7203e-243 3.9476e-01 -2.1760e-01 3.1991e-01 -1.6999e-01 1.0000e-04 5.5277e-04 -2.6829e-06 1.0100e-01 9.6189e-02 -1.0727e-01 2.0190e-01 1.7452e-01 -1.0969e-01 3.0280e-01 2.0436e-01 -5.2533e-02 4.0370e-01 1.8490e-01 -1.5545e-02 5.0460e-01 1.3486e-01 -2.9747e-03 6.0549e-01 7.8697e-02 -3.4979e-04 7.0639e-01 3.4523e-02 -2.2779e-05 8.0729e-01 9.5792e-03 -5.7092e-07 9.0819e-01 9.4003e-04 -1.1437e-09
       160 8.2172e-01 7.0072e-03 3.9642e-01 -2.1841e-01 3.2128e-01 -1.7076e-01 1.0000e-04 5.5399e-04 -2.5405e-06 1.0100e-01 9.6590e-02 -1.0802e-01 2.0190e-01 1.7527e-01 -1.1019e-01 3.0280e-01 2.0525e-01 -5.2416e-02 4.0370e-01 1.8570e-01 -1.5358e-02 5.0460e-01 1.3545e-01 -2.9008e-03 6.0549e-01 7.9035e-02 -3.3530e-04 7.0639e-01 3.4669e-02 -2.1335e-05 8.0729e-01 9.6182e-03 -5.1684e-07 9.0819e-01 9.4358e-04 -9.7393e-10
       161 4.3781e+02 8.9927e-98 3.9570e-01 -2.1764e-01 3.2064e-01 -1.7028e-01 1.0000e-04 5.5529e-04 -2.5560e-06 1.0100e-01 9.6422e-02 -1.0741e-01 2.0190e-01 1.7492e-01 -1.1002e-01 3.0280e-01 2.0481e-01 -5.2633e-02 4.0370e-01 1.8530e-01 -1.5531e-02 5.0460e-01 1.3515e-01 -2.9592e-03 6.0549e-01 7.8868e-02 -3.4585e-04 7.0639e-01 3.4600e-02 -2.2329e-05 8.0729e-01 9.6015e-03 -5.5238e-07 9.0819e-01 9.4240e-04 -1.0804e-09
       162 9.8906e+01 3.5215e-24 3.9495e-01 -2.1864e-01 3.1999e-01 -1.7075e-01 1.0000e-04 5.5594e-04 -2.7031e-06 1.0100e-01 9.6258e-02 -1.0783e-01 2.0190e-01 1.7457e-01 -1.1013e-01 3.0280e-01 2.0437e-01 -5.2684e-02 4.0370e-01 1.8488e-01 -1.5569e-02 5.0460e-01 1.3483e-01 -2.9746e-03 6.0549e-01 7.8675e-02 -3.4912e-04 7.0639e-01 3.4513e-02 -2.2680e-05 8.0729e-01 9.5764e-03 -5.6648e-07 9.0819e-01 9.3984e-04 -1.1280e-09
       163 6.9251e+02 4.4463e-153 3.9473e-01 -2.1767e-01 3.1971e-01 -1.7016e-01 1.0000e-04 5.5916e-04 -2.7224e-06 1.0100e-01 9.6220e-02 -1.0705e-01 2.0190e-01 1.7442e-01 -1.0994e-01 3.0280e-01 2.0415e-01 -5.2984e-02 4.0370e-01 1.8466e-01 -1.5803e-02 5.0460e-01 1.3467e-01 -3.0539e-03 6.0549e-01 7.8584e-02 -3.6360e-04 7.0639e-01 3.4477e-02 -2.4072e-05 8.0729e-01 9.5691e-03 -6.1785e-07 9.0819e-01 9.3965e-04 -1.2912e-09
       164 4.0273e+02 3.7346e-90 3.9214e-01 -2.1882e-01 3.1758e-01 -1.7075e-01 1.0000e-04 5.5678e-04 -2.8171e-06 1.0100e-01 9.5581e-02 -1.0773e-01 2.0190e-01 1.7325e-01 -1.1010e-01 3.0280e-01 2.0278e-01 -5.2844e-02 4.0370e-01 1.8343e-01 -1.5699e-02 5.0460e-01 1.3379e-01 -3.0210e-03 6.0549e-01 7.8087e-02 -3.5795e-04 7.0639e-01 3.4269e-02 -2.3558e-05 8.0729e-01 9.5151e-03 -5.9980e-07 9.0819e-01 9.3509e-04 -1.2364e-09
       165 7.4776e+00 2.5133e-04 3.9326e-01 -2.1966e-01 3.1857e-01 -1.7108e-01 1.0000e-04 5.5557e-04 -2.8854e-06 1.0100e-01 9.5832e-02 -1.0833e-01 2.0190e-01 1.7378e-01 -1.1007e-01 3.0280e-01 2.0344e-01 -5.2522e-02 4.0370e-01 1.8407e-01 -1.5504e-02 5.0460e-01 1.3427e-01 -2.9618e-03 6.0549e-01 7.8373e-02 -3.4787e-04 7.0639e-01 3.4396e-02 -2.2639e-05 8.0729e-01 9.5508e-03 -5.6739e-07 9.0819e-01 9.3857e-04 -1.1379e-09
       166 5.7725e+02 4.7483e-128 3.9217e-01 -2.1881e-01 3.1765e-01 -1.7086e-01 1.0000e-04 5.5559e-04 -2.8688e-06 1.0100e-01 9.5572e-02 -1.0743e-01 2.0190e-01 1.7327e-01 -1.1032e-01 3.0280e-01 2.0284e-01 -5.3331e-02 4.0370e-01 1.8352e-01 -1.5988e-02 5.0460e-01 1.3387e-01 -3.1118e-03 6.0549e-01 7.8144e-02 -3.7405e-04 7.0639e-01 3.4299e-02 -2.5091e-05 8.0729e-01 9.5257e-03 -6.5666e-07 9.0819e-01 9.3646e-04 -1.4215e-09
       167 5.7019e+02 1.6190e-126 3.9435e-01 -2.1860e-01 3.1956e-01 -1.7050e-01 1.0000e-04 5.5296e-04 -2.7275e-06 1.0100e-01 9.6075e-02 -1.0797e-01 2.0190e-01 1.7431e-01 -1.0980e-01 3.0280e-01 2.0413e-01 -5.2278e-02 4.0370e-01 1.8471e-01 -1.5366e-02 5.0460e-01 1.3475e-01 -2.9174e-03 6.0549e-01 7.8652e-02 -3.3977e-04 7.0639e-01 3.4515e-02 -2.1854e-05 8.0729e-01 9.5814e-03 -5.3820e-07 9.0819e-01 9.4107e-04 -1.0455e-09
       168 3.9973e+02 1.6765e-89 3.9474e-01 -2.1866e-01 3.1990e-01 -1.7064e-01 1.0000e-04 5.5254e-04 -2.7159e-06 1.0100e-01 9.6180e-02 -1.0795e-01 2.0190e-01 1.7451e-01 -1.0996e-01 3.0280e-01 2.0435e-01 -5.2443e-02 4.0370e-01 1.8490e-01 -1.5444e-02 5.0460e-01 1.3487e-01 -2.9390e-03 6.0549e-01 7.8703e-02 -3.4323e-04 7.0639e-01 3.4527e-02 -2.2155e-05 8.0729e-01 9.5808e-03 -5.4832e-07 9.0819e-01 9.4026e-04 -1.0745e-09
       169 2.7826e+02 3.9917e-63 3.9421e-01 -2.1842e-01 3.1926e-01 -1.7071e-01 1.0000e-04 5.5970e-04 -2.7675e-06 1.0100e-01 9.6105e-02 -1.0736e-01 2.0190e-01 1.7418e-01 -1.1028e-01 3.0280e-01 2.0384e-01 -5.3208e-02 4.0370e-01 1.8437e-01 -1.5898e-02 5.0460e-01 1.3445e-01 -3.0796e-03 6.0549e-01 7.8452e-02 -3.6781e-04 7.0639e-01 3.4418e-02 -2.4456e-05 8.0729e-01 9.5524e-03 -6.3167e-07 9.0819e-01 9.3801e-04 -1.3352e-09
       170 5.9547e+01 1.2402e-15 3.9473e-01 -2.1888e-01 3.1982e-01 -1.7088e-01 1.0000e-04 5.5535e-04 -2.7442e-06 1.0100e-01 9.6188e-02 -1.0789e-01 2.0190e-01 1.7447e-01 -1.1020e-01 3.0280e-01 2.0427e-01 -5.2768e-02 4.0370e-01 1.8481e-01 -1.5618e-02 5.0460e-01 1.3480e-01 -2.9907e-03 6.0549e-01 7.8671e-02 -3.5204e-04 7.0639e-01 3.4519e-02 -2.2963e-05 8.0729e-01 9.5810e-03 -5.7698e-07 9.0819e-01 9.4082e-04 -1.1614e-09
       171 1.4112e+03 3.8359e-309 3.9263e-01 -2.1765e-01 3.1795e-01 -1.7011e-01 1.0000e-04 5.5863e-04 -2.7808e-06 1.0100e-01 9.5718e-02 -1.0691e-01 2.0190e-01 1.7346e-01 -1.0991e-01 3.0280e-01 2.0300e-01 -5.3123e-02 4.0370e-01 1.8361e-01 -1.5909e-02 5.0460e-01 1.3390e-01 -3.0908e-03 6.0549e-01 7.8142e-02 -3.7055e-04 7.0639e-01 3.4288e-02 -2.4763e-05 8.0729e-01 9.5187e-03 -6.4433e-07 9.0819e-01 9.3516e-04 -1.3800e-09
       172 2.5127e+02 2.8950e-57 3.9485e-01 -2.1774e-01 3.1993e-01 -1.7044e-01 1.0000e-04 5.5464e-04 -2.5569e-06 1.0100e-01 9.6222e-02 -1.0736e-01 2.0190e-01 1.7454e-01 -1.1019e-01 3.0280e-01 2.0435e-01 -5.2847e-02 4.0370e-01 1.8487e-01 -1.5640e-02 5.0460e-01 1.3484e-01 -2.9905e-03 6.0549e-01 7.8681e-02 -3.5105e-04 7.0639e-01 3.4517e-02 -2.2796e-05 8.0729e-01 9.5777e-03 -5.6859e-07 9.0819e-01 9.4000e-04 -1.1283e-09
       173 1.8784e+03 0.0000e+00 3.9509e-01 -2.1673e-01 3.2013e-01 -1.6957e-01 1.0000e-04 5.5485e-04 -2.5270e-06 1.0100e-01 9.6291e-02 -1.0702e-01 2.0190e-01 1.7466e-01 -1.0955e-01 3.0280e-01 2.0447e-01 -5.2340e-02 4.0370e-01 1.8497e-01 -1.5418e-02 5.0460e-01 1.3489e-01 -2.9310e-03 6.0549e-01 7.8700e-02 -3.4156e-04 7.0639e-01 3.4518e-02 -2.1966e-05 8.0729e-01 9.5753e-03 -5.4032e-07 9.0819e-01 9.3927e-04 -1.0461e-09
       174 2.0514e+01 3.7113e-07 3.9595e-01 -2.1890e-01 3.2081e-01 -1.7098e-01 1.0000e-04 5.5664e-04 -2.6238e-06 1.0100e-01 9.6513e-02 -1.0819e-01 2.0190e-01 1.7504e-01 -1.1025e-01 3.0280e-01 2.0490e-01 -5.2478e-02 4.0370e-01 1.8534e-01 -1.5402e-02 5.0460e-01 1.3515e-01 -2.9169e-03 6.0549e-01 7.8844e-02 -3.3843e-04 7.0639e-01 3.4577e-02 -2.1649e-05 8.0729e-01 9.5903e-03 -5.2867e-07 9.0819e-01 9.4051e-04 -1.0110e-09
       175 1.1156e+03 5.8686e-245 3.9603e-01 -2.1744e-01 3.2107e-01 -1.6990e-01 1.0000e-04 5.4965e-04 -2.5528e-06 1.0100e-01 9.6460e-02 -1.0757e-01 2.0190e-01 1.7514e-01 -1.0956e-01 3.0280e-01 2.0516e-01 -5.2046e-02 4.0370e-01 1.8568e-01 -1.5229e-02 5.0460e-01 1.3545e-01 -2.8723e-03 6.0549e-01 7.9051e-02 -3.3147e-04 7.0639e-01 3.4680e-02 -2.1049e-05 8.0729e-01 9.6225e-03 -5.0850e-07 9.0819e-01 9.4410e-04 -9.5374e-10
       176 1.6962e+02 1.5561e-39 3.9592e-01 -2.1806e-01 3.2086e-01 -1.7065e-01 1.0000e-04 5.5411e-04 -2.6194e-06 1.0100e-01 9.6478e-02 -1.0738e-01 2.0190e-01 1.7505e-01 -1.1033e-01 3.0280e-01 2.0496e-01 -5.3064e-02 4.0370e-01 1.8543e-01 -1.5768e-02 5.0460e-01 1.3524e-01 -3.0313e-03 6.0549e-01 7.8910e-02 -3.5835e-04 7.0639e-01 3.4612e-02 -2.3491e-05 8.0729e-01 9.6017e-03 -5.9413e-07 9.0819e-01 9.4187e-04 -1.2088e-09
       177 1.2377e+02 1.4063e-29 3.9484e-01 -2.1820e-01 3.1990e-01 -1.7043e-01 1.0000e-04 5.5578e-04 -2.5892e-06 1.0100e-01 9.6235e-02 -1.0794e-01 2.0190e-01 1.7453e-01 -1.0986e-01 3.0280e-01 2.0431e-01 -5.2179e-02 4.0370e-01 1.8482e-01 -1.5270e-02 5.0460e-01 1.3478e-01 -2.8810e-03 6.0549e-01 7.8642e-02 -3.3268e-04 7.0639e-01 3.4496e-02 -2.1145e-05 8.0729e-01 9.5708e-03 -5.1159e-07 9.0819e-01 9.3914e-04 -9.6226e-10
       178 2.1538e+02 1.7974e-49 3.9608e-01 -2.1793e-01 3.2096e-01 -1.7039e-01 1.0000e-04 5.5530e-04 -2.5117e-06 1.0100e-01 9.6518e-02 -1.0785e-01 2.0190e-01 1.7510e-01 -1.0994e-01 3.0280e-01 2.0502e-01 -5.2223e-02 4.0370e-01 1.8549e-01 -1.5270e-02 5.0460e-01 1.3529e-01 -2.8767e-03 6.0549e-01 7.8943e-02 -3.3140e-04 7.0639e-01 3.4631e-02 -2.0991e-05 8.0729e-01 9.6086e-03 -5.0513e-07 9.0819e-01 9.4288e-04 -9.4059e-10
       179 1.7825e+02 2.0791e-41 3.9497e-01 -2.1855e-01 3.2000e-01 -1.7069e-01 1.0000e-04 5.5603e-04 -2.6998e-06 1.0100e-01 9.6257e-02 -1.0777e-01 2.0190e-01 1.7457e-01 -1.1011e-01 3.0280e-01 2.0437e-01 -5.2688e-02 4.0370e-01 1.8489e-01 -1.5575e-02 5.0460e-01 1.3485e-01 -2.9769e-03 6.0549e-01 7.8687e-02 -3.4955e-04 7.0639e-01 3.4520e-02 -2.2722e-05 8.0729e-01 9.5795e-03 -5.6800e-07 9.0819e-01 9.4032e-04 -1.1327e-09
       180 1.4164e+01 8.8766e-06 3.9450e-01 -2.1929e-01 3.1959e-01 -1.7114e-01 1.0000e-04 5.5659e-04 -2.6945e-06 1.0100e-01 9.6147e-02 -1.0834e-01 2.0190e-01 1.7435e-01 -1.1027e-01 3.0280e-01 2.0410e-01 -5.2498e-02 4.0370e-01 1.8464e-01 -1.5423e-02 5.0460e-01 1.3467e-01 -2.9258e-03 6.0549e-01 7.8586e-02 -3.4030e-04 7.0639e-01 3.4479e-02 -2.1847e-05 8.0729e-01 9.5695e-03 -5.3642e-07 9.0819e-01 9.3963e-04 -1.0363e-09
       181 5.1159e+02 8.6014e-114 3.9427e-01 -2.1796e-01 3.1941e-01 -1.7043e-01 1.0000e-04 5.5587e-04 -2.6153e-06 1.0100e-01 9.6100e-02 -1.0750e-01 2.0190e-01 1.7426e-01 -1.1006e-01 3.0280e-01 2.0398e-01 -5.2698e-02 4.0370e-01 1.8452e-01 -1.5576e-02 5.0460e-01 1.3456e-01 -2.9750e-03 6.0549e-01 7.8514e-02 -3.4886e-04 7.0639e-01 3.4440e-02 -2.2628e-05 8.0729e-01 9.5557e-03 -5.6370e-07 9.0819e-01 9.3774e-04 -1.1166e-09
       182 1.2323e+03 2.6504e-270 3.9571e-01 -2.1708e-01 3.2054e-01 -1.6984e-01 1.0000e-04 5.5944e-04 -2.6139e-06 1.0100e-01 9.6462e-02 -1.0693e-01 2.0190e-01 1.7488e-01 -1.0977e-01 3.0280e-01 2.0469e-01 -5.2751e-02 4.0370e-01 1.8514e-01 -1.5661e-02 5.0460e-01 1.3501e-01 -3.0073e-03 6.0549e-01 7.8772e-02 -3.5504e-04 7.0639e-01 3.4553e-02 -2.3235e-05 8.0729e-01 9.5874e-03 -5.8626e-07 9.0819e-01 9.4096e-04 -1.1879e-09
       183 1.3654e+02 2.3670e-32 3.9360e-01 -2.1936e-01 3.1890e-01 -1.7102e-01 1.0000e-04 5.5402e-04 -2.8960e-06 1.0100e-01 9.5906e-02 -1.0795e-01 2.0190e-01 1.7396e-01 -1.1020e-01 3.0280e-01 2.0368e-01 -5.2907e-02 4.0370e-01 1.8429e-01 -1.5735e-02 5.0460e-01 1.3444e-01 -3.0335e-03 6.0549e-01 7.8467e-02 -3.6038e-04 7.0639e-01 3.4435e-02 -2.3808e-05 8.0729e-01 9.5601e-03 -6.0968e-07 9.0819e-01 9.3917e-04 -1.2703e-09
       184 6.5807e+01 5.4216e-17 3.9430e-01 -2.1825e-01 3.1943e-01 -1.7069e-01 1.0000e-04 5.5618e-04 -2.5844e-06 1.0100e-01 9.6095e-02 -1.0772e-01 2.0190e-01 1.7426e-01 -1.1023e-01 3.0280e-01 2.0400e-01 -5.2705e-02 4.0370e-01 1.8455e-01 -1.5545e-02 5.0460e-01 1.3461e-01 -2.9607e-03 6.0549e-01 7.8554e-02 -3.4590e-04 7.0639e-01 3.4467e-02 -2.2323e-05 8.0729e-01 9.5666e-03 -5.5200e-07 9.0819e-01 9.3944e-04 -1.0790e-09
       185 5.3814e+03 0.0000e+00 3.9351e-01 -2.1677e-01 3.1881e-01 -1.6917e-01 1.0000e-04 5.5430e-04 -2.8107e-06 1.0100e-01 9.5881e-02 -1.0664e-01 2.0190e-01 1.7391e-01 -1.0911e-01 3.0280e-01 2.0362e-01 -5.2472e-02 4.0370e-01 1.8424e-01 -1.5627e-02 5.0460e-01 1.3441e-01 -3.0168e-03 6.0549e-01 7.8454e-02 -3.5890e-04 7.0639e-01 3.4432e-02 -2.3749e-05 8.0729e-01 9.5604e-03 -6.0939e-07 9.0819e-01 9.3942e-04 -1.2738e-09
       186 1.0936e+02 1.8957e-26 3.9702e-01 -2.1798e-01 3.2179e-01 -1.7042e-01 1.0000e-04 5.5376e-04 -2.5098e-06 1.0100e-01 9.6737e-02 -1.0790e-01 2.0190e-01 1.7556e-01 -1.0994e-01 3.0280e-01 2.0558e-01 -5.2185e-02 4.0370e-01 1.8601e-01 -1.5246e-02 5.0460e-01 1.3566e-01 -2.8692e-03 6.0549e-01 7.9152e-02 -3.3009e-04 7.0639e-01 3.4715e-02 -2.0871e-05 8.0729e-01 9.6288e-03 -5.0099e-07 9.0819e-01 9.4420e-04 -9.2871e-10
       187 1.3254e+02 1.7521e-31 3.9519e-01 -2.1808e-01 3.2029e-01 -1.7055e-01 1.0000e-04 5.5220e-04 -2.5156e-06 1.0100e-01 9.6280e-02 -1.0787e-01 2.0190e-01 1.7472e-01 -1.1007e-01 3.0280e-01 2.0461e-01 -5.2352e-02 4.0370e-01 1.8515e-01 -1.5332e-02 5.0460e-01 1.3506e-01 -2.8937e-03 6.0549e-01 7.8816e-02 -3.3414e-04 7.0639e-01 3.4578e-02 -2.1230e-05 8.0729e-01 9.5953e-03 -5.1316e-07 9.0819e-01 9.4172e-04 -9.6307e-10
       188 3.6419e+01 1.3051e-10 3.9713e-01 -2.1806e-01 3.2191e-01 -1.7057e-01 1.0000e-04 5.5327e-04 -2.4354e-06 1.0100e-01 9.6763e-02 -1.0809e-01 2.0190e-01 1.7562e-01 -1.1006e-01 3.0280e-01 2.0567e-01 -5.2094e-02 4.0370e-01 1.8608e-01 -1.5154e-02 5.0460e-01 1.3572e-01 -2.8352e-03 6.0549e-01 7.9183e-02 -3.2367e-04 7.0639e-01 3.4727e-02 -2.0252e-05 8.0729e-01 9.6316e-03 -4.7865e-07 9.0819e-01 9.4436e-04 -8.6287e-10
       189 6.7532e+00 3.6103e-04 3.9665e-01 -2.1832e-01 3.2135e-01 -1.7073e-01 1.0000e-04 5.5904e-04 -2.4935e-06 1.0100e-01 9.6685e-02 -1.0808e-01 2.0190e-01 1.7532e-01 -1.1017e-01 3.0280e-01 2.0522e-01 -5.2288e-02 4.0370e-01 1.8563e-01 -1.5271e-02 5.0460e-01 1.3537e-01 -2.8720e-03 6.0549e-01 7.8981e-02 -3.3013e-04 7.0639e-01 3.4643e-02 -2.0848e-05 8.0729e-01 9.6110e-03 -4.9949e-07 9.0819e-01 9.4299e-04 -9.2269e-10
       190 1.5801e+03 0.0000e+00 3.9403e-01 -2.1747e-01 3.1912e-01 -1.6994e-01 1.0000e-04 5.5917e-04 -2.7445e-06 1.0100e-01 9.6045e-02 -1.0694e-01 2.0190e-01 1.7409e-01 -1.0976e-01 3.0280e-01 2.0377e-01 -5.2895e-02 4.0370e-01 1.8432e-01 -1.5779e-02 5.0460e-01 1.3444e-01 -3.0505e-03 6.0549e-01 7.8460e-02 -3.6341e-04 7.0639e-01 3.4430e-02 -2.4082e-05 8.0729e-01 9.5589e-03 -6.1899e-07 9.0819e-01 9.3921e-04 -1.2971e-09
       191 1.4026e+03 2.8816e-307 3.9507e-01 -2.1715e-01 3.2008e-01 -1.6983e-01 1.0000e-04 5.5621e-04 -2.6297e-06 1.0100e-01 9.6281e-02 -1.0698e-01 2.0190e-01 1.7462e-01 -1.0974e-01 3.0280e-01 2.0443e-01 -5.2700e-02 4.0370e-01 1.8494e-01 -1.5637e-02 5.0460e-01 1.3489e-01 -3.0012e-03 6.0549e-01 7.8716e-02 -3.5411e-04 7.0639e-01 3.4535e-02 -2.3158e-05 8.0729e-01 9.5843e-03 -5.8377e-07 9.0819e-01 9.4092e-04 -1.1811e-09
       192 1.1951e+02 1.1829e-28 3.9635e-01 -2.1937e-01 3.2111e-01 -1.7104e-01 1.0000e-04 5.5824e-04 -2.7363e-06 1.0100e-01 9.6605e-02 -1.0843e-01 2.0190e-01 1.7519e-01 -1.1009e-01 3.0280e-01 2.0508e-01 -5.2312e-02 4.0370e-01 1.8551e-01 -1.5340e-02 5.0460e-01 1.3529e-01 -2.9042e-03 6.0549e-01 7.8934e-02 -3.3704e-04 7.0639e-01 3.4623e-02 -2.1578e-05 8.0729e-01 9.6060e-03 -5.2787e-07 9.0819e-01 9.4259e-04 -1.0135e-09
       193 3.6935e+01 1.0083e-10 3.9476e-01 -2.1893e-01 3.2003e-01 -1.7080e-01 1.0000e-04 5.4858e-04 -2.6772e-06 1.0100e-01 9.6157e-02 -1.0827e-01 2.0190e-01 1.7457e-01 -1.0999e-01 3.0280e-01 2.0449e-01 -5.2229e-02 4.0370e-01 1.8506e-01 -1.5294e-02 5.0460e-01 1.3500e-01 -2.8897e-03 6.0549e-01 7.8786e-02 -3.3440e-04 7.0639e-01 3.4564e-02 -2.1324e-05 8.0729e-01 9.5905e-03 -5.1854e-07 9.0819e-01 9.4100e-04 -9.8466e-10
       194 9.3751e+02 2.8008e-206 3.9202e-01 -2.1818e-01 3.1753e-01 -1.7044e-01 1.0000e-04 5.5533e-04 -2.8159e-06 1.0100e-01 9.5541e-02 -1.0717e-01 2.0190e-01 1.7321e-01 -1.1008e-01 3.0280e-01 2.0276e-01 -5.3178e-02 4.0370e-01 1.8344e-01 -1.5921e-02 5.0460e-01 1.3381e-01 -3.0928e-03 6.0549e-01 7.8100e-02 -3.7080e-04 7.0639e-01 3.4276e-02 -2.4783e-05 8.0729e-01 9.5180e-03 -6.4509e-07 9.0819e-01 9.3545e-04 -1.3828e-09
       195 5.3885e+02 1.0323e-119 3.9528e-01 -2.1753e-01 3.2026e-01 -1.7020e-01 1.0000e-04 5.5621e-04 -2.5948e-06 1.0100e-01 9.6326e-02 -1.0722e-01 2.0190e-01 1.7471e-01 -1.1001e-01 3.0280e-01 2.0455e-01 -5.2789e-02 4.0370e-01 1.8506e-01 -1.5642e-02 5.0460e-01 1.3498e-01 -2.9963e-03 6.0549e-01 7.8770e-02 -3.5259e-04 7.0639e-01 3.4560e-02 -2.2974e-05 8.0729e-01 9.5916e-03 -5.7597e-07 9.0819e-01 9.4173e-04 -1.1537e-09
       196 7.7444e+01 1.6117e-19 3.9510e-01 -2.1893e-01 3.2021e-01 -1.7077e-01 1.0000e-04 5.5228e-04 -2.7495e-06 1.0100e-01 9.6267e-02 -1.0807e-01 2.0190e-01 1.7469e-01 -1.0999e-01 3.0280e-01 2.0456e-01 -5.2445e-02 4.0370e-01 1.8509e-01 -1.5445e-02 5.0460e-01 1.3500e-01 -2.9397e-03 6.0549e-01 7.8780e-02 -3.4346e-04 7.0639e-01 3.4559e-02 -2.2186e-05 8.0729e-01 9.5885e-03 -5.4974e-07 9.0819e-01 9.4082e-04 -1.0797e-09
       197 1.2858e+02 1.2700e-30 3.9609e-01 -2.1790e-01 3.2110e-01 -1.7028e-01 1.0000e-04 5.5039e-04 -2.5214e-06 1.0100e-01 9.6477e-02 -1.0790e-01 2.0190e-01 1.7516e-01 -1.0979e-01 3.0280e-01 2.0518e-01 -5.2044e-02 4.0370e-01 1.8568e-01 -1.5183e-02 5.0460e-01 1.3546e-01 -2.8525e-03 6.0549e-01 7.9057e-02 -3.2752e-04 7.0639e-01 3.4685e-02 -2.0657e-05 8.0729e-01 9.6243e-03 -4.9408e-07 9.0819e-01 9.4441e-04 -9.1027e-10
       198 1.4405e+03 1.6761e-315 3.9414e-01 -2.1768e-01 3.1931e-01 -1.7006e-01 1.0000e-04 5.5563e-04 -2.7966e-06 1.0100e-01 9.6055e-02 -1.0696e-01 2.0190e-01 1.7419e-01 -1.0982e-01 3.0280e-01 2.0393e-01 -5.3009e-02 4.0370e-01 1.8449e-01 -1.5852e-02 5.0460e-01 1.3457e-01 -3.0748e-03 6.0549e-01 7.8530e-02 -3.6793e-04 7.0639e-01 3.4456e-02 -2.4528e-05 8.0729e-01 9.5635e-03 -6.3605e-07 9.0819e-01 9.3911e-04 -1.3542e-09
       199 5.9595e+00 5.3689e-04 3.9516e-01 -2.1946e-01 3.2019e-01 -1.7109e-01 1.0000e-04 5.5505e-04 -2.7077e-06 1.0100e-01 9.6300e-02 -1.0859e-01 2.0190e-01 1.7468e-01 -1.1008e-01 3.0280e-01 2.0451e-01 -5.2165e-02 4.0370e-01 1.8502e-01 -1.5242e-02 5.0460e-01 1.3494e-01 -2.8728e-03 6.0549e-01 7.8739e-02 -3.3147e-04 7.0639e-01 3.4541e-02 -2.1060e-05 8.0729e-01 9.5839e-03 -5.0947e-07 9.0819e-01 9.4052e-04 -9.5884e-10
       200 1.2771e+03 5.1043e-280 3.9515e-01 -2.1738e-01 3.2013e-01 -1.6983e-01 1.0000e-04 5.5691e-04 -2.6780e-06 1.0100e-01 9.6318e-02 -1.0716e-01 2.0190e-01 1.7466e-01 -1.0960e-01 3.0280e-01 2.0444e-01 -5.2500e-02 4.0370e-01 1.8493e-01 -1.5539e-02 5.0460e-01 1.3486e-01 -2.9743e-03 6.0549e-01 7.8680e-02 -3.4985e-04 7.0639e-01 3.4510e-02 -2.2793e-05 8.0729e-01 9.5741e-03 -5.7158e-07 9.0819e-01 9.3935e-04 -1.1462e-09
       201 2.6075e+02 2.5318e-59 3.9349e-01 -2.1890e-01 3.1872e-01 -1.7094e-01 1.0000e-04 5.5699e-04 -2.8251e-06 1.0100e-01 9.5907e-02 -1.0760e-01 2.0190e-01 1.7387e-01 -1.1035e-01 3.0280e-01 2.0353e-01 -5.3201e-02 4.0370e-01 1.8411e-01 -1.5890e-02 5.0460e-01 1.3429e-01 -3.0781e-03 6.0549e-01 7.8368e-02 -3.6772e-04 7.0639e-01 3.4388e-02 -2.4464e-05 8.0729e-01 9.5460e-03 -6.3256e-07 9.0819e-01 9.3770e-04 -1.3401e-09
       202 1.7155e+00 4.4820e-03 3.9543e-01 -2.1868e-01 3.2033e-01 -1.7084e-01 1.0000e-04 5.5809e-04 -2.7294e-06 1.0100e-01 9.6379e-02 -1.0769e-01 2.0190e-01 1.7476e-01 -1.1028e-01 3.0280e-01 2.0457e-01 -5.2955e-02 4.0370e-01 1.8506e-01 -1.5725e-02 5.0460e-01 1.3497e-01 -3.0226e-03 6.0549e-01 7.8757e-02 -3.5747e-04 7.0639e-01 3.4552e-02 -2.3459e-05 8.0729e-01 9.5889e-03 -5.9457e-07 9.0819e-01 9.4139e-04 -1.2151e-09
       203 1.3724e+03 1.0091e-300 3.9286e-01 -2.1701e-01 3.1818e-01 -1.6997e-01 1.0000e-04 5.5711e-04 -2.6480e-06 1.0100e-01 9.5751e-02 -1.0656e-01 2.0190e-01 1.7357e-01 -1.1006e-01 3.0280e-01 2.0317e-01 -5.3328e-02 4.0370e-01 1.8380e-01 -1.5996e-02 5.0460e-01 1.3406e-01 -3.1111e-03 6.0549e-01 7.8247e-02 -3.7323e-04 7.0639e-01 3.4339e-02 -2.4948e-05 8.0729e-01 9.5349e-03 -6.4894e-07 9.0819e-01 9.3704e-04 -1.3879e-09
       204 7.7335e+02 1.2400e-170 3.9212e-01 -2.1858e-01 3.1748e-01 -1.7070e-01 1.0000e-04 5.6041e-04 -2.9010e-06 1.0100e-01 9.5606e-02 -1.0719e-01 2.0190e-01 1.7320e-01 -1.1026e-01 3.0280e-01 2.0266e-01 -5.3458e-02 4.0370e-01 1.8329e-01 -1.6088e-02 5.0460e-01 1.3367e-01 -3.1464e-03 6.0549e-01 7.8010e-02 -3.8058e-04 7.0639e-01 3.4233e-02 -2.5742e-05 8.0729e-01 9.5054e-03 -6.8186e-07 9.0819e-01 9.3425e-04 -1.5082e-09
       205 3.2392e+03 0.0000e+00 3.9503e-01 -2.1695e-01 3.1999e-01 -1.6930e-01 1.0000e-04 5.5841e-04 -2.7091e-06 1.0100e-01 9.6293e-02 -1.0705e-01 2.0190e-01 1.7458e-01 -1.0911e-01 3.0280e-01 2.0434e-01 -5.2090e-02 4.0370e-01 1.8483e-01 -1.5362e-02 5.0460e-01 1.3479e-01 -2.9284e-03 6.0549e-01 7.8646e-02 -3.4277e-04 7.0639e-01 3.4500e-02 -2.2193e-05 8.0729e-01 9.5735e-03 -5.5171e-07 9.0819e-01 9.3971e-04 -1.0897e-09
       206 2.5545e+02 3.5755e-58 3.9560e-01 -2.1863e-01 3.2070e-01 -1.7067e-01 1.0000e-04 5.5011e-04 -2.6414e-06 1.0100e-01 9.6368e-02 -1.0809e-01 2.0190e-01 1.7494e-01 -1.0998e-01 3.0280e-01 2.0491e-01 -5.2282e-02 4.0370e-01 1.8543e-01 -1.5324e-02 5.0460e-01 1.3526e-01 -2.8978e-03 6.0549e-01 7.8936e-02 -3.3563e-04 7.0639e-01 3.4627e-02 -2.1424e-05 8.0729e-01 9.6070e-03 -5.2165e-07 9.0819e-01 9.4247e-04 -9.9258e-10
       207 3.3968e+03 0.0000e+00 3.9448e-01 -2.1669e-01 3.1964e-01 -1.6919e-01 1.0000e-04 5.5366e-04 -2.6637e-06 1.0100e-01 9.6130e-02 -1.0695e-01 2.0190e-01 1.7438e-01 -1.0910e-01 3.0280e-01 2.0417e-01 -5.2088e-02 4.0370e-01 1.8471e-01 -1.5355e-02 5.0460e-01 1.3472e-01 -2.9248e-03 6.0549e-01 7.8611e-02 -3.4193e-04 7.0639e-01 3.4484e-02 -2.2098e-05 8.0729e-01 9.5682e-03 -5.4782e-07 9.0819e-01 9.3894e-04 -1.0764e-09
       208 5.9073e-01 7.8651e-03 3.9561e-01 -2.1822e-01 3.2050e-01 -1.7071e-01 1.0000e-04 5.5741e-04 -2.5295e-06 1.0100e-01 9.6421e-02 -1.0784e-01 2.0190e-01 1.7486e-01 -1.1024e-01 3.0280e-01 2.0469e-01 -5.2562e-02 4.0370e-01 1.8516e-01 -1.5442e-02 5.0460e-01 1.3504e-01 -2.9260e-03 6.0549e-01 7.8796e-02 -3.3955e-04 7.0639e-01 3.4566e-02 -2.1715e-05 8.0729e-01 9.5912e-03 -5.2985e-07 9.0819e-01 9.4133e-04 -1.0112e-09
       209 5.8736e+02 3.0159e-130 3.9555e-01 -2.1841e-01 3.2050e-01 -1.7037e-01 1.0000e-04 5.5574e-04 -2.6850e-06 1.0100e-01 9.6385e-02 -1.0799e-01 2.0190e-01 1.7484e-01 -1.0970e-01 3.0280e-01 2.0471e-01 -5.2109e-02 4.0370e-01 1.8522e-01 -1.5267e-02 5.0460e-01 1.3510e-01 -2.8866e-03 6.0549e-01 7.8843e-02 -3.3437e-04 7.0639e-01 3.4592e-02 -2.1351e-05 8.0729e-01 9.6008e-03 -5.2024e-07 9.0819e-01 9.4262e-04 -9.9150e-10
       210 1.8753e+02 2.0111e-43 3.9532e-01 -2.1755e-01 3.2039e-01 -1.7031e-01 1.0000e-04 5.5250e-04 -2.5211e-06 1.0100e-01 9.6317e-02 -1.0737e-01 2.0190e-01 1.7478e-01 -1.1010e-01 3.0280e-01 2.0468e-01 -5.2695e-02 4.0370e-01 1.8520e-01 -1.5552e-02 5.0460e-01 1.3509e-01 -2.9629e-03 6.0549e-01 7.8831e-02 -3.4617e-04 7.0639e-01 3.4583e-02 -2.2337e-05 8.0729e-01 9.5956e-03 -5.5200e-07 9.0819e-01 9.4160e-04 -1.0774e-09
       211 4.8749e+02 1.4669e-108 3.9491e-01 -2.1792e-01 3.1992e-01 -1.7038e-01 1.0000e-04 5.5699e-04 -2.6347e-06 1.0100e-01 9.6256e-02 -1.0744e-01 2.0190e-01 1.7454e-01 -1.1003e-01 3.0280e-01 2.0431e-01 -5.2729e-02 4.0370e-01 1.8482e-01 -1.5605e-02 5.0460e-01 1.3478e-01 -2.9856e-03 6.0549e-01 7.8642e-02 -3.5088e-04 7.0639e-01 3.4498e-02 -2.2828e-05 8.0729e-01 9.5721e-03 -5.7117e-07 9.0819e-01 9.3945e-04 -1.1404e-09
       212 8.4779e+02 8.4706e-187 3.9399e-01 -2.1840e-01 3.1926e-01 -1.7044e-01 1.0000e-04 5.5264e-04 -2.7730e-06 1.0100e-01 9.6014e-02 -1.0762e-01 2.0190e-01 1.7417e-01 -1.0988e-01 3.0280e-01 2.0393e-01 -5.2637e-02 4.0370e-01 1.8449e-01 -1.5593e-02 5.0460e-01 1.3455e-01 -2.9896e-03 6.0549e-01 7.8507e-02 -3.5254e-04 7.0639e-01 3.4436e-02 -2.3053e-05 8.0729e-01 9.5536e-03 -5.8142e-07 9.0819e-01 9.3729e-04 -1.1784e-09
       213 2.8947e+02 1.4683e-65 3.9192e-01 -2.1931e-01 3.1733e-01 -1.7105e-01 1.0000e-04 5.5941e-04 -3.0192e-06 1.0100e-01 9.5560e-02 -1.0749e-01 2.0190e-01 1.7313e-01 -1.1035e-01 3.0280e-01 2.0257e-01 -5.3504e-02 4.0370e-01 1.8320e-01 -1.6119e-02 5.0460e-01 1.3360e-01 -3.1590e-03 6.0549e-01 7.7958e-02 -3.8328e-04 7.0639e-01 3.4205e-02 -2.6043e-05 8.0729e-01 9.4955e-03 -6.9468e-07 9.0819e-01 9.3287e-04 -1.5568e-09
       214 5.8311e+01 2.3005e-15 3.9671e-01 -2.1865e-01 3.2162e-01 -1.7080e-01 1.0000e-04 5.5059e-04 -2.5906e-06 1.0100e-01 9.6629e-02 -1.0816e-01 2.0190e-01 1.7545e-01 -1.1011e-01 3.0280e-01 2.0552e-01 -5.2318e-02 4.0370e-01 1.8599e-01 -1.5316e-02 5.0460e-01 1.3568e-01 -2.8909e-03 6.0549e-01 7.9178e-02 -3.3397e-04 7.0639e-01 3.4734e-02 -2.1240e-05 8.0729e-01 9.6367e-03 -5.1433e-07 9.0819e-01 9.4535e-04 -9.6882e-10
       215 6.6117e+01 4.6445e-17 3.9748e-01 -2.1810e-01 3.2236e-01 -1.7067e-01 1.0000e-04 5.4727e-04 -2.4092e-06 1.0100e-01 9.6798e-02 -1.0813e-01 2.0190e-01 1.7585e-01 -1.1015e-01 3.0280e-01 2.0604e-01 -5.2127e-02 4.0370e-01 1.8648e-01 -1.5155e-02 5.0460e-01 1.3604e-01 -2.8327e-03 6.0549e-01 7.9380e-02 -3.2297e-04 7.0639e-01 3.4815e-02 -2.0170e-05 8.0729e-01 9.6550e-03 -4.7537e-07 9.0819e-01 9.4633e-04 -8.5253e-10
       216 1.8972e+03 0.0000e+00 3.9376e-01 -2.1744e-01 3.1914e-01 -1.6984e-01 1.0000e-04 5.4998e-04 -2.6667e-06 1.0100e-01 9.5932e-02 -1.0728e-01 2.0190e-01 1.7409e-01 -1.0955e-01 3.0280e-01 2.0389e-01 -5.2365e-02 4.0370e-01 1.8449e-01 -1.5456e-02 5.0460e-01 1.3458e-01 -2.9485e-03 6.0549e-01 7.8538e-02 -3.4534e-04 7.0639e-01 3.4456e-02 -2.2372e-05 8.0729e-01 9.5614e-03 -5.5646e-07 9.0819e-01 9.3839e-04 -1.0998e-09
       217 4.9390e+02 5.9692e-110 3.9149e-01 -2.1839e-01 3.1704e-01 -1.7067e-01 1.0000e-04 5.5634e-04 -2.8739e-06 1.0100e-01 9.5415e-02 -1.0702e-01 2.0190e-01 1.7295e-01 -1.1034e-01 3.0280e-01 2.0243e-01 -5.3612e-02 4.0370e-01 1.8313e-01 -1.6172e-02 5.0460e-01 1.3359e-01 -3.1714e-03 6.0549e-01 7.7978e-02 -3.8483e-04 7.0639e-01 3.4228e-02 -2.6137e-05 8.0729e-01 9.5064e-03 -6.9630e-07 9.0819e-01 9.3472e-04 -1.5556e-09
       218 3.4173e+02 6.5762e-77 3.9426e-01 -2.1851e-01 3.1939e-01 -1.7071e-01 1.0000e-04 5.5616e-04 -2.7220e-06 1.0100e-01 9.6088e-02 -1.0762e-01 2.0190e-01 1.7424e-01 -1.1019e-01 3.0280e-01 2.0397e-01 -5.2900e-02 4.0370e-01 1.8452e-01 -1.5703e-02 5.0460e-01 1.3458e-01 -3.0169e-03 6.0549e-01 7.8536e-02 -3.5658e-04 7.0639e-01 3.4457e-02 -2.3381e-05 8.0729e-01 9.5630e-03 -5.9186e-07 9.0819e-01 9.3894e-04 -1.2069e-09
       219 1.9647e+01 5.7245e-07 3.9643e-01 -2.1889e-01 3.2153e-01 -1.7093e-01 1.0000e-04 5.4527e-04 -2.5398e-06 1.0100e-01 9.6518e-02 -1.0851e-01 2.0190e-01 1.7538e-01 -1.1011e-01 3.0280e-01 2.0553e-01 -5.2032e-02 4.0370e-01 1.8605e-01 -1.5124e-02 5.0460e-01 1.3575e-01 -2.8291e-03 6.0549e-01 7.9236e-02 -3.2308e-04 7.0639e-01 3.4764e-02 -2.0235e-05 8.0729e-01 9.6456e-03 -4.7918e-07 9.0819e-01 9.4622e-04 -8.6744e-10
       220 1.4054e+01 9.3820e-06 3.9773e-01 -2.1895e-01 3.2257e-01 -1.7080e-01 1.0000e-04 5.4753e-04 -2.5295e-06 1.0100e-01 9.6856e-02 -1.0878e-01 2.0190e-01 1.7596e-01 -1.0983e-01 3.0280e-01 2.0618e-01 -5.1568e-02 4.0370e-01 1.8661e-01 -1.4872e-02 5.0460e-01 1.3614e-01 -2.7553e-03 6.0549e-01 7.9441e-02 -3.1091e-04 7.0639e-01 3.4843e-02 -1.9168e-05 8.0729e-01 9.6636e-03 -4.4377e-07 9.0819e-01 9.4729e-04 -7.7183e-10
       221 8.2752e+02 2.1346e-182 3.9445e-01 -2.1776e-01 3.1965e-01 -1.7012e-01 1.0000e-04 5.5257e-04 -2.5865e-06 1.0100e-01 9.6098e-02 -1.0766e-01 2.0190e-01 1.7437e-01 -1.0971e-01 3.0280e-01 2.0420e-01 -5.2189e-02 4.0370e-01 1.8477e-01 -1.5302e-02 5.0460e-01 1.3479e-01 -2.8939e-03 6.0549e-01 7.8674e-02 -3.3514e-04 7.0639e-01 3.4523e-02 -2.1384e-05 8.0729e-01 9.5829e-03 -5.2024e-07 9.0819e-01 9.4106e-04 -9.8812e-10
       222 8.1170e+02 5.8212e-179 3.9369e-01 -2.1854e-01 3.1899e-01 -1.7019e-01 1.0000e-04 5.5306e-04 -2.8199e-06 1.0100e-01 9.5926e-02 -1.0796e-01 2.0190e-01 1.7401e-01 -1.0943e-01 3.0280e-01 2.0375e-01 -5.2003e-02 4.0370e-01 1.8436e-01 -1.5267e-02 5.0460e-01 1.3448e-01 -2.8964e-03 6.0549e-01 7.8488e-02 -3.3718e-04 7.0639e-01 3.4440e-02 -2.1685e-05 8.0729e-01 9.5598e-03 -5.3420e-07 9.0819e-01 9.3882e-04 -1.0389e-09
       223 1.9513e+03 0.0000e+00 3.9318e-01 -2.1735e-01 3.1830e-01 -1.6987e-01 1.0000e-04 5.6292e-04 -2.7839e-06 1.0100e-01 9.5871e-02 -1.0673e-01 2.0190e-01 1.7365e-01 -1.0977e-01 3.0280e-01 2.0317e-01 -5.3087e-02 4.0370e-01 1.8375e-01 -1.5910e-02 5.0460e-01 1.3400e-01 -3.0942e-03 6.0549e-01 7.8197e-02 -3.7143e-04 7.0639e-01 3.4314e-02 -2.4865e-05 8.0729e-01 9.5278e-03 -6.4859e-07 9.0819e-01 9.3646e-04 -1.3953e-09
       224 1.4310e+02 8.9099e-34 3.9471e-01 -2.1828e-01 3.1978e-01 -1.7046e-01 1.0000e-04 5.5616e-04 -2.7011e-06 1.0100e-01 9.6194e-02 -1.0765e-01 2.0190e-01 1.7445e-01 -1.0995e-01 3.0280e-01 2.0423e-01 -5.2595e-02 4.0370e-01 1.8477e-01 -1.5543e-02 5.0460e-01 1.3476e-01 -2.9700e-03 6.0549e-01 7.8644e-02 -3.4862e-04 7.0639e-01 3.4505e-02 -2.2652e-05 8.0729e-01 9.5767e-03 -5.6590e-07 9.0819e-01 9.4032e-04 -1.1274e-09
       225 1.2309e+03 5.4139e-270 3.9436e-01 -2.1752e-01 3.1953e-01 -1.6988e-01 1.0000e-04 5.5439e-04 -2.6248e-06 1.0100e-01 9.6099e-02 -1.0748e-01 2.0190e-01 1.7431e-01 -1.0953e-01 3.0280e-01 2.0409e-01 -5.2163e-02 4.0370e-01 1.8465e-01 -1.5323e-02 5.0460e-01 1.3468e-01 -2.9051e-03 6.0549e-01 7.8598e-02 -3.3758e-04 7.0639e-01 3.4485e-02 -2.1639e-05 8.0729e-01 9.5709e-03 -5.3005e-07 9.0819e-01 9.3967e-04 -1.0193e-09
       226 1.0633e+03 1.3829e-233 3.9358e-01 -2.1799e-01 3.1887e-01 -1.7031e-01 1.0000e-04 5.5443e-04 -2.7560e-06 1.0100e-01 9.5910e-02 -1.0724e-01 2.0190e-01 1.7395e-01 -1.0996e-01 3.0280e-01 2.0365e-01 -5.2937e-02 4.0370e-01 1.8425e-01 -1.5773e-02 5.0460e-01 1.3440e-01 -3.0452e-03 6.0549e-01 7.8437e-02 -3.6219e-04 7.0639e-01 3.4418e-02 -2.3949e-05 8.0729e-01 9.5539e-03 -6.1370e-07 9.0819e-01 9.3833e-04 -1.2792e-09
       227 1.9268e+02 1.5270e-44 3.9573e-01 -2.1806e-01 3.2064e-01 -1.7039e-01 1.0000e-04 5.5619e-04 -2.6416e-06 1.0100e-01 9.6446e-02 -1.0760e-01 2.0190e-01 1.7493e-01 -1.0996e-01 3.0280e-01 2.0480e-01 -5.2560e-02 4.0370e-01 1.8527e-01 -1.5509e-02 5.0460e-01 1.3512e-01 -2.9567e-03 6.0549e-01 7.8837e-02 -3.4596e-04 7.0639e-01 3.4582e-02 -2.2380e-05 8.0729e-01 9.5945e-03 -5.5543e-07 9.0819e-01 9.4143e-04 -1.0932e-09
       228 7.0448e+02 1.1195e-155 3.9193e-01 -2.1951e-01 3.1744e-01 -1.7081e-01 1.0000e-04 5.5560e-04 -3.0689e-06 1.0100e-01 9.5529e-02 -1.0790e-01 2.0190e-01 1.7317e-01 -1.0988e-01 3.0280e-01 2.0270e-01 -5.2805e-02 4.0370e-01 1.8337e-01 -1.5748e-02 5.0460e-01 1.3374e-01 -3.0498e-03 6.0549e-01 7.8055e-02 -3.6467e-04 7.0639e-01 3.4253e-02 -2.4314e-05 8.0729e-01 9.5099e-03 -6.3141e-07 9.0819e-01 9.3440e-04 -1.3499e-09
       229 9.1339e+02 4.8188e-201 3.9389e-01 -2.1751e-01 3.1914e-01 -1.7004e-01 1.0000e-04 5.5402e-04 -2.6316e-06 1.0100e-01 9.5984e-02 -1.0724e-01 2.0190e-01 1.7410e-01 -1.0980e-01 3.0280e-01 2.0384e-01 -5.2607e-02 4.0370e-01 1.8442e-01 -1.5565e-02 5.0460e-01 1.3452e-01 -2.9769e-03 6.0549e-01 7.8503e-02 -3.4971e-04 7.0639e-01 3.4444e-02 -2.2740e-05 8.0729e-01 9.5600e-03 -5.6857e-07 9.0819e-01 9.3869e-04 -1.1338e-09
       230 2.1211e+02 9.2370e-49 3.9464e-01 -2.1854e-01 3.1967e-01 -1.7069e-01 1.0000e-04 5.5807e-04 -2.6979e-06 1.0100e-01 9.6201e-02 -1.0777e-01 2.0190e-01 1.7440e-01 -1.1012e-01 3.0280e-01 2.0413e-01 -5.2700e-02 4.0370e-01 1.8464e-01 -1.5581e-02 5.0460e-01 1.3465e-01 -2.9786e-03 6.0549e-01 7.8563e-02 -3.4981e-04 7.0639e-01 3.4463e-02 -2.2745e-05 8.0729e-01 9.5629e-03 -5.6876e-07 9.0819e-01 9.3865e-04 -1.1349e-09
       231 2.5908e+03 0.0000e+00 3.9266e-01 -2.1806e-01 3.1809e-01 -1.6999e-01 1.0000e-04 5.5435e-04 -2.9896e-06 1.0100e-01 9.5692e-02 -1.0700e-01 2.0190e-01 1.7352e-01 -1.0960e-01 3.0280e-01 2.0314e-01 -5.2970e-02 4.0370e-01 1.8378e-01 -1.5897e-02 5.0460e-01 1.3405e-01 -3.1006e-03 6.0549e-01 7.8235e-02 -3.7395e-04 7.0639e-01 3.4330e-02 -2.5210e-05 8.0729e-01 9.5301e-03 -6.6488e-07 9.0819e-01 9.3613e-04 -1.4604e-09
       232 9.3312e+02 2.5138e-205 3.9590e-01 -2.1761e-01 3.2078e-01 -1.7001e-01 1.0000e-04 5.5627e-04 -2.6123e-06 1.0100e-01 9.6495e-02 -1.0751e-01 2.0190e-01 1.7502e-01 -1.0965e-01 3.0280e-01 2.0489e-01 -5.2260e-02 4.0370e-01 1.8534e-01 -1.5362e-02 5.0460e-01 1.3515e-01 -2.9148e-03 6.0549e-01 7.8852e-02 -3.3900e-04 7.0639e-01 3.4583e-02 -2.1754e-05 8.0729e-01 9.5928e-03 -5.3365e-07 9.0819e-01 9.4091e-04 -1.0288e-09
       233 1.2798e+02 1.7111e-30 3.9455e-01 -2.1861e-01 3.1967e-01 -1.7078e-01 1.0000e-04 5.5518e-04 -2.6934e-06 1.0100e-01 9.6152e-02 -1.0778e-01 2.0190e-01 1.7439e-01 -1.1020e-01 3.0280e-01 2.0417e-01 -5.2772e-02 4.0370e-01 1.8471e-01 -1.5613e-02 5.0460e-01 1.3472e-01 -2.9872e-03 6.0549e-01 7.8617e-02 -3.5117e-04 7.0639e-01 3.4491e-02 -2.2861e-05 8.0729e-01 9.5720e-03 -5.7268e-07 9.0819e-01 9.3968e-04 -1.1462e-09
       234 2.6298e+01 2.0578e-08 3.9299e-01 -2.1909e-01 3.1811e-01 -1.7100e-01 1.0000e-04 5.6408e-04 -2.8613e-06 1.0100e-01 9.5838e-02 -1.0769e-01 2.0190e-01 1.7356e-01 -1.1032e-01 3.0280e-01 2.0303e-01 -5.3160e-02 4.0370e-01 1.8360e-01 -1.5873e-02 5.0460e-01 1.3389e-01 -3.0742e-03 6.0549e-01 7.8128e-02 -3.6725e-04 7.0639e-01 3.4283e-02 -2.4436e-05 8.0729e-01 9.5189e-03 -6.3206e-07 9.0819e-01 9.3558e-04 -1.3402e-09
       235 1.5437e+02 3.1887e-36 3.9624e-01 -2.1795e-01 3.2111e-01 -1.7029e-01 1.0000e-04 5.5465e-04 -2.5746e-06 1.0100e-01 9.6559e-02 -1.0778e-01 2.0190e-01 1.7519e-01 -1.0982e-01 3.0280e-01 2.0512e-01 -5.2218e-02 4.0370e-01 1.8557e-01 -1.5300e-02 5.0460e-01 1.3534e-01 -2.8906e-03 6.0549e-01 7.8964e-02 -3.3432e-04 7.0639e-01 3.4634e-02 -2.1293e-05 8.0729e-01 9.6072e-03 -5.1666e-07 9.0819e-01 9.4229e-04 -9.7666e-10
       236 1.0317e+03 1.0078e-226 3.9239e-01 -2.1801e-01 3.1779e-01 -1.7041e-01 1.0000e-04 5.5703e-04 -2.7448e-06 1.0100e-01 9.5653e-02 -1.0717e-01 2.0190e-01 1.7337e-01 -1.1011e-01 3.0280e-01 2.0291e-01 -5.3120e-02 4.0370e-01 1.8354e-01 -1.5866e-02 5.0460e-01 1.3385e-01 -3.0718e-03 6.0549e-01 7.8112e-02 -3.6661e-04 7.0639e-01 3.4273e-02 -2.4350e-05 8.0729e-01 9.5139e-03 -6.2792e-07 9.0819e-01 9.3453e-04 -1.3234e-09
       237 1.1557e+02 8.4625e-28 3.9567e-01 -2.1821e-01 3.2071e-01 -1.7065e-01 1.0000e-04 5.5169e-04 -2.5842e-06 1.0100e-01 9.6402e-02 -1.0771e-01 2.0190e-01 1.7496e-01 -1.1020e-01 3.0280e-01 2.0490e-01 -5.2680e-02 4.0370e-01 1.8540e-01 -1.5534e-02 5.0460e-01 1.3522e-01 -2.9578e-03 6.0549e-01 7.8903e-02 -3.4543e-04 7.0639e-01 3.4609e-02 -2.2283e-05 8.0729e-01 9.6008e-03 -5.5065e-07 9.0819e-01 9.4169e-04 -1.0751e-09
