         0 5.4349e+00 3.9159e-05 3.9483e-01 -2.1893e-01 3.0605e-01 -1.6269e-01
         1 3.7263e+00 9.2012e-05 3.9487e-01 -2.1882e-01 3.0607e-01 -1.6262e-01
         2 7.6360e-01 4.0475e-04 3.9501e-01 -2.1886e-01 3.0619e-01 -1.6262e-01
         3 1.2607e+01 1.0850e-06 3.9513e-01 -2.1894e-01 3.0629e-01 -1.6268e-01
         4 1.6496e+00 2.5988e-04 3.9494e-01 -2.1887e-01 3.0612e-01 -1.6264e-01
         5 1.7411e+00 2.4827e-04 3.9491e-01 -2.1879e-01 3.0611e-01 -1.6261e-01
         6 3.0935e-01 5.0795e-04 3.9504e-01 -2.1880e-01 3.0622e-01 -1.6262e-01
         7 3.0045e-02 5.8408e-04 3.9497e-01 -2.1878e-01 3.0617e-01 -1.6260e-01
         8 2.0237e+00 2.1555e-04 3.9509e-01 -2.1879e-01 3.0627e-01 -1.6264e-01
         9 6.9227e+00 1.8611e-05 3.9484e-01 -2.1876e-01 3.0605e-01 -1.6260e-01
        10 1.6967e+00 2.5384e-04 3.9505e-01 -2.1891e-01 3.0622e-01 -1.6268e-01
        11 7.9685e+00 1.1032e-05 3.9512e-01 -2.1895e-01 3.0629e-01 -1.6270e-01
        12 1.8166e+01 6.7354e-08 3.9474e-01 -2.1888e-01 3.0595e-01 -1.6266e-01
        13 1.2336e+00 3.1999e-04 3.9502e-01 -2.1890e-01 3.0619e-01 -1.6268e-01
        14 1.7438e+00 2.4794e-04 3.9502e-01 -2.1891e-01 3.0620e-01 -1.6267e-01
        15 1.9030e+01 4.3723e-08 3.9472e-01 -2.1890e-01 3.0594e-01 -1.6267e-01
        16 2.8660e+00 1.4147e-04 3.9489e-01 -2.1877e-01 3.0610e-01 -1.6262e-01
        17 1.0205e+00 3.5596e-04 3.9503e-01 -2.1891e-01 3.0620e-01 -1.6267e-01
        18 1.3737e+01 6.1678e-07 3.9517e-01 -2.1885e-01 3.0633e-01 -1.6262e-01
        19 3.9428e-01 4.8683e-04 3.9502e-01 -2.1888e-01 3.0618e-01 -1.6266e-01
        20 2.1487e+01 1.2801e-08 3.9473e-01 -2.1883e-01 3.0595e-01 -1.6262e-01
        21 2.1580e-02 5.8656e-04 3.9497e-01 -2.1892e-01 3.0615e-01 -1.6269e-01
        22 1.8406e+00 2.3622e-04 3.9491e-01 -2.1883e-01 3.0610e-01 -1.6265e-01
        23 1.1109e+01 2.2949e-06 3.9478e-01 -2.1892e-01 3.0600e-01 -1.6269e-01
        24 1.3869e+01 5.7719e-07 3.9517e-01 -2.1887e-01 3.0632e-01 -1.6265e-01
        25 2.0236e+01 2.3917e-08 3.9473e-01 -2.1881e-01 3.0596e-01 -1.6261e-01
        26 1.9668e+00 2.2178e-04 3.9493e-01 -2.1885e-01 3.0611e-01 -1.6265e-01
        27 3.1067e+01 1.0637e-10 3.9462e-01 -2.1899e-01 3.0586e-01 -1.6271e-01
        28 1.7683e+00 2.4491e-04 3.9503e-01 -2.1888e-01 3.0621e-01 -1.6268e-01
        29 2.5477e+01 1.7404e-09 3.9530e-01 -2.1872e-01 3.0645e-01 -1.6259e-01
        30 4.5381e+00 6.1315e-05 3.9487e-01 -2.1875e-01 3.0607e-01 -1.6261e-01
        31 6.2978e-01 4.3275e-04 3.9506e-01 -2.1873e-01 3.0623e-01 -1.6257e-01
        32 2.0694e+00 2.1069e-04 3.9488e-01 -2.1879e-01 3.0608e-01 -1.6260e-01
        33 1.0108e+01 3.7846e-06 3.9519e-01 -2.1882e-01 3.0634e-01 -1.6264e-01
        34 1.8320e-01 5.4102e-04 3.9494e-01 -2.1890e-01 3.0613e-01 -1.6267e-01
        35 1.2741e+01 1.0148e-06 3.9478e-01 -2.1870e-01 3.0599e-01 -1.6257e-01
        36 2.3829e+01 3.9686e-09 3.9525e-01 -2.1887e-01 3.0640e-01 -1.6267e-01
        37 1.4022e+00 2.9412e-04 3.9502e-01 -2.1889e-01 3.0620e-01 -1.6267e-01
        38 1.9168e+00 2.2739e-04 3.9507e-01 -2.1896e-01 3.0625e-01 -1.6269e-01
        39 3.2918e-01 5.0294e-04 3.9498e-01 -2.1888e-01 3.0618e-01 -1.6264e-01
        40 3.2920e+01 4.2123e-11 3.9467e-01 -2.1885e-01 3.0588e-01 -1.6266e-01
        41 9.7053e+00 4.6294e-06 3.9516e-01 -2.1882e-01 3.0631e-01 -1.6266e-01
        42 1.8645e+00 2.3341e-04 3.9490e-01 -2.1881e-01 3.0610e-01 -1.6266e-01
        43 3.7626e+00 9.0358e-05 3.9510e-01 -2.1892e-01 3.0626e-01 -1.6269e-01
        44 1.7317e+01 1.0294e-07 3.9476e-01 -2.1890e-01 3.0598e-01 -1.6267e-01
        45 2.8019e-01 5.1541e-04 3.9493e-01 -2.1895e-01 3.0612e-01 -1.6269e-01
        46 9.8503e-01 3.6233e-04 3.9491e-01 -2.1887e-01 3.0611e-01 -1.6266e-01
        47 6.2767e-01 4.3321e-04 3.9503e-01 -2.1883e-01 3.0620e-01 -1.6266e-01
        48 2.1831e+01 1.0774e-08 3.9472e-01 -2.1881e-01 3.0593e-01 -1.6261e-01
        49 3.1217e+00 1.2449e-04 3.9484e-01 -2.1893e-01 3.0606e-01 -1.6267e-01
        50 2.2580e+00 1.9173e-04 3.9504e-01 -2.1895e-01 3.0623e-01 -1.6270e-01
        51 5.3069e-01 4.5474e-04 3.9495e-01 -2.1890e-01 3.0615e-01 -1.6268e-01
        52 2.2773e+01 6.7273e-09 3.9469e-01 -2.1888e-01 3.0591e-01 -1.6266e-01
        53 3.1210e+00 1.2453e-04 3.9507e-01 -2.1893e-01 3.0625e-01 -1.6268e-01
        54 8.6215e-02 5.6790e-04 3.9498e-01 -2.1878e-01 3.0617e-01 -1.6262e-01
        55 1.7854e+01 7.8729e-08 3.9476e-01 -2.1878e-01 3.0597e-01 -1.6263e-01
        56 2.1490e+00 2.0247e-04 3.9510e-01 -2.1879e-01 3.0626e-01 -1.6260e-01
        57 4.3115e+00 6.8669e-05 3.9486e-01 -2.1889e-01 3.0607e-01 -1.6265e-01
        58 5.9558e+00 3.0180e-05 3.9485e-01 -2.1880e-01 3.0605e-01 -1.6262e-01
        59 6.6418e+00 2.1416e-05 3.9512e-01 -2.1888e-01 3.0628e-01 -1.6267e-01
        60 2.9634e+00 1.3474e-04 3.9488e-01 -2.1888e-01 3.0607e-01 -1.6264e-01
        61 5.6907e+00 3.4456e-05 3.9508e-01 -2.1891e-01 3.0625e-01 -1.6265e-01
        62 3.3755e+01 2.7750e-11 3.9458e-01 -2.1892e-01 3.0583e-01 -1.6269e-01
        63 3.3330e+01 3.4318e-11 3.9463e-01 -2.1889e-01 3.0588e-01 -1.6265e-01
        64 6.4042e+00 2.4118e-05 3.9487e-01 -2.1872e-01 3.0608e-01 -1.6258e-01
        65 1.1164e+01 2.2321e-06 3.9479e-01 -2.1881e-01 3.0601e-01 -1.6263e-01
        66 3.5237e+00 1.0182e-04 3.9510e-01 -2.1876e-01 3.0628e-01 -1.6259e-01
        67 1.0861e+01 2.5976e-06 3.9482e-01 -2.1876e-01 3.0603e-01 -1.6261e-01
        68 7.4140e+00 1.4557e-05 3.9484e-01 -2.1870e-01 3.0604e-01 -1.6253e-01
        69 9.5326e+00 5.0469e-06 3.9514e-01 -2.1882e-01 3.0630e-01 -1.6266e-01
        70 5.9992e-01 4.3926e-04 3.9492e-01 -2.1892e-01 3.0612e-01 -1.6265e-01
        71 6.0560e-02 5.7524e-04 3.9497e-01 -2.1888e-01 3.0616e-01 -1.6266e-01
        72 2.6266e+00 1.5946e-04 3.9509e-01 -2.1884e-01 3.0624e-01 -1.6265e-01
        73 7.3117e+00 1.5321e-05 3.9483e-01 -2.1880e-01 3.0604e-01 -1.6264e-01
        74 1.7510e-01 5.4322e-04 3.9500e-01 -2.1895e-01 3.0618e-01 -1.6270e-01
        75 5.8215e+00 3.2275e-05 3.9485e-01 -2.1886e-01 3.0606e-01 -1.6267e-01
        76 1.0339e+01 3.3721e-06 3.9480e-01 -2.1894e-01 3.0601e-01 -1.6267e-01
        77 1.0029e-02 5.8996e-04 3.9493e-01 -2.1892e-01 3.0613e-01 -1.6268e-01
        78 5.3919e+00 4.0010e-05 3.9482e-01 -2.1882e-01 3.0603e-01 -1.6263e-01
        79 1.1541e+00 3.3295e-04 3.9501e-01 -2.1896e-01 3.0619e-01 -1.6269e-01
        80 4.4102e-02 5.7999e-04 3.9494e-01 -2.1890e-01 3.0613e-01 -1.6268e-01
        81 6.9257e+01 5.4198e-19 3.9453e-01 -2.1874e-01 3.0578e-01 -1.6259e-01
        82 4.8597e+00 5.2207e-05 3.9509e-01 -2.1882e-01 3.0626e-01 -1.6260e-01
        83 2.9614e+00 1.3488e-04 3.9491e-01 -2.1884e-01 3.0610e-01 -1.6266e-01
        84 2.3412e+00 1.8391e-04 3.9490e-01 -2.1893e-01 3.0610e-01 -1.6269e-01
        85 1.6534e+00 2.5939e-04 3.9509e-01 -2.1870e-01 3.0626e-01 -1.6256e-01
        86 1.9206e+00 2.2695e-04 3.9486e-01 -2.1899e-01 3.0606e-01 -1.6270e-01
        87 1.1971e+00 3.2588e-04 3.9504e-01 -2.1879e-01 3.0623e-01 -1.6262e-01
        88 9.3627e+00 5.4942e-06 3.9479e-01 -2.1894e-01 3.0601e-01 -1.6269e-01
        89 8.8024e-01 3.8182e-04 3.9490e-01 -2.1892e-01 3.0610e-01 -1.6267e-01
        90 8.3388e+00 9.1674e-06 3.9481e-01 -2.1889e-01 3.0600e-01 -1.6267e-01
        91 1.0274e+01 3.4841e-06 3.9478e-01 -2.1889e-01 3.0600e-01 -1.6267e-01
        92 2.7758e+00 1.4799e-04 3.9486e-01 -2.1887e-01 3.0607e-01 -1.6266e-01
        93 1.4776e+01 3.6680e-07 3.9521e-01 -2.1871e-01 3.0636e-01 -1.6258e-01
        94 2.3028e+01 5.9243e-09 3.9467e-01 -2.1897e-01 3.0592e-01 -1.6270e-01
        95 6.3073e+01 1.1937e-17 3.9452e-01 -2.1898e-01 3.0577e-01 -1.6268e-01
        96 6.8595e-01 4.2077e-04 3.9493e-01 -2.1881e-01 3.0613e-01 -1.6264e-01
        97 4.1240e+00 7.5420e-05 3.9510e-01 -2.1882e-01 3.0625e-01 -1.6264e-01
        98 4.0113e+00 7.9789e-05 3.9509e-01 -2.1890e-01 3.0625e-01 -1.6263e-01
        99 6.2940e-01 4.3284e-04 3.9501e-01 -2.1887e-01 3.0620e-01 -1.6268e-01
       100 1.0811e+01 2.6631e-06 3.9479e-01 -2.1890e-01 3.0600e-01 -1.6266e-01
       101 1.2960e+00 3.1016e-04 3.9504e-01 -2.1884e-01 3.0621e-01 -1.6265e-01
       102 7.0681e+00 1.7305e-05 3.9483e-01 -2.1886e-01 3.0604e-01 -1.6266e-01
       103 4.3051e-01 4.7809e-04 3.9502e-01 -2.1886e-01 3.0621e-01 -1.6264e-01
       104 1.2811e+01 9.7996e-07 3.9516e-01 -2.1888e-01 3.0632e-01 -1.6267e-01
       105 5.3122e-01 4.5462e-04 3.9503e-01 -2.1882e-01 3.0621e-01 -1.6262e-01
       106 1.7856e+01 7.8643e-08 3.9474e-01 -2.1890e-01 3.0596e-01 -1.6265e-01
       107 8.2293e+00 9.6836e-06 3.9514e-01 -2.1890e-01 3.0630e-01 -1.6267e-01
       108 1.0099e+01 3.8027e-06 3.9517e-01 -2.1891e-01 3.0632e-01 -1.6267e-01
       109 2.4216e+00 1.7666e-04 3.9493e-01 -2.1868e-01 3.0612e-01 -1.6256e-01
       110 7.5623e-04 5.9270e-04 3.9496e-01 -2.1889e-01 3.0615e-01 -1.6264e-01
       111 9.3639e+00 5.4911e-06 3.9480e-01 -2.1892e-01 3.0600e-01 -1.6269e-01
       112 4.7809e+00 5.4305e-05 3.9486e-01 -2.1893e-01 3.0606e-01 -1.6264e-01
       113 4.3833e+00 6.6247e-05 3.9489e-01 -2.1878e-01 3.0609e-01 -1.6262e-01
       114 2.8823e-01 5.1335e-04 3.9499e-01 -2.1897e-01 3.0618e-01 -1.6268e-01
       115 3.6456e+01 7.1875e-12 3.9531e-01 -2.1886e-01 3.0644e-01 -1.6264e-01
       116 4.0512e+00 7.8214e-05 3.9488e-01 -2.1884e-01 3.0607e-01 -1.6264e-01
       117 1.4680e+00 2.8459e-04 3.9507e-01 -2.1887e-01 3.0624e-01 -1.6267e-01
       118 8.1394e-01 3.9469e-04 3.9503e-01 -2.1872e-01 3.0620e-01 -1.6254e-01
       119 1.5328e+00 2.7552e-04 3.9494e-01 -2.1877e-01 3.0613e-01 -1.6258e-01
       120 7.6159e+00 1.3159e-05 3.9514e-01 -2.1890e-01 3.0631e-01 -1.6266e-01
       121 5.4765e+00 3.8352e-05 3.9508e-01 -2.1892e-01 3.0626e-01 -1.6265e-01
       122 6.9755e+00 1.8125e-05 3.9482e-01 -2.1886e-01 3.0603e-01 -1.6263e-01
       123 1.1178e+00 3.3906e-04 3.9506e-01 -2.1874e-01 3.0623e-01 -1.6259e-01
       124 9.6793e-01 3.6544e-04 3.9507e-01 -2.1874e-01 3.0623e-01 -1.6258e-01
       125 2.7311e-02 5.8488e-04 3.9495e-01 -2.1894e-01 3.0613e-01 -1.6269e-01
       126 1.1376e-01 5.6014e-04 3.9492e-01 -2.1890e-01 3.0612e-01 -1.6265e-01
       127 4.9738e+00 4.9311e-05 3.9511e-01 -2.1893e-01 3.0626e-01 -1.6268e-01
       128 2.0985e+00 2.0764e-04 3.9507e-01 -2.1884e-01 3.0624e-01 -1.6265e-01
       129 3.1044e-03 5.9200e-04 3.9498e-01 -2.1891e-01 3.0616e-01 -1.6265e-01
       130 4.5775e+00 6.0117e-05 3.9487e-01 -2.1880e-01 3.0607e-01 -1.6263e-01
       131 3.4858e+00 1.0377e-04 3.9511e-01 -2.1887e-01 3.0627e-01 -1.6267e-01
       132 5.5831e-01 4.4850e-04 3.9504e-01 -2.1877e-01 3.0621e-01 -1.6261e-01
       133 1.6945e+00 2.5412e-04 3.9507e-01 -2.1881e-01 3.0623e-01 -1.6259e-01
       134 4.6960e+00 5.6660e-05 3.9509e-01 -2.1896e-01 3.0626e-01 -1.6270e-01
       135 5.7283e-01 4.4525e-04 3.9502e-01 -2.1881e-01 3.0620e-01 -1.6263e-01
       136 3.9781e+00 8.1127e-05 3.9489e-01 -2.1880e-01 3.0607e-01 -1.6264e-01
       137 1.1479e+01 1.9074e-06 3.9515e-01 -2.1886e-01 3.0632e-01 -1.6263e-01
       138 1.6796e+01 1.3362e-07 3.9473e-01 -2.1892e-01 3.0596e-01 -1.6266e-01
       139 1.9340e+01 3.7438e-08 3.9473e-01 -2.1878e-01 3.0595e-01 -1.6261e-01
       140 3.1841e-01 5.0566e-04 3.9492e-01 -2.1892e-01 3.0612e-01 -1.6269e-01
       141 2.5983e-01 5.2068e-04 3.9498e-01 -2.1887e-01 3.0616e-01 -1.6266e-01
       142 2.0163e+01 2.4806e-08 3.9470e-01 -2.1890e-01 3.0593e-01 -1.6263e-01
       143 7.9221e+00 1.1291e-05 3.9519e-01 -2.1879e-01 3.0633e-01 -1.6261e-01
       144 5.1362e+01 4.1672e-15 3.9539e-01 -2.1886e-01 3.0651e-01 -1.6263e-01
       145 6.0014e+00 2.9499e-05 3.9512e-01 -2.1881e-01 3.0628e-01 -1.6262e-01
       146 8.3440e-03 5.9045e-04 3.9495e-01 -2.1881e-01 3.0615e-01 -1.6263e-01
       147 7.8165e+00 1.1903e-05 3.9516e-01 -2.1882e-01 3.0631e-01 -1.6262e-01
       148 4.9135e-01 4.6377e-04 3.9499e-01 -2.1894e-01 3.0618e-01 -1.6269e-01
       149 8.5716e-03 5.9039e-04 3.9503e-01 -2.1878e-01 3.0621e-01 -1.6261e-01
       150 4.2733e+00 6.9995e-05 3.9484e-01 -2.1890e-01 3.0604e-01 -1.6267e-01
       151 1.4007e+01 5.3891e-07 3.9514e-01 -2.1891e-01 3.0631e-01 -1.6267e-01
       152 3.1894e+00 1.2034e-04 3.9486e-01 -2.1894e-01 3.0606e-01 -1.6267e-01
       153 9.5782e-02 5.6519e-04 3.9497e-01 -2.1895e-01 3.0616e-01 -1.6270e-01
       154 1.3067e+01 8.6186e-07 3.9518e-01 -2.1888e-01 3.0632e-01 -1.6266e-01
       155 5.4357e+00 3.9143e-05 3.9484e-01 -2.1883e-01 3.0605e-01 -1.6263e-01
       156 6.1361e-01 4.3627e-04 3.9490e-01 -2.1888e-01 3.0610e-01 -1.6265e-01
       157 3.1860e+00 1.2055e-04 3.9487e-01 -2.1891e-01 3.0609e-01 -1.6261e-01
       158 8.2810e+00 9.4363e-06 3.9513e-01 -2.1896e-01 3.0629e-01 -1.6270e-01
       159 2.7975e-01 5.1553e-04 3.9495e-01 -2.1883e-01 3.0613e-01 -1.6260e-01
       160 2.5144e-01 5.2288e-04 3.9502e-01 -2.1885e-01 3.0619e-01 -1.6267e-01
       161 2.2169e+01 9.1001e-09 3.9474e-01 -2.1891e-01 3.0595e-01 -1.6268e-01
       162 1.1790e+01 1.6324e-06 3.9477e-01 -2.1894e-01 3.0598e-01 -1.6269e-01
       163 2.8689e+00 1.4126e-04 3.9484e-01 -2.1887e-01 3.0605e-01 -1.6265e-01
       164 7.1208e+00 1.6855e-05 3.9483e-01 -2.1866e-01 3.0603e-01 -1.6251e-01
       165 9.8524e-01 3.6229e-04 3.9508e-01 -2.1881e-01 3.0624e-01 -1.6263e-01
       166 1.9680e+00 2.2164e-04 3.9505e-01 -2.1881e-01 3.0622e-01 -1.6262e-01
       167 1.6134e+01 1.8598e-07 3.9522e-01 -2.1888e-01 3.0638e-01 -1.6268e-01
       168 1.3182e+00 3.0673e-04 3.9506e-01 -2.1880e-01 3.0624e-01 -1.6263e-01
       169 2.7461e+00 1.5020e-04 3.9490e-01 -2.1888e-01 3.0610e-01 -1.6267e-01
       170 5.1388e+00 4.5408e-05 3.9509e-01 -2.1892e-01 3.0626e-01 -1.6265e-01
       171 6.2254e+00 2.6373e-05 3.9482e-01 -2.1889e-01 3.0603e-01 -1.6267e-01
       172 1.2966e+00 3.1005e-04 3.9488e-01 -2.1892e-01 3.0609e-01 -1.6267e-01
       173 1.6423e+01 1.6098e-07 3.9520e-01 -2.1890e-01 3.0635e-01 -1.6268e-01
       174 3.1377e+01 9.1096e-11 3.9530e-01 -2.1885e-01 3.0645e-01 -1.6265e-01
       175 4.4182e-01 4.7540e-04 3.9493e-01 -2.1890e-01 3.0612e-01 -1.6267e-01
       176 5.9601e+00 3.0115e-05 3.9484e-01 -2.1891e-01 3.0604e-01 -1.6268e-01
       177 9.3622e+00 5.4957e-06 3.9513e-01 -2.1885e-01 3.0630e-01 -1.6263e-01
       178 2.4074e-02 5.8583e-04 3.9500e-01 -2.1874e-01 3.0618e-01 -1.6260e-01
       179 2.4263e+01 3.1934e-09 3.9474e-01 -2.1875e-01 3.0596e-01 -1.6261e-01
       180 7.6137e+00 1.3174e-05 3.9483e-01 -2.1885e-01 3.0603e-01 -1.6264e-01
       181 1.1754e+00 3.2942e-04 3.9506e-01 -2.1888e-01 3.0623e-01 -1.6265e-01
       182 3.3180e-02 5.8317e-04 3.9493e-01 -2.1893e-01 3.0613e-01 -1.6268e-01
       183 5.3865e+01 1.1920e-15 3.9456e-01 -2.1878e-01 3.0581e-01 -1.6261e-01
       184 5.0596e+00 4.7240e-05 3.9508e-01 -2.1895e-01 3.0626e-01 -1.6270e-01
       185 4.4805e+01 1.1057e-13 3.9459e-01 -2.1888e-01 3.0583e-01 -1.6268e-01
       186 3.3525e+00 1.1092e-04 3.9508e-01 -2.1884e-01 3.0626e-01 -1.6259e-01
       187 3.2830e+00 1.1484e-04 3.9511e-01 -2.1880e-01 3.0626e-01 -1.6263e-01
       188 1.4025e+00 2.9407e-04 3.9493e-01 -2.1875e-01 3.0611e-01 -1.6256e-01
       189 8.3940e+00 8.9180e-06 3.9516e-01 -2.1875e-01 3.0633e-01 -1.6261e-01
       190 9.4861e-01 3.6899e-04 3.9504e-01 -2.1887e-01 3.0622e-01 -1.6261e-01
       191 5.5775e-01 4.4863e-04 3.9506e-01 -2.1880e-01 3.0622e-01 -1.6261e-01
       192 2.3169e+00 1.8616e-04 3.9486e-01 -2.1896e-01 3.0606e-01 -1.6267e-01
       193 3.0554e+00 1.2869e-04 3.9502e-01 -2.1896e-01 3.0620e-01 -1.6269e-01
       194 1.1372e-01 5.6015e-04 3.9505e-01 -2.1879e-01 3.0621e-01 -1.6264e-01
       195 6.2662e-01 4.3344e-04 3.9499e-01 -2.1896e-01 3.0617e-01 -1.6269e-01
       196 2.0701e+00 2.1061e-04 3.9490e-01 -2.1886e-01 3.0609e-01 -1.6265e-01
       197 7.7630e+00 1.2226e-05 3.9483e-01 -2.1885e-01 3.0604e-01 -1.6265e-01
       198 3.0904e+00 1.2645e-04 3.9513e-01 -2.1883e-01 3.0629e-01 -1.6264e-01
       199 6.4675e+01 5.3589e-18 3.9546e-01 -2.1880e-01 3.0657e-01 -1.6263e-01
       200 7.4841e-01 4.0783e-04 3.9490e-01 -2.1891e-01 3.0610e-01 -1.6268e-01
       201 5.6057e+00 3.5953e-05 3.9484e-01 -2.1885e-01 3.0603e-01 -1.6267e-01
       202 1.8653e-02 5.8742e-04 3.9499e-01 -2.1891e-01 3.0617e-01 -1.6265e-01
       203 1.0403e+00 3.5246e-04 3.9491e-01 -2.1885e-01 3.0611e-01 -1.6264e-01
       204 5.7178e-01 4.4549e-04 3.9501e-01 -2.1882e-01 3.0620e-01 -1.6261e-01
       205 3.8303e-01 4.8958e-04 3.9496e-01 -2.1885e-01 3.0615e-01 -1.6263e-01
       206 1.0759e-01 5.6187e-04 3.9495e-01 -2.1884e-01 3.0613e-01 -1.6265e-01
       207 1.0016e+00 3.5934e-04 3.9495e-01 -2.1871e-01 3.0614e-01 -1.6260e-01
       208 1.5556e+00 2.7239e-04 3.9491e-01 -2.1894e-01 3.0612e-01 -1.6267e-01
       209 7.6449e-01 4.0457e-04 3.9492e-01 -2.1886e-01 3.0612e-01 -1.6261e-01
       210 7.9610e-01 3.9822e-04 3.9493e-01 -2.1881e-01 3.0612e-01 -1.6263e-01
       211 1.4569e+01 4.0684e-07 3.9521e-01 -2.1874e-01 3.0636e-01 -1.6259e-01
       212 5.0454e-01 4.6072e-04 3.9504e-01 -2.1891e-01 3.0621e-01 -1.6268e-01
       213 1.2957e+00 3.1019e-04 3.9494e-01 -2.1874e-01 3.0612e-01 -1.6258e-01
       214 2.3372e-01 5.2753e-04 3.9493e-01 -2.1892e-01 3.0612e-01 -1.6267e-01
       215 5.7220e-01 4.4539e-04 3.9499e-01 -2.1890e-01 3.0619e-01 -1.6266e-01
       216 2.9939e-03 5.9203e-04 3.9499e-01 -2.1893e-01 3.0618e-01 -1.6268e-01
       217 4.7891e-01 4.6666e-04 3.9498e-01 -2.1893e-01 3.0617e-01 -1.6270e-01
       218 1.5483e+01 2.5757e-07 3.9518e-01 -2.1880e-01 3.0634e-01 -1.6265e-01
       219 3.1551e+00 1.2243e-04 3.9487e-01 -2.1882e-01 3.0606e-01 -1.6261e-01
       220 3.0060e-01 5.1018e-04 3.9506e-01 -2.1872e-01 3.0623e-01 -1.6258e-01
       221 4.5183e+01 9.1561e-14 3.9537e-01 -2.1888e-01 3.0651e-01 -1.6267e-01
       222 6.8270e+00 1.9522e-05 3.9515e-01 -2.1889e-01 3.0629e-01 -1.6268e-01
       223 8.2960e-01 3.9161e-04 3.9500e-01 -2.1887e-01 3.0618e-01 -1.6264e-01
       224 3.9419e-01 4.8686e-04 3.9499e-01 -2.1860e-01 3.0617e-01 -1.6249e-01
       225 1.4212e+00 2.9133e-04 3.9493e-01 -2.1882e-01 3.0613e-01 -1.6265e-01
       226 2.7137e+01 7.5919e-10 3.9521e-01 -2.1891e-01 3.0638e-01 -1.6267e-01
       227 2.5408e+00 1.6644e-04 3.9493e-01 -2.1884e-01 3.0611e-01 -1.6262e-01
       228 8.1793e+00 9.9285e-06 3.9478e-01 -2.1895e-01 3.0600e-01 -1.6269e-01
       229 6.8831e+01 6.7056e-19 3.9453e-01 -2.1884e-01 3.0576e-01 -1.6265e-01
       230 1.2734e+00 3.1367e-04 3.9489e-01 -2.1873e-01 3.0609e-01 -1.6259e-01
       231 1.4048e+00 2.9373e-04 3.9505e-01 -2.1888e-01 3.0624e-01 -1.6266e-01
       232 1.9501e+01 3.4541e-08 3.9521e-01 -2.1891e-01 3.0636e-01 -1.6265e-01
       233 7.9176e+00 1.1317e-05 3.9516e-01 -2.1884e-01 3.0631e-01 -1.6265e-01
       234 3.6224e+00 9.6917e-05 3.9488e-01 -2.1878e-01 3.0607e-01 -1.6260e-01
       235 1.0791e+00 3.4568e-04 3.9500e-01 -2.1886e-01 3.0619e-01 -1.6266e-01
       236 6.2704e-01 4.3335e-04 3.9503e-01 -2.1880e-01 3.0619e-01 -1.6264e-01
       237 3.0543e+00 1.2876e-04 3.9485e-01 -2.1891e-01 3.0608e-01 -1.6268e-01
       238 8.7631e+00 7.4151e-06 3.9515e-01 -2.1881e-01 3.0632e-01 -1.6263e-01
       239 2.2401e-01 5.3010e-04 3.9497e-01 -2.1884e-01 3.0615e-01 -1.6265e-01
       240 5.7762e+00 3.3015e-05 3.9483e-01 -2.1887e-01 3.0605e-01 -1.6267e-01
       241 8.6286e+01 1.0870e-22 3.9547e-01 -2.1885e-01 3.0658e-01 -1.6262e-01
       242 4.0495e+00 7.8282e-05 3.9511e-01 -2.1888e-01 3.0627e-01 -1.6266e-01
       243 9.4745e-01 3.6920e-04 3.9497e-01 -2.1869e-01 3.0616e-01 -1.6258e-01
       244 1.3171e+00 3.0689e-04 3.9496e-01 -2.1874e-01 3.0614e-01 -1.6252e-01
       245 4.1308e-03 5.9170e-04 3.9502e-01 -2.1875e-01 3.0618e-01 -1.6259e-01
       246 3.8291e-01 4.8961e-04 3.9497e-01 -2.1879e-01 3.0617e-01 -1.6258e-01
       247 4.5408e+01 8.1803e-14 3.9533e-01 -2.1898e-01 3.0647e-01 -1.6270e-01
       248 2.1564e+01 1.2316e-08 3.9522e-01 -2.1899e-01 3.0637e-01 -1.6269e-01
       249 4.3110e+00 6.8688e-05 3.9509e-01 -2.1888e-01 3.0625e-01 -1.6265e-01
       250 3.9429e+00 8.2569e-05 3.9487e-01 -2.1893e-01 3.0607e-01 -1.6267e-01
       251 3.9783e+00 8.1119e-05 3.9486e-01 -2.1881e-01 3.0605e-01 -1.6262e-01
       252 9.6797e-01 3.6543e-04 3.9494e-01 -2.1884e-01 3.0612e-01 -1.6264e-01
       253 3.6010e+01 8.9844e-12 3.9528e-01 -2.1900e-01 3.0643e-01 -1.6271e-01
       254 4.5773e+00 6.0124e-05 3.9508e-01 -2.1890e-01 3.0624e-01 -1.6264e-01
       255 1.1554e+00 3.3275e-04 3.9504e-01 -2.1886e-01 3.0622e-01 -1.6264e-01
       256 1.1951e+00 3.2619e-04 3.9503e-01 -2.1889e-01 3.0622e-01 -1.6266e-01
       257 5.9562e+00 3.0173e-05 3.9485e-01 -2.1885e-01 3.0605e-01 -1.6261e-01
       258 2.1574e+01 1.2256e-08 3.9526e-01 -2.1882e-01 3.0640e-01 -1.6262e-01
       259 8.1786e+00 9.9318e-06 3.9517e-01 -2.1882e-01 3.0631e-01 -1.6266e-01
       260 4.7830e-01 4.6680e-04 3.9503e-01 -2.1891e-01 3.0620e-01 -1.6267e-01
       261 1.3993e-01 5.5285e-04 3.9498e-01 -2.1888e-01 3.0617e-01 -1.6267e-01
       262 7.1677e-01 4.1433e-04 3.9499e-01 -2.1898e-01 3.0618e-01 -1.6271e-01
       263 8.7621e+00 7.4186e-06 3.9513e-01 -2.1884e-01 3.0629e-01 -1.6263e-01
       264 1.0098e+01 3.8046e-06 3.9482e-01 -2.1880e-01 3.0603e-01 -1.6264e-01
       265 7.5596e+00 1.3535e-05 3.9487e-01 -2.1880e-01 3.0607e-01 -1.6260e-01
       266 1.3335e+01 7.5391e-07 3.9475e-01 -2.1893e-01 3.0598e-01 -1.6267e-01
       267 1.3678e+01 6.3520e-07 3.9522e-01 -2.1873e-01 3.0637e-01 -1.6257e-01
       268 1.2338e+00 3.1996e-04 3.9489e-01 -2.1892e-01 3.0610e-01 -1.6269e-01
       269 2.0951e-03 5.9230e-04 3.9496e-01 -2.1885e-01 3.0615e-01 -1.6261e-01
       270 8.7666e+00 7.4020e-06 3.9516e-01 -2.1875e-01 3.0632e-01 -1.6261e-01
       271 3.9564e-01 4.8650e-04 3.9501e-01 -2.1874e-01 3.0620e-01 -1.6255e-01
       272 4.3112e+00 6.8681e-05 3.9485e-01 -2.1887e-01 3.0605e-01 -1.6265e-01
       273 1.5546e+01 2.4965e-07 3.9471e-01 -2.1886e-01 3.0595e-01 -1.6264e-01
       274 5.1694e-01 4.5787e-04 3.9503e-01 -2.1878e-01 3.0620e-01 -1.6257e-01
       275 3.4854e+00 1.0379e-04 3.9489e-01 -2.1876e-01 3.0608e-01 -1.6259e-01
       276 1.6436e+01 1.5997e-07 3.9520e-01 -2.1877e-01 3.0637e-01 -1.6261e-01
       277 4.6383e+01 5.0251e-14 3.9460e-01 -2.1883e-01 3.0585e-01 -1.6265e-01
       278 3.5531e+00 1.0033e-04 3.9508e-01 -2.1883e-01 3.0624e-01 -1.6265e-01
       279 1.1993e-02 5.8938e-04 3.9498e-01 -2.1882e-01 3.0617e-01 -1.6264e-01
       280 5.3735e-03 5.9133e-04 3.9499e-01 -2.1881e-01 3.0617e-01 -1.6262e-01
       281 7.7194e+00 1.2495e-05 3.9514e-01 -2.1892e-01 3.0631e-01 -1.6269e-01
       282 1.5257e+01 2.8845e-07 3.9517e-01 -2.1901e-01 3.0633e-01 -1.6271e-01
       283 2.6998e-01 5.1805e-04 3.9500e-01 -2.1884e-01 3.0618e-01 -1.6264e-01
       284 7.9903e-02 5.6970e-04 3.9504e-01 -2.1881e-01 3.0620e-01 -1.6265e-01
       285 9.2534e+00 5.8029e-06 3.9482e-01 -2.1885e-01 3.0602e-01 -1.6263e-01
       286 2.3434e+00 1.8371e-04 3.9506e-01 -2.1883e-01 3.0623e-01 -1.6264e-01
       287 1.5406e+01 2.6767e-07 3.9475e-01 -2.1876e-01 3.0596e-01 -1.6259e-01
       288 1.0924e+01 2.5166e-06 3.9480e-01 -2.1884e-01 3.0602e-01 -1.6265e-01
       289 7.9528e-01 3.9839e-04 3.9502e-01 -2.1899e-01 3.0619e-01 -1.6271e-01
       290 1.2936e+01 9.2029e-07 3.9478e-01 -2.1887e-01 3.0600e-01 -1.6266e-01
       291 3.8719e+00 8.5549e-05 3.9511e-01 -2.1876e-01 3.0628e-01 -1.6259e-01
       292 5.4367e+00 3.9123e-05 3.9511e-01 -2.1889e-01 3.0628e-01 -1.6267e-01
       293 1.1291e+01 2.0945e-06 3.9481e-01 -2.1871e-01 3.0602e-01 -1.6251e-01
       294 3.8107e+01 3.1483e-12 3.9534e-01 -2.1897e-01 3.0647e-01 -1.6269e-01
       295 9.3181e-01 3.7210e-04 3.9505e-01 -2.1888e-01 3.0622e-01 -1.6266e-01
       296 7.4637e+00 1.4199e-05 3.9511e-01 -2.1879e-01 3.0627e-01 -1.6260e-01
       297 8.0226e+00 1.0738e-05 3.9515e-01 -2.1880e-01 3.0631e-01 -1.6260e-01
       298 5.6019e-02 5.7654e-04 3.9496e-01 -2.1886e-01 3.0615e-01 -1.6263e-01
       299 1.0396e+00 3.5258e-04 3.9503e-01 -2.1886e-01 3.0620e-01 -1.6263e-01
       300 4.8170e+00 5.3332e-05 3.9509e-01 -2.1887e-01 3.0626e-01 -1.6265e-01
       301 2.9980e-03 5.9203e-04 3.9502e-01 -2.1879e-01 3.0619e-01 -1.6263e-01
       302 2.3391e+00 1.8411e-04 3.9487e-01 -2.1892e-01 3.0609e-01 -1.6267e-01
       303 9.3652e+00 5.4873e-06 3.9518e-01 -2.1877e-01 3.0633e-01 -1.6260e-01
       304 1.5620e+01 2.4051e-07 3.9477e-01 -2.1885e-01 3.0598e-01 -1.6265e-01
       305 6.5503e+00 2.2420e-05 3.9482e-01 -2.1887e-01 3.0602e-01 -1.6265e-01
       306 4.7755e+00 5.4451e-05 3.9487e-01 -2.1883e-01 3.0606e-01 -1.6265e-01
       307 1.4078e-02 5.8876e-04 3.9502e-01 -2.1887e-01 3.0619e-01 -1.6265e-01
       308 2.3387e+01 4.9486e-09 3.9470e-01 -2.1892e-01 3.0593e-01 -1.6266e-01
       309 3.9072e+00 8.4053e-05 3.9485e-01 -2.1881e-01 3.0605e-01 -1.6261e-01
       310 4.2392e+00 7.1196e-05 3.9510e-01 -2.1872e-01 3.0626e-01 -1.6261e-01
       311 1.6971e+00 2.5379e-04 3.9509e-01 -2.1871e-01 3.0625e-01 -1.6254e-01
       312 3.8990e+00 8.4399e-05 3.9492e-01 -2.1866e-01 3.0611e-01 -1.6259e-01
       313 2.2279e+00 1.9463e-04 3.9494e-01 -2.1870e-01 3.0613e-01 -1.6258e-01
       314 4.1945e+00 7.2806e-05 3.9484e-01 -2.1881e-01 3.0606e-01 -1.6262e-01
       315 6.0884e-02 5.7514e-04 3.9496e-01 -2.1897e-01 3.0617e-01 -1.6270e-01
       316 1.2165e+01 1.3537e-06 3.9520e-01 -2.1879e-01 3.0634e-01 -1.6257e-01
       317 4.2661e-04 5.9279e-04 3.9497e-01 -2.1890e-01 3.0616e-01 -1.6267e-01
       318 4.6973e+00 5.6623e-05 3.9485e-01 -2.1887e-01 3.0605e-01 -1.6267e-01
       319 7.4912e-01 4.0769e-04 3.9492e-01 -2.1891e-01 3.0611e-01 -1.6267e-01
       320 2.2060e+00 1.9677e-04 3.9507e-01 -2.1874e-01 3.0623e-01 -1.6259e-01
       321 5.6112e-04 5.9275e-04 3.9492e-01 -2.1897e-01 3.0612e-01 -1.6271e-01
       322 2.5955e-01 5.2076e-04 3.9497e-01 -2.1879e-01 3.0616e-01 -1.6264e-01
       323 2.6254e+00 1.5955e-04 3.9490e-01 -2.1877e-01 3.0611e-01 -1.6259e-01
       324 3.6915e+00 9.3628e-05 3.9488e-01 -2.1880e-01 3.0608e-01 -1.6259e-01
       325 2.1909e+01 1.0363e-08 3.9470e-01 -2.1896e-01 3.0592e-01 -1.6270e-01
       326 5.7053e-01 4.4577e-04 3.9502e-01 -2.1865e-01 3.0619e-01 -1.6252e-01
       327 7.4170e+00 1.4535e-05 3.9477e-01 -2.1890e-01 3.0599e-01 -1.6264e-01
       328 4.7676e-02 5.7895e-04 3.9496e-01 -2.1891e-01 3.0615e-01 -1.6269e-01
       329 3.3533e+00 1.1087e-04 3.9510e-01 -2.1884e-01 3.0627e-01 -1.6266e-01
       330 1.3400e+01 7.2967e-07 3.9517e-01 -2.1894e-01 3.0633e-01 -1.6267e-01
       331 5.0206e+00 4.8171e-05 3.9508e-01 -2.1890e-01 3.0625e-01 -1.6268e-01
       332 3.5893e+00 9.8535e-05 3.9512e-01 -2.1880e-01 3.0628e-01 -1.6260e-01
       333 1.0038e+00 3.5894e-04 3.9496e-01 -2.1874e-01 3.0615e-01 -1.6253e-01
       334 2.7781e+00 1.4782e-04 3.9491e-01 -2.1884e-01 3.0609e-01 -1.6264e-01
       335 1.2548e+00 3.1661e-04 3.9504e-01 -2.1883e-01 3.0621e-01 -1.6264e-01
       336 2.1797e-02 5.8649e-04 3.9493e-01 -2.1890e-01 3.0611e-01 -1.6265e-01
       337 2.4295e-02 5.8576e-04 3.9494e-01 -2.1895e-01 3.0612e-01 -1.6268e-01
       338 1.2163e+01 1.3545e-06 3.9479e-01 -2.1885e-01 3.0600e-01 -1.6266e-01
       339 1.0051e+00 3.5870e-04 3.9506e-01 -2.1878e-01 3.0623e-01 -1.6260e-01
       340 1.5693e+01 2.3192e-07 3.9474e-01 -2.1887e-01 3.0596e-01 -1.6267e-01
       341 1.7559e-01 5.4309e-04 3.9493e-01 -2.1890e-01 3.0612e-01 -1.6267e-01
       342 7.5618e+00 1.3520e-05 3.9482e-01 -2.1885e-01 3.0604e-01 -1.6262e-01
       343 3.1925e-01 5.0544e-04 3.9493e-01 -2.1893e-01 3.0613e-01 -1.6267e-01
       344 9.4147e+00 5.3532e-06 3.9483e-01 -2.1874e-01 3.0604e-01 -1.6256e-01
       345 8.7988e+01 4.6410e-23 3.9441e-01 -2.1891e-01 3.0569e-01 -1.6265e-01
       346 2.9648e+00 1.3465e-04 3.9490e-01 -2.1880e-01 3.0609e-01 -1.6258e-01
       347 8.0739e+00 1.0466e-05 3.9514e-01 -2.1884e-01 3.0631e-01 -1.6265e-01
       348 1.6137e+01 1.8572e-07 3.9520e-01 -2.1879e-01 3.0636e-01 -1.6263e-01
       349 5.2662e+00 4.2604e-05 3.9506e-01 -2.1892e-01 3.0624e-01 -1.6267e-01
       350 4.3721e+01 1.9019e-13 3.9537e-01 -2.1875e-01 3.0649e-01 -1.6257e-01
       351 2.4533e+01 2.7914e-09 3.9471e-01 -2.1875e-01 3.0594e-01 -1.6260e-01
       352 2.3122e+01 5.6521e-09 3.9521e-01 -2.1895e-01 3.0638e-01 -1.6269e-01
       353 9.8095e+00 4.3942e-06 3.9482e-01 -2.1882e-01 3.0603e-01 -1.6264e-01
       354 9.5352e+00 5.0403e-06 3.9516e-01 -2.1871e-01 3.0630e-01 -1.6259e-01
       355 1.6933e+00 2.5428e-04 3.9494e-01 -2.1872e-01 3.0614e-01 -1.6259e-01
       356 1.1539e+01 1.8507e-06 3.9513e-01 -2.1884e-01 3.0629e-01 -1.6264e-01
       357 7.5685e+00 1.3474e-05 3.9519e-01 -2.1861e-01 3.0634e-01 -1.6249e-01
       358 7.0263e-01 4.1728e-04 3.9496e-01 -2.1884e-01 3.0613e-01 -1.6263e-01
       359 2.9994e-02 5.8410e-04 3.9500e-01 -2.1882e-01 3.0617e-01 -1.6265e-01
       360 3.5367e+01 1.2391e-11 3.9530e-01 -2.1887e-01 3.0645e-01 -1.6266e-01
       361 2.6882e+00 1.5462e-04 3.9505e-01 -2.1890e-01 3.0624e-01 -1.6268e-01
       362 8.4821e-02 5.6830e-04 3.9499e-01 -2.1881e-01 3.0618e-01 -1.6266e-01
       363 7.4390e+01 4.1636e-20 3.9548e-01 -2.1885e-01 3.0659e-01 -1.6265e-01
       364 1.1568e+00 3.3251e-04 3.9486e-01 -2.1900e-01 3.0606e-01 -1.6271e-01
       365 1.4211e+01 4.8660e-07 3.9474e-01 -2.1891e-01 3.0597e-01 -1.6267e-01
       366 2.9875e-01 5.1065e-04 3.9496e-01 -2.1882e-01 3.0614e-01 -1.6263e-01
       367 5.4582e-01 4.5131e-04 3.9503e-01 -2.1870e-01 3.0621e-01 -1.6256e-01
       368 2.0792e-01 5.3438e-04 3.9504e-01 -2.1876e-01 3.0622e-01 -1.6259e-01
       369 3.4159e+00 1.0746e-04 3.9485e-01 -2.1892e-01 3.0607e-01 -1.6266e-01
       370 8.3850e+00 8.9579e-06 3.9516e-01 -2.1883e-01 3.0632e-01 -1.6259e-01
       371 3.3201e+00 1.1273e-04 3.9510e-01 -2.1880e-01 3.0627e-01 -1.6261e-01
       372 2.1746e+01 1.1244e-08 3.9470e-01 -2.1897e-01 3.0592e-01 -1.6269e-01
       373 1.4679e+00 2.8461e-04 3.9505e-01 -2.1880e-01 3.0624e-01 -1.6259e-01
       374 3.3515e+00 1.1098e-04 3.9510e-01 -2.1878e-01 3.0627e-01 -1.6257e-01
       375 2.1404e+01 1.3342e-08 3.9526e-01 -2.1879e-01 3.0641e-01 -1.6256e-01
       376 2.8838e-01 5.1331e-04 3.9497e-01 -2.1894e-01 3.0615e-01 -1.6269e-01
       377 6.5028e-02 5.7395e-04 3.9496e-01 -2.1887e-01 3.0614e-01 -1.6263e-01
       378 2.0561e+01 2.0338e-08 3.9472e-01 -2.1890e-01 3.0595e-01 -1.6266e-01
       379 5.3055e+00 4.1776e-05 3.9511e-01 -2.1890e-01 3.0627e-01 -1.6267e-01
       380 8.3881e+00 8.9441e-06 3.9480e-01 -2.1894e-01 3.0601e-01 -1.6269e-01
       381 9.3252e-01 3.7197e-04 3.9504e-01 -2.1883e-01 3.0622e-01 -1.6263e-01
       382 2.1242e+00 2.0499e-04 3.9503e-01 -2.1892e-01 3.0622e-01 -1.6267e-01
       383 5.6728e+01 2.8487e-16 3.9454e-01 -2.1895e-01 3.0579e-01 -1.6268e-01
       384 5.3069e+00 4.1746e-05 3.9508e-01 -2.1897e-01 3.0625e-01 -1.6270e-01
       385 6.3605e+00 2.4651e-05 3.9484e-01 -2.1879e-01 3.0605e-01 -1.6262e-01
       386 1.0865e+01 2.5923e-06 3.9482e-01 -2.1875e-01 3.0603e-01 -1.6258e-01
       387 3.9028e+00 8.4238e-05 3.9487e-01 -2.1880e-01 3.0607e-01 -1.6263e-01
       388 9.9863e+00 4.0225e-06 3.9476e-01 -2.1892e-01 3.0598e-01 -1.6267e-01
       389 7.8240e+00 1.1859e-05 3.9515e-01 -2.1886e-01 3.0632e-01 -1.6267e-01
       390 1.1608e+01 1.7879e-06 3.9520e-01 -2.1879e-01 3.0636e-01 -1.6262e-01
       391 2.2855e+01 6.4579e-09 3.9524e-01 -2.1877e-01 3.0639e-01 -1.6253e-01
       392 4.1633e+00 7.3951e-05 3.9513e-01 -2.1878e-01 3.0629e-01 -1.6261e-01
       393 1.1114e+01 2.2886e-06 3.9474e-01 -2.1892e-01 3.0596e-01 -1.6266e-01
       394 2.2483e-01 5.2988e-04 3.9501e-01 -2.1888e-01 3.0619e-01 -1.6267e-01
       395 1.1967e+01 1.4939e-06 3.9477e-01 -2.1882e-01 3.0600e-01 -1.6266e-01
       396 7.0735e+00 1.7259e-05 3.9512e-01 -2.1879e-01 3.0629e-01 -1.6260e-01
       397 4.0067e-02 5.8116e-04 3.9498e-01 -2.1876e-01 3.0616e-01 -1.6259e-01
       398 2.9351e+01 2.5085e-10 3.9522e-01 -2.1896e-01 3.0637e-01 -1.6270e-01
       399 1.0809e+01 2.6658e-06 3.9521e-01 -2.1879e-01 3.0635e-01 -1.6261e-01
       400 1.7775e+01 8.1870e-08 3.9477e-01 -2.1874e-01 3.0598e-01 -1.6256e-01
       401 1.4457e+00 2.8779e-04 3.9508e-01 -2.1877e-01 3.0625e-01 -1.6259e-01
       402 1.6986e+00 2.5360e-04 3.9506e-01 -2.1889e-01 3.0624e-01 -1.6268e-01
       403 3.5908e+00 9.8463e-05 3.9488e-01 -2.1892e-01 3.0607e-01 -1.6268e-01
       404 2.6973e-02 5.8498e-04 3.9504e-01 -2.1873e-01 3.0620e-01 -1.6255e-01
       405 2.9272e+01 2.6101e-10 3.9530e-01 -2.1875e-01 3.0643e-01 -1.6260e-01
       406 4.3852e-02 5.8006e-04 3.9498e-01 -2.1887e-01 3.0616e-01 -1.6265e-01
       407 3.4853e+00 1.0379e-04 3.9507e-01 -2.1881e-01 3.0624e-01 -1.6261e-01
       408 2.0488e+01 2.1086e-08 3.9525e-01 -2.1879e-01 3.0639e-01 -1.6262e-01
       409 5.3104e+00 4.1673e-05 3.9510e-01 -2.1873e-01 3.0627e-01 -1.6258e-01
       410 6.6415e+00 2.1419e-05 3.9511e-01 -2.1888e-01 3.0627e-01 -1.6266e-01
       411 4.2345e+00 7.1366e-05 3.9487e-01 -2.1885e-01 3.0608e-01 -1.6265e-01
       412 1.1045e+01 2.3688e-06 3.9477e-01 -2.1873e-01 3.0600e-01 -1.6253e-01
       413 1.1295e+01 2.0903e-06 3.9480e-01 -2.1887e-01 3.0600e-01 -1.6266e-01
       414 8.1732e+00 9.9588e-06 3.9483e-01 -2.1879e-01 3.0604e-01 -1.6264e-01
       415 4.3028e-01 4.7815e-04 3.9501e-01 -2.1883e-01 3.0619e-01 -1.6263e-01
       416 4.3781e-02 5.8008e-04 3.9498e-01 -2.1889e-01 3.0616e-01 -1.6266e-01
       417 2.0700e-01 5.3462e-04 3.9496e-01 -2.1882e-01 3.0615e-01 -1.6263e-01
       418 2.8479e+01 3.8806e-10 3.9466e-01 -2.1887e-01 3.0589e-01 -1.6266e-01
       419 2.1515e+00 2.0221e-04 3.9508e-01 -2.1882e-01 3.0625e-01 -1.6261e-01
       420 8.6195e-01 3.8532e-04 3.9492e-01 -2.1885e-01 3.0611e-01 -1.6266e-01
       421 1.2016e-01 5.5835e-04 3.9501e-01 -2.1877e-01 3.0618e-01 -1.6264e-01
       422 2.1573e+01 1.2257e-08 3.9524e-01 -2.1891e-01 3.0639e-01 -1.6265e-01
       423 1.1974e+01 1.4886e-06 3.9516e-01 -2.1891e-01 3.0632e-01 -1.6268e-01
       424 5.6060e+00 3.5948e-05 3.9484e-01 -2.1884e-01 3.0605e-01 -1.6260e-01
       425 4.7690e-02 5.7895e-04 3.9499e-01 -2.1882e-01 3.0617e-01 -1.6260e-01
       426 1.1351e+00 3.3613e-04 3.9493e-01 -2.1886e-01 3.0612e-01 -1.6264e-01
       427 1.7242e+01 1.0690e-07 3.9475e-01 -2.1886e-01 3.0597e-01 -1.6266e-01
       428 1.9922e+00 2.1897e-04 3.9489e-01 -2.1886e-01 3.0608e-01 -1.6266e-01
       429 7.3346e-01 4.1089e-04 3.9491e-01 -2.1896e-01 3.0610e-01 -1.6269e-01
       430 4.8570e+00 5.2277e-05 3.9511e-01 -2.1887e-01 3.0627e-01 -1.6265e-01
       431 2.4274e+01 3.1773e-09 3.9472e-01 -2.1877e-01 3.0593e-01 -1.6262e-01
       432 1.0397e+00 3.5256e-04 3.9506e-01 -2.1889e-01 3.0623e-01 -1.6267e-01
       433 1.1849e+01 1.5849e-06 3.9514e-01 -2.1892e-01 3.0631e-01 -1.6267e-01
       434 3.3968e+01 2.4940e-11 3.9467e-01 -2.1865e-01 3.0589e-01 -1.6250e-01
       435 4.4672e+00 6.3528e-05 3.9508e-01 -2.1886e-01 3.0625e-01 -1.6267e-01
       436 5.8599e-01 4.4234e-04 3.9506e-01 -2.1887e-01 3.0623e-01 -1.6267e-01
       437 5.2239e+00 4.3515e-05 3.9512e-01 -2.1889e-01 3.0627e-01 -1.6267e-01
       438 5.1875e+00 4.4314e-05 3.9511e-01 -2.1876e-01 3.0627e-01 -1.6263e-01
       439 8.8040e-01 3.8179e-04 3.9505e-01 -2.1878e-01 3.0622e-01 -1.6261e-01
       440 2.4519e+00 1.7401e-04 3.9489e-01 -2.1888e-01 3.0610e-01 -1.6267e-01
       441 6.7369e+00 2.0422e-05 3.9510e-01 -2.1889e-01 3.0628e-01 -1.6266e-01
       442 7.1662e-01 4.1437e-04 3.9501e-01 -2.1871e-01 3.0618e-01 -1.6258e-01
       443 8.2787e-01 3.9195e-04 3.9494e-01 -2.1867e-01 3.0614e-01 -1.6253e-01
       444 1.8179e+00 2.3892e-04 3.9509e-01 -2.1873e-01 3.0625e-01 -1.6257e-01
       445 6.8299e+00 1.9494e-05 3.9485e-01 -2.1879e-01 3.0604e-01 -1.6262e-01
       446 2.4627e+01 2.6631e-09 3.9475e-01 -2.1878e-01 3.0596e-01 -1.6261e-01
       447 1.7546e+01 9.1836e-08 3.9522e-01 -2.1891e-01 3.0636e-01 -1.6268e-01
       448 3.3861e+00 1.0907e-04 3.9510e-01 -2.1886e-01 3.0627e-01 -1.6266e-01
       449 3.6238e-01 4.9466e-04 3.9495e-01 -2.1890e-01 3.0613e-01 -1.6264e-01
       450 2.5383e+00 1.6665e-04 3.9507e-01 -2.1883e-01 3.0624e-01 -1.6260e-01
       451 2.7493e+00 1.4997e-04 3.9486e-01 -2.1887e-01 3.0607e-01 -1.6260e-01
       452 1.2812e+01 9.7903e-07 3.9514e-01 -2.1884e-01 3.0630e-01 -1.6265e-01
       453 6.4915e-02 5.7399e-04 3.9497e-01 -2.1878e-01 3.0616e-01 -1.6262e-01
       454 3.9027e+00 8.4242e-05 3.9505e-01 -2.1899e-01 3.0623e-01 -1.6268e-01
       455 4.1843e-01 4.8099e-04 3.9504e-01 -2.1894e-01 3.0621e-01 -1.6270e-01
       456 9.5731e-02 5.6521e-04 3.9499e-01 -2.1881e-01 3.0617e-01 -1.6262e-01
       457 1.2031e-02 5.8937e-04 3.9496e-01 -2.1890e-01 3.0614e-01 -1.6269e-01
       458 1.7934e+01 7.5609e-08 3.9474e-01 -2.1886e-01 3.0595e-01 -1.6264e-01
       459 3.1553e+00 1.2241e-04 3.9507e-01 -2.1880e-01 3.0624e-01 -1.6261e-01
       460 1.8911e+00 2.3033e-04 3.9508e-01 -2.1886e-01 3.0625e-01 -1.6263e-01
       461 2.9632e+00 1.3475e-04 3.9511e-01 -2.1880e-01 3.0626e-01 -1.6264e-01
       462 2.8286e+01 4.2744e-10 3.9470e-01 -2.1878e-01 3.0592e-01 -1.6261e-01
       463 3.0237e+00 1.3074e-04 3.9507e-01 -2.1886e-01 3.0623e-01 -1.6266e-01
       464 2.6865e+00 1.5475e-04 3.9503e-01 -2.1889e-01 3.0620e-01 -1.6267e-01
       465 5.6076e+00 3.5919e-05 3.9512e-01 -2.1883e-01 3.0628e-01 -1.6263e-01
       466 2.8906e-01 5.1313e-04 3.9493e-01 -2.1889e-01 3.0612e-01 -1.6265e-01
       467 1.8312e-01 5.4104e-04 3.9495e-01 -2.1886e-01 3.0614e-01 -1.6267e-01
       468 3.0824e-01 5.0823e-04 3.9503e-01 -2.1882e-01 3.0619e-01 -1.6264e-01
       469 7.4633e+00 1.4203e-05 3.9487e-01 -2.1876e-01 3.0606e-01 -1.6257e-01
       470 7.3181e-01 4.1123e-04 3.9493e-01 -2.1880e-01 3.0613e-01 -1.6261e-01
       471 6.7847e+00 1.9939e-05 3.9514e-01 -2.1882e-01 3.0629e-01 -1.6266e-01
       472 2.4501e-02 5.8570e-04 3.9500e-01 -2.1882e-01 3.0618e-01 -1.6266e-01
       473 4.8153e+00 5.3378e-05 3.9511e-01 -2.1888e-01 3.0627e-01 -1.6267e-01
       474 1.5559e+00 2.7236e-04 3.9491e-01 -2.1872e-01 3.0610e-01 -1.6257e-01
       475 2.0188e+00 2.1609e-04 3.9501e-01 -2.1889e-01 3.0620e-01 -1.6266e-01
       476 2.3469e+01 4.7516e-09 3.9470e-01 -2.1883e-01 3.0593e-01 -1.6263e-01
       477 1.0097e+01 3.8067e-06 3.9480e-01 -2.1888e-01 3.0602e-01 -1.6268e-01
       478 1.4073e-01 5.5263e-04 3.9497e-01 -2.1885e-01 3.0617e-01 -1.6266e-01
       479 5.1841e-02 5.7775e-04 3.9497e-01 -2.1893e-01 3.0615e-01 -1.6265e-01
       480 8.5976e+00 8.0549e-06 3.9514e-01 -2.1882e-01 3.0629e-01 -1.6264e-01
       481 1.9670e+00 2.2175e-04 3.9489e-01 -2.1885e-01 3.0608e-01 -1.6266e-01
       482 2.6013e+01 1.3315e-09 3.9526e-01 -2.1877e-01 3.0640e-01 -1.6261e-01
       483 4.1098e+01 7.0570e-13 3.9458e-01 -2.1889e-01 3.0583e-01 -1.6266e-01
       484 1.4640e+00 2.8516e-04 3.9495e-01 -2.1867e-01 3.0615e-01 -1.6256e-01
       485 9.8115e+00 4.3900e-06 3.9476e-01 -2.1892e-01 3.0599e-01 -1.6267e-01
       486 2.4534e+00 1.7388e-04 3.9489e-01 -2.1885e-01 3.0609e-01 -1.6263e-01
       487 9.3019e-01 3.7240e-04 3.9493e-01 -2.1874e-01 3.0614e-01 -1.6257e-01
       488 1.1342e+00 3.3628e-04 3.9500e-01 -2.1898e-01 3.0619e-01 -1.6271e-01
       489 1.5317e-01 5.4921e-04 3.9500e-01 -2.1888e-01 3.0618e-01 -1.6265e-01
       490 1.9884e-01 5.3681e-04 3.9496e-01 -2.1898e-01 3.0616e-01 -1.6270e-01
       491 8.6293e-01 3.8514e-04 3.9494e-01 -2.1885e-01 3.0613e-01 -1.6265e-01
       492 8.3938e+00 8.9189e-06 3.9518e-01 -2.1878e-01 3.0634e-01 -1.6262e-01
       493 1.0465e-01 5.6269e-04 3.9504e-01 -2.1865e-01 3.0622e-01 -1.6256e-01
       494 1.2802e+01 9.8410e-07 3.9514e-01 -2.1899e-01 3.0629e-01 -1.6271e-01
       495 3.3170e+00 1.1291e-04 3.9483e-01 -2.1895e-01 3.0605e-01 -1.6270e-01
       496 1.8085e+01 7.0136e-08 3.9523e-01 -2.1879e-01 3.0638e-01 -1.6257e-01
       497 5.2236e+00 4.3523e-05 3.9482e-01 -2.1897e-01 3.0604e-01 -1.6270e-01
       498 2.3116e+00 1.8666e-04 3.9489e-01 -2.1877e-01 3.0609e-01 -1.6258e-01
       499 1.1738e+00 3.2970e-04 3.9502e-01 -2.1887e-01 3.0619e-01 -1.6267e-01
       500 3.6131e-01 4.9492e-04 3.9503e-01 -2.1886e-01 3.0620e-01 -1.6267e-01
       501 2.5992e+00 1.6165e-04 3.9490e-01 -2.1879e-01 3.0610e-01 -1.6257e-01
       502 2.2318e+00 1.9425e-04 3.9486e-01 -2.1902e-01 3.0607e-01 -1.6272e-01
       503 4.0881e+00 7.6787e-05 3.9486e-01 -2.1885e-01 3.0606e-01 -1.6261e-01
       504 3.2191e+01 6.0642e-11 3.9462e-01 -2.1893e-01 3.0585e-01 -1.6269e-01
       505 3.1979e+01 6.7442e-11 3.9470e-01 -2.1870e-01 3.0592e-01 -1.6255e-01
       506 2.8774e+01 3.3485e-10 3.9468e-01 -2.1892e-01 3.0590e-01 -1.6268e-01
       507 4.6587e+00 5.7726e-05 3.9509e-01 -2.1888e-01 3.0626e-01 -1.6267e-01
       508 6.2267e+00 2.6356e-05 3.9511e-01 -2.1886e-01 3.0628e-01 -1.6263e-01
       509 8.0236e+00 1.0732e-05 3.9480e-01 -2.1884e-01 3.0601e-01 -1.6263e-01
       510 4.6596e+00 5.7701e-05 3.9510e-01 -2.1885e-01 3.0627e-01 -1.6265e-01
       511 2.4814e+00 1.7146e-04 3.9511e-01 -2.1877e-01 3.0627e-01 -1.6257e-01
       512 7.4095e+00 1.4590e-05 3.9484e-01 -2.1878e-01 3.0606e-01 -1.6261e-01
       513 1.3870e+01 5.7697e-07 3.9519e-01 -2.1899e-01 3.0634e-01 -1.6270e-01
       514 2.4222e-01 5.2529e-04 3.9500e-01 -2.1885e-01 3.0619e-01 -1.6263e-01
       515 1.5625e+01 2.3987e-07 3.9471e-01 -2.1896e-01 3.0594e-01 -1.6270e-01
       516 5.8459e-01 4.4264e-04 3.9493e-01 -2.1888e-01 3.0612e-01 -1.6268e-01
       517 5.9942e-01 4.3937e-04 3.9507e-01 -2.1882e-01 3.0623e-01 -1.6261e-01
       518 8.4666e-01 3.8828e-04 3.9506e-01 -2.1879e-01 3.0623e-01 -1.6262e-01
       519 1.4451e+00 2.8787e-04 3.9502e-01 -2.1891e-01 3.0620e-01 -1.6268e-01
       520 2.4276e+01 3.1730e-09 3.9526e-01 -2.1888e-01 3.0641e-01 -1.6268e-01
       521 1.9191e+01 4.0342e-08 3.9472e-01 -2.1890e-01 3.0593e-01 -1.6266e-01
       522 2.5377e+00 1.6670e-04 3.9489e-01 -2.1886e-01 3.0609e-01 -1.6266e-01
       523 2.4815e+00 1.7146e-04 3.9504e-01 -2.1890e-01 3.0621e-01 -1.6266e-01
       524 3.6612e-02 5.8217e-04 3.9499e-01 -2.1876e-01 3.0616e-01 -1.6260e-01
       525 2.3955e+00 1.7899e-04 3.9488e-01 -2.1889e-01 3.0609e-01 -1.6265e-01
       526 6.9859e-03 5.9085e-04 3.9499e-01 -2.1884e-01 3.0618e-01 -1.6264e-01
       527 1.0758e-01 5.6187e-04 3.9499e-01 -2.1888e-01 3.0617e-01 -1.6268e-01
       528 1.0764e+00 3.4615e-04 3.9493e-01 -2.1876e-01 3.0612e-01 -1.6257e-01
       529 3.0595e+00 1.2842e-04 3.9488e-01 -2.1885e-01 3.0607e-01 -1.6263e-01
       530 4.8982e+00 5.1212e-05 3.9487e-01 -2.1882e-01 3.0606e-01 -1.6262e-01
       531 3.2095e+01 6.3633e-11 3.9527e-01 -2.1883e-01 3.0642e-01 -1.6266e-01
       532 4.2363e+00 7.1302e-05 3.9508e-01 -2.1892e-01 3.0625e-01 -1.6268e-01
       533 1.3940e+01 5.5717e-07 3.9517e-01 -2.1893e-01 3.0633e-01 -1.6267e-01
       534 3.9450e+00 8.2480e-05 3.9484e-01 -2.1887e-01 3.0603e-01 -1.6265e-01
       535 2.0484e+01 2.1131e-08 3.9522e-01 -2.1890e-01 3.0638e-01 -1.6268e-01
       536 7.1795e-01 4.1409e-04 3.9504e-01 -2.1882e-01 3.0622e-01 -1.6263e-01
       537 5.6499e+00 3.5168e-05 3.9511e-01 -2.1888e-01 3.0627e-01 -1.6268e-01
       538 7.1130e+00 1.6921e-05 3.9507e-01 -2.1899e-01 3.0624e-01 -1.6271e-01
       539 4.2728e+00 7.0011e-05 3.9514e-01 -2.1872e-01 3.0629e-01 -1.6255e-01
       540 1.6963e+00 2.5390e-04 3.9493e-01 -2.1887e-01 3.0611e-01 -1.6267e-01
       541 4.3142e-03 5.9164e-04 3.9500e-01 -2.1884e-01 3.0616e-01 -1.6262e-01
       542 3.6532e-02 5.8219e-04 3.9499e-01 -2.1883e-01 3.0617e-01 -1.6265e-01
       543 2.2292e+00 1.9451e-04 3.9488e-01 -2.1890e-01 3.0609e-01 -1.6265e-01
       544 2.4809e+01 2.4310e-09 3.9522e-01 -2.1898e-01 3.0637e-01 -1.6270e-01
       545 1.0272e+01 3.4878e-06 3.9475e-01 -2.1883e-01 3.0597e-01 -1.6265e-01
       546 5.0359e-01 4.6094e-04 3.9496e-01 -2.1885e-01 3.0616e-01 -1.6263e-01
       547 3.2510e+00 1.1669e-04 3.9506e-01 -2.1892e-01 3.0624e-01 -1.6267e-01
       548 2.7863e-01 5.1581e-04 3.9496e-01 -2.1878e-01 3.0615e-01 -1.6261e-01
       549 3.2188e+01 6.0724e-11 3.9465e-01 -2.1887e-01 3.0587e-01 -1.6266e-01
       550 1.2871e+01 9.5081e-07 3.9478e-01 -2.1881e-01 3.0600e-01 -1.6262e-01
       551 1.8383e-01 5.4085e-04 3.9492e-01 -2.1889e-01 3.0612e-01 -1.6262e-01
       552 9.6674e-01 3.6566e-04 3.9489e-01 -2.1896e-01 3.0611e-01 -1.6270e-01
       553 9.3118e-01 3.7221e-04 3.9504e-01 -2.1886e-01 3.0621e-01 -1.6266e-01
       554 1.3463e+01 7.0707e-07 3.9479e-01 -2.1875e-01 3.0601e-01 -1.6259e-01
       555 1.7928e+00 2.4193e-04 3.9504e-01 -2.1883e-01 3.0622e-01 -1.6263e-01
       556 9.6441e+00 4.7732e-06 3.9479e-01 -2.1887e-01 3.0600e-01 -1.6267e-01
       557 1.8884e+00 2.3065e-04 3.9490e-01 -2.1879e-01 3.0610e-01 -1.6261e-01
       558 4.0781e-01 4.8355e-04 3.9509e-01 -2.1865e-01 3.0624e-01 -1.6254e-01
       559 4.0501e+00 7.8257e-05 3.9485e-01 -2.1898e-01 3.0606e-01 -1.6271e-01
       560 2.6887e-01 5.1834e-04 3.9493e-01 -2.1880e-01 3.0613e-01 -1.6264e-01
       561 1.2551e+01 1.1158e-06 3.9515e-01 -2.1886e-01 3.0633e-01 -1.6265e-01
       562 1.0059e+00 3.5856e-04 3.9505e-01 -2.1880e-01 3.0623e-01 -1.6263e-01
       563 2.3388e+01 4.9461e-09 3.9528e-01 -2.1878e-01 3.0642e-01 -1.6261e-01
       564 8.1399e-01 3.9468e-04 3.9504e-01 -2.1877e-01 3.0622e-01 -1.6259e-01
       565 1.1558e+00 3.3267e-04 3.9505e-01 -2.1885e-01 3.0622e-01 -1.6265e-01
       566 6.7342e-03 5.9093e-04 3.9502e-01 -2.1885e-01 3.0619e-01 -1.6264e-01
       567 2.4254e+00 1.7633e-04 3.9508e-01 -2.1886e-01 3.0625e-01 -1.6265e-01
       568 1.2538e+00 3.1676e-04 3.9489e-01 -2.1890e-01 3.0610e-01 -1.6268e-01
       569 6.0339e-02 5.7530e-04 3.9499e-01 -2.1889e-01 3.0616e-01 -1.6266e-01
       570 2.2309e+00 1.9434e-04 3.9507e-01 -2.1883e-01 3.0624e-01 -1.6260e-01
       571 9.5811e+00 4.9259e-06 3.9483e-01 -2.1861e-01 3.0604e-01 -1.6246e-01
       572 3.2536e+00 1.1654e-04 3.9511e-01 -2.1877e-01 3.0627e-01 -1.6262e-01
       573 2.4162e-01 5.2545e-04 3.9496e-01 -2.1887e-01 3.0614e-01 -1.6268e-01
       574 2.0208e+00 2.1587e-04 3.9508e-01 -2.1871e-01 3.0625e-01 -1.6255e-01
       575 1.9265e+01 3.8868e-08 3.9523e-01 -2.1888e-01 3.0637e-01 -1.6266e-01
       576 7.2158e+00 1.6073e-05 3.9487e-01 -2.1875e-01 3.0606e-01 -1.6260e-01
       577 7.6847e-01 4.0376e-04 3.9508e-01 -2.1864e-01 3.0625e-01 -1.6254e-01
       578 1.2952e+00 3.1028e-04 3.9494e-01 -2.1887e-01 3.0613e-01 -1.6266e-01
       579 2.8680e+01 3.5091e-10 3.9467e-01 -2.1900e-01 3.0590e-01 -1.6271e-01
       580 1.1357e+01 2.0275e-06 3.9516e-01 -2.1885e-01 3.0632e-01 -1.6264e-01
       581 6.5551e+00 2.2366e-05 3.9515e-01 -2.1874e-01 3.0632e-01 -1.6257e-01
       582 5.5233e+00 3.7466e-05 3.9484e-01 -2.1889e-01 3.0604e-01 -1.6264e-01
       583 5.8529e-01 4.4249e-04 3.9492e-01 -2.1885e-01 3.0611e-01 -1.6264e-01
       584 2.5360e+01 1.8456e-09 3.9464e-01 -2.1892e-01 3.0588e-01 -1.6268e-01
       585 1.4247e+00 2.9083e-04 3.9489e-01 -2.1895e-01 3.0609e-01 -1.6270e-01
       586 3.5534e+00 1.0032e-04 3.9488e-01 -2.1884e-01 3.0608e-01 -1.6264e-01
       587 1.2042e+01 1.4394e-06 3.9482e-01 -2.1887e-01 3.0602e-01 -1.6265e-01
       588 1.3675e+01 6.3609e-07 3.9477e-01 -2.1887e-01 3.0598e-01 -1.6263e-01
       589 1.9135e+00 2.2776e-04 3.9493e-01 -2.1873e-01 3.0613e-01 -1.6256e-01
       590 2.5100e+00 1.6903e-04 3.9506e-01 -2.1890e-01 3.0623e-01 -1.6268e-01
       591 1.1952e-01 5.5853e-04 3.9498e-01 -2.1878e-01 3.0616e-01 -1.6260e-01
       592 8.1295e-01 3.9488e-04 3.9503e-01 -2.1892e-01 3.0621e-01 -1.6267e-01
       593 5.5227e+00 3.7477e-05 3.9515e-01 -2.1868e-01 3.0630e-01 -1.6254e-01
       594 1.5062e+01 3.1797e-07 3.9523e-01 -2.1885e-01 3.0638e-01 -1.6266e-01
       595 2.7192e-02 5.8491e-04 3.9498e-01 -2.1880e-01 3.0617e-01 -1.6264e-01
       596 2.7779e+00 1.4784e-04 3.9510e-01 -2.1879e-01 3.0626e-01 -1.6260e-01
       597 3.1531e+00 1.2255e-04 3.9486e-01 -2.1889e-01 3.0606e-01 -1.6267e-01
       598 1.8188e+00 2.3881e-04 3.9507e-01 -2.1884e-01 3.0625e-01 -1.6264e-01
       599 5.1396e+00 4.5388e-05 3.9486e-01 -2.1886e-01 3.0606e-01 -1.6267e-01
       600 1.7447e+00 2.4783e-04 3.9490e-01 -2.1880e-01 3.0610e-01 -1.6259e-01
       601 8.4380e+00 8.7239e-06 3.9513e-01 -2.1899e-01 3.0629e-01 -1.6271e-01
       602 6.9306e+00 1.8537e-05 3.9511e-01 -2.1884e-01 3.0630e-01 -1.6264e-01
       603 9.5891e+00 4.9062e-06 3.9518e-01 -2.1888e-01 3.0634e-01 -1.6266e-01
       604 1.9133e+00 2.2779e-04 3.9490e-01 -2.1877e-01 3.0611e-01 -1.6260e-01
       605 1.7473e+01 9.5224e-08 3.9472e-01 -2.1890e-01 3.0594e-01 -1.6268e-01
       606 3.1501e+00 1.2273e-04 3.9491e-01 -2.1878e-01 3.0610e-01 -1.6264e-01
       607 1.0808e+01 2.6678e-06 3.9513e-01 -2.1887e-01 3.0630e-01 -1.6264e-01
       608 1.1362e+00 3.3595e-04 3.9505e-01 -2.1889e-01 3.0622e-01 -1.6268e-01
       609 1.3207e+01 8.0397e-07 3.9481e-01 -2.1882e-01 3.0600e-01 -1.6261e-01
       610 3.0244e-03 5.9203e-04 3.9498e-01 -2.1881e-01 3.0616e-01 -1.6264e-01
       611 1.9675e+00 2.2170e-04 3.9488e-01 -2.1887e-01 3.0608e-01 -1.6265e-01
       612 1.9166e+00 2.2742e-04 3.9490e-01 -2.1885e-01 3.0609e-01 -1.6260e-01
       613 6.0900e-02 5.7514e-04 3.9501e-01 -2.1880e-01 3.0620e-01 -1.6260e-01
       614 5.1725e-02 5.7778e-04 3.9495e-01 -2.1884e-01 3.0614e-01 -1.6264e-01
       615 8.4567e-01 3.8847e-04 3.9489e-01 -2.1882e-01 3.0611e-01 -1.6259e-01
       616 1.2554e+01 1.1138e-06 3.9520e-01 -2.1882e-01 3.0635e-01 -1.6264e-01
       617 4.0535e+00 7.8125e-05 3.9488e-01 -2.1886e-01 3.0607e-01 -1.6263e-01
       618 1.0727e-01 5.6196e-04 3.9498e-01 -2.1890e-01 3.0617e-01 -1.6265e-01
       619 1.0575e+01 2.9968e-06 3.9481e-01 -2.1893e-01 3.0601e-01 -1.6267e-01
       620 5.0581e+00 4.7276e-05 3.9483e-01 -2.1885e-01 3.0604e-01 -1.6266e-01
       621 2.2577e+00 1.9175e-04 3.9506e-01 -2.1882e-01 3.0623e-01 -1.6264e-01
       622 1.4253e+00 2.9074e-04 3.9488e-01 -2.1896e-01 3.0607e-01 -1.6269e-01
       623 3.4540e+00 1.0543e-04 3.9509e-01 -2.1885e-01 3.0626e-01 -1.6266e-01
       624 3.6580e+00 9.5207e-05 3.9508e-01 -2.1880e-01 3.0625e-01 -1.6263e-01
       625 2.5730e+01 1.5337e-09 3.9470e-01 -2.1893e-01 3.0591e-01 -1.6269e-01
       626 2.8893e-01 5.1316e-04 3.9495e-01 -2.1891e-01 3.0614e-01 -1.6268e-01
       627 1.4909e+01 3.4318e-07 3.9476e-01 -2.1882e-01 3.0598e-01 -1.6262e-01
       628 4.0889e+00 7.6753e-05 3.9487e-01 -2.1894e-01 3.0606e-01 -1.6269e-01
       629 2.0984e+01 1.6460e-08 3.9524e-01 -2.1887e-01 3.0638e-01 -1.6267e-01
       630 3.0973e-02 5.8381e-04 3.9502e-01 -2.1873e-01 3.0620e-01 -1.6262e-01
       631 1.3254e-01 5.5490e-04 3.9497e-01 -2.1874e-01 3.0617e-01 -1.6259e-01
       632 5.7152e-01 4.4555e-04 3.9498e-01 -2.1887e-01 3.0618e-01 -1.6264e-01
       633 2.0980e+01 1.6492e-08 3.9470e-01 -2.1887e-01 3.0593e-01 -1.6266e-01
       634 1.8343e-01 5.4096e-04 3.9494e-01 -2.1887e-01 3.0612e-01 -1.6267e-01
       635 2.1511e+00 2.0225e-04 3.9506e-01 -2.1877e-01 3.0624e-01 -1.6259e-01
       636 3.9772e+00 8.1161e-05 3.9487e-01 -2.1875e-01 3.0607e-01 -1.6258e-01
       637 5.3653e-03 5.9133e-04 3.9498e-01 -2.1891e-01 3.0616e-01 -1.6268e-01
       638 1.8417e+00 2.3609e-04 3.9490e-01 -2.1888e-01 3.0609e-01 -1.6268e-01
       639 2.6965e-01 5.1814e-04 3.9501e-01 -2.1892e-01 3.0621e-01 -1.6267e-01
       640 2.3967e-02 5.8586e-04 3.9497e-01 -2.1891e-01 3.0615e-01 -1.6268e-01
       641 2.4719e+01 2.5435e-09 3.9467e-01 -2.1881e-01 3.0590e-01 -1.6264e-01
       642 1.0217e+00 3.5575e-04 3.9493e-01 -2.1880e-01 3.0611e-01 -1.6263e-01
       643 3.3183e+00 1.1283e-04 3.9512e-01 -2.1884e-01 3.0628e-01 -1.6263e-01
       644 2.3958e+00 1.7896e-04 3.9487e-01 -2.1890e-01 3.0608e-01 -1.6268e-01
       645 1.0981e+00 3.4241e-04 3.9489e-01 -2.1896e-01 3.0610e-01 -1.6269e-01
       646 4.5465e+00 6.1056e-05 3.9513e-01 -2.1879e-01 3.0629e-01 -1.6264e-01
       647 3.7204e-01 4.9228e-04 3.9497e-01 -2.1877e-01 3.0615e-01 -1.6259e-01
       648 6.9236e+00 1.8602e-05 3.9487e-01 -2.1882e-01 3.0608e-01 -1.6261e-01
       649 2.2306e+00 1.9437e-04 3.9505e-01 -2.1885e-01 3.0622e-01 -1.6266e-01
       650 5.9949e-01 4.3936e-04 3.9503e-01 -2.1890e-01 3.0620e-01 -1.6268e-01
       651 8.2809e-01 3.9190e-04 3.9492e-01 -2.1878e-01 3.0612e-01 -1.6262e-01
       652 1.5334e+01 2.7751e-07 3.9476e-01 -2.1884e-01 3.0597e-01 -1.6264e-01
       653 1.3579e+00 3.0070e-04 3.9492e-01 -2.1874e-01 3.0610e-01 -1.6262e-01
       654 8.2937e-01 3.9165e-04 3.9503e-01 -2.1888e-01 3.0621e-01 -1.6267e-01
       655 4.1641e+00 7.3921e-05 3.9480e-01 -2.1897e-01 3.0602e-01 -1.6270e-01
       656 9.6679e-01 3.6565e-04 3.9505e-01 -2.1886e-01 3.0621e-01 -1.6264e-01
       657 4.0504e+00 7.8247e-05 3.9505e-01 -2.1901e-01 3.0624e-01 -1.6272e-01
       658 2.4150e-01 5.2548e-04 3.9494e-01 -2.1890e-01 3.0613e-01 -1.6268e-01
       659 3.2184e+00 1.1861e-04 3.9488e-01 -2.1883e-01 3.0608e-01 -1.6262e-01
       660 3.7676e+01 3.9072e-12 3.9466e-01 -2.1890e-01 3.0588e-01 -1.6266e-01
       661 1.2954e+00 3.1024e-04 3.9494e-01 -2.1868e-01 3.0613e-01 -1.6252e-01
       662 1.3173e+00 3.0686e-04 3.9504e-01 -2.1890e-01 3.0622e-01 -1.6268e-01
       663 4.9357e+00 5.0261e-05 3.9486e-01 -2.1892e-01 3.0606e-01 -1.6269e-01
       664 1.2879e+01 9.4687e-07 3.9520e-01 -2.1885e-01 3.0635e-01 -1.6266e-01
       665 2.9000e+00 1.3908e-04 3.9488e-01 -2.1881e-01 3.0608e-01 -1.6260e-01
       666 2.5956e+00 1.6194e-04 3.9507e-01 -2.1889e-01 3.0623e-01 -1.6267e-01
       667 7.7133e+00 1.2534e-05 3.9511e-01 -2.1888e-01 3.0628e-01 -1.6263e-01
       668 7.0231e-01 4.1734e-04 3.9504e-01 -2.1879e-01 3.0621e-01 -1.6260e-01
       669 2.5166e+01 2.0338e-09 3.9474e-01 -2.1866e-01 3.0597e-01 -1.6252e-01
       670 3.7307e-03 5.9182e-04 3.9497e-01 -2.1884e-01 3.0617e-01 -1.6267e-01
       671 7.8708e+00 1.1585e-05 3.9516e-01 -2.1882e-01 3.0632e-01 -1.6263e-01
       672 3.7282e+00 9.1925e-05 3.9508e-01 -2.1890e-01 3.0625e-01 -1.6268e-01
       673 1.8672e-02 5.8741e-04 3.9497e-01 -2.1891e-01 3.0616e-01 -1.6267e-01
       674 8.9260e+00 6.8352e-06 3.9517e-01 -2.1887e-01 3.0632e-01 -1.6267e-01
       675 6.7788e+00 1.9999e-05 3.9485e-01 -2.1872e-01 3.0605e-01 -1.6260e-01
       676 3.0060e-02 5.8408e-04 3.9497e-01 -2.1894e-01 3.0615e-01 -1.6268e-01
       677 2.1449e-02 5.8660e-04 3.9496e-01 -2.1882e-01 3.0616e-01 -1.6265e-01
       678 1.1348e+01 2.0358e-06 3.9479e-01 -2.1884e-01 3.0601e-01 -1.6267e-01
       679 1.0048e+01 3.9000e-06 3.9519e-01 -2.1870e-01 3.0633e-01 -1.6258e-01
       680 8.6007e+00 8.0423e-06 3.9484e-01 -2.1890e-01 3.0603e-01 -1.6267e-01
       681 7.4762e-01 4.0799e-04 3.9498e-01 -2.1877e-01 3.0616e-01 -1.6259e-01
       682 2.7043e+01 7.9576e-10 3.9526e-01 -2.1890e-01 3.0642e-01 -1.6264e-01
       683 1.4892e+00 2.8159e-04 3.9504e-01 -2.1896e-01 3.0621e-01 -1.6270e-01
       684 5.5212e+00 3.7504e-05 3.9480e-01 -2.1889e-01 3.0602e-01 -1.6268e-01
       685 7.6375e-01 4.0472e-04 3.9505e-01 -2.1881e-01 3.0621e-01 -1.6261e-01
       686 2.3269e-01 5.2780e-04 3.9494e-01 -2.1883e-01 3.0613e-01 -1.6263e-01
       687 4.4625e+00 6.3677e-05 3.9487e-01 -2.1882e-01 3.0606e-01 -1.6263e-01
       688 6.1310e-02 5.7502e-04 3.9501e-01 -2.1875e-01 3.0619e-01 -1.6261e-01
       689 2.2886e+00 1.8881e-04 3.9507e-01 -2.1885e-01 3.0625e-01 -1.6266e-01
       690 3.6627e-02 5.8216e-04 3.9497e-01 -2.1875e-01 3.0617e-01 -1.6257e-01
       691 7.0253e+00 1.7679e-05 3.9485e-01 -2.1883e-01 3.0604e-01 -1.6263e-01
       692 5.3554e+00 4.0746e-05 3.9481e-01 -2.1894e-01 3.0601e-01 -1.6266e-01
       693 3.8350e-01 4.8946e-04 3.9491e-01 -2.1898e-01 3.0612e-01 -1.6271e-01
       694 4.0065e-02 5.8116e-04 3.9497e-01 -2.1888e-01 3.0616e-01 -1.6266e-01
       695 2.7235e+01 7.2277e-10 3.9526e-01 -2.1888e-01 3.0641e-01 -1.6266e-01
       696 1.1747e+00 3.2954e-04 3.9487e-01 -2.1892e-01 3.0607e-01 -1.6268e-01
       697 3.4553e+00 1.0537e-04 3.9509e-01 -2.1877e-01 3.0626e-01 -1.6262e-01
       698 1.4874e+00 2.8185e-04 3.9491e-01 -2.1874e-01 3.0612e-01 -1.6257e-01
       699 3.2191e+01 6.0642e-11 3.9469e-01 -2.1885e-01 3.0590e-01 -1.6265e-01
       700 1.4012e+01 5.3741e-07 3.9478e-01 -2.1881e-01 3.0598e-01 -1.6262e-01
       701 1.2960e+00 3.1015e-04 3.9491e-01 -2.1889e-01 3.0610e-01 -1.6268e-01
       702 2.4244e+00 1.7642e-04 3.9489e-01 -2.1887e-01 3.0609e-01 -1.6267e-01
       703 2.3314e-01 5.2768e-04 3.9498e-01 -2.1883e-01 3.0617e-01 -1.6262e-01
       704 4.3073e-01 4.7804e-04 3.9504e-01 -2.1875e-01 3.0621e-01 -1.6260e-01
       705 6.7475e-03 5.9092e-04 3.9497e-01 -2.1882e-01 3.0617e-01 -1.6257e-01
       706 1.1952e+00 3.2618e-04 3.9505e-01 -2.1886e-01 3.0623e-01 -1.6266e-01
       707 4.8000e-02 5.7886e-04 3.9499e-01 -2.1883e-01 3.0618e-01 -1.6261e-01
       708 1.0051e+01 3.8948e-06 3.9521e-01 -2.1871e-01 3.0635e-01 -1.6260e-01
       709 4.7859e-01 4.6674e-04 3.9494e-01 -2.1885e-01 3.0613e-01 -1.6266e-01
       710 3.1544e+00 1.2247e-04 3.9509e-01 -2.1886e-01 3.0626e-01 -1.6266e-01
       711 4.1957e+00 7.2761e-05 3.9486e-01 -2.1888e-01 3.0607e-01 -1.6267e-01
       712 2.4002e+00 1.7856e-04 3.9485e-01 -2.1897e-01 3.0605e-01 -1.6267e-01
       713 2.8990e+00 1.3915e-04 3.9489e-01 -2.1887e-01 3.0609e-01 -1.6266e-01
       714 3.1843e+00 1.2065e-04 3.9488e-01 -2.1876e-01 3.0608e-01 -1.6262e-01
       715 7.6417e-01 4.0463e-04 3.9494e-01 -2.1879e-01 3.0612e-01 -1.6263e-01
       716 1.1551e+00 3.3279e-04 3.9500e-01 -2.1884e-01 3.0618e-01 -1.6265e-01
       717 6.2672e-01 4.3342e-04 3.9495e-01 -2.1882e-01 3.0615e-01 -1.6262e-01
       718 1.2874e+01 9.4931e-07 3.9476e-01 -2.1890e-01 3.0598e-01 -1.6267e-01
       719 4.3864e-02 5.8006e-04 3.9499e-01 -2.1875e-01 3.0617e-01 -1.6259e-01
       720 1.3037e-04 5.9288e-04 3.9498e-01 -2.1884e-01 3.0616e-01 -1.6265e-01
       721 4.2339e+00 7.1387e-05 3.9513e-01 -2.1881e-01 3.0628e-01 -1.6260e-01
       722 2.0684e+00 2.1079e-04 3.9506e-01 -2.1886e-01 3.0622e-01 -1.6264e-01
       723 1.7201e+00 2.5088e-04 3.9493e-01 -2.1879e-01 3.0611e-01 -1.6262e-01
       724 1.2811e+01 9.7978e-07 3.9517e-01 -2.1888e-01 3.0633e-01 -1.6267e-01
       725 1.8899e+00 2.3046e-04 3.9506e-01 -2.1885e-01 3.0622e-01 -1.6263e-01
       726 7.5269e-04 5.9270e-04 3.9499e-01 -2.1889e-01 3.0617e-01 -1.6266e-01
       727 3.3211e-02 5.8316e-04 3.9495e-01 -2.1878e-01 3.0615e-01 -1.6257e-01
       728 3.2463e+00 1.1697e-04 3.9489e-01 -2.1876e-01 3.0610e-01 -1.6264e-01
       729 1.1225e+01 2.1651e-06 3.9481e-01 -2.1879e-01 3.0602e-01 -1.6264e-01
       730 7.2665e+00 1.5671e-05 3.9516e-01 -2.1885e-01 3.0631e-01 -1.6264e-01
       731 2.9854e+01 1.9508e-10 3.9529e-01 -2.1891e-01 3.0643e-01 -1.6266e-01
       732 1.5538e+00 2.7265e-04 3.9503e-01 -2.1899e-01 3.0619e-01 -1.6271e-01
       733 6.5660e-01 4.2699e-04 3.9492e-01 -2.1884e-01 3.0611e-01 -1.6265e-01
       734 9.8604e-01 3.6214e-04 3.9493e-01 -2.1884e-01 3.0612e-01 -1.6262e-01
       735 3.6907e+00 9.3662e-05 3.9508e-01 -2.1896e-01 3.0625e-01 -1.6269e-01
       736 2.7882e-01 5.1576e-04 3.9504e-01 -2.1882e-01 3.0620e-01 -1.6262e-01
       737 6.3620e+00 2.4633e-05 3.9484e-01 -2.1885e-01 3.0605e-01 -1.6265e-01
       738 1.1726e+00 3.2990e-04 3.9494e-01 -2.1883e-01 3.0614e-01 -1.6266e-01
       739 1.5377e+00 2.7485e-04 3.9509e-01 -2.1865e-01 3.0626e-01 -1.6251e-01
       740 2.7892e+01 5.2031e-10 3.9466e-01 -2.1891e-01 3.0589e-01 -1.6268e-01
       741 4.1259e+00 7.5346e-05 3.9506e-01 -2.1888e-01 3.0624e-01 -1.6267e-01
       742 1.5096e+00 2.7873e-04 3.9498e-01 -2.1896e-01 3.0616e-01 -1.6269e-01
       743 3.8719e+00 8.5550e-05 3.9510e-01 -2.1883e-01 3.0627e-01 -1.6264e-01
       744 2.8987e+00 1.3917e-04 3.9511e-01 -2.1882e-01 3.0626e-01 -1.6264e-01
       745 3.0889e+00 1.2654e-04 3.9490e-01 -2.1876e-01 3.0610e-01 -1.6254e-01
       746 1.6715e+01 1.3909e-07 3.9517e-01 -2.1891e-01 3.0632e-01 -1.6268e-01
       747 2.7878e-01 5.1578e-04 3.9503e-01 -2.1884e-01 3.0620e-01 -1.6261e-01
       748 8.8134e-01 3.8161e-04 3.9501e-01 -2.1885e-01 3.0620e-01 -1.6264e-01
       749 2.1755e-02 5.8651e-04 3.9502e-01 -2.1880e-01 3.0619e-01 -1.6265e-01
       750 6.1773e+00 2.7016e-05 3.9486e-01 -2.1876e-01 3.0607e-01 -1.6258e-01
       751 7.3336e-01 4.1091e-04 3.9502e-01 -2.1884e-01 3.0620e-01 -1.6262e-01
       752 6.4996e+00 2.2995e-05 3.9483e-01 -2.1885e-01 3.0605e-01 -1.6266e-01
       753 3.8437e-01 4.8925e-04 3.9501e-01 -2.1881e-01 3.0619e-01 -1.6263e-01
       754 4.1448e+01 5.9234e-13 3.9464e-01 -2.1892e-01 3.0588e-01 -1.6268e-01
       755 2.4230e+00 1.7654e-04 3.9492e-01 -2.1877e-01 3.0611e-01 -1.6262e-01
       756 9.1427e+00 6.1333e-06 3.9480e-01 -2.1890e-01 3.0601e-01 -1.6268e-01
       757 2.2167e+01 9.1090e-09 3.9469e-01 -2.1889e-01 3.0591e-01 -1.6268e-01
       758 1.8281e-01 5.4113e-04 3.9502e-01 -2.1889e-01 3.0618e-01 -1.6266e-01
       759 8.8125e+00 7.2340e-06 3.9481e-01 -2.1884e-01 3.0603e-01 -1.6261e-01
       760 1.9040e+01 4.3492e-08 3.9525e-01 -2.1873e-01 3.0639e-01 -1.6260e-01
       761 1.0159e+01 3.6905e-06 3.9477e-01 -2.1892e-01 3.0599e-01 -1.6267e-01
       762 4.1577e+00 7.4158e-05 3.9506e-01 -2.1892e-01 3.0624e-01 -1.6265e-01
       763 1.6032e+00 2.6600e-04 3.9488e-01 -2.1888e-01 3.0607e-01 -1.6267e-01
       764 4.8996e+00 5.1175e-05 3.9507e-01 -2.1890e-01 3.0625e-01 -1.6267e-01
       765 2.1904e+01 1.0392e-08 3.9519e-01 -2.1889e-01 3.0635e-01 -1.6265e-01
       766 8.4824e-02 5.6830e-04 3.9497e-01 -2.1880e-01 3.0615e-01 -1.6262e-01
       767 5.8690e+00 3.1519e-05 3.9478e-01 -2.1897e-01 3.0600e-01 -1.6270e-01
       768 1.0411e+00 3.5230e-04 3.9489e-01 -2.1892e-01 3.0609e-01 -1.6267e-01
       769 3.1855e-01 5.0562e-04 3.9500e-01 -2.1895e-01 3.0618e-01 -1.6269e-01
       770 5.4319e+00 3.9216e-05 3.9504e-01 -2.1902e-01 3.0623e-01 -1.6270e-01
       771 3.2519e+00 1.1664e-04 3.9489e-01 -2.1879e-01 3.0608e-01 -1.6259e-01
       772 7.0386e-01 4.1702e-04 3.9506e-01 -2.1868e-01 3.0622e-01 -1.6257e-01
       773 1.3248e-01 5.5492e-04 3.9495e-01 -2.1883e-01 3.0615e-01 -1.6261e-01
       774 4.7770e+00 5.4410e-05 3.9512e-01 -2.1876e-01 3.0627e-01 -1.6259e-01
       775 8.3879e+00 8.9450e-06 3.9480e-01 -2.1882e-01 3.0600e-01 -1.6262e-01
       776 2.3922e+01 3.7871e-09 3.9527e-01 -2.1881e-01 3.0641e-01 -1.6263e-01
       777 1.8238e+01 6.4971e-08 3.9517e-01 -2.1896e-01 3.0633e-01 -1.6268e-01
       778 9.1506e-01 3.7523e-04 3.9493e-01 -2.1890e-01 3.0612e-01 -1.6263e-01
       779 5.2720e+00 4.2480e-05 3.9484e-01 -2.1894e-01 3.0604e-01 -1.6268e-01
       780 4.8166e+00 5.3343e-05 3.9486e-01 -2.1884e-01 3.0606e-01 -1.6261e-01
       781 3.6206e+00 9.7004e-05 3.9484e-01 -2.1880e-01 3.0605e-01 -1.6261e-01
       782 7.2695e+00 1.5648e-05 3.9485e-01 -2.1887e-01 3.0604e-01 -1.6264e-01
       783 4.0870e+00 7.6826e-05 3.9509e-01 -2.1880e-01 3.0626e-01 -1.6261e-01
       784 3.2927e-01 5.0292e-04 3.9495e-01 -2.1881e-01 3.0613e-01 -1.6262e-01
       785 3.8459e+01 2.6403e-12 3.9464e-01 -2.1882e-01 3.0586e-01 -1.6264e-01
       786 9.9857e+00 4.0237e-06 3.9481e-01 -2.1887e-01 3.0602e-01 -1.6267e-01
       787 1.7386e+01 9.9442e-08 3.9470e-01 -2.1891e-01 3.0593e-01 -1.6267e-01
       788 1.0157e+01 3.6927e-06 3.9478e-01 -2.1884e-01 3.0600e-01 -1.6266e-01
       789 1.3605e+01 6.5873e-07 3.9517e-01 -2.1891e-01 3.0634e-01 -1.6267e-01
       790 2.8383e+01 4.0703e-10 3.9530e-01 -2.1877e-01 3.0643e-01 -1.6257e-01
       791 2.8366e+00 1.4356e-04 3.9502e-01 -2.1894e-01 3.0621e-01 -1.6267e-01
       792 1.9909e+01 2.8171e-08 3.9472e-01 -2.1880e-01 3.0595e-01 -1.6262e-01
       793 2.3973e+00 1.7883e-04 3.9509e-01 -2.1884e-01 3.0625e-01 -1.6264e-01
       794 4.5886e+01 6.4426e-14 3.9461e-01 -2.1886e-01 3.0587e-01 -1.6267e-01
       795 5.7367e+00 3.3674e-05 3.9511e-01 -2.1880e-01 3.0628e-01 -1.6259e-01
       796 4.1769e-01 4.8117e-04 3.9494e-01 -2.1886e-01 3.0613e-01 -1.6266e-01
       797 2.2018e+00 1.9719e-04 3.9504e-01 -2.1897e-01 3.0622e-01 -1.6270e-01
       798 5.7409e+00 3.3603e-05 3.9511e-01 -2.1891e-01 3.0628e-01 -1.6268e-01
       799 2.1524e-01 5.3242e-04 3.9496e-01 -2.1877e-01 3.0616e-01 -1.6259e-01
       800 7.8192e+00 1.1887e-05 3.9513e-01 -2.1883e-01 3.0630e-01 -1.6263e-01
       801 8.7637e+01 5.5308e-23 3.9446e-01 -2.1888e-01 3.0571e-01 -1.6268e-01
       802 1.1362e+00 3.3595e-04 3.9489e-01 -2.1900e-01 3.0609e-01 -1.6271e-01
       803 4.0482e+00 7.8332e-05 3.9508e-01 -2.1893e-01 3.0625e-01 -1.6267e-01
       804 6.8626e-01 4.2070e-04 3.9496e-01 -2.1877e-01 3.0614e-01 -1.6260e-01
       805 6.0025e+00 2.9483e-05 3.9508e-01 -2.1890e-01 3.0626e-01 -1.6269e-01
       806 2.5633e+01 1.6102e-09 3.9523e-01 -2.1895e-01 3.0639e-01 -1.6267e-01
       807 1.1361e+00 3.3597e-04 3.9493e-01 -2.1885e-01 3.0611e-01 -1.6262e-01
       808 1.8660e+00 2.3324e-04 3.9505e-01 -2.1884e-01 3.0622e-01 -1.6265e-01
       809 1.4448e+00 2.8791e-04 3.9501e-01 -2.1898e-01 3.0620e-01 -1.6271e-01
       810 2.1652e+01 1.1786e-08 3.9472e-01 -2.1884e-01 3.0595e-01 -1.6261e-01
       811 4.1618e+00 7.4008e-05 3.9505e-01 -2.1887e-01 3.0624e-01 -1.6264e-01
       812 9.2520e+00 5.8070e-06 3.9481e-01 -2.1893e-01 3.0602e-01 -1.6268e-01
       813 1.4765e+01 3.6886e-07 3.9480e-01 -2.1875e-01 3.0600e-01 -1.6262e-01
       814 4.0160e+00 7.9605e-05 3.9509e-01 -2.1878e-01 3.0626e-01 -1.6261e-01
       815 3.9596e+01 1.4956e-12 3.9462e-01 -2.1883e-01 3.0584e-01 -1.6265e-01
       816 5.0593e+00 4.7248e-05 3.9482e-01 -2.1888e-01 3.0604e-01 -1.6265e-01
       817 4.3134e+00 6.8603e-05 3.9510e-01 -2.1883e-01 3.0628e-01 -1.6262e-01
       818 1.6268e+01 1.7400e-07 3.9518e-01 -2.1897e-01 3.0633e-01 -1.6271e-01
       819 1.9838e+01 2.9193e-08 3.9467e-01 -2.1895e-01 3.0590e-01 -1.6268e-01
       820 3.9405e+00 8.2665e-05 3.9484e-01 -2.1890e-01 3.0604e-01 -1.6268e-01
       821 2.2382e-01 5.3015e-04 3.9495e-01 -2.1887e-01 3.0614e-01 -1.6265e-01
       822 5.2290e+00 4.3404e-05 3.9513e-01 -2.1869e-01 3.0629e-01 -1.6256e-01
       823 6.4968e+00 2.3026e-05 3.9483e-01 -2.1879e-01 3.0605e-01 -1.6264e-01
       824 6.0889e+00 2.8236e-05 3.9487e-01 -2.1877e-01 3.0607e-01 -1.6260e-01
       825 7.7132e+00 1.2534e-05 3.9479e-01 -2.1886e-01 3.0600e-01 -1.6266e-01
       826 2.4219e-03 5.9220e-04 3.9498e-01 -2.1877e-01 3.0617e-01 -1.6261e-01
       827 4.9094e-01 4.6386e-04 3.9497e-01 -2.1885e-01 3.0617e-01 -1.6260e-01
       828 2.5276e+01 1.9247e-09 3.9529e-01 -2.1882e-01 3.0643e-01 -1.6266e-01
       829 1.4572e+01 4.0616e-07 3.9520e-01 -2.1882e-01 3.0636e-01 -1.6265e-01
       830 2.1513e+00 2.0223e-04 3.9508e-01 -2.1880e-01 3.0624e-01 -1.6262e-01
       831 3.9372e+01 1.6731e-12 3.9463e-01 -2.1881e-01 3.0585e-01 -1.6262e-01
       832 9.8192e+00 4.3731e-06 3.9520e-01 -2.1874e-01 3.0634e-01 -1.6258e-01
       833 3.0862e+00 1.2672e-04 3.9505e-01 -2.1904e-01 3.0622e-01 -1.6272e-01
       834 2.9756e+01 2.0493e-10 3.9526e-01 -2.1892e-01 3.0640e-01 -1.6268e-01
       835 1.3361e-01 5.5460e-04 3.9504e-01 -2.1878e-01 3.0621e-01 -1.6263e-01
       836 3.5375e+01 1.2344e-11 3.9531e-01 -2.1887e-01 3.0646e-01 -1.6266e-01
       837 7.4636e+00 1.4200e-05 3.9484e-01 -2.1882e-01 3.0604e-01 -1.6264e-01
       838 1.2941e+01 9.1830e-07 3.9478e-01 -2.1897e-01 3.0600e-01 -1.6270e-01
       839 3.1857e+00 1.2057e-04 3.9486e-01 -2.1888e-01 3.0606e-01 -1.6267e-01
       840 5.8264e+00 3.2196e-05 3.9512e-01 -2.1882e-01 3.0629e-01 -1.6261e-01
       841 4.4332e+01 1.4006e-13 3.9532e-01 -2.1889e-01 3.0647e-01 -1.6268e-01
       842 1.0886e-01 5.6151e-04 3.9501e-01 -2.1881e-01 3.0620e-01 -1.6264e-01
       843 1.1990e-01 5.5842e-04 3.9495e-01 -2.1891e-01 3.0614e-01 -1.6267e-01
       844 2.0684e+00 2.1079e-04 3.9493e-01 -2.1880e-01 3.0612e-01 -1.6265e-01
       845 8.1432e-01 3.9461e-04 3.9493e-01 -2.1894e-01 3.0611e-01 -1.6268e-01
       846 8.4640e-01 3.8833e-04 3.9501e-01 -2.1884e-01 3.0618e-01 -1.6267e-01
       847 2.1195e-02 5.8667e-04 3.9496e-01 -2.1896e-01 3.0615e-01 -1.6270e-01
       848 6.8654e-01 4.2065e-04 3.9502e-01 -2.1898e-01 3.0619e-01 -1.6271e-01
       849 5.7216e-02 5.7620e-04 3.9495e-01 -2.1895e-01 3.0612e-01 -1.6269e-01
       850 4.8548e+00 5.2334e-05 3.9509e-01 -2.1896e-01 3.0626e-01 -1.6269e-01
       851 1.6073e-01 5.4714e-04 3.9503e-01 -2.1887e-01 3.0621e-01 -1.6265e-01
       852 3.2527e+00 1.1660e-04 3.9506e-01 -2.1882e-01 3.0624e-01 -1.6262e-01
       853 1.0516e+01 3.0863e-06 3.9478e-01 -2.1883e-01 3.0598e-01 -1.6262e-01
       854 4.0854e+00 7.6887e-05 3.9486e-01 -2.1884e-01 3.0607e-01 -1.6265e-01
       855 3.2175e+00 1.1867e-04 3.9507e-01 -2.1887e-01 3.0623e-01 -1.6267e-01
       856 8.0185e+00 1.0760e-05 3.9482e-01 -2.1876e-01 3.0603e-01 -1.6262e-01
       857 1.7543e+01 9.1970e-08 3.9521e-01 -2.1896e-01 3.0636e-01 -1.6270e-01
       858 1.3138e+01 8.3193e-07 3.9477e-01 -2.1885e-01 3.0599e-01 -1.6264e-01
       859 2.7195e+00 1.5222e-04 3.9509e-01 -2.1865e-01 3.0625e-01 -1.6252e-01
       860 9.1394e+00 6.1433e-06 3.9480e-01 -2.1887e-01 3.0601e-01 -1.6267e-01
       861 1.7625e+01 8.8272e-08 3.9523e-01 -2.1875e-01 3.0637e-01 -1.6256e-01
       862 6.9765e-02 5.7260e-04 3.9500e-01 -2.1879e-01 3.0617e-01 -1.6261e-01
       863 9.6473e+00 4.7655e-06 3.9477e-01 -2.1896e-01 3.0598e-01 -1.6270e-01
       864 1.4035e+00 2.9392e-04 3.9494e-01 -2.1889e-01 3.0612e-01 -1.6266e-01
       865 1.4479e+00 2.8747e-04 3.9503e-01 -2.1888e-01 3.0623e-01 -1.6266e-01
       866 3.2918e-01 5.0294e-04 3.9492e-01 -2.1889e-01 3.0612e-01 -1.6265e-01
       867 1.3532e+01 6.8324e-07 3.9477e-01 -2.1886e-01 3.0599e-01 -1.6266e-01
       868 2.4103e+01 3.4602e-09 3.9525e-01 -2.1879e-01 3.0640e-01 -1.6263e-01
       869 6.0440e+00 2.8878e-05 3.9508e-01 -2.1890e-01 3.0625e-01 -1.6267e-01
       870 7.9576e-02 5.6979e-04 3.9494e-01 -2.1878e-01 3.0613e-01 -1.6262e-01
       871 1.2612e+01 1.0822e-06 3.9517e-01 -2.1884e-01 3.0632e-01 -1.6263e-01
       872 3.1846e+00 1.2063e-04 3.9489e-01 -2.1886e-01 3.0609e-01 -1.6265e-01
       873 2.6474e+01 1.0572e-09 3.9469e-01 -2.1883e-01 3.0592e-01 -1.6261e-01
       874 5.2265e+00 4.3458e-05 3.9512e-01 -2.1880e-01 3.0628e-01 -1.6263e-01
       875 2.5409e+00 1.6644e-04 3.9507e-01 -2.1891e-01 3.0625e-01 -1.6266e-01
       876 2.9305e+00 1.3698e-04 3.9488e-01 -2.1894e-01 3.0609e-01 -1.6268e-01
       877 2.4725e+01 2.5356e-09 3.9472e-01 -2.1878e-01 3.0593e-01 -1.6262e-01
       878 8.4491e+00 8.6756e-06 3.9513e-01 -2.1876e-01 3.0631e-01 -1.6261e-01
       879 4.8150e+01 2.0770e-14 3.9459e-01 -2.1877e-01 3.0583e-01 -1.6258e-01
       880 2.9996e+00 1.3232e-04 3.9512e-01 -2.1866e-01 3.0629e-01 -1.6253e-01
       881 6.5731e-04 5.9273e-04 3.9496e-01 -2.1896e-01 3.0614e-01 -1.6269e-01
       882 3.0559e+00 1.2865e-04 3.9489e-01 -2.1880e-01 3.0610e-01 -1.6261e-01
       883 1.2483e+01 1.1543e-06 3.9480e-01 -2.1884e-01 3.0601e-01 -1.6265e-01
       884 1.3917e-01 5.5306e-04 3.9498e-01 -2.1882e-01 3.0616e-01 -1.6266e-01
       885 6.1380e+00 2.7551e-05 3.9489e-01 -2.1879e-01 3.0607e-01 -1.6261e-01
       886 3.7300e+00 9.1840e-05 3.9505e-01 -2.1881e-01 3.0623e-01 -1.6263e-01
       887 5.4382e+00 3.9093e-05 3.9515e-01 -2.1885e-01 3.0631e-01 -1.6264e-01
       888 1.4042e+00 2.9382e-04 3.9509e-01 -2.1870e-01 3.0627e-01 -1.6255e-01
       889 1.5590e+00 2.7193e-04 3.9507e-01 -2.1871e-01 3.0625e-01 -1.6254e-01
       890 2.0194e+00 2.1601e-04 3.9506e-01 -2.1883e-01 3.0624e-01 -1.6262e-01
       891 8.6995e+00 7.6544e-06 3.9483e-01 -2.1873e-01 3.0605e-01 -1.6256e-01
       892 6.5516e+00 2.2404e-05 3.9511e-01 -2.1882e-01 3.0628e-01 -1.6265e-01
       893 3.9811e+00 8.1004e-05 3.9512e-01 -2.1884e-01 3.0629e-01 -1.6263e-01
       894 7.9617e-02 5.6978e-04 3.9499e-01 -2.1883e-01 3.0617e-01 -1.6264e-01
       895 1.8159e+00 2.3916e-04 3.9488e-01 -2.1885e-01 3.0608e-01 -1.6266e-01
       896 7.9994e-02 5.6967e-04 3.9501e-01 -2.1881e-01 3.0619e-01 -1.6264e-01
       897 1.0751e-01 5.6189e-04 3.9495e-01 -2.1886e-01 3.0614e-01 -1.6264e-01
       898 2.1823e+01 1.0820e-08 3.9474e-01 -2.1892e-01 3.0596e-01 -1.6269e-01
       899 9.3597e+00 5.5026e-06 3.9479e-01 -2.1887e-01 3.0601e-01 -1.6267e-01
       900 3.3155e+00 1.1299e-04 3.9483e-01 -2.1890e-01 3.0605e-01 -1.6268e-01
       901 2.6845e+01 8.7826e-10 3.9471e-01 -2.1887e-01 3.0593e-01 -1.6267e-01
       902 3.9481e+01 1.5842e-12 3.9462e-01 -2.1879e-01 3.0585e-01 -1.6260e-01
       903 4.1593e+00 7.4099e-05 3.9491e-01 -2.1874e-01 3.0609e-01 -1.6260e-01
       904 7.5195e+00 1.3809e-05 3.9508e-01 -2.1887e-01 3.0627e-01 -1.6267e-01
       905 2.0320e+01 2.2940e-08 3.9471e-01 -2.1885e-01 3.0594e-01 -1.6262e-01
       906 2.1220e+00 2.0521e-04 3.9506e-01 -2.1881e-01 3.0622e-01 -1.6264e-01
       907 3.0874e+00 1.2664e-04 3.9484e-01 -2.1884e-01 3.0606e-01 -1.6263e-01
       908 4.0057e+01 1.1880e-12 3.9530e-01 -2.1888e-01 3.0643e-01 -1.6267e-01
       909 1.1538e+01 1.8512e-06 3.9514e-01 -2.1892e-01 3.0631e-01 -1.6267e-01
       910 7.4166e+00 1.4538e-05 3.9479e-01 -2.1891e-01 3.0600e-01 -1.6269e-01
       911 1.2932e+01 9.2214e-07 3.9479e-01 -2.1877e-01 3.0601e-01 -1.6261e-01
       912 1.6941e+01 1.2427e-07 3.9522e-01 -2.1886e-01 3.0635e-01 -1.6267e-01
       913 3.5048e-01 4.9761e-04 3.9492e-01 -2.1887e-01 3.0611e-01 -1.6264e-01
       914 1.5569e+00 2.7222e-04 3.9504e-01 -2.1892e-01 3.0621e-01 -1.6269e-01
       915 1.8690e+00 2.3289e-04 3.9506e-01 -2.1879e-01 3.0623e-01 -1.6263e-01
       916 2.2768e+01 6.7452e-09 3.9470e-01 -2.1887e-01 3.0593e-01 -1.6265e-01
       917 2.9173e+01 2.7425e-10 3.9470e-01 -2.1890e-01 3.0590e-01 -1.6266e-01
       918 2.4569e+00 1.7357e-04 3.9507e-01 -2.1881e-01 3.0624e-01 -1.6266e-01
       919 3.6509e-02 5.8220e-04 3.9494e-01 -2.1891e-01 3.0614e-01 -1.6269e-01
       920 1.9917e+01 2.8055e-08 3.9474e-01 -2.1889e-01 3.0594e-01 -1.6267e-01
       921 2.5157e-01 5.2284e-04 3.9492e-01 -2.1894e-01 3.0611e-01 -1.6269e-01
       922 4.7763e+00 5.4429e-05 3.9508e-01 -2.1895e-01 3.0626e-01 -1.6270e-01
       923 2.9880e-01 5.1064e-04 3.9495e-01 -2.1888e-01 3.0614e-01 -1.6266e-01
       924 1.6235e+00 2.6331e-04 3.9502e-01 -2.1898e-01 3.0620e-01 -1.6269e-01
       925 1.1992e-01 5.5841e-04 3.9499e-01 -2.1885e-01 3.0616e-01 -1.6266e-01
       926 4.3007e-01 4.7820e-04 3.9495e-01 -2.1882e-01 3.0613e-01 -1.6263e-01
       927 2.4529e+00 1.7392e-04 3.9508e-01 -2.1885e-01 3.0624e-01 -1.6266e-01
       928 2.3132e+00 1.8651e-04 3.9485e-01 -2.1891e-01 3.0606e-01 -1.6266e-01
       929 2.0897e+01 1.7191e-08 3.9519e-01 -2.1887e-01 3.0634e-01 -1.6266e-01
       930 8.2749e-06 5.9292e-04 3.9494e-01 -2.1893e-01 3.0613e-01 -1.6269e-01
       931 2.5124e-01 5.2293e-04 3.9492e-01 -2.1890e-01 3.0611e-01 -1.6267e-01
       932 4.4674e+00 6.3520e-05 3.9512e-01 -2.1882e-01 3.0628e-01 -1.6265e-01
       933 9.3270e-01 3.7193e-04 3.9498e-01 -2.1887e-01 3.0618e-01 -1.6265e-01
       934 9.5003e-01 3.6872e-04 3.9490e-01 -2.1897e-01 3.0610e-01 -1.6271e-01
       935 2.2406e-01 5.3008e-04 3.9495e-01 -2.1874e-01 3.0613e-01 -1.6258e-01
       936 8.9181e+00 6.8620e-06 3.9483e-01 -2.1886e-01 3.0604e-01 -1.6267e-01
       937 4.0861e+00 7.6864e-05 3.9509e-01 -2.1888e-01 3.0626e-01 -1.6265e-01
       938 1.3922e-01 5.5305e-04 3.9497e-01 -2.1892e-01 3.0615e-01 -1.6269e-01
       939 5.4759e+00 3.8365e-05 3.9484e-01 -2.1889e-01 3.0605e-01 -1.6268e-01
       940 6.9276e+00 1.8565e-05 3.9515e-01 -2.1893e-01 3.0631e-01 -1.6269e-01
       941 2.0443e+00 2.1334e-04 3.9488e-01 -2.1888e-01 3.0608e-01 -1.6267e-01
       942 1.0571e+01 3.0031e-06 3.9514e-01 -2.1890e-01 3.0632e-01 -1.6265e-01
       943 4.3479e+00 6.7430e-05 3.9510e-01 -2.1888e-01 3.0627e-01 -1.6261e-01
       944 7.0321e-01 4.1716e-04 3.9502e-01 -2.1886e-01 3.0620e-01 -1.6266e-01
       945 5.3181e-01 4.5448e-04 3.9493e-01 -2.1899e-01 3.0612e-01 -1.6271e-01
       946 1.6202e+01 1.7984e-07 3.9520e-01 -2.1888e-01 3.0635e-01 -1.6263e-01
       947 1.6650e+01 1.4370e-07 3.9519e-01 -2.1886e-01 3.0635e-01 -1.6266e-01
       948 2.0975e+00 2.0774e-04 3.9484e-01 -2.1889e-01 3.0605e-01 -1.6266e-01
       949 2.1210e-02 5.8667e-04 3.9500e-01 -2.1890e-01 3.0617e-01 -1.6268e-01
       950 1.5116e+00 2.7845e-04 3.9503e-01 -2.1889e-01 3.0621e-01 -1.6265e-01
       951 1.4681e+00 2.8457e-04 3.9488e-01 -2.1896e-01 3.0608e-01 -1.6270e-01
       952 6.0937e+00 2.8169e-05 3.9514e-01 -2.1879e-01 3.0630e-01 -1.6263e-01
       953 2.0825e+01 1.7821e-08 3.9525e-01 -2.1885e-01 3.0640e-01 -1.6266e-01
       954 5.1648e-01 4.5798e-04 3.9496e-01 -2.1882e-01 3.0616e-01 -1.6264e-01
       955 8.2762e-01 3.9200e-04 3.9493e-01 -2.1880e-01 3.0613e-01 -1.6263e-01
       956 6.5246e+01 4.0280e-18 3.9456e-01 -2.1882e-01 3.0579e-01 -1.6263e-01
       957 3.7254e-01 4.9215e-04 3.9500e-01 -2.1887e-01 3.0617e-01 -1.6268e-01
       958 6.5069e+00 2.2911e-05 3.9511e-01 -2.1881e-01 3.0628e-01 -1.6264e-01
       959 9.4728e+00 5.2000e-06 3.9482e-01 -2.1892e-01 3.0603e-01 -1.6269e-01
       960 9.7047e+00 4.6307e-06 3.9482e-01 -2.1885e-01 3.0602e-01 -1.6261e-01
       961 4.9803e+01 9.0847e-15 3.9458e-01 -2.1882e-01 3.0583e-01 -1.6261e-01
       962 9.9768e+00 4.0418e-06 3.9478e-01 -2.1893e-01 3.0599e-01 -1.6269e-01
       963 1.2129e+00 3.2332e-04 3.9503e-01 -2.1888e-01 3.0620e-01 -1.6263e-01
       964 5.2259e+00 4.3472e-05 3.9485e-01 -2.1888e-01 3.0605e-01 -1.6264e-01
       965 5.6734e+01 2.8404e-16 3.9538e-01 -2.1888e-01 3.0652e-01 -1.6266e-01
       966 5.7649e-02 5.7607e-04 3.9500e-01 -2.1877e-01 3.0619e-01 -1.6261e-01
       967 6.0412e-02 5.7528e-04 3.9495e-01 -2.1888e-01 3.0614e-01 -1.6268e-01
       968 1.6234e-02 5.8813e-04 3.9498e-01 -2.1883e-01 3.0617e-01 -1.6262e-01
       969 7.0135e-03 5.9085e-04 3.9494e-01 -2.1898e-01 3.0613e-01 -1.6271e-01
       970 1.0992e+01 2.4326e-06 3.9478e-01 -2.1889e-01 3.0599e-01 -1.6266e-01
       971 2.5642e+01 1.6033e-09 3.9471e-01 -2.1881e-01 3.0592e-01 -1.6262e-01
       972 2.0642e+01 1.9524e-08 3.9476e-01 -2.1876e-01 3.0597e-01 -1.6261e-01
       973 6.1282e-01 4.3644e-04 3.9500e-01 -2.1886e-01 3.0617e-01 -1.6265e-01
       974 7.3192e+00 1.5263e-05 3.9479e-01 -2.1897e-01 3.0600e-01 -1.6270e-01
       975 5.6953e+00 3.4378e-05 3.9514e-01 -2.1889e-01 3.0630e-01 -1.6268e-01
       976 1.9137e+00 2.2775e-04 3.9497e-01 -2.1861e-01 3.0615e-01 -1.6253e-01
       977 2.8847e-01 5.1328e-04 3.9497e-01 -2.1878e-01 3.0616e-01 -1.6260e-01
       978 8.3906e+00 8.9330e-06 3.9516e-01 -2.1877e-01 3.0631e-01 -1.6262e-01
       979 8.5184e-02 5.6820e-04 3.9499e-01 -2.1886e-01 3.0616e-01 -1.6265e-01
       980 5.3513e+00 4.0830e-05 3.9511e-01 -2.1885e-01 3.0627e-01 -1.6264e-01
       981 1.1349e+00 3.3617e-04 3.9495e-01 -2.1872e-01 3.0613e-01 -1.6259e-01
       982 1.9180e+00 2.2726e-04 3.9507e-01 -2.1881e-01 3.0624e-01 -1.6263e-01
       983 1.7432e+00 2.4800e-04 3.9487e-01 -2.1897e-01 3.0608e-01 -1.6270e-01
       984 9.3593e+00 5.5036e-06 3.9484e-01 -2.1864e-01 3.0603e-01 -1.6255e-01
       985 4.4553e+01 1.2543e-13 3.9464e-01 -2.1878e-01 3.0587e-01 -1.6259e-01
       986 7.0103e-01 4.1761e-04 3.9499e-01 -2.1881e-01 3.0616e-01 -1.6266e-01
       987 2.4898e+01 2.3252e-09 3.9470e-01 -2.1879e-01 3.0593e-01 -1.6264e-01
       988 1.0219e+01 3.5800e-06 3.9511e-01 -2.1892e-01 3.0628e-01 -1.6268e-01
       989 1.0994e+01 2.4309e-06 3.9518e-01 -2.1883e-01 3.0634e-01 -1.6264e-01
       990 2.4358e+01 3.0464e-09 3.9521e-01 -2.1898e-01 3.0636e-01 -1.6270e-01
       991 2.3461e+00 1.8347e-04 3.9504e-01 -2.1881e-01 3.0623e-01 -1.6265e-01
       992 2.5115e+00 1.6890e-04 3.9506e-01 -2.1889e-01 3.0624e-01 -1.6267e-01
       993 1.4126e-02 5.8875e-04 3.9498e-01 -2.1873e-01 3.0617e-01 -1.6255e-01
       994 2.4188e-02 5.8579e-04 3.9493e-01 -2.1895e-01 3.0612e-01 -1.6269e-01
       995 1.6821e-01 5.4509e-04 3.9497e-01 -2.1884e-01 3.0614e-01 -1.6265e-01
       996 1.1116e+01 2.2866e-06 3.9476e-01 -2.1891e-01 3.0596e-01 -1.6266e-01
       997 2.3565e+01 4.5278e-09 3.9476e-01 -2.1887e-01 3.0595e-01 -1.6266e-01
       998 1.5761e+01 2.2418e-07 3.9476e-01 -2.1886e-01 3.0598e-01 -1.6267e-01
       999 5.1862e+00 4.4344e-05 3.9488e-01 -2.1871e-01 3.0607e-01 -1.6252e-01
      1000 9.0504e-02 5.6669e-04 3.9498e-01 -2.1889e-01 3.0617e-01 -1.6267e-01
      1001 2.6867e+00 1.5474e-04 3.9489e-01 -2.1885e-01 3.0608e-01 -1.6264e-01
      1002 4.0981e+01 7.4821e-13 3.9462e-01 -2.1882e-01 3.0585e-01 -1.6265e-01
      1003 8.2858e-03 5.9047e-04 3.9500e-01 -2.1884e-01 3.0617e-01 -1.6264e-01
      1004 1.8238e+01 6.4957e-08 3.9476e-01 -2.1880e-01 3.0599e-01 -1.6260e-01
      1005 1.1973e+01 1.4894e-06 3.9477e-01 -2.1890e-01 3.0599e-01 -1.6267e-01
      1006 9.1995e+00 5.9615e-06 3.9476e-01 -2.1885e-01 3.0599e-01 -1.6259e-01
      1007 4.1743e-01 4.8123e-04 3.9501e-01 -2.1870e-01 3.0617e-01 -1.6260e-01
      1008 1.2983e+00 3.0980e-04 3.9505e-01 -2.1883e-01 3.0624e-01 -1.6263e-01
      1009 2.1561e-01 5.3233e-04 3.9500e-01 -2.1887e-01 3.0617e-01 -1.6267e-01
      1010 7.7105e+00 1.2551e-05 3.9479e-01 -2.1892e-01 3.0603e-01 -1.6269e-01
      1011 2.9170e+01 2.7469e-10 3.9530e-01 -2.1885e-01 3.0644e-01 -1.6263e-01
      1012 2.0896e-03 5.9230e-04 3.9493e-01 -2.1893e-01 3.0613e-01 -1.6269e-01
      1013 3.4074e+01 2.3656e-11 3.9470e-01 -2.1879e-01 3.0592e-01 -1.6260e-01
      1014 3.0921e+00 1.2635e-04 3.9510e-01 -2.1877e-01 3.0627e-01 -1.6261e-01
      1015 2.0970e+01 1.6570e-08 3.9522e-01 -2.1896e-01 3.0636e-01 -1.6268e-01
      1016 9.6393e+00 4.7846e-06 3.9482e-01 -2.1887e-01 3.0603e-01 -1.6266e-01
      1017 6.2822e-01 4.3309e-04 3.9494e-01 -2.1887e-01 3.0612e-01 -1.6267e-01
      1018 7.4827e-01 4.0786e-04 3.9491e-01 -2.1893e-01 3.0611e-01 -1.6269e-01
      1019 3.2899e-01 5.0299e-04 3.9493e-01 -2.1891e-01 3.0613e-01 -1.6267e-01
      1020 2.0424e+00 2.1355e-04 3.9488e-01 -2.1885e-01 3.0609e-01 -1.6265e-01
      1021 2.0162e+01 2.4824e-08 3.9467e-01 -2.1904e-01 3.0590e-01 -1.6273e-01
      1022 6.1328e-01 4.3634e-04 3.9501e-01 -2.1894e-01 3.0619e-01 -1.6269e-01
      1023 4.2333e+00 7.1408e-05 3.9509e-01 -2.1884e-01 3.0624e-01 -1.6265e-01
      1024 1.3494e-03 5.9252e-04 3.9496e-01 -2.1885e-01 3.0615e-01 -1.6261e-01
      1025 3.3987e-02 5.8293e-04 3.9500e-01 -2.1886e-01 3.0619e-01 -1.6266e-01
      1026 2.5101e-03 5.9218e-04 3.9493e-01 -2.1898e-01 3.0612e-01 -1.6269e-01
      1027 3.3126e+01 3.8007e-11 3.9526e-01 -2.1899e-01 3.0641e-01 -1.6271e-01
      1028 4.7871e-01 4.6671e-04 3.9502e-01 -2.1889e-01 3.0619e-01 -1.6266e-01
      1029 1.5990e+01 1.9988e-07 3.9473e-01 -2.1900e-01 3.0595e-01 -1.6270e-01
      1030 5.9891e-01 4.3949e-04 3.9493e-01 -2.1885e-01 3.0612e-01 -1.6265e-01
      1031 6.7061e-01 4.2401e-04 3.9496e-01 -2.1899e-01 3.0615e-01 -1.6269e-01
      1032 1.7199e+00 2.5091e-04 3.9507e-01 -2.1892e-01 3.0624e-01 -1.6268e-01
      1033 8.1713e+00 9.9682e-06 3.9481e-01 -2.1884e-01 3.0603e-01 -1.6263e-01
      1034 9.0272e+00 6.4977e-06 3.9483e-01 -2.1880e-01 3.0603e-01 -1.6263e-01
      1035 1.4022e+00 2.9412e-04 3.9494e-01 -2.1872e-01 3.0611e-01 -1.6254e-01
      1036 1.3987e-01 5.5287e-04 3.9500e-01 -2.1888e-01 3.0619e-01 -1.6267e-01
      1037 1.3385e+00 3.0364e-04 3.9503e-01 -2.1889e-01 3.0622e-01 -1.6266e-01
      1038 1.8349e-01 5.4094e-04 3.9499e-01 -2.1894e-01 3.0616e-01 -1.6269e-01
      1039 3.9795e+00 8.1068e-05 3.9509e-01 -2.1874e-01 3.0625e-01 -1.6257e-01
      1040 1.0268e-01 5.6325e-04 3.9499e-01 -2.1874e-01 3.0618e-01 -1.6260e-01
      1041 1.0808e+01 2.6676e-06 3.9518e-01 -2.1893e-01 3.0634e-01 -1.6268e-01
      1042 5.5942e-02 5.7657e-04 3.9498e-01 -2.1892e-01 3.0617e-01 -1.6268e-01
      1043 2.4823e+00 1.7139e-04 3.9489e-01 -2.1886e-01 3.0608e-01 -1.6266e-01
      1044 1.3269e+01 7.7908e-07 3.9478e-01 -2.1885e-01 3.0599e-01 -1.6267e-01
      1045 1.5332e+00 2.7546e-04 3.9504e-01 -2.1890e-01 3.0621e-01 -1.6268e-01
      1046 1.0801e-01 5.6175e-04 3.9500e-01 -2.1881e-01 3.0618e-01 -1.6265e-01
      1047 1.7931e+00 2.4190e-04 3.9508e-01 -2.1881e-01 3.0625e-01 -1.6262e-01
      1048 1.7022e+01 1.1931e-07 3.9519e-01 -2.1895e-01 3.0635e-01 -1.6269e-01
      1049 1.2938e+00 3.1049e-04 3.9501e-01 -2.1898e-01 3.0618e-01 -1.6270e-01
      1050 1.4424e+01 4.3746e-07 3.9475e-01 -2.1890e-01 3.0597e-01 -1.6267e-01
      1051 5.4612e-03 5.9130e-04 3.9495e-01 -2.1899e-01 3.0614e-01 -1.6270e-01
      1052 1.7526e-01 5.4318e-04 3.9494e-01 -2.1904e-01 3.0614e-01 -1.6271e-01
      1053 7.4794e-02 5.7116e-04 3.9498e-01 -2.1884e-01 3.0616e-01 -1.6265e-01
      1054 1.3952e-01 5.5297e-04 3.9500e-01 -2.1892e-01 3.0619e-01 -1.6269e-01
      1055 1.2876e+01 9.4845e-07 3.9515e-01 -2.1884e-01 3.0630e-01 -1.6265e-01
      1056 1.3584e+00 3.0063e-04 3.9495e-01 -2.1867e-01 3.0614e-01 -1.6249e-01
      1057 2.5085e+01 2.1176e-09 3.9469e-01 -2.1887e-01 3.0592e-01 -1.6266e-01
      1058 1.7474e+00 2.4748e-04 3.9508e-01 -2.1879e-01 3.0625e-01 -1.6263e-01
      1059 4.4152e-01 4.7547e-04 3.9504e-01 -2.1883e-01 3.0621e-01 -1.6262e-01
      1060 2.3106e+00 1.8675e-04 3.9491e-01 -2.1880e-01 3.0611e-01 -1.6262e-01
      1061 6.4135e+00 2.4006e-05 3.9485e-01 -2.1893e-01 3.0603e-01 -1.6269e-01
      1062 2.1370e-03 5.9229e-04 3.9501e-01 -2.1876e-01 3.0618e-01 -1.6257e-01
      1063 7.8184e+00 1.1892e-05 3.9518e-01 -2.1881e-01 3.0634e-01 -1.6262e-01
      1064 1.2228e+01 1.3113e-06 3.9480e-01 -2.1886e-01 3.0602e-01 -1.6264e-01
      1065 2.0568e+01 2.0261e-08 3.9523e-01 -2.1893e-01 3.0639e-01 -1.6269e-01
      1066 2.9657e+00 1.3459e-04 3.9509e-01 -2.1882e-01 3.0626e-01 -1.6264e-01
      1067 7.0038e-02 5.7252e-04 3.9496e-01 -2.1885e-01 3.0613e-01 -1.6265e-01
      1068 1.1961e+00 3.2604e-04 3.9507e-01 -2.1873e-01 3.0624e-01 -1.6257e-01
      1069 8.9333e+00 6.8102e-06 3.9519e-01 -2.1857e-01 3.0634e-01 -1.6250e-01
      1070 4.1977e-01 4.8067e-04 3.9489e-01 -2.1900e-01 3.0608e-01 -1.6271e-01
      1071 5.8644e+00 3.1591e-05 3.9484e-01 -2.1880e-01 3.0606e-01 -1.6262e-01
      1072 3.1964e-01 5.0534e-04 3.9502e-01 -2.1874e-01 3.0620e-01 -1.6259e-01
      1073 2.0572e+01 2.0226e-08 3.9470e-01 -2.1896e-01 3.0593e-01 -1.6269e-01
      1074 1.5803e+00 2.6906e-04 3.9491e-01 -2.1892e-01 3.0611e-01 -1.6267e-01
      1075 4.8199e+00 5.3257e-05 3.9484e-01 -2.1888e-01 3.0603e-01 -1.6264e-01
      1076 3.7686e+00 9.0085e-05 3.9508e-01 -2.1877e-01 3.0626e-01 -1.6261e-01
      1077 1.0216e+00 3.5577e-04 3.9505e-01 -2.1888e-01 3.0621e-01 -1.6267e-01
      1078 8.6533e+00 7.8334e-06 3.9482e-01 -2.1882e-01 3.0601e-01 -1.6266e-01
      1079 2.6922e-01 5.1825e-04 3.9499e-01 -2.1884e-01 3.0618e-01 -1.6260e-01
      1080 2.0251e+01 2.3747e-08 3.9529e-01 -2.1875e-01 3.0643e-01 -1.6260e-01
      1081 3.9059e+00 8.4107e-05 3.9507e-01 -2.1894e-01 3.0626e-01 -1.6269e-01
      1082 1.9268e+01 3.8820e-08 3.9471e-01 -2.1888e-01 3.0594e-01 -1.6266e-01
      1083 6.1307e-01 4.3639e-04 3.9503e-01 -2.1887e-01 3.0620e-01 -1.6267e-01
      1084 1.5122e+01 3.0859e-07 3.9517e-01 -2.1889e-01 3.0633e-01 -1.6266e-01
      1085 3.8439e-01 4.8925e-04 3.9495e-01 -2.1887e-01 3.0613e-01 -1.6264e-01
      1086 2.3414e+00 1.8390e-04 3.9489e-01 -2.1885e-01 3.0609e-01 -1.6262e-01
      1087 2.3918e-02 5.8587e-04 3.9499e-01 -2.1887e-01 3.0617e-01 -1.6265e-01
      1088 3.8458e-01 4.8920e-04 3.9502e-01 -2.1885e-01 3.0620e-01 -1.6265e-01
      1089 8.9720e-01 3.7859e-04 3.9505e-01 -2.1886e-01 3.0623e-01 -1.6266e-01
      1090 1.4841e+01 3.5510e-07 3.9474e-01 -2.1896e-01 3.0596e-01 -1.6269e-01
      1091 7.1645e+00 1.6491e-05 3.9516e-01 -2.1884e-01 3.0630e-01 -1.6262e-01
      1092 6.5390e+01 3.7477e-18 3.9452e-01 -2.1889e-01 3.0577e-01 -1.6268e-01
      1093 5.2298e+00 4.3387e-05 3.9484e-01 -2.1888e-01 3.0603e-01 -1.6266e-01
      1094 4.3479e+00 6.7431e-05 3.9489e-01 -2.1883e-01 3.0608e-01 -1.6264e-01
      1095 3.2868e-01 5.0307e-04 3.9497e-01 -2.1881e-01 3.0615e-01 -1.6263e-01
      1096 8.7034e+00 7.6398e-06 3.9484e-01 -2.1881e-01 3.0603e-01 -1.6263e-01
      1097 3.7993e+00 8.8711e-05 3.9486e-01 -2.1890e-01 3.0606e-01 -1.6264e-01
      1098 1.9895e-01 5.3678e-04 3.9497e-01 -2.1883e-01 3.0615e-01 -1.6262e-01
      1099 8.6471e+00 7.8578e-06 3.9481e-01 -2.1880e-01 3.0602e-01 -1.6263e-01
      1100 2.1759e+00 1.9976e-04 3.9489e-01 -2.1888e-01 3.0609e-01 -1.6267e-01
      1101 1.0274e+01 3.4831e-06 3.9516e-01 -2.1887e-01 3.0631e-01 -1.6267e-01
      1102 3.5541e+00 1.0029e-04 3.9510e-01 -2.1884e-01 3.0627e-01 -1.6262e-01
      1103 1.1758e+00 3.2937e-04 3.9504e-01 -2.1885e-01 3.0622e-01 -1.6264e-01
      1104 1.4683e+00 2.8456e-04 3.9491e-01 -2.1888e-01 3.0610e-01 -1.6264e-01
      1105 7.3867e-03 5.9074e-04 3.9503e-01 -2.1880e-01 3.0621e-01 -1.6265e-01
      1106 3.9601e+01 1.4923e-12 3.9460e-01 -2.1894e-01 3.0584e-01 -1.6270e-01
      1107 1.5118e+00 2.7842e-04 3.9505e-01 -2.1880e-01 3.0623e-01 -1.6265e-01
      1108 3.5175e+00 1.0214e-04 3.9510e-01 -2.1888e-01 3.0626e-01 -1.6268e-01
      1109 5.8646e+00 3.1588e-05 3.9514e-01 -2.1886e-01 3.0629e-01 -1.6262e-01
      1110 2.8102e+01 4.6846e-10 3.9524e-01 -2.1882e-01 3.0639e-01 -1.6265e-01
      1111 6.0429e+00 2.8894e-05 3.9508e-01 -2.1891e-01 3.0625e-01 -1.6266e-01
      1112 1.1354e+01 2.0297e-06 3.9516e-01 -2.1883e-01 3.0632e-01 -1.6260e-01
      1113 2.2850e+00 1.8916e-04 3.9505e-01 -2.1893e-01 3.0623e-01 -1.6267e-01
      1114 9.1363e-01 3.7549e-04 3.9494e-01 -2.1876e-01 3.0613e-01 -1.6258e-01
      1115 1.7169e+01 1.1086e-07 3.9475e-01 -2.1880e-01 3.0595e-01 -1.6265e-01
      1116 1.0332e+01 3.3846e-06 3.9514e-01 -2.1897e-01 3.0629e-01 -1.6270e-01
      1117 3.6588e-02 5.8217e-04 3.9493e-01 -2.1891e-01 3.0613e-01 -1.6268e-01
      1118 1.0023e+00 3.5922e-04 3.9496e-01 -2.1884e-01 3.0614e-01 -1.6266e-01
      1119 2.5738e+01 1.5280e-09 3.9531e-01 -2.1882e-01 3.0644e-01 -1.6265e-01
      1120 2.4841e+00 1.7123e-04 3.9508e-01 -2.1887e-01 3.0625e-01 -1.6267e-01
      1121 6.2769e+00 2.5703e-05 3.9514e-01 -2.1871e-01 3.0630e-01 -1.6258e-01
      1122 4.5398e+00 6.1263e-05 3.9509e-01 -2.1891e-01 3.0626e-01 -1.6267e-01
      1123 4.7783e+00 5.4375e-05 3.9485e-01 -2.1887e-01 3.0605e-01 -1.6265e-01
      1124 2.2885e+00 1.8882e-04 3.9506e-01 -2.1885e-01 3.0624e-01 -1.6264e-01
      1125 7.1644e-01 4.1440e-04 3.9496e-01 -2.1862e-01 3.0614e-01 -1.6250e-01
      1126 2.1231e+01 1.4543e-08 3.9472e-01 -2.1886e-01 3.0595e-01 -1.6264e-01
      1127 2.9855e-01 5.1070e-04 3.9495e-01 -2.1883e-01 3.0613e-01 -1.6265e-01
      1128 6.5683e-01 4.2694e-04 3.9492e-01 -2.1890e-01 3.0612e-01 -1.6267e-01
      1129 2.2585e+00 1.9167e-04 3.9506e-01 -2.1887e-01 3.0623e-01 -1.6266e-01
      1130 1.0277e+01 3.4776e-06 3.9479e-01 -2.1892e-01 3.0600e-01 -1.6268e-01
      1131 2.1189e-02 5.8667e-04 3.9495e-01 -2.1884e-01 3.0614e-01 -1.6266e-01
      1132 6.7364e+00 2.0427e-05 3.9483e-01 -2.1881e-01 3.0604e-01 -1.6259e-01
      1133 5.3039e-01 4.5480e-04 3.9501e-01 -2.1889e-01 3.0618e-01 -1.6267e-01
      1134 7.3196e-01 4.1120e-04 3.9504e-01 -2.1874e-01 3.0621e-01 -1.6253e-01
      1135 1.3399e+01 7.3038e-07 3.9475e-01 -2.1879e-01 3.0596e-01 -1.6263e-01
      1136 1.9138e-01 5.3881e-04 3.9499e-01 -2.1883e-01 3.0617e-01 -1.6265e-01
      1137 1.6937e+00 2.5422e-04 3.9503e-01 -2.1895e-01 3.0621e-01 -1.6265e-01
      1138 2.0188e+00 2.1608e-04 3.9508e-01 -2.1887e-01 3.0625e-01 -1.6265e-01
      1139 6.0322e-02 5.7530e-04 3.9500e-01 -2.1887e-01 3.0617e-01 -1.6265e-01
      1140 3.0529e+00 1.2885e-04 3.9490e-01 -2.1872e-01 3.0610e-01 -1.6257e-01
      1141 1.2106e+01 1.3938e-06 3.9475e-01 -2.1897e-01 3.0597e-01 -1.6267e-01
      1142 1.2158e+01 1.3582e-06 3.9480e-01 -2.1876e-01 3.0601e-01 -1.6258e-01
      1143 6.0913e-02 5.7514e-04 3.9499e-01 -2.1884e-01 3.0618e-01 -1.6264e-01
      1144 2.0705e+00 2.1057e-04 3.9492e-01 -2.1888e-01 3.0611e-01 -1.6268e-01
      1145 6.3200e+00 2.5155e-05 3.9478e-01 -2.1896e-01 3.0600e-01 -1.6269e-01
      1146 6.5028e+00 2.2958e-05 3.9479e-01 -2.1896e-01 3.0601e-01 -1.6268e-01
      1147 2.7904e-01 5.1571e-04 3.9502e-01 -2.1890e-01 3.0619e-01 -1.6267e-01
      1148 1.8152e+00 2.3923e-04 3.9490e-01 -2.1885e-01 3.0610e-01 -1.6265e-01
      1149 1.2044e+01 1.4379e-06 3.9477e-01 -2.1885e-01 3.0598e-01 -1.6260e-01
      1150 1.6265e+00 2.6291e-04 3.9510e-01 -2.1874e-01 3.0626e-01 -1.6257e-01
      1151 5.1428e+00 4.5317e-05 3.9510e-01 -2.1886e-01 3.0628e-01 -1.6262e-01
      1152 8.6571e+00 7.8187e-06 3.9514e-01 -2.1882e-01 3.0631e-01 -1.6260e-01
      1153 4.4190e+01 1.5044e-13 3.9536e-01 -2.1887e-01 3.0648e-01 -1.6266e-01
      1154 1.5324e-01 5.4919e-04 3.9489e-01 -2.1891e-01 3.0610e-01 -1.6268e-01
      1155 7.3402e-01 4.1078e-04 3.9493e-01 -2.1890e-01 3.0611e-01 -1.6268e-01
      1156 2.3352e-01 5.2758e-04 3.9490e-01 -2.1894e-01 3.0609e-01 -1.6269e-01
      1157 4.5827e+00 5.9961e-05 3.9480e-01 -2.1896e-01 3.0601e-01 -1.6270e-01
      1158 4.0759e-01 4.8360e-04 3.9505e-01 -2.1880e-01 3.0622e-01 -1.6262e-01
      1159 2.6567e+00 1.5707e-04 3.9502e-01 -2.1899e-01 3.0621e-01 -1.6271e-01
      1160 4.2002e+00 7.2601e-05 3.9512e-01 -2.1881e-01 3.0628e-01 -1.6262e-01
      1161 1.9992e+01 2.7033e-08 3.9524e-01 -2.1886e-01 3.0638e-01 -1.6267e-01
      1162 6.1295e-01 4.3641e-04 3.9492e-01 -2.1879e-01 3.0611e-01 -1.6262e-01
      1163 9.1341e+00 6.1596e-06 3.9479e-01 -2.1877e-01 3.0602e-01 -1.6260e-01
      1164 2.5102e-01 5.2298e-04 3.9500e-01 -2.1886e-01 3.0619e-01 -1.6265e-01
      1165 1.0100e+01 3.7999e-06 3.9480e-01 -2.1890e-01 3.0601e-01 -1.6268e-01
      1166 1.1355e+01 2.0293e-06 3.9483e-01 -2.1879e-01 3.0603e-01 -1.6259e-01
      1167 2.5947e+00 1.6202e-04 3.9504e-01 -2.1893e-01 3.0621e-01 -1.6268e-01
      1168 1.0450e+01 3.1902e-06 3.9480e-01 -2.1886e-01 3.0601e-01 -1.6266e-01
      1169 9.3340e-01 3.7180e-04 3.9505e-01 -2.1876e-01 3.0623e-01 -1.6258e-01
      1170 2.5108e+00 1.6896e-04 3.9511e-01 -2.1887e-01 3.0627e-01 -1.6266e-01
      1171 7.4159e+00 1.4543e-05 3.9478e-01 -2.1897e-01 3.0601e-01 -1.6270e-01
      1172 4.8151e+00 5.3384e-05 3.9509e-01 -2.1889e-01 3.0626e-01 -1.6266e-01
      1173 2.1553e-01 5.3235e-04 3.9498e-01 -2.1894e-01 3.0617e-01 -1.6268e-01
      1174 7.7606e+00 1.2241e-05 3.9479e-01 -2.1882e-01 3.0602e-01 -1.6265e-01
      1175 1.3531e+01 6.8373e-07 3.9475e-01 -2.1882e-01 3.0598e-01 -1.6265e-01
      1176 2.1202e-02 5.8667e-04 3.9497e-01 -2.1877e-01 3.0615e-01 -1.6260e-01
      1177 1.7196e+00 2.5095e-04 3.9490e-01 -2.1886e-01 3.0609e-01 -1.6265e-01
      1178 1.5704e+01 2.3063e-07 3.9521e-01 -2.1873e-01 3.0637e-01 -1.6259e-01
      1179 1.9414e+00 2.2461e-04 3.9506e-01 -2.1892e-01 3.0623e-01 -1.6268e-01
      1180 1.6950e+01 1.2367e-07 3.9519e-01 -2.1890e-01 3.0635e-01 -1.6269e-01
      1181 1.3677e+01 6.3529e-07 3.9523e-01 -2.1874e-01 3.0638e-01 -1.6258e-01
      1182 1.2767e+00 3.1315e-04 3.9494e-01 -2.1892e-01 3.0612e-01 -1.6268e-01
      1183 5.0511e-01 4.6059e-04 3.9493e-01 -2.1886e-01 3.0612e-01 -1.6266e-01
      1184 2.3430e+00 1.8375e-04 3.9509e-01 -2.1873e-01 3.0625e-01 -1.6258e-01
      1185 1.0395e+00 3.5260e-04 3.9493e-01 -2.1884e-01 3.0612e-01 -1.6264e-01
      1186 6.8320e+00 1.9474e-05 3.9484e-01 -2.1891e-01 3.0604e-01 -1.6267e-01
      1187 2.2308e+00 1.9435e-04 3.9489e-01 -2.1886e-01 3.0608e-01 -1.6266e-01
      1188 2.9896e-01 5.1060e-04 3.9502e-01 -2.1884e-01 3.0620e-01 -1.6264e-01
      1189 1.4212e+01 4.8635e-07 3.9478e-01 -2.1885e-01 3.0599e-01 -1.6265e-01
      1190 9.0153e-02 5.6679e-04 3.9497e-01 -2.1894e-01 3.0616e-01 -1.6268e-01
      1191 2.7910e-01 5.1569e-04 3.9502e-01 -2.1888e-01 3.0619e-01 -1.6266e-01
      1192 9.4729e+00 5.1997e-06 3.9516e-01 -2.1891e-01 3.0630e-01 -1.6268e-01
      1193 1.5407e+01 2.6759e-07 3.9474e-01 -2.1891e-01 3.0596e-01 -1.6267e-01
      1194 9.3456e-01 3.7159e-04 3.9504e-01 -2.1879e-01 3.0622e-01 -1.6260e-01
      1195 5.3087e-01 4.5469e-04 3.9503e-01 -2.1892e-01 3.0620e-01 -1.6268e-01
      1196 1.2061e-02 5.8936e-04 3.9498e-01 -2.1884e-01 3.0615e-01 -1.6265e-01
      1197 3.8306e+00 8.7338e-05 3.9506e-01 -2.1896e-01 3.0623e-01 -1.6267e-01
      1198 5.2214e+00 4.3569e-05 3.9512e-01 -2.1890e-01 3.0628e-01 -1.6265e-01
      1199 3.6537e+00 9.5414e-05 3.9490e-01 -2.1872e-01 3.0611e-01 -1.6254e-01
      1200 1.3913e-01 5.5308e-04 3.9498e-01 -2.1880e-01 3.0617e-01 -1.6265e-01
      1201 2.8047e+00 1.4587e-04 3.9488e-01 -2.1874e-01 3.0609e-01 -1.6260e-01
      1202 1.5912e+01 2.0783e-07 3.9474e-01 -2.1882e-01 3.0596e-01 -1.6261e-01
      1203 7.7221e-04 5.9269e-04 3.9499e-01 -2.1882e-01 3.0617e-01 -1.6266e-01
      1204 4.4438e-02 5.7989e-04 3.9502e-01 -2.1883e-01 3.0620e-01 -1.6266e-01
      1205 1.5362e+00 2.7505e-04 3.9505e-01 -2.1880e-01 3.0624e-01 -1.6263e-01
      1206 2.3698e+00 1.8131e-04 3.9505e-01 -2.1889e-01 3.0623e-01 -1.6268e-01
      1207 4.7783e+00 5.4375e-05 3.9507e-01 -2.1891e-01 3.0626e-01 -1.6267e-01
      1208 8.4844e-01 3.8794e-04 3.9504e-01 -2.1887e-01 3.0622e-01 -1.6267e-01
      1209 3.5180e-01 4.9728e-04 3.9500e-01 -2.1877e-01 3.0620e-01 -1.6257e-01
      1210 2.9255e+01 2.6319e-10 3.9523e-01 -2.1897e-01 3.0638e-01 -1.6268e-01
      1211 1.9664e+01 3.1838e-08 3.9475e-01 -2.1881e-01 3.0598e-01 -1.6261e-01
      1212 1.4687e+00 2.8450e-04 3.9502e-01 -2.1882e-01 3.0621e-01 -1.6262e-01
      1213 3.6056e-03 5.9185e-04 3.9497e-01 -2.1893e-01 3.0614e-01 -1.6267e-01
      1214 4.3119e-01 4.7793e-04 3.9492e-01 -2.1894e-01 3.0610e-01 -1.6270e-01
      1215 2.7261e-02 5.8489e-04 3.9501e-01 -2.1876e-01 3.0619e-01 -1.6261e-01
      1216 7.9748e-01 3.9795e-04 3.9490e-01 -2.1887e-01 3.0609e-01 -1.6264e-01
      1217 2.3040e+01 5.8884e-09 3.9466e-01 -2.1897e-01 3.0589e-01 -1.6270e-01
      1218 6.1783e+00 2.7002e-05 3.9507e-01 -2.1895e-01 3.0625e-01 -1.6268e-01
      1219 1.8329e-01 5.4100e-04 3.9498e-01 -2.1891e-01 3.0617e-01 -1.6269e-01
      1220 4.2919e-01 4.7841e-04 3.9495e-01 -2.1878e-01 3.0615e-01 -1.6261e-01
      1221 2.6019e+00 1.6144e-04 3.9510e-01 -2.1874e-01 3.0627e-01 -1.6259e-01
      1222 4.7922e-01 4.6659e-04 3.9491e-01 -2.1895e-01 3.0611e-01 -1.6268e-01
      1223 2.4240e+00 1.7646e-04 3.9492e-01 -2.1879e-01 3.0611e-01 -1.6263e-01
      1224 2.1646e+01 1.1818e-08 3.9520e-01 -2.1900e-01 3.0635e-01 -1.6270e-01
      1225 2.9607e+00 1.3492e-04 3.9490e-01 -2.1880e-01 3.0609e-01 -1.6263e-01
      1226 1.1743e+00 3.2960e-04 3.9492e-01 -2.1885e-01 3.0610e-01 -1.6264e-01
      1227 9.6705e-01 3.6560e-04 3.9492e-01 -2.1881e-01 3.0612e-01 -1.6265e-01
      1228 8.8664e+00 7.0419e-06 3.9478e-01 -2.1875e-01 3.0600e-01 -1.6257e-01
      1229 1.9668e+00 2.2177e-04 3.9490e-01 -2.1879e-01 3.0609e-01 -1.6262e-01
      1230 1.0625e+01 2.9228e-06 3.9480e-01 -2.1890e-01 3.0602e-01 -1.6268e-01
      1231 6.4258e-01 4.2999e-04 3.9506e-01 -2.1887e-01 3.0623e-01 -1.6265e-01
      1232 2.6382e+01 1.1073e-09 3.9470e-01 -2.1887e-01 3.0593e-01 -1.6263e-01
      1233 8.9638e-01 3.7875e-04 3.9490e-01 -2.1890e-01 3.0612e-01 -1.6266e-01
      1234 2.4298e-01 5.2509e-04 3.9496e-01 -2.1887e-01 3.0613e-01 -1.6265e-01
      1235 1.5132e+00 2.7823e-04 3.9507e-01 -2.1875e-01 3.0624e-01 -1.6259e-01
      1236 5.3606e+00 4.0640e-05 3.9512e-01 -2.1871e-01 3.0630e-01 -1.6256e-01
      1237 6.2748e+00 2.5731e-05 3.9482e-01 -2.1894e-01 3.0603e-01 -1.6269e-01
      1238 5.1654e-01 4.5797e-04 3.9492e-01 -2.1882e-01 3.0612e-01 -1.6266e-01
      1239 2.7518e+01 6.2744e-10 3.9526e-01 -2.1881e-01 3.0641e-01 -1.6260e-01
      1240 1.4238e+00 2.9095e-04 3.9506e-01 -2.1885e-01 3.0623e-01 -1.6266e-01
      1241 2.0732e-01 5.3454e-04 3.9492e-01 -2.1892e-01 3.0612e-01 -1.6268e-01
      1242 2.9025e+00 1.3891e-04 3.9506e-01 -2.1886e-01 3.0623e-01 -1.6266e-01
      1243 1.3198e+01 8.0728e-07 3.9515e-01 -2.1887e-01 3.0630e-01 -1.6263e-01
      1244 1.0283e+01 3.4680e-06 3.9514e-01 -2.1889e-01 3.0631e-01 -1.6267e-01
      1245 2.0424e+00 2.1355e-04 3.9505e-01 -2.1883e-01 3.0621e-01 -1.6262e-01
      1246 5.0354e-01 4.6095e-04 3.9499e-01 -2.1902e-01 3.0617e-01 -1.6270e-01
      1247 2.7011e-01 5.1802e-04 3.9504e-01 -2.1887e-01 3.0622e-01 -1.6264e-01
      1248 6.1802e+00 2.6976e-05 3.9485e-01 -2.1887e-01 3.0605e-01 -1.6265e-01
      1249 2.0684e+00 2.1079e-04 3.9494e-01 -2.1884e-01 3.0612e-01 -1.6266e-01
      1250 5.4741e+00 3.8398e-05 3.9485e-01 -2.1886e-01 3.0606e-01 -1.6266e-01
      1251 5.3888e+00 4.0071e-05 3.9488e-01 -2.1876e-01 3.0608e-01 -1.6259e-01
      1252 1.2351e+00 3.1974e-04 3.9488e-01 -2.1894e-01 3.0609e-01 -1.6269e-01
      1253 1.8633e-03 5.9237e-04 3.9499e-01 -2.1893e-01 3.0616e-01 -1.6267e-01
      1254 7.9577e-01 3.9829e-04 3.9494e-01 -2.1874e-01 3.0613e-01 -1.6256e-01
      1255 2.5682e+00 1.6418e-04 3.9492e-01 -2.1876e-01 3.0610e-01 -1.6258e-01
      1256 4.3154e+00 6.8537e-05 3.9479e-01 -2.1894e-01 3.0600e-01 -1.6269e-01
      1257 2.0217e+00 2.1577e-04 3.9487e-01 -2.1893e-01 3.0607e-01 -1.6267e-01
      1258 9.5987e+00 4.8828e-06 3.9520e-01 -2.1878e-01 3.0635e-01 -1.6264e-01
      1259 1.1392e-01 5.6009e-04 3.9498e-01 -2.1891e-01 3.0618e-01 -1.6264e-01
      1260 8.9299e+00 6.8217e-06 3.9516e-01 -2.1868e-01 3.0633e-01 -1.6251e-01
      1261 1.0768e+00 3.4608e-04 3.9492e-01 -2.1878e-01 3.0612e-01 -1.6259e-01
      1262 8.2825e+00 9.4293e-06 3.9515e-01 -2.1883e-01 3.0631e-01 -1.6263e-01
      1263 5.1410e+00 4.5356e-05 3.9508e-01 -2.1894e-01 3.0625e-01 -1.6269e-01
      1264 9.0169e-02 5.6678e-04 3.9494e-01 -2.1877e-01 3.0615e-01 -1.6258e-01
