         0 0.0000e+00 7.0240e-04 3.9497e-01 -2.1892e-01 3.1042e-01 -1.5662e-01
         1 3.7629e+00 1.0702e-04 3.9464e-01 -2.1804e-01 3.1002e-01 -1.5604e-01
         2 7.1765e+00 1.9419e-05 3.9354e-01 -2.1716e-01 3.0919e-01 -1.5554e-01
         3 5.3727e+00 4.7853e-05 3.9407e-01 -2.1818e-01 3.0957e-01 -1.5620e-01
         4 4.6635e+01 5.2461e-14 3.9193e-01 -2.1843e-01 3.0770e-01 -1.5635e-01
         5 3.6087e+00 1.1560e-04 3.9409e-01 -2.1771e-01 3.0971e-01 -1.5627e-01
         6 2.5481e+01 2.0583e-09 3.9772e-01 -2.1772e-01 3.1283e-01 -1.5593e-01
         7 9.9271e-01 4.2758e-04 3.9549e-01 -2.1773e-01 3.1088e-01 -1.5582e-01
         8 4.3905e+01 2.0542e-13 3.9211e-01 -2.1769e-01 3.0792e-01 -1.5600e-01
         9 9.5451e-01 4.3583e-04 3.9496e-01 -2.1880e-01 3.1053e-01 -1.5655e-01
        10 4.0104e-01 5.7478e-04 3.9515e-01 -2.1756e-01 3.1048e-01 -1.5571e-01
        11 4.3925e+01 2.0345e-13 3.9187e-01 -2.1779e-01 3.0778e-01 -1.5592e-01
        12 4.7071e+00 6.6751e-05 3.9393e-01 -2.1794e-01 3.0944e-01 -1.5608e-01
        13 2.3825e+00 2.1341e-04 3.9389e-01 -2.1903e-01 3.0960e-01 -1.5650e-01
        14 1.4786e+01 4.3239e-07 3.9298e-01 -2.1799e-01 3.0878e-01 -1.5622e-01
        15 8.4752e+00 1.0144e-05 3.9664e-01 -2.1737e-01 3.1179e-01 -1.5571e-01
        16 3.9690e+01 1.6906e-12 3.9725e-01 -2.1883e-01 3.1263e-01 -1.5642e-01
        17 1.0873e+01 3.0585e-06 3.9621e-01 -2.1885e-01 3.1150e-01 -1.5635e-01
        18 3.7794e+00 1.0614e-04 3.9568e-01 -2.1835e-01 3.1116e-01 -1.5615e-01
        19 1.0288e+00 4.1994e-04 3.9532e-01 -2.1827e-01 3.1079e-01 -1.5601e-01
        20 2.2524e+01 9.0279e-09 3.9749e-01 -2.1809e-01 3.1258e-01 -1.5618e-01
        21 1.9367e+01 4.3755e-08 3.9702e-01 -2.1767e-01 3.1217e-01 -1.5583e-01
        22 1.7203e-01 6.4451e-04 3.9416e-01 -2.1784e-01 3.0997e-01 -1.5563e-01
        23 4.5845e+00 7.0969e-05 3.9593e-01 -2.1925e-01 3.1130e-01 -1.5667e-01
        24 1.9030e+00 2.7124e-04 3.9551e-01 -2.1789e-01 3.1094e-01 -1.5627e-01
        25 7.4549e-03 6.9979e-04 3.9518e-01 -2.1796e-01 3.1049e-01 -1.5617e-01
        26 9.5685e-03 6.9905e-04 3.9489e-01 -2.1904e-01 3.1032e-01 -1.5660e-01
        27 1.3298e+01 9.0962e-07 3.9355e-01 -2.1929e-01 3.0913e-01 -1.5662e-01
        28 3.1936e+01 8.1615e-11 3.9748e-01 -2.1852e-01 3.1260e-01 -1.5612e-01
        29 8.3403e-01 4.6289e-04 3.9508e-01 -2.1954e-01 3.1062e-01 -1.5659e-01
        30 2.2091e-01 6.2895e-04 3.9463e-01 -2.1663e-01 3.1020e-01 -1.5536e-01
        31 5.5838e+00 4.3060e-05 3.9619e-01 -2.1906e-01 3.1142e-01 -1.5611e-01
        32 1.0077e+01 4.5548e-06 3.9335e-01 -2.1771e-01 3.0894e-01 -1.5560e-01
        33 4.3883e+00 7.8284e-05 3.9376e-01 -2.1777e-01 3.0944e-01 -1.5615e-01
        34 7.2980e+00 1.8274e-05 3.9645e-01 -2.1713e-01 3.1162e-01 -1.5510e-01
        35 3.2108e+00 1.4105e-04 3.9619e-01 -2.1628e-01 3.1140e-01 -1.5535e-01
        36 7.6275e+00 1.5499e-05 3.9364e-01 -2.1943e-01 3.0924e-01 -1.5668e-01
        37 3.1020e-01 6.0149e-04 3.9505e-01 -2.1872e-01 3.1059e-01 -1.5612e-01
        38 3.4032e+01 2.8613e-11 3.9775e-01 -2.1743e-01 3.1286e-01 -1.5575e-01
        39 3.0846e+00 1.5024e-04 3.9431e-01 -2.1838e-01 3.0986e-01 -1.5646e-01
        40 2.4411e+01 3.5133e-09 3.9698e-01 -2.1791e-01 3.1219e-01 -1.5582e-01
        41 1.1081e+01 2.7571e-06 3.9656e-01 -2.1989e-01 3.1181e-01 -1.5679e-01
        42 1.3429e+00 3.5890e-04 3.9548e-01 -2.1706e-01 3.1088e-01 -1.5526e-01
        43 1.1374e+00 3.9774e-04 3.9543e-01 -2.1689e-01 3.1083e-01 -1.5555e-01
        44 8.8223e+00 8.5282e-06 3.9399e-01 -2.1874e-01 3.0951e-01 -1.5660e-01
        45 2.3947e+01 4.4324e-09 3.9264e-01 -2.1831e-01 3.0836e-01 -1.5616e-01
        46 5.6549e+01 3.6909e-16 3.9861e-01 -2.1909e-01 3.1351e-01 -1.5648e-01
        47 2.0622e-01 6.3358e-04 3.9497e-01 -2.1929e-01 3.1043e-01 -1.5654e-01
        48 7.3941e-01 4.8531e-04 3.9489e-01 -2.1684e-01 3.1045e-01 -1.5531e-01
        49 2.7466e+01 7.6291e-10 3.9249e-01 -2.1817e-01 3.0826e-01 -1.5610e-01
        50 1.3280e+01 9.1787e-07 3.9628e-01 -2.1892e-01 3.1179e-01 -1.5627e-01
        51 8.8432e-01 4.5139e-04 3.9475e-01 -2.1874e-01 3.1012e-01 -1.5631e-01
        52 8.9420e+01 2.6868e-23 3.9852e-01 -2.1892e-01 3.1380e-01 -1.5626e-01
        53 3.8746e+00 1.0121e-04 3.9421e-01 -2.1779e-01 3.0974e-01 -1.5623e-01
        54 1.2537e+00 3.7527e-04 3.9531e-01 -2.1768e-01 3.1083e-01 -1.5602e-01
        55 2.2616e+01 8.6196e-09 3.9286e-01 -2.1807e-01 3.0850e-01 -1.5569e-01
        56 9.6931e+01 6.2837e-25 3.9044e-01 -2.1877e-01 3.0645e-01 -1.5658e-01
        57 2.9207e+01 3.1944e-10 3.9274e-01 -2.1746e-01 3.0847e-01 -1.5571e-01
        58 4.7292e+00 6.6015e-05 3.9395e-01 -2.1896e-01 3.0951e-01 -1.5663e-01
        59 1.3610e+01 7.7855e-07 3.9325e-01 -2.1800e-01 3.0885e-01 -1.5624e-01
        60 3.5004e+00 1.2203e-04 3.9362e-01 -2.1786e-01 3.0942e-01 -1.5550e-01
        61 1.0720e+01 3.3011e-06 3.9354e-01 -2.1825e-01 3.0919e-01 -1.5607e-01
        62 2.0573e-01 6.3374e-04 3.9494e-01 -2.1949e-01 3.1040e-01 -1.5654e-01
        63 7.7908e-01 4.7578e-04 3.9497e-01 -2.1830e-01 3.1025e-01 -1.5624e-01
        64 5.0679e-01 5.4518e-04 3.9566e-01 -2.1838e-01 3.1099e-01 -1.5634e-01
        65 2.1101e-02 6.9503e-04 3.9493e-01 -2.1865e-01 3.1040e-01 -1.5628e-01
        66 2.5032e+01 2.5759e-09 3.9245e-01 -2.1838e-01 3.0823e-01 -1.5601e-01
        67 1.1211e+00 4.0099e-04 3.9482e-01 -2.1777e-01 3.1036e-01 -1.5575e-01
        68 4.8783e+01 1.7924e-14 3.9162e-01 -2.1780e-01 3.0752e-01 -1.5627e-01
        69 8.5084e-01 4.5901e-04 3.9496e-01 -2.1849e-01 3.1056e-01 -1.5591e-01
        70 4.4327e+00 7.6566e-05 3.9407e-01 -2.1850e-01 3.0954e-01 -1.5645e-01
        71 2.4638e+00 2.0491e-04 3.9609e-01 -2.1916e-01 3.1129e-01 -1.5649e-01
        72 7.7666e+00 1.4458e-05 3.9667e-01 -2.1836e-01 3.1180e-01 -1.5613e-01
        73 5.7715e+00 3.9202e-05 3.9414e-01 -2.1863e-01 3.0970e-01 -1.5616e-01
        74 2.1509e+00 2.3962e-04 3.9592e-01 -2.1850e-01 3.1114e-01 -1.5643e-01
        75 2.6300e+01 1.3664e-09 3.9260e-01 -2.1769e-01 3.0828e-01 -1.5595e-01
        76 6.1489e+00 3.2462e-05 3.9359e-01 -2.1874e-01 3.0928e-01 -1.5621e-01
        77 1.8477e+01 6.8294e-08 3.9683e-01 -2.1784e-01 3.1215e-01 -1.5581e-01
        78 2.0079e+00 2.5738e-04 3.9554e-01 -2.1807e-01 3.1093e-01 -1.5614e-01
        79 3.7837e+01 4.2695e-12 3.9787e-01 -2.1714e-01 3.1298e-01 -1.5554e-01
        80 4.3307e+00 8.0573e-05 3.9422e-01 -2.1814e-01 3.0975e-01 -1.5614e-01
        81 8.4381e-01 4.6063e-04 3.9522e-01 -2.1825e-01 3.1067e-01 -1.5623e-01
        82 3.9973e+00 9.5190e-05 3.9365e-01 -2.1648e-01 3.0941e-01 -1.5477e-01
        83 7.3741e+00 1.7592e-05 3.9647e-01 -2.1908e-01 3.1168e-01 -1.5649e-01
        84 2.4599e+00 2.0531e-04 3.9582e-01 -2.1854e-01 3.1117e-01 -1.5617e-01
        85 4.4696e+00 7.5165e-05 3.9548e-01 -2.1873e-01 3.1103e-01 -1.5600e-01
        86 1.4408e+01 5.2221e-07 3.9677e-01 -2.1818e-01 3.1192e-01 -1.5610e-01
        87 1.1193e+01 2.6059e-06 3.9361e-01 -2.1871e-01 3.0918e-01 -1.5650e-01
        88 1.3098e+00 3.6490e-04 3.9539e-01 -2.1650e-01 3.1083e-01 -1.5544e-01
        89 1.1219e-01 6.6408e-04 3.9520e-01 -2.1884e-01 3.1047e-01 -1.5640e-01
        90 2.8393e+00 1.6984e-04 3.9612e-01 -2.1819e-01 3.1130e-01 -1.5615e-01
        91 1.9411e+01 4.2805e-08 3.9326e-01 -2.1688e-01 3.0882e-01 -1.5564e-01
        92 7.1796e-02 6.7763e-04 3.9579e-01 -2.1915e-01 3.1100e-01 -1.5649e-01
        93 1.5300e+01 3.3441e-07 3.9332e-01 -2.1707e-01 3.0883e-01 -1.5557e-01
        94 1.8689e+01 6.1416e-08 3.9716e-01 -2.1829e-01 3.1228e-01 -1.5640e-01
        95 5.1485e-01 5.4298e-04 3.9503e-01 -2.1849e-01 3.1052e-01 -1.5619e-01
        96 2.6449e-02 6.9317e-04 3.9508e-01 -2.1759e-01 3.1053e-01 -1.5618e-01
        97 1.1226e+00 4.0070e-04 3.9435e-01 -2.1809e-01 3.0983e-01 -1.5615e-01
        98 1.6937e-01 6.4537e-04 3.9464e-01 -2.1859e-01 3.1021e-01 -1.5605e-01
        99 1.5903e+01 2.4732e-07 3.9254e-01 -2.1920e-01 3.0840e-01 -1.5657e-01
       100 3.8254e+00 1.0373e-04 3.9601e-01 -2.1822e-01 3.1125e-01 -1.5612e-01
       101 4.1185e-02 6.8808e-04 3.9521e-01 -2.1839e-01 3.1056e-01 -1.5637e-01
       102 7.1728e+01 1.8663e-19 3.9079e-01 -2.1879e-01 3.0684e-01 -1.5612e-01
       103 4.1790e+00 8.6923e-05 3.9551e-01 -2.1738e-01 3.1094e-01 -1.5564e-01
       104 1.7162e+01 1.3177e-07 3.9642e-01 -2.1731e-01 3.1178e-01 -1.5586e-01
       105 1.4476e+00 3.4059e-04 3.9532e-01 -2.1695e-01 3.1076e-01 -1.5497e-01
       106 8.2396e+00 1.1412e-05 3.9354e-01 -2.1888e-01 3.0920e-01 -1.5637e-01
       107 3.8185e+00 1.0409e-04 3.9609e-01 -2.1797e-01 3.1139e-01 -1.5602e-01
       108 6.4914e+00 2.7352e-05 3.9371e-01 -2.1862e-01 3.0938e-01 -1.5597e-01
       109 1.8396e+00 2.7997e-04 3.9552e-01 -2.1858e-01 3.1093e-01 -1.5616e-01
       110 3.5678e+00 1.1799e-04 3.9407e-01 -2.1844e-01 3.0960e-01 -1.5642e-01
       111 6.4283e+00 2.8229e-05 3.9419e-01 -2.1656e-01 3.0968e-01 -1.5529e-01
       112 1.4079e-01 6.5466e-04 3.9515e-01 -2.1797e-01 3.1056e-01 -1.5631e-01
       113 4.4426e-02 6.8697e-04 3.9454e-01 -2.1854e-01 3.1015e-01 -1.5644e-01
       114 2.3480e-01 6.2460e-04 3.9498e-01 -2.1883e-01 3.1049e-01 -1.5621e-01
       115 2.9576e+01 2.6555e-10 3.9264e-01 -2.1891e-01 3.0833e-01 -1.5628e-01
       116 4.1566e+01 6.6169e-13 3.9702e-01 -2.1872e-01 3.1243e-01 -1.5643e-01
       117 2.4232e+01 3.8429e-09 3.9687e-01 -2.1914e-01 3.1217e-01 -1.5637e-01
       118 6.0994e+01 3.9984e-17 3.9846e-01 -2.1809e-01 3.1346e-01 -1.5609e-01
       119 2.4803e+01 2.8882e-09 3.9246e-01 -2.1915e-01 3.0833e-01 -1.5664e-01
       120 3.9776e+00 9.6131e-05 3.9353e-01 -2.1726e-01 3.0935e-01 -1.5570e-01
       121 1.9602e+01 3.8901e-08 3.9267e-01 -2.1785e-01 3.0843e-01 -1.5578e-01
       122 1.2681e+01 1.2384e-06 3.9311e-01 -2.1822e-01 3.0881e-01 -1.5599e-01
       123 3.1880e+01 8.3922e-11 3.9253e-01 -2.1745e-01 3.0833e-01 -1.5560e-01
       124 2.9983e+01 2.1665e-10 3.9719e-01 -2.1766e-01 3.1248e-01 -1.5564e-01
       125 1.6522e+00 3.0748e-04 3.9445e-01 -2.1895e-01 3.1002e-01 -1.5633e-01
       126 9.8498e+00 5.1017e-06 3.9696e-01 -2.1916e-01 3.1206e-01 -1.5659e-01
       127 1.6292e+00 3.1104e-04 3.9574e-01 -2.1831e-01 3.1109e-01 -1.5612e-01
       128 7.8866e-02 6.7524e-04 3.9521e-01 -2.1866e-01 3.1065e-01 -1.5655e-01
       129 9.7141e-03 6.9900e-04 3.9491e-01 -2.1776e-01 3.1039e-01 -1.5618e-01
       130 1.7041e+00 2.9960e-04 3.9504e-01 -2.1808e-01 3.1065e-01 -1.5607e-01
       131 1.0154e+00 4.2277e-04 3.9442e-01 -2.1701e-01 3.0998e-01 -1.5533e-01
       132 2.0047e+01 3.1153e-08 3.9731e-01 -2.1792e-01 3.1241e-01 -1.5619e-01
       133 2.5559e+01 1.9793e-09 3.9731e-01 -2.1849e-01 3.1250e-01 -1.5578e-01
       134 4.1912e+00 8.6392e-05 3.9442e-01 -2.1870e-01 3.0982e-01 -1.5647e-01
       135 7.9782e+00 1.3006e-05 3.9351e-01 -2.1813e-01 3.0918e-01 -1.5621e-01
       136 1.6055e+01 2.2919e-07 3.9341e-01 -2.1681e-01 3.0904e-01 -1.5538e-01
       137 5.7134e+01 2.7550e-16 3.9164e-01 -2.1912e-01 3.0752e-01 -1.5665e-01
       138 2.8407e+00 1.6972e-04 3.9588e-01 -2.1786e-01 3.1116e-01 -1.5551e-01
       139 2.4736e+00 2.0392e-04 3.9628e-01 -2.1794e-01 3.1150e-01 -1.5624e-01
       140 6.1195e+01 3.6168e-17 3.9881e-01 -2.1863e-01 3.1366e-01 -1.5602e-01
       141 4.6344e+01 6.0674e-14 3.9799e-01 -2.1662e-01 3.1309e-01 -1.5529e-01
       142 1.7404e+00 2.9422e-04 3.9581e-01 -2.1920e-01 3.1108e-01 -1.5649e-01
       143 4.6134e+00 6.9951e-05 3.9622e-01 -2.1859e-01 3.1144e-01 -1.5621e-01
       144 1.7060e-01 6.4497e-04 3.9459e-01 -2.1861e-01 3.1016e-01 -1.5640e-01
       145 3.3831e-02 6.9062e-04 3.9471e-01 -2.1799e-01 3.1019e-01 -1.5582e-01
       146 1.7062e+00 2.9929e-04 3.9465e-01 -2.1901e-01 3.1007e-01 -1.5661e-01
       147 1.7042e+00 2.9958e-04 3.9497e-01 -2.1927e-01 3.1028e-01 -1.5657e-01
       148 1.0433e+01 3.8120e-06 3.9665e-01 -2.1882e-01 3.1178e-01 -1.5643e-01
       149 3.2555e-01 5.9689e-04 3.9489e-01 -2.1834e-01 3.1041e-01 -1.5622e-01
       150 1.0785e+01 3.1965e-06 3.9675e-01 -2.1910e-01 3.1196e-01 -1.5643e-01
       151 7.3027e-03 6.9984e-04 3.9464e-01 -2.1842e-01 3.1021e-01 -1.5618e-01
       152 3.5071e+00 1.2163e-04 3.9593e-01 -2.1763e-01 3.1128e-01 -1.5583e-01
       153 1.7148e+00 2.9800e-04 3.9573e-01 -2.1891e-01 3.1105e-01 -1.5646e-01
       154 5.3494e+00 4.8414e-05 3.9368e-01 -2.1834e-01 3.0927e-01 -1.5638e-01
       155 5.6894e+01 3.1055e-16 3.9817e-01 -2.1777e-01 3.1328e-01 -1.5580e-01
       156 3.5773e+00 1.1743e-04 3.9416e-01 -2.1872e-01 3.0967e-01 -1.5656e-01
       157 3.1011e+00 1.4900e-04 3.9462e-01 -2.1791e-01 3.0991e-01 -1.5577e-01
       158 1.6446e+00 3.0864e-04 3.9476e-01 -2.1892e-01 3.1016e-01 -1.5657e-01
       159 1.7839e+00 2.8789e-04 3.9579e-01 -2.1847e-01 3.1097e-01 -1.5638e-01
       160 4.7727e+00 6.4596e-05 3.9368e-01 -2.1798e-01 3.0936e-01 -1.5623e-01
       161 2.6811e+00 1.8382e-04 3.9575e-01 -2.1861e-01 3.1102e-01 -1.5632e-01
       162 1.8343e+01 7.3036e-08 3.9285e-01 -2.1905e-01 3.0854e-01 -1.5646e-01
       163 1.8259e+01 7.6143e-08 3.9330e-01 -2.1859e-01 3.0890e-01 -1.5615e-01
       164 1.4330e+00 3.4309e-04 3.9557e-01 -2.1880e-01 3.1081e-01 -1.5652e-01
       165 2.2499e+00 2.2805e-04 3.9408e-01 -2.1960e-01 3.0973e-01 -1.5669e-01
       166 4.3887e+00 7.8268e-05 3.9615e-01 -2.1812e-01 3.1141e-01 -1.5602e-01
       167 1.4211e+01 5.7637e-07 3.9341e-01 -2.1762e-01 3.0906e-01 -1.5591e-01
       168 3.1893e+01 8.3400e-11 3.9756e-01 -2.1852e-01 3.1264e-01 -1.5638e-01
       169 4.1702e+00 8.7303e-05 3.9425e-01 -2.1789e-01 3.0975e-01 -1.5584e-01
       170 2.3419e+01 5.7711e-09 3.9724e-01 -2.1851e-01 3.1238e-01 -1.5623e-01
       171 1.1239e+01 2.5476e-06 3.9336e-01 -2.1746e-01 3.0906e-01 -1.5569e-01
       172 7.7394e+00 1.4655e-05 3.9304e-01 -2.1887e-01 3.0896e-01 -1.5637e-01
       173 3.2454e+01 6.2999e-11 3.9755e-01 -2.1787e-01 3.1265e-01 -1.5588e-01
       174 5.7851e-01 5.2597e-04 3.9497e-01 -2.1747e-01 3.1050e-01 -1.5588e-01
       175 1.0433e+01 3.8122e-06 3.9364e-01 -2.1962e-01 3.0928e-01 -1.5655e-01
       176 5.3382e-01 5.3786e-04 3.9503e-01 -2.1835e-01 3.1055e-01 -1.5629e-01
       177 2.6799e+01 1.0650e-09 3.9232e-01 -2.1786e-01 3.0825e-01 -1.5616e-01
       178 4.8920e+00 6.0857e-05 3.9388e-01 -2.1763e-01 3.0951e-01 -1.5610e-01
       179 7.8228e-01 4.7502e-04 3.9474e-01 -2.1749e-01 3.1030e-01 -1.5565e-01
       180 7.6254e-02 6.7612e-04 3.9491e-01 -2.1748e-01 3.1039e-01 -1.5618e-01
       181 2.4835e+00 2.0291e-04 3.9391e-01 -2.1769e-01 3.0954e-01 -1.5615e-01
       182 2.7574e+01 7.2276e-10 3.9251e-01 -2.1946e-01 3.0828e-01 -1.5649e-01
       183 1.1280e+01 2.4951e-06 3.9646e-01 -2.1775e-01 3.1171e-01 -1.5579e-01
       184 1.5642e+01 2.8187e-07 3.9348e-01 -2.1881e-01 3.0900e-01 -1.5637e-01
       185 1.9231e+01 4.6838e-08 3.9631e-01 -2.1834e-01 3.1183e-01 -1.5609e-01
       186 2.4654e+00 2.0475e-04 3.9429e-01 -2.1774e-01 3.0979e-01 -1.5609e-01
       187 5.0417e+01 7.9190e-15 3.9813e-01 -2.1810e-01 3.1324e-01 -1.5578e-01
       188 1.3618e+01 7.7540e-07 3.9698e-01 -2.1853e-01 3.1211e-01 -1.5620e-01
       189 2.5386e+01 2.1585e-09 3.9711e-01 -2.1866e-01 3.1243e-01 -1.5626e-01
       190 7.4412e+00 1.7012e-05 3.9636e-01 -2.1789e-01 3.1162e-01 -1.5604e-01
       191 3.2908e+01 5.0202e-11 3.9752e-01 -2.1936e-01 3.1272e-01 -1.5662e-01
       192 1.9357e+01 4.3983e-08 3.9310e-01 -2.1865e-01 3.0872e-01 -1.5640e-01
       193 1.6891e+01 1.5090e-07 3.9678e-01 -2.1784e-01 3.1204e-01 -1.5588e-01
       194 2.5588e+00 1.9541e-04 3.9600e-01 -2.1847e-01 3.1126e-01 -1.5638e-01
       195 2.7652e+00 1.7625e-04 3.9411e-01 -2.1904e-01 3.0971e-01 -1.5634e-01
       196 2.5038e+01 2.5683e-09 3.9737e-01 -2.1937e-01 3.1249e-01 -1.5657e-01
       197 3.5161e+00 1.2108e-04 3.9408e-01 -2.1869e-01 3.0969e-01 -1.5586e-01
       198 9.7274e+00 5.4239e-06 3.9622e-01 -2.1910e-01 3.1151e-01 -1.5656e-01
       199 1.0811e+01 3.1549e-06 3.9353e-01 -2.1741e-01 3.0914e-01 -1.5588e-01
       200 3.0426e+00 1.5342e-04 3.9523e-01 -2.1935e-01 3.1083e-01 -1.5626e-01
       201 9.6410e+00 5.6633e-06 3.9647e-01 -2.1751e-01 3.1167e-01 -1.5552e-01
       202 1.7519e+00 2.9252e-04 3.9424e-01 -2.1765e-01 3.0988e-01 -1.5585e-01
       203 8.0142e+01 2.7800e-21 3.9880e-01 -2.1897e-01 3.1381e-01 -1.5649e-01
       204 6.7805e+00 2.3671e-05 3.9598e-01 -2.1781e-01 3.1129e-01 -1.5599e-01
       205 1.0289e+00 4.1991e-04 3.9425e-01 -2.1873e-01 3.0989e-01 -1.5617e-01
       206 2.7285e+00 1.7951e-04 3.9587e-01 -2.1842e-01 3.1121e-01 -1.5643e-01
       207 3.6340e+00 1.1415e-04 3.9409e-01 -2.1756e-01 3.0962e-01 -1.5602e-01
       208 4.6239e+00 6.9585e-05 3.9557e-01 -2.1731e-01 3.1095e-01 -1.5559e-01
       209 1.1554e+01 2.1757e-06 3.9687e-01 -2.1842e-01 3.1202e-01 -1.5617e-01
       210 1.6337e-01 6.4731e-04 3.9488e-01 -2.1865e-01 3.1038e-01 -1.5653e-01
       211 1.8777e+00 2.7469e-04 3.9497e-01 -2.1961e-01 3.1054e-01 -1.5673e-01
       212 4.6112e+00 7.0027e-05 3.9618e-01 -2.1835e-01 3.1137e-01 -1.5638e-01
       213 3.2301e+01 6.8015e-11 3.9742e-01 -2.1954e-01 3.1259e-01 -1.5653e-01
       214 2.9342e-01 6.0655e-04 3.9505e-01 -2.1894e-01 3.1053e-01 -1.5651e-01
       215 1.0747e+01 3.2572e-06 3.9367e-01 -2.1840e-01 3.0924e-01 -1.5632e-01
       216 2.2613e-01 6.2731e-04 3.9461e-01 -2.1823e-01 3.1021e-01 -1.5622e-01
       217 4.3111e+01 3.0556e-13 3.9216e-01 -2.1884e-01 3.0795e-01 -1.5644e-01
       218 8.3412e-01 4.6287e-04 3.9488e-01 -2.1843e-01 3.1043e-01 -1.5573e-01
       219 6.2168e-01 5.1474e-04 3.9463e-01 -2.1820e-01 3.1014e-01 -1.5597e-01
       220 9.2044e-01 4.4332e-04 3.9505e-01 -2.1787e-01 3.1050e-01 -1.5609e-01
       221 1.6923e+01 1.4851e-07 3.9268e-01 -2.1904e-01 3.0856e-01 -1.5631e-01
       222 5.9730e-02 6.8173e-04 3.9524e-01 -2.1724e-01 3.1067e-01 -1.5556e-01
       223 1.0787e-01 6.6552e-04 3.9520e-01 -2.1824e-01 3.1065e-01 -1.5623e-01
       224 1.9495e-02 6.9559e-04 3.9539e-01 -2.1767e-01 3.1067e-01 -1.5609e-01
       225 1.7040e+01 1.4006e-07 3.9673e-01 -2.1816e-01 3.1201e-01 -1.5610e-01
       226 1.4728e+01 4.4509e-07 3.9645e-01 -2.1764e-01 3.1183e-01 -1.5616e-01
       227 7.2411e+00 1.8802e-05 3.9601e-01 -2.1892e-01 3.1142e-01 -1.5647e-01
       228 4.5937e-01 5.5826e-04 3.9489e-01 -2.1744e-01 3.1042e-01 -1.5592e-01
       229 5.5165e+00 4.4534e-05 3.9606e-01 -2.1924e-01 3.1143e-01 -1.5643e-01
       230 1.0744e+01 3.2630e-06 3.9601e-01 -2.1795e-01 3.1145e-01 -1.5579e-01
       231 2.0607e+00 2.5067e-04 3.9654e-01 -2.1860e-01 3.1159e-01 -1.5649e-01
       232 3.5789e+01 1.1886e-11 3.9752e-01 -2.1761e-01 3.1270e-01 -1.5572e-01
       233 1.7640e+01 1.0380e-07 3.9729e-01 -2.1779e-01 3.1242e-01 -1.5603e-01
       234 2.3766e+00 2.1405e-04 3.9557e-01 -2.1820e-01 3.1089e-01 -1.5596e-01
       235 2.7619e+01 7.0659e-10 3.9742e-01 -2.1801e-01 3.1261e-01 -1.5591e-01
       236 8.8867e+00 8.2578e-06 3.9356e-01 -2.1845e-01 3.0921e-01 -1.5622e-01
       237 5.1100e+00 5.4572e-05 3.9582e-01 -2.1610e-01 3.1128e-01 -1.5471e-01
       238 6.1733e+01 2.7631e-17 3.9819e-01 -2.1899e-01 3.1331e-01 -1.5646e-01
       239 1.3884e-02 6.9754e-04 3.9552e-01 -2.1881e-01 3.1076e-01 -1.5654e-01
       240 1.4709e+00 3.3665e-04 3.9460e-01 -2.1892e-01 3.1003e-01 -1.5623e-01
       241 3.0088e+00 1.5604e-04 3.9446e-01 -2.1755e-01 3.0993e-01 -1.5599e-01
       242 1.0528e+00 4.1493e-04 3.9437e-01 -2.1864e-01 3.0998e-01 -1.5644e-01
       243 2.8984e-01 6.0764e-04 3.9458e-01 -2.1874e-01 3.1006e-01 -1.5600e-01
       244 2.4819e+00 2.0307e-04 3.9651e-01 -2.1782e-01 3.1153e-01 -1.5615e-01
       245 6.0173e+00 3.4670e-05 3.9371e-01 -2.1919e-01 3.0935e-01 -1.5635e-01
       246 3.5142e+01 1.6430e-11 3.9749e-01 -2.1878e-01 3.1265e-01 -1.5633e-01
       247 3.1791e-01 5.9917e-04 3.9490e-01 -2.1864e-01 3.1022e-01 -1.5643e-01
       248 5.0836e+00 5.5297e-05 3.9559e-01 -2.1817e-01 3.1110e-01 -1.5595e-01
       249 5.7973e-02 6.8233e-04 3.9508e-01 -2.1771e-01 3.1042e-01 -1.5588e-01
       250 1.4560e+01 4.8403e-07 3.9677e-01 -2.1696e-01 3.1195e-01 -1.5537e-01
       251 2.2293e+01 1.0134e-08 3.9284e-01 -2.1918e-01 3.0852e-01 -1.5668e-01
       252 5.3804e-01 5.3672e-04 3.9469e-01 -2.1900e-01 3.1015e-01 -1.5646e-01
       253 1.6965e+01 1.4545e-07 3.9696e-01 -2.1773e-01 3.1211e-01 -1.5596e-01
       254 3.4127e+01 2.7289e-11 3.9724e-01 -2.1897e-01 3.1248e-01 -1.5605e-01
       255 4.4778e+00 7.4857e-05 3.9623e-01 -2.1645e-01 3.1149e-01 -1.5512e-01
       256 3.5124e-03 7.0117e-04 3.9503e-01 -2.1828e-01 3.1046e-01 -1.5577e-01
       257 1.0330e+00 4.1905e-04 3.9461e-01 -2.1749e-01 3.1016e-01 -1.5600e-01
       258 1.2235e+00 3.8098e-04 3.9447e-01 -2.1802e-01 3.0996e-01 -1.5640e-01
       259 6.4076e+00 2.8523e-05 3.9401e-01 -2.1730e-01 3.0965e-01 -1.5550e-01
       260 1.3205e+00 3.6295e-04 3.9579e-01 -2.1948e-01 3.1109e-01 -1.5667e-01
       261 3.0352e+01 1.8016e-10 3.9698e-01 -2.1839e-01 3.1236e-01 -1.5631e-01
       262 5.5072e+00 4.4742e-05 3.9599e-01 -2.1878e-01 3.1127e-01 -1.5598e-01
       263 1.4165e-01 6.5437e-04 3.9501e-01 -2.1909e-01 3.1034e-01 -1.5658e-01
       264 3.1497e+00 1.4542e-04 3.9384e-01 -2.1894e-01 3.0952e-01 -1.5661e-01
       265 1.1730e+01 1.9929e-06 3.9669e-01 -2.1932e-01 3.1188e-01 -1.5666e-01
       266 2.1052e+01 1.8846e-08 3.9691e-01 -2.1779e-01 3.1227e-01 -1.5582e-01
       267 4.1220e-01 5.7158e-04 3.9474e-01 -2.1948e-01 3.1035e-01 -1.5645e-01
       268 7.4011e-01 4.8514e-04 3.9489e-01 -2.1880e-01 3.1026e-01 -1.5609e-01
       269 3.6129e+01 1.0030e-11 3.9192e-01 -2.1822e-01 3.0785e-01 -1.5617e-01
       270 1.5006e+01 3.8730e-07 3.9729e-01 -2.1749e-01 3.1233e-01 -1.5573e-01
       271 3.1891e+01 8.3480e-11 3.9738e-01 -2.1835e-01 3.1254e-01 -1.5603e-01
       272 1.4166e+01 5.8946e-07 3.9328e-01 -2.2010e-01 3.0889e-01 -1.5690e-01
       273 4.6736e+01 4.9889e-14 3.9766e-01 -2.1861e-01 3.1287e-01 -1.5646e-01
       274 1.2277e-01 6.6058e-04 3.9437e-01 -2.1960e-01 3.0992e-01 -1.5652e-01
       275 4.6704e+00 6.7987e-05 3.9411e-01 -2.1709e-01 3.0970e-01 -1.5524e-01
       276 1.9200e-02 6.9569e-04 3.9512e-01 -2.1792e-01 3.1046e-01 -1.5575e-01
       277 1.9937e+00 2.5922e-04 3.9442e-01 -2.1822e-01 3.0987e-01 -1.5588e-01
       278 2.1440e+00 2.4045e-04 3.9548e-01 -2.1868e-01 3.1096e-01 -1.5634e-01
       279 6.4348e+00 2.8137e-05 3.9319e-01 -2.1720e-01 3.0900e-01 -1.5521e-01
       280 1.3228e+01 9.4224e-07 3.9338e-01 -2.1762e-01 3.0901e-01 -1.5563e-01
       281 3.2569e+00 1.3783e-04 3.9436e-01 -2.1733e-01 3.0988e-01 -1.5554e-01
       282 1.1939e+00 3.8665e-04 3.9509e-01 -2.1921e-01 3.1069e-01 -1.5660e-01
       283 1.1569e+01 2.1601e-06 3.9328e-01 -2.1735e-01 3.0896e-01 -1.5563e-01
       284 2.2974e+00 2.2269e-04 3.9555e-01 -2.1774e-01 3.1100e-01 -1.5590e-01
       285 2.7506e-02 6.9281e-04 3.9483e-01 -2.1826e-01 3.1037e-01 -1.5641e-01
       286 1.2510e+01 1.3494e-06 3.9384e-01 -2.1845e-01 3.0938e-01 -1.5632e-01
       287 5.1796e+00 5.2703e-05 3.9371e-01 -2.1916e-01 3.0933e-01 -1.5654e-01
       288 2.8353e-01 6.0956e-04 3.9486e-01 -2.1763e-01 3.1022e-01 -1.5557e-01
       289 6.3195e+00 2.9808e-05 3.9554e-01 -2.1834e-01 3.1106e-01 -1.5630e-01
       290 1.7253e+00 2.9644e-04 3.9509e-01 -2.1836e-01 3.1034e-01 -1.5591e-01
       291 9.4721e+00 6.1623e-06 3.9294e-01 -2.1712e-01 3.0886e-01 -1.5578e-01
       292 2.4745e+01 2.9729e-09 3.9724e-01 -2.1867e-01 3.1239e-01 -1.5622e-01
       293 1.5149e+01 3.6060e-07 3.9621e-01 -2.1889e-01 3.1169e-01 -1.5653e-01
       294 8.0318e+00 1.2662e-05 3.9398e-01 -2.1748e-01 3.0951e-01 -1.5582e-01
       295 4.4889e+00 7.4443e-05 3.9604e-01 -2.1857e-01 3.1133e-01 -1.5636e-01
       296 1.4563e+01 4.8327e-07 3.9311e-01 -2.1900e-01 3.0886e-01 -1.5637e-01
       297 7.5931e-01 4.8051e-04 3.9482e-01 -2.1850e-01 3.1022e-01 -1.5638e-01
       298 1.0133e+01 4.4279e-06 3.9618e-01 -2.1892e-01 3.1151e-01 -1.5638e-01
       299 1.9658e+00 2.6285e-04 3.9557e-01 -2.1896e-01 3.1109e-01 -1.5643e-01
       300 1.7569e+01 1.0755e-07 3.9313e-01 -2.1964e-01 3.0876e-01 -1.5668e-01
       301 9.5150e-01 4.3649e-04 3.9532e-01 -2.1687e-01 3.1074e-01 -1.5524e-01
       302 1.2815e+00 3.7010e-04 3.9480e-01 -2.1868e-01 3.1015e-01 -1.5646e-01
       303 4.7700e+00 6.4682e-05 3.9554e-01 -2.1857e-01 3.1104e-01 -1.5615e-01
       304 7.9020e+00 1.3511e-05 3.9435e-01 -2.1781e-01 3.0981e-01 -1.5601e-01
       305 7.7465e+00 1.4603e-05 3.9601e-01 -2.1736e-01 3.1140e-01 -1.5564e-01
       306 4.0057e+01 1.4070e-12 3.9816e-01 -2.1831e-01 3.1320e-01 -1.5625e-01
       307 1.9532e+01 4.0299e-08 3.9305e-01 -2.1941e-01 3.0871e-01 -1.5661e-01
       308 4.1958e-01 5.6947e-04 3.9466e-01 -2.1756e-01 3.1023e-01 -1.5579e-01
       309 3.0960e+00 1.4938e-04 3.9364e-01 -2.1798e-01 3.0934e-01 -1.5578e-01
       310 7.7147e-01 4.7760e-04 3.9513e-01 -2.1876e-01 3.1061e-01 -1.5640e-01
       311 5.9118e+01 1.0218e-16 3.9166e-01 -2.1847e-01 3.0748e-01 -1.5591e-01
       312 3.4440e+01 2.3341e-11 3.9185e-01 -2.1860e-01 3.0776e-01 -1.5649e-01
       313 4.7314e+00 6.5944e-05 3.9422e-01 -2.1756e-01 3.0972e-01 -1.5600e-01
       314 2.4336e+01 3.6482e-09 3.9776e-01 -2.1697e-01 3.1284e-01 -1.5555e-01
       315 2.5511e+01 2.0269e-09 3.9793e-01 -2.1745e-01 3.1291e-01 -1.5554e-01
       316 5.4373e+00 4.6334e-05 3.9617e-01 -2.1811e-01 3.1151e-01 -1.5624e-01
       317 9.6833e+00 5.5448e-06 3.9683e-01 -2.1922e-01 3.1200e-01 -1.5639e-01
       318 5.3655e+00 4.8027e-05 3.9540e-01 -2.1839e-01 3.1100e-01 -1.5622e-01
       319 3.2763e+01 5.3962e-11 3.9226e-01 -2.1857e-01 3.0804e-01 -1.5622e-01
       320 1.5632e+01 2.8321e-07 3.9339e-01 -2.1888e-01 3.0908e-01 -1.5629e-01
       321 7.4497e-02 6.7672e-04 3.9494e-01 -2.1758e-01 3.1043e-01 -1.5595e-01
       322 5.0399e-03 7.0063e-04 3.9528e-01 -2.1863e-01 3.1066e-01 -1.5611e-01
       323 3.8932e+01 2.4698e-12 3.9773e-01 -2.1934e-01 3.1280e-01 -1.5647e-01
       324 4.9475e+00 5.9190e-05 3.9408e-01 -2.1756e-01 3.0962e-01 -1.5592e-01
       325 5.2793e+00 5.0142e-05 3.9387e-01 -2.1797e-01 3.0955e-01 -1.5631e-01
       326 2.9465e-01 6.0618e-04 3.9539e-01 -2.1851e-01 3.1069e-01 -1.5644e-01
       327 3.4603e+01 2.1505e-11 3.9237e-01 -2.1770e-01 3.0815e-01 -1.5580e-01
       328 1.8572e+01 6.5129e-08 3.9254e-01 -2.1894e-01 3.0845e-01 -1.5635e-01
       329 4.5920e+01 7.5008e-14 3.9810e-01 -2.1701e-01 3.1309e-01 -1.5579e-01
       330 3.2504e+00 1.3828e-04 3.9407e-01 -2.1818e-01 3.0959e-01 -1.5580e-01
       331 2.9786e-01 6.0521e-04 3.9466e-01 -2.1912e-01 3.1011e-01 -1.5657e-01
       332 9.3206e-03 6.9913e-04 3.9431e-01 -2.1811e-01 3.0996e-01 -1.5573e-01
       333 6.4610e-01 5.0849e-04 3.9521e-01 -2.1769e-01 3.1070e-01 -1.5585e-01
       334 3.2041e+00 1.4152e-04 3.9596e-01 -2.1750e-01 3.1128e-01 -1.5575e-01
       335 2.7726e+00 1.7560e-04 3.9404e-01 -2.1743e-01 3.0969e-01 -1.5557e-01
       336 1.4914e+01 4.0551e-07 3.9243e-01 -2.1828e-01 3.0841e-01 -1.5627e-01
       337 9.3280e-01 4.4058e-04 3.9424e-01 -2.1815e-01 3.0986e-01 -1.5593e-01
       338 1.9370e-01 6.3756e-04 3.9522e-01 -2.1825e-01 3.1057e-01 -1.5591e-01
       339 1.8126e+01 8.1386e-08 3.9315e-01 -2.1765e-01 3.0874e-01 -1.5583e-01
       340 3.0511e+00 1.5277e-04 3.9394e-01 -2.1915e-01 3.0954e-01 -1.5649e-01
       341 9.5927e+00 5.8018e-06 3.9604e-01 -2.1657e-01 3.1141e-01 -1.5476e-01
       342 1.5328e-01 6.5058e-04 3.9499e-01 -2.1920e-01 3.1043e-01 -1.5645e-01
       343 7.1947e+00 1.9243e-05 3.9612e-01 -2.1918e-01 3.1142e-01 -1.5650e-01
       344 1.2628e+00 3.7357e-04 3.9452e-01 -2.1902e-01 3.1001e-01 -1.5661e-01
       345 5.2951e+01 2.2308e-15 3.9822e-01 -2.1582e-01 3.1323e-01 -1.5496e-01
       346 2.0172e+01 2.9266e-08 3.9670e-01 -2.1860e-01 3.1200e-01 -1.5643e-01
       347 1.3534e+00 3.5703e-04 3.9408e-01 -2.1891e-01 3.0972e-01 -1.5654e-01
       348 7.2965e+00 1.8288e-05 3.9331e-01 -2.1926e-01 3.0908e-01 -1.5654e-01
       349 1.2821e+01 1.1551e-06 3.9622e-01 -2.1805e-01 3.1160e-01 -1.5601e-01
       350 3.9816e+00 9.5937e-05 3.9398e-01 -2.1764e-01 3.0963e-01 -1.5559e-01
       351 1.9281e+01 4.5677e-08 3.9259e-01 -2.1801e-01 3.0843e-01 -1.5625e-01
       352 1.4481e+01 5.0360e-07 3.9362e-01 -2.1770e-01 3.0915e-01 -1.5604e-01
       353 6.8421e-01 4.9890e-04 3.9501e-01 -2.1875e-01 3.1056e-01 -1.5648e-01
       354 4.7613e+01 3.2177e-14 3.9814e-01 -2.1729e-01 3.1316e-01 -1.5551e-01
       355 1.0942e+01 2.9550e-06 3.9610e-01 -2.1801e-01 3.1148e-01 -1.5618e-01
       356 4.4628e+01 1.4312e-13 3.9179e-01 -2.1913e-01 3.0774e-01 -1.5665e-01
       357 5.5516e+00 4.3759e-05 3.9363e-01 -2.1898e-01 3.0926e-01 -1.5648e-01
       358 9.7981e-01 4.3035e-04 3.9449e-01 -2.1903e-01 3.1001e-01 -1.5661e-01
       359 9.4316e+00 6.2882e-06 3.9316e-01 -2.1878e-01 3.0894e-01 -1.5643e-01
       360 1.4936e+01 4.0104e-07 3.9351e-01 -2.1926e-01 3.0912e-01 -1.5668e-01
       361 2.1890e+01 1.2396e-08 3.9238e-01 -2.2012e-01 3.0829e-01 -1.5686e-01
       362 7.4496e+01 4.6766e-20 3.9096e-01 -2.1746e-01 3.0689e-01 -1.5606e-01
       363 7.8671e+00 1.3749e-05 3.9354e-01 -2.1811e-01 3.0920e-01 -1.5605e-01
       364 1.0609e+01 3.4899e-06 3.9380e-01 -2.1882e-01 3.0933e-01 -1.5655e-01
       365 5.9397e-01 5.2192e-04 3.9409e-01 -2.1896e-01 3.0982e-01 -1.5653e-01
       366 8.1803e+00 1.1756e-05 3.9371e-01 -2.1957e-01 3.0936e-01 -1.5667e-01
       367 7.4524e+00 1.6916e-05 3.9383e-01 -2.1874e-01 3.0947e-01 -1.5623e-01
       368 5.0077e+00 5.7435e-05 3.9407e-01 -2.1866e-01 3.0955e-01 -1.5606e-01
       369 1.3161e+00 3.6375e-04 3.9611e-01 -2.1646e-01 3.1130e-01 -1.5539e-01
       370 9.1694e-01 4.4409e-04 3.9483e-01 -2.1939e-01 3.1031e-01 -1.5670e-01
       371 1.0039e+01 4.6411e-06 3.9342e-01 -2.1910e-01 3.0911e-01 -1.5657e-01
       372 3.1303e-03 7.0130e-04 3.9516e-01 -2.1763e-01 3.1057e-01 -1.5607e-01
       373 4.1773e+00 8.6996e-05 3.9413e-01 -2.1865e-01 3.0962e-01 -1.5643e-01
       374 1.3903e-01 6.5523e-04 3.9489e-01 -2.1655e-01 3.1037e-01 -1.5450e-01
       375 6.2388e+00 3.1035e-05 3.9621e-01 -2.1938e-01 3.1149e-01 -1.5667e-01
       376 5.3315e+00 4.8849e-05 3.9396e-01 -2.1751e-01 3.0953e-01 -1.5588e-01
       377 3.2957e+00 1.3518e-04 3.9417e-01 -2.1719e-01 3.0971e-01 -1.5546e-01
       378 7.8199e+00 1.4077e-05 3.9608e-01 -2.1889e-01 3.1152e-01 -1.5626e-01
       379 6.6590e-02 6.7940e-04 3.9483e-01 -2.1849e-01 3.1037e-01 -1.5629e-01
       380 3.7471e-01 5.8239e-04 3.9577e-01 -2.1812e-01 3.1097e-01 -1.5567e-01
       381 2.3490e+00 2.1702e-04 3.9390e-01 -2.1944e-01 3.0964e-01 -1.5666e-01
       382 9.0475e+00 7.6199e-06 3.9338e-01 -2.1615e-01 3.0906e-01 -1.5491e-01
       383 3.1290e+01 1.1271e-10 3.9238e-01 -2.1772e-01 3.0821e-01 -1.5596e-01
       384 1.1656e+01 2.0684e-06 3.9319e-01 -2.1894e-01 3.0887e-01 -1.5659e-01
       385 5.7518e-01 5.2685e-04 3.9509e-01 -2.1892e-01 3.1062e-01 -1.5624e-01
       386 1.5204e+01 3.5089e-07 3.9256e-01 -2.1822e-01 3.0849e-01 -1.5600e-01
       387 3.4129e+00 1.2749e-04 3.9592e-01 -2.1792e-01 3.1118e-01 -1.5610e-01
       388 7.1217e+01 2.4096e-19 3.9108e-01 -2.1886e-01 3.0710e-01 -1.5654e-01
       389 4.0038e-01 5.7497e-04 3.9537e-01 -2.1846e-01 3.1078e-01 -1.5632e-01
       390 5.6811e+00 4.1015e-05 3.9592e-01 -2.1829e-01 3.1126e-01 -1.5644e-01
       391 1.4807e+00 3.3501e-04 3.9564e-01 -2.1695e-01 3.1096e-01 -1.5535e-01
       392 1.6376e+01 1.9528e-07 3.9661e-01 -2.1754e-01 3.1192e-01 -1.5624e-01
       393 1.3368e+01 8.7853e-07 3.9320e-01 -2.1819e-01 3.0895e-01 -1.5620e-01
       394 4.6790e-01 5.5588e-04 3.9451e-01 -2.1857e-01 3.1024e-01 -1.5625e-01
       395 1.6303e+01 2.0246e-07 3.9306e-01 -2.1709e-01 3.0877e-01 -1.5580e-01
       396 2.1571e-01 6.3058e-04 3.9443e-01 -2.1650e-01 3.0996e-01 -1.5567e-01
       397 3.1614e+01 9.5882e-11 3.9780e-01 -2.1829e-01 3.1287e-01 -1.5585e-01
       398 7.0525e+01 3.4056e-19 3.9874e-01 -2.1792e-01 3.1375e-01 -1.5602e-01
       399 1.6600e+00 3.0628e-04 3.9414e-01 -2.1690e-01 3.0971e-01 -1.5514e-01
       400 8.8538e+01 4.1765e-23 3.9058e-01 -2.1751e-01 3.0652e-01 -1.5603e-01
       401 4.8998e-01 5.4978e-04 3.9421e-01 -2.1862e-01 3.0987e-01 -1.5603e-01
       402 1.3628e+00 3.5536e-04 3.9437e-01 -2.1853e-01 3.0993e-01 -1.5651e-01
       403 2.3584e+00 2.1601e-04 3.9497e-01 -2.1813e-01 3.1022e-01 -1.5619e-01
       404 3.3617e+01 3.5214e-11 3.9678e-01 -2.1871e-01 3.1228e-01 -1.5643e-01
       405 4.9731e+00 5.8438e-05 3.9358e-01 -2.1753e-01 3.0921e-01 -1.5594e-01
       406 2.6013e+01 1.5776e-09 3.9726e-01 -2.1850e-01 3.1251e-01 -1.5645e-01
       407 5.5236e+00 4.4376e-05 3.9598e-01 -2.1679e-01 3.1123e-01 -1.5549e-01
       408 4.3739e+00 7.8849e-05 3.9370e-01 -2.1774e-01 3.0940e-01 -1.5629e-01
       409 2.0952e-02 6.9508e-04 3.9460e-01 -2.1797e-01 3.1018e-01 -1.5591e-01
       410 1.5725e+00 3.1998e-04 3.9445e-01 -2.1825e-01 3.0995e-01 -1.5646e-01
       411 2.8896e+01 3.7312e-10 3.9734e-01 -2.1909e-01 3.1256e-01 -1.5652e-01
       412 2.1606e+01 1.4284e-08 3.9713e-01 -2.1865e-01 3.1228e-01 -1.5612e-01
       413 3.3270e+00 1.3308e-04 3.9622e-01 -2.1737e-01 3.1134e-01 -1.5564e-01
       414 9.7817e-01 4.3070e-04 3.9598e-01 -2.1678e-01 3.1121e-01 -1.5546e-01
       415 5.4188e+00 4.6763e-05 3.9586e-01 -2.1888e-01 3.1115e-01 -1.5656e-01
       416 6.7291e+00 2.4287e-05 3.9611e-01 -2.1919e-01 3.1140e-01 -1.5657e-01
       417 4.6050e-02 6.8641e-04 3.9520e-01 -2.1566e-01 3.1060e-01 -1.5458e-01
       418 9.6105e+00 5.7504e-06 3.9378e-01 -2.1798e-01 3.0940e-01 -1.5635e-01
       419 2.2026e+00 2.3350e-04 3.9386e-01 -2.1832e-01 3.0957e-01 -1.5609e-01
       420 1.3840e+00 3.5161e-04 3.9426e-01 -2.1723e-01 3.0986e-01 -1.5527e-01
       421 3.5985e+00 1.1619e-04 3.9435e-01 -2.1901e-01 3.0990e-01 -1.5655e-01
       422 3.2509e-01 5.9702e-04 3.9526e-01 -2.1913e-01 3.1066e-01 -1.5658e-01
       423 1.5235e+00 3.2792e-04 3.9443e-01 -2.1857e-01 3.0995e-01 -1.5650e-01
       424 1.6500e+00 3.0782e-04 3.9589e-01 -2.1845e-01 3.1116e-01 -1.5629e-01
       425 1.4470e+00 3.4070e-04 3.9447e-01 -2.1821e-01 3.0994e-01 -1.5617e-01
       426 3.6902e+00 1.1099e-04 3.9426e-01 -2.1809e-01 3.0974e-01 -1.5602e-01
       427 1.4008e+01 6.3785e-07 3.9646e-01 -2.1907e-01 3.1175e-01 -1.5651e-01
       428 8.9882e+00 7.8493e-06 3.9602e-01 -2.1926e-01 3.1133e-01 -1.5662e-01
       429 4.9378e+00 5.9478e-05 3.9607e-01 -2.1712e-01 3.1138e-01 -1.5585e-01
       430 2.9994e+00 1.5678e-04 3.9441e-01 -2.1866e-01 3.0989e-01 -1.5645e-01
       431 5.8133e-01 5.2523e-04 3.9446e-01 -2.1812e-01 3.1000e-01 -1.5640e-01
       432 1.3811e+01 7.0399e-07 3.9369e-01 -2.1711e-01 3.0924e-01 -1.5588e-01
       433 5.4693e+00 4.5596e-05 3.9372e-01 -2.1842e-01 3.0935e-01 -1.5616e-01
       434 7.2720e-01 4.8829e-04 3.9519e-01 -2.1848e-01 3.1039e-01 -1.5648e-01
       435 4.2128e+00 8.5464e-05 3.9415e-01 -2.1875e-01 3.0966e-01 -1.5624e-01
       436 5.5254e+00 4.4337e-05 3.9606e-01 -2.1903e-01 3.1136e-01 -1.5650e-01
       437 1.7901e+01 9.1064e-08 3.9636e-01 -2.1783e-01 3.1179e-01 -1.5577e-01
       438 2.0574e-02 6.9521e-04 3.9535e-01 -2.1739e-01 3.1077e-01 -1.5571e-01
       439 1.4121e+01 6.0278e-07 3.9644e-01 -2.1812e-01 3.1183e-01 -1.5589e-01
       440 1.0642e-02 6.9867e-04 3.9541e-01 -2.1769e-01 3.1062e-01 -1.5627e-01
       441 2.9253e+01 3.1221e-10 3.9787e-01 -2.1781e-01 3.1283e-01 -1.5594e-01
       442 8.6611e-01 4.5552e-04 3.9469e-01 -2.1861e-01 3.1015e-01 -1.5620e-01
       443 3.3878e+00 1.2910e-04 3.9582e-01 -2.1803e-01 3.1109e-01 -1.5580e-01
       444 1.2276e+01 1.5163e-06 3.9648e-01 -2.1769e-01 3.1184e-01 -1.5572e-01
       445 2.8603e+01 4.3200e-10 3.9280e-01 -2.1862e-01 3.0839e-01 -1.5644e-01
       446 1.2195e+00 3.8174e-04 3.9436e-01 -2.1921e-01 3.0986e-01 -1.5668e-01
       447 1.1197e-01 6.6416e-04 3.9500e-01 -2.1757e-01 3.1046e-01 -1.5566e-01
       448 6.0176e+01 6.0177e-17 3.9869e-01 -2.1842e-01 3.1364e-01 -1.5643e-01
       449 4.1152e-03 7.0096e-04 3.9469e-01 -2.1847e-01 3.1024e-01 -1.5628e-01
       450 1.2562e+00 3.7480e-04 3.9455e-01 -2.1822e-01 3.1003e-01 -1.5624e-01
       451 6.4027e-01 5.0998e-04 3.9505e-01 -2.1813e-01 3.1062e-01 -1.5639e-01
       452 5.1502e+00 5.3485e-05 3.9582e-01 -2.1877e-01 3.1118e-01 -1.5656e-01
       453 1.6127e+01 2.2116e-07 3.9322e-01 -2.1768e-01 3.0879e-01 -1.5603e-01
       454 1.0897e+01 3.0227e-06 3.9338e-01 -2.1846e-01 3.0901e-01 -1.5650e-01
       455 1.7425e+01 1.1556e-07 3.9611e-01 -2.1877e-01 3.1160e-01 -1.5626e-01
       456 6.2868e-01 5.1294e-04 3.9466e-01 -2.1882e-01 3.1021e-01 -1.5652e-01
       457 1.3008e+01 1.0518e-06 3.9668e-01 -2.1792e-01 3.1192e-01 -1.5631e-01
       458 2.0660e+01 2.2922e-08 3.9689e-01 -2.1924e-01 3.1220e-01 -1.5639e-01
       459 3.7000e+01 6.4876e-12 3.9214e-01 -2.1741e-01 3.0803e-01 -1.5567e-01
       460 3.7478e-01 5.8237e-04 3.9427e-01 -2.1827e-01 3.0993e-01 -1.5635e-01
       461 2.6392e+01 1.3049e-09 3.9693e-01 -2.1752e-01 3.1219e-01 -1.5549e-01
       462 2.9498e-03 7.0136e-04 3.9530e-01 -2.1886e-01 3.1059e-01 -1.5644e-01
       463 5.5656e+01 5.7669e-16 3.9151e-01 -2.1894e-01 3.0746e-01 -1.5654e-01
       464 5.3974e+01 1.3372e-15 3.9171e-01 -2.1707e-01 3.0750e-01 -1.5560e-01
       465 5.6790e+00 4.1058e-05 3.9597e-01 -2.1778e-01 3.1132e-01 -1.5585e-01
       466 4.0421e-02 6.8835e-04 3.9463e-01 -2.1927e-01 3.1020e-01 -1.5661e-01
       467 8.6417e+00 9.3337e-06 3.9361e-01 -2.1975e-01 3.0925e-01 -1.5663e-01
       468 1.1078e+00 4.0367e-04 3.9410e-01 -2.1731e-01 3.0980e-01 -1.5565e-01
       469 1.5720e+00 3.2006e-04 3.9574e-01 -2.1826e-01 3.1114e-01 -1.5624e-01
       470 3.8382e-03 7.0105e-04 3.9529e-01 -2.1814e-01 3.1064e-01 -1.5620e-01
       471 3.0162e-03 7.0134e-04 3.9469e-01 -2.1839e-01 3.1027e-01 -1.5620e-01
       472 2.4844e+01 2.8303e-09 3.9695e-01 -2.1903e-01 3.1227e-01 -1.5649e-01
       473 9.1193e+00 7.3511e-06 3.9632e-01 -2.1836e-01 3.1155e-01 -1.5641e-01
       474 1.3307e+01 9.0557e-07 3.9380e-01 -2.1786e-01 3.0926e-01 -1.5612e-01
       475 1.5024e+00 3.3139e-04 3.9394e-01 -2.1939e-01 3.0961e-01 -1.5643e-01
       476 6.6872e+00 2.4802e-05 3.9386e-01 -2.1868e-01 3.0957e-01 -1.5653e-01
       477 1.0267e+01 4.1406e-06 3.9622e-01 -2.1814e-01 3.1153e-01 -1.5608e-01
       478 1.6424e+01 1.9064e-07 3.9689e-01 -2.1880e-01 3.1207e-01 -1.5651e-01
       479 3.1604e+00 1.4465e-04 3.9418e-01 -2.1705e-01 3.0972e-01 -1.5570e-01
       480 7.5221e+00 1.6337e-05 3.9597e-01 -2.1751e-01 3.1136e-01 -1.5579e-01
       481 3.1798e+00 1.4325e-04 3.9516e-01 -2.1826e-01 3.1072e-01 -1.5591e-01
       482 6.0369e+00 3.4331e-05 3.9662e-01 -2.1724e-01 3.1185e-01 -1.5588e-01
       483 5.8173e+01 1.6389e-16 3.9127e-01 -2.1825e-01 3.0725e-01 -1.5629e-01
       484 1.3444e+01 8.4586e-07 3.9334e-01 -2.1899e-01 3.0890e-01 -1.5643e-01
       485 1.2271e+01 1.5205e-06 3.9277e-01 -2.1821e-01 3.0864e-01 -1.5598e-01
       486 7.0518e+00 2.0668e-05 3.9412e-01 -2.1882e-01 3.0960e-01 -1.5656e-01
       487 2.2110e+01 1.1101e-08 3.9261e-01 -2.1778e-01 3.0846e-01 -1.5593e-01
       488 6.1587e+00 3.2302e-05 3.9397e-01 -2.1891e-01 3.0950e-01 -1.5643e-01
       489 1.8053e+00 2.8483e-04 3.9581e-01 -2.1847e-01 3.1112e-01 -1.5615e-01
       490 6.5572e+01 4.0531e-18 3.9184e-01 -2.1893e-01 3.0750e-01 -1.5646e-01
       491 9.4483e-01 4.3794e-04 3.9530e-01 -2.1896e-01 3.1068e-01 -1.5658e-01
       492 5.7032e+00 4.0564e-05 3.9602e-01 -2.1726e-01 3.1131e-01 -1.5542e-01
       493 2.9293e+00 1.6237e-04 3.9596e-01 -2.1845e-01 3.1125e-01 -1.5615e-01
       494 1.2635e-01 6.5940e-04 3.9503e-01 -2.1836e-01 3.1038e-01 -1.5630e-01
       495 1.3519e+00 3.5728e-04 3.9487e-01 -2.1925e-01 3.1023e-01 -1.5670e-01
       496 1.8880e+00 2.7328e-04 3.9454e-01 -2.1872e-01 3.1007e-01 -1.5638e-01
       497 1.6311e-02 6.9669e-04 3.9514e-01 -2.1826e-01 3.1052e-01 -1.5623e-01
       498 4.3221e+00 8.0919e-05 3.9550e-01 -2.1656e-01 3.1104e-01 -1.5502e-01
       499 8.5302e+00 9.8691e-06 3.9341e-01 -2.1913e-01 3.0920e-01 -1.5661e-01
       500 9.7978e-01 4.3036e-04 3.9513e-01 -2.1935e-01 3.1071e-01 -1.5664e-01
       501 2.6446e+00 1.8720e-04 3.9382e-01 -2.1855e-01 3.0947e-01 -1.5619e-01
       502 9.3301e+00 6.6157e-06 3.9371e-01 -2.1738e-01 3.0933e-01 -1.5579e-01
       503 3.6217e+00 1.1485e-04 3.9432e-01 -2.1854e-01 3.0983e-01 -1.5610e-01
       504 3.7863e-01 5.8125e-04 3.9485e-01 -2.1854e-01 3.1037e-01 -1.5652e-01
       505 7.6672e+00 1.5194e-05 3.9330e-01 -2.1880e-01 3.0905e-01 -1.5645e-01
       506 5.2404e+00 5.1126e-05 3.9413e-01 -2.1774e-01 3.0959e-01 -1.5626e-01
       507 1.0590e+01 3.5238e-06 3.9337e-01 -2.1868e-01 3.0906e-01 -1.5653e-01
       508 3.7852e+00 1.0584e-04 3.9399e-01 -2.1819e-01 3.0959e-01 -1.5599e-01
       509 1.3374e+01 8.7597e-07 3.9663e-01 -2.1684e-01 3.1184e-01 -1.5553e-01
       510 4.1047e+00 9.0211e-05 3.9427e-01 -2.1666e-01 3.0973e-01 -1.5551e-01
       511 1.8155e+01 8.0226e-08 3.9696e-01 -2.1765e-01 3.1216e-01 -1.5612e-01
       512 1.2246e+01 1.5396e-06 3.9328e-01 -2.1819e-01 3.0894e-01 -1.5585e-01
       513 9.6821e-01 4.3285e-04 3.9462e-01 -2.1851e-01 3.1006e-01 -1.5642e-01
       514 3.7068e+01 6.2700e-12 3.9722e-01 -2.1804e-01 3.1258e-01 -1.5630e-01
       515 2.1126e+01 1.8165e-08 3.9704e-01 -2.1825e-01 3.1226e-01 -1.5635e-01
       516 2.3998e+01 4.3190e-09 3.9706e-01 -2.1816e-01 3.1229e-01 -1.5579e-01
       517 4.4696e-01 5.6173e-04 3.9445e-01 -2.1912e-01 3.1002e-01 -1.5666e-01
       518 1.7008e+01 1.4234e-07 3.9660e-01 -2.1840e-01 3.1192e-01 -1.5625e-01
       519 9.7873e+00 5.2639e-06 3.9290e-01 -2.1924e-01 3.0879e-01 -1.5646e-01
       520 3.8441e+00 1.0276e-04 3.9445e-01 -2.1773e-01 3.0977e-01 -1.5581e-01
       521 1.2609e+00 3.7392e-04 3.9561e-01 -2.1981e-01 3.1092e-01 -1.5678e-01
       522 1.1488e+01 2.2492e-06 3.9625e-01 -2.1714e-01 3.1166e-01 -1.5561e-01
       523 2.4561e-01 6.2123e-04 3.9533e-01 -2.1802e-01 3.1068e-01 -1.5592e-01
       524 1.1952e+01 1.7832e-06 3.9716e-01 -2.1644e-01 3.1220e-01 -1.5493e-01
       525 1.8011e+00 2.8542e-04 3.9406e-01 -2.1842e-01 3.0964e-01 -1.5633e-01
       526 1.4331e+01 5.4285e-07 3.9678e-01 -2.1817e-01 3.1199e-01 -1.5613e-01
       527 1.1752e+02 2.1240e-29 3.8987e-01 -2.1991e-01 3.0597e-01 -1.5688e-01
       528 5.4029e+00 4.7136e-05 3.9570e-01 -2.1874e-01 3.1116e-01 -1.5634e-01
       529 8.9721e-01 4.4849e-04 3.9617e-01 -2.1825e-01 3.1125e-01 -1.5630e-01
       530 3.8212e+00 1.0395e-04 3.9436e-01 -2.1754e-01 3.0980e-01 -1.5513e-01
       531 2.2292e+01 1.0137e-08 3.9256e-01 -2.1914e-01 3.0844e-01 -1.5629e-01
       532 6.5485e+00 2.6582e-05 3.9571e-01 -2.1877e-01 3.1113e-01 -1.5631e-01
       533 9.4517e+00 6.2254e-06 3.9633e-01 -2.1686e-01 3.1166e-01 -1.5530e-01
       534 1.4244e+01 5.6696e-07 3.9651e-01 -2.1910e-01 3.1183e-01 -1.5652e-01
       535 3.7396e+00 1.0828e-04 3.9593e-01 -2.1865e-01 3.1126e-01 -1.5653e-01
       536 5.4988e+01 8.0537e-16 3.9163e-01 -2.1848e-01 3.0754e-01 -1.5644e-01
       537 2.9130e-01 6.0720e-04 3.9460e-01 -2.1875e-01 3.1010e-01 -1.5655e-01
       538 7.6080e+00 1.5651e-05 3.9607e-01 -2.1804e-01 3.1145e-01 -1.5569e-01
       539 3.7363e+00 1.0846e-04 3.9567e-01 -2.1897e-01 3.1106e-01 -1.5655e-01
       540 2.2439e+01 9.4213e-09 3.9263e-01 -2.1829e-01 3.0840e-01 -1.5640e-01
       541 2.9744e+00 1.5874e-04 3.9584e-01 -2.1850e-01 3.1122e-01 -1.5632e-01
       542 2.0903e+01 2.0303e-08 3.9774e-01 -2.1866e-01 3.1269e-01 -1.5634e-01
       543 1.7014e-02 6.9645e-04 3.9459e-01 -2.1871e-01 3.1015e-01 -1.5615e-01
       544 7.1625e-01 4.9097e-04 3.9532e-01 -2.1907e-01 3.1078e-01 -1.5652e-01
       545 1.0942e+01 2.9548e-06 3.9639e-01 -2.1806e-01 3.1172e-01 -1.5576e-01
       546 3.9791e+01 1.6070e-12 3.9222e-01 -2.1824e-01 3.0799e-01 -1.5637e-01
       547 3.7626e+00 1.0704e-04 3.9330e-01 -2.1737e-01 3.0911e-01 -1.5606e-01
       548 2.4338e+01 3.6442e-09 3.9689e-01 -2.1796e-01 3.1215e-01 -1.5589e-01
       549 6.2755e+00 3.0471e-05 3.9599e-01 -2.1859e-01 3.1137e-01 -1.5651e-01
       550 1.3926e+00 3.5010e-04 3.9509e-01 -2.1935e-01 3.1058e-01 -1.5659e-01
       551 2.8638e+01 4.2459e-10 3.9739e-01 -2.1728e-01 3.1240e-01 -1.5585e-01
       552 3.0664e+01 1.5414e-10 3.9249e-01 -2.1729e-01 3.0815e-01 -1.5555e-01
       553 1.1529e+01 2.2034e-06 3.9337e-01 -2.1834e-01 3.0905e-01 -1.5642e-01
       554 1.3925e+00 3.5011e-04 3.9423e-01 -2.1844e-01 3.0983e-01 -1.5605e-01
       555 3.0152e+01 1.9917e-10 3.9717e-01 -2.1910e-01 3.1241e-01 -1.5646e-01
       556 6.8338e+00 2.3049e-05 3.9607e-01 -2.1835e-01 3.1140e-01 -1.5633e-01
       557 1.7530e+01 1.0963e-07 3.9319e-01 -2.1784e-01 3.0886e-01 -1.5588e-01
       558 9.4329e+00 6.2841e-06 3.9705e-01 -2.1857e-01 3.1206e-01 -1.5620e-01
       559 2.0942e-01 6.3257e-04 3.9511e-01 -2.1794e-01 3.1064e-01 -1.5608e-01
       560 2.8006e+00 1.7316e-04 3.9568e-01 -2.1851e-01 3.1105e-01 -1.5610e-01
       561 3.1947e+00 1.4219e-04 3.9434e-01 -2.1809e-01 3.0973e-01 -1.5594e-01
       562 1.4932e+01 4.0189e-07 3.9636e-01 -2.1798e-01 3.1173e-01 -1.5612e-01
       563 2.7720e-01 6.1149e-04 3.9572e-01 -2.1811e-01 3.1091e-01 -1.5595e-01
       564 2.0072e+01 3.0765e-08 3.9267e-01 -2.1853e-01 3.0858e-01 -1.5623e-01
       565 3.1969e+01 8.0276e-11 3.9297e-01 -2.1813e-01 3.0846e-01 -1.5627e-01
       566 5.3152e-01 5.3847e-04 3.9490e-01 -2.1884e-01 3.1044e-01 -1.5637e-01
       567 3.5305e+01 1.5146e-11 3.9238e-01 -2.1829e-01 3.0809e-01 -1.5626e-01
       568 2.5507e+00 1.9620e-04 3.9568e-01 -2.1855e-01 3.1105e-01 -1.5634e-01
       569 4.6260e+00 6.9510e-05 3.9588e-01 -2.1712e-01 3.1124e-01 -1.5559e-01
       570 2.4346e+01 3.6303e-09 3.9334e-01 -2.1831e-01 3.0886e-01 -1.5622e-01
       571 7.2313e+00 1.8894e-05 3.9345e-01 -2.1840e-01 3.0917e-01 -1.5598e-01
       572 4.2384e+00 8.4378e-05 3.9408e-01 -2.1804e-01 3.0966e-01 -1.5596e-01
       573 3.3116e-02 6.9086e-04 3.9569e-01 -2.1834e-01 3.1082e-01 -1.5632e-01
       574 3.8083e+00 1.0462e-04 3.9360e-01 -2.1912e-01 3.0933e-01 -1.5662e-01
       575 7.9204e+00 1.3387e-05 3.9409e-01 -2.1800e-01 3.0959e-01 -1.5603e-01
       576 1.9668e+00 2.6273e-04 3.9436e-01 -2.1771e-01 3.0991e-01 -1.5607e-01
       577 1.5816e+00 3.1853e-04 3.9543e-01 -2.1772e-01 3.1088e-01 -1.5552e-01
       578 2.9438e-01 6.0626e-04 3.9548e-01 -2.1817e-01 3.1074e-01 -1.5602e-01
       579 3.9369e+01 1.9847e-12 3.9738e-01 -2.1816e-01 3.1266e-01 -1.5626e-01
       580 1.4850e+01 4.1871e-07 3.9332e-01 -2.1762e-01 3.0888e-01 -1.5580e-01
       581 4.9922e+01 1.0141e-14 3.9779e-01 -2.1759e-01 3.1300e-01 -1.5583e-01
       582 2.7061e+00 1.8154e-04 3.9596e-01 -2.1804e-01 3.1131e-01 -1.5629e-01
       583 3.3110e+00 1.3416e-04 3.9448e-01 -2.1864e-01 3.0988e-01 -1.5643e-01
       584 2.2290e+00 2.3045e-04 3.9575e-01 -2.1673e-01 3.1112e-01 -1.5519e-01
       585 4.5753e-01 5.5877e-04 3.9466e-01 -2.1857e-01 3.1017e-01 -1.5599e-01
       586 5.2834e+00 5.0038e-05 3.9412e-01 -2.1696e-01 3.0962e-01 -1.5577e-01
       587 8.1181e+00 1.2127e-05 3.9645e-01 -2.1820e-01 3.1164e-01 -1.5596e-01
       588 6.4489e-01 5.0880e-04 3.9530e-01 -2.1746e-01 3.1075e-01 -1.5549e-01
       589 1.6562e+00 3.0686e-04 3.9590e-01 -2.1757e-01 3.1109e-01 -1.5580e-01
       590 4.8766e-01 5.5041e-04 3.9459e-01 -2.1839e-01 3.1012e-01 -1.5629e-01
       591 3.2571e+00 1.3782e-04 3.9519e-01 -2.1868e-01 3.1078e-01 -1.5601e-01
       592 1.5840e+01 2.5524e-07 3.9732e-01 -2.1766e-01 3.1241e-01 -1.5564e-01
       593 6.3671e+00 2.9106e-05 3.9382e-01 -2.1830e-01 3.0943e-01 -1.5599e-01
       594 6.2276e+00 3.1209e-05 3.9603e-01 -2.1669e-01 3.1136e-01 -1.5555e-01
       595 1.2781e-01 6.5892e-04 3.9486e-01 -2.1849e-01 3.1039e-01 -1.5620e-01
       596 1.3458e+00 3.5839e-04 3.9470e-01 -2.1938e-01 3.1013e-01 -1.5672e-01
       597 6.0181e+00 3.4655e-05 3.9318e-01 -2.1771e-01 3.0900e-01 -1.5590e-01
       598 2.0931e+00 2.4665e-04 3.9441e-01 -2.1738e-01 3.0982e-01 -1.5563e-01
       599 1.7743e+00 2.8927e-04 3.9410e-01 -2.1767e-01 3.0976e-01 -1.5556e-01
       600 1.8632e+01 6.3211e-08 3.9638e-01 -2.1862e-01 3.1180e-01 -1.5606e-01
       601 2.4171e+00 2.0976e-04 3.9388e-01 -2.1768e-01 3.0966e-01 -1.5571e-01
       602 2.4052e+00 2.1101e-04 3.9460e-01 -2.1937e-01 3.1000e-01 -1.5673e-01
       603 1.0008e+00 4.2585e-04 3.9523e-01 -2.1837e-01 3.1065e-01 -1.5643e-01
       604 6.7729e-01 5.0062e-04 3.9557e-01 -2.1615e-01 3.1085e-01 -1.5493e-01
       605 8.8115e-02 6.7213e-04 3.9466e-01 -2.1878e-01 3.1030e-01 -1.5657e-01
       606 1.5387e+01 3.2012e-07 3.9311e-01 -2.1938e-01 3.0883e-01 -1.5672e-01
       607 3.5766e+00 1.1748e-04 3.9577e-01 -2.1876e-01 3.1113e-01 -1.5634e-01
       608 4.0968e-01 5.7230e-04 3.9567e-01 -2.1774e-01 3.1092e-01 -1.5582e-01
       609 1.6810e+00 3.0308e-04 3.9461e-01 -2.1922e-01 3.1004e-01 -1.5664e-01
       610 5.6468e+00 4.1725e-05 3.9430e-01 -2.1776e-01 3.0972e-01 -1.5605e-01
       611 2.3274e+00 2.1938e-04 3.9578e-01 -2.1825e-01 3.1109e-01 -1.5588e-01
       612 6.7326e-02 6.7915e-04 3.9504e-01 -2.1841e-01 3.1053e-01 -1.5623e-01
       613 1.1247e-01 6.6399e-04 3.9496e-01 -2.1845e-01 3.1038e-01 -1.5641e-01
       614 1.0263e+01 4.1494e-06 3.9424e-01 -2.1831e-01 3.0960e-01 -1.5638e-01
       615 3.5743e+00 1.1761e-04 3.9428e-01 -2.1703e-01 3.0970e-01 -1.5555e-01
       616 7.6009e+00 1.5707e-05 3.9397e-01 -2.1868e-01 3.0949e-01 -1.5659e-01
       617 2.4656e+01 3.1096e-09 3.9299e-01 -2.1765e-01 3.0855e-01 -1.5584e-01
       618 5.1352e+01 4.9611e-15 3.9841e-01 -2.1628e-01 3.1334e-01 -1.5505e-01
       619 4.2631e+00 8.3340e-05 3.9388e-01 -2.1887e-01 3.0955e-01 -1.5657e-01
       620 4.0451e+01 1.1553e-12 3.9213e-01 -2.1666e-01 3.0794e-01 -1.5518e-01
       621 3.7262e+00 1.0901e-04 3.9569e-01 -2.1930e-01 3.1112e-01 -1.5648e-01
       622 3.6692e-02 6.8963e-04 3.9547e-01 -2.1910e-01 3.1076e-01 -1.5666e-01
       623 2.0742e+01 2.2008e-08 3.9653e-01 -2.1760e-01 3.1184e-01 -1.5601e-01
       624 8.5365e+00 9.8378e-06 3.9384e-01 -2.1805e-01 3.0948e-01 -1.5604e-01
       625 2.9282e+01 3.0760e-10 3.9193e-01 -2.1881e-01 3.0803e-01 -1.5643e-01
       626 2.5747e+00 1.9386e-04 3.9592e-01 -2.1765e-01 3.1126e-01 -1.5597e-01
       627 1.6449e+00 3.0860e-04 3.9558e-01 -2.1897e-01 3.1097e-01 -1.5660e-01
       628 6.3926e+00 2.8737e-05 3.9395e-01 -2.1781e-01 3.0944e-01 -1.5588e-01
       629 8.0823e+00 1.2346e-05 3.9339e-01 -2.1925e-01 3.0904e-01 -1.5659e-01
       630 3.6544e-03 7.0112e-04 3.9510e-01 -2.1730e-01 3.1052e-01 -1.5590e-01
       631 5.7862e-01 5.2594e-04 3.9476e-01 -2.1838e-01 3.1027e-01 -1.5624e-01
       632 1.3873e-02 6.9754e-04 3.9502e-01 -2.1820e-01 3.1050e-01 -1.5633e-01
       633 6.8129e-01 4.9963e-04 3.9500e-01 -2.1645e-01 3.1050e-01 -1.5488e-01
       634 3.1615e+00 1.4457e-04 3.9560e-01 -2.1736e-01 3.1105e-01 -1.5571e-01
       635 1.0934e+00 4.0658e-04 3.9424e-01 -2.1762e-01 3.0983e-01 -1.5554e-01
       636 4.5044e+00 7.3869e-05 3.9620e-01 -2.1905e-01 3.1141e-01 -1.5658e-01
       637 8.0701e-01 4.6918e-04 3.9488e-01 -2.1713e-01 3.1030e-01 -1.5549e-01
       638 1.9724e+01 3.6606e-08 3.9277e-01 -2.1765e-01 3.0864e-01 -1.5621e-01
       639 2.0359e+01 2.6653e-08 3.9267e-01 -2.1832e-01 3.0841e-01 -1.5597e-01
       640 1.4096e+00 3.4713e-04 3.9563e-01 -2.1947e-01 3.1103e-01 -1.5649e-01
       641 4.4276e+00 7.6761e-05 3.9567e-01 -2.1673e-01 3.1109e-01 -1.5562e-01
       642 8.4403e+00 1.0323e-05 3.9655e-01 -2.1923e-01 3.1170e-01 -1.5637e-01
       643 2.8197e+00 1.7151e-04 3.9569e-01 -2.1896e-01 3.1108e-01 -1.5648e-01
       644 3.7368e+00 1.0843e-04 3.9431e-01 -2.1863e-01 3.0988e-01 -1.5633e-01
       645 2.8394e+00 1.6983e-04 3.9392e-01 -2.1997e-01 3.0959e-01 -1.5682e-01
       646 3.6345e+00 1.1412e-04 3.9594e-01 -2.1785e-01 3.1124e-01 -1.5590e-01
       647 1.7579e+00 2.9165e-04 3.9581e-01 -2.1741e-01 3.1108e-01 -1.5570e-01
       648 1.4502e+01 4.9825e-07 3.9325e-01 -2.1744e-01 3.0896e-01 -1.5570e-01
       649 2.8015e-01 6.1059e-04 3.9583e-01 -2.1747e-01 3.1100e-01 -1.5592e-01
       650 8.5940e+00 9.5592e-06 3.9630e-01 -2.1786e-01 3.1163e-01 -1.5576e-01
       651 3.3065e+00 1.3446e-04 3.9402e-01 -2.1741e-01 3.0971e-01 -1.5588e-01
       652 1.0091e+01 4.5223e-06 3.9611e-01 -2.1723e-01 3.1149e-01 -1.5529e-01
       653 1.7949e+01 8.8910e-08 3.9331e-01 -2.1790e-01 3.0887e-01 -1.5615e-01
       654 3.2605e+01 5.8397e-11 3.9763e-01 -2.1746e-01 3.1276e-01 -1.5575e-01
       655 2.3449e+00 2.1747e-04 3.9458e-01 -2.1829e-01 3.1000e-01 -1.5606e-01
       656 5.2375e+00 5.1201e-05 3.9371e-01 -2.1939e-01 3.0939e-01 -1.5665e-01
       657 8.7726e-03 6.9933e-04 3.9496e-01 -2.1871e-01 3.1035e-01 -1.5638e-01
       658 5.7949e-02 6.8234e-04 3.9500e-01 -2.1842e-01 3.1043e-01 -1.5643e-01
       659 2.7433e+01 7.7559e-10 3.9268e-01 -2.1804e-01 3.0831e-01 -1.5613e-01
       660 8.3417e+00 1.0844e-05 3.9643e-01 -2.1777e-01 3.1173e-01 -1.5577e-01
       661 7.6425e+01 1.7830e-20 3.9099e-01 -2.1955e-01 3.0697e-01 -1.5668e-01
       662 6.6313e+00 2.5504e-05 3.9616e-01 -2.1864e-01 3.1142e-01 -1.5612e-01
       663 4.9715e-01 5.4781e-04 3.9531e-01 -2.1846e-01 3.1067e-01 -1.5645e-01
       664 1.2556e+00 3.7491e-04 3.9519e-01 -2.1719e-01 3.1076e-01 -1.5571e-01
       665 2.3465e+00 2.1730e-04 3.9576e-01 -2.1719e-01 3.1115e-01 -1.5571e-01
       666 3.7960e-01 5.8097e-04 3.9433e-01 -2.1884e-01 3.1001e-01 -1.5636e-01
       667 2.2009e+01 1.1679e-08 3.9724e-01 -2.1869e-01 3.1237e-01 -1.5641e-01
       668 4.6643e+00 6.8195e-05 3.9586e-01 -2.1820e-01 3.1116e-01 -1.5614e-01
       669 7.6261e+00 1.5509e-05 3.9615e-01 -2.1740e-01 3.1145e-01 -1.5553e-01
       670 1.6435e+01 1.8954e-07 3.9315e-01 -2.1793e-01 3.0888e-01 -1.5608e-01
       671 3.3665e-01 5.9358e-04 3.9478e-01 -2.1632e-01 3.1034e-01 -1.5525e-01
       672 2.1663e+00 2.3778e-04 3.9364e-01 -2.1930e-01 3.0941e-01 -1.5669e-01
       673 2.3102e+00 2.2128e-04 3.9580e-01 -2.1882e-01 3.1114e-01 -1.5655e-01
       674 2.9445e+00 1.6113e-04 3.9428e-01 -2.1872e-01 3.0978e-01 -1.5648e-01
       675 4.8894e+00 6.0936e-05 3.9381e-01 -2.1798e-01 3.0938e-01 -1.5621e-01
       676 1.3122e+01 9.9360e-07 3.9367e-01 -2.1724e-01 3.0921e-01 -1.5577e-01
       677 1.7059e+01 1.3874e-07 3.9335e-01 -2.1740e-01 3.0891e-01 -1.5513e-01
       678 1.1084e+01 2.7521e-06 3.9383e-01 -2.1901e-01 3.0926e-01 -1.5659e-01
       679 5.3685e+00 4.7954e-05 3.9359e-01 -2.1912e-01 3.0923e-01 -1.5659e-01
       680 1.8627e+01 6.3362e-08 3.9671e-01 -2.1757e-01 3.1199e-01 -1.5577e-01
       681 1.9166e+01 4.8383e-08 3.9698e-01 -2.1870e-01 3.1214e-01 -1.5630e-01
       682 8.7767e+00 8.7247e-06 3.9395e-01 -2.1778e-01 3.0944e-01 -1.5572e-01
       683 5.4295e+00 4.6513e-05 3.9428e-01 -2.1866e-01 3.0979e-01 -1.5640e-01
       684 1.9459e+01 4.1786e-08 3.9723e-01 -2.1670e-01 3.1237e-01 -1.5571e-01
       685 1.3213e+01 9.4940e-07 3.9609e-01 -2.1905e-01 3.1149e-01 -1.5648e-01
       686 1.6697e-02 6.9656e-04 3.9479e-01 -2.1731e-01 3.1022e-01 -1.5586e-01
       687 1.9929e-02 6.9544e-04 3.9527e-01 -2.1792e-01 3.1060e-01 -1.5601e-01
       688 4.4738e+00 7.5007e-05 3.9415e-01 -2.1793e-01 3.0964e-01 -1.5607e-01
       689 1.9044e+01 5.1444e-08 3.9332e-01 -2.1815e-01 3.0891e-01 -1.5607e-01
       690 7.1560e-03 6.9989e-04 3.9445e-01 -2.1795e-01 3.1005e-01 -1.5624e-01
       691 3.1786e-01 5.9919e-04 3.9550e-01 -2.1843e-01 3.1080e-01 -1.5623e-01
       692 2.5175e+01 2.3984e-09 3.9255e-01 -2.1794e-01 3.0837e-01 -1.5566e-01
       693 3.2108e+01 7.4899e-11 3.9717e-01 -2.1868e-01 3.1243e-01 -1.5649e-01
       694 4.2133e+00 8.5442e-05 3.9391e-01 -2.1749e-01 3.0958e-01 -1.5594e-01
       695 1.0715e+01 3.3099e-06 3.9658e-01 -2.1745e-01 3.1181e-01 -1.5571e-01
       696 3.5102e-01 5.8933e-04 3.9424e-01 -2.1783e-01 3.0996e-01 -1.5602e-01
       697 8.6747e-01 4.5521e-04 3.9432e-01 -2.1945e-01 3.0989e-01 -1.5667e-01
       698 1.9534e+00 2.6449e-04 3.9533e-01 -2.1677e-01 3.1075e-01 -1.5512e-01
       699 3.0600e+00 1.5209e-04 3.9526e-01 -2.1794e-01 3.1085e-01 -1.5604e-01
       700 4.7979e+00 6.3788e-05 3.9569e-01 -2.1852e-01 3.1111e-01 -1.5636e-01
       701 1.0663e+01 3.3969e-06 3.9362e-01 -2.1656e-01 3.0924e-01 -1.5582e-01
       702 1.4510e+01 4.9643e-07 3.9292e-01 -2.1812e-01 3.0882e-01 -1.5624e-01
       703 1.8194e+01 7.8671e-08 3.9662e-01 -2.1852e-01 3.1193e-01 -1.5579e-01
       704 7.8883e+00 1.3604e-05 3.9328e-01 -2.1800e-01 3.0903e-01 -1.5603e-01
       705 1.5341e+00 3.2618e-04 3.9414e-01 -2.1820e-01 3.0975e-01 -1.5621e-01
       706 3.6609e-01 5.8491e-04 3.9472e-01 -2.1885e-01 3.1026e-01 -1.5635e-01
       707 3.3273e+00 1.3307e-04 3.9610e-01 -2.1932e-01 3.1136e-01 -1.5623e-01
       708 7.3640e+00 1.7681e-05 3.9373e-01 -2.1830e-01 3.0939e-01 -1.5616e-01
       709 1.7753e-01 6.4274e-04 3.9563e-01 -2.1835e-01 3.1093e-01 -1.5628e-01
       710 5.2316e-02 6.8426e-04 3.9482e-01 -2.1908e-01 3.1033e-01 -1.5642e-01
       711 1.9517e+00 2.6471e-04 3.9548e-01 -2.1817e-01 3.1096e-01 -1.5594e-01
       712 1.4959e+01 3.9655e-07 3.9338e-01 -2.1852e-01 3.0895e-01 -1.5619e-01
       713 4.0111e+00 9.4532e-05 3.9611e-01 -2.1904e-01 3.1132e-01 -1.5647e-01
       714 1.1419e+01 2.3284e-06 3.9325e-01 -2.1778e-01 3.0899e-01 -1.5581e-01
       715 8.0043e-01 4.7073e-04 3.9573e-01 -2.1840e-01 3.1104e-01 -1.5641e-01
       716 6.8104e+00 2.3320e-05 3.9617e-01 -2.1798e-01 3.1145e-01 -1.5599e-01
       717 1.3147e+01 9.8095e-07 3.9315e-01 -2.1799e-01 3.0891e-01 -1.5610e-01
       718 2.1671e-01 6.3027e-04 3.9452e-01 -2.1922e-01 3.1020e-01 -1.5642e-01
       719 7.5384e+00 1.6205e-05 3.9686e-01 -2.1879e-01 3.1184e-01 -1.5649e-01
       720 5.3426e+00 4.8579e-05 3.9420e-01 -2.1712e-01 3.0965e-01 -1.5559e-01
       721 8.4472e-01 4.6042e-04 3.9520e-01 -2.1827e-01 3.1063e-01 -1.5632e-01
       722 1.4010e+01 6.3737e-07 3.9357e-01 -2.1731e-01 3.0913e-01 -1.5581e-01
       723 1.6402e-01 6.4709e-04 3.9412e-01 -2.1869e-01 3.0984e-01 -1.5644e-01
       724 1.1524e+01 2.2085e-06 3.9675e-01 -2.1787e-01 3.1183e-01 -1.5595e-01
       725 2.1606e+01 1.4288e-08 3.9727e-01 -2.1797e-01 3.1234e-01 -1.5626e-01
       726 1.9354e+00 2.6688e-04 3.9491e-01 -2.1717e-01 3.1027e-01 -1.5550e-01
       727 2.3795e-01 6.2361e-04 3.9500e-01 -2.1873e-01 3.1043e-01 -1.5650e-01
       728 1.2161e+01 1.6066e-06 3.9634e-01 -2.1712e-01 3.1166e-01 -1.5561e-01
       729 5.6753e-01 5.2887e-04 3.9497e-01 -2.1791e-01 3.1029e-01 -1.5585e-01
       730 6.2244e+01 2.1400e-17 3.9831e-01 -2.1678e-01 3.1347e-01 -1.5540e-01
       731 1.2004e+01 1.7372e-06 3.9616e-01 -2.1879e-01 3.1160e-01 -1.5631e-01
       732 1.8563e+00 2.7765e-04 3.9593e-01 -2.1851e-01 3.1121e-01 -1.5603e-01
       733 2.0921e+01 2.0121e-08 3.9302e-01 -2.1748e-01 3.0868e-01 -1.5583e-01
       734 5.3194e-01 5.3836e-04 3.9440e-01 -2.1847e-01 3.1013e-01 -1.5635e-01
       735 1.4925e+01 4.0339e-07 3.9319e-01 -2.1892e-01 3.0884e-01 -1.5626e-01
       736 2.1694e-02 6.9482e-04 3.9538e-01 -2.1797e-01 3.1070e-01 -1.5615e-01
       737 4.2253e+00 8.4932e-05 3.9392e-01 -2.1809e-01 3.0948e-01 -1.5613e-01
       738 6.6919e+00 2.4743e-05 3.9389e-01 -2.1820e-01 3.0949e-01 -1.5622e-01
       739 1.7219e+01 1.2808e-07 3.9284e-01 -2.1843e-01 3.0858e-01 -1.5618e-01
       740 5.3304e+00 4.8877e-05 3.9531e-01 -2.1753e-01 3.1089e-01 -1.5567e-01
       741 5.2498e+00 5.0887e-05 3.9367e-01 -2.1949e-01 3.0932e-01 -1.5670e-01
       742 5.1664e-03 7.0059e-04 3.9455e-01 -2.1857e-01 3.1021e-01 -1.5643e-01
       743 7.8387e-01 4.7464e-04 3.9451e-01 -2.1855e-01 3.1005e-01 -1.5636e-01
       744 1.3360e+00 3.6014e-04 3.9453e-01 -2.1848e-01 3.1000e-01 -1.5634e-01
       745 9.5483e+00 5.9319e-06 3.9338e-01 -2.1815e-01 3.0918e-01 -1.5609e-01
       746 1.8377e+00 2.8024e-04 3.9391e-01 -2.1885e-01 3.0958e-01 -1.5624e-01
       747 1.4765e+00 3.3571e-04 3.9438e-01 -2.1849e-01 3.0988e-01 -1.5630e-01
       748 1.4913e+00 3.3324e-04 3.9597e-01 -2.1754e-01 3.1116e-01 -1.5583e-01
       749 3.7304e+00 1.0878e-04 3.9403e-01 -2.1849e-01 3.0957e-01 -1.5640e-01
       750 5.0639e+00 5.5843e-05 3.9330e-01 -2.1779e-01 3.0917e-01 -1.5604e-01
       751 8.6206e+00 9.4327e-06 3.9604e-01 -2.1782e-01 3.1142e-01 -1.5610e-01
       752 9.2121e+00 7.0179e-06 3.9351e-01 -2.1752e-01 3.0915e-01 -1.5596e-01
       753 1.2852e+00 3.6941e-04 3.9465e-01 -2.1808e-01 3.1029e-01 -1.5586e-01
       754 3.7646e+01 4.6975e-12 3.9753e-01 -2.2033e-01 3.1282e-01 -1.5688e-01
       755 2.8568e+01 4.3964e-10 3.9222e-01 -2.1851e-01 3.0820e-01 -1.5614e-01
       756 6.6418e+00 2.5371e-05 3.9609e-01 -2.1855e-01 3.1136e-01 -1.5648e-01
       757 8.5564e+00 9.7407e-06 3.9403e-01 -2.1874e-01 3.0946e-01 -1.5648e-01
       758 3.8079e+00 1.0464e-04 3.9416e-01 -2.1833e-01 3.0969e-01 -1.5641e-01
       759 3.7311e-01 5.8286e-04 3.9476e-01 -2.1840e-01 3.1028e-01 -1.5614e-01
       760 2.7666e-01 6.1166e-04 3.9461e-01 -2.1865e-01 3.1014e-01 -1.5631e-01
       761 4.3786e-01 5.6429e-04 3.9495e-01 -2.1909e-01 3.1049e-01 -1.5660e-01
       762 1.9940e+01 3.2863e-08 3.9694e-01 -2.1925e-01 3.1213e-01 -1.5650e-01
       763 2.9494e-01 6.0609e-04 3.9491e-01 -2.1943e-01 3.1034e-01 -1.5664e-01
       764 1.3203e+01 9.5391e-07 3.9655e-01 -2.1870e-01 3.1173e-01 -1.5636e-01
       765 3.2259e+01 6.9446e-11 3.9267e-01 -2.1882e-01 3.0833e-01 -1.5661e-01
       766 1.7277e+01 1.2445e-07 3.9679e-01 -2.1813e-01 3.1202e-01 -1.5575e-01
       767 4.1393e-03 7.0095e-04 3.9491e-01 -2.1835e-01 3.1045e-01 -1.5642e-01
       768 1.1516e+00 3.9494e-04 3.9561e-01 -2.1864e-01 3.1097e-01 -1.5651e-01
       769 1.1590e+01 2.1371e-06 3.9609e-01 -2.1815e-01 3.1148e-01 -1.5613e-01
       770 3.8630e+00 1.0180e-04 3.9395e-01 -2.1853e-01 3.0960e-01 -1.5613e-01
       771 5.7160e+01 2.7195e-16 3.9132e-01 -2.1807e-01 3.0726e-01 -1.5582e-01
       772 1.0345e+01 3.9826e-06 3.9383e-01 -2.1840e-01 3.0937e-01 -1.5614e-01
       773 5.0414e+00 5.6476e-05 3.9596e-01 -2.1862e-01 3.1126e-01 -1.5632e-01
       774 1.5757e+00 3.1947e-04 3.9414e-01 -2.1859e-01 3.0979e-01 -1.5621e-01
       775 2.7063e+00 1.8151e-04 3.9382e-01 -2.1774e-01 3.0948e-01 -1.5565e-01
       776 5.2985e+01 2.1927e-15 3.9124e-01 -2.1748e-01 3.0727e-01 -1.5615e-01
       777 3.0059e+00 1.5626e-04 3.9570e-01 -2.1765e-01 3.1102e-01 -1.5594e-01
       778 5.8744e+00 3.7237e-05 3.9430e-01 -2.1994e-01 3.0972e-01 -1.5687e-01
       779 6.5417e+00 2.6673e-05 3.9620e-01 -2.1846e-01 3.1146e-01 -1.5632e-01
       780 2.0043e-01 6.3542e-04 3.9482e-01 -2.1745e-01 3.1037e-01 -1.5543e-01
       781 2.6471e+01 1.2547e-09 3.9273e-01 -2.1768e-01 3.0840e-01 -1.5634e-01
       782 2.9234e+01 3.1515e-10 3.9756e-01 -2.1707e-01 3.1267e-01 -1.5555e-01
       783 2.7660e-01 6.1168e-04 3.9549e-01 -2.1880e-01 3.1078e-01 -1.5621e-01
       784 9.4957e-01 4.3691e-04 3.9455e-01 -2.1832e-01 3.1028e-01 -1.5608e-01
       785 5.9331e+00 3.6160e-05 3.9625e-01 -2.1786e-01 3.1150e-01 -1.5628e-01
       786 1.3414e+01 8.5846e-07 3.9615e-01 -2.1712e-01 3.1158e-01 -1.5560e-01
       787 1.7475e-01 6.4363e-04 3.9490e-01 -2.1887e-01 3.1030e-01 -1.5653e-01
       788 8.1685e+00 1.1825e-05 3.9435e-01 -2.1760e-01 3.0973e-01 -1.5551e-01
       789 2.7420e+00 1.7831e-04 3.9417e-01 -2.1932e-01 3.0974e-01 -1.5660e-01
       790 1.4407e+00 3.4178e-04 3.9582e-01 -2.1745e-01 3.1105e-01 -1.5598e-01
       791 9.5147e-01 4.3649e-04 3.9517e-01 -2.1865e-01 3.1059e-01 -1.5644e-01
       792 1.7323e+01 1.2160e-07 3.9333e-01 -2.1780e-01 3.0897e-01 -1.5577e-01
       793 1.4603e+00 3.3844e-04 3.9441e-01 -2.1769e-01 3.0988e-01 -1.5590e-01
       794 4.4248e-01 5.6299e-04 3.9533e-01 -2.1873e-01 3.1077e-01 -1.5632e-01
       795 4.8087e+00 6.3445e-05 3.9612e-01 -2.1833e-01 3.1147e-01 -1.5602e-01
       796 9.7806e-01 4.3073e-04 3.9542e-01 -2.1884e-01 3.1080e-01 -1.5637e-01
       797 2.7155e+00 1.8068e-04 3.9539e-01 -2.1735e-01 3.1083e-01 -1.5553e-01
       798 9.0956e+00 7.4388e-06 3.9694e-01 -2.1879e-01 3.1195e-01 -1.5620e-01
       799 1.1551e+01 2.1798e-06 3.9339e-01 -2.1828e-01 3.0904e-01 -1.5636e-01
       800 3.2282e+00 1.3983e-04 3.9618e-01 -2.1721e-01 3.1140e-01 -1.5538e-01
       801 1.0617e+01 3.4756e-06 3.9374e-01 -2.1864e-01 3.0921e-01 -1.5640e-01
       802 9.6478e+00 5.6440e-06 3.9370e-01 -2.1864e-01 3.0924e-01 -1.5640e-01
       803 1.8396e-02 6.9597e-04 3.9482e-01 -2.1868e-01 3.1028e-01 -1.5621e-01
       804 6.8639e+00 2.2705e-05 3.9373e-01 -2.1846e-01 3.0937e-01 -1.5640e-01
       805 3.9959e+00 9.5255e-05 3.9432e-01 -2.1760e-01 3.0984e-01 -1.5566e-01
       806 1.9903e+01 3.3476e-08 3.9301e-01 -2.1941e-01 3.0870e-01 -1.5677e-01
       807 1.5802e+01 2.6015e-07 3.9349e-01 -2.1765e-01 3.0903e-01 -1.5597e-01
       808 4.2877e-03 7.0090e-04 3.9489e-01 -2.1836e-01 3.1033e-01 -1.5619e-01
       809 5.1918e+00 5.2385e-05 3.9438e-01 -2.1674e-01 3.0978e-01 -1.5546e-01
       810 5.8268e+00 3.8135e-05 3.9604e-01 -2.1844e-01 3.1131e-01 -1.5640e-01
       811 4.1488e+00 8.8245e-05 3.9413e-01 -2.1786e-01 3.0967e-01 -1.5619e-01
       812 3.9400e+00 9.7955e-05 3.9453e-01 -2.1835e-01 3.0989e-01 -1.5628e-01
       813 3.1224e-01 6.0087e-04 3.9457e-01 -2.1827e-01 3.1012e-01 -1.5566e-01
       814 8.5728e-01 4.5754e-04 3.9413e-01 -2.1812e-01 3.0976e-01 -1.5607e-01
       815 2.0640e+01 2.3151e-08 3.9281e-01 -2.1798e-01 3.0851e-01 -1.5602e-01
       816 2.9966e+01 2.1856e-10 3.9234e-01 -2.1870e-01 3.0821e-01 -1.5619e-01
       817 2.5556e-01 6.1814e-04 3.9509e-01 -2.1663e-01 3.1062e-01 -1.5554e-01
       818 9.6428e+00 5.6581e-06 3.9368e-01 -2.1781e-01 3.0919e-01 -1.5582e-01
       819 4.0042e+00 9.4859e-05 3.9414e-01 -2.1982e-01 3.0974e-01 -1.5660e-01
       820 2.0897e+01 2.0364e-08 3.9711e-01 -2.1906e-01 3.1230e-01 -1.5617e-01
       821 1.7562e+01 1.0791e-07 3.9358e-01 -2.1923e-01 3.0913e-01 -1.5645e-01
       822 6.3806e+01 9.8018e-18 3.9870e-01 -2.1781e-01 3.1364e-01 -1.5581e-01
       823 6.0595e+01 4.8810e-17 3.9864e-01 -2.1811e-01 3.1364e-01 -1.5619e-01
       824 9.2165e-01 4.4305e-04 3.9502e-01 -2.1789e-01 3.1034e-01 -1.5611e-01
       825 3.1975e+00 1.4199e-04 3.9553e-01 -2.1752e-01 3.1099e-01 -1.5586e-01
       826 4.9580e+00 5.8881e-05 3.9598e-01 -2.1831e-01 3.1133e-01 -1.5627e-01
       827 1.3524e-01 6.5647e-04 3.9559e-01 -2.1960e-01 3.1088e-01 -1.5676e-01
       828 2.3873e+00 2.1290e-04 3.9414e-01 -2.1869e-01 3.0973e-01 -1.5640e-01
       829 1.4806e+00 3.3502e-04 3.9417e-01 -2.1754e-01 3.0975e-01 -1.5559e-01
       830 2.5519e+00 1.9609e-04 3.9427e-01 -2.1825e-01 3.0980e-01 -1.5605e-01
       831 1.1583e+01 2.1442e-06 3.9666e-01 -2.1752e-01 3.1187e-01 -1.5597e-01
       832 1.8484e+01 6.8043e-08 3.9264e-01 -2.1681e-01 3.0840e-01 -1.5565e-01
       833 7.7915e-02 6.7556e-04 3.9525e-01 -2.1889e-01 3.1062e-01 -1.5652e-01
       834 1.1963e+02 7.4179e-30 3.8965e-01 -2.1945e-01 3.0577e-01 -1.5679e-01
       835 2.3526e+00 2.1663e-04 3.9556e-01 -2.1780e-01 3.1092e-01 -1.5580e-01
       836 1.9483e+01 4.1294e-08 3.9699e-01 -2.1852e-01 3.1220e-01 -1.5648e-01
       837 9.2020e+00 7.0532e-06 3.9336e-01 -2.1921e-01 3.0911e-01 -1.5670e-01
       838 1.2767e+01 1.1863e-06 3.9714e-01 -2.1851e-01 3.1215e-01 -1.5623e-01
       839 4.3298e+00 8.0607e-05 3.9660e-01 -2.1689e-01 3.1168e-01 -1.5560e-01
       840 2.7200e+01 8.7144e-10 3.9288e-01 -2.1817e-01 3.0847e-01 -1.5644e-01
       841 4.6122e-01 5.5774e-04 3.9531e-01 -2.1856e-01 3.1072e-01 -1.5609e-01
       842 2.6464e+00 1.8704e-04 3.9590e-01 -2.1893e-01 3.1119e-01 -1.5658e-01
       843 1.8936e+01 5.4272e-08 3.9268e-01 -2.1921e-01 3.0851e-01 -1.5661e-01
       844 1.3554e-01 6.5637e-04 3.9472e-01 -2.1862e-01 3.1025e-01 -1.5632e-01
       845 2.2005e+00 2.3375e-04 3.9591e-01 -2.1794e-01 3.1113e-01 -1.5627e-01
       846 5.4039e+00 4.7114e-05 3.9612e-01 -2.1892e-01 3.1139e-01 -1.5640e-01
       847 5.2117e-01 5.4127e-04 3.9489e-01 -2.1848e-01 3.1035e-01 -1.5632e-01
       848 2.1361e+01 1.6150e-08 3.9779e-01 -2.1866e-01 3.1271e-01 -1.5649e-01
       849 6.7821e+00 2.3652e-05 3.9648e-01 -2.1877e-01 3.1169e-01 -1.5646e-01
       850 1.1491e+01 2.2458e-06 3.9680e-01 -2.1896e-01 3.1198e-01 -1.5654e-01
       851 3.1134e+00 1.4809e-04 3.9565e-01 -2.1815e-01 3.1111e-01 -1.5618e-01
       852 4.1396e+01 7.2048e-13 3.9797e-01 -2.1876e-01 3.1301e-01 -1.5642e-01
       853 8.4078e+00 1.0492e-05 3.9401e-01 -2.1773e-01 3.0953e-01 -1.5622e-01
       854 4.1311e+00 8.9028e-05 3.9413e-01 -2.1837e-01 3.0953e-01 -1.5634e-01
       855 2.5660e-01 6.1782e-04 3.9437e-01 -2.1741e-01 3.0992e-01 -1.5585e-01
       856 2.1737e+00 2.3691e-04 3.9453e-01 -2.1839e-01 3.0994e-01 -1.5595e-01
       857 2.6575e-01 6.1500e-04 3.9518e-01 -2.1821e-01 3.1060e-01 -1.5602e-01
       858 2.5283e+00 1.9842e-04 3.9581e-01 -2.1805e-01 3.1105e-01 -1.5601e-01
       859 2.4994e+00 2.0130e-04 3.9432e-01 -2.1742e-01 3.0983e-01 -1.5586e-01
       860 6.6849e-02 6.7931e-04 3.9509e-01 -2.1833e-01 3.1046e-01 -1.5600e-01
       861 2.5561e-01 6.1813e-04 3.9462e-01 -2.1847e-01 3.1013e-01 -1.5626e-01
       862 1.2675e+01 1.2426e-06 3.9370e-01 -2.1837e-01 3.0923e-01 -1.5638e-01
       863 3.3404e+00 1.3220e-04 3.9609e-01 -2.1795e-01 3.1134e-01 -1.5620e-01
       864 1.4491e+01 5.0119e-07 3.9626e-01 -2.1780e-01 3.1176e-01 -1.5563e-01
       865 2.9523e+01 2.7278e-10 3.9239e-01 -2.1863e-01 3.0816e-01 -1.5619e-01
       866 1.0177e+01 4.3325e-06 3.9391e-01 -2.1866e-01 3.0943e-01 -1.5616e-01
       867 3.4035e+01 2.8572e-11 3.9870e-01 -2.1871e-01 3.1345e-01 -1.5648e-01
       868 1.4990e-02 6.9715e-04 3.9521e-01 -2.1862e-01 3.1063e-01 -1.5640e-01
       869 1.3424e+01 8.5431e-07 3.9698e-01 -2.1846e-01 3.1214e-01 -1.5601e-01
       870 2.3161e+00 2.2062e-04 3.9433e-01 -2.1650e-01 3.0984e-01 -1.5570e-01
       871 5.1940e-02 6.8439e-04 3.9497e-01 -2.1737e-01 3.1048e-01 -1.5577e-01
       872 6.1579e+00 3.2316e-05 3.9377e-01 -2.1954e-01 3.0939e-01 -1.5665e-01
       873 9.9944e-01 4.2615e-04 3.9535e-01 -2.1813e-01 3.1079e-01 -1.5592e-01
       874 4.8801e+01 1.7764e-14 3.9119e-01 -2.1874e-01 3.0727e-01 -1.5625e-01
       875 1.5174e+01 3.5611e-07 3.9363e-01 -2.1897e-01 3.0915e-01 -1.5641e-01
       876 3.7578e+00 1.0730e-04 3.9599e-01 -2.1827e-01 3.1133e-01 -1.5609e-01
       877 2.6722e+01 1.1065e-09 3.9753e-01 -2.1804e-01 3.1248e-01 -1.5618e-01
       878 7.1230e+01 2.3938e-19 3.9794e-01 -2.1753e-01 3.1320e-01 -1.5567e-01
       879 1.2051e+00 3.8450e-04 3.9431e-01 -2.1671e-01 3.0984e-01 -1.5521e-01
       880 4.6110e+00 7.0036e-05 3.9610e-01 -2.1844e-01 3.1140e-01 -1.5639e-01
       881 2.6652e-01 6.1477e-04 3.9460e-01 -2.1561e-01 3.1010e-01 -1.5463e-01
       882 6.8533e-02 6.7874e-04 3.9476e-01 -2.1792e-01 3.1031e-01 -1.5604e-01
       883 3.1053e+00 1.4868e-04 3.9383e-01 -2.1774e-01 3.0948e-01 -1.5544e-01
       884 1.0067e+00 4.2461e-04 3.9423e-01 -2.1809e-01 3.0989e-01 -1.5629e-01
       885 1.0974e+00 4.0578e-04 3.9538e-01 -2.1922e-01 3.1079e-01 -1.5660e-01
       886 1.9776e-01 6.3627e-04 3.9454e-01 -2.1892e-01 3.1004e-01 -1.5638e-01
       887 1.8620e+00 2.7685e-04 3.9599e-01 -2.1778e-01 3.1118e-01 -1.5610e-01
       888 8.7305e+01 7.7360e-23 3.9066e-01 -2.1800e-01 3.0664e-01 -1.5613e-01
       889 5.8411e+00 3.7863e-05 3.9623e-01 -2.1973e-01 3.1153e-01 -1.5645e-01
       890 3.4136e+00 1.2745e-04 3.9549e-01 -2.1956e-01 3.1095e-01 -1.5674e-01
       891 3.1930e+00 1.4231e-04 3.9439e-01 -2.1802e-01 3.0993e-01 -1.5626e-01
       892 4.3457e+01 2.5702e-13 3.9187e-01 -2.1771e-01 3.0774e-01 -1.5594e-01
       893 2.4774e+00 2.0353e-04 3.9562e-01 -2.1932e-01 3.1093e-01 -1.5651e-01
       894 3.8997e+01 2.3906e-12 3.9809e-01 -2.1740e-01 3.1304e-01 -1.5573e-01
       895 3.5366e+01 1.4685e-11 3.9753e-01 -2.1818e-01 3.1271e-01 -1.5628e-01
       896 3.5601e-01 5.8786e-04 3.9550e-01 -2.1841e-01 3.1082e-01 -1.5641e-01
       897 8.2706e+00 1.1237e-05 3.9645e-01 -2.1735e-01 3.1172e-01 -1.5577e-01
       898 1.5239e+01 3.4479e-07 3.9640e-01 -2.1880e-01 3.1176e-01 -1.5649e-01
       899 8.5644e+00 9.7017e-06 3.9608e-01 -2.1618e-01 3.1137e-01 -1.5516e-01
       900 1.5178e+01 3.5543e-07 3.9654e-01 -2.1857e-01 3.1184e-01 -1.5623e-01
       901 1.0365e+01 3.9433e-06 3.9702e-01 -2.1702e-01 3.1215e-01 -1.5567e-01
       902 7.7921e+00 1.4274e-05 3.9314e-01 -2.1717e-01 3.0899e-01 -1.5564e-01
       903 3.7134e+00 1.0971e-04 3.9616e-01 -2.1726e-01 3.1139e-01 -1.5575e-01
       904 3.7528e+00 1.0757e-04 3.9595e-01 -2.1667e-01 3.1121e-01 -1.5543e-01
       905 2.7410e+00 1.7839e-04 3.9450e-01 -2.1741e-01 3.0994e-01 -1.5561e-01
       906 7.3214e+00 1.8062e-05 3.9372e-01 -2.1813e-01 3.0932e-01 -1.5599e-01
       907 1.7554e+01 1.0832e-07 3.9337e-01 -2.1940e-01 3.0894e-01 -1.5670e-01
       908 3.5694e+01 1.2468e-11 3.9269e-01 -2.1815e-01 3.0828e-01 -1.5615e-01
       909 5.8548e+00 3.7603e-05 3.9613e-01 -2.1819e-01 3.1135e-01 -1.5613e-01
       910 3.4399e+01 2.3825e-11 3.9707e-01 -2.1696e-01 3.1236e-01 -1.5569e-01
       911 7.5475e+00 1.6131e-05 3.9605e-01 -2.1833e-01 3.1143e-01 -1.5591e-01
       912 7.4779e+00 1.6702e-05 3.9631e-01 -2.1818e-01 3.1159e-01 -1.5638e-01
       913 3.5528e+01 1.3545e-11 3.9764e-01 -2.1950e-01 3.1281e-01 -1.5673e-01
       914 8.5126e-03 6.9942e-04 3.9531e-01 -2.1760e-01 3.1056e-01 -1.5598e-01
       915 2.5579e+00 1.9550e-04 3.9396e-01 -2.1835e-01 3.0958e-01 -1.5631e-01
       916 2.5931e+00 1.9209e-04 3.9442e-01 -2.1711e-01 3.0984e-01 -1.5588e-01
       917 2.0975e+01 1.9588e-08 3.9275e-01 -2.1939e-01 3.0847e-01 -1.5672e-01
       918 8.1488e+00 1.1942e-05 3.9640e-01 -2.1832e-01 3.1164e-01 -1.5638e-01
       919 1.1776e+01 1.9478e-06 3.9701e-01 -2.1843e-01 3.1203e-01 -1.5639e-01
       920 7.8814e-01 4.7363e-04 3.9453e-01 -2.1719e-01 3.0997e-01 -1.5560e-01
       921 1.1268e+01 2.5108e-06 3.9398e-01 -2.1707e-01 3.0942e-01 -1.5558e-01
       922 6.7819e+00 2.3654e-05 3.9619e-01 -2.1790e-01 3.1150e-01 -1.5621e-01
       923 5.4735e+00 4.5502e-05 3.9645e-01 -2.1826e-01 3.1156e-01 -1.5612e-01
       924 1.4546e+01 4.8753e-07 3.9632e-01 -2.1872e-01 3.1173e-01 -1.5649e-01
       925 1.4220e+00 3.4499e-04 3.9470e-01 -2.1874e-01 3.1017e-01 -1.5619e-01
       926 1.2384e+01 1.4370e-06 3.9635e-01 -2.1943e-01 3.1165e-01 -1.5620e-01
       927 1.2825e+01 1.1528e-06 3.9658e-01 -2.1829e-01 3.1181e-01 -1.5593e-01
       928 4.2307e+01 4.5680e-13 3.9798e-01 -2.1754e-01 3.1302e-01 -1.5587e-01
       929 9.8455e+00 5.1128e-06 3.9333e-01 -2.1850e-01 3.0909e-01 -1.5619e-01
       930 2.0268e+00 2.5496e-04 3.9599e-01 -2.1884e-01 3.1126e-01 -1.5648e-01
       931 5.6333e+00 4.2008e-05 3.9628e-01 -2.1705e-01 3.1160e-01 -1.5546e-01
       932 6.0100e+00 3.4797e-05 3.9347e-01 -2.1801e-01 3.0913e-01 -1.5593e-01
       933 2.4891e-01 6.2020e-04 3.9485e-01 -2.1830e-01 3.1034e-01 -1.5632e-01
       934 1.4540e+00 3.3951e-04 3.9576e-01 -2.1763e-01 3.1106e-01 -1.5545e-01
       935 2.3056e+01 6.9173e-09 3.9229e-01 -2.1744e-01 3.0812e-01 -1.5569e-01
       936 5.0607e+00 5.5933e-05 3.9365e-01 -2.1846e-01 3.0934e-01 -1.5646e-01
       937 4.6257e+00 6.9524e-05 3.9446e-01 -2.1747e-01 3.0989e-01 -1.5586e-01
       938 2.9798e+01 2.3774e-10 3.9740e-01 -2.1923e-01 3.1262e-01 -1.5640e-01
       939 1.2560e+01 1.3157e-06 3.9706e-01 -2.1772e-01 3.1221e-01 -1.5573e-01
       940 4.5414e+00 7.2517e-05 3.9364e-01 -2.1832e-01 3.0930e-01 -1.5629e-01
       941 7.8416e+00 1.3925e-05 3.9648e-01 -2.1753e-01 3.1168e-01 -1.5590e-01
       942 1.0956e+01 2.9339e-06 3.9634e-01 -2.1757e-01 3.1169e-01 -1.5564e-01
       943 1.3823e+00 3.5189e-04 3.9558e-01 -2.1821e-01 3.1096e-01 -1.5587e-01
       944 6.8712e+01 8.4333e-19 3.9856e-01 -2.1663e-01 3.1358e-01 -1.5529e-01
       945 3.7063e+00 1.1010e-04 3.9591e-01 -2.1913e-01 3.1126e-01 -1.5659e-01
       946 1.7177e+00 2.9757e-04 3.9402e-01 -2.1818e-01 3.0965e-01 -1.5629e-01
       947 5.2866e+00 4.9959e-05 3.9598e-01 -2.1699e-01 3.1132e-01 -1.5528e-01
       948 8.3465e-02 6.7369e-04 3.9484e-01 -2.1861e-01 3.1032e-01 -1.5643e-01
       949 2.6040e+01 1.5559e-09 3.9285e-01 -2.1781e-01 3.0850e-01 -1.5623e-01
       950 3.5822e+00 1.1715e-04 3.9426e-01 -2.1849e-01 3.0977e-01 -1.5623e-01
       951 5.6058e+00 4.2589e-05 3.9346e-01 -2.1935e-01 3.0915e-01 -1.5665e-01
       952 1.0042e+01 4.6345e-06 3.9671e-01 -2.1832e-01 3.1190e-01 -1.5622e-01
       953 4.3913e+01 2.0459e-13 3.9863e-01 -2.1767e-01 3.1347e-01 -1.5586e-01
       954 3.4279e+01 2.5290e-11 3.9788e-01 -2.1811e-01 3.1288e-01 -1.5620e-01
       955 8.9604e+00 7.9589e-06 3.9349e-01 -2.1877e-01 3.0914e-01 -1.5634e-01
       956 8.5353e+00 9.8439e-06 3.9334e-01 -2.1885e-01 3.0908e-01 -1.5661e-01
       957 4.5538e+01 9.0807e-14 3.9188e-01 -2.1847e-01 3.0767e-01 -1.5643e-01
       958 9.8520e+00 5.0962e-06 3.9336e-01 -2.1963e-01 3.0905e-01 -1.5677e-01
       959 9.3814e+00 6.4481e-06 3.9335e-01 -2.1838e-01 3.0912e-01 -1.5635e-01
       960 2.9304e+00 1.6228e-04 3.9418e-01 -2.1763e-01 3.0974e-01 -1.5560e-01
       961 5.5464e+00 4.3872e-05 3.9692e-01 -2.1868e-01 3.1193e-01 -1.5633e-01
       962 4.8160e-01 5.5208e-04 3.9394e-01 -2.1850e-01 3.0965e-01 -1.5614e-01
       963 2.1496e+01 1.5095e-08 3.9293e-01 -2.1795e-01 3.0861e-01 -1.5616e-01
       964 6.4392e+00 2.8076e-05 3.9705e-01 -2.1851e-01 3.1206e-01 -1.5649e-01
       965 6.2435e-02 6.8081e-04 3.9513e-01 -2.1671e-01 3.1048e-01 -1.5541e-01
       966 9.4325e-01 4.3829e-04 3.9443e-01 -2.1785e-01 3.1002e-01 -1.5600e-01
       967 2.4666e+01 3.0939e-09 3.9702e-01 -2.1859e-01 3.1224e-01 -1.5627e-01
       968 3.6924e+00 1.1087e-04 3.9599e-01 -2.1783e-01 3.1129e-01 -1.5591e-01
       969 3.8263e+01 3.4512e-12 3.9257e-01 -2.1840e-01 3.0816e-01 -1.5652e-01
       970 1.7688e+00 2.9007e-04 3.9572e-01 -2.1880e-01 3.1102e-01 -1.5649e-01
       971 1.1989e-01 6.6153e-04 3.9510e-01 -2.1696e-01 3.1046e-01 -1.5549e-01
       972 1.3125e-02 6.9781e-04 3.9518e-01 -2.1886e-01 3.1055e-01 -1.5622e-01
       973 5.8521e+00 3.7655e-05 3.9589e-01 -2.1806e-01 3.1133e-01 -1.5627e-01
       974 8.0888e-01 4.6875e-04 3.9438e-01 -2.1823e-01 3.0998e-01 -1.5624e-01
       975 1.6086e+00 3.1425e-04 3.9446e-01 -2.1847e-01 3.0997e-01 -1.5630e-01
       976 1.2874e+01 1.1245e-06 3.9646e-01 -2.1760e-01 3.1184e-01 -1.5576e-01
       977 2.5280e+00 1.9844e-04 3.9421e-01 -2.1667e-01 3.0978e-01 -1.5562e-01
       978 1.0423e+00 4.1710e-04 3.9431e-01 -2.1857e-01 3.0991e-01 -1.5641e-01
       979 1.6589e+01 1.7548e-07 3.9672e-01 -2.1719e-01 3.1192e-01 -1.5562e-01
       980 1.3138e+01 9.8558e-07 3.9646e-01 -2.1794e-01 3.1181e-01 -1.5575e-01
       981 3.7030e-01 5.8368e-04 3.9542e-01 -2.1954e-01 3.1082e-01 -1.5673e-01
       982 2.4267e+01 3.7770e-09 3.9727e-01 -2.1795e-01 3.1238e-01 -1.5580e-01
       983 2.4750e+00 2.0377e-04 3.9549e-01 -2.1941e-01 3.1100e-01 -1.5646e-01
       984 1.6246e+00 3.1175e-04 3.9588e-01 -2.1765e-01 3.1107e-01 -1.5579e-01
       985 3.2820e+00 1.3611e-04 3.9609e-01 -2.1830e-01 3.1134e-01 -1.5612e-01
       986 2.1292e-01 6.3146e-04 3.9523e-01 -2.1861e-01 3.1060e-01 -1.5599e-01
       987 3.9130e-03 7.0103e-04 3.9563e-01 -2.1907e-01 3.1082e-01 -1.5658e-01
       988 1.8740e+01 5.9867e-08 3.9287e-01 -2.1840e-01 3.0864e-01 -1.5583e-01
       989 3.7296e+00 1.0882e-04 3.9403e-01 -2.1871e-01 3.0960e-01 -1.5646e-01
       990 4.7053e+00 6.6811e-05 3.9381e-01 -2.1883e-01 3.0936e-01 -1.5627e-01
       991 5.8906e+00 3.6936e-05 3.9419e-01 -2.1785e-01 3.0972e-01 -1.5614e-01
       992 1.2303e+00 3.7968e-04 3.9502e-01 -2.1849e-01 3.1058e-01 -1.5631e-01
       993 2.1137e-02 6.9502e-04 3.9517e-01 -2.1837e-01 3.1054e-01 -1.5584e-01
       994 6.3377e-01 5.1164e-04 3.9386e-01 -2.1939e-01 3.0956e-01 -1.5641e-01
       995 3.6758e+00 1.1179e-04 3.9459e-01 -2.1907e-01 3.0989e-01 -1.5666e-01
       996 2.7763e+01 6.5763e-10 3.9781e-01 -2.1849e-01 3.1287e-01 -1.5605e-01
       997 9.2784e+00 6.7889e-06 3.9364e-01 -2.1805e-01 3.0929e-01 -1.5636e-01
       998 5.6291e+00 4.2097e-05 3.9651e-01 -2.1775e-01 3.1167e-01 -1.5600e-01
       999 1.2512e+01 1.3475e-06 3.9370e-01 -2.1890e-01 3.0922e-01 -1.5637e-01
      1000 2.0804e-02 6.9513e-04 3.9467e-01 -2.1865e-01 3.1034e-01 -1.5625e-01
      1001 5.8489e-01 5.2430e-04 3.9613e-01 -2.1720e-01 3.1129e-01 -1.5538e-01
      1002 4.3931e-02 6.8714e-04 3.9532e-01 -2.1797e-01 3.1061e-01 -1.5591e-01
      1003 4.7188e-01 5.5477e-04 3.9511e-01 -2.1896e-01 3.1060e-01 -1.5636e-01
      1004 1.3537e+01 8.0730e-07 3.9670e-01 -2.1843e-01 3.1186e-01 -1.5595e-01
      1005 4.9497e-02 6.8523e-04 3.9489e-01 -2.1898e-01 3.1038e-01 -1.5631e-01
      1006 1.4320e+01 5.4571e-07 3.9649e-01 -2.1734e-01 3.1179e-01 -1.5597e-01
      1007 1.2826e+01 1.1519e-06 3.9696e-01 -2.1789e-01 3.1210e-01 -1.5598e-01
      1008 5.1997e+00 5.2178e-05 3.9403e-01 -2.1729e-01 3.0954e-01 -1.5592e-01
      1009 1.1220e-01 6.6408e-04 3.9582e-01 -2.1819e-01 3.1100e-01 -1.5620e-01
      1010 1.8891e+00 2.7313e-04 3.9529e-01 -2.1806e-01 3.1076e-01 -1.5591e-01
      1011 5.9712e-01 5.2110e-04 3.9519e-01 -2.1714e-01 3.1068e-01 -1.5573e-01
      1012 3.1648e+00 1.4433e-04 3.9620e-01 -2.1766e-01 3.1140e-01 -1.5539e-01
      1013 5.7609e+00 3.9411e-05 3.9389e-01 -2.1795e-01 3.0938e-01 -1.5569e-01
      1014 4.8842e+00 6.1094e-05 3.9451e-01 -2.1820e-01 3.0986e-01 -1.5640e-01
      1015 1.4310e+00 3.4343e-04 3.9591e-01 -2.1839e-01 3.1117e-01 -1.5591e-01
      1016 4.4863e+00 7.4541e-05 3.9363e-01 -2.1893e-01 3.0938e-01 -1.5640e-01
      1017 1.0287e+00 4.1995e-04 3.9439e-01 -2.1913e-01 3.0994e-01 -1.5646e-01
      1018 2.2657e+01 8.4471e-09 3.9253e-01 -2.1774e-01 3.0828e-01 -1.5560e-01
      1019 1.6116e+01 2.2239e-07 3.9673e-01 -2.1680e-01 3.1201e-01 -1.5501e-01
      1020 9.5449e+00 5.9422e-06 3.9395e-01 -2.1871e-01 3.0940e-01 -1.5645e-01
      1021 3.9134e-01 5.7757e-04 3.9590e-01 -2.1688e-01 3.1111e-01 -1.5569e-01
      1022 1.0864e+01 3.0732e-06 3.9381e-01 -2.1581e-01 3.0932e-01 -1.5473e-01
      1023 6.2981e-03 7.0019e-04 3.9487e-01 -2.1879e-01 3.1029e-01 -1.5613e-01
      1024 3.6346e+01 8.9972e-12 3.9723e-01 -2.1822e-01 3.1253e-01 -1.5637e-01
      1025 4.4074e-01 5.6348e-04 3.9483e-01 -2.1785e-01 3.1028e-01 -1.5617e-01
      1026 1.8524e+01 6.6692e-08 3.9313e-01 -2.1817e-01 3.0880e-01 -1.5578e-01
      1027 2.5921e+01 1.6519e-09 3.9221e-01 -2.1881e-01 3.0810e-01 -1.5608e-01
      1028 6.7878e+00 2.3585e-05 3.9371e-01 -2.1817e-01 3.0929e-01 -1.5616e-01
      1029 1.6072e+01 2.2725e-07 3.9347e-01 -2.1939e-01 3.0896e-01 -1.5676e-01
      1030 5.2432e+00 5.1055e-05 3.9599e-01 -2.1895e-01 3.1141e-01 -1.5646e-01
      1031 2.2362e+00 2.2962e-04 3.9428e-01 -2.1810e-01 3.0989e-01 -1.5623e-01
      1032 1.7702e+00 2.8985e-04 3.9483e-01 -2.1760e-01 3.1014e-01 -1.5605e-01
      1033 1.4867e+01 4.1521e-07 3.9674e-01 -2.1899e-01 3.1193e-01 -1.5651e-01
      1034 1.9983e+01 3.2160e-08 3.9666e-01 -2.1707e-01 3.1191e-01 -1.5526e-01
      1035 1.2786e+01 1.1755e-06 3.9361e-01 -2.1715e-01 3.0913e-01 -1.5594e-01
      1036 2.0211e+00 2.5569e-04 3.9439e-01 -2.1888e-01 3.0996e-01 -1.5641e-01
      1037 2.2580e+01 8.7781e-09 3.9294e-01 -2.1650e-01 3.0857e-01 -1.5502e-01
      1038 1.9999e-01 6.3556e-04 3.9505e-01 -2.1855e-01 3.1044e-01 -1.5605e-01
      1039 3.0715e-01 6.0240e-04 3.9479e-01 -2.1925e-01 3.1022e-01 -1.5649e-01
      1040 5.2992e+01 2.1850e-15 3.9184e-01 -2.1796e-01 3.0761e-01 -1.5589e-01
      1041 7.0602e+00 2.0582e-05 3.9608e-01 -2.1856e-01 3.1146e-01 -1.5651e-01
      1042 4.4461e+00 7.6056e-05 3.9410e-01 -2.1813e-01 3.0962e-01 -1.5598e-01
      1043 2.2404e+00 2.2913e-04 3.9522e-01 -2.1796e-01 3.1076e-01 -1.5604e-01
      1044 4.5888e-03 7.0079e-04 3.9537e-01 -2.1944e-01 3.1068e-01 -1.5643e-01
      1045 3.7370e-03 7.0109e-04 3.9511e-01 -2.1887e-01 3.1049e-01 -1.5656e-01
      1046 1.4998e+01 3.8878e-07 3.9635e-01 -2.1845e-01 3.1174e-01 -1.5649e-01
      1047 1.4887e+00 3.3366e-04 3.9524e-01 -2.1724e-01 3.1067e-01 -1.5602e-01
      1048 1.9945e+01 3.2773e-08 3.9265e-01 -2.2100e-01 3.0851e-01 -1.5709e-01
      1049 1.7218e+00 2.9696e-04 3.9502e-01 -2.1887e-01 3.1063e-01 -1.5653e-01
      1050 4.7630e+00 6.4910e-05 3.9567e-01 -2.1850e-01 3.1115e-01 -1.5615e-01
      1051 4.4648e+01 1.4171e-13 3.9799e-01 -2.1795e-01 3.1306e-01 -1.5599e-01
      1052 1.9044e+01 5.1428e-08 3.9237e-01 -2.1892e-01 3.0826e-01 -1.5654e-01
      1053 2.6139e-01 6.1635e-04 3.9540e-01 -2.1846e-01 3.1079e-01 -1.5601e-01
      1054 1.9563e+01 3.9686e-08 3.9256e-01 -2.1803e-01 3.0838e-01 -1.5635e-01
      1055 8.5054e+00 9.9923e-06 3.9661e-01 -2.1894e-01 3.1176e-01 -1.5636e-01
      1056 5.3398e+01 1.7842e-15 3.9160e-01 -2.1895e-01 3.0745e-01 -1.5637e-01
      1057 1.6867e+00 3.0222e-04 3.9562e-01 -2.1888e-01 3.1095e-01 -1.5625e-01
      1058 9.5579e-01 4.3555e-04 3.9561e-01 -2.1858e-01 3.1094e-01 -1.5636e-01
      1059 7.0813e+01 2.9497e-19 3.9921e-01 -2.1905e-01 3.1408e-01 -1.5657e-01
      1060 1.2597e+01 1.2918e-06 3.9669e-01 -2.1738e-01 3.1183e-01 -1.5572e-01
      1061 1.5974e+01 2.3872e-07 3.9664e-01 -2.1850e-01 3.1192e-01 -1.5615e-01
      1062 8.0649e+00 1.2454e-05 3.9378e-01 -2.1667e-01 3.0934e-01 -1.5513e-01
      1063 1.2977e+00 3.6710e-04 3.9473e-01 -2.1843e-01 3.1015e-01 -1.5624e-01
      1064 6.0314e-01 5.1953e-04 3.9414e-01 -2.1898e-01 3.0977e-01 -1.5650e-01
      1065 8.4609e-01 4.6011e-04 3.9409e-01 -2.1839e-01 3.0974e-01 -1.5618e-01
      1066 8.3241e+00 1.0940e-05 3.9645e-01 -2.1757e-01 3.1167e-01 -1.5568e-01
      1067 3.3769e+01 3.2639e-11 3.9765e-01 -2.1837e-01 3.1272e-01 -1.5637e-01
      1068 3.7196e+00 1.0936e-04 3.9609e-01 -2.1666e-01 3.1132e-01 -1.5509e-01
      1069 4.7927e+00 6.3955e-05 3.9438e-01 -2.1922e-01 3.0982e-01 -1.5658e-01
      1070 4.5884e+01 7.6376e-14 3.9193e-01 -2.1967e-01 3.0781e-01 -1.5684e-01
      1071 2.4331e+01 3.6583e-09 3.9259e-01 -2.1778e-01 3.0838e-01 -1.5591e-01
      1072 1.0852e+01 3.0914e-06 3.9375e-01 -2.1762e-01 3.0924e-01 -1.5612e-01
      1073 2.2519e+01 9.0481e-09 3.9248e-01 -2.1810e-01 3.0829e-01 -1.5611e-01
      1074 1.5158e+01 3.5889e-07 3.9709e-01 -2.1965e-01 3.1224e-01 -1.5662e-01
      1075 1.2206e-01 6.6082e-04 3.9478e-01 -2.1864e-01 3.1031e-01 -1.5621e-01
      1076 3.7895e+00 1.0561e-04 3.9541e-01 -2.1845e-01 3.1091e-01 -1.5615e-01
      1077 1.2018e+00 3.8514e-04 3.9445e-01 -2.1782e-01 3.0996e-01 -1.5587e-01
      1078 3.2508e+00 1.3825e-04 3.9417e-01 -2.1856e-01 3.0966e-01 -1.5652e-01
      1079 9.2572e-01 4.4215e-04 3.9509e-01 -2.1774e-01 3.1058e-01 -1.5629e-01
      1080 3.6720e+01 7.4629e-12 3.9197e-01 -2.1873e-01 3.0787e-01 -1.5659e-01
      1081 9.9805e+00 4.7790e-06 3.9593e-01 -2.1808e-01 3.1134e-01 -1.5605e-01
      1082 5.8937e+00 3.6879e-05 3.9574e-01 -2.1726e-01 3.1117e-01 -1.5568e-01
      1083 2.5074e+01 2.5219e-09 3.9719e-01 -2.1804e-01 3.1244e-01 -1.5591e-01
      1084 1.0621e-01 6.6607e-04 3.9505e-01 -2.1841e-01 3.1051e-01 -1.5641e-01
      1085 2.8401e+01 4.7789e-10 3.9763e-01 -2.1754e-01 3.1269e-01 -1.5552e-01
      1086 4.7314e+00 6.5945e-05 3.9367e-01 -2.1903e-01 3.0938e-01 -1.5654e-01
      1087 3.6938e-01 5.8395e-04 3.9506e-01 -2.1822e-01 3.1039e-01 -1.5608e-01
      1088 6.6723e+00 2.4987e-05 3.9636e-01 -2.1738e-01 3.1159e-01 -1.5573e-01
      1089 1.1014e+01 2.8508e-06 3.9646e-01 -2.1796e-01 3.1162e-01 -1.5601e-01
      1090 1.1289e-01 6.6385e-04 3.9474e-01 -2.1690e-01 3.1024e-01 -1.5545e-01
      1091 9.1648e-01 4.4419e-04 3.9518e-01 -2.1822e-01 3.1064e-01 -1.5628e-01
      1092 1.2335e-01 6.6039e-04 3.9455e-01 -2.1953e-01 3.1008e-01 -1.5676e-01
      1093 3.3003e+00 1.3487e-04 3.9444e-01 -2.1849e-01 3.0989e-01 -1.5616e-01
      1094 4.3126e+00 8.1305e-05 3.9407e-01 -2.1880e-01 3.0958e-01 -1.5658e-01
      1095 1.6601e+00 3.0626e-04 3.9541e-01 -2.1887e-01 3.1087e-01 -1.5641e-01
      1096 1.5848e+00 3.1802e-04 3.9540e-01 -2.1853e-01 3.1084e-01 -1.5634e-01
      1097 5.5018e+00 4.4862e-05 3.9559e-01 -2.1860e-01 3.1110e-01 -1.5595e-01
      1098 1.5497e+01 3.0300e-07 3.9657e-01 -2.1895e-01 3.1187e-01 -1.5638e-01
      1099 1.2235e+00 3.8098e-04 3.9513e-01 -2.1851e-01 3.1068e-01 -1.5641e-01
      1100 3.9993e-03 7.0100e-04 3.9486e-01 -2.1836e-01 3.1035e-01 -1.5644e-01
      1101 1.3776e-01 6.5565e-04 3.9501e-01 -2.1779e-01 3.1047e-01 -1.5595e-01
      1102 1.1303e+01 2.4669e-06 3.9659e-01 -2.1990e-01 3.1177e-01 -1.5680e-01
      1103 5.8884e-01 5.2326e-04 3.9554e-01 -2.1919e-01 3.1089e-01 -1.5656e-01
      1104 3.7019e+01 6.4258e-12 3.9789e-01 -2.1851e-01 3.1287e-01 -1.5638e-01
      1105 7.1220e-01 4.9196e-04 3.9399e-01 -2.1841e-01 3.0970e-01 -1.5633e-01
      1106 1.1583e+01 2.1444e-06 3.9598e-01 -2.1887e-01 3.1147e-01 -1.5644e-01
      1107 6.0450e+00 3.4192e-05 3.9379e-01 -2.1807e-01 3.0945e-01 -1.5624e-01
      1108 5.7806e+00 3.9024e-05 3.9638e-01 -2.1791e-01 3.1159e-01 -1.5598e-01
      1109 1.2975e+00 3.6714e-04 3.9595e-01 -2.1685e-01 3.1116e-01 -1.5514e-01
      1110 2.0742e-01 6.3320e-04 3.9502e-01 -2.1781e-01 3.1044e-01 -1.5595e-01
      1111 8.0511e+00 1.2540e-05 3.9601e-01 -2.1920e-01 3.1139e-01 -1.5665e-01
      1112 6.8009e-02 6.7892e-04 3.9427e-01 -2.1781e-01 3.0995e-01 -1.5548e-01
      1113 8.4033e+00 1.0515e-05 3.9658e-01 -2.1696e-01 3.1183e-01 -1.5537e-01
      1114 9.2118e+00 7.0187e-06 3.9560e-01 -2.1895e-01 3.1119e-01 -1.5651e-01
      1115 2.5273e+00 1.9851e-04 3.9429e-01 -2.1888e-01 3.0983e-01 -1.5659e-01
      1116 1.1910e+01 1.8209e-06 3.9622e-01 -2.1774e-01 3.1156e-01 -1.5566e-01
      1117 8.6077e+00 9.4941e-06 3.9385e-01 -2.1944e-01 3.0944e-01 -1.5634e-01
      1118 8.0809e+01 1.9909e-21 3.9109e-01 -2.1662e-01 3.0699e-01 -1.5484e-01
      1119 2.7449e+01 7.6943e-10 3.9238e-01 -2.1923e-01 3.0832e-01 -1.5650e-01
      1120 7.1566e+00 1.9613e-05 3.9343e-01 -2.1915e-01 3.0912e-01 -1.5661e-01
      1121 6.2461e+01 1.9199e-17 3.9133e-01 -2.1840e-01 3.0718e-01 -1.5630e-01
      1122 3.0503e+01 1.6708e-10 3.9757e-01 -2.1861e-01 3.1267e-01 -1.5639e-01
      1123 7.5458e-01 4.8165e-04 3.9514e-01 -2.1886e-01 3.1058e-01 -1.5654e-01
      1124 5.3619e+00 4.8112e-05 3.9432e-01 -2.1841e-01 3.0975e-01 -1.5648e-01
      1125 3.8950e+00 1.0018e-04 3.9406e-01 -2.1631e-01 3.0967e-01 -1.5475e-01
      1126 5.0450e+00 5.6375e-05 3.9373e-01 -2.1833e-01 3.0943e-01 -1.5616e-01
      1127 2.7362e+00 1.7882e-04 3.9416e-01 -2.1829e-01 3.0973e-01 -1.5623e-01
      1128 1.0191e+00 4.2198e-04 3.9418e-01 -2.1822e-01 3.0976e-01 -1.5642e-01
      1129 9.5897e+00 5.8105e-06 3.9417e-01 -2.1877e-01 3.0954e-01 -1.5616e-01
      1130 1.1637e+01 2.0878e-06 3.9395e-01 -2.1817e-01 3.0940e-01 -1.5634e-01
      1131 1.1690e+01 2.0327e-06 3.9653e-01 -2.1841e-01 3.1181e-01 -1.5614e-01
      1132 1.9009e-01 6.3871e-04 3.9459e-01 -2.1889e-01 3.1016e-01 -1.5648e-01
      1133 2.0058e+00 2.5765e-04 3.9423e-01 -2.1935e-01 3.0981e-01 -1.5624e-01
      1134 1.0687e+01 3.3571e-06 3.9330e-01 -2.1739e-01 3.0907e-01 -1.5582e-01
      1135 1.9612e+00 2.6346e-04 3.9584e-01 -2.1836e-01 3.1118e-01 -1.5604e-01
      1136 9.5535e-02 6.6964e-04 3.9457e-01 -2.1783e-01 3.1017e-01 -1.5590e-01
      1137 1.1861e+00 3.8817e-04 3.9460e-01 -2.1804e-01 3.1016e-01 -1.5609e-01
      1138 9.3191e-01 4.4078e-04 3.9600e-01 -2.1914e-01 3.1122e-01 -1.5667e-01
      1139 2.8523e+00 1.6874e-04 3.9458e-01 -2.1721e-01 3.1000e-01 -1.5541e-01
      1140 1.5566e+01 2.9274e-07 3.9709e-01 -2.1782e-01 3.1223e-01 -1.5576e-01
      1141 2.1633e+01 1.4095e-08 3.9263e-01 -2.1802e-01 3.0845e-01 -1.5596e-01
      1142 2.3252e+01 6.2737e-09 3.9304e-01 -2.1840e-01 3.0869e-01 -1.5631e-01
      1143 2.8441e+01 4.6846e-10 3.9311e-01 -2.1905e-01 3.0867e-01 -1.5641e-01
      1144 2.9541e-01 6.0595e-04 3.9556e-01 -2.1747e-01 3.1083e-01 -1.5606e-01
      1145 7.9756e+00 1.3023e-05 3.9342e-01 -2.1815e-01 3.0906e-01 -1.5625e-01
      1146 1.8498e-01 6.4035e-04 3.9475e-01 -2.1822e-01 3.1028e-01 -1.5580e-01
      1147 1.1573e+01 2.1557e-06 3.9361e-01 -2.1828e-01 3.0926e-01 -1.5635e-01
      1148 1.1853e-02 6.9825e-04 3.9531e-01 -2.1667e-01 3.1057e-01 -1.5507e-01
      1149 1.4869e+01 4.1471e-07 3.9365e-01 -2.1774e-01 3.0915e-01 -1.5602e-01
      1150 1.0677e+01 3.3743e-06 3.9647e-01 -2.1796e-01 3.1170e-01 -1.5629e-01
      1151 2.8095e+01 5.5691e-10 3.9204e-01 -2.1880e-01 3.0797e-01 -1.5640e-01
      1152 5.9249e+00 3.6308e-05 3.9399e-01 -2.1824e-01 3.0948e-01 -1.5605e-01
      1153 1.0111e+01 4.4763e-06 3.9625e-01 -2.1712e-01 3.1156e-01 -1.5573e-01
      1154 1.6452e-01 6.4693e-04 3.9500e-01 -2.1870e-01 3.1047e-01 -1.5639e-01
      1155 6.7317e+00 2.4256e-05 3.9371e-01 -2.1652e-01 3.0931e-01 -1.5501e-01
      1156 1.1396e-01 6.6350e-04 3.9526e-01 -2.1768e-01 3.1069e-01 -1.5598e-01
      1157 4.3384e-02 6.8733e-04 3.9456e-01 -2.1931e-01 3.1014e-01 -1.5648e-01
      1158 2.9015e+00 1.6464e-04 3.9566e-01 -2.1799e-01 3.1103e-01 -1.5596e-01
      1159 5.0694e+01 6.8953e-15 3.9820e-01 -2.1841e-01 3.1328e-01 -1.5564e-01
      1160 1.6569e+01 1.7732e-07 3.9257e-01 -2.1835e-01 3.0843e-01 -1.5566e-01
      1161 1.6407e+00 3.0925e-04 3.9580e-01 -2.1879e-01 3.1115e-01 -1.5643e-01
      1162 2.3050e+00 2.2185e-04 3.9604e-01 -2.1739e-01 3.1122e-01 -1.5570e-01
      1163 1.3193e-01 6.5756e-04 3.9534e-01 -2.1893e-01 3.1070e-01 -1.5637e-01
      1164 5.1085e+01 5.6708e-15 3.9151e-01 -2.1921e-01 3.0747e-01 -1.5676e-01
      1165 1.1156e+00 4.0210e-04 3.9575e-01 -2.1879e-01 3.1105e-01 -1.5652e-01
      1166 3.3819e+01 3.1839e-11 3.9793e-01 -2.1760e-01 3.1287e-01 -1.5587e-01
      1167 4.8601e+00 6.1834e-05 3.9412e-01 -2.1855e-01 3.0962e-01 -1.5620e-01
      1168 1.7081e+01 1.3725e-07 3.9700e-01 -2.1893e-01 3.1213e-01 -1.5642e-01
      1169 5.0304e+01 8.3781e-15 3.9803e-01 -2.1832e-01 3.1311e-01 -1.5630e-01
      1170 9.7131e-02 6.6910e-04 3.9507e-01 -2.1837e-01 3.1053e-01 -1.5612e-01
      1171 6.7599e+01 1.4712e-18 3.9145e-01 -2.1980e-01 3.0723e-01 -1.5690e-01
      1172 2.5703e+01 1.8423e-09 3.9233e-01 -2.1775e-01 3.0819e-01 -1.5563e-01
      1173 5.6000e-01 5.3086e-04 3.9546e-01 -2.1820e-01 3.1082e-01 -1.5609e-01
      1174 3.0390e+01 1.7678e-10 3.9264e-01 -2.1735e-01 3.0839e-01 -1.5515e-01
      1175 6.1112e+01 3.7690e-17 3.9770e-01 -2.1885e-01 3.1307e-01 -1.5637e-01
      1176 2.0112e+00 2.5696e-04 3.9460e-01 -2.1834e-01 3.1010e-01 -1.5631e-01
      1177 3.4897e-02 6.9025e-04 3.9477e-01 -2.1843e-01 3.1026e-01 -1.5630e-01
      1178 1.5385e-01 6.5039e-04 3.9515e-01 -2.1656e-01 3.1055e-01 -1.5519e-01
      1179 9.0296e+00 7.6885e-06 3.9358e-01 -2.1972e-01 3.0909e-01 -1.5682e-01
      1180 2.5700e+00 1.9432e-04 3.9562e-01 -2.1709e-01 3.1099e-01 -1.5543e-01
      1181 3.9057e+00 9.9649e-05 3.9407e-01 -2.1810e-01 3.0960e-01 -1.5591e-01
      1182 1.9036e+00 2.7116e-04 3.9558e-01 -2.1775e-01 3.1095e-01 -1.5580e-01
      1183 1.0065e+01 4.5820e-06 3.9375e-01 -2.1796e-01 3.0933e-01 -1.5620e-01
      1184 2.5231e+00 1.9893e-04 3.9570e-01 -2.1852e-01 3.1109e-01 -1.5596e-01
      1185 1.9308e+01 4.5079e-08 3.9709e-01 -2.1865e-01 3.1227e-01 -1.5639e-01
      1186 7.1711e+00 1.9472e-05 3.9590e-01 -2.1856e-01 3.1134e-01 -1.5625e-01
      1187 1.0872e+00 4.0784e-04 3.9409e-01 -2.1593e-01 3.0978e-01 -1.5452e-01
      1188 1.4827e-01 6.5221e-04 3.9543e-01 -2.1899e-01 3.1080e-01 -1.5627e-01
      1189 1.2897e+01 1.1119e-06 3.9324e-01 -2.1719e-01 3.0887e-01 -1.5545e-01
      1190 1.3930e+01 6.6325e-07 3.9359e-01 -2.1665e-01 3.0911e-01 -1.5566e-01
      1191 1.6246e+00 3.1174e-04 3.9430e-01 -2.1879e-01 3.0983e-01 -1.5646e-01
      1192 1.6285e+00 3.1114e-04 3.9455e-01 -2.1939e-01 3.1006e-01 -1.5674e-01
      1193 3.3536e+00 1.3133e-04 3.9629e-01 -2.1790e-01 3.1148e-01 -1.5600e-01
      1194 1.5879e+00 3.1753e-04 3.9441e-01 -2.1920e-01 3.1003e-01 -1.5669e-01
      1195 7.0724e-01 4.9318e-04 3.9541e-01 -2.1810e-01 3.1079e-01 -1.5595e-01
      1196 1.4457e-02 6.9734e-04 3.9494e-01 -2.1684e-01 3.1037e-01 -1.5536e-01
      1197 9.7503e+00 5.3621e-06 3.9658e-01 -2.1754e-01 3.1173e-01 -1.5579e-01
      1198 4.4547e+01 1.4906e-13 3.9765e-01 -2.1718e-01 3.1283e-01 -1.5580e-01
      1199 3.8395e+01 3.2296e-12 3.9207e-01 -2.1895e-01 3.0794e-01 -1.5649e-01
      1200 7.2742e+00 1.8493e-05 3.9432e-01 -2.1823e-01 3.0974e-01 -1.5623e-01
      1201 3.6902e+00 1.1099e-04 3.9421e-01 -2.1823e-01 3.0972e-01 -1.5570e-01
      1202 1.0998e+00 4.0528e-04 3.9448e-01 -2.1765e-01 3.0997e-01 -1.5591e-01
      1203 7.6149e-02 6.7616e-04 3.9517e-01 -2.1890e-01 3.1055e-01 -1.5657e-01
      1204 5.2750e-01 5.3956e-04 3.9536e-01 -2.1958e-01 3.1077e-01 -1.5647e-01
      1205 1.3540e+01 8.0632e-07 3.9669e-01 -2.1753e-01 3.1198e-01 -1.5579e-01
      1206 5.9407e+00 3.6023e-05 3.9607e-01 -2.1912e-01 3.1143e-01 -1.5661e-01
      1207 2.9407e+00 1.6144e-04 3.9578e-01 -2.1854e-01 3.1118e-01 -1.5633e-01
      1208 6.6185e-03 7.0008e-04 3.9498e-01 -2.1723e-01 3.1042e-01 -1.5562e-01
      1209 2.6921e+00 1.8281e-04 3.9401e-01 -2.1877e-01 3.0964e-01 -1.5602e-01
      1210 3.3927e+00 1.2879e-04 3.9552e-01 -2.1772e-01 3.1093e-01 -1.5593e-01
      1211 5.8756e-01 5.2360e-04 3.9497e-01 -2.1801e-01 3.1048e-01 -1.5608e-01
      1212 7.1829e+00 1.9357e-05 3.9592e-01 -2.1772e-01 3.1137e-01 -1.5583e-01
      1213 3.0125e+01 2.0181e-10 3.9696e-01 -2.1893e-01 3.1232e-01 -1.5618e-01
      1214 2.2455e+01 9.3436e-09 3.9741e-01 -2.1861e-01 3.1247e-01 -1.5622e-01
      1215 1.7008e+01 1.4235e-07 3.9294e-01 -2.1743e-01 3.0870e-01 -1.5569e-01
      1216 3.5040e+01 1.7285e-11 3.9810e-01 -2.1810e-01 3.1302e-01 -1.5593e-01
      1217 5.9154e+00 3.6482e-05 3.9627e-01 -2.1834e-01 3.1152e-01 -1.5598e-01
      1218 1.8681e+01 6.1657e-08 3.9330e-01 -2.1772e-01 3.0890e-01 -1.5575e-01
      1219 4.2590e+01 3.9658e-13 3.9829e-01 -2.1850e-01 3.1320e-01 -1.5622e-01
      1220 1.0360e+01 3.9531e-06 3.9671e-01 -2.1733e-01 3.1189e-01 -1.5588e-01
      1221 5.3896e+00 4.7450e-05 3.9547e-01 -2.1995e-01 3.1101e-01 -1.5657e-01
      1222 2.8563e+00 1.6840e-04 3.9605e-01 -2.1765e-01 3.1135e-01 -1.5608e-01
      1223 6.1692e-01 5.1597e-04 3.9531e-01 -2.1879e-01 3.1064e-01 -1.5639e-01
      1224 2.6936e-01 6.1389e-04 3.9475e-01 -2.1839e-01 3.1025e-01 -1.5624e-01
      1225 5.4302e+00 4.6497e-05 3.9598e-01 -2.1877e-01 3.1128e-01 -1.5654e-01
      1226 2.4998e+01 2.6198e-09 3.9755e-01 -2.1815e-01 3.1260e-01 -1.5612e-01
      1227 9.4028e-01 4.3894e-04 3.9490e-01 -2.1890e-01 3.1024e-01 -1.5646e-01
      1228 7.2928e+00 1.8322e-05 3.9321e-01 -2.1827e-01 3.0899e-01 -1.5633e-01
      1229 4.4238e+00 7.6906e-05 3.9562e-01 -2.1791e-01 3.1104e-01 -1.5620e-01
      1230 3.6269e+00 1.1455e-04 3.9569e-01 -2.1898e-01 3.1104e-01 -1.5657e-01
      1231 3.8872e+00 1.0057e-04 3.9617e-01 -2.1864e-01 3.1142e-01 -1.5641e-01
      1232 1.6799e+01 1.5806e-07 3.9269e-01 -2.1837e-01 3.0857e-01 -1.5579e-01
      1233 2.1806e+00 2.3609e-04 3.9608e-01 -2.1844e-01 3.1127e-01 -1.5604e-01
      1234 3.5198e+00 1.2085e-04 3.9365e-01 -2.1874e-01 3.0938e-01 -1.5628e-01
      1235 8.9001e+00 8.2028e-06 3.9357e-01 -2.1934e-01 3.0922e-01 -1.5645e-01
      1236 3.0140e+00 1.5563e-04 3.9377e-01 -2.1877e-01 3.0950e-01 -1.5659e-01
      1237 2.7930e+00 1.7382e-04 3.9570e-01 -2.1856e-01 3.1111e-01 -1.5618e-01
      1238 4.4045e+00 7.7654e-05 3.9524e-01 -2.1772e-01 3.1085e-01 -1.5569e-01
      1239 5.0099e+01 9.2824e-15 3.9209e-01 -2.1813e-01 3.0783e-01 -1.5606e-01
      1240 2.7868e+00 1.7436e-04 3.9548e-01 -2.1838e-01 3.1103e-01 -1.5579e-01
      1241 1.7571e+00 2.9176e-04 3.9439e-01 -2.1783e-01 3.0992e-01 -1.5590e-01
      1242 3.6666e+00 1.1230e-04 3.9575e-01 -2.1806e-01 3.1116e-01 -1.5615e-01
      1243 1.1416e+00 3.9691e-04 3.9488e-01 -2.1799e-01 3.1031e-01 -1.5603e-01
      1244 3.0826e+01 1.4216e-10 3.9193e-01 -2.1871e-01 3.0794e-01 -1.5658e-01
      1245 5.1857e+00 5.2544e-05 3.9587e-01 -2.1907e-01 3.1121e-01 -1.5658e-01
      1246 6.2929e+00 3.0206e-05 3.9413e-01 -2.1755e-01 3.0965e-01 -1.5547e-01
      1247 1.1496e+00 3.9532e-04 3.9511e-01 -2.1656e-01 3.1037e-01 -1.5528e-01
      1248 8.3306e+01 5.7141e-22 3.9110e-01 -2.1853e-01 3.0690e-01 -1.5643e-01
      1249 5.1099e-01 5.4403e-04 3.9518e-01 -2.1833e-01 3.1062e-01 -1.5614e-01
      1250 1.2204e-01 6.6082e-04 3.9585e-01 -2.1855e-01 3.1094e-01 -1.5629e-01
      1251 3.6316e+00 1.1429e-04 3.9565e-01 -2.1848e-01 3.1112e-01 -1.5627e-01
      1252 4.0239e+00 9.3932e-05 3.9561e-01 -2.1975e-01 3.1103e-01 -1.5677e-01
      1253 1.8303e+00 2.8128e-04 3.9383e-01 -2.1677e-01 3.0962e-01 -1.5520e-01
      1254 3.5393e+00 1.1968e-04 3.9598e-01 -2.1817e-01 3.1119e-01 -1.5610e-01
      1255 1.1351e+00 3.9820e-04 3.9444e-01 -2.1776e-01 3.0991e-01 -1.5607e-01
      1256 1.7331e+01 1.2112e-07 3.9739e-01 -2.1814e-01 3.1242e-01 -1.5634e-01
      1257 2.3941e-04 7.0232e-04 3.9545e-01 -2.1827e-01 3.1077e-01 -1.5629e-01
      1258 1.9782e+01 3.5566e-08 3.9289e-01 -2.1763e-01 3.0866e-01 -1.5567e-01
      1259 1.1672e+00 3.9186e-04 3.9586e-01 -2.1724e-01 3.1108e-01 -1.5529e-01
      1260 3.2570e-01 5.9684e-04 3.9515e-01 -2.1839e-01 3.1045e-01 -1.5646e-01
      1261 7.4513e+00 1.6926e-05 3.9397e-01 -2.1757e-01 3.0952e-01 -1.5578e-01
      1262 1.3711e+00 3.5388e-04 3.9482e-01 -2.1721e-01 3.1020e-01 -1.5555e-01
      1263 1.6533e+00 3.0731e-04 3.9600e-01 -2.1873e-01 3.1118e-01 -1.5631e-01
      1264 6.7263e-01 5.0179e-04 3.9544e-01 -2.1848e-01 3.1078e-01 -1.5623e-01
