         0 9.5681e+04 0.0000e+00 3.9497e-01 -2.1892e-01 3.2037e-01 -1.7100e-01
        10 8.9591e+04 0.0000e+00 3.9515e-01 -2.1756e-01 3.2044e-01 -1.7001e-01
        11 8.3021e+04 0.0000e+00 3.9187e-01 -2.1779e-01 3.1766e-01 -1.7012e-01
        12 9.0162e+04 0.0000e+00 3.9393e-01 -2.1794e-01 3.1938e-01 -1.7036e-01
        13 9.3408e+04 0.0000e+00 3.9389e-01 -2.1903e-01 3.1952e-01 -1.7089e-01
        14 8.8219e+04 0.0000e+00 3.9298e-01 -2.1799e-01 3.1868e-01 -1.7047e-01
        15 9.2704e+04 0.0000e+00 3.9664e-01 -2.1737e-01 3.2178e-01 -1.7000e-01
        16 1.0332e+05 0.0000e+00 3.9725e-01 -2.1883e-01 3.2260e-01 -1.7092e-01
        17 9.9779e+04 0.0000e+00 3.9621e-01 -2.1885e-01 3.2147e-01 -1.7082e-01
        18 9.4088e+04 0.0000e+00 3.9568e-01 -2.1835e-01 3.2110e-01 -1.7051e-01
        19 9.3046e+04 0.0000e+00 3.9532e-01 -2.1827e-01 3.2073e-01 -1.7037e-01
        20 9.6791e+04 0.0000e+00 3.9749e-01 -2.1809e-01 3.2258e-01 -1.7052e-01
        21 9.5508e+04 0.0000e+00 3.9702e-01 -2.1767e-01 3.2215e-01 -1.7017e-01
        22 9.0104e+04 0.0000e+00 3.9416e-01 -2.1784e-01 3.1987e-01 -1.6997e-01
        23 9.7991e+04 0.0000e+00 3.9593e-01 -2.1925e-01 3.2125e-01 -1.7111e-01
        24 9.4141e+04 0.0000e+00 3.9551e-01 -2.1789e-01 3.2089e-01 -1.7056e-01
        25 9.1695e+04 0.0000e+00 3.9518e-01 -2.1796e-01 3.2045e-01 -1.7044e-01
        26 9.7599e+04 0.0000e+00 3.9489e-01 -2.1904e-01 3.2027e-01 -1.7104e-01
        27 9.1725e+04 0.0000e+00 3.9355e-01 -2.1929e-01 3.1905e-01 -1.7101e-01
        28 9.9287e+04 0.0000e+00 3.9748e-01 -2.1852e-01 3.2259e-01 -1.7055e-01
        29 9.8265e+04 0.0000e+00 3.9508e-01 -2.1954e-01 3.2056e-01 -1.7109e-01
        30 8.6040e+04 0.0000e+00 3.9463e-01 -2.1663e-01 3.2014e-01 -1.6953e-01
        31 9.8078e+04 0.0000e+00 3.9619e-01 -2.1906e-01 3.2140e-01 -1.7062e-01
        32 8.7388e+04 0.0000e+00 3.9335e-01 -2.1771e-01 3.1886e-01 -1.6990e-01
        33 8.9639e+04 0.0000e+00 3.9376e-01 -2.1777e-01 3.1936e-01 -1.7040e-01
        34 9.0153e+04 0.0000e+00 3.9645e-01 -2.1713e-01 3.2160e-01 -1.6941e-01
        35 8.7607e+04 0.0000e+00 3.9619e-01 -2.1628e-01 3.2138e-01 -1.6949e-01
        36 9.2477e+04 0.0000e+00 3.9364e-01 -2.1943e-01 3.1916e-01 -1.7107e-01
        37 9.3433e+04 0.0000e+00 3.9505e-01 -2.1872e-01 3.2053e-01 -1.7052e-01
        38 9.5897e+04 0.0000e+00 3.9775e-01 -2.1743e-01 3.2286e-01 -1.7007e-01
        39 9.1873e+04 0.0000e+00 3.9431e-01 -2.1838e-01 3.1979e-01 -1.7076e-01
        40 9.9175e+04 0.0000e+00 3.9698e-01 -2.1791e-01 3.2217e-01 -1.7024e-01
        41 1.0242e+05 0.0000e+00 3.9656e-01 -2.1989e-01 3.2178e-01 -1.7135e-01
        42 8.9986e+04 0.0000e+00 3.9548e-01 -2.1706e-01 3.2083e-01 -1.6956e-01
        43 8.9234e+04 0.0000e+00 3.9543e-01 -2.1689e-01 3.2078e-01 -1.6977e-01
        44 9.1128e+04 0.0000e+00 3.9399e-01 -2.1874e-01 3.1944e-01 -1.7091e-01
        45 8.7865e+04 0.0000e+00 3.9264e-01 -2.1831e-01 3.1826e-01 -1.7045e-01
        46 1.0415e+05 0.0000e+00 3.9861e-01 -2.1909e-01 3.2353e-01 -1.7098e-01
        47 9.6908e+04 0.0000e+00 3.9497e-01 -2.1929e-01 3.2037e-01 -1.7099e-01
        48 9.0097e+04 0.0000e+00 3.9489e-01 -2.1684e-01 3.2038e-01 -1.6958e-01
        49 8.6838e+04 0.0000e+00 3.9249e-01 -2.1817e-01 3.1816e-01 -1.7038e-01
        50 9.8644e+04 0.0000e+00 3.9628e-01 -2.1892e-01 3.2174e-01 -1.7075e-01
        51 9.2667e+04 0.0000e+00 3.9475e-01 -2.1874e-01 3.2007e-01 -1.7068e-01
        52 1.0763e+05 0.0000e+00 3.9852e-01 -2.1892e-01 3.2379e-01 -1.7083e-01
        53 9.1012e+04 0.0000e+00 3.9421e-01 -2.1779e-01 3.1967e-01 -1.7049e-01
        54 9.3002e+04 0.0000e+00 3.9531e-01 -2.1768e-01 3.2077e-01 -1.7032e-01
        55 8.6326e+04 0.0000e+00 3.9286e-01 -2.1807e-01 3.1842e-01 -1.7002e-01
        56 8.5117e+04 0.0000e+00 3.9044e-01 -2.1877e-01 3.1632e-01 -1.7084e-01
        57 8.5076e+04 0.0000e+00 3.9274e-01 -2.1746e-01 3.1837e-01 -1.6996e-01
        58 9.3290e+04 0.0000e+00 3.9395e-01 -2.1896e-01 3.1944e-01 -1.7100e-01
        59 8.9285e+04 0.0000e+00 3.9325e-01 -2.1800e-01 3.1877e-01 -1.7050e-01
        60 8.8891e+04 0.0000e+00 3.9362e-01 -2.1786e-01 3.1932e-01 -1.6986e-01
        61 8.8066e+04 0.0000e+00 3.9354e-01 -2.1825e-01 3.1911e-01 -1.7037e-01
        62 9.6063e+04 0.0000e+00 3.9494e-01 -2.1949e-01 3.2034e-01 -1.7103e-01
        63 9.2012e+04 0.0000e+00 3.9497e-01 -2.1830e-01 3.2021e-01 -1.7056e-01
        64 9.4727e+04 0.0000e+00 3.9566e-01 -2.1838e-01 3.2095e-01 -1.7070e-01
        65 9.4586e+04 0.0000e+00 3.9493e-01 -2.1865e-01 3.2034e-01 -1.7068e-01
        66 8.8455e+04 0.0000e+00 3.9245e-01 -2.1838e-01 3.1813e-01 -1.7036e-01
        67 9.3118e+04 0.0000e+00 3.9482e-01 -2.1777e-01 3.2030e-01 -1.7010e-01
        68 8.5024e+04 0.0000e+00 3.9162e-01 -2.1780e-01 3.1740e-01 -1.7044e-01
        69 9.3850e+04 0.0000e+00 3.9496e-01 -2.1849e-01 3.2049e-01 -1.7033e-01
        70 9.1953e+04 0.0000e+00 3.9407e-01 -2.1850e-01 3.1948e-01 -1.7075e-01
        71 9.7537e+04 0.0000e+00 3.9609e-01 -2.1916e-01 3.2127e-01 -1.7095e-01
        72 9.5793e+04 0.0000e+00 3.9667e-01 -2.1836e-01 3.2179e-01 -1.7053e-01
        73 9.0459e+04 0.0000e+00 3.9414e-01 -2.1863e-01 3.1963e-01 -1.7053e-01
        74 9.5956e+04 0.0000e+00 3.9592e-01 -2.1850e-01 3.2111e-01 -1.7080e-01
        75 8.6704e+04 0.0000e+00 3.9260e-01 -2.1769e-01 3.1818e-01 -1.7019e-01
        76 9.1600e+04 0.0000e+00 3.9359e-01 -2.1874e-01 3.1919e-01 -1.7060e-01
        77 9.5366e+04 0.0000e+00 3.9683e-01 -2.1784e-01 3.2212e-01 -1.7018e-01
        78 9.3864e+04 0.0000e+00 3.9554e-01 -2.1807e-01 3.2089e-01 -1.7046e-01
        79 9.4841e+04 0.0000e+00 3.9787e-01 -2.1714e-01 3.2297e-01 -1.6984e-01
        80 8.9810e+04 0.0000e+00 3.9422e-01 -2.1814e-01 3.1968e-01 -1.7043e-01
        81 9.5327e+04 0.0000e+00 3.9522e-01 -2.1825e-01 3.2062e-01 -1.7060e-01
        82 8.2999e+04 0.0000e+00 3.9365e-01 -2.1648e-01 3.1932e-01 -1.6898e-01
        83 9.8155e+04 0.0000e+00 3.9647e-01 -2.1908e-01 3.2166e-01 -1.7094e-01
        84 9.5361e+04 0.0000e+00 3.9582e-01 -2.1854e-01 3.2114e-01 -1.7057e-01
        85 9.6205e+04 0.0000e+00 3.9548e-01 -2.1873e-01 3.2097e-01 -1.7046e-01
        86 9.7035e+04 0.0000e+00 3.9677e-01 -2.1818e-01 3.2191e-01 -1.7048e-01
        87 9.0673e+04 0.0000e+00 3.9361e-01 -2.1871e-01 3.1910e-01 -1.7081e-01
        88 8.7560e+04 0.0000e+00 3.9539e-01 -2.1650e-01 3.2078e-01 -1.6959e-01
        89 9.4348e+04 0.0000e+00 3.9520e-01 -2.1884e-01 3.2044e-01 -1.7079e-01
        90 9.3480e+04 0.0000e+00 3.9612e-01 -2.1819e-01 3.2128e-01 -1.7047e-01
        91 8.3377e+04 0.0000e+00 3.9326e-01 -2.1688e-01 3.1874e-01 -1.6977e-01
        92 9.5553e+04 0.0000e+00 3.9579e-01 -2.1915e-01 3.2097e-01 -1.7093e-01
        93 8.4732e+04 0.0000e+00 3.9332e-01 -2.1707e-01 3.1875e-01 -1.6975e-01
        94 9.8022e+04 0.0000e+00 3.9716e-01 -2.1829e-01 3.2227e-01 -1.7075e-01
        95 9.4696e+04 0.0000e+00 3.9503e-01 -2.1849e-01 3.2046e-01 -1.7057e-01
        96 9.2962e+04 0.0000e+00 3.9508e-01 -2.1759e-01 3.2048e-01 -1.7045e-01
        97 9.1915e+04 0.0000e+00 3.9435e-01 -2.1809e-01 3.1977e-01 -1.7045e-01
        98 9.2158e+04 0.0000e+00 3.9464e-01 -2.1859e-01 3.2014e-01 -1.7044e-01
        99 9.2397e+04 0.0000e+00 3.9254e-01 -2.1920e-01 3.1829e-01 -1.7097e-01
       100 9.5366e+04 0.0000e+00 3.9601e-01 -2.1822e-01 3.2123e-01 -1.7049e-01
       101 9.2443e+04 0.0000e+00 3.9521e-01 -2.1839e-01 3.2051e-01 -1.7068e-01
       102 8.4385e+04 0.0000e+00 3.9079e-01 -2.1879e-01 3.1670e-01 -1.7044e-01
       103 9.2834e+04 0.0000e+00 3.9551e-01 -2.1738e-01 3.2089e-01 -1.6995e-01
       104 9.5980e+04 0.0000e+00 3.9642e-01 -2.1731e-01 3.2174e-01 -1.7017e-01
       105 8.9196e+04 0.0000e+00 3.9532e-01 -2.1695e-01 3.2071e-01 -1.6928e-01
       106 9.2089e+04 0.0000e+00 3.9354e-01 -2.1888e-01 3.1911e-01 -1.7077e-01
       107 9.4484e+04 0.0000e+00 3.9609e-01 -2.1797e-01 3.2136e-01 -1.7037e-01
       108 9.0149e+04 0.0000e+00 3.9371e-01 -2.1862e-01 3.1929e-01 -1.7036e-01
       109 9.5524e+04 0.0000e+00 3.9552e-01 -2.1858e-01 3.2088e-01 -1.7058e-01
       110 9.2152e+04 0.0000e+00 3.9407e-01 -2.1844e-01 3.1953e-01 -1.7073e-01
       111 8.3331e+04 0.0000e+00 3.9419e-01 -2.1656e-01 3.1962e-01 -1.6944e-01
       112 9.3450e+04 0.0000e+00 3.9515e-01 -2.1797e-01 3.2050e-01 -1.7060e-01
       113 9.3284e+04 0.0000e+00 3.9454e-01 -2.1854e-01 3.2008e-01 -1.7076e-01
       114 9.5699e+04 0.0000e+00 3.9498e-01 -2.1883e-01 3.2042e-01 -1.7066e-01
       115 8.8058e+04 0.0000e+00 3.9264e-01 -2.1891e-01 3.1823e-01 -1.7064e-01
       116 1.0404e+05 0.0000e+00 3.9702e-01 -2.1872e-01 3.2239e-01 -1.7091e-01
       117 1.0107e+05 0.0000e+00 3.9687e-01 -2.1914e-01 3.2214e-01 -1.7087e-01
       118 1.0176e+05 0.0000e+00 3.9846e-01 -2.1809e-01 3.2347e-01 -1.7051e-01
       119 9.1226e+04 0.0000e+00 3.9246e-01 -2.1915e-01 3.1821e-01 -1.7102e-01
       120 8.7284e+04 0.0000e+00 3.9353e-01 -2.1726e-01 3.1926e-01 -1.6992e-01
       121 8.6613e+04 0.0000e+00 3.9267e-01 -2.1785e-01 3.1833e-01 -1.7006e-01
       122 8.8660e+04 0.0000e+00 3.9311e-01 -2.1822e-01 3.1872e-01 -1.7031e-01
       123 8.3188e+04 0.0000e+00 3.9253e-01 -2.1745e-01 3.1822e-01 -1.6983e-01
       124 9.5970e+04 0.0000e+00 3.9719e-01 -2.1766e-01 3.2246e-01 -1.7001e-01
       125 9.3656e+04 0.0000e+00 3.9445e-01 -2.1895e-01 3.1995e-01 -1.7076e-01
       126 9.9502e+04 0.0000e+00 3.9696e-01 -2.1916e-01 3.2205e-01 -1.7106e-01
       127 9.4331e+04 0.0000e+00 3.9574e-01 -2.1831e-01 3.2104e-01 -1.7050e-01
       128 9.4777e+04 0.0000e+00 3.9521e-01 -2.1866e-01 3.2060e-01 -1.7090e-01
       129 9.2596e+04 0.0000e+00 3.9491e-01 -2.1776e-01 3.2033e-01 -1.7045e-01
       130 9.3908e+04 0.0000e+00 3.9504e-01 -2.1808e-01 3.2058e-01 -1.7041e-01
       131 8.7417e+04 0.0000e+00 3.9442e-01 -2.1701e-01 3.1990e-01 -1.6959e-01
       132 9.7487e+04 0.0000e+00 3.9731e-01 -2.1792e-01 3.2241e-01 -1.7053e-01
       133 9.9349e+04 0.0000e+00 3.9731e-01 -2.1849e-01 3.2249e-01 -1.7028e-01
       134 9.2243e+04 0.0000e+00 3.9442e-01 -2.1870e-01 3.1977e-01 -1.7081e-01
       135 8.9712e+04 0.0000e+00 3.9351e-01 -2.1813e-01 3.1909e-01 -1.7049e-01
       136 8.3612e+04 0.0000e+00 3.9341e-01 -2.1681e-01 3.1895e-01 -1.6957e-01
       137 8.7903e+04 0.0000e+00 3.9164e-01 -2.1912e-01 3.1740e-01 -1.7098e-01
       138 9.2842e+04 0.0000e+00 3.9588e-01 -2.1786e-01 3.2113e-01 -1.6990e-01
       139 9.4786e+04 0.0000e+00 3.9628e-01 -2.1794e-01 3.2148e-01 -1.7057e-01
       140 1.0283e+05 0.0000e+00 3.9881e-01 -2.1863e-01 3.2369e-01 -1.7053e-01
       141 9.4018e+04 0.0000e+00 3.9799e-01 -2.1662e-01 3.2309e-01 -1.6955e-01
       142 9.7706e+04 0.0000e+00 3.9581e-01 -2.1920e-01 3.2105e-01 -1.7096e-01
       143 9.5066e+04 0.0000e+00 3.9622e-01 -2.1859e-01 3.2142e-01 -1.7060e-01
       144 9.3951e+04 0.0000e+00 3.9459e-01 -2.1861e-01 3.2009e-01 -1.7077e-01
       145 8.9681e+04 0.0000e+00 3.9471e-01 -2.1799e-01 3.2014e-01 -1.7012e-01
       146 9.4401e+04 0.0000e+00 3.9465e-01 -2.1901e-01 3.2002e-01 -1.7100e-01
       147 9.4327e+04 0.0000e+00 3.9497e-01 -2.1927e-01 3.2024e-01 -1.7100e-01
       148 9.8793e+04 0.0000e+00 3.9665e-01 -2.1882e-01 3.2177e-01 -1.7086e-01
       149 9.4210e+04 0.0000e+00 3.9489e-01 -2.1834e-01 3.2035e-01 -1.7058e-01
       150 9.7593e+04 0.0000e+00 3.9675e-01 -2.1910e-01 3.2194e-01 -1.7088e-01
       151 9.3299e+04 0.0000e+00 3.9464e-01 -2.1842e-01 3.2015e-01 -1.7055e-01
       152 9.2968e+04 0.0000e+00 3.9593e-01 -2.1763e-01 3.2124e-01 -1.7015e-01
       153 9.6122e+04 0.0000e+00 3.9573e-01 -2.1891e-01 3.2101e-01 -1.7087e-01
       154 9.1618e+04 0.0000e+00 3.9368e-01 -2.1834e-01 3.1919e-01 -1.7068e-01
       155 1.0053e+05 0.0000e+00 3.9817e-01 -2.1777e-01 3.2328e-01 -1.7022e-01
       156 9.2449e+04 0.0000e+00 3.9416e-01 -2.1872e-01 3.1960e-01 -1.7088e-01
       157 8.9060e+04 0.0000e+00 3.9462e-01 -2.1791e-01 3.1987e-01 -1.7008e-01
       158 9.3105e+04 0.0000e+00 3.9476e-01 -2.1892e-01 3.2010e-01 -1.7093e-01
       159 9.5832e+04 0.0000e+00 3.9579e-01 -2.1847e-01 3.2095e-01 -1.7074e-01
       160 9.1174e+04 0.0000e+00 3.9368e-01 -2.1798e-01 3.1928e-01 -1.7052e-01
       161 9.6088e+04 0.0000e+00 3.9575e-01 -2.1861e-01 3.2099e-01 -1.7071e-01
       162 9.1096e+04 0.0000e+00 3.9285e-01 -2.1905e-01 3.1844e-01 -1.7083e-01
       163 8.8198e+04 0.0000e+00 3.9330e-01 -2.1859e-01 3.1882e-01 -1.7048e-01
       164 9.7612e+04 0.0000e+00 3.9557e-01 -2.1880e-01 3.2078e-01 -1.7093e-01
       165 9.5156e+04 0.0000e+00 3.9408e-01 -2.1960e-01 3.1965e-01 -1.7115e-01
       166 9.4075e+04 0.0000e+00 3.9615e-01 -2.1812e-01 3.2138e-01 -1.7038e-01
       167 8.6146e+04 0.0000e+00 3.9341e-01 -2.1762e-01 3.1897e-01 -1.7013e-01
       168 1.0007e+05 0.0000e+00 3.9756e-01 -2.1852e-01 3.2264e-01 -1.7078e-01
       169 8.8724e+04 0.0000e+00 3.9425e-01 -2.1789e-01 3.1968e-01 -1.7014e-01
       170 9.8354e+04 0.0000e+00 3.9724e-01 -2.1851e-01 3.2237e-01 -1.7064e-01
       171 8.6141e+04 0.0000e+00 3.9336e-01 -2.1746e-01 3.1897e-01 -1.6993e-01
       172 9.1905e+04 0.0000e+00 3.9304e-01 -2.1887e-01 3.1885e-01 -1.7076e-01
       173 9.7444e+04 0.0000e+00 3.9755e-01 -2.1787e-01 3.2265e-01 -1.7025e-01
       174 9.0983e+04 0.0000e+00 3.9497e-01 -2.1747e-01 3.2044e-01 -1.7013e-01
       175 9.2464e+04 0.0000e+00 3.9364e-01 -2.1962e-01 3.1920e-01 -1.7100e-01
       176 9.4625e+04 0.0000e+00 3.9503e-01 -2.1835e-01 3.2049e-01 -1.7064e-01
       177 8.6260e+04 0.0000e+00 3.9232e-01 -2.1786e-01 3.1813e-01 -1.7039e-01
       178 8.9481e+04 0.0000e+00 3.9388e-01 -2.1763e-01 3.1944e-01 -1.7034e-01
       179 8.8469e+04 0.0000e+00 3.9474e-01 -2.1749e-01 3.2024e-01 -1.6993e-01
       180 9.2146e+04 0.0000e+00 3.9491e-01 -2.1748e-01 3.2034e-01 -1.7040e-01
       181 9.0584e+04 0.0000e+00 3.9391e-01 -2.1769e-01 3.1946e-01 -1.7039e-01
       182 9.0317e+04 0.0000e+00 3.9251e-01 -2.1946e-01 3.1818e-01 -1.7091e-01
       183 9.4191e+04 0.0000e+00 3.9646e-01 -2.1775e-01 3.2169e-01 -1.7012e-01
       184 8.9790e+04 0.0000e+00 3.9348e-01 -2.1881e-01 3.1892e-01 -1.7072e-01
       185 9.9334e+04 0.0000e+00 3.9631e-01 -2.1834e-01 3.2177e-01 -1.7053e-01
       186 8.9938e+04 0.0000e+00 3.9429e-01 -2.1774e-01 3.1973e-01 -1.7035e-01
       187 9.9371e+04 0.0000e+00 3.9813e-01 -2.1810e-01 3.2324e-01 -1.7022e-01
       188 9.7302e+04 0.0000e+00 3.9698e-01 -2.1853e-01 3.2210e-01 -1.7061e-01
       189 1.0020e+05 0.0000e+00 3.9711e-01 -2.1866e-01 3.2240e-01 -1.7072e-01
       190 9.6112e+04 0.0000e+00 3.9636e-01 -2.1789e-01 3.2160e-01 -1.7041e-01
       191 1.0349e+05 0.0000e+00 3.9752e-01 -2.1936e-01 3.2270e-01 -1.7114e-01
       192 9.0045e+04 0.0000e+00 3.9310e-01 -2.1865e-01 3.1864e-01 -1.7073e-01
       193 9.6312e+04 0.0000e+00 3.9678e-01 -2.1784e-01 3.2201e-01 -1.7025e-01
       194 9.6558e+04 0.0000e+00 3.9600e-01 -2.1847e-01 3.2123e-01 -1.7076e-01
       195 9.3252e+04 0.0000e+00 3.9411e-01 -2.1904e-01 3.1964e-01 -1.7077e-01
       196 1.0140e+05 0.0000e+00 3.9737e-01 -2.1937e-01 3.2249e-01 -1.7106e-01
       197 9.2562e+04 0.0000e+00 3.9408e-01 -2.1869e-01 3.1962e-01 -1.7032e-01
       198 1.0148e+05 0.0000e+00 3.9622e-01 -2.1910e-01 3.2148e-01 -1.7105e-01
       199 8.7334e+04 0.0000e+00 3.9353e-01 -2.1741e-01 3.1906e-01 -1.7011e-01
       200 9.7210e+04 0.0000e+00 3.9523e-01 -2.1935e-01 3.2077e-01 -1.7078e-01
       201 9.3228e+04 0.0000e+00 3.9647e-01 -2.1751e-01 3.2165e-01 -1.6986e-01
       202 8.9391e+04 0.0000e+00 3.9424e-01 -2.1765e-01 3.1980e-01 -1.7014e-01
       203 1.0704e+05 0.0000e+00 3.9880e-01 -2.1897e-01 3.2383e-01 -1.7102e-01
       204 9.5176e+04 0.0000e+00 3.9598e-01 -2.1781e-01 3.2126e-01 -1.7033e-01
       205 9.3368e+04 0.0000e+00 3.9425e-01 -2.1873e-01 3.1981e-01 -1.7059e-01
       206 9.5879e+04 0.0000e+00 3.9587e-01 -2.1842e-01 3.2117e-01 -1.7078e-01
       207 8.9142e+04 0.0000e+00 3.9409e-01 -2.1756e-01 3.1955e-01 -1.7025e-01
       208 9.2461e+04 0.0000e+00 3.9557e-01 -2.1731e-01 3.2091e-01 -1.6988e-01
       209 9.6904e+04 0.0000e+00 3.9687e-01 -2.1842e-01 3.2201e-01 -1.7057e-01
       210 9.5678e+04 0.0000e+00 3.9488e-01 -2.1865e-01 3.2032e-01 -1.7089e-01
       211 9.9032e+04 0.0000e+00 3.9497e-01 -2.1961e-01 3.2048e-01 -1.7122e-01
       212 9.6469e+04 0.0000e+00 3.9618e-01 -2.1835e-01 3.2135e-01 -1.7073e-01
       213 1.0299e+05 0.0000e+00 3.9742e-01 -2.1954e-01 3.2258e-01 -1.7108e-01
       214 9.3528e+04 0.0000e+00 3.9505e-01 -2.1894e-01 3.2047e-01 -1.7089e-01
       215 9.0530e+04 0.0000e+00 3.9367e-01 -2.1840e-01 3.1917e-01 -1.7064e-01
       216 9.1890e+04 0.0000e+00 3.9461e-01 -2.1823e-01 3.2014e-01 -1.7054e-01
       217 8.7026e+04 0.0000e+00 3.9216e-01 -2.1884e-01 3.1785e-01 -1.7075e-01
       218 9.3651e+04 0.0000e+00 3.9488e-01 -2.1843e-01 3.2036e-01 -1.7016e-01
       219 9.1896e+04 0.0000e+00 3.9463e-01 -2.1820e-01 3.2008e-01 -1.7033e-01
       220 9.3559e+04 0.0000e+00 3.9505e-01 -2.1787e-01 3.2044e-01 -1.7038e-01
       221 8.9823e+04 0.0000e+00 3.9268e-01 -2.1904e-01 3.1845e-01 -1.7070e-01
       222 8.8472e+04 0.0000e+00 3.9524e-01 -2.1724e-01 3.2061e-01 -1.6981e-01
       223 9.3513e+04 0.0000e+00 3.9520e-01 -2.1824e-01 3.2060e-01 -1.7057e-01
       224 9.1825e+04 0.0000e+00 3.9539e-01 -2.1767e-01 3.2064e-01 -1.7036e-01
       225 9.6089e+04 0.0000e+00 3.9673e-01 -2.1816e-01 3.2198e-01 -1.7045e-01
       226 9.5314e+04 0.0000e+00 3.9645e-01 -2.1764e-01 3.2179e-01 -1.7044e-01
       227 9.8878e+04 0.0000e+00 3.9601e-01 -2.1892e-01 3.2138e-01 -1.7092e-01
       228 9.2309e+04 0.0000e+00 3.9489e-01 -2.1744e-01 3.2036e-01 -1.7019e-01
       229 9.8388e+04 0.0000e+00 3.9606e-01 -2.1924e-01 3.2139e-01 -1.7092e-01
       230 9.4753e+04 0.0000e+00 3.9601e-01 -2.1795e-01 3.2141e-01 -1.7017e-01
       231 9.5534e+04 0.0000e+00 3.9654e-01 -2.1860e-01 3.2158e-01 -1.7085e-01
       232 9.6722e+04 0.0000e+00 3.9752e-01 -2.1761e-01 3.2268e-01 -1.7008e-01
       233 9.6085e+04 0.0000e+00 3.9729e-01 -2.1779e-01 3.2241e-01 -1.7036e-01
       234 9.4244e+04 0.0000e+00 3.9557e-01 -2.1820e-01 3.2085e-01 -1.7033e-01
       235 9.7677e+04 0.0000e+00 3.9742e-01 -2.1801e-01 3.2260e-01 -1.7031e-01
       236 9.0147e+04 0.0000e+00 3.9356e-01 -2.1845e-01 3.1913e-01 -1.7055e-01
       237 8.6061e+04 0.0000e+00 3.9582e-01 -2.1610e-01 3.2123e-01 -1.6891e-01
       238 1.0469e+05 0.0000e+00 3.9819e-01 -2.1899e-01 3.2331e-01 -1.7096e-01
       239 9.4357e+04 0.0000e+00 3.9552e-01 -2.1881e-01 3.2073e-01 -1.7089e-01
       240 9.3175e+04 0.0000e+00 3.9460e-01 -2.1892e-01 3.1997e-01 -1.7065e-01
       241 8.9753e+04 0.0000e+00 3.9446e-01 -2.1755e-01 3.1987e-01 -1.7024e-01
       242 9.2654e+04 0.0000e+00 3.9437e-01 -2.1864e-01 3.1990e-01 -1.7078e-01
       243 9.3644e+04 0.0000e+00 3.9458e-01 -2.1874e-01 3.2000e-01 -1.7044e-01
       244 9.2992e+04 0.0000e+00 3.9651e-01 -2.1782e-01 3.2152e-01 -1.7042e-01
       245 9.3520e+04 0.0000e+00 3.9371e-01 -2.1919e-01 3.1927e-01 -1.7080e-01
       246 1.0063e+05 0.0000e+00 3.9749e-01 -2.1878e-01 3.2264e-01 -1.7077e-01
       247 9.4314e+04 0.0000e+00 3.9490e-01 -2.1864e-01 3.2018e-01 -1.7079e-01
       248 9.5088e+04 0.0000e+00 3.9559e-01 -2.1817e-01 3.2104e-01 -1.7034e-01
       249 9.1941e+04 0.0000e+00 3.9508e-01 -2.1771e-01 3.2038e-01 -1.7019e-01
       250 9.1178e+04 0.0000e+00 3.9677e-01 -2.1696e-01 3.2194e-01 -1.6963e-01
       251 9.1379e+04 0.0000e+00 3.9284e-01 -2.1918e-01 3.1843e-01 -1.7105e-01
       252 9.4949e+04 0.0000e+00 3.9469e-01 -2.1900e-01 3.2009e-01 -1.7088e-01
       253 9.6564e+04 0.0000e+00 3.9696e-01 -2.1773e-01 3.2210e-01 -1.7031e-01
       254 1.0258e+05 0.0000e+00 3.9724e-01 -2.1897e-01 3.2246e-01 -1.7060e-01
       255 8.7628e+04 0.0000e+00 3.9623e-01 -2.1645e-01 3.2146e-01 -1.6932e-01
       256 9.2654e+04 0.0000e+00 3.9503e-01 -2.1828e-01 3.2041e-01 -1.7018e-01
       257 8.9765e+04 0.0000e+00 3.9461e-01 -2.1749e-01 3.2009e-01 -1.7023e-01
       258 9.2097e+04 0.0000e+00 3.9447e-01 -2.1802e-01 3.1990e-01 -1.7066e-01
       259 8.5840e+04 0.0000e+00 3.9401e-01 -2.1730e-01 3.1957e-01 -1.6976e-01
       260 9.7862e+04 0.0000e+00 3.9579e-01 -2.1948e-01 3.2105e-01 -1.7115e-01
       261 1.0038e+05 0.0000e+00 3.9698e-01 -2.1839e-01 3.2232e-01 -1.7073e-01
       262 9.6010e+04 0.0000e+00 3.9599e-01 -2.1878e-01 3.2124e-01 -1.7044e-01
       263 9.6282e+04 0.0000e+00 3.9501e-01 -2.1909e-01 3.2030e-01 -1.7101e-01
       264 9.4485e+04 0.0000e+00 3.9384e-01 -2.1894e-01 3.1943e-01 -1.7098e-01
       265 1.0080e+05 0.0000e+00 3.9669e-01 -2.1932e-01 3.2187e-01 -1.7115e-01
       266 9.6089e+04 0.0000e+00 3.9691e-01 -2.1779e-01 3.2223e-01 -1.7019e-01
       267 9.6514e+04 0.0000e+00 3.9474e-01 -2.1948e-01 3.2028e-01 -1.7093e-01
       268 9.3509e+04 0.0000e+00 3.9489e-01 -2.1880e-01 3.2021e-01 -1.7053e-01
       269 8.6085e+04 0.0000e+00 3.9192e-01 -2.1822e-01 3.1773e-01 -1.7043e-01
       270 9.3876e+04 0.0000e+00 3.9729e-01 -2.1749e-01 3.2233e-01 -1.7005e-01
       271 9.9073e+04 0.0000e+00 3.9738e-01 -2.1835e-01 3.2253e-01 -1.7046e-01
       272 9.5068e+04 0.0000e+00 3.9328e-01 -2.2010e-01 3.1880e-01 -1.7139e-01
       273 1.0199e+05 0.0000e+00 3.9766e-01 -2.1861e-01 3.2285e-01 -1.7088e-01
       274 9.7340e+04 0.0000e+00 3.9437e-01 -2.1960e-01 3.1985e-01 -1.7103e-01
       275 8.4114e+04 0.0000e+00 3.9411e-01 -2.1709e-01 3.1962e-01 -1.6947e-01
       276 9.0822e+04 0.0000e+00 3.9512e-01 -2.1792e-01 3.2042e-01 -1.7008e-01
       277 8.9885e+04 0.0000e+00 3.9442e-01 -2.1822e-01 3.1981e-01 -1.7022e-01
       278 9.6567e+04 0.0000e+00 3.9548e-01 -2.1868e-01 3.2090e-01 -1.7076e-01
       279 8.5638e+04 0.0000e+00 3.9319e-01 -2.1720e-01 3.1890e-01 -1.6949e-01
       280 8.6425e+04 0.0000e+00 3.9338e-01 -2.1762e-01 3.1892e-01 -1.6991e-01
       281 8.6987e+04 0.0000e+00 3.9436e-01 -2.1733e-01 3.1981e-01 -1.6980e-01
       282 9.7965e+04 0.0000e+00 3.9509e-01 -2.1921e-01 3.2062e-01 -1.7107e-01
       283 8.4903e+04 0.0000e+00 3.9328e-01 -2.1735e-01 3.1887e-01 -1.6984e-01
       284 9.3095e+04 0.0000e+00 3.9555e-01 -2.1774e-01 3.2095e-01 -1.7022e-01
       285 9.3637e+04 0.0000e+00 3.9483e-01 -2.1826e-01 3.2031e-01 -1.7073e-01
       286 8.9465e+04 0.0000e+00 3.9384e-01 -2.1845e-01 3.1931e-01 -1.7064e-01
       287 9.4346e+04 0.0000e+00 3.9371e-01 -2.1916e-01 3.1926e-01 -1.7096e-01
       288 8.9780e+04 0.0000e+00 3.9486e-01 -2.1763e-01 3.2018e-01 -1.6989e-01
       289 9.6850e+04 0.0000e+00 3.9554e-01 -2.1834e-01 3.2101e-01 -1.7067e-01
       290 9.0582e+04 0.0000e+00 3.9509e-01 -2.1836e-01 3.2031e-01 -1.7028e-01
       291 8.6183e+04 0.0000e+00 3.9294e-01 -2.1712e-01 3.1874e-01 -1.6995e-01
       292 1.0052e+05 0.0000e+00 3.9724e-01 -2.1867e-01 3.2238e-01 -1.7069e-01
       293 9.9260e+04 0.0000e+00 3.9621e-01 -2.1889e-01 3.2164e-01 -1.7095e-01
       294 8.7391e+04 0.0000e+00 3.9398e-01 -2.1748e-01 3.1944e-01 -1.7006e-01
       295 9.6279e+04 0.0000e+00 3.9604e-01 -2.1857e-01 3.2129e-01 -1.7074e-01
       296 9.0374e+04 0.0000e+00 3.9311e-01 -2.1900e-01 3.1876e-01 -1.7075e-01
       297 9.3439e+04 0.0000e+00 3.9482e-01 -2.1850e-01 3.2017e-01 -1.7073e-01
       298 9.8626e+04 0.0000e+00 3.9618e-01 -2.1892e-01 3.2147e-01 -1.7083e-01
       299 9.6596e+04 0.0000e+00 3.9557e-01 -2.1896e-01 3.2104e-01 -1.7087e-01
       300 9.2465e+04 0.0000e+00 3.9313e-01 -2.1964e-01 3.1867e-01 -1.7112e-01
       301 8.8490e+04 0.0000e+00 3.9532e-01 -2.1687e-01 3.2069e-01 -1.6949e-01
       302 9.4118e+04 0.0000e+00 3.9480e-01 -2.1868e-01 3.2011e-01 -1.7083e-01
       303 9.7825e+04 0.0000e+00 3.9554e-01 -2.1857e-01 3.2098e-01 -1.7060e-01
       304 8.7269e+04 0.0000e+00 3.9435e-01 -2.1781e-01 3.1975e-01 -1.7025e-01
       305 9.3510e+04 0.0000e+00 3.9601e-01 -2.1736e-01 3.2136e-01 -1.6996e-01
       306 1.0020e+05 0.0000e+00 3.9816e-01 -2.1831e-01 3.2320e-01 -1.7066e-01
       307 9.1706e+04 0.0000e+00 3.9305e-01 -2.1941e-01 3.1862e-01 -1.7102e-01
       308 8.8523e+04 0.0000e+00 3.9466e-01 -2.1756e-01 3.2016e-01 -1.7005e-01
       309 9.0005e+04 0.0000e+00 3.9364e-01 -2.1798e-01 3.1925e-01 -1.7012e-01
       310 9.6600e+04 0.0000e+00 3.9513e-01 -2.1876e-01 3.2056e-01 -1.7082e-01
       311 8.3636e+04 0.0000e+00 3.9166e-01 -2.1847e-01 3.1737e-01 -1.7022e-01
       312 8.8760e+04 0.0000e+00 3.9185e-01 -2.1860e-01 3.1764e-01 -1.7079e-01
       313 8.8485e+04 0.0000e+00 3.9422e-01 -2.1756e-01 3.1966e-01 -1.7023e-01
       314 9.3441e+04 0.0000e+00 3.9776e-01 -2.1697e-01 3.2284e-01 -1.6983e-01
       315 9.3646e+04 0.0000e+00 3.9793e-01 -2.1745e-01 3.2292e-01 -1.6987e-01
       316 9.4552e+04 0.0000e+00 3.9617e-01 -2.1811e-01 3.2147e-01 -1.7056e-01
       317 9.7966e+04 0.0000e+00 3.9683e-01 -2.1922e-01 3.2198e-01 -1.7087e-01
       318 9.7141e+04 0.0000e+00 3.9540e-01 -2.1839e-01 3.2093e-01 -1.7062e-01
       319 8.7134e+04 0.0000e+00 3.9226e-01 -2.1857e-01 3.1794e-01 -1.7053e-01
       320 8.9759e+04 0.0000e+00 3.9339e-01 -2.1888e-01 3.1899e-01 -1.7067e-01
       321 9.2410e+04 0.0000e+00 3.9494e-01 -2.1758e-01 3.2037e-01 -1.7025e-01
       322 9.3190e+04 0.0000e+00 3.9528e-01 -2.1863e-01 3.2061e-01 -1.7051e-01
       323 1.0294e+05 0.0000e+00 3.9773e-01 -2.1934e-01 3.2280e-01 -1.7099e-01
       324 8.8440e+04 0.0000e+00 3.9408e-01 -2.1756e-01 3.1955e-01 -1.7017e-01
       325 9.0273e+04 0.0000e+00 3.9387e-01 -2.1797e-01 3.1946e-01 -1.7056e-01
       326 9.5238e+04 0.0000e+00 3.9539e-01 -2.1851e-01 3.2065e-01 -1.7081e-01
       327 8.4195e+04 0.0000e+00 3.9237e-01 -2.1770e-01 3.1805e-01 -1.7004e-01
       328 9.0895e+04 0.0000e+00 3.9254e-01 -2.1894e-01 3.1833e-01 -1.7075e-01
       329 9.6964e+04 0.0000e+00 3.9810e-01 -2.1701e-01 3.2310e-01 -1.7005e-01
       330 8.9955e+04 0.0000e+00 3.9407e-01 -2.1818e-01 3.1952e-01 -1.7015e-01
       331 9.6138e+04 0.0000e+00 3.9466e-01 -2.1912e-01 3.2005e-01 -1.7100e-01
       332 9.1570e+04 0.0000e+00 3.9431e-01 -2.1811e-01 3.1988e-01 -1.7010e-01
       333 9.1073e+04 0.0000e+00 3.9521e-01 -2.1769e-01 3.2064e-01 -1.7014e-01
       334 9.1564e+04 0.0000e+00 3.9596e-01 -2.1750e-01 3.2125e-01 -1.7004e-01
       335 8.8032e+04 0.0000e+00 3.9404e-01 -2.1743e-01 3.1961e-01 -1.6986e-01
       336 8.9888e+04 0.0000e+00 3.9243e-01 -2.1828e-01 3.1829e-01 -1.7058e-01
       337 9.1621e+04 0.0000e+00 3.9424e-01 -2.1815e-01 3.1978e-01 -1.7028e-01
       338 9.1456e+04 0.0000e+00 3.9522e-01 -2.1825e-01 3.2053e-01 -1.7026e-01
       339 8.5989e+04 0.0000e+00 3.9315e-01 -2.1765e-01 3.1865e-01 -1.7006e-01
       340 9.4218e+04 0.0000e+00 3.9394e-01 -2.1915e-01 3.1947e-01 -1.7091e-01
       341 8.9474e+04 0.0000e+00 3.9604e-01 -2.1657e-01 3.2137e-01 -1.6906e-01
       342 9.4857e+04 0.0000e+00 3.9499e-01 -2.1920e-01 3.2038e-01 -1.7089e-01
       343 1.0023e+05 0.0000e+00 3.9612e-01 -2.1918e-01 3.2139e-01 -1.7100e-01
       344 9.4838e+04 0.0000e+00 3.9452e-01 -2.1902e-01 3.1995e-01 -1.7101e-01
       345 9.2706e+04 0.0000e+00 3.9822e-01 -2.1582e-01 3.2324e-01 -1.6915e-01
       346 9.9141e+04 0.0000e+00 3.9670e-01 -2.1860e-01 3.2197e-01 -1.7083e-01
       347 9.4774e+04 0.0000e+00 3.9408e-01 -2.1891e-01 3.1964e-01 -1.7094e-01
       348 9.3035e+04 0.0000e+00 3.9331e-01 -2.1926e-01 3.1899e-01 -1.7096e-01
       349 9.6789e+04 0.0000e+00 3.9622e-01 -2.1805e-01 3.2156e-01 -1.7039e-01
       350 8.7655e+04 0.0000e+00 3.9398e-01 -2.1764e-01 3.1955e-01 -1.6989e-01
       351 8.8338e+04 0.0000e+00 3.9259e-01 -2.1801e-01 3.1832e-01 -1.7050e-01
       352 8.6771e+04 0.0000e+00 3.9362e-01 -2.1770e-01 3.1908e-01 -1.7025e-01
       353 9.6449e+04 0.0000e+00 3.9501e-01 -2.1875e-01 3.2050e-01 -1.7088e-01
       354 9.6885e+04 0.0000e+00 3.9814e-01 -2.1729e-01 3.2316e-01 -1.6986e-01
       355 9.7171e+04 0.0000e+00 3.9610e-01 -2.1801e-01 3.2144e-01 -1.7053e-01
       356 8.8732e+04 0.0000e+00 3.9179e-01 -2.1913e-01 3.1762e-01 -1.7100e-01
       357 9.4080e+04 0.0000e+00 3.9363e-01 -2.1898e-01 3.1918e-01 -1.7089e-01
       358 9.5599e+04 0.0000e+00 3.9449e-01 -2.1903e-01 3.1995e-01 -1.7102e-01
       359 9.1856e+04 0.0000e+00 3.9316e-01 -2.1878e-01 3.1884e-01 -1.7079e-01
       360 9.2024e+04 0.0000e+00 3.9351e-01 -2.1926e-01 3.1904e-01 -1.7107e-01
       361 9.4333e+04 0.0000e+00 3.9238e-01 -2.2012e-01 3.1817e-01 -1.7137e-01
       362 8.2730e+04 0.0000e+00 3.9096e-01 -2.1746e-01 3.1677e-01 -1.7021e-01
       363 8.9037e+04 0.0000e+00 3.9354e-01 -2.1811e-01 3.1911e-01 -1.7035e-01
       364 9.1725e+04 0.0000e+00 3.9380e-01 -2.1882e-01 3.1926e-01 -1.7090e-01
       365 9.6577e+04 0.0000e+00 3.9409e-01 -2.1896e-01 3.1974e-01 -1.7097e-01
       366 9.3595e+04 0.0000e+00 3.9371e-01 -2.1957e-01 3.1928e-01 -1.7112e-01
       367 9.0752e+04 0.0000e+00 3.9383e-01 -2.1874e-01 3.1939e-01 -1.7061e-01
       368 9.0403e+04 0.0000e+00 3.9407e-01 -2.1866e-01 3.1949e-01 -1.7044e-01
       369 8.7327e+04 0.0000e+00 3.9611e-01 -2.1646e-01 3.2128e-01 -1.6954e-01
       370 9.4545e+04 0.0000e+00 3.9483e-01 -2.1939e-01 3.2025e-01 -1.7111e-01
       371 9.2354e+04 0.0000e+00 3.9342e-01 -2.1910e-01 3.1902e-01 -1.7096e-01
       372 9.0779e+04 0.0000e+00 3.9516e-01 -2.1763e-01 3.2052e-01 -1.7031e-01
       373 9.1947e+04 0.0000e+00 3.9413e-01 -2.1865e-01 3.1955e-01 -1.7077e-01
       374 8.6149e+04 0.0000e+00 3.9489e-01 -2.1655e-01 3.2031e-01 -1.6879e-01
       375 1.0003e+05 0.0000e+00 3.9621e-01 -2.1938e-01 3.2146e-01 -1.7115e-01
       376 8.7785e+04 0.0000e+00 3.9396e-01 -2.1751e-01 3.1946e-01 -1.7011e-01
       377 8.6542e+04 0.0000e+00 3.9417e-01 -2.1719e-01 3.1964e-01 -1.6970e-01
       378 9.6832e+04 0.0000e+00 3.9608e-01 -2.1889e-01 3.2147e-01 -1.7070e-01
       379 9.3247e+04 0.0000e+00 3.9483e-01 -2.1849e-01 3.2030e-01 -1.7065e-01
       380 9.1403e+04 0.0000e+00 3.9577e-01 -2.1812e-01 3.2095e-01 -1.7005e-01
       381 9.5433e+04 0.0000e+00 3.9390e-01 -2.1944e-01 3.1955e-01 -1.7111e-01
       382 8.3333e+04 0.0000e+00 3.9338e-01 -2.1615e-01 3.1897e-01 -1.6908e-01
       383 8.4809e+04 0.0000e+00 3.9238e-01 -2.1772e-01 3.1810e-01 -1.7017e-01
       384 9.1847e+04 0.0000e+00 3.9319e-01 -2.1894e-01 3.1878e-01 -1.7094e-01
       385 9.5152e+04 0.0000e+00 3.9509e-01 -2.1892e-01 3.2056e-01 -1.7069e-01
       386 8.8756e+04 0.0000e+00 3.9256e-01 -2.1822e-01 3.1838e-01 -1.7033e-01
       387 9.4712e+04 0.0000e+00 3.9592e-01 -2.1792e-01 3.2115e-01 -1.7043e-01
       388 8.5990e+04 0.0000e+00 3.9108e-01 -2.1886e-01 3.1696e-01 -1.7084e-01
       389 9.3606e+04 0.0000e+00 3.9537e-01 -2.1846e-01 3.2073e-01 -1.7065e-01
       390 9.6684e+04 0.0000e+00 3.9592e-01 -2.1829e-01 3.2122e-01 -1.7078e-01
       391 8.9894e+04 0.0000e+00 3.9564e-01 -2.1695e-01 3.2093e-01 -1.6963e-01
       392 9.6210e+04 0.0000e+00 3.9661e-01 -2.1754e-01 3.2189e-01 -1.7051e-01
       393 8.8763e+04 0.0000e+00 3.9320e-01 -2.1819e-01 3.1886e-01 -1.7049e-01
       394 9.5231e+04 0.0000e+00 3.9451e-01 -2.1857e-01 3.2015e-01 -1.7065e-01
       395 8.5064e+04 0.0000e+00 3.9306e-01 -2.1709e-01 3.1867e-01 -1.6995e-01
       396 8.7461e+04 0.0000e+00 3.9443e-01 -2.1650e-01 3.1990e-01 -1.6977e-01
       397 9.8956e+04 0.0000e+00 3.9780e-01 -2.1829e-01 3.2287e-01 -1.7031e-01
       398 1.0160e+05 0.0000e+00 3.9874e-01 -2.1792e-01 3.2377e-01 -1.7042e-01
       399 8.6279e+04 0.0000e+00 3.9414e-01 -2.1690e-01 3.1964e-01 -1.6939e-01
       400 8.1705e+04 0.0000e+00 3.9058e-01 -2.1751e-01 3.1638e-01 -1.7016e-01
       401 9.3988e+04 0.0000e+00 3.9421e-01 -2.1862e-01 3.1979e-01 -1.7046e-01
       402 9.3186e+04 0.0000e+00 3.9437e-01 -2.1853e-01 3.1986e-01 -1.7083e-01
       403 9.0120e+04 0.0000e+00 3.9497e-01 -2.1813e-01 3.2018e-01 -1.7047e-01
       404 1.0077e+05 0.0000e+00 3.9678e-01 -2.1871e-01 3.2223e-01 -1.7085e-01
       405 8.8625e+04 0.0000e+00 3.9358e-01 -2.1753e-01 3.1912e-01 -1.7017e-01
       406 9.8461e+04 0.0000e+00 3.9726e-01 -2.1850e-01 3.2249e-01 -1.7082e-01
       407 9.0563e+04 0.0000e+00 3.9598e-01 -2.1679e-01 3.2120e-01 -1.6970e-01
       408 9.0282e+04 0.0000e+00 3.9370e-01 -2.1774e-01 3.1931e-01 -1.7051e-01
       409 9.1678e+04 0.0000e+00 3.9460e-01 -2.1797e-01 3.2011e-01 -1.7024e-01
       410 9.3436e+04 0.0000e+00 3.9445e-01 -2.1825e-01 3.1988e-01 -1.7075e-01
       411 1.0102e+05 0.0000e+00 3.9734e-01 -2.1909e-01 3.2254e-01 -1.7100e-01
       412 9.8235e+04 0.0000e+00 3.9713e-01 -2.1865e-01 3.2227e-01 -1.7056e-01
       413 9.0857e+04 0.0000e+00 3.9622e-01 -2.1737e-01 3.2132e-01 -1.6991e-01
       414 8.8229e+04 0.0000e+00 3.9598e-01 -2.1678e-01 3.2118e-01 -1.6966e-01
       415 9.8858e+04 0.0000e+00 3.9586e-01 -2.1888e-01 3.2112e-01 -1.7098e-01
       416 9.9235e+04 0.0000e+00 3.9611e-01 -2.1919e-01 3.2137e-01 -1.7103e-01
       417 8.2360e+04 0.0000e+00 3.9520e-01 -2.1566e-01 3.2055e-01 -1.6872e-01
       418 8.9282e+04 0.0000e+00 3.9378e-01 -2.1798e-01 3.1932e-01 -1.7059e-01
       419 9.2508e+04 0.0000e+00 3.9386e-01 -2.1832e-01 3.1948e-01 -1.7047e-01
       420 8.7665e+04 0.0000e+00 3.9426e-01 -2.1723e-01 3.1979e-01 -1.6956e-01
       421 9.2894e+04 0.0000e+00 3.9435e-01 -2.1901e-01 3.1983e-01 -1.7094e-01
       422 9.6649e+04 0.0000e+00 3.9526e-01 -2.1913e-01 3.2061e-01 -1.7101e-01
       423 9.3236e+04 0.0000e+00 3.9443e-01 -2.1857e-01 3.1988e-01 -1.7083e-01
       424 9.3845e+04 0.0000e+00 3.9589e-01 -2.1845e-01 3.2113e-01 -1.7063e-01
       425 9.2173e+04 0.0000e+00 3.9447e-01 -2.1821e-01 3.1988e-01 -1.7050e-01
       426 9.0535e+04 0.0000e+00 3.9426e-01 -2.1809e-01 3.1968e-01 -1.7035e-01
       427 9.9719e+04 0.0000e+00 3.9646e-01 -2.1907e-01 3.2172e-01 -1.7097e-01
       428 1.0276e+05 0.0000e+00 3.9602e-01 -2.1926e-01 3.2130e-01 -1.7114e-01
       429 9.0965e+04 0.0000e+00 3.9607e-01 -2.1712e-01 3.2134e-01 -1.7005e-01
       430 9.2433e+04 0.0000e+00 3.9441e-01 -2.1866e-01 3.1982e-01 -1.7080e-01
       431 9.2825e+04 0.0000e+00 3.9446e-01 -2.1812e-01 3.1993e-01 -1.7068e-01
       432 8.5712e+04 0.0000e+00 3.9369e-01 -2.1711e-01 3.1917e-01 -1.7004e-01
       433 9.0265e+04 0.0000e+00 3.9372e-01 -2.1842e-01 3.1927e-01 -1.7048e-01
       434 9.3295e+04 0.0000e+00 3.9519e-01 -2.1848e-01 3.2036e-01 -1.7080e-01
       435 9.1235e+04 0.0000e+00 3.9415e-01 -2.1875e-01 3.1959e-01 -1.7061e-01
       436 9.9466e+04 0.0000e+00 3.9606e-01 -2.1903e-01 3.2133e-01 -1.7097e-01
       437 9.5203e+04 0.0000e+00 3.9636e-01 -2.1783e-01 3.2175e-01 -1.7013e-01
       438 8.9163e+04 0.0000e+00 3.9535e-01 -2.1739e-01 3.2072e-01 -1.6997e-01
       439 9.5605e+04 0.0000e+00 3.9644e-01 -2.1812e-01 3.2179e-01 -1.7028e-01
       440 9.2143e+04 0.0000e+00 3.9541e-01 -2.1769e-01 3.2059e-01 -1.7050e-01
       441 9.8595e+04 0.0000e+00 3.9787e-01 -2.1781e-01 3.2284e-01 -1.7033e-01
       442 9.3902e+04 0.0000e+00 3.9469e-01 -2.1861e-01 3.2009e-01 -1.7061e-01
       443 9.4590e+04 0.0000e+00 3.9582e-01 -2.1803e-01 3.2106e-01 -1.7019e-01
       444 9.5047e+04 0.0000e+00 3.9648e-01 -2.1769e-01 3.2180e-01 -1.7009e-01
       445 8.9473e+04 0.0000e+00 3.9280e-01 -2.1862e-01 3.1831e-01 -1.7075e-01
       446 9.5826e+04 0.0000e+00 3.9436e-01 -2.1921e-01 3.1980e-01 -1.7110e-01
       447 8.9254e+04 0.0000e+00 3.9500e-01 -2.1757e-01 3.2041e-01 -1.6995e-01
       448 1.0203e+05 0.0000e+00 3.9869e-01 -2.1842e-01 3.2366e-01 -1.7083e-01
       449 9.4712e+04 0.0000e+00 3.9469e-01 -2.1847e-01 3.2017e-01 -1.7066e-01
       450 9.1346e+04 0.0000e+00 3.9455e-01 -2.1822e-01 3.1997e-01 -1.7054e-01
       451 9.3664e+04 0.0000e+00 3.9505e-01 -2.1813e-01 3.2055e-01 -1.7068e-01
       452 9.7609e+04 0.0000e+00 3.9582e-01 -2.1877e-01 3.2114e-01 -1.7095e-01
       453 8.8320e+04 0.0000e+00 3.9322e-01 -2.1768e-01 3.1871e-01 -1.7028e-01
       454 9.1662e+04 0.0000e+00 3.9338e-01 -2.1846e-01 3.1893e-01 -1.7081e-01
       455 9.9544e+04 0.0000e+00 3.9611e-01 -2.1877e-01 3.2155e-01 -1.7071e-01
       456 9.3241e+04 0.0000e+00 3.9466e-01 -2.1882e-01 3.2014e-01 -1.7089e-01
       457 9.6584e+04 0.0000e+00 3.9668e-01 -2.1792e-01 3.2190e-01 -1.7062e-01
       458 1.0141e+05 0.0000e+00 3.9689e-01 -2.1924e-01 3.2217e-01 -1.7092e-01
       459 8.2752e+04 0.0000e+00 3.9214e-01 -2.1741e-01 3.1791e-01 -1.6988e-01
       460 9.2856e+04 0.0000e+00 3.9427e-01 -2.1827e-01 3.1985e-01 -1.7065e-01
       461 9.5111e+04 0.0000e+00 3.9693e-01 -2.1752e-01 3.2217e-01 -1.6985e-01
       462 9.4906e+04 0.0000e+00 3.9530e-01 -2.1886e-01 3.2055e-01 -1.7083e-01
       463 8.7051e+04 0.0000e+00 3.9151e-01 -2.1894e-01 3.1733e-01 -1.7086e-01
       464 8.1120e+04 0.0000e+00 3.9171e-01 -2.1707e-01 3.1739e-01 -1.6974e-01
       465 9.2913e+04 0.0000e+00 3.9597e-01 -2.1778e-01 3.2127e-01 -1.7017e-01
       466 9.5251e+04 0.0000e+00 3.9463e-01 -2.1927e-01 3.2013e-01 -1.7103e-01
       467 9.4639e+04 0.0000e+00 3.9361e-01 -2.1975e-01 3.1917e-01 -1.7112e-01
       468 8.8648e+04 0.0000e+00 3.9410e-01 -2.1731e-01 3.1972e-01 -1.6991e-01
       469 9.3698e+04 0.0000e+00 3.9574e-01 -2.1826e-01 3.2109e-01 -1.7057e-01
       470 9.2855e+04 0.0000e+00 3.9529e-01 -2.1814e-01 3.2060e-01 -1.7053e-01
       471 9.3013e+04 0.0000e+00 3.9469e-01 -2.1839e-01 3.2020e-01 -1.7055e-01
       472 1.0166e+05 0.0000e+00 3.9695e-01 -2.1903e-01 3.2224e-01 -1.7097e-01
       473 9.9026e+04 0.0000e+00 3.9632e-01 -2.1836e-01 3.2153e-01 -1.7081e-01
       474 8.7569e+04 0.0000e+00 3.9380e-01 -2.1786e-01 3.1919e-01 -1.7036e-01
       475 9.5041e+04 0.0000e+00 3.9394e-01 -2.1939e-01 3.1953e-01 -1.7090e-01
       476 9.1877e+04 0.0000e+00 3.9386e-01 -2.1868e-01 3.1949e-01 -1.7087e-01
       477 9.6250e+04 0.0000e+00 3.9622e-01 -2.1814e-01 3.2150e-01 -1.7045e-01
       478 9.9725e+04 0.0000e+00 3.9689e-01 -2.1880e-01 3.2205e-01 -1.7094e-01
       479 8.6897e+04 0.0000e+00 3.9418e-01 -2.1705e-01 3.1965e-01 -1.6988e-01
       480 9.3233e+04 0.0000e+00 3.9597e-01 -2.1751e-01 3.2132e-01 -1.7009e-01
       481 9.5427e+04 0.0000e+00 3.9516e-01 -2.1826e-01 3.2066e-01 -1.7032e-01
       482 9.1723e+04 0.0000e+00 3.9662e-01 -2.1724e-01 3.2183e-01 -1.7012e-01
       483 8.4698e+04 0.0000e+00 3.9127e-01 -2.1825e-01 3.1712e-01 -1.7050e-01
       484 9.2435e+04 0.0000e+00 3.9334e-01 -2.1899e-01 3.1883e-01 -1.7083e-01
       485 8.8508e+04 0.0000e+00 3.9277e-01 -2.1821e-01 3.1854e-01 -1.7029e-01
       486 9.1843e+04 0.0000e+00 3.9412e-01 -2.1882e-01 3.1953e-01 -1.7090e-01
       487 8.6004e+04 0.0000e+00 3.9261e-01 -2.1778e-01 3.1835e-01 -1.7017e-01
       488 9.2204e+04 0.0000e+00 3.9397e-01 -2.1891e-01 3.1943e-01 -1.7082e-01
       489 9.4772e+04 0.0000e+00 3.9581e-01 -2.1847e-01 3.2109e-01 -1.7055e-01
       490 8.6442e+04 0.0000e+00 3.9184e-01 -2.1893e-01 3.1740e-01 -1.7077e-01
       491 9.7701e+04 0.0000e+00 3.9530e-01 -2.1896e-01 3.2063e-01 -1.7100e-01
       492 9.2005e+04 0.0000e+00 3.9602e-01 -2.1726e-01 3.2128e-01 -1.6974e-01
       493 9.4747e+04 0.0000e+00 3.9596e-01 -2.1845e-01 3.2122e-01 -1.7053e-01
       494 9.2532e+04 0.0000e+00 3.9503e-01 -2.1836e-01 3.2033e-01 -1.7062e-01
       495 9.5293e+04 0.0000e+00 3.9487e-01 -2.1925e-01 3.2018e-01 -1.7112e-01
       496 9.1222e+04 0.0000e+00 3.9454e-01 -2.1872e-01 3.2000e-01 -1.7072e-01
       497 9.2803e+04 0.0000e+00 3.9514e-01 -2.1826e-01 3.2047e-01 -1.7055e-01
       498 8.9949e+04 0.0000e+00 3.9550e-01 -2.1656e-01 3.2098e-01 -1.6930e-01
       499 9.2808e+04 0.0000e+00 3.9341e-01 -2.1913e-01 3.1910e-01 -1.7100e-01
       500 9.8463e+04 0.0000e+00 3.9513e-01 -2.1935e-01 3.2064e-01 -1.7112e-01
       501 9.2149e+04 0.0000e+00 3.9382e-01 -2.1855e-01 3.1939e-01 -1.7056e-01
       502 8.7096e+04 0.0000e+00 3.9371e-01 -2.1738e-01 3.1925e-01 -1.7002e-01
       503 9.1285e+04 0.0000e+00 3.9432e-01 -2.1854e-01 3.1976e-01 -1.7048e-01
       504 9.2912e+04 0.0000e+00 3.9485e-01 -2.1854e-01 3.2031e-01 -1.7084e-01
       505 9.2334e+04 0.0000e+00 3.9330e-01 -2.1880e-01 3.1895e-01 -1.7082e-01
       506 8.9856e+04 0.0000e+00 3.9413e-01 -2.1774e-01 3.1953e-01 -1.7048e-01
       507 9.0562e+04 0.0000e+00 3.9337e-01 -2.1868e-01 3.1897e-01 -1.7083e-01
       508 8.9714e+04 0.0000e+00 3.9399e-01 -2.1819e-01 3.1951e-01 -1.7031e-01
       509 9.1670e+04 0.0000e+00 3.9663e-01 -2.1684e-01 3.2182e-01 -1.6976e-01
       510 8.5693e+04 0.0000e+00 3.9427e-01 -2.1666e-01 3.1967e-01 -1.6966e-01
       511 9.6607e+04 0.0000e+00 3.9696e-01 -2.1765e-01 3.2214e-01 -1.7043e-01
       512 8.7625e+04 0.0000e+00 3.9328e-01 -2.1819e-01 3.1886e-01 -1.7017e-01
       513 9.2514e+04 0.0000e+00 3.9462e-01 -2.1851e-01 3.2000e-01 -1.7074e-01
       514 9.9217e+04 0.0000e+00 3.9722e-01 -2.1804e-01 3.2255e-01 -1.7064e-01
       515 9.8606e+04 0.0000e+00 3.9704e-01 -2.1825e-01 3.2224e-01 -1.7072e-01
       516 9.7923e+04 0.0000e+00 3.9706e-01 -2.1816e-01 3.2227e-01 -1.7023e-01
       517 9.5879e+04 0.0000e+00 3.9445e-01 -2.1912e-01 3.1995e-01 -1.7107e-01
       518 9.7882e+04 0.0000e+00 3.9660e-01 -2.1840e-01 3.2188e-01 -1.7064e-01
       519 9.3195e+04 0.0000e+00 3.9290e-01 -2.1924e-01 3.1868e-01 -1.7090e-01
       520 8.8443e+04 0.0000e+00 3.9445e-01 -2.1773e-01 3.1972e-01 -1.7008e-01
       521 1.0084e+05 0.0000e+00 3.9561e-01 -2.1981e-01 3.2089e-01 -1.7133e-01
       522 9.2426e+04 0.0000e+00 3.9625e-01 -2.1714e-01 3.2162e-01 -1.6988e-01
       523 9.1629e+04 0.0000e+00 3.9533e-01 -2.1802e-01 3.2063e-01 -1.7024e-01
       524 8.8950e+04 0.0000e+00 3.9716e-01 -2.1644e-01 3.2220e-01 -1.6918e-01
       525 9.1208e+04 0.0000e+00 3.9406e-01 -2.1842e-01 3.1957e-01 -1.7062e-01
       526 9.6899e+04 0.0000e+00 3.9678e-01 -2.1817e-01 3.2197e-01 -1.7050e-01
       527 8.7162e+04 0.0000e+00 3.8987e-01 -2.1991e-01 3.1582e-01 -1.7129e-01
       528 9.7182e+04 0.0000e+00 3.9570e-01 -2.1874e-01 3.2111e-01 -1.7076e-01
       529 9.4759e+04 0.0000e+00 3.9617e-01 -2.1825e-01 3.2124e-01 -1.7065e-01
       530 8.6786e+04 0.0000e+00 3.9436e-01 -2.1754e-01 3.1975e-01 -1.6947e-01
       531 9.0004e+04 0.0000e+00 3.9256e-01 -2.1914e-01 3.1833e-01 -1.7071e-01
       532 9.7880e+04 0.0000e+00 3.9571e-01 -2.1877e-01 3.2109e-01 -1.7074e-01
       533 9.0343e+04 0.0000e+00 3.9633e-01 -2.1686e-01 3.2163e-01 -1.6956e-01
       534 1.0104e+05 0.0000e+00 3.9651e-01 -2.1910e-01 3.2179e-01 -1.7101e-01
       535 9.6833e+04 0.0000e+00 3.9593e-01 -2.1865e-01 3.2122e-01 -1.7091e-01
       536 8.5564e+04 0.0000e+00 3.9163e-01 -2.1848e-01 3.1742e-01 -1.7068e-01
       537 9.4046e+04 0.0000e+00 3.9460e-01 -2.1875e-01 3.2003e-01 -1.7090e-01
       538 9.3085e+04 0.0000e+00 3.9607e-01 -2.1804e-01 3.2141e-01 -1.7007e-01
       539 9.8194e+04 0.0000e+00 3.9567e-01 -2.1897e-01 3.2101e-01 -1.7098e-01
       540 8.8749e+04 0.0000e+00 3.9263e-01 -2.1829e-01 3.1831e-01 -1.7067e-01
       541 9.5385e+04 0.0000e+00 3.9584e-01 -2.1850e-01 3.2118e-01 -1.7070e-01
       542 9.9783e+04 0.0000e+00 3.9774e-01 -2.1866e-01 3.2270e-01 -1.7078e-01
       543 9.4191e+04 0.0000e+00 3.9459e-01 -2.1871e-01 3.2008e-01 -1.7058e-01
       544 9.6589e+04 0.0000e+00 3.9532e-01 -2.1907e-01 3.2072e-01 -1.7096e-01
       545 9.5102e+04 0.0000e+00 3.9639e-01 -2.1806e-01 3.2169e-01 -1.7016e-01
       546 8.7224e+04 0.0000e+00 3.9222e-01 -2.1824e-01 3.1788e-01 -1.7062e-01
       547 8.9560e+04 0.0000e+00 3.9330e-01 -2.1737e-01 3.1901e-01 -1.7026e-01
       548 9.5924e+04 0.0000e+00 3.9689e-01 -2.1796e-01 3.2213e-01 -1.7025e-01
       549 9.7348e+04 0.0000e+00 3.9599e-01 -2.1859e-01 3.2133e-01 -1.7088e-01
       550 9.8454e+04 0.0000e+00 3.9509e-01 -2.1935e-01 3.2052e-01 -1.7107e-01
       551 9.6499e+04 0.0000e+00 3.9739e-01 -2.1728e-01 3.2240e-01 -1.7013e-01
       552 8.2584e+04 0.0000e+00 3.9249e-01 -2.1729e-01 3.1805e-01 -1.6974e-01
       553 8.9921e+04 0.0000e+00 3.9337e-01 -2.1834e-01 3.1897e-01 -1.7069e-01
       554 9.2885e+04 0.0000e+00 3.9423e-01 -2.1844e-01 3.1975e-01 -1.7045e-01
       555 1.0213e+05 0.0000e+00 3.9717e-01 -2.1910e-01 3.2239e-01 -1.7095e-01
       556 9.5821e+04 0.0000e+00 3.9607e-01 -2.1835e-01 3.2136e-01 -1.7067e-01
       557 8.7189e+04 0.0000e+00 3.9319e-01 -2.1784e-01 3.1877e-01 -1.7016e-01
       558 9.7132e+04 0.0000e+00 3.9705e-01 -2.1857e-01 3.2206e-01 -1.7063e-01
       559 9.2867e+04 0.0000e+00 3.9511e-01 -2.1794e-01 3.2058e-01 -1.7041e-01
       560 9.4661e+04 0.0000e+00 3.9568e-01 -2.1851e-01 3.2101e-01 -1.7050e-01
       561 9.0679e+04 0.0000e+00 3.9434e-01 -2.1809e-01 3.1968e-01 -1.7027e-01
       562 9.5353e+04 0.0000e+00 3.9636e-01 -2.1798e-01 3.2170e-01 -1.7043e-01
       563 9.2311e+04 0.0000e+00 3.9572e-01 -2.1811e-01 3.2088e-01 -1.7029e-01
       564 8.7940e+04 0.0000e+00 3.9267e-01 -2.1853e-01 3.1847e-01 -1.7054e-01
       565 8.7443e+04 0.0000e+00 3.9297e-01 -2.1813e-01 3.1839e-01 -1.7053e-01
       566 9.5404e+04 0.0000e+00 3.9490e-01 -2.1884e-01 3.2038e-01 -1.7078e-01
       567 8.7468e+04 0.0000e+00 3.9238e-01 -2.1829e-01 3.1800e-01 -1.7054e-01
       568 9.6167e+04 0.0000e+00 3.9568e-01 -2.1855e-01 3.2101e-01 -1.7073e-01
       569 9.1956e+04 0.0000e+00 3.9588e-01 -2.1712e-01 3.2120e-01 -1.6987e-01
       570 8.7812e+04 0.0000e+00 3.9334e-01 -2.1831e-01 3.1878e-01 -1.7052e-01
       571 9.0314e+04 0.0000e+00 3.9345e-01 -2.1840e-01 3.1908e-01 -1.7035e-01
       572 8.9967e+04 0.0000e+00 3.9408e-01 -2.1804e-01 3.1959e-01 -1.7029e-01
       573 9.3706e+04 0.0000e+00 3.9569e-01 -2.1834e-01 3.2079e-01 -1.7066e-01
       574 9.4798e+04 0.0000e+00 3.9360e-01 -2.1912e-01 3.1924e-01 -1.7104e-01
       575 8.8294e+04 0.0000e+00 3.9409e-01 -2.1800e-01 3.1952e-01 -1.7031e-01
       576 9.0579e+04 0.0000e+00 3.9436e-01 -2.1771e-01 3.1984e-01 -1.7034e-01
       577 9.2609e+04 0.0000e+00 3.9543e-01 -2.1772e-01 3.2083e-01 -1.6990e-01
       578 9.2575e+04 0.0000e+00 3.9548e-01 -2.1817e-01 3.2071e-01 -1.7036e-01
       579 9.9299e+04 0.0000e+00 3.9738e-01 -2.1816e-01 3.2264e-01 -1.7062e-01
       580 8.5946e+04 0.0000e+00 3.9332e-01 -2.1762e-01 3.1880e-01 -1.7004e-01
       581 9.8101e+04 0.0000e+00 3.9779e-01 -2.1759e-01 3.2299e-01 -1.7018e-01
       582 9.4481e+04 0.0000e+00 3.9596e-01 -2.1804e-01 3.2127e-01 -1.7061e-01
       583 9.1806e+04 0.0000e+00 3.9448e-01 -2.1864e-01 3.1982e-01 -1.7076e-01
       584 8.7631e+04 0.0000e+00 3.9575e-01 -2.1673e-01 3.2107e-01 -1.6942e-01
       585 9.3392e+04 0.0000e+00 3.9466e-01 -2.1857e-01 3.2011e-01 -1.7042e-01
       586 8.6133e+04 0.0000e+00 3.9412e-01 -2.1696e-01 3.1955e-01 -1.6992e-01
       587 9.5127e+04 0.0000e+00 3.9645e-01 -2.1820e-01 3.2162e-01 -1.7035e-01
       588 9.0288e+04 0.0000e+00 3.9530e-01 -2.1746e-01 3.2070e-01 -1.6981e-01
       589 9.1601e+04 0.0000e+00 3.9590e-01 -2.1757e-01 3.2106e-01 -1.7009e-01
       590 9.3444e+04 0.0000e+00 3.9459e-01 -2.1839e-01 3.2006e-01 -1.7065e-01
       591 9.4701e+04 0.0000e+00 3.9519e-01 -2.1868e-01 3.2072e-01 -1.7043e-01
       592 9.3977e+04 0.0000e+00 3.9732e-01 -2.1766e-01 3.2241e-01 -1.7000e-01
       593 9.0010e+04 0.0000e+00 3.9382e-01 -2.1830e-01 3.1935e-01 -1.7034e-01
       594 9.0260e+04 0.0000e+00 3.9603e-01 -2.1669e-01 3.2132e-01 -1.6974e-01
       595 9.2385e+04 0.0000e+00 3.9486e-01 -2.1849e-01 3.2033e-01 -1.7056e-01
       596 9.5189e+04 0.0000e+00 3.9470e-01 -2.1938e-01 3.2007e-01 -1.7115e-01
       597 8.8896e+04 0.0000e+00 3.9318e-01 -2.1771e-01 3.1890e-01 -1.7017e-01
       598 8.7853e+04 0.0000e+00 3.9441e-01 -2.1738e-01 3.1977e-01 -1.6987e-01
       599 8.8190e+04 0.0000e+00 3.9410e-01 -2.1767e-01 3.1968e-01 -1.6986e-01
       600 9.8833e+04 0.0000e+00 3.9638e-01 -2.1862e-01 3.2177e-01 -1.7052e-01
       601 8.8492e+04 0.0000e+00 3.9388e-01 -2.1768e-01 3.1956e-01 -1.7001e-01
       602 9.4870e+04 0.0000e+00 3.9460e-01 -2.1937e-01 3.1995e-01 -1.7115e-01
       603 9.5279e+04 0.0000e+00 3.9523e-01 -2.1837e-01 3.2060e-01 -1.7077e-01
       604 8.5177e+04 0.0000e+00 3.9557e-01 -2.1615e-01 3.2082e-01 -1.6909e-01
       605 9.5348e+04 0.0000e+00 3.9466e-01 -2.1878e-01 3.2023e-01 -1.7094e-01
       606 9.2492e+04 0.0000e+00 3.9311e-01 -2.1938e-01 3.1874e-01 -1.7112e-01
       607 9.6310e+04 0.0000e+00 3.9577e-01 -2.1876e-01 3.2109e-01 -1.7075e-01
       608 9.0764e+04 0.0000e+00 3.9567e-01 -2.1774e-01 3.2089e-01 -1.7011e-01
       609 9.4556e+04 0.0000e+00 3.9461e-01 -2.1922e-01 3.1998e-01 -1.7105e-01
       610 8.8177e+04 0.0000e+00 3.9430e-01 -2.1776e-01 3.1966e-01 -1.7028e-01
       611 9.3353e+04 0.0000e+00 3.9578e-01 -2.1825e-01 3.2106e-01 -1.7026e-01
       612 9.2520e+04 0.0000e+00 3.9504e-01 -2.1841e-01 3.2047e-01 -1.7056e-01
       613 9.3813e+04 0.0000e+00 3.9496e-01 -2.1845e-01 3.2033e-01 -1.7076e-01
       614 8.9568e+04 0.0000e+00 3.9424e-01 -2.1831e-01 3.1955e-01 -1.7066e-01
       615 8.7228e+04 0.0000e+00 3.9428e-01 -2.1703e-01 3.1964e-01 -1.6976e-01
       616 9.1210e+04 0.0000e+00 3.9397e-01 -2.1868e-01 3.1942e-01 -1.7089e-01
       617 8.5866e+04 0.0000e+00 3.9299e-01 -2.1765e-01 3.1848e-01 -1.7008e-01
       618 9.3639e+04 0.0000e+00 3.9841e-01 -2.1628e-01 3.2336e-01 -1.6930e-01
       619 9.2707e+04 0.0000e+00 3.9388e-01 -2.1887e-01 3.1947e-01 -1.7092e-01
       620 8.0906e+04 0.0000e+00 3.9213e-01 -2.1666e-01 3.1784e-01 -1.6935e-01
       621 9.7919e+04 0.0000e+00 3.9569e-01 -2.1930e-01 3.2107e-01 -1.7095e-01
       622 9.5354e+04 0.0000e+00 3.9547e-01 -2.1910e-01 3.2072e-01 -1.7105e-01
       623 9.6137e+04 0.0000e+00 3.9653e-01 -2.1760e-01 3.2181e-01 -1.7031e-01
       624 8.8677e+04 0.0000e+00 3.9384e-01 -2.1805e-01 3.1939e-01 -1.7034e-01
       625 8.8761e+04 0.0000e+00 3.9193e-01 -2.1881e-01 3.1790e-01 -1.7077e-01
       626 9.2627e+04 0.0000e+00 3.9592e-01 -2.1765e-01 3.2122e-01 -1.7027e-01
       627 9.5826e+04 0.0000e+00 3.9558e-01 -2.1897e-01 3.2093e-01 -1.7098e-01
       628 8.7966e+04 0.0000e+00 3.9395e-01 -2.1781e-01 3.1937e-01 -1.7014e-01
       629 9.4213e+04 0.0000e+00 3.9339e-01 -2.1925e-01 3.1895e-01 -1.7102e-01
       630 9.0189e+04 0.0000e+00 3.9510e-01 -2.1730e-01 3.2046e-01 -1.7013e-01
       631 9.1085e+04 0.0000e+00 3.9476e-01 -2.1838e-01 3.2021e-01 -1.7055e-01
       632 9.2949e+04 0.0000e+00 3.9502e-01 -2.1820e-01 3.2045e-01 -1.7063e-01
       633 8.6600e+04 0.0000e+00 3.9500e-01 -2.1645e-01 3.2044e-01 -1.6910e-01
       634 9.2475e+04 0.0000e+00 3.9560e-01 -2.1736e-01 3.2100e-01 -1.7001e-01
       635 8.8555e+04 0.0000e+00 3.9424e-01 -2.1762e-01 3.1976e-01 -1.6984e-01
       636 9.8598e+04 0.0000e+00 3.9620e-01 -2.1905e-01 3.2139e-01 -1.7102e-01
       637 8.6949e+04 0.0000e+00 3.9488e-01 -2.1713e-01 3.2025e-01 -1.6973e-01
       638 8.7175e+04 0.0000e+00 3.9277e-01 -2.1765e-01 3.1853e-01 -1.7042e-01
       639 8.6847e+04 0.0000e+00 3.9267e-01 -2.1832e-01 3.1832e-01 -1.7027e-01
       640 9.7976e+04 0.0000e+00 3.9563e-01 -2.1947e-01 3.2098e-01 -1.7101e-01
       641 9.0674e+04 0.0000e+00 3.9567e-01 -2.1673e-01 3.2104e-01 -1.6982e-01
       642 9.8500e+04 0.0000e+00 3.9655e-01 -2.1923e-01 3.2169e-01 -1.7086e-01
       643 9.6481e+04 0.0000e+00 3.9569e-01 -2.1896e-01 3.2104e-01 -1.7090e-01
       644 9.2437e+04 0.0000e+00 3.9431e-01 -2.1863e-01 3.1982e-01 -1.7070e-01
       645 9.6833e+04 0.0000e+00 3.9392e-01 -2.1997e-01 3.1951e-01 -1.7134e-01
       646 9.2942e+04 0.0000e+00 3.9594e-01 -2.1785e-01 3.2121e-01 -1.7022e-01
       647 9.0796e+04 0.0000e+00 3.9581e-01 -2.1741e-01 3.2105e-01 -1.6997e-01
       648 8.5292e+04 0.0000e+00 3.9325e-01 -2.1744e-01 3.1887e-01 -1.6992e-01
       649 9.0688e+04 0.0000e+00 3.9583e-01 -2.1747e-01 3.2098e-01 -1.7017e-01
       650 9.3859e+04 0.0000e+00 3.9630e-01 -2.1786e-01 3.2160e-01 -1.7012e-01
       651 8.7813e+04 0.0000e+00 3.9402e-01 -2.1741e-01 3.1963e-01 -1.7010e-01
       652 9.1757e+04 0.0000e+00 3.9611e-01 -2.1723e-01 3.2145e-01 -1.6961e-01
       653 8.7790e+04 0.0000e+00 3.9331e-01 -2.1790e-01 3.1879e-01 -1.7039e-01
       654 9.6105e+04 0.0000e+00 3.9763e-01 -2.1746e-01 3.2275e-01 -1.7008e-01
       655 9.0687e+04 0.0000e+00 3.9458e-01 -2.1829e-01 3.1995e-01 -1.7040e-01
       656 9.5331e+04 0.0000e+00 3.9371e-01 -2.1939e-01 3.1930e-01 -1.7112e-01
       657 9.4613e+04 0.0000e+00 3.9496e-01 -2.1871e-01 3.2030e-01 -1.7076e-01
       658 9.5004e+04 0.0000e+00 3.9500e-01 -2.1842e-01 3.2038e-01 -1.7078e-01
       659 8.6892e+04 0.0000e+00 3.9268e-01 -2.1804e-01 3.1822e-01 -1.7038e-01
       660 9.3728e+04 0.0000e+00 3.9643e-01 -2.1777e-01 3.2170e-01 -1.7012e-01
       661 8.7734e+04 0.0000e+00 3.9099e-01 -2.1955e-01 3.1684e-01 -1.7107e-01
       662 9.7276e+04 0.0000e+00 3.9616e-01 -2.1864e-01 3.2139e-01 -1.7056e-01
       663 9.4316e+04 0.0000e+00 3.9531e-01 -2.1846e-01 3.2063e-01 -1.7077e-01
       664 9.1769e+04 0.0000e+00 3.9519e-01 -2.1719e-01 3.2070e-01 -1.6999e-01
       665 9.1556e+04 0.0000e+00 3.9576e-01 -2.1719e-01 3.2111e-01 -1.6998e-01
       666 9.3907e+04 0.0000e+00 3.9433e-01 -2.1884e-01 3.1993e-01 -1.7076e-01
       667 1.0049e+05 0.0000e+00 3.9724e-01 -2.1869e-01 3.2236e-01 -1.7085e-01
       668 9.5299e+04 0.0000e+00 3.9586e-01 -2.1820e-01 3.2113e-01 -1.7050e-01
       669 9.1945e+04 0.0000e+00 3.9615e-01 -2.1740e-01 3.2142e-01 -1.6984e-01
       670 8.7435e+04 0.0000e+00 3.9315e-01 -2.1793e-01 3.1879e-01 -1.7033e-01
       671 8.4236e+04 0.0000e+00 3.9478e-01 -2.1632e-01 3.2027e-01 -1.6938e-01
       672 9.5627e+04 0.0000e+00 3.9364e-01 -2.1930e-01 3.1931e-01 -1.7111e-01
       673 9.7079e+04 0.0000e+00 3.9580e-01 -2.1882e-01 3.2110e-01 -1.7096e-01
       674 9.3932e+04 0.0000e+00 3.9428e-01 -2.1872e-01 3.1972e-01 -1.7086e-01
       675 9.0801e+04 0.0000e+00 3.9381e-01 -2.1798e-01 3.1931e-01 -1.7048e-01
       676 8.5155e+04 0.0000e+00 3.9367e-01 -2.1724e-01 3.1914e-01 -1.6994e-01
       677 8.4324e+04 0.0000e+00 3.9335e-01 -2.1740e-01 3.1883e-01 -1.6944e-01
       678 9.2983e+04 0.0000e+00 3.9383e-01 -2.1901e-01 3.1920e-01 -1.7098e-01
       679 9.3987e+04 0.0000e+00 3.9359e-01 -2.1912e-01 3.1915e-01 -1.7099e-01
       680 9.4857e+04 0.0000e+00 3.9671e-01 -2.1757e-01 3.2197e-01 -1.7009e-01
       681 1.0006e+05 0.0000e+00 3.9698e-01 -2.1870e-01 3.2213e-01 -1.7076e-01
       682 8.7484e+04 0.0000e+00 3.9395e-01 -2.1778e-01 3.1937e-01 -1.7002e-01
       683 9.1526e+04 0.0000e+00 3.9428e-01 -2.1866e-01 3.1972e-01 -1.7075e-01
       684 9.3096e+04 0.0000e+00 3.9723e-01 -2.1670e-01 3.2236e-01 -1.6992e-01
       685 1.0031e+05 0.0000e+00 3.9609e-01 -2.1905e-01 3.2145e-01 -1.7095e-01
       686 9.0420e+04 0.0000e+00 3.9479e-01 -2.1731e-01 3.2017e-01 -1.7009e-01
       687 9.1314e+04 0.0000e+00 3.9527e-01 -2.1792e-01 3.2056e-01 -1.7030e-01
       688 8.9406e+04 0.0000e+00 3.9415e-01 -2.1793e-01 3.1957e-01 -1.7034e-01
       689 8.7440e+04 0.0000e+00 3.9332e-01 -2.1815e-01 3.1883e-01 -1.7036e-01
       690 9.3156e+04 0.0000e+00 3.9445e-01 -2.1795e-01 3.1998e-01 -1.7053e-01
       691 9.3461e+04 0.0000e+00 3.9550e-01 -2.1843e-01 3.2076e-01 -1.7058e-01
       692 8.5502e+04 0.0000e+00 3.9255e-01 -2.1794e-01 3.1827e-01 -1.6997e-01
       693 1.0098e+05 0.0000e+00 3.9717e-01 -2.1868e-01 3.2241e-01 -1.7091e-01
       694 8.7837e+04 0.0000e+00 3.9391e-01 -2.1749e-01 3.1950e-01 -1.7015e-01
       695 9.3734e+04 0.0000e+00 3.9658e-01 -2.1745e-01 3.2178e-01 -1.7003e-01
       696 9.0767e+04 0.0000e+00 3.9424e-01 -2.1783e-01 3.1988e-01 -1.7030e-01
       697 9.5855e+04 0.0000e+00 3.9432e-01 -2.1945e-01 3.1982e-01 -1.7112e-01
       698 8.8020e+04 0.0000e+00 3.9533e-01 -2.1677e-01 3.2070e-01 -1.6936e-01
       699 9.3930e+04 0.0000e+00 3.9526e-01 -2.1794e-01 3.2078e-01 -1.7037e-01
       700 9.6606e+04 0.0000e+00 3.9569e-01 -2.1852e-01 3.2107e-01 -1.7074e-01
       701 8.5475e+04 0.0000e+00 3.9362e-01 -2.1656e-01 3.1916e-01 -1.6991e-01
       702 8.8307e+04 0.0000e+00 3.9292e-01 -2.1812e-01 3.1871e-01 -1.7052e-01
       703 9.9730e+04 0.0000e+00 3.9662e-01 -2.1852e-01 3.2190e-01 -1.7030e-01
       704 8.8894e+04 0.0000e+00 3.9328e-01 -2.1800e-01 3.1894e-01 -1.7031e-01
       705 9.2464e+04 0.0000e+00 3.9414e-01 -2.1820e-01 3.1968e-01 -1.7054e-01
       706 9.3312e+04 0.0000e+00 3.9472e-01 -2.1885e-01 3.2019e-01 -1.7075e-01
       707 9.7049e+04 0.0000e+00 3.9610e-01 -2.1932e-01 3.2133e-01 -1.7074e-01
       708 8.9690e+04 0.0000e+00 3.9373e-01 -2.1830e-01 3.1930e-01 -1.7048e-01
       709 9.3465e+04 0.0000e+00 3.9563e-01 -2.1835e-01 3.2089e-01 -1.7063e-01
       710 9.5986e+04 0.0000e+00 3.9482e-01 -2.1908e-01 3.2027e-01 -1.7086e-01
       711 9.3712e+04 0.0000e+00 3.9548e-01 -2.1817e-01 3.2091e-01 -1.7031e-01
       712 8.8888e+04 0.0000e+00 3.9338e-01 -2.1852e-01 3.1888e-01 -1.7052e-01
       713 9.7450e+04 0.0000e+00 3.9611e-01 -2.1904e-01 3.2130e-01 -1.7091e-01
       714 8.7420e+04 0.0000e+00 3.9325e-01 -2.1778e-01 3.1889e-01 -1.7010e-01
       715 9.4681e+04 0.0000e+00 3.9573e-01 -2.1840e-01 3.2101e-01 -1.7075e-01
       716 9.4495e+04 0.0000e+00 3.9617e-01 -2.1798e-01 3.2142e-01 -1.7033e-01
       717 8.8910e+04 0.0000e+00 3.9315e-01 -2.1799e-01 3.1881e-01 -1.7039e-01
       718 9.6230e+04 0.0000e+00 3.9452e-01 -2.1922e-01 3.2012e-01 -1.7088e-01
       719 9.7001e+04 0.0000e+00 3.9686e-01 -2.1879e-01 3.2184e-01 -1.7087e-01
       720 8.6694e+04 0.0000e+00 3.9420e-01 -2.1712e-01 3.1959e-01 -1.6981e-01
       721 9.4888e+04 0.0000e+00 3.9520e-01 -2.1827e-01 3.2058e-01 -1.7065e-01
       722 8.6184e+04 0.0000e+00 3.9357e-01 -2.1731e-01 3.1906e-01 -1.7002e-01
       723 9.4806e+04 0.0000e+00 3.9412e-01 -2.1869e-01 3.1976e-01 -1.7082e-01
       724 9.4979e+04 0.0000e+00 3.9675e-01 -2.1787e-01 3.2182e-01 -1.7028e-01
       725 9.7467e+04 0.0000e+00 3.9727e-01 -2.1797e-01 3.2234e-01 -1.7058e-01
       726 8.6134e+04 0.0000e+00 3.9491e-01 -2.1717e-01 3.2022e-01 -1.6971e-01
       727 9.3773e+04 0.0000e+00 3.9500e-01 -2.1873e-01 3.2038e-01 -1.7086e-01
       728 9.3465e+04 0.0000e+00 3.9634e-01 -2.1712e-01 3.2162e-01 -1.6989e-01
       729 9.0872e+04 0.0000e+00 3.9497e-01 -2.1791e-01 3.2025e-01 -1.7018e-01
       730 9.6693e+04 0.0000e+00 3.9831e-01 -2.1678e-01 3.2347e-01 -1.6970e-01
       731 9.7841e+04 0.0000e+00 3.9616e-01 -2.1879e-01 3.2155e-01 -1.7074e-01
       732 9.5390e+04 0.0000e+00 3.9593e-01 -2.1851e-01 3.2118e-01 -1.7047e-01
       733 8.4590e+04 0.0000e+00 3.9302e-01 -2.1748e-01 3.1859e-01 -1.7002e-01
       734 9.4645e+04 0.0000e+00 3.9440e-01 -2.1847e-01 3.2005e-01 -1.7070e-01
       735 8.9435e+04 0.0000e+00 3.9319e-01 -2.1892e-01 3.1876e-01 -1.7062e-01
       736 9.2572e+04 0.0000e+00 3.9538e-01 -2.1797e-01 3.2066e-01 -1.7045e-01
       737 9.0876e+04 0.0000e+00 3.9392e-01 -2.1809e-01 3.1940e-01 -1.7044e-01
       738 9.0379e+04 0.0000e+00 3.9389e-01 -2.1820e-01 3.1941e-01 -1.7053e-01
       739 8.9326e+04 0.0000e+00 3.9284e-01 -2.1843e-01 3.1848e-01 -1.7051e-01
       740 9.2167e+04 0.0000e+00 3.9531e-01 -2.1753e-01 3.2083e-01 -1.6997e-01
       741 9.5033e+04 0.0000e+00 3.9367e-01 -2.1949e-01 3.1924e-01 -1.7114e-01
       742 9.4223e+04 0.0000e+00 3.9455e-01 -2.1857e-01 3.2013e-01 -1.7079e-01
       743 9.2671e+04 0.0000e+00 3.9451e-01 -2.1855e-01 3.1998e-01 -1.7070e-01
       744 9.3815e+04 0.0000e+00 3.9453e-01 -2.1848e-01 3.1994e-01 -1.7071e-01
       745 8.9414e+04 0.0000e+00 3.9338e-01 -2.1815e-01 3.1908e-01 -1.7041e-01
       746 9.3624e+04 0.0000e+00 3.9391e-01 -2.1885e-01 3.1949e-01 -1.7066e-01
       747 9.1847e+04 0.0000e+00 3.9438e-01 -2.1849e-01 3.1982e-01 -1.7063e-01
       748 9.0489e+04 0.0000e+00 3.9597e-01 -2.1754e-01 3.2114e-01 -1.7009e-01
       749 9.2641e+04 0.0000e+00 3.9403e-01 -2.1849e-01 3.1950e-01 -1.7074e-01
       750 9.0253e+04 0.0000e+00 3.9330e-01 -2.1779e-01 3.1907e-01 -1.7033e-01
       751 9.5856e+04 0.0000e+00 3.9604e-01 -2.1782e-01 3.2138e-01 -1.7042e-01
       752 8.7583e+04 0.0000e+00 3.9351e-01 -2.1752e-01 3.1907e-01 -1.7017e-01
       753 9.3591e+04 0.0000e+00 3.9465e-01 -2.1808e-01 3.2022e-01 -1.7022e-01
       754 1.0681e+05 0.0000e+00 3.9753e-01 -2.2033e-01 3.2280e-01 -1.7153e-01
       755 8.7752e+04 0.0000e+00 3.9222e-01 -2.1851e-01 3.1807e-01 -1.7048e-01
       756 9.8252e+04 0.0000e+00 3.9609e-01 -2.1855e-01 3.2133e-01 -1.7087e-01
       757 9.1304e+04 0.0000e+00 3.9403e-01 -2.1874e-01 3.1940e-01 -1.7082e-01
       758 9.2510e+04 0.0000e+00 3.9416e-01 -2.1833e-01 3.1962e-01 -1.7073e-01
       759 9.1897e+04 0.0000e+00 3.9476e-01 -2.1840e-01 3.2022e-01 -1.7050e-01
       760 9.2171e+04 0.0000e+00 3.9461e-01 -2.1865e-01 3.2007e-01 -1.7065e-01
       761 9.7064e+04 0.0000e+00 3.9495e-01 -2.1909e-01 3.2042e-01 -1.7103e-01
       762 1.0055e+05 0.0000e+00 3.9694e-01 -2.1925e-01 3.2212e-01 -1.7099e-01
       763 9.6545e+04 0.0000e+00 3.9491e-01 -2.1943e-01 3.2029e-01 -1.7111e-01
       764 9.8642e+04 0.0000e+00 3.9655e-01 -2.1870e-01 3.2172e-01 -1.7078e-01
       765 8.9112e+04 0.0000e+00 3.9267e-01 -2.1882e-01 3.1823e-01 -1.7092e-01
       766 9.6684e+04 0.0000e+00 3.9679e-01 -2.1813e-01 3.2200e-01 -1.7018e-01
       767 9.3768e+04 0.0000e+00 3.9491e-01 -2.1835e-01 3.2038e-01 -1.7075e-01
       768 9.5560e+04 0.0000e+00 3.9561e-01 -2.1864e-01 3.2093e-01 -1.7087e-01
       769 9.6029e+04 0.0000e+00 3.9609e-01 -2.1815e-01 3.2144e-01 -1.7048e-01
       770 9.0500e+04 0.0000e+00 3.9395e-01 -2.1853e-01 3.1952e-01 -1.7048e-01
       771 8.3455e+04 0.0000e+00 3.9132e-01 -2.1807e-01 3.1714e-01 -1.7009e-01
       772 8.8669e+04 0.0000e+00 3.9383e-01 -2.1840e-01 3.1929e-01 -1.7046e-01
       773 9.7480e+04 0.0000e+00 3.9596e-01 -2.1862e-01 3.2122e-01 -1.7074e-01
       774 9.2513e+04 0.0000e+00 3.9414e-01 -2.1859e-01 3.1971e-01 -1.7059e-01
       775 8.8761e+04 0.0000e+00 3.9382e-01 -2.1774e-01 3.1940e-01 -1.6996e-01
       776 8.4605e+04 0.0000e+00 3.9124e-01 -2.1748e-01 3.1713e-01 -1.7030e-01
       777 9.3728e+04 0.0000e+00 3.9570e-01 -2.1765e-01 3.2098e-01 -1.7025e-01
       778 9.5419e+04 0.0000e+00 3.9430e-01 -2.1994e-01 3.1966e-01 -1.7135e-01
       779 9.6482e+04 0.0000e+00 3.9620e-01 -2.1846e-01 3.2143e-01 -1.7070e-01
       780 8.9449e+04 0.0000e+00 3.9482e-01 -2.1745e-01 3.2030e-01 -1.6974e-01
       781 8.6762e+04 0.0000e+00 3.9273e-01 -2.1768e-01 3.1831e-01 -1.7049e-01
       782 9.4843e+04 0.0000e+00 3.9756e-01 -2.1707e-01 3.2266e-01 -1.6985e-01
       783 9.5069e+04 0.0000e+00 3.9549e-01 -2.1880e-01 3.2074e-01 -1.7065e-01
       784 9.3889e+04 0.0000e+00 3.9455e-01 -2.1832e-01 3.2020e-01 -1.7045e-01
       785 9.4263e+04 0.0000e+00 3.9625e-01 -2.1786e-01 3.2147e-01 -1.7054e-01
       786 9.2656e+04 0.0000e+00 3.9615e-01 -2.1712e-01 3.2153e-01 -1.6987e-01
       787 9.4202e+04 0.0000e+00 3.9490e-01 -2.1887e-01 3.2025e-01 -1.7089e-01
       788 8.5735e+04 0.0000e+00 3.9435e-01 -2.1760e-01 3.1968e-01 -1.6979e-01
       789 9.4213e+04 0.0000e+00 3.9417e-01 -2.1932e-01 3.1967e-01 -1.7102e-01
       790 9.2174e+04 0.0000e+00 3.9582e-01 -2.1745e-01 3.2103e-01 -1.7023e-01
       791 9.6957e+04 0.0000e+00 3.9517e-01 -2.1865e-01 3.2054e-01 -1.7084e-01
       792 8.4989e+04 0.0000e+00 3.9333e-01 -2.1780e-01 3.1888e-01 -1.7002e-01
       793 8.9482e+04 0.0000e+00 3.9441e-01 -2.1769e-01 3.1982e-01 -1.7017e-01
       794 9.4567e+04 0.0000e+00 3.9533e-01 -2.1873e-01 3.2072e-01 -1.7072e-01
       795 9.5665e+04 0.0000e+00 3.9612e-01 -2.1833e-01 3.2143e-01 -1.7044e-01
       796 9.5895e+04 0.0000e+00 3.9542e-01 -2.1884e-01 3.2076e-01 -1.7078e-01
       797 9.1287e+04 0.0000e+00 3.9539e-01 -2.1735e-01 3.2078e-01 -1.6983e-01
       798 9.7317e+04 0.0000e+00 3.9694e-01 -2.1879e-01 3.2195e-01 -1.7064e-01
       799 9.0236e+04 0.0000e+00 3.9339e-01 -2.1828e-01 3.1895e-01 -1.7065e-01
       800 9.0108e+04 0.0000e+00 3.9618e-01 -2.1721e-01 3.2138e-01 -1.6968e-01
       801 9.0743e+04 0.0000e+00 3.9374e-01 -2.1864e-01 3.1914e-01 -1.7073e-01
       802 9.1264e+04 0.0000e+00 3.9370e-01 -2.1864e-01 3.1917e-01 -1.7074e-01
       803 9.3532e+04 0.0000e+00 3.9482e-01 -2.1868e-01 3.2022e-01 -1.7061e-01
       804 9.2095e+04 0.0000e+00 3.9373e-01 -2.1846e-01 3.1929e-01 -1.7074e-01
       805 8.7241e+04 0.0000e+00 3.9432e-01 -2.1760e-01 3.1977e-01 -1.6992e-01
       806 9.1818e+04 0.0000e+00 3.9301e-01 -2.1941e-01 3.1861e-01 -1.7116e-01
       807 8.6893e+04 0.0000e+00 3.9349e-01 -2.1765e-01 3.1895e-01 -1.7021e-01
       808 9.1879e+04 0.0000e+00 3.9489e-01 -2.1836e-01 3.2028e-01 -1.7052e-01
       809 8.5705e+04 0.0000e+00 3.9438e-01 -2.1674e-01 3.1973e-01 -1.6964e-01
       810 9.7153e+04 0.0000e+00 3.9604e-01 -2.1844e-01 3.2128e-01 -1.7077e-01
       811 8.9523e+04 0.0000e+00 3.9413e-01 -2.1786e-01 3.1960e-01 -1.7042e-01
       812 9.0627e+04 0.0000e+00 3.9453e-01 -2.1835e-01 3.1984e-01 -1.7058e-01
       813 9.0862e+04 0.0000e+00 3.9457e-01 -2.1827e-01 3.2005e-01 -1.7006e-01
       814 9.1091e+04 0.0000e+00 3.9413e-01 -2.1812e-01 3.1968e-01 -1.7039e-01
       815 8.7569e+04 0.0000e+00 3.9281e-01 -2.1798e-01 3.1842e-01 -1.7027e-01
       816 8.7793e+04 0.0000e+00 3.9234e-01 -2.1870e-01 3.1811e-01 -1.7054e-01
       817 8.7143e+04 0.0000e+00 3.9509e-01 -2.1663e-01 3.2056e-01 -1.6969e-01
       818 8.7835e+04 0.0000e+00 3.9368e-01 -2.1781e-01 3.1912e-01 -1.7010e-01
       819 9.5319e+04 0.0000e+00 3.9414e-01 -2.1982e-01 3.1967e-01 -1.7112e-01
       820 9.9275e+04 0.0000e+00 3.9711e-01 -2.1906e-01 3.2228e-01 -1.7067e-01
       821 8.9549e+04 0.0000e+00 3.9358e-01 -2.1923e-01 3.1906e-01 -1.7083e-01
       822 1.0076e+05 0.0000e+00 3.9870e-01 -2.1781e-01 3.2366e-01 -1.7023e-01
       823 1.0011e+05 0.0000e+00 3.9864e-01 -2.1811e-01 3.2366e-01 -1.7057e-01
       824 9.1048e+04 0.0000e+00 3.9502e-01 -2.1789e-01 3.2030e-01 -1.7039e-01
       825 9.2569e+04 0.0000e+00 3.9553e-01 -2.1752e-01 3.2094e-01 -1.7014e-01
       826 9.6394e+04 0.0000e+00 3.9598e-01 -2.1831e-01 3.2129e-01 -1.7065e-01
       827 9.7502e+04 0.0000e+00 3.9559e-01 -2.1960e-01 3.2084e-01 -1.7124e-01
       828 9.3458e+04 0.0000e+00 3.9414e-01 -2.1869e-01 3.1966e-01 -1.7078e-01
       829 8.8946e+04 0.0000e+00 3.9417e-01 -2.1754e-01 3.1967e-01 -1.6989e-01
       830 9.0508e+04 0.0000e+00 3.9427e-01 -2.1825e-01 3.1973e-01 -1.7038e-01
       831 9.3821e+04 0.0000e+00 3.9666e-01 -2.1752e-01 3.2185e-01 -1.7025e-01
       832 8.4417e+04 0.0000e+00 3.9264e-01 -2.1681e-01 3.1830e-01 -1.6979e-01
       833 9.5000e+04 0.0000e+00 3.9525e-01 -2.1889e-01 3.2057e-01 -1.7090e-01
       834 8.5664e+04 0.0000e+00 3.8965e-01 -2.1945e-01 3.1561e-01 -1.7111e-01
       835 9.2809e+04 0.0000e+00 3.9556e-01 -2.1780e-01 3.2088e-01 -1.7013e-01
       836 9.9174e+04 0.0000e+00 3.9699e-01 -2.1852e-01 3.2219e-01 -1.7086e-01
       837 9.2966e+04 0.0000e+00 3.9336e-01 -2.1921e-01 3.1902e-01 -1.7108e-01
       838 9.7348e+04 0.0000e+00 3.9714e-01 -2.1851e-01 3.2215e-01 -1.7064e-01
       839 8.9844e+04 0.0000e+00 3.9660e-01 -2.1689e-01 3.2167e-01 -1.6981e-01
       840 8.8845e+04 0.0000e+00 3.9288e-01 -2.1817e-01 3.1838e-01 -1.7069e-01
       841 9.3391e+04 0.0000e+00 3.9531e-01 -2.1856e-01 3.2067e-01 -1.7048e-01
       842 9.6638e+04 0.0000e+00 3.9590e-01 -2.1893e-01 3.2116e-01 -1.7097e-01
       843 9.2297e+04 0.0000e+00 3.9268e-01 -2.1921e-01 3.1841e-01 -1.7101e-01
       844 9.4895e+04 0.0000e+00 3.9472e-01 -2.1862e-01 3.2018e-01 -1.7070e-01
       845 9.4692e+04 0.0000e+00 3.9591e-01 -2.1794e-01 3.2110e-01 -1.7058e-01
       846 9.7234e+04 0.0000e+00 3.9612e-01 -2.1892e-01 3.2136e-01 -1.7083e-01
       847 9.2429e+04 0.0000e+00 3.9489e-01 -2.1848e-01 3.2029e-01 -1.7066e-01
       848 9.9516e+04 0.0000e+00 3.9779e-01 -2.1866e-01 3.2272e-01 -1.7090e-01
       849 9.6936e+04 0.0000e+00 3.9648e-01 -2.1877e-01 3.2167e-01 -1.7086e-01
       850 9.9632e+04 0.0000e+00 3.9680e-01 -2.1896e-01 3.2196e-01 -1.7099e-01
       851 9.5366e+04 0.0000e+00 3.9565e-01 -2.1815e-01 3.2106e-01 -1.7054e-01
       852 1.0225e+05 0.0000e+00 3.9797e-01 -2.1876e-01 3.2302e-01 -1.7088e-01
       853 8.9493e+04 0.0000e+00 3.9401e-01 -2.1773e-01 3.1947e-01 -1.7047e-01
       854 9.1850e+04 0.0000e+00 3.9413e-01 -2.1837e-01 3.1947e-01 -1.7065e-01
       855 9.0188e+04 0.0000e+00 3.9437e-01 -2.1741e-01 3.1985e-01 -1.7010e-01
       856 8.9782e+04 0.0000e+00 3.9453e-01 -2.1839e-01 3.1989e-01 -1.7030e-01
       857 9.3057e+04 0.0000e+00 3.9518e-01 -2.1821e-01 3.2055e-01 -1.7038e-01
       858 9.3467e+04 0.0000e+00 3.9581e-01 -2.1805e-01 3.2102e-01 -1.7034e-01
       859 8.8432e+04 0.0000e+00 3.9432e-01 -2.1742e-01 3.1976e-01 -1.7009e-01
       860 9.2388e+04 0.0000e+00 3.9509e-01 -2.1833e-01 3.2041e-01 -1.7038e-01
       861 9.2619e+04 0.0000e+00 3.9462e-01 -2.1847e-01 3.2007e-01 -1.7061e-01
       862 9.0122e+04 0.0000e+00 3.9370e-01 -2.1837e-01 3.1916e-01 -1.7066e-01
       863 9.4147e+04 0.0000e+00 3.9609e-01 -2.1795e-01 3.2131e-01 -1.7050e-01
       864 9.4717e+04 0.0000e+00 3.9626e-01 -2.1780e-01 3.2171e-01 -1.7002e-01
       865 8.7307e+04 0.0000e+00 3.9239e-01 -2.1863e-01 3.1806e-01 -1.7051e-01
       866 8.9429e+04 0.0000e+00 3.9391e-01 -2.1866e-01 3.1936e-01 -1.7052e-01
       867 9.9360e+04 0.0000e+00 3.9870e-01 -2.1871e-01 3.2348e-01 -1.7087e-01
       868 9.4122e+04 0.0000e+00 3.9521e-01 -2.1862e-01 3.2058e-01 -1.7078e-01
       869 9.6435e+04 0.0000e+00 3.9698e-01 -2.1846e-01 3.2213e-01 -1.7044e-01
       870 8.6441e+04 0.0000e+00 3.9433e-01 -2.1650e-01 3.1977e-01 -1.6981e-01
       871 8.9411e+04 0.0000e+00 3.9497e-01 -2.1737e-01 3.2042e-01 -1.7000e-01
       872 9.3940e+04 0.0000e+00 3.9377e-01 -2.1954e-01 3.1931e-01 -1.7110e-01
       873 9.2853e+04 0.0000e+00 3.9535e-01 -2.1813e-01 3.2074e-01 -1.7028e-01
       874 8.7596e+04 0.0000e+00 3.9119e-01 -2.1874e-01 3.1713e-01 -1.7061e-01
       875 8.9833e+04 0.0000e+00 3.9363e-01 -2.1897e-01 3.1908e-01 -1.7077e-01
       876 9.4865e+04 0.0000e+00 3.9599e-01 -2.1827e-01 3.2129e-01 -1.7046e-01
       877 9.8865e+04 0.0000e+00 3.9753e-01 -2.1804e-01 3.2248e-01 -1.7054e-01
       878 1.0037e+05 0.0000e+00 3.9794e-01 -2.1753e-01 3.2318e-01 -1.7006e-01
       879 8.5273e+04 0.0000e+00 3.9431e-01 -2.1671e-01 3.1977e-01 -1.6941e-01
       880 9.5749e+04 0.0000e+00 3.9610e-01 -2.1844e-01 3.2137e-01 -1.7075e-01
       881 8.2034e+04 0.0000e+00 3.9460e-01 -2.1561e-01 3.2003e-01 -1.6873e-01
       882 9.2776e+04 0.0000e+00 3.9476e-01 -2.1792e-01 3.2024e-01 -1.7036e-01
       883 8.7613e+04 0.0000e+00 3.9383e-01 -2.1774e-01 3.1939e-01 -1.6976e-01
       884 9.2351e+04 0.0000e+00 3.9423e-01 -2.1809e-01 3.1981e-01 -1.7059e-01
       885 9.8544e+04 0.0000e+00 3.9538e-01 -2.1922e-01 3.2075e-01 -1.7107e-01
       886 9.5174e+04 0.0000e+00 3.9454e-01 -2.1892e-01 3.1998e-01 -1.7080e-01
       887 9.2985e+04 0.0000e+00 3.9599e-01 -2.1778e-01 3.2116e-01 -1.7038e-01
       888 8.2003e+04 0.0000e+00 3.9066e-01 -2.1800e-01 3.1650e-01 -1.7032e-01
       889 1.0159e+05 0.0000e+00 3.9623e-01 -2.1973e-01 3.2150e-01 -1.7104e-01
       890 9.8901e+04 0.0000e+00 3.9549e-01 -2.1956e-01 3.2090e-01 -1.7122e-01
       891 9.0407e+04 0.0000e+00 3.9439e-01 -2.1802e-01 3.1986e-01 -1.7053e-01
       892 8.4010e+04 0.0000e+00 3.9187e-01 -2.1771e-01 3.1763e-01 -1.7015e-01
       893 9.8520e+04 0.0000e+00 3.9562e-01 -2.1932e-01 3.2089e-01 -1.7100e-01
       894 9.6558e+04 0.0000e+00 3.9809e-01 -2.1740e-01 3.2306e-01 -1.7005e-01
       895 1.0103e+05 0.0000e+00 3.9753e-01 -2.1818e-01 3.2270e-01 -1.7069e-01
       896 9.3998e+04 0.0000e+00 3.9550e-01 -2.1841e-01 3.2078e-01 -1.7074e-01
       897 9.2355e+04 0.0000e+00 3.9645e-01 -2.1735e-01 3.2169e-01 -1.7005e-01
       898 9.9923e+04 0.0000e+00 3.9640e-01 -2.1880e-01 3.2173e-01 -1.7093e-01
       899 8.9322e+04 0.0000e+00 3.9608e-01 -2.1618e-01 3.2134e-01 -1.6934e-01
       900 9.8741e+04 0.0000e+00 3.9654e-01 -2.1857e-01 3.2181e-01 -1.7066e-01
       901 9.1454e+04 0.0000e+00 3.9702e-01 -2.1702e-01 3.2214e-01 -1.6990e-01
       902 8.6669e+04 0.0000e+00 3.9314e-01 -2.1717e-01 3.1888e-01 -1.6986e-01
       903 9.1586e+04 0.0000e+00 3.9616e-01 -2.1726e-01 3.2136e-01 -1.7001e-01
       904 8.9720e+04 0.0000e+00 3.9595e-01 -2.1667e-01 3.2118e-01 -1.6964e-01
       905 8.8111e+04 0.0000e+00 3.9450e-01 -2.1741e-01 3.1988e-01 -1.6988e-01
       906 8.9084e+04 0.0000e+00 3.9372e-01 -2.1813e-01 3.1924e-01 -1.7030e-01
       907 9.2160e+04 0.0000e+00 3.9337e-01 -2.1940e-01 3.1887e-01 -1.7111e-01
       908 8.5197e+04 0.0000e+00 3.9269e-01 -2.1815e-01 3.1820e-01 -1.7039e-01
       909 9.4972e+04 0.0000e+00 3.9613e-01 -2.1819e-01 3.2132e-01 -1.7048e-01
       910 9.5492e+04 0.0000e+00 3.9707e-01 -2.1696e-01 3.2234e-01 -1.6995e-01
       911 9.5734e+04 0.0000e+00 3.9605e-01 -2.1833e-01 3.2139e-01 -1.7033e-01
       912 9.5614e+04 0.0000e+00 3.9631e-01 -2.1818e-01 3.2156e-01 -1.7069e-01
       913 1.0245e+05 0.0000e+00 3.9764e-01 -2.1950e-01 3.2280e-01 -1.7123e-01
       914 9.0109e+04 0.0000e+00 3.9531e-01 -2.1760e-01 3.2053e-01 -1.7021e-01
       915 9.2007e+04 0.0000e+00 3.9396e-01 -2.1835e-01 3.1950e-01 -1.7062e-01
       916 8.7851e+04 0.0000e+00 3.9442e-01 -2.1711e-01 3.1978e-01 -1.7005e-01
       917 9.1700e+04 0.0000e+00 3.9275e-01 -2.1939e-01 3.1837e-01 -1.7111e-01
       918 9.7345e+04 0.0000e+00 3.9640e-01 -2.1832e-01 3.2162e-01 -1.7075e-01
       919 9.8284e+04 0.0000e+00 3.9701e-01 -2.1843e-01 3.2203e-01 -1.7078e-01
       920 8.7889e+04 0.0000e+00 3.9453e-01 -2.1719e-01 3.1991e-01 -1.6983e-01
       921 8.4491e+04 0.0000e+00 3.9398e-01 -2.1707e-01 3.1936e-01 -1.6976e-01
       922 9.4917e+04 0.0000e+00 3.9619e-01 -2.1790e-01 3.2147e-01 -1.7051e-01
       923 9.5319e+04 0.0000e+00 3.9645e-01 -2.1826e-01 3.2154e-01 -1.7049e-01
       924 9.8815e+04 0.0000e+00 3.9632e-01 -2.1872e-01 3.2169e-01 -1.7090e-01
       925 9.2805e+04 0.0000e+00 3.9470e-01 -2.1874e-01 3.2011e-01 -1.7060e-01
       926 1.0068e+05 0.0000e+00 3.9635e-01 -2.1943e-01 3.2162e-01 -1.7076e-01
       927 9.6176e+04 0.0000e+00 3.9658e-01 -2.1829e-01 3.2178e-01 -1.7033e-01
       928 9.7935e+04 0.0000e+00 3.9798e-01 -2.1754e-01 3.2302e-01 -1.7021e-01
       929 8.8817e+04 0.0000e+00 3.9333e-01 -2.1850e-01 3.1900e-01 -1.7050e-01
       930 9.5797e+04 0.0000e+00 3.9599e-01 -2.1884e-01 3.2123e-01 -1.7087e-01
       931 9.0300e+04 0.0000e+00 3.9628e-01 -2.1705e-01 3.2157e-01 -1.6973e-01
       932 8.8785e+04 0.0000e+00 3.9347e-01 -2.1801e-01 3.1904e-01 -1.7022e-01
       933 9.3230e+04 0.0000e+00 3.9485e-01 -2.1830e-01 3.2028e-01 -1.7065e-01
       934 9.0428e+04 0.0000e+00 3.9576e-01 -2.1763e-01 3.2103e-01 -1.6979e-01
       935 8.4899e+04 0.0000e+00 3.9229e-01 -2.1744e-01 3.1801e-01 -1.6991e-01
       936 9.2925e+04 0.0000e+00 3.9365e-01 -2.1846e-01 3.1926e-01 -1.7080e-01
       937 8.7728e+04 0.0000e+00 3.9446e-01 -2.1747e-01 3.1983e-01 -1.7009e-01
       938 1.0243e+05 0.0000e+00 3.9740e-01 -2.1923e-01 3.2260e-01 -1.7094e-01
       939 9.3456e+04 0.0000e+00 3.9706e-01 -2.1772e-01 3.2220e-01 -1.7007e-01
       940 9.1623e+04 0.0000e+00 3.9364e-01 -2.1832e-01 3.1922e-01 -1.7061e-01
       941 9.2889e+04 0.0000e+00 3.9648e-01 -2.1753e-01 3.2166e-01 -1.7018e-01
       942 9.2944e+04 0.0000e+00 3.9634e-01 -2.1757e-01 3.2166e-01 -1.6996e-01
       943 9.2634e+04 0.0000e+00 3.9558e-01 -2.1821e-01 3.2091e-01 -1.7024e-01
       944 9.5843e+04 0.0000e+00 3.9856e-01 -2.1663e-01 3.2360e-01 -1.6956e-01
       945 9.8197e+04 0.0000e+00 3.9591e-01 -2.1913e-01 3.2122e-01 -1.7104e-01
       946 9.1250e+04 0.0000e+00 3.9402e-01 -2.1818e-01 3.1957e-01 -1.7056e-01
       947 9.1711e+04 0.0000e+00 3.9598e-01 -2.1699e-01 3.2128e-01 -1.6959e-01
       948 9.4761e+04 0.0000e+00 3.9484e-01 -2.1861e-01 3.2027e-01 -1.7080e-01
       949 8.7422e+04 0.0000e+00 3.9285e-01 -2.1781e-01 3.1841e-01 -1.7044e-01
       950 9.1014e+04 0.0000e+00 3.9426e-01 -2.1849e-01 3.1970e-01 -1.7057e-01
       951 9.5967e+04 0.0000e+00 3.9346e-01 -2.1935e-01 3.1906e-01 -1.7111e-01
       952 9.6907e+04 0.0000e+00 3.9671e-01 -2.1832e-01 3.2188e-01 -1.7061e-01
       953 9.6903e+04 0.0000e+00 3.9863e-01 -2.1767e-01 3.2350e-01 -1.7020e-01
       954 9.9071e+04 0.0000e+00 3.9788e-01 -2.1811e-01 3.2289e-01 -1.7057e-01
       955 9.0592e+04 0.0000e+00 3.9349e-01 -2.1877e-01 3.1905e-01 -1.7069e-01
       956 9.2077e+04 0.0000e+00 3.9334e-01 -2.1885e-01 3.1899e-01 -1.7095e-01
       957 8.7424e+04 0.0000e+00 3.9188e-01 -2.1847e-01 3.1756e-01 -1.7071e-01
       958 9.5696e+04 0.0000e+00 3.9336e-01 -2.1963e-01 3.1896e-01 -1.7125e-01
       959 8.9948e+04 0.0000e+00 3.9335e-01 -2.1838e-01 3.1902e-01 -1.7065e-01
       960 8.8045e+04 0.0000e+00 3.9418e-01 -2.1763e-01 3.1967e-01 -1.6990e-01
       961 9.5669e+04 0.0000e+00 3.9692e-01 -2.1868e-01 3.2193e-01 -1.7072e-01
       962 9.3782e+04 0.0000e+00 3.9394e-01 -2.1850e-01 3.1957e-01 -1.7053e-01
       963 8.7966e+04 0.0000e+00 3.9293e-01 -2.1795e-01 3.1852e-01 -1.7042e-01
       964 9.7177e+04 0.0000e+00 3.9705e-01 -2.1851e-01 3.2206e-01 -1.7086e-01
       965 8.6940e+04 0.0000e+00 3.9513e-01 -2.1671e-01 3.2043e-01 -1.6961e-01
       966 9.0300e+04 0.0000e+00 3.9443e-01 -2.1785e-01 3.1995e-01 -1.7029e-01
       967 9.9995e+04 0.0000e+00 3.9702e-01 -2.1859e-01 3.2222e-01 -1.7071e-01
       968 9.3081e+04 0.0000e+00 3.9599e-01 -2.1783e-01 3.2126e-01 -1.7023e-01
       969 8.7724e+04 0.0000e+00 3.9257e-01 -2.1840e-01 3.1807e-01 -1.7076e-01
       970 9.5124e+04 0.0000e+00 3.9572e-01 -2.1880e-01 3.2099e-01 -1.7085e-01
       971 8.8467e+04 0.0000e+00 3.9510e-01 -2.1696e-01 3.2041e-01 -1.6971e-01
       972 9.3553e+04 0.0000e+00 3.9518e-01 -2.1886e-01 3.2051e-01 -1.7064e-01
       973 9.6098e+04 0.0000e+00 3.9589e-01 -2.1806e-01 3.2128e-01 -1.7061e-01
       974 9.1453e+04 0.0000e+00 3.9438e-01 -2.1823e-01 3.1991e-01 -1.7054e-01
       975 9.2213e+04 0.0000e+00 3.9446e-01 -2.1847e-01 3.1991e-01 -1.7064e-01
       976 9.5181e+04 0.0000e+00 3.9646e-01 -2.1760e-01 3.2180e-01 -1.7012e-01
       977 8.5533e+04 0.0000e+00 3.9421e-01 -2.1667e-01 3.1970e-01 -1.6973e-01
       978 9.2531e+04 0.0000e+00 3.9431e-01 -2.1857e-01 3.1983e-01 -1.7074e-01
       979 9.3376e+04 0.0000e+00 3.9672e-01 -2.1719e-01 3.2190e-01 -1.6990e-01
       980 9.3736e+04 0.0000e+00 3.9646e-01 -2.1794e-01 3.2177e-01 -1.7011e-01
       981 9.8957e+04 0.0000e+00 3.9542e-01 -2.1954e-01 3.2077e-01 -1.7123e-01
       982 9.6094e+04 0.0000e+00 3.9727e-01 -2.1795e-01 3.2237e-01 -1.7018e-01
       983 9.8050e+04 0.0000e+00 3.9549e-01 -2.1941e-01 3.2094e-01 -1.7097e-01
       984 9.0752e+04 0.0000e+00 3.9588e-01 -2.1765e-01 3.2105e-01 -1.7006e-01
       985 9.4134e+04 0.0000e+00 3.9609e-01 -2.1830e-01 3.2131e-01 -1.7048e-01
       986 9.3040e+04 0.0000e+00 3.9523e-01 -2.1861e-01 3.2056e-01 -1.7040e-01
       987 9.5320e+04 0.0000e+00 3.9563e-01 -2.1907e-01 3.2080e-01 -1.7099e-01
       988 8.6725e+04 0.0000e+00 3.9287e-01 -2.1840e-01 3.1854e-01 -1.7017e-01
       989 9.2749e+04 0.0000e+00 3.9403e-01 -2.1871e-01 3.1953e-01 -1.7081e-01
       990 9.3949e+04 0.0000e+00 3.9381e-01 -2.1883e-01 3.1928e-01 -1.7070e-01
       991 8.9561e+04 0.0000e+00 3.9419e-01 -2.1785e-01 3.1965e-01 -1.7040e-01
       992 9.5522e+04 0.0000e+00 3.9502e-01 -2.1849e-01 3.2052e-01 -1.7069e-01
       993 9.2070e+04 0.0000e+00 3.9517e-01 -2.1837e-01 3.2049e-01 -1.7023e-01
       994 9.7211e+04 0.0000e+00 3.9386e-01 -2.1939e-01 3.1948e-01 -1.7092e-01
       995 9.3853e+04 0.0000e+00 3.9459e-01 -2.1907e-01 3.1985e-01 -1.7103e-01
       996 9.9930e+04 0.0000e+00 3.9781e-01 -2.1849e-01 3.2287e-01 -1.7052e-01
       997 9.0395e+04 0.0000e+00 3.9364e-01 -2.1805e-01 3.1921e-01 -1.7063e-01
       998 9.4265e+04 0.0000e+00 3.9651e-01 -2.1775e-01 3.2165e-01 -1.7032e-01
       999 9.0670e+04 0.0000e+00 3.9370e-01 -2.1890e-01 3.1915e-01 -1.7074e-01
      1000 9.4685e+04 0.0000e+00 3.9467e-01 -2.1865e-01 3.2026e-01 -1.7067e-01
      1001 8.8471e+04 0.0000e+00 3.9613e-01 -2.1720e-01 3.2127e-01 -1.6966e-01
      1002 9.0267e+04 0.0000e+00 3.9532e-01 -2.1797e-01 3.2057e-01 -1.7021e-01
      1003 9.5582e+04 0.0000e+00 3.9511e-01 -2.1896e-01 3.2054e-01 -1.7079e-01
      1004 9.6980e+04 0.0000e+00 3.9670e-01 -2.1843e-01 3.2184e-01 -1.7038e-01
      1005 9.6094e+04 0.0000e+00 3.9489e-01 -2.1898e-01 3.2032e-01 -1.7077e-01
      1006 9.4564e+04 0.0000e+00 3.9649e-01 -2.1734e-01 3.2176e-01 -1.7023e-01
      1007 9.4686e+04 0.0000e+00 3.9696e-01 -2.1789e-01 3.2208e-01 -1.7031e-01
      1008 8.8437e+04 0.0000e+00 3.9403e-01 -2.1729e-01 3.1947e-01 -1.7013e-01
      1009 9.3330e+04 0.0000e+00 3.9582e-01 -2.1819e-01 3.2097e-01 -1.7054e-01
      1010 9.3915e+04 0.0000e+00 3.9529e-01 -2.1806e-01 3.2070e-01 -1.7028e-01
      1011 8.9718e+04 0.0000e+00 3.9519e-01 -2.1714e-01 3.2063e-01 -1.6994e-01
      1012 9.1435e+04 0.0000e+00 3.9620e-01 -2.1766e-01 3.2138e-01 -1.6976e-01
      1013 8.9156e+04 0.0000e+00 3.9389e-01 -2.1795e-01 3.1932e-01 -1.7003e-01
      1014 9.0542e+04 0.0000e+00 3.9451e-01 -2.1820e-01 3.1981e-01 -1.7065e-01
      1015 9.2720e+04 0.0000e+00 3.9591e-01 -2.1839e-01 3.2115e-01 -1.7031e-01
      1016 9.2806e+04 0.0000e+00 3.9363e-01 -2.1893e-01 3.1929e-01 -1.7079e-01
      1017 9.3828e+04 0.0000e+00 3.9439e-01 -2.1913e-01 3.1987e-01 -1.7087e-01
      1018 8.5506e+04 0.0000e+00 3.9253e-01 -2.1774e-01 3.1818e-01 -1.6989e-01
      1019 9.1405e+04 0.0000e+00 3.9673e-01 -2.1680e-01 3.2199e-01 -1.6933e-01
      1020 9.0873e+04 0.0000e+00 3.9395e-01 -2.1871e-01 3.1934e-01 -1.7078e-01
      1021 8.9191e+04 0.0000e+00 3.9590e-01 -2.1688e-01 3.2108e-01 -1.6989e-01
      1022 8.0176e+04 0.0000e+00 3.9381e-01 -2.1581e-01 3.1925e-01 -1.6883e-01
      1023 9.3348e+04 0.0000e+00 3.9487e-01 -2.1879e-01 3.2024e-01 -1.7053e-01
      1024 1.0058e+05 0.0000e+00 3.9723e-01 -2.1822e-01 3.2250e-01 -1.7075e-01
      1025 9.1799e+04 0.0000e+00 3.9483e-01 -2.1785e-01 3.2022e-01 -1.7045e-01
      1026 8.6644e+04 0.0000e+00 3.9313e-01 -2.1817e-01 3.1871e-01 -1.7011e-01
      1027 8.8484e+04 0.0000e+00 3.9221e-01 -2.1881e-01 3.1799e-01 -1.7046e-01
      1028 9.0080e+04 0.0000e+00 3.9371e-01 -2.1817e-01 3.1922e-01 -1.7046e-01
      1029 9.1846e+04 0.0000e+00 3.9347e-01 -2.1939e-01 3.1889e-01 -1.7113e-01
      1030 9.7380e+04 0.0000e+00 3.9599e-01 -2.1895e-01 3.2136e-01 -1.7090e-01
      1031 9.1169e+04 0.0000e+00 3.9428e-01 -2.1810e-01 3.1982e-01 -1.7053e-01
      1032 8.9351e+04 0.0000e+00 3.9483e-01 -2.1760e-01 3.2010e-01 -1.7027e-01
      1033 9.9887e+04 0.0000e+00 3.9674e-01 -2.1899e-01 3.2191e-01 -1.7096e-01
      1034 9.2987e+04 0.0000e+00 3.9666e-01 -2.1707e-01 3.2189e-01 -1.6958e-01
      1035 8.6133e+04 0.0000e+00 3.9361e-01 -2.1715e-01 3.1906e-01 -1.7008e-01
      1036 9.3752e+04 0.0000e+00 3.9439e-01 -2.1888e-01 3.1989e-01 -1.7082e-01
      1037 8.0316e+04 0.0000e+00 3.9294e-01 -2.1650e-01 3.1848e-01 -1.6916e-01
      1038 9.4486e+04 0.0000e+00 3.9505e-01 -2.1855e-01 3.2039e-01 -1.7047e-01
      1039 9.4440e+04 0.0000e+00 3.9479e-01 -2.1925e-01 3.2016e-01 -1.7092e-01
      1040 8.3417e+04 0.0000e+00 3.9184e-01 -2.1796e-01 3.1750e-01 -1.7013e-01
      1041 9.7443e+04 0.0000e+00 3.9608e-01 -2.1856e-01 3.2141e-01 -1.7088e-01
      1042 8.9908e+04 0.0000e+00 3.9410e-01 -2.1813e-01 3.1955e-01 -1.7031e-01
      1043 9.3906e+04 0.0000e+00 3.9522e-01 -2.1796e-01 3.2070e-01 -1.7037e-01
      1044 9.5957e+04 0.0000e+00 3.9537e-01 -2.1944e-01 3.2065e-01 -1.7092e-01
      1045 9.5976e+04 0.0000e+00 3.9511e-01 -2.1887e-01 3.2044e-01 -1.7096e-01
      1046 9.7858e+04 0.0000e+00 3.9635e-01 -2.1845e-01 3.2170e-01 -1.7083e-01
      1047 9.2541e+04 0.0000e+00 3.9524e-01 -2.1724e-01 3.2062e-01 -1.7024e-01
      1048 9.6067e+04 0.0000e+00 3.9265e-01 -2.2100e-01 3.1840e-01 -1.7169e-01
      1049 9.8014e+04 0.0000e+00 3.9502e-01 -2.1887e-01 3.2056e-01 -1.7096e-01
      1050 9.6342e+04 0.0000e+00 3.9567e-01 -2.1850e-01 3.2110e-01 -1.7057e-01
      1051 9.8293e+04 0.0000e+00 3.9799e-01 -2.1795e-01 3.2306e-01 -1.7036e-01
      1052 9.1847e+04 0.0000e+00 3.9237e-01 -2.1892e-01 3.1814e-01 -1.7091e-01
      1053 9.4183e+04 0.0000e+00 3.9540e-01 -2.1846e-01 3.2074e-01 -1.7042e-01
      1054 8.8785e+04 0.0000e+00 3.9256e-01 -2.1803e-01 3.1828e-01 -1.7058e-01
      1055 9.8352e+04 0.0000e+00 3.9661e-01 -2.1894e-01 3.2175e-01 -1.7082e-01
      1056 8.7143e+04 0.0000e+00 3.9160e-01 -2.1895e-01 3.1734e-01 -1.7071e-01
      1057 9.7059e+04 0.0000e+00 3.9562e-01 -2.1888e-01 3.2091e-01 -1.7071e-01
      1058 9.4708e+04 0.0000e+00 3.9561e-01 -2.1858e-01 3.2090e-01 -1.7073e-01
      1059 1.0519e+05 0.0000e+00 3.9921e-01 -2.1905e-01 3.2411e-01 -1.7108e-01
      1060 9.3457e+04 0.0000e+00 3.9669e-01 -2.1738e-01 3.2182e-01 -1.7001e-01
      1061 9.8059e+04 0.0000e+00 3.9664e-01 -2.1850e-01 3.2189e-01 -1.7057e-01
      1062 8.3001e+04 0.0000e+00 3.9378e-01 -2.1667e-01 3.1927e-01 -1.6931e-01
      1063 9.2777e+04 0.0000e+00 3.9473e-01 -2.1843e-01 3.2010e-01 -1.7061e-01
      1064 9.5771e+04 0.0000e+00 3.9414e-01 -2.1898e-01 3.1970e-01 -1.7092e-01
      1065 9.2834e+04 0.0000e+00 3.9409e-01 -2.1839e-01 3.1966e-01 -1.7054e-01
      1066 9.3365e+04 0.0000e+00 3.9645e-01 -2.1757e-01 3.2165e-01 -1.7001e-01
      1067 1.0024e+05 0.0000e+00 3.9765e-01 -2.1837e-01 3.2272e-01 -1.7076e-01
      1068 8.8961e+04 0.0000e+00 3.9609e-01 -2.1666e-01 3.2130e-01 -1.6935e-01
      1069 9.3853e+04 0.0000e+00 3.9438e-01 -2.1922e-01 3.1976e-01 -1.7100e-01
      1070 9.0081e+04 0.0000e+00 3.9193e-01 -2.1967e-01 3.1770e-01 -1.7125e-01
      1071 8.5816e+04 0.0000e+00 3.9259e-01 -2.1778e-01 3.1828e-01 -1.7016e-01
      1072 8.8239e+04 0.0000e+00 3.9375e-01 -2.1762e-01 3.1917e-01 -1.7033e-01
      1073 8.7722e+04 0.0000e+00 3.9248e-01 -2.1810e-01 3.1818e-01 -1.7038e-01
      1074 1.0042e+05 0.0000e+00 3.9709e-01 -2.1965e-01 3.2222e-01 -1.7114e-01
      1075 9.4391e+04 0.0000e+00 3.9478e-01 -2.1864e-01 3.2025e-01 -1.7061e-01
      1076 9.6827e+04 0.0000e+00 3.9541e-01 -2.1845e-01 3.2085e-01 -1.7057e-01
      1077 8.9898e+04 0.0000e+00 3.9445e-01 -2.1782e-01 3.1990e-01 -1.7017e-01
      1078 9.2844e+04 0.0000e+00 3.9417e-01 -2.1856e-01 3.1960e-01 -1.7085e-01
      1079 9.3376e+04 0.0000e+00 3.9509e-01 -2.1774e-01 3.2052e-01 -1.7053e-01
      1080 8.9076e+04 0.0000e+00 3.9197e-01 -2.1873e-01 3.1775e-01 -1.7090e-01
      1081 9.5954e+04 0.0000e+00 3.9593e-01 -2.1808e-01 3.2129e-01 -1.7041e-01
      1082 9.1717e+04 0.0000e+00 3.9574e-01 -2.1726e-01 3.2112e-01 -1.6994e-01
      1083 9.7373e+04 0.0000e+00 3.9719e-01 -2.1804e-01 3.2242e-01 -1.7031e-01
      1084 9.4443e+04 0.0000e+00 3.9505e-01 -2.1841e-01 3.2046e-01 -1.7075e-01
      1085 9.5078e+04 0.0000e+00 3.9763e-01 -2.1754e-01 3.2269e-01 -1.6988e-01
      1086 9.3876e+04 0.0000e+00 3.9367e-01 -2.1903e-01 3.1929e-01 -1.7095e-01
      1087 9.1334e+04 0.0000e+00 3.9506e-01 -2.1822e-01 3.2035e-01 -1.7041e-01
      1088 9.1473e+04 0.0000e+00 3.9636e-01 -2.1738e-01 3.2156e-01 -1.7000e-01
      1089 9.5936e+04 0.0000e+00 3.9646e-01 -2.1796e-01 3.2161e-01 -1.7036e-01
      1090 8.8232e+04 0.0000e+00 3.9474e-01 -2.1690e-01 3.2018e-01 -1.6968e-01
      1091 9.4671e+04 0.0000e+00 3.9518e-01 -2.1822e-01 3.2058e-01 -1.7062e-01
      1092 9.7256e+04 0.0000e+00 3.9455e-01 -2.1953e-01 3.2002e-01 -1.7122e-01
      1093 9.1517e+04 0.0000e+00 3.9444e-01 -2.1849e-01 3.1983e-01 -1.7053e-01
      1094 9.3842e+04 0.0000e+00 3.9407e-01 -2.1880e-01 3.1952e-01 -1.7093e-01
      1095 9.7020e+04 0.0000e+00 3.9541e-01 -2.1887e-01 3.2082e-01 -1.7085e-01
      1096 9.5636e+04 0.0000e+00 3.9540e-01 -2.1853e-01 3.2078e-01 -1.7072e-01
      1097 9.5958e+04 0.0000e+00 3.9559e-01 -2.1860e-01 3.2104e-01 -1.7040e-01
      1098 9.9496e+04 0.0000e+00 3.9657e-01 -2.1895e-01 3.2184e-01 -1.7084e-01
      1099 9.5858e+04 0.0000e+00 3.9513e-01 -2.1851e-01 3.2062e-01 -1.7079e-01
      1100 9.4326e+04 0.0000e+00 3.9486e-01 -2.1836e-01 3.2029e-01 -1.7076e-01
      1101 9.1978e+04 0.0000e+00 3.9501e-01 -2.1779e-01 3.2041e-01 -1.7025e-01
      1102 1.0094e+05 0.0000e+00 3.9659e-01 -2.1990e-01 3.2175e-01 -1.7132e-01
      1103 9.6079e+04 0.0000e+00 3.9554e-01 -2.1919e-01 3.2085e-01 -1.7099e-01
      1104 1.0114e+05 0.0000e+00 3.9789e-01 -2.1851e-01 3.2288e-01 -1.7080e-01
      1105 9.3426e+04 0.0000e+00 3.9399e-01 -2.1841e-01 3.1962e-01 -1.7067e-01
      1106 9.9053e+04 0.0000e+00 3.9598e-01 -2.1887e-01 3.2142e-01 -1.7088e-01
      1107 9.0490e+04 0.0000e+00 3.9379e-01 -2.1807e-01 3.1937e-01 -1.7051e-01
      1108 9.3913e+04 0.0000e+00 3.9638e-01 -2.1791e-01 3.2157e-01 -1.7031e-01
      1109 8.7664e+04 0.0000e+00 3.9595e-01 -2.1685e-01 3.2114e-01 -1.6939e-01
      1110 9.1374e+04 0.0000e+00 3.9502e-01 -2.1781e-01 3.2039e-01 -1.7026e-01
      1111 9.9733e+04 0.0000e+00 3.9601e-01 -2.1920e-01 3.2134e-01 -1.7111e-01
      1112 9.1688e+04 0.0000e+00 3.9427e-01 -2.1781e-01 3.1987e-01 -1.6987e-01
      1113 9.0687e+04 0.0000e+00 3.9658e-01 -2.1696e-01 3.2180e-01 -1.6964e-01
      1114 9.8577e+04 0.0000e+00 3.9560e-01 -2.1895e-01 3.2112e-01 -1.7095e-01
      1115 9.3748e+04 0.0000e+00 3.9429e-01 -2.1888e-01 3.1977e-01 -1.7096e-01
      1116 9.4837e+04 0.0000e+00 3.9622e-01 -2.1774e-01 3.2152e-01 -1.7003e-01
      1117 9.2885e+04 0.0000e+00 3.9385e-01 -2.1944e-01 3.1936e-01 -1.7082e-01
      1118 7.5656e+04 0.0000e+00 3.9109e-01 -2.1662e-01 3.1687e-01 -1.6898e-01
      1119 8.8796e+04 0.0000e+00 3.9238e-01 -2.1923e-01 3.1820e-01 -1.7087e-01
      1120 9.3746e+04 0.0000e+00 3.9343e-01 -2.1915e-01 3.1903e-01 -1.7101e-01
      1121 8.5561e+04 0.0000e+00 3.9133e-01 -2.1840e-01 3.1707e-01 -1.7056e-01
      1122 1.0099e+05 0.0000e+00 3.9757e-01 -2.1861e-01 3.2266e-01 -1.7082e-01
      1123 9.7025e+04 0.0000e+00 3.9514e-01 -2.1886e-01 3.2053e-01 -1.7095e-01
      1124 9.1937e+04 0.0000e+00 3.9432e-01 -2.1841e-01 3.1969e-01 -1.7079e-01
      1125 8.2665e+04 0.0000e+00 3.9406e-01 -2.1631e-01 3.1959e-01 -1.6894e-01
      1126 9.0930e+04 0.0000e+00 3.9373e-01 -2.1833e-01 3.1934e-01 -1.7050e-01
      1127 9.0684e+04 0.0000e+00 3.9416e-01 -2.1829e-01 3.1966e-01 -1.7054e-01
      1128 9.2826e+04 0.0000e+00 3.9418e-01 -2.1822e-01 3.1968e-01 -1.7070e-01
      1129 9.0306e+04 0.0000e+00 3.9417e-01 -2.1877e-01 3.1948e-01 -1.7054e-01
      1130 8.9368e+04 0.0000e+00 3.9395e-01 -2.1817e-01 3.1934e-01 -1.7060e-01
      1131 9.6640e+04 0.0000e+00 3.9653e-01 -2.1841e-01 3.2178e-01 -1.7054e-01
      1132 9.5586e+04 0.0000e+00 3.9459e-01 -2.1889e-01 3.2010e-01 -1.7090e-01
      1133 9.3681e+04 0.0000e+00 3.9423e-01 -2.1935e-01 3.1974e-01 -1.7072e-01
      1134 8.6780e+04 0.0000e+00 3.9330e-01 -2.1739e-01 3.1897e-01 -1.7004e-01
      1135 9.3355e+04 0.0000e+00 3.9584e-01 -2.1836e-01 3.2115e-01 -1.7042e-01
      1136 9.0274e+04 0.0000e+00 3.9457e-01 -2.1783e-01 3.2010e-01 -1.7019e-01
      1137 9.0744e+04 0.0000e+00 3.9460e-01 -2.1804e-01 3.2009e-01 -1.7040e-01
      1138 9.6168e+04 0.0000e+00 3.9600e-01 -2.1914e-01 3.2120e-01 -1.7106e-01
      1139 8.6565e+04 0.0000e+00 3.9458e-01 -2.1721e-01 3.1994e-01 -1.6967e-01
      1140 9.3821e+04 0.0000e+00 3.9709e-01 -2.1782e-01 3.2222e-01 -1.7010e-01
      1141 8.8040e+04 0.0000e+00 3.9263e-01 -2.1802e-01 3.1834e-01 -1.7027e-01
      1142 8.8142e+04 0.0000e+00 3.9304e-01 -2.1840e-01 3.1861e-01 -1.7060e-01
      1143 8.9509e+04 0.0000e+00 3.9311e-01 -2.1905e-01 3.1859e-01 -1.7080e-01
      1144 9.1329e+04 0.0000e+00 3.9556e-01 -2.1747e-01 3.2079e-01 -1.7029e-01
      1145 9.0167e+04 0.0000e+00 3.9342e-01 -2.1815e-01 3.1898e-01 -1.7052e-01
      1146 9.0312e+04 0.0000e+00 3.9475e-01 -2.1822e-01 3.2022e-01 -1.7016e-01
      1147 8.9479e+04 0.0000e+00 3.9361e-01 -2.1828e-01 3.1917e-01 -1.7064e-01
      1148 8.6273e+04 0.0000e+00 3.9531e-01 -2.1667e-01 3.2054e-01 -1.6929e-01
      1149 8.8496e+04 0.0000e+00 3.9365e-01 -2.1774e-01 3.1908e-01 -1.7029e-01
      1150 9.6265e+04 0.0000e+00 3.9647e-01 -2.1796e-01 3.2168e-01 -1.7059e-01
      1151 8.9221e+04 0.0000e+00 3.9204e-01 -2.1880e-01 3.1785e-01 -1.7075e-01
      1152 9.0340e+04 0.0000e+00 3.9399e-01 -2.1824e-01 3.1942e-01 -1.7039e-01
      1153 9.4000e+04 0.0000e+00 3.9625e-01 -2.1712e-01 3.2153e-01 -1.7000e-01
      1154 9.4731e+04 0.0000e+00 3.9500e-01 -2.1870e-01 3.2041e-01 -1.7077e-01
      1155 8.4277e+04 0.0000e+00 3.9371e-01 -2.1652e-01 3.1923e-01 -1.6922e-01
      1156 9.1599e+04 0.0000e+00 3.9526e-01 -2.1768e-01 3.2064e-01 -1.7027e-01
      1157 9.5415e+04 0.0000e+00 3.9456e-01 -2.1931e-01 3.2007e-01 -1.7093e-01
      1158 9.3566e+04 0.0000e+00 3.9566e-01 -2.1799e-01 3.2099e-01 -1.7030e-01
      1159 1.0023e+05 0.0000e+00 3.9820e-01 -2.1841e-01 3.2328e-01 -1.7015e-01
      1160 8.7444e+04 0.0000e+00 3.9257e-01 -2.1835e-01 3.1832e-01 -1.7004e-01
      1161 9.6823e+04 0.0000e+00 3.9580e-01 -2.1879e-01 3.2110e-01 -1.7086e-01
      1162 9.1302e+04 0.0000e+00 3.9604e-01 -2.1739e-01 3.2120e-01 -1.6998e-01
      1163 9.5706e+04 0.0000e+00 3.9534e-01 -2.1893e-01 3.2065e-01 -1.7081e-01
      1164 8.8104e+04 0.0000e+00 3.9151e-01 -2.1921e-01 3.1734e-01 -1.7106e-01
      1165 9.6592e+04 0.0000e+00 3.9575e-01 -2.1879e-01 3.2102e-01 -1.7092e-01
      1166 9.7501e+04 0.0000e+00 3.9793e-01 -2.1760e-01 3.2288e-01 -1.7021e-01
      1167 9.1342e+04 0.0000e+00 3.9412e-01 -2.1855e-01 3.1956e-01 -1.7056e-01
      1168 9.9242e+04 0.0000e+00 3.9700e-01 -2.1893e-01 3.2212e-01 -1.7087e-01
      1169 1.0115e+05 0.0000e+00 3.9803e-01 -2.1832e-01 3.2311e-01 -1.7070e-01
      1170 9.2811e+04 0.0000e+00 3.9507e-01 -2.1837e-01 3.2048e-01 -1.7050e-01
      1171 8.8986e+04 0.0000e+00 3.9145e-01 -2.1980e-01 3.1712e-01 -1.7128e-01
      1172 8.6031e+04 0.0000e+00 3.9233e-01 -2.1775e-01 3.1808e-01 -1.6993e-01
      1173 9.2012e+04 0.0000e+00 3.9546e-01 -2.1820e-01 3.2078e-01 -1.7041e-01
      1174 8.1279e+04 0.0000e+00 3.9264e-01 -2.1735e-01 3.1828e-01 -1.6940e-01
      1175 1.0463e+05 0.0000e+00 3.9770e-01 -2.1885e-01 3.2304e-01 -1.7087e-01
      1176 9.1228e+04 0.0000e+00 3.9460e-01 -2.1834e-01 3.2003e-01 -1.7062e-01
      1177 9.3960e+04 0.0000e+00 3.9477e-01 -2.1843e-01 3.2020e-01 -1.7065e-01
      1178 8.7629e+04 0.0000e+00 3.9515e-01 -2.1656e-01 3.2050e-01 -1.6941e-01
      1179 9.5660e+04 0.0000e+00 3.9358e-01 -2.1972e-01 3.1902e-01 -1.7127e-01
      1180 8.9464e+04 0.0000e+00 3.9562e-01 -2.1709e-01 3.2095e-01 -1.6968e-01
      1181 9.0078e+04 0.0000e+00 3.9407e-01 -2.1810e-01 3.1953e-01 -1.7025e-01
      1182 9.1572e+04 0.0000e+00 3.9558e-01 -2.1775e-01 3.2091e-01 -1.7010e-01
      1183 8.9092e+04 0.0000e+00 3.9375e-01 -2.1796e-01 3.1925e-01 -1.7045e-01
      1184 9.5103e+04 0.0000e+00 3.9570e-01 -2.1852e-01 3.2105e-01 -1.7039e-01
      1185 9.9829e+04 0.0000e+00 3.9709e-01 -2.1865e-01 3.2225e-01 -1.7083e-01
      1186 9.7542e+04 0.0000e+00 3.9590e-01 -2.1856e-01 3.2129e-01 -1.7067e-01
      1187 8.3875e+04 0.0000e+00 3.9409e-01 -2.1593e-01 3.1970e-01 -1.6872e-01
      1188 9.5686e+04 0.0000e+00 3.9543e-01 -2.1899e-01 3.2075e-01 -1.7073e-01
      1189 8.5558e+04 0.0000e+00 3.9324e-01 -2.1719e-01 3.1879e-01 -1.6969e-01
      1190 8.4565e+04 0.0000e+00 3.9359e-01 -2.1665e-01 3.1904e-01 -1.6978e-01
      1191 9.3766e+04 0.0000e+00 3.9430e-01 -2.1879e-01 3.1977e-01 -1.7084e-01
      1192 9.4431e+04 0.0000e+00 3.9455e-01 -2.1939e-01 3.1999e-01 -1.7114e-01
      1193 9.4039e+04 0.0000e+00 3.9629e-01 -2.1790e-01 3.2146e-01 -1.7034e-01
      1194 9.4127e+04 0.0000e+00 3.9441e-01 -2.1920e-01 3.1995e-01 -1.7109e-01
      1195 9.3092e+04 0.0000e+00 3.9541e-01 -2.1810e-01 3.2074e-01 -1.7031e-01
      1196 8.7110e+04 0.0000e+00 3.9494e-01 -2.1684e-01 3.2032e-01 -1.6957e-01
      1197 9.4845e+04 0.0000e+00 3.9658e-01 -2.1754e-01 3.2171e-01 -1.7012e-01
      1198 9.8037e+04 0.0000e+00 3.9765e-01 -2.1718e-01 3.2282e-01 -1.7011e-01
      1199 8.8747e+04 0.0000e+00 3.9207e-01 -2.1895e-01 3.1783e-01 -1.7084e-01
      1200 8.9963e+04 0.0000e+00 3.9432e-01 -2.1823e-01 3.1968e-01 -1.7053e-01
      1201 8.8777e+04 0.0000e+00 3.9421e-01 -2.1823e-01 3.1965e-01 -1.7006e-01
      1202 9.0009e+04 0.0000e+00 3.9448e-01 -2.1765e-01 3.1990e-01 -1.7019e-01
      1203 9.6236e+04 0.0000e+00 3.9517e-01 -2.1890e-01 3.2050e-01 -1.7097e-01
      1204 9.8628e+04 0.0000e+00 3.9536e-01 -2.1958e-01 3.2072e-01 -1.7102e-01
      1205 9.4169e+04 0.0000e+00 3.9669e-01 -2.1753e-01 3.2195e-01 -1.7011e-01
      1206 9.8734e+04 0.0000e+00 3.9607e-01 -2.1912e-01 3.2139e-01 -1.7106e-01
      1207 9.5134e+04 0.0000e+00 3.9578e-01 -2.1854e-01 3.2114e-01 -1.7070e-01
      1208 8.9299e+04 0.0000e+00 3.9498e-01 -2.1723e-01 3.2037e-01 -1.6988e-01
      1209 9.1646e+04 0.0000e+00 3.9401e-01 -2.1877e-01 3.1956e-01 -1.7043e-01
      1210 9.3505e+04 0.0000e+00 3.9552e-01 -2.1772e-01 3.2088e-01 -1.7024e-01
      1211 9.2918e+04 0.0000e+00 3.9497e-01 -2.1801e-01 3.2042e-01 -1.7039e-01
      1212 9.4383e+04 0.0000e+00 3.9592e-01 -2.1772e-01 3.2132e-01 -1.7017e-01
      1213 1.0146e+05 0.0000e+00 3.9696e-01 -2.1893e-01 3.2229e-01 -1.7069e-01
      1214 9.8156e+04 0.0000e+00 3.9741e-01 -2.1861e-01 3.2247e-01 -1.7064e-01
      1215 8.4809e+04 0.0000e+00 3.9294e-01 -2.1743e-01 3.1860e-01 -1.6991e-01
      1216 9.8509e+04 0.0000e+00 3.9810e-01 -2.1810e-01 3.2304e-01 -1.7033e-01
      1217 9.4064e+04 0.0000e+00 3.9627e-01 -2.1834e-01 3.2149e-01 -1.7036e-01
      1218 8.5489e+04 0.0000e+00 3.9330e-01 -2.1772e-01 3.1882e-01 -1.7001e-01
      1219 1.0118e+05 0.0000e+00 3.9829e-01 -2.1850e-01 3.2322e-01 -1.7066e-01
      1220 9.4234e+04 0.0000e+00 3.9671e-01 -2.1733e-01 3.2187e-01 -1.7016e-01
      1221 1.0011e+05 0.0000e+00 3.9547e-01 -2.1995e-01 3.2095e-01 -1.7114e-01
      1222 9.3271e+04 0.0000e+00 3.9605e-01 -2.1765e-01 3.2132e-01 -1.7037e-01
      1223 9.5830e+04 0.0000e+00 3.9531e-01 -2.1879e-01 3.2060e-01 -1.7079e-01
      1224 9.2375e+04 0.0000e+00 3.9475e-01 -2.1839e-01 3.2019e-01 -1.7058e-01
      1225 9.7826e+04 0.0000e+00 3.9598e-01 -2.1877e-01 3.2125e-01 -1.7093e-01
      1226 9.8473e+04 0.0000e+00 3.9755e-01 -2.1815e-01 3.2260e-01 -1.7051e-01
      1227 9.3013e+04 0.0000e+00 3.9490e-01 -2.1890e-01 3.2020e-01 -1.7082e-01
      1228 9.0890e+04 0.0000e+00 3.9321e-01 -2.1827e-01 3.1889e-01 -1.7062e-01
      1229 9.3822e+04 0.0000e+00 3.9562e-01 -2.1791e-01 3.2099e-01 -1.7047e-01
      1230 9.8364e+04 0.0000e+00 3.9569e-01 -2.1898e-01 3.2100e-01 -1.7100e-01
      1231 9.5865e+04 0.0000e+00 3.9617e-01 -2.1864e-01 3.2139e-01 -1.7078e-01
      1232 8.7005e+04 0.0000e+00 3.9269e-01 -2.1837e-01 3.1845e-01 -1.7014e-01
      1233 9.6324e+04 0.0000e+00 3.9608e-01 -2.1844e-01 3.2124e-01 -1.7047e-01
      1234 9.3107e+04 0.0000e+00 3.9365e-01 -2.1874e-01 3.1929e-01 -1.7068e-01
      1235 9.3692e+04 0.0000e+00 3.9357e-01 -2.1934e-01 3.1913e-01 -1.7091e-01
      1236 9.3186e+04 0.0000e+00 3.9377e-01 -2.1877e-01 3.1941e-01 -1.7093e-01
      1237 9.5769e+04 0.0000e+00 3.9570e-01 -2.1856e-01 3.2107e-01 -1.7059e-01
      1238 9.4598e+04 0.0000e+00 3.9524e-01 -2.1772e-01 3.2079e-01 -1.7006e-01
      1239 8.3735e+04 0.0000e+00 3.9209e-01 -2.1813e-01 3.1773e-01 -1.7029e-01
      1240 9.3271e+04 0.0000e+00 3.9548e-01 -2.1838e-01 3.2097e-01 -1.7021e-01
      1241 9.0293e+04 0.0000e+00 3.9439e-01 -2.1783e-01 3.1985e-01 -1.7021e-01
      1242 9.3602e+04 0.0000e+00 3.9575e-01 -2.1806e-01 3.2111e-01 -1.7046e-01
      1243 9.0817e+04 0.0000e+00 3.9488e-01 -2.1799e-01 3.2025e-01 -1.7035e-01
      1244 8.9277e+04 0.0000e+00 3.9193e-01 -2.1871e-01 3.1781e-01 -1.7089e-01
      1245 9.9359e+04 0.0000e+00 3.9587e-01 -2.1907e-01 3.2117e-01 -1.7104e-01
      1246 8.5426e+04 0.0000e+00 3.9413e-01 -2.1755e-01 3.1958e-01 -1.6974e-01
      1247 8.5608e+04 0.0000e+00 3.9511e-01 -2.1656e-01 3.2034e-01 -1.6946e-01
      1248 8.4865e+04 0.0000e+00 3.9110e-01 -2.1853e-01 3.1678e-01 -1.7068e-01
      1249 9.3608e+04 0.0000e+00 3.9518e-01 -2.1833e-01 3.2057e-01 -1.7049e-01
      1250 9.4051e+04 0.0000e+00 3.9585e-01 -2.1855e-01 3.2092e-01 -1.7066e-01
      1251 9.5476e+04 0.0000e+00 3.9565e-01 -2.1848e-01 3.2107e-01 -1.7065e-01
      1252 1.0046e+05 0.0000e+00 3.9561e-01 -2.1975e-01 3.2098e-01 -1.7129e-01
      1253 8.6364e+04 0.0000e+00 3.9383e-01 -2.1677e-01 3.1953e-01 -1.6944e-01
      1254 9.4275e+04 0.0000e+00 3.9598e-01 -2.1817e-01 3.2117e-01 -1.7044e-01
      1255 9.0965e+04 0.0000e+00 3.9444e-01 -2.1776e-01 3.1985e-01 -1.7034e-01
      1256 9.7624e+04 0.0000e+00 3.9739e-01 -2.1814e-01 3.2243e-01 -1.7068e-01
      1257 9.3414e+04 0.0000e+00 3.9545e-01 -2.1827e-01 3.2073e-01 -1.7063e-01
      1258 8.5009e+04 0.0000e+00 3.9289e-01 -2.1763e-01 3.1856e-01 -1.6992e-01
      1259 9.1414e+04 0.0000e+00 3.9586e-01 -2.1724e-01 3.2106e-01 -1.6963e-01
      1260 9.2568e+04 0.0000e+00 3.9515e-01 -2.1839e-01 3.2041e-01 -1.7075e-01
      1261 8.7014e+04 0.0000e+00 3.9397e-01 -2.1757e-01 3.1945e-01 -1.7003e-01
      1262 8.7402e+04 0.0000e+00 3.9482e-01 -2.1721e-01 3.2015e-01 -1.6980e-01
      1263 9.6171e+04 0.0000e+00 3.9600e-01 -2.1873e-01 3.2116e-01 -1.7073e-01
      1264 9.4569e+04 0.0000e+00 3.9544e-01 -2.1848e-01 3.2074e-01 -1.7061e-01
      1265 9.7683e+04 0.0000e+00 3.9732e-01 -2.1821e-01 3.2238e-01 -1.7062e-01
      1266 9.3224e+04 0.0000e+00 3.9530e-01 -2.1818e-01 3.2067e-01 -1.7044e-01
      1267 9.4765e+04 0.0000e+00 3.9760e-01 -2.1772e-01 3.2272e-01 -1.7005e-01
      1268 9.6845e+04 0.0000e+00 3.9785e-01 -2.1692e-01 3.2304e-01 -1.6969e-01
      1269 9.8163e+04 0.0000e+00 3.9591e-01 -2.1932e-01 3.2114e-01 -1.7078e-01
      1270 9.3242e+04 0.0000e+00 3.9583e-01 -2.1790e-01 3.2096e-01 -1.7054e-01
      1271 9.3379e+04 0.0000e+00 3.9754e-01 -2.1705e-01 3.2254e-01 -1.6962e-01
      1272 9.0672e+04 0.0000e+00 3.9640e-01 -2.1689e-01 3.2166e-01 -1.6946e-01
      1273 8.9223e+04 0.0000e+00 3.9523e-01 -2.1702e-01 3.2053e-01 -1.6973e-01
