        10 1.8656e+01 5.2696e-07 3.9515e-01 -2.1756e-01 3.0622e-01 -1.6175e-01
        11 3.8562e+03 0.0000e+00 3.9187e-01 -2.1779e-01 3.0356e-01 -1.6191e-01
        12 3.0955e+02 3.5865e-70 3.9393e-01 -2.1794e-01 3.0520e-01 -1.6211e-01
        13 2.9958e+02 5.2399e-68 3.9389e-01 -2.1903e-01 3.0534e-01 -1.6257e-01
        14 1.5008e+03 0.0000e+00 3.9298e-01 -2.1799e-01 3.0454e-01 -1.6223e-01
        15 4.7667e+02 1.8404e-106 3.9664e-01 -2.1737e-01 3.0751e-01 -1.6175e-01
        16 1.9018e+03 0.0000e+00 3.9725e-01 -2.1883e-01 3.0829e-01 -1.6255e-01
        17 8.0137e+02 5.7106e-177 3.9621e-01 -2.1885e-01 3.0721e-01 -1.6246e-01
        18 5.8696e+01 1.0642e-15 3.9568e-01 -2.1835e-01 3.0686e-01 -1.6221e-01
        19 1.0606e+01 2.9493e-05 3.9532e-01 -2.1827e-01 3.0651e-01 -1.6208e-01
        20 1.3994e+03 7.9918e-307 3.9749e-01 -2.1809e-01 3.0827e-01 -1.6224e-01
        21 1.1003e+03 6.9900e-242 3.9702e-01 -2.1767e-01 3.0787e-01 -1.6189e-01
        22 2.5139e+02 1.5256e-57 3.9416e-01 -2.1784e-01 3.0569e-01 -1.6168e-01
        23 2.2420e+02 1.2285e-51 3.9593e-01 -2.1925e-01 3.0700e-01 -1.6277e-01
        24 3.2345e+01 5.6123e-10 3.9551e-01 -2.1789e-01 3.0666e-01 -1.6231e-01
        25 1.5460e-02 5.8807e-03 3.9518e-01 -2.1796e-01 3.0623e-01 -1.6220e-01
        26 2.3514e+01 4.6426e-08 3.9489e-01 -2.1904e-01 3.0606e-01 -1.6270e-01
        27 7.4770e+02 2.5798e-165 3.9355e-01 -2.1929e-01 3.0489e-01 -1.6269e-01
        28 2.0157e+03 0.0000e+00 3.9748e-01 -2.1852e-01 3.0829e-01 -1.6222e-01
        29 4.8484e+01 1.7560e-13 3.9508e-01 -2.1954e-01 3.0634e-01 -1.6271e-01
        30 2.2707e+02 2.9158e-52 3.9463e-01 -2.1663e-01 3.0593e-01 -1.6134e-01
        31 5.9379e+02 6.8117e-132 3.9619e-01 -2.1906e-01 3.0714e-01 -1.6224e-01
        32 6.6255e+02 7.9762e-147 3.9335e-01 -2.1771e-01 3.0471e-01 -1.6163e-01
        33 6.0950e+02 2.6330e-135 3.9376e-01 -2.1777e-01 3.0519e-01 -1.6216e-01
        34 4.2731e+02 9.6463e-96 3.9645e-01 -2.1713e-01 3.0734e-01 -1.6114e-01
        35 7.0378e+01 3.0937e-18 3.9619e-01 -2.1628e-01 3.0712e-01 -1.6132e-01
        36 5.2671e+02 2.5099e-117 3.9364e-01 -2.1943e-01 3.0499e-01 -1.6275e-01
        37 4.2169e-03 5.9138e-03 3.9505e-01 -2.1872e-01 3.0631e-01 -1.6220e-01
        38 1.7306e+03 0.0000e+00 3.9775e-01 -2.1743e-01 3.0854e-01 -1.6180e-01
        39 3.0556e+02 2.6387e-69 3.9431e-01 -2.1838e-01 3.0560e-01 -1.6250e-01
        40 1.6302e+03 0.0000e+00 3.9698e-01 -2.1791e-01 3.0789e-01 -1.6192e-01
        41 1.0505e+03 4.6522e-231 3.9656e-01 -2.1989e-01 3.0751e-01 -1.6294e-01
        42 2.5203e+01 1.9954e-08 3.9548e-01 -2.1706e-01 3.0660e-01 -1.6129e-01
        43 1.0141e+00 3.5692e-03 3.9543e-01 -2.1689e-01 3.0655e-01 -1.6156e-01
        44 5.7661e+02 3.6595e-128 3.9399e-01 -2.1874e-01 3.0527e-01 -1.6264e-01
        45 1.6535e+03 0.0000e+00 3.9264e-01 -2.1831e-01 3.0414e-01 -1.6219e-01
        46 4.2771e+03 0.0000e+00 3.9861e-01 -2.1909e-01 3.0919e-01 -1.6261e-01
        47 2.6809e+01 8.9381e-09 3.9497e-01 -2.1929e-01 3.0616e-01 -1.6264e-01
        48 9.9501e-02 5.6387e-03 3.9489e-01 -2.1684e-01 3.0617e-01 -1.6134e-01
        49 2.0748e+03 0.0000e+00 3.9249e-01 -2.1817e-01 3.0403e-01 -1.6212e-01
        50 5.0173e+02 6.6623e-112 3.9628e-01 -2.1892e-01 3.0748e-01 -1.6239e-01
        51 2.5504e+01 1.7168e-08 3.9475e-01 -2.1874e-01 3.0586e-01 -1.6237e-01
        52 4.5508e+03 0.0000e+00 3.9852e-01 -2.1892e-01 3.0944e-01 -1.6242e-01
        53 2.5942e+02 2.7537e-59 3.9421e-01 -2.1779e-01 3.0549e-01 -1.6225e-01
        54 1.1417e+00 3.3487e-03 3.9531e-01 -2.1768e-01 3.0655e-01 -1.6206e-01
        55 1.4289e+03 3.1223e-313 3.9286e-01 -2.1807e-01 3.0428e-01 -1.6174e-01
        56 6.2761e+03 0.0000e+00 3.9044e-01 -2.1877e-01 3.0227e-01 -1.6259e-01
        57 2.1084e+03 0.0000e+00 3.9274e-01 -2.1746e-01 3.0424e-01 -1.6172e-01
        58 2.9784e+02 1.2501e-67 3.9395e-01 -2.1896e-01 3.0526e-01 -1.6270e-01
        59 9.3566e+02 3.9495e-206 3.9325e-01 -2.1800e-01 3.0462e-01 -1.6226e-01
        60 6.0938e+02 2.8031e-135 3.9362e-01 -2.1786e-01 3.0515e-01 -1.6156e-01
        61 9.2492e+02 8.4905e-204 3.9354e-01 -2.1825e-01 3.0495e-01 -1.6210e-01
        62 1.9932e+00 2.1876e-03 3.9494e-01 -2.1949e-01 3.0613e-01 -1.6266e-01
        63 6.5775e+00 2.2106e-04 3.9497e-01 -2.1830e-01 3.0600e-01 -1.6228e-01
        64 4.0976e+01 7.4986e-12 3.9566e-01 -2.1838e-01 3.0671e-01 -1.6241e-01
        65 3.9909e-01 4.8543e-03 3.9493e-01 -2.1865e-01 3.0613e-01 -1.6236e-01
        66 1.6450e+03 0.0000e+00 3.9245e-01 -2.1838e-01 3.0401e-01 -1.6207e-01
        67 7.4893e+00 1.4012e-04 3.9482e-01 -2.1777e-01 3.0609e-01 -1.6181e-01
        68 4.0047e+03 0.0000e+00 3.9162e-01 -2.1780e-01 3.0331e-01 -1.6224e-01
        69 6.5858e-02 5.7343e-03 3.9496e-01 -2.1849e-01 3.0628e-01 -1.6200e-01
        70 2.3241e+02 2.0182e-53 3.9407e-01 -2.1850e-01 3.0530e-01 -1.6249e-01
        71 3.3443e+02 1.4228e-75 3.9609e-01 -2.1916e-01 3.0701e-01 -1.6260e-01
        72 6.0490e+02 2.6345e-134 3.9667e-01 -2.1836e-01 3.0751e-01 -1.6221e-01
        73 4.2407e+02 4.8726e-95 3.9414e-01 -2.1863e-01 3.0545e-01 -1.6222e-01
        74 2.1732e+02 3.8157e-50 3.9592e-01 -2.1850e-01 3.0687e-01 -1.6250e-01
        75 1.6706e+03 0.0000e+00 3.9260e-01 -2.1769e-01 3.0406e-01 -1.6195e-01
        76 4.9668e+02 8.3188e-111 3.9359e-01 -2.1874e-01 3.0503e-01 -1.6229e-01
        77 6.9315e+02 1.8087e-153 3.9683e-01 -2.1784e-01 3.0783e-01 -1.6188e-01
        78 7.7009e+01 1.1234e-19 3.9554e-01 -2.1807e-01 3.0666e-01 -1.6219e-01
        79 1.7966e+03 0.0000e+00 3.9787e-01 -2.1714e-01 3.0866e-01 -1.6158e-01
        80 3.5836e+02 9.0531e-81 3.9422e-01 -2.1814e-01 3.0550e-01 -1.6217e-01
        81 3.8692e+01 2.3497e-11 3.9522e-01 -2.1825e-01 3.0640e-01 -1.6230e-01
        82 8.6950e+02 9.1919e-192 3.9365e-01 -2.1648e-01 3.0515e-01 -1.6076e-01
        83 5.9636e+02 1.8831e-132 3.9647e-01 -2.1908e-01 3.0739e-01 -1.6259e-01
        84 1.7576e+02 4.0472e-41 3.9582e-01 -2.1854e-01 3.0689e-01 -1.6225e-01
        85 1.3910e+02 3.6944e-33 3.9548e-01 -2.1873e-01 3.0673e-01 -1.6211e-01
        86 9.6887e+02 2.4327e-213 3.9677e-01 -2.1818e-01 3.0763e-01 -1.6218e-01
        87 7.1004e+02 3.8923e-157 3.9361e-01 -2.1871e-01 3.0494e-01 -1.6254e-01
        88 6.8049e+00 1.9729e-04 3.9539e-01 -2.1650e-01 3.0655e-01 -1.6142e-01
        89 9.9059e+00 4.1855e-05 3.9520e-01 -2.1884e-01 3.0622e-01 -1.6247e-01
        90 2.0498e+02 1.8235e-47 3.9612e-01 -2.1819e-01 3.0703e-01 -1.6219e-01
        91 1.6394e+03 0.0000e+00 3.9326e-01 -2.1688e-01 3.0459e-01 -1.6160e-01
        92 9.0593e+01 1.2614e-22 3.9579e-01 -2.1915e-01 3.0673e-01 -1.6259e-01
        93 1.0334e+03 2.4025e-227 3.9332e-01 -2.1707e-01 3.0461e-01 -1.6156e-01
        94 1.1935e+03 4.0505e-262 3.9716e-01 -2.1829e-01 3.0798e-01 -1.6246e-01
        95 1.2941e+01 9.1749e-06 3.9503e-01 -2.1849e-01 3.0624e-01 -1.6226e-01
        96 3.0853e+00 1.2671e-03 3.9508e-01 -2.1759e-01 3.0626e-01 -1.6221e-01
        97 6.3634e+01 9.0125e-17 3.9435e-01 -2.1809e-01 3.0558e-01 -1.6219e-01
        98 6.8351e+01 8.5211e-18 3.9464e-01 -2.1859e-01 3.0594e-01 -1.6212e-01
        99 1.2091e+03 1.6534e-265 3.9254e-01 -2.1920e-01 3.0416e-01 -1.6265e-01
       100 3.1817e+02 4.8150e-72 3.9601e-01 -2.1822e-01 3.0698e-01 -1.6219e-01
       101 6.1720e+00 2.7074e-04 3.9521e-01 -2.1839e-01 3.0629e-01 -1.6241e-01
       102 5.0681e+03 0.0000e+00 3.9079e-01 -2.1879e-01 3.0264e-01 -1.6215e-01
       103 9.6144e+01 7.8608e-24 3.9551e-01 -2.1738e-01 3.0665e-01 -1.6168e-01
       104 6.5682e+02 1.3989e-145 3.9642e-01 -2.1731e-01 3.0747e-01 -1.6191e-01
       105 2.2611e+01 7.2931e-08 3.9532e-01 -2.1695e-01 3.0648e-01 -1.6102e-01
       106 5.8702e+02 2.0117e-130 3.9354e-01 -2.1888e-01 3.0495e-01 -1.6245e-01
       107 2.2282e+02 2.4467e-51 3.9609e-01 -2.1797e-01 3.0711e-01 -1.6208e-01
       108 5.3224e+02 1.5778e-118 3.9371e-01 -2.1862e-01 3.0513e-01 -1.6204e-01
       109 9.7774e+01 3.4786e-24 3.9552e-01 -2.1858e-01 3.0665e-01 -1.6225e-01
       110 2.5656e+02 1.1495e-58 3.9407e-01 -2.1844e-01 3.0535e-01 -1.6246e-01
       111 7.9493e+02 1.4337e-175 3.9419e-01 -2.1656e-01 3.0543e-01 -1.6126e-01
       112 1.5065e-01 5.4963e-03 3.9515e-01 -2.1797e-01 3.0628e-01 -1.6235e-01
       113 8.7159e+01 7.0209e-22 3.9454e-01 -2.1854e-01 3.0588e-01 -1.6248e-01
       114 5.5104e+00 3.7690e-04 3.9498e-01 -2.1883e-01 3.0621e-01 -1.6231e-01
       115 1.7769e+03 0.0000e+00 3.9264e-01 -2.1891e-01 3.0411e-01 -1.6234e-01
       116 1.9626e+03 0.0000e+00 3.9702e-01 -2.1872e-01 3.0810e-01 -1.6255e-01
       117 1.3907e+03 6.1308e-305 3.9687e-01 -2.1914e-01 3.0786e-01 -1.6250e-01
       118 3.7656e+03 0.0000e+00 3.9846e-01 -2.1809e-01 3.0913e-01 -1.6219e-01
       119 1.8627e+03 0.0000e+00 3.9246e-01 -2.1915e-01 3.0409e-01 -1.6271e-01
       120 8.2266e+02 1.3600e-181 3.9353e-01 -2.1726e-01 3.0509e-01 -1.6170e-01
       121 1.5729e+03 0.0000e+00 3.9267e-01 -2.1785e-01 3.0420e-01 -1.6180e-01
       122 9.4749e+02 1.0688e-208 3.9311e-01 -2.1822e-01 3.0458e-01 -1.6203e-01
       123 2.7282e+03 0.0000e+00 3.9253e-01 -2.1745e-01 3.0410e-01 -1.6161e-01
       124 1.2693e+03 1.4293e-278 3.9719e-01 -2.1766e-01 3.0816e-01 -1.6171e-01
       125 1.3938e+02 3.2055e-33 3.9445e-01 -2.1895e-01 3.0576e-01 -1.6243e-01
       126 9.3030e+02 5.7684e-205 3.9696e-01 -2.1916e-01 3.0777e-01 -1.6270e-01
       127 8.1281e+01 1.3272e-20 3.9574e-01 -2.1831e-01 3.0680e-01 -1.6219e-01
       128 3.3200e-01 5.0199e-03 3.9521e-01 -2.1866e-01 3.0637e-01 -1.6261e-01
       129 1.0786e+01 2.6958e-05 3.9491e-01 -2.1776e-01 3.0612e-01 -1.6221e-01
       130 1.0629e+00 3.4833e-03 3.9504e-01 -2.1808e-01 3.0636e-01 -1.6212e-01
       131 2.5037e+02 2.5401e-57 3.9442e-01 -2.1701e-01 3.0571e-01 -1.6135e-01
       132 1.3081e+03 5.4095e-287 3.9731e-01 -2.1792e-01 3.0811e-01 -1.6225e-01
       133 1.6849e+03 0.0000e+00 3.9731e-01 -2.1849e-01 3.0819e-01 -1.6190e-01
       134 1.4902e+02 2.5906e-35 3.9442e-01 -2.1870e-01 3.0558e-01 -1.6252e-01
       135 7.2487e+02 2.3381e-160 3.9351e-01 -2.1813e-01 3.0493e-01 -1.6224e-01
       136 1.4190e+03 4.3240e-311 3.9341e-01 -2.1681e-01 3.0480e-01 -1.6137e-01
       137 3.6547e+03 0.0000e+00 3.9164e-01 -2.1912e-01 3.0331e-01 -1.6270e-01
       138 1.9071e+02 2.2949e-44 3.9588e-01 -2.1786e-01 3.0688e-01 -1.6159e-01
       139 1.9568e+02 1.9070e-45 3.9628e-01 -2.1794e-01 3.0722e-01 -1.6229e-01
       140 4.6279e+03 0.0000e+00 3.9881e-01 -2.1863e-01 3.0934e-01 -1.6215e-01
       141 2.1534e+03 0.0000e+00 3.9799e-01 -2.1662e-01 3.0876e-01 -1.6132e-01
       142 2.6486e+02 1.8154e-60 3.9581e-01 -2.1920e-01 3.0680e-01 -1.6260e-01
       143 3.4005e+02 8.5379e-77 3.9622e-01 -2.1859e-01 3.0716e-01 -1.6229e-01
       144 5.4768e+01 7.5877e-15 3.9459e-01 -2.1861e-01 3.0589e-01 -1.6247e-01
       145 5.3808e+01 1.2260e-14 3.9471e-01 -2.1799e-01 3.0593e-01 -1.6185e-01
       146 4.2472e+01 3.5492e-12 3.9465e-01 -2.1901e-01 3.0582e-01 -1.6268e-01
       147 1.1969e+01 1.4923e-05 3.9497e-01 -2.1927e-01 3.0603e-01 -1.6266e-01
       148 9.6629e+02 8.8268e-213 3.9665e-01 -2.1882e-01 3.0750e-01 -1.6253e-01
       149 3.0129e-02 5.8377e-03 3.9489e-01 -2.1834e-01 3.0614e-01 -1.6228e-01
       150 6.7410e+02 2.4794e-149 3.9675e-01 -2.1910e-01 3.0766e-01 -1.6253e-01
       151 2.4873e+01 2.3531e-08 3.9464e-01 -2.1842e-01 3.0595e-01 -1.6224e-01
       152 1.2599e+02 2.5988e-30 3.9593e-01 -2.1763e-01 3.0699e-01 -1.6188e-01
       153 1.4533e+02 1.6361e-34 3.9573e-01 -2.1891e-01 3.0678e-01 -1.6254e-01
       154 4.3367e+02 4.0015e-97 3.9368e-01 -2.1834e-01 3.0503e-01 -1.6242e-01
       155 3.1424e+03 0.0000e+00 3.9817e-01 -2.1777e-01 3.0895e-01 -1.6190e-01
       156 2.6122e+02 1.1194e-59 3.9416e-01 -2.1872e-01 3.0542e-01 -1.6260e-01
       157 9.7637e+01 3.7257e-24 3.9462e-01 -2.1791e-01 3.0567e-01 -1.6181e-01
       158 8.0157e+01 2.3275e-20 3.9476e-01 -2.1892e-01 3.0590e-01 -1.6263e-01
       159 2.5880e+02 3.7603e-59 3.9579e-01 -2.1847e-01 3.0671e-01 -1.6245e-01
       160 4.9960e+02 1.9303e-111 3.9368e-01 -2.1798e-01 3.0511e-01 -1.6226e-01
       161 2.6061e+02 1.5243e-59 3.9575e-01 -2.1861e-01 3.0675e-01 -1.6240e-01
       162 1.0409e+03 5.4953e-229 3.9285e-01 -2.1905e-01 3.0431e-01 -1.6252e-01
       163 1.1853e+03 2.4678e-260 3.9330e-01 -2.1859e-01 3.0467e-01 -1.6220e-01
       164 2.6164e+02 9.0723e-60 3.9557e-01 -2.1880e-01 3.0655e-01 -1.6261e-01
       165 1.8346e+02 8.6080e-43 3.9408e-01 -2.1960e-01 3.0546e-01 -1.6279e-01
       166 2.5142e+02 1.5066e-57 3.9615e-01 -2.1812e-01 3.0712e-01 -1.6209e-01
       167 1.3033e+03 5.7812e-286 3.9341e-01 -2.1762e-01 3.0482e-01 -1.6191e-01
       168 2.0004e+03 0.0000e+00 3.9756e-01 -2.1852e-01 3.0833e-01 -1.6246e-01
       169 3.4514e+02 6.7159e-78 3.9425e-01 -2.1789e-01 3.0550e-01 -1.6187e-01
       170 1.4499e+03 8.4706e-318 3.9724e-01 -2.1851e-01 3.0808e-01 -1.6232e-01
       171 1.1276e+03 8.1918e-248 3.9336e-01 -2.1746e-01 3.0482e-01 -1.6170e-01
       172 9.1548e+02 9.5066e-202 3.9304e-01 -2.1887e-01 3.0470e-01 -1.6244e-01
       173 1.8277e+03 0.0000e+00 3.9755e-01 -2.1787e-01 3.0834e-01 -1.6196e-01
       174 7.3698e+00 1.4875e-04 3.9497e-01 -2.1747e-01 3.0623e-01 -1.6190e-01
       175 5.6922e+02 1.4727e-126 3.9364e-01 -2.1962e-01 3.0504e-01 -1.6265e-01
       176 2.2551e+00 1.9191e-03 3.9503e-01 -2.1835e-01 3.0627e-01 -1.6235e-01
       177 2.8544e+03 0.0000e+00 3.9232e-01 -2.1786e-01 3.0401e-01 -1.6217e-01
       178 5.7544e+02 6.5693e-128 3.9388e-01 -2.1763e-01 3.0526e-01 -1.6212e-01
       179 1.8767e+02 1.0470e-43 3.9474e-01 -2.1749e-01 3.0604e-01 -1.6168e-01
       180 1.5094e+01 3.1271e-06 3.9491e-01 -2.1748e-01 3.0613e-01 -1.6218e-01
       181 3.6891e+02 4.6191e-83 3.9391e-01 -2.1769e-01 3.0528e-01 -1.6216e-01
       182 1.6869e+03 0.0000e+00 3.9251e-01 -2.1946e-01 3.0405e-01 -1.6257e-01
       183 5.5440e+02 2.4371e-123 3.9646e-01 -2.1775e-01 3.0742e-01 -1.6184e-01
       184 8.4062e+02 1.7124e-185 3.9348e-01 -2.1881e-01 3.0477e-01 -1.6243e-01
       185 6.6318e+02 5.8264e-147 3.9631e-01 -2.1834e-01 3.0750e-01 -1.6220e-01
       186 2.8612e+02 4.3852e-65 3.9429e-01 -2.1774e-01 3.0554e-01 -1.6211e-01
       187 2.8259e+03 0.0000e+00 3.9813e-01 -2.1810e-01 3.0891e-01 -1.6188e-01
       188 1.0492e+03 8.9434e-231 3.9698e-01 -2.1853e-01 3.0781e-01 -1.6229e-01
       189 1.2572e+03 6.0718e-276 3.9711e-01 -2.1866e-01 3.0811e-01 -1.6237e-01
       190 4.7573e+02 2.9521e-106 3.9636e-01 -2.1789e-01 3.0733e-01 -1.6211e-01
       191 2.1257e+03 0.0000e+00 3.9752e-01 -2.1936e-01 3.0839e-01 -1.6276e-01
       192 1.0841e+03 2.2671e-238 3.9310e-01 -2.1865e-01 3.0449e-01 -1.6245e-01
       193 8.7246e+02 2.0935e-192 3.9678e-01 -2.1784e-01 3.0773e-01 -1.6196e-01
       194 2.7701e+02 4.1774e-63 3.9600e-01 -2.1847e-01 3.0698e-01 -1.6245e-01
       195 1.9223e+02 1.0755e-44 3.9411e-01 -2.1904e-01 3.0546e-01 -1.6243e-01
       196 1.8583e+03 0.0000e+00 3.9737e-01 -2.1937e-01 3.0818e-01 -1.6269e-01
       197 2.0711e+02 6.2985e-48 3.9408e-01 -2.1869e-01 3.0544e-01 -1.6197e-01
       198 7.8940e+02 2.2785e-174 3.9622e-01 -2.1910e-01 3.0722e-01 -1.6268e-01
       199 8.8165e+02 2.1124e-194 3.9353e-01 -2.1741e-01 3.0490e-01 -1.6189e-01
       200 5.6454e+01 3.2649e-15 3.9523e-01 -2.1935e-01 3.0654e-01 -1.6239e-01
       201 5.1626e+02 4.6540e-115 3.9647e-01 -2.1751e-01 3.0738e-01 -1.6158e-01
       202 3.7422e+02 3.2573e-84 3.9424e-01 -2.1765e-01 3.0561e-01 -1.6189e-01
       203 5.3248e+03 0.0000e+00 3.9880e-01 -2.1897e-01 3.0947e-01 -1.6263e-01
       204 3.2002e+02 1.9117e-72 3.9598e-01 -2.1781e-01 3.0701e-01 -1.6205e-01
       205 1.5728e+02 4.1605e-37 3.9425e-01 -2.1873e-01 3.0562e-01 -1.6226e-01
       206 1.3725e+02 9.3371e-33 3.9587e-01 -2.1842e-01 3.0693e-01 -1.6249e-01
       207 3.8525e+02 1.3064e-86 3.9409e-01 -2.1756e-01 3.0537e-01 -1.6203e-01
       208 1.4007e+02 2.2734e-33 3.9557e-01 -2.1731e-01 3.0667e-01 -1.6163e-01
       209 8.8448e+02 5.1317e-195 3.9687e-01 -2.1842e-01 3.0773e-01 -1.6225e-01
       210 1.8552e+00 2.3438e-03 3.9488e-01 -2.1865e-01 3.0611e-01 -1.6259e-01
       211 5.8938e+01 9.4333e-16 3.9497e-01 -2.1961e-01 3.0626e-01 -1.6284e-01
       212 4.0683e+02 2.6968e-91 3.9618e-01 -2.1835e-01 3.0709e-01 -1.6244e-01
       213 2.1130e+03 0.0000e+00 3.9742e-01 -2.1954e-01 3.0828e-01 -1.6268e-01
       214 4.1307e+01 6.3546e-12 3.9505e-01 -2.1894e-01 3.0625e-01 -1.6258e-01
       215 6.2185e+02 5.5060e-138 3.9367e-01 -2.1840e-01 3.0500e-01 -1.6237e-01
       216 1.2247e+02 1.5086e-29 3.9461e-01 -2.1823e-01 3.0594e-01 -1.6227e-01
       217 2.8988e+03 0.0000e+00 3.9216e-01 -2.1884e-01 3.0374e-01 -1.6247e-01
       218 9.2992e+00 5.6688e-05 3.9488e-01 -2.1843e-01 3.0615e-01 -1.6182e-01
       219 4.8184e+01 2.0407e-13 3.9463e-01 -2.1820e-01 3.0588e-01 -1.6203e-01
       220 1.1369e+01 2.0139e-05 3.9505e-01 -2.1787e-01 3.0623e-01 -1.6212e-01
       221 1.5887e+03 0.0000e+00 3.9268e-01 -2.1904e-01 3.0431e-01 -1.6237e-01
       222 3.1820e+01 7.2960e-10 3.9524e-01 -2.1724e-01 3.0639e-01 -1.6157e-01
       223 6.3163e-02 5.7421e-03 3.9520e-01 -2.1824e-01 3.0637e-01 -1.6229e-01
       224 1.6768e+00 2.5626e-03 3.9539e-01 -2.1767e-01 3.0641e-01 -1.6212e-01
       225 7.8522e+02 1.8407e-173 3.9673e-01 -2.1816e-01 3.0771e-01 -1.6216e-01
       226 3.9643e+02 4.8865e-89 3.9645e-01 -2.1764e-01 3.0752e-01 -1.6219e-01
       227 4.3947e+02 2.2001e-98 3.9601e-01 -2.1892e-01 3.0713e-01 -1.6257e-01
       228 8.9485e-02 5.6670e-03 3.9489e-01 -2.1744e-01 3.0615e-01 -1.6194e-01
       229 3.4771e+02 1.8515e-78 3.9606e-01 -2.1924e-01 3.0714e-01 -1.6255e-01
       230 3.1825e+02 4.6196e-72 3.9601e-01 -2.1795e-01 3.0715e-01 -1.6187e-01
       231 3.4564e+02 5.2260e-78 3.9654e-01 -2.1860e-01 3.0731e-01 -1.6255e-01
       232 1.6756e+03 0.0000e+00 3.9752e-01 -2.1761e-01 3.0838e-01 -1.6179e-01
       233 1.0847e+03 1.7349e-238 3.9729e-01 -2.1779e-01 3.0812e-01 -1.6209e-01
       234 1.6366e+02 1.7198e-38 3.9557e-01 -2.1820e-01 3.0662e-01 -1.6203e-01
       235 1.5174e+03 0.0000e+00 3.9742e-01 -2.1801e-01 3.0830e-01 -1.6199e-01
       236 6.9504e+02 7.0246e-154 3.9356e-01 -2.1845e-01 3.0496e-01 -1.6227e-01
       237 1.5083e+01 3.1453e-06 3.9582e-01 -2.1610e-01 3.0699e-01 -1.6070e-01
       238 3.8070e+03 0.0000e+00 3.9819e-01 -2.1899e-01 3.0898e-01 -1.6259e-01
       239 2.3630e+01 4.3817e-08 3.9552e-01 -2.1881e-01 3.0650e-01 -1.6260e-01
       240 4.5560e+01 7.5763e-13 3.9460e-01 -2.1892e-01 3.0577e-01 -1.6231e-01
       241 2.0724e+02 5.8961e-48 3.9446e-01 -2.1755e-01 3.0568e-01 -1.6201e-01
       242 2.0218e+02 7.4177e-47 3.9437e-01 -2.1864e-01 3.0571e-01 -1.6250e-01
       243 7.4489e+00 1.4298e-04 3.9458e-01 -2.1874e-01 3.0580e-01 -1.6210e-01
       244 3.1955e+02 2.4213e-72 3.9651e-01 -2.1782e-01 3.0726e-01 -1.6218e-01
       245 3.1410e+02 3.6854e-71 3.9371e-01 -2.1919e-01 3.0510e-01 -1.6245e-01
       246 2.1523e+03 0.0000e+00 3.9749e-01 -2.1878e-01 3.0834e-01 -1.6243e-01
       247 1.9375e-01 5.3791e-03 3.9490e-01 -2.1864e-01 3.0597e-01 -1.6249e-01
       248 1.2478e+02 4.7441e-30 3.9559e-01 -2.1817e-01 3.0680e-01 -1.6203e-01
       249 8.8094e+00 7.2418e-05 3.9508e-01 -2.1771e-01 3.0617e-01 -1.6192e-01
       250 6.0149e+02 1.4484e-133 3.9677e-01 -2.1696e-01 3.0766e-01 -1.6139e-01
       251 1.2722e+03 3.3160e-279 3.9284e-01 -2.1918e-01 3.0429e-01 -1.6274e-01
       252 1.1344e+01 2.0395e-05 3.9469e-01 -2.1900e-01 3.0589e-01 -1.6255e-01
       253 1.0911e+03 6.8806e-240 3.9696e-01 -2.1773e-01 3.0781e-01 -1.6203e-01
       254 2.1422e+03 0.0000e+00 3.9724e-01 -2.1897e-01 3.0817e-01 -1.6220e-01
       255 8.5860e+01 1.3441e-21 3.9623e-01 -2.1645e-01 3.0720e-01 -1.6112e-01
       256 2.9322e-01 5.1181e-03 3.9503e-01 -2.1828e-01 3.0620e-01 -1.6185e-01
       257 2.0916e+02 2.2597e-48 3.9461e-01 -2.1749e-01 3.0589e-01 -1.6201e-01
       258 1.4044e+02 1.8926e-33 3.9447e-01 -2.1802e-01 3.0571e-01 -1.6242e-01
       259 7.6509e+02 4.3268e-169 3.9401e-01 -2.1730e-01 3.0539e-01 -1.6152e-01
       260 1.5301e+02 3.5228e-36 3.9579e-01 -2.1948e-01 3.0681e-01 -1.6279e-01
       261 1.3197e+03 1.5889e-289 3.9698e-01 -2.1839e-01 3.0804e-01 -1.6240e-01
       262 3.7850e+02 3.8267e-85 3.9599e-01 -2.1878e-01 3.0699e-01 -1.6208e-01
       263 1.2782e+01 9.9381e-06 3.9501e-01 -2.1909e-01 3.0609e-01 -1.6267e-01
       264 3.1172e+02 1.2149e-70 3.9384e-01 -2.1894e-01 3.0526e-01 -1.6268e-01
       265 1.0442e+03 1.0735e-229 3.9669e-01 -2.1932e-01 3.0759e-01 -1.6278e-01
       266 8.1776e+02 1.5808e-180 3.9691e-01 -2.1779e-01 3.0795e-01 -1.6189e-01
       267 1.6036e+00 2.6581e-03 3.9474e-01 -2.1948e-01 3.0607e-01 -1.6256e-01
       268 1.1850e+00 3.2768e-03 3.9489e-01 -2.1880e-01 3.0601e-01 -1.6219e-01
       269 3.0944e+03 0.0000e+00 3.9192e-01 -2.1822e-01 3.0363e-01 -1.6219e-01
       270 1.0207e+03 1.3597e-224 3.9729e-01 -2.1749e-01 3.0804e-01 -1.6178e-01
       271 1.8729e+03 0.0000e+00 3.9738e-01 -2.1835e-01 3.0823e-01 -1.6212e-01
       272 5.4176e+02 1.3538e-120 3.9328e-01 -2.2010e-01 3.0465e-01 -1.6301e-01
       273 2.3827e+03 0.0000e+00 3.9766e-01 -2.1861e-01 3.0854e-01 -1.6255e-01
       274 8.3391e-01 3.9057e-03 3.9437e-01 -2.1960e-01 3.0566e-01 -1.6264e-01
       275 6.6430e+02 3.3189e-147 3.9411e-01 -2.1709e-01 3.0544e-01 -1.6125e-01
       276 9.0999e-02 5.6627e-03 3.9512e-01 -2.1792e-01 3.0620e-01 -1.6180e-01
       277 1.3049e+02 2.7392e-31 3.9442e-01 -2.1822e-01 3.0562e-01 -1.6193e-01
       278 9.0923e+01 1.0695e-22 3.9548e-01 -2.1868e-01 3.0667e-01 -1.6243e-01
       279 1.0011e+03 2.4553e-220 3.9319e-01 -2.1720e-01 3.0475e-01 -1.6124e-01
       280 1.0476e+03 1.9707e-230 3.9338e-01 -2.1762e-01 3.0477e-01 -1.6166e-01
       281 3.5764e+02 1.2925e-80 3.9436e-01 -2.1733e-01 3.0562e-01 -1.6156e-01
       282 1.8883e+01 4.7033e-07 3.9509e-01 -2.1921e-01 3.0640e-01 -1.6271e-01
       283 1.2894e+03 6.0510e-283 3.9328e-01 -2.1735e-01 3.0472e-01 -1.6162e-01
       284 4.9658e+01 9.7641e-14 3.9555e-01 -2.1774e-01 3.0671e-01 -1.6195e-01
       285 3.3275e+01 3.5246e-10 3.9483e-01 -2.1826e-01 3.0610e-01 -1.6246e-01
       286 7.9809e+02 2.9533e-176 3.9384e-01 -2.1845e-01 3.0514e-01 -1.6237e-01
       287 2.6123e+02 1.1156e-59 3.9371e-01 -2.1916e-01 3.0509e-01 -1.6263e-01
       288 1.3111e+01 8.4279e-06 3.9486e-01 -2.1763e-01 3.0597e-01 -1.6162e-01
       289 1.7606e+02 3.4736e-41 3.9554e-01 -2.1834e-01 3.0677e-01 -1.6237e-01
       290 2.1386e+01 1.3454e-07 3.9509e-01 -2.1836e-01 3.0609e-01 -1.6198e-01
       291 1.5679e+03 0.0000e+00 3.9294e-01 -2.1712e-01 3.0460e-01 -1.6176e-01
       292 1.7637e+03 0.0000e+00 3.9724e-01 -2.1867e-01 3.0808e-01 -1.6233e-01
       293 5.6284e+02 3.5728e-125 3.9621e-01 -2.1889e-01 3.0738e-01 -1.6262e-01
       294 5.9467e+02 4.3914e-132 3.9398e-01 -2.1748e-01 3.0527e-01 -1.6183e-01
       295 2.8756e+02 2.1343e-65 3.9604e-01 -2.1857e-01 3.0704e-01 -1.6243e-01
       296 1.0684e+03 5.9949e-235 3.9311e-01 -2.1900e-01 3.0462e-01 -1.6244e-01
       297 1.7731e+01 8.3650e-07 3.9482e-01 -2.1850e-01 3.0596e-01 -1.6244e-01
       298 6.1442e+02 2.2550e-136 3.9618e-01 -2.1892e-01 3.0722e-01 -1.6248e-01
       299 3.7714e+01 3.8305e-11 3.9557e-01 -2.1896e-01 3.0680e-01 -1.6253e-01
       300 8.5362e+02 2.5775e-188 3.9313e-01 -2.1964e-01 3.0453e-01 -1.6277e-01
       301 5.8153e-01 4.4311e-03 3.9532e-01 -2.1687e-01 3.0646e-01 -1.6126e-01
       302 1.2818e+01 9.7601e-06 3.9480e-01 -2.1868e-01 3.0590e-01 -1.6253e-01
       303 2.1147e+02 7.1159e-49 3.9554e-01 -2.1857e-01 3.0674e-01 -1.6226e-01
       304 6.1381e+02 3.0654e-136 3.9435e-01 -2.1781e-01 3.0556e-01 -1.6202e-01
       305 2.5305e+02 6.6471e-58 3.9601e-01 -2.1736e-01 3.0711e-01 -1.6169e-01
       306 2.4845e+03 0.0000e+00 3.9816e-01 -2.1831e-01 3.0887e-01 -1.6234e-01
       307 1.0079e+03 8.3113e-222 3.9305e-01 -2.1941e-01 3.0448e-01 -1.6269e-01
       308 2.1071e+02 1.0427e-48 3.9466e-01 -2.1756e-01 3.0596e-01 -1.6181e-01
       309 4.1458e+02 5.5863e-93 3.9364e-01 -2.1798e-01 3.0508e-01 -1.6184e-01
       310 3.5026e+01 1.4691e-10 3.9513e-01 -2.1876e-01 3.0634e-01 -1.6249e-01
       311 3.7649e+03 0.0000e+00 3.9166e-01 -2.1847e-01 3.0328e-01 -1.6194e-01
       312 2.6575e+03 0.0000e+00 3.9185e-01 -2.1860e-01 3.0354e-01 -1.6252e-01
       313 4.1182e+02 2.2277e-92 3.9422e-01 -2.1756e-01 3.0547e-01 -1.6201e-01
       314 1.2185e+03 1.5208e-267 3.9776e-01 -2.1697e-01 3.0853e-01 -1.6158e-01
       315 1.4962e+03 0.0000e+00 3.9793e-01 -2.1745e-01 3.0860e-01 -1.6159e-01
       316 1.7249e+02 2.0788e-40 3.9617e-01 -2.1811e-01 3.0721e-01 -1.6229e-01
       317 7.5260e+02 2.2313e-166 3.9683e-01 -2.1922e-01 3.0770e-01 -1.6250e-01
       318 1.1959e+02 6.3709e-29 3.9540e-01 -2.1839e-01 3.0670e-01 -1.6231e-01
       319 2.2921e+03 0.0000e+00 3.9226e-01 -2.1857e-01 3.0382e-01 -1.6225e-01
       320 1.0578e+03 1.1812e-232 3.9339e-01 -2.1888e-01 3.0484e-01 -1.6236e-01
       321 3.0834e+00 1.2683e-03 3.9494e-01 -2.1758e-01 3.0616e-01 -1.6199e-01
       322 2.2535e+00 1.9206e-03 3.9528e-01 -2.1863e-01 3.0639e-01 -1.6219e-01
       323 2.7884e+03 0.0000e+00 3.9773e-01 -2.1934e-01 3.0849e-01 -1.6260e-01
       324 4.5897e+02 1.2828e-102 3.9408e-01 -2.1756e-01 3.0538e-01 -1.6193e-01
       325 6.4602e+02 3.1002e-143 3.9387e-01 -2.1797e-01 3.0529e-01 -1.6232e-01
       326 3.9116e+01 1.9007e-11 3.9539e-01 -2.1851e-01 3.0642e-01 -1.6251e-01
       327 2.7047e+03 0.0000e+00 3.9237e-01 -2.1770e-01 3.0393e-01 -1.6181e-01
       328 1.5737e+03 0.0000e+00 3.9254e-01 -2.1894e-01 3.0421e-01 -1.6242e-01
       329 2.6438e+03 0.0000e+00 3.9810e-01 -2.1701e-01 3.0878e-01 -1.6182e-01
       330 2.0877e+02 2.7533e-48 3.9407e-01 -2.1818e-01 3.0534e-01 -1.6186e-01
       331 2.1587e-01 5.3200e-03 3.9466e-01 -2.1912e-01 3.0585e-01 -1.6267e-01
       332 6.7727e+01 1.1643e-17 3.9431e-01 -2.1811e-01 3.0569e-01 -1.6179e-01
       333 4.5783e-01 4.7138e-03 3.9521e-01 -2.1769e-01 3.0642e-01 -1.6189e-01
       334 9.1068e+01 9.9448e-23 3.9596e-01 -2.1750e-01 3.0700e-01 -1.6178e-01
       335 4.4233e+02 5.2611e-99 3.9404e-01 -2.1743e-01 3.0543e-01 -1.6160e-01
       336 1.6847e+03 0.0000e+00 3.9243e-01 -2.1828e-01 3.0417e-01 -1.6231e-01
       337 1.2566e+02 3.0562e-30 3.9424e-01 -2.1815e-01 3.0560e-01 -1.6199e-01
       338 2.4285e+00 1.7597e-03 3.9522e-01 -2.1825e-01 3.0631e-01 -1.6197e-01
       339 1.2847e+03 6.2394e-282 3.9315e-01 -2.1765e-01 3.0451e-01 -1.6183e-01
       340 1.6642e+02 4.3156e-39 3.9394e-01 -2.1915e-01 3.0529e-01 -1.6258e-01
       341 2.2847e+02 1.4479e-52 3.9604e-01 -2.1657e-01 3.0712e-01 -1.6080e-01
       342 1.8224e+00 2.3826e-03 3.9499e-01 -2.1920e-01 3.0617e-01 -1.6255e-01
       343 6.0155e+02 1.4064e-133 3.9612e-01 -2.1918e-01 3.0713e-01 -1.6263e-01
       344 5.7458e+01 1.9769e-15 3.9452e-01 -2.1902e-01 3.0575e-01 -1.6269e-01
       345 2.4459e+03 0.0000e+00 3.9822e-01 -2.1582e-01 3.0891e-01 -1.6096e-01
       346 1.0456e+03 5.1641e-230 3.9670e-01 -2.1860e-01 3.0769e-01 -1.6251e-01
       347 1.3355e+02 5.9304e-32 3.9408e-01 -2.1891e-01 3.0546e-01 -1.6262e-01
       348 6.2039e+02 1.1411e-137 3.9331e-01 -2.1926e-01 3.0483e-01 -1.6262e-01
       349 5.4376e+02 4.9703e-121 3.9622e-01 -2.1805e-01 3.0730e-01 -1.6208e-01
       350 5.4292e+02 7.5883e-121 3.9398e-01 -2.1764e-01 3.0537e-01 -1.6163e-01
       351 1.8011e+03 0.0000e+00 3.9259e-01 -2.1801e-01 3.0419e-01 -1.6227e-01
       352 1.0449e+03 7.5732e-230 3.9362e-01 -2.1770e-01 3.0491e-01 -1.6203e-01
       353 1.2701e+01 1.0349e-05 3.9501e-01 -2.1875e-01 3.0628e-01 -1.6256e-01
       354 2.7054e+03 0.0000e+00 3.9814e-01 -2.1729e-01 3.0884e-01 -1.6158e-01
       355 5.0013e+02 1.4830e-111 3.9610e-01 -2.1801e-01 3.0718e-01 -1.6224e-01
       356 3.2801e+03 0.0000e+00 3.9179e-01 -2.1913e-01 3.0352e-01 -1.6270e-01
       357 2.9525e+02 4.5694e-67 3.9363e-01 -2.1898e-01 3.0502e-01 -1.6256e-01
       358 4.2223e+01 4.0200e-12 3.9449e-01 -2.1903e-01 3.0575e-01 -1.6270e-01
       359 8.4493e+02 1.9895e-186 3.9316e-01 -2.1878e-01 3.0469e-01 -1.6249e-01
       360 8.5066e+02 1.1336e-187 3.9351e-01 -2.1926e-01 3.0488e-01 -1.6275e-01
       361 1.4643e+03 6.2895e-321 3.9238e-01 -2.2012e-01 3.0405e-01 -1.6298e-01
       362 5.3602e+03 0.0000e+00 3.9096e-01 -2.1746e-01 3.0270e-01 -1.6203e-01
       363 7.3284e+02 4.3592e-162 3.9354e-01 -2.1811e-01 3.0495e-01 -1.6208e-01
       364 5.3821e+02 7.9958e-120 3.9380e-01 -2.1882e-01 3.0509e-01 -1.6260e-01
       365 8.7149e+01 7.0570e-22 3.9409e-01 -2.1896e-01 3.0556e-01 -1.6263e-01
       366 4.6178e+02 3.1534e-103 3.9371e-01 -2.1957e-01 3.0512e-01 -1.6277e-01
       367 5.4957e+02 2.7200e-122 3.9383e-01 -2.1874e-01 3.0522e-01 -1.6230e-01
       368 2.7072e+02 9.6935e-62 3.9407e-01 -2.1866e-01 3.0531e-01 -1.6213e-01
       369 2.4349e+01 3.0580e-08 3.9611e-01 -2.1646e-01 3.0702e-01 -1.6137e-01
       370 4.7292e+01 3.1878e-13 3.9483e-01 -2.1939e-01 3.0604e-01 -1.6278e-01
       371 7.1644e+02 1.5825e-158 3.9342e-01 -2.1910e-01 3.0486e-01 -1.6264e-01
       372 2.4047e+01 3.5574e-08 3.9516e-01 -2.1763e-01 3.0630e-01 -1.6208e-01
       373 2.4537e+02 3.1019e-56 3.9413e-01 -2.1865e-01 3.0537e-01 -1.6248e-01
       374 1.9600e+01 3.2858e-07 3.9489e-01 -2.1655e-01 3.0610e-01 -1.6053e-01
       375 5.9670e+02 1.5895e-132 3.9621e-01 -2.1938e-01 3.0720e-01 -1.6279e-01
       376 5.6377e+02 2.2492e-125 3.9396e-01 -2.1751e-01 3.0528e-01 -1.6189e-01
       377 3.6489e+02 3.4531e-82 3.9417e-01 -2.1719e-01 3.0546e-01 -1.6147e-01
       378 2.7004e+02 1.3620e-61 3.9608e-01 -2.1889e-01 3.0722e-01 -1.6236e-01
       379 4.6982e+01 3.7214e-13 3.9483e-01 -2.1849e-01 3.0609e-01 -1.6235e-01
       380 8.7349e+01 6.3857e-22 3.9577e-01 -2.1812e-01 3.0671e-01 -1.6174e-01
       381 2.6162e+02 9.1841e-60 3.9390e-01 -2.1944e-01 3.0537e-01 -1.6276e-01
       382 1.0261e+03 9.2721e-226 3.9338e-01 -2.1615e-01 3.0482e-01 -1.6089e-01
       383 2.6354e+03 0.0000e+00 3.9238e-01 -2.1772e-01 3.0398e-01 -1.6195e-01
       384 8.5936e+02 1.4647e-189 3.9319e-01 -2.1894e-01 3.0463e-01 -1.6265e-01
       385 1.0985e+00 3.4218e-03 3.9509e-01 -2.1892e-01 3.0634e-01 -1.6234e-01
       386 1.5639e+03 0.0000e+00 3.9256e-01 -2.1822e-01 3.0425e-01 -1.6205e-01
       387 2.1073e+02 1.0309e-48 3.9592e-01 -2.1792e-01 3.0690e-01 -1.6215e-01
       388 5.1182e+03 0.0000e+00 3.9108e-01 -2.1886e-01 3.0289e-01 -1.6257e-01
       389 7.9067e+00 1.1373e-04 3.9537e-01 -2.1846e-01 3.0650e-01 -1.6237e-01
       390 2.6981e+02 1.5297e-61 3.9592e-01 -2.1829e-01 3.0697e-01 -1.6250e-01
       391 3.5620e+01 1.0913e-10 3.9564e-01 -2.1695e-01 3.0669e-01 -1.6138e-01
       392 5.7145e+02 4.8207e-127 3.9661e-01 -2.1754e-01 3.0762e-01 -1.6227e-01
       393 1.2643e+03 1.7455e-277 3.9320e-01 -2.1819e-01 3.0471e-01 -1.6223e-01
       394 1.2140e+01 1.3696e-05 3.9451e-01 -2.1857e-01 3.0595e-01 -1.6234e-01
       395 1.6554e+03 0.0000e+00 3.9306e-01 -2.1709e-01 3.0453e-01 -1.6177e-01
       396 2.0744e+02 5.3430e-48 3.9443e-01 -2.1650e-01 3.0570e-01 -1.6162e-01
       397 2.1449e+03 0.0000e+00 3.9780e-01 -2.1829e-01 3.0856e-01 -1.6196e-01
       398 4.0785e+03 0.0000e+00 3.9874e-01 -2.1792e-01 3.0941e-01 -1.6211e-01
       399 2.8711e+02 2.6705e-65 3.9414e-01 -2.1690e-01 3.0546e-01 -1.6116e-01
       400 6.3663e+03 0.0000e+00 3.9058e-01 -2.1751e-01 3.0233e-01 -1.6198e-01
       401 5.9846e+01 5.9893e-16 3.9421e-01 -2.1862e-01 3.0560e-01 -1.6212e-01
       402 1.5942e+02 1.4262e-37 3.9437e-01 -2.1853e-01 3.0567e-01 -1.6256e-01
       403 6.7519e+01 1.2919e-17 3.9497e-01 -2.1813e-01 3.0597e-01 -1.6221e-01
       404 1.2509e+03 1.3571e-274 3.9678e-01 -2.1871e-01 3.0795e-01 -1.6252e-01
       405 5.7026e+02 8.7639e-127 3.9358e-01 -2.1753e-01 3.0496e-01 -1.6194e-01
       406 1.1143e+03 6.3956e-245 3.9726e-01 -2.1850e-01 3.0819e-01 -1.6252e-01
       407 1.9467e+02 3.1615e-45 3.9598e-01 -2.1679e-01 3.0695e-01 -1.6149e-01
       408 6.5192e+02 1.6230e-144 3.9370e-01 -2.1774e-01 3.0514e-01 -1.6229e-01
       409 5.9154e+01 8.4658e-16 3.9460e-01 -2.1797e-01 3.0591e-01 -1.6196e-01
       410 1.2457e+02 5.2799e-30 3.9445e-01 -2.1825e-01 3.0569e-01 -1.6249e-01
       411 1.6618e+03 0.0000e+00 3.9734e-01 -2.1909e-01 3.0824e-01 -1.6264e-01
       412 1.3475e+03 1.4560e-295 3.9713e-01 -2.1865e-01 3.0798e-01 -1.6222e-01
       413 2.4539e+02 3.0671e-56 3.9622e-01 -2.1737e-01 3.0706e-01 -1.6166e-01
       414 2.8214e+01 4.4287e-09 3.9598e-01 -2.1678e-01 3.0694e-01 -1.6146e-01
       415 4.5436e+02 1.2871e-101 3.9586e-01 -2.1888e-01 3.0687e-01 -1.6265e-01
       416 5.6995e+02 1.0246e-126 3.9611e-01 -2.1919e-01 3.0712e-01 -1.6268e-01
       417 1.4125e+02 1.2640e-33 3.9520e-01 -2.1566e-01 3.0633e-01 -1.6055e-01
       418 8.9231e+02 1.0232e-196 3.9378e-01 -2.1798e-01 3.0515e-01 -1.6236e-01
       419 2.6008e+02 1.9792e-59 3.9386e-01 -2.1832e-01 3.0531e-01 -1.6216e-01
       420 2.2546e+02 6.5283e-52 3.9426e-01 -2.1723e-01 3.0560e-01 -1.6130e-01
       421 2.7322e+02 2.7777e-62 3.9435e-01 -2.1901e-01 3.0564e-01 -1.6263e-01
       422 3.9901e+01 1.2832e-11 3.9526e-01 -2.1913e-01 3.0638e-01 -1.6267e-01
       423 1.2727e+02 1.3711e-30 3.9443e-01 -2.1857e-01 3.0569e-01 -1.6255e-01
       424 9.8602e+01 2.2991e-24 3.9589e-01 -2.1845e-01 3.0688e-01 -1.6235e-01
       425 8.2142e+01 8.6270e-21 3.9447e-01 -2.1821e-01 3.0568e-01 -1.6222e-01
       426 2.1108e+02 8.6399e-49 3.9426e-01 -2.1809e-01 3.0550e-01 -1.6207e-01
       427 8.3286e+02 8.3045e-184 3.9646e-01 -2.1907e-01 3.0745e-01 -1.6262e-01
       428 8.4600e+02 1.1659e-186 3.9602e-01 -2.1926e-01 3.0705e-01 -1.6276e-01
       429 8.6363e+01 1.0456e-21 3.9607e-01 -2.1712e-01 3.0709e-01 -1.6185e-01
       430 1.8712e+02 1.3795e-43 3.9441e-01 -2.1866e-01 3.0563e-01 -1.6251e-01
       431 8.6852e+01 8.1873e-22 3.9446e-01 -2.1812e-01 3.0574e-01 -1.6243e-01
       432 1.1348e+03 2.2342e-249 3.9369e-01 -2.1711e-01 3.0500e-01 -1.6185e-01
       433 4.8560e+02 2.1212e-108 3.9372e-01 -2.1842e-01 3.0510e-01 -1.6220e-01
       434 1.1877e-01 5.5846e-03 3.9519e-01 -2.1848e-01 3.0614e-01 -1.6252e-01
       435 2.9260e+02 1.7215e-66 3.9415e-01 -2.1875e-01 3.0541e-01 -1.6230e-01
       436 5.1555e+02 6.6489e-115 3.9606e-01 -2.1903e-01 3.0707e-01 -1.6261e-01
       437 5.7249e+02 2.8681e-127 3.9636e-01 -2.1783e-01 3.0748e-01 -1.6184e-01
       438 2.6054e+01 1.3037e-08 3.9535e-01 -2.1739e-01 3.0649e-01 -1.6173e-01
       439 5.2158e+02 3.2609e-116 3.9644e-01 -2.1812e-01 3.0752e-01 -1.6197e-01
       440 4.9224e+00 5.0570e-04 3.9541e-01 -2.1769e-01 3.0636e-01 -1.6228e-01
       441 2.1584e+03 0.0000e+00 3.9787e-01 -2.1781e-01 3.0852e-01 -1.6203e-01
       442 2.1497e+01 1.2730e-07 3.9469e-01 -2.1861e-01 3.0589e-01 -1.6228e-01
       443 2.5006e+02 2.9708e-57 3.9582e-01 -2.1803e-01 3.0681e-01 -1.6188e-01
       444 4.8914e+02 3.6004e-109 3.9648e-01 -2.1769e-01 3.0753e-01 -1.6180e-01
       445 1.3914e+03 4.4015e-305 3.9280e-01 -2.1862e-01 3.0418e-01 -1.6248e-01
       446 3.4683e+01 1.7439e-10 3.9436e-01 -2.1921e-01 3.0561e-01 -1.6277e-01
       447 4.6734e+01 4.2142e-13 3.9500e-01 -2.1757e-01 3.0619e-01 -1.6170e-01
       448 3.7115e+03 0.0000e+00 3.9869e-01 -2.1842e-01 3.0931e-01 -1.6252e-01
       449 5.8680e+00 3.1519e-04 3.9469e-01 -2.1847e-01 3.0597e-01 -1.6235e-01
       450 1.3708e+02 1.0154e-32 3.9455e-01 -2.1822e-01 3.0578e-01 -1.6227e-01
       451 9.3110e+00 5.6356e-05 3.9505e-01 -2.1813e-01 3.0633e-01 -1.6242e-01
       452 2.6289e+02 4.8688e-60 3.9582e-01 -2.1877e-01 3.0689e-01 -1.6264e-01
       453 9.0986e+02 1.5793e-200 3.9322e-01 -2.1768e-01 3.0456e-01 -1.6204e-01
       454 6.9413e+02 1.1049e-153 3.9338e-01 -2.1846e-01 3.0477e-01 -1.6254e-01
       455 7.0017e+02 5.4080e-155 3.9611e-01 -2.1877e-01 3.0729e-01 -1.6236e-01
       456 1.2476e+02 4.8081e-30 3.9466e-01 -2.1882e-01 3.0594e-01 -1.6259e-01
       457 5.9127e+02 2.3982e-131 3.9668e-01 -2.1792e-01 3.0762e-01 -1.6236e-01
       458 1.2132e+03 2.1822e-266 3.9689e-01 -2.1924e-01 3.0788e-01 -1.6253e-01
       459 3.3992e+03 0.0000e+00 3.9214e-01 -2.1741e-01 3.0380e-01 -1.6167e-01
       460 1.3591e+02 1.8235e-32 3.9427e-01 -2.1827e-01 3.0566e-01 -1.6238e-01
       461 1.1550e+03 9.5009e-254 3.9693e-01 -2.1752e-01 3.0788e-01 -1.6156e-01
       462 2.7942e+01 5.0724e-09 3.9530e-01 -2.1886e-01 3.0633e-01 -1.6252e-01
       463 4.1220e+03 0.0000e+00 3.9151e-01 -2.1894e-01 3.0325e-01 -1.6258e-01
       464 4.1203e+03 0.0000e+00 3.9171e-01 -2.1707e-01 3.0330e-01 -1.6156e-01
       465 1.6417e+02 1.3300e-38 3.9597e-01 -2.1778e-01 3.0702e-01 -1.6190e-01
       466 2.5619e+01 1.6204e-08 3.9463e-01 -2.1927e-01 3.0593e-01 -1.6270e-01
       467 3.7045e+02 2.1374e-83 3.9361e-01 -2.1975e-01 3.0500e-01 -1.6274e-01
       468 3.3606e+02 6.2863e-76 3.9410e-01 -2.1731e-01 3.0554e-01 -1.6167e-01
       469 4.0283e+01 1.0605e-11 3.9574e-01 -2.1826e-01 3.0685e-01 -1.6229e-01
       470 3.2979e-01 5.0254e-03 3.9529e-01 -2.1814e-01 3.0637e-01 -1.6225e-01
       471 2.6336e+01 1.1325e-08 3.9469e-01 -2.1839e-01 3.0600e-01 -1.6226e-01
       472 1.4471e+03 3.5102e-317 3.9695e-01 -2.1903e-01 3.0795e-01 -1.6261e-01
       473 7.2257e+02 7.3858e-160 3.9632e-01 -2.1836e-01 3.0727e-01 -1.6250e-01
       474 8.1501e+02 6.2529e-180 3.9380e-01 -2.1786e-01 3.0502e-01 -1.6213e-01
       475 1.2826e+02 8.3626e-31 3.9394e-01 -2.1939e-01 3.0535e-01 -1.6254e-01
       476 6.6066e+02 2.0514e-146 3.9386e-01 -2.1868e-01 3.0531e-01 -1.6258e-01
       477 5.2808e+02 1.2623e-117 3.9622e-01 -2.1814e-01 3.0724e-01 -1.6215e-01
       478 1.1581e+03 1.9311e-254 3.9689e-01 -2.1880e-01 3.0777e-01 -1.6261e-01
       479 4.4599e+02 8.4602e-100 3.9418e-01 -2.1705e-01 3.0547e-01 -1.6168e-01
       480 1.9956e+02 2.7450e-46 3.9597e-01 -2.1751e-01 3.0706e-01 -1.6183e-01
       481 7.5832e+01 2.0229e-19 3.9516e-01 -2.1826e-01 3.0643e-01 -1.6200e-01
       482 1.8500e+02 3.9808e-43 3.9662e-01 -2.1724e-01 3.0755e-01 -1.6189e-01
       483 4.6280e+03 0.0000e+00 3.9127e-01 -2.1825e-01 3.0304e-01 -1.6228e-01
       484 5.2061e+02 5.2853e-116 3.9334e-01 -2.1899e-01 3.0468e-01 -1.6251e-01
       485 1.2340e+03 6.4510e-271 3.9277e-01 -2.1821e-01 3.0440e-01 -1.6201e-01
       486 4.0296e+02 1.8687e-90 3.9412e-01 -2.1882e-01 3.0535e-01 -1.6261e-01
       487 2.1269e+03 0.0000e+00 3.9261e-01 -2.1778e-01 3.0422e-01 -1.6194e-01
       488 3.3859e+02 1.7731e-76 3.9397e-01 -2.1891e-01 3.0526e-01 -1.6251e-01
       489 1.3859e+02 4.7613e-33 3.9581e-01 -2.1847e-01 3.0684e-01 -1.6223e-01
       490 3.2702e+03 0.0000e+00 3.9184e-01 -2.1893e-01 3.0331e-01 -1.6249e-01
       491 1.2476e+02 4.7908e-30 3.9530e-01 -2.1896e-01 3.0641e-01 -1.6267e-01
       492 2.6281e+02 5.0699e-60 3.9602e-01 -2.1726e-01 3.0702e-01 -1.6147e-01
       493 2.1468e+02 1.4279e-49 3.9596e-01 -2.1845e-01 3.0697e-01 -1.6223e-01
       494 1.2479e+01 1.1564e-05 3.9503e-01 -2.1836e-01 3.0612e-01 -1.6234e-01
       495 1.4301e+01 4.6487e-06 3.9487e-01 -2.1925e-01 3.0598e-01 -1.6279e-01
       496 2.6054e+02 1.5723e-59 3.9454e-01 -2.1872e-01 3.0581e-01 -1.6243e-01
       497 3.1974e-01 5.0507e-03 3.9514e-01 -2.1826e-01 3.0625e-01 -1.6227e-01
       498 2.4955e+01 2.2585e-08 3.9550e-01 -2.1656e-01 3.0674e-01 -1.6106e-01
       499 7.6533e+02 3.8418e-169 3.9341e-01 -2.1913e-01 3.0495e-01 -1.6269e-01
       500 3.0044e+01 1.7732e-09 3.9513e-01 -2.1935e-01 3.0642e-01 -1.6276e-01
       501 2.6662e+02 7.5340e-61 3.9382e-01 -2.1855e-01 3.0522e-01 -1.6225e-01
       502 8.2002e+02 5.1011e-181 3.9371e-01 -2.1738e-01 3.0509e-01 -1.6180e-01
       503 2.1485e+02 1.3121e-49 3.9432e-01 -2.1854e-01 3.0557e-01 -1.6217e-01
       504 1.0168e+02 4.9290e-25 3.9485e-01 -2.1854e-01 3.0610e-01 -1.6256e-01
       505 6.6322e+02 5.7094e-147 3.9330e-01 -2.1880e-01 3.0480e-01 -1.6252e-01
       506 4.0047e+02 6.4812e-90 3.9413e-01 -2.1774e-01 3.0535e-01 -1.6226e-01
       507 9.5553e+02 1.9174e-210 3.9337e-01 -2.1868e-01 3.0482e-01 -1.6256e-01
       508 4.0312e+02 1.7194e-90 3.9399e-01 -2.1819e-01 3.0534e-01 -1.6203e-01
       509 5.2810e+02 1.2516e-117 3.9663e-01 -2.1684e-01 3.0755e-01 -1.6154e-01
       510 4.3614e+02 1.1672e-97 3.9427e-01 -2.1666e-01 3.0549e-01 -1.6148e-01
       511 9.0915e+02 2.2570e-200 3.9696e-01 -2.1765e-01 3.0785e-01 -1.6217e-01
       512 9.6780e+02 4.1424e-213 3.9328e-01 -2.1819e-01 3.0471e-01 -1.6189e-01
       513 7.7835e+01 7.4312e-20 3.9462e-01 -2.1851e-01 3.0580e-01 -1.6247e-01
       514 1.3935e+03 1.4796e-305 3.9722e-01 -2.1804e-01 3.0825e-01 -1.6236e-01
       515 1.0909e+03 7.7853e-240 3.9704e-01 -2.1825e-01 3.0795e-01 -1.6242e-01
       516 1.3529e+03 9.9855e-297 3.9706e-01 -2.1816e-01 3.0798e-01 -1.6189e-01
       517 3.9265e+01 1.7638e-11 3.9445e-01 -2.1912e-01 3.0575e-01 -1.6274e-01
       518 7.2797e+02 4.9613e-161 3.9660e-01 -2.1840e-01 3.0761e-01 -1.6233e-01
       519 8.8474e+02 4.5075e-195 3.9290e-01 -2.1924e-01 3.0454e-01 -1.6256e-01
       520 1.7161e+02 3.2271e-40 3.9445e-01 -2.1773e-01 3.0554e-01 -1.6183e-01
       521 2.9053e+02 4.8422e-66 3.9561e-01 -2.1981e-01 3.0665e-01 -1.6292e-01
       522 2.8411e+02 1.2011e-64 3.9625e-01 -2.1714e-01 3.0736e-01 -1.6164e-01
       523 3.2910e+00 1.1433e-03 3.9533e-01 -2.1802e-01 3.0640e-01 -1.6197e-01
       524 7.0147e+02 2.8188e-155 3.9716e-01 -2.1644e-01 3.0791e-01 -1.6095e-01
       525 2.7176e+02 5.7692e-62 3.9406e-01 -2.1842e-01 3.0539e-01 -1.6236e-01
       526 8.9293e+02 7.5231e-197 3.9678e-01 -2.1817e-01 3.0769e-01 -1.6220e-01
       527 6.9745e+03 0.0000e+00 3.8987e-01 -2.1991e-01 3.0179e-01 -1.6295e-01
       528 2.0270e+02 5.7138e-47 3.9570e-01 -2.1874e-01 3.0686e-01 -1.6243e-01
       529 2.2971e+02 7.8056e-53 3.9617e-01 -2.1825e-01 3.0699e-01 -1.6236e-01
       530 2.5052e+02 2.3557e-57 3.9436e-01 -2.1754e-01 3.0556e-01 -1.6118e-01
       531 1.6508e+03 0.0000e+00 3.9256e-01 -2.1914e-01 3.0420e-01 -1.6237e-01
       532 3.6087e+02 2.5728e-81 3.9571e-01 -2.1877e-01 3.0685e-01 -1.6240e-01
       533 2.6201e+02 7.5506e-60 3.9633e-01 -2.1686e-01 3.0736e-01 -1.6132e-01
       534 9.3110e+02 3.8585e-205 3.9651e-01 -2.1910e-01 3.0752e-01 -1.6264e-01
       535 1.9754e+02 7.5554e-46 3.9593e-01 -2.1865e-01 3.0697e-01 -1.6260e-01
       536 4.2795e+03 0.0000e+00 3.9163e-01 -2.1848e-01 3.0332e-01 -1.6244e-01
       537 4.5252e+01 8.8395e-13 3.9460e-01 -2.1875e-01 3.0583e-01 -1.6261e-01
       538 2.2869e+02 1.2954e-52 3.9607e-01 -2.1804e-01 3.0715e-01 -1.6176e-01
       539 2.3516e+02 5.1213e-54 3.9567e-01 -2.1897e-01 3.0677e-01 -1.6265e-01
       540 1.7683e+03 0.0000e+00 3.9263e-01 -2.1829e-01 3.0418e-01 -1.6242e-01
       541 1.1634e+02 3.2357e-28 3.9584e-01 -2.1850e-01 3.0693e-01 -1.6239e-01
       542 1.9703e+03 0.0000e+00 3.9774e-01 -2.1866e-01 3.0839e-01 -1.6244e-01
       543 1.5351e+01 2.7499e-06 3.9459e-01 -2.1871e-01 3.0588e-01 -1.6224e-01
       544 2.6465e+01 1.0618e-08 3.9532e-01 -2.1907e-01 3.0649e-01 -1.6262e-01
       545 5.0933e+02 1.4890e-113 3.9639e-01 -2.1806e-01 3.0742e-01 -1.6184e-01
       546 2.6017e+03 0.0000e+00 3.9222e-01 -2.1824e-01 3.0377e-01 -1.6238e-01
       547 7.3819e+02 2.9967e-163 3.9330e-01 -2.1737e-01 3.0486e-01 -1.6206e-01
       548 1.1031e+03 1.7086e-242 3.9689e-01 -2.1796e-01 3.0785e-01 -1.6195e-01
       549 2.9772e+02 1.3312e-67 3.9599e-01 -2.1859e-01 3.0708e-01 -1.6258e-01
       550 7.1056e+01 2.2035e-18 3.9509e-01 -2.1935e-01 3.0630e-01 -1.6270e-01
       551 1.8921e+03 0.0000e+00 3.9739e-01 -2.1728e-01 3.0811e-01 -1.6188e-01
       552 2.3223e+03 0.0000e+00 3.9249e-01 -2.1729e-01 3.0394e-01 -1.6154e-01
       553 9.9765e+02 1.3664e-219 3.9337e-01 -2.1834e-01 3.0481e-01 -1.6244e-01
       554 1.3030e+02 3.0148e-31 3.9423e-01 -2.1844e-01 3.0557e-01 -1.6213e-01
       555 1.8499e+03 0.0000e+00 3.9717e-01 -2.1910e-01 3.0810e-01 -1.6258e-01
       556 2.8965e+02 7.5062e-66 3.9607e-01 -2.1835e-01 3.0711e-01 -1.6239e-01
       557 1.2836e+03 1.1087e-281 3.9319e-01 -2.1784e-01 3.0462e-01 -1.6191e-01
       558 9.6894e+02 2.3464e-213 3.9705e-01 -2.1857e-01 3.0778e-01 -1.6230e-01
       559 3.7920e+00 8.8993e-04 3.9511e-01 -2.1794e-01 3.0636e-01 -1.6213e-01
       560 1.3865e+02 4.6172e-33 3.9568e-01 -2.1851e-01 3.0677e-01 -1.6218e-01
       561 1.1274e+02 1.9533e-27 3.9434e-01 -2.1809e-01 3.0550e-01 -1.6199e-01
       562 4.8040e+02 2.8563e-107 3.9636e-01 -2.1798e-01 3.0743e-01 -1.6216e-01
       563 7.9234e+01 3.6932e-20 3.9572e-01 -2.1811e-01 3.0665e-01 -1.6200e-01
       564 2.0760e+03 0.0000e+00 3.9267e-01 -2.1853e-01 3.0433e-01 -1.6227e-01
       565 1.5736e+03 0.0000e+00 3.9297e-01 -2.1813e-01 3.0425e-01 -1.6229e-01
       566 3.2987e+00 1.1389e-03 3.9490e-01 -2.1884e-01 3.0617e-01 -1.6246e-01
       567 2.1600e+03 0.0000e+00 3.9238e-01 -2.1829e-01 3.0388e-01 -1.6228e-01
       568 1.4276e+02 5.9265e-34 3.9568e-01 -2.1855e-01 3.0677e-01 -1.6242e-01
       569 1.3542e+02 2.3315e-32 3.9588e-01 -2.1712e-01 3.0695e-01 -1.6162e-01
       570 1.3148e+03 1.8515e-288 3.9334e-01 -2.1831e-01 3.0463e-01 -1.6225e-01
       571 6.5632e+02 1.7942e-145 3.9345e-01 -2.1840e-01 3.0492e-01 -1.6205e-01
       572 3.7697e+02 8.2372e-85 3.9408e-01 -2.1804e-01 3.0541e-01 -1.6201e-01
       573 5.9835e+01 6.0219e-16 3.9569e-01 -2.1834e-01 3.0656e-01 -1.6238e-01
       574 3.2516e+02 1.4610e-73 3.9360e-01 -2.1912e-01 3.0508e-01 -1.6271e-01
       575 5.4987e+02 2.3419e-122 3.9409e-01 -2.1800e-01 3.0534e-01 -1.6206e-01
       576 2.3952e+02 5.7755e-55 3.9436e-01 -2.1771e-01 3.0565e-01 -1.6210e-01
       577 4.3822e+01 1.8071e-12 3.9543e-01 -2.1772e-01 3.0660e-01 -1.6160e-01
       578 4.9521e+01 1.0456e-13 3.9548e-01 -2.1817e-01 3.0648e-01 -1.6207e-01
       579 1.7250e+03 0.0000e+00 3.9738e-01 -2.1816e-01 3.0833e-01 -1.6233e-01
       580 1.1848e+03 3.0923e-260 3.9332e-01 -2.1762e-01 3.0465e-01 -1.6181e-01
       581 2.2803e+03 0.0000e+00 3.9779e-01 -2.1759e-01 3.0867e-01 -1.6190e-01
       582 8.4253e+01 3.0027e-21 3.9596e-01 -2.1804e-01 3.0702e-01 -1.6234e-01
       583 1.6517e+02 8.0587e-39 3.9448e-01 -2.1864e-01 3.0563e-01 -1.6247e-01
       584 7.1414e+00 1.6674e-04 3.9575e-01 -2.1673e-01 3.0683e-01 -1.6119e-01
       585 2.1750e+01 1.1216e-07 3.9466e-01 -2.1857e-01 3.0591e-01 -1.6208e-01
       586 6.4921e+02 6.2864e-144 3.9412e-01 -2.1696e-01 3.0537e-01 -1.6174e-01
       587 5.4472e+02 3.0828e-121 3.9645e-01 -2.1820e-01 3.0736e-01 -1.6204e-01
       588 8.6244e-01 3.8504e-03 3.9530e-01 -2.1746e-01 3.0647e-01 -1.6154e-01
       589 1.2958e+02 4.3069e-31 3.9590e-01 -2.1757e-01 3.0682e-01 -1.6183e-01
       590 5.3202e+01 1.6597e-14 3.9459e-01 -2.1839e-01 3.0586e-01 -1.6235e-01
       591 4.1540e+01 5.6570e-12 3.9519e-01 -2.1868e-01 3.0649e-01 -1.6210e-01
       592 9.6612e+02 9.5968e-213 3.9732e-01 -2.1766e-01 3.0811e-01 -1.6170e-01
       593 4.5422e+02 1.3824e-101 3.9382e-01 -2.1830e-01 3.0518e-01 -1.6204e-01
       594 1.4344e+02 4.2225e-34 3.9603e-01 -2.1669e-01 3.0707e-01 -1.6154e-01
       595 5.7221e+01 2.2254e-15 3.9486e-01 -2.1849e-01 3.0612e-01 -1.6226e-01
       596 3.8210e+01 2.9893e-11 3.9470e-01 -2.1938e-01 3.0587e-01 -1.6281e-01
       597 8.3448e+02 3.6947e-184 3.9318e-01 -2.1771e-01 3.0475e-01 -1.6192e-01
       598 1.6275e+02 2.6991e-38 3.9441e-01 -2.1738e-01 3.0558e-01 -1.6164e-01
       599 3.1228e+02 9.1523e-71 3.9410e-01 -2.1767e-01 3.0550e-01 -1.6159e-01
       600 8.7346e+02 1.2716e-192 3.9638e-01 -2.1862e-01 3.0750e-01 -1.6217e-01
       601 5.7059e+02 7.4336e-127 3.9388e-01 -2.1768e-01 3.0539e-01 -1.6175e-01
       602 4.8292e+01 1.9338e-13 3.9460e-01 -2.1937e-01 3.0575e-01 -1.6281e-01
       603 2.6815e+01 8.9102e-09 3.9523e-01 -2.1837e-01 3.0638e-01 -1.6248e-01
       604 3.7921e-01 4.9028e-03 3.9557e-01 -2.1615e-01 3.0659e-01 -1.6090e-01
       605 2.7363e+01 6.7753e-09 3.9466e-01 -2.1878e-01 3.0602e-01 -1.6264e-01
       606 9.7993e+02 9.6356e-216 3.9311e-01 -2.1938e-01 3.0459e-01 -1.6280e-01
       607 2.0053e+02 1.6904e-46 3.9577e-01 -2.1876e-01 3.0685e-01 -1.6242e-01
       608 2.8297e+01 4.2473e-09 3.9567e-01 -2.1774e-01 3.0665e-01 -1.6185e-01
       609 4.2244e+01 3.9785e-12 3.9461e-01 -2.1922e-01 3.0578e-01 -1.6272e-01
       610 4.2345e+02 6.6413e-95 3.9430e-01 -2.1776e-01 3.0547e-01 -1.6206e-01
       611 1.5653e+02 6.0774e-37 3.9578e-01 -2.1825e-01 3.0682e-01 -1.6195e-01
       612 9.2330e+00 5.8596e-05 3.9504e-01 -2.1841e-01 3.0625e-01 -1.6228e-01
       613 1.0386e+01 3.2915e-05 3.9496e-01 -2.1845e-01 3.0612e-01 -1.6247e-01
       614 4.9021e+02 2.1097e-109 3.9424e-01 -2.1831e-01 3.0537e-01 -1.6240e-01
       615 2.4676e+02 1.5481e-56 3.9428e-01 -2.1703e-01 3.0546e-01 -1.6155e-01
       616 5.4717e+02 9.0374e-122 3.9397e-01 -2.1868e-01 3.0525e-01 -1.6262e-01
       617 1.4081e+03 1.0342e-308 3.9299e-01 -2.1765e-01 3.0434e-01 -1.6185e-01
       618 2.8947e+03 0.0000e+00 3.9841e-01 -2.1628e-01 3.0902e-01 -1.6108e-01
       619 4.0894e+02 9.4013e-92 3.9388e-01 -2.1887e-01 3.0529e-01 -1.6263e-01
       620 3.2196e+03 0.0000e+00 3.9213e-01 -2.1666e-01 3.0373e-01 -1.6116e-01
       621 2.2518e+02 7.5084e-52 3.9569e-01 -2.1930e-01 3.0683e-01 -1.6259e-01
       622 1.8774e+01 4.9666e-07 3.9547e-01 -2.1910e-01 3.0649e-01 -1.6273e-01
       623 8.3838e+02 5.2628e-185 3.9653e-01 -2.1760e-01 3.0754e-01 -1.6205e-01
       624 7.5972e+02 6.3387e-168 3.9384e-01 -2.1805e-01 3.0522e-01 -1.6208e-01
       625 2.9500e+03 0.0000e+00 3.9193e-01 -2.1881e-01 3.0379e-01 -1.6248e-01
       626 7.5785e+01 2.0717e-19 3.9592e-01 -2.1765e-01 3.0697e-01 -1.6201e-01
       627 6.8174e+01 9.3130e-18 3.9558e-01 -2.1897e-01 3.0669e-01 -1.6267e-01
       628 4.7131e+02 2.6900e-105 3.9395e-01 -2.1781e-01 3.0520e-01 -1.6190e-01
       629 4.1425e+02 6.5954e-93 3.9339e-01 -2.1925e-01 3.0480e-01 -1.6268e-01
       630 2.6327e+01 1.1378e-08 3.9510e-01 -2.1730e-01 3.0625e-01 -1.6191e-01
       631 1.2371e+02 8.1333e-30 3.9476e-01 -2.1838e-01 3.0600e-01 -1.6228e-01
       632 1.1391e+01 1.9914e-05 3.9502e-01 -2.1820e-01 3.0623e-01 -1.6237e-01
       633 1.1770e+01 1.6482e-05 3.9500e-01 -2.1645e-01 3.0623e-01 -1.6088e-01
       634 6.4364e+01 6.2565e-17 3.9560e-01 -2.1736e-01 3.0677e-01 -1.6175e-01
       635 2.2160e+02 4.4915e-51 3.9424e-01 -2.1762e-01 3.0557e-01 -1.6158e-01
       636 5.2012e+02 6.7729e-116 3.9620e-01 -2.1905e-01 3.0713e-01 -1.6268e-01
       637 1.4681e+02 7.8430e-35 3.9488e-01 -2.1713e-01 3.0604e-01 -1.6150e-01
       638 2.1449e+03 0.0000e+00 3.9277e-01 -2.1765e-01 3.0439e-01 -1.6221e-01
       639 1.5815e+03 0.0000e+00 3.9267e-01 -2.1832e-01 3.0419e-01 -1.6200e-01
       640 1.2778e+02 1.0590e-30 3.9563e-01 -2.1947e-01 3.0674e-01 -1.6262e-01
       641 5.8717e+01 1.0535e-15 3.9567e-01 -2.1673e-01 3.0680e-01 -1.6162e-01
       642 8.6042e+02 8.5944e-190 3.9655e-01 -2.1923e-01 3.0742e-01 -1.6249e-01
       643 1.3528e+02 2.4929e-32 3.9569e-01 -2.1896e-01 3.0680e-01 -1.6257e-01
       644 2.3834e+02 1.0401e-54 3.9431e-01 -2.1863e-01 3.0563e-01 -1.6240e-01
       645 1.8041e+02 3.9609e-42 3.9392e-01 -2.1997e-01 3.0533e-01 -1.6295e-01
       646 1.5192e+02 6.0795e-36 3.9594e-01 -2.1785e-01 3.0696e-01 -1.6195e-01
       647 6.6062e+01 2.6762e-17 3.9581e-01 -2.1741e-01 3.0680e-01 -1.6172e-01
       648 1.4024e+03 1.7439e-307 3.9325e-01 -2.1744e-01 3.0472e-01 -1.6170e-01
       649 2.9887e+01 1.9178e-09 3.9583e-01 -2.1747e-01 3.0674e-01 -1.6193e-01
       650 3.5830e+02 9.3285e-81 3.9630e-01 -2.1786e-01 3.0734e-01 -1.6182e-01
       651 6.2109e+02 8.0209e-138 3.9402e-01 -2.1741e-01 3.0545e-01 -1.6189e-01
       652 3.1175e+02 1.1963e-70 3.9611e-01 -2.1723e-01 3.0719e-01 -1.6134e-01
       653 1.0742e+03 3.2492e-236 3.9331e-01 -2.1790e-01 3.0464e-01 -1.6216e-01
       654 1.6586e+03 0.0000e+00 3.9763e-01 -2.1746e-01 3.0844e-01 -1.6181e-01
       655 1.3766e+02 7.5958e-33 3.9458e-01 -2.1829e-01 3.0575e-01 -1.6212e-01
       656 3.2409e+02 2.5032e-73 3.9371e-01 -2.1939e-01 3.0513e-01 -1.6276e-01
       657 2.3635e+00 1.8179e-03 3.9496e-01 -2.1871e-01 3.0609e-01 -1.6245e-01
       658 4.9832e+00 4.9057e-04 3.9500e-01 -2.1842e-01 3.0616e-01 -1.6249e-01
       659 1.7603e+03 0.0000e+00 3.9268e-01 -2.1804e-01 3.0410e-01 -1.6214e-01
       660 3.5932e+02 5.5840e-81 3.9643e-01 -2.1777e-01 3.0744e-01 -1.6183e-01
       661 4.7501e+03 0.0000e+00 3.9099e-01 -2.1955e-01 3.0277e-01 -1.6275e-01
       662 5.2596e+02 3.6416e-117 3.9616e-01 -2.1864e-01 3.0714e-01 -1.6222e-01
       663 2.2993e+01 6.0236e-08 3.9531e-01 -2.1846e-01 3.0641e-01 -1.6249e-01
       664 1.2365e-01 5.5710e-03 3.9519e-01 -2.1719e-01 3.0648e-01 -1.6175e-01
       665 4.9311e+01 1.1613e-13 3.9576e-01 -2.1719e-01 3.0687e-01 -1.6174e-01
       666 1.2416e+02 6.4879e-30 3.9433e-01 -2.1884e-01 3.0574e-01 -1.6244e-01
       667 1.5771e+03 0.0000e+00 3.9724e-01 -2.1869e-01 3.0806e-01 -1.6251e-01
       668 2.9285e+02 1.5175e-66 3.9586e-01 -2.1820e-01 3.0689e-01 -1.6221e-01
       669 2.9271e+02 1.6290e-66 3.9615e-01 -2.1740e-01 3.0716e-01 -1.6157e-01
       670 1.5307e+03 0.0000e+00 3.9315e-01 -2.1793e-01 3.0465e-01 -1.6209e-01
       671 3.8919e+02 1.8247e-87 3.9478e-01 -2.1632e-01 3.0606e-01 -1.6121e-01
       672 2.3880e+02 8.2798e-55 3.9364e-01 -2.1930e-01 3.0515e-01 -1.6278e-01
       673 1.5679e+02 5.3332e-37 3.9580e-01 -2.1882e-01 3.0685e-01 -1.6264e-01
       674 1.2971e+02 4.0402e-31 3.9428e-01 -2.1872e-01 3.0553e-01 -1.6255e-01
       675 3.5561e+02 3.5701e-80 3.9381e-01 -2.1798e-01 3.0514e-01 -1.6223e-01
       676 1.1008e+03 5.4171e-242 3.9367e-01 -2.1724e-01 3.0497e-01 -1.6175e-01
       677 1.0641e+03 5.1047e-234 3.9335e-01 -2.1740e-01 3.0468e-01 -1.6117e-01
       678 3.1845e+02 4.1804e-72 3.9383e-01 -2.1901e-01 3.0503e-01 -1.6266e-01
       679 3.5620e+02 2.6657e-80 3.9359e-01 -2.1912e-01 3.0499e-01 -1.6267e-01
       680 7.6600e+02 2.7461e-169 3.9671e-01 -2.1757e-01 3.0769e-01 -1.6182e-01
       681 1.4273e+03 6.8770e-313 3.9698e-01 -2.1870e-01 3.0784e-01 -1.6241e-01
       682 5.4625e+02 1.4309e-121 3.9395e-01 -2.1778e-01 3.0520e-01 -1.6176e-01
       683 3.3980e+02 9.7037e-77 3.9428e-01 -2.1866e-01 3.0554e-01 -1.6246e-01
       684 8.5442e+02 1.7270e-188 3.9723e-01 -2.1670e-01 3.0807e-01 -1.6171e-01
       685 7.6392e+02 7.7630e-169 3.9609e-01 -2.1905e-01 3.0719e-01 -1.6259e-01
       686 2.2472e+01 7.8179e-08 3.9479e-01 -2.1731e-01 3.0596e-01 -1.6187e-01
       687 3.7248e-01 4.9193e-03 3.9527e-01 -2.1792e-01 3.0634e-01 -1.6204e-01
       688 3.3300e+02 2.9036e-75 3.9415e-01 -2.1793e-01 3.0539e-01 -1.6209e-01
       689 1.2135e+03 1.8089e-266 3.9332e-01 -2.1815e-01 3.0468e-01 -1.6210e-01
       690 4.9847e+01 8.8831e-14 3.9445e-01 -2.1795e-01 3.0578e-01 -1.6228e-01
       691 2.6092e+01 1.2795e-08 3.9550e-01 -2.1843e-01 3.0653e-01 -1.6229e-01
       692 2.0428e+03 0.0000e+00 3.9255e-01 -2.1794e-01 3.0414e-01 -1.6170e-01
       693 1.6334e+03 0.0000e+00 3.9717e-01 -2.1868e-01 3.0812e-01 -1.6258e-01
       694 6.6031e+02 2.4432e-146 3.9391e-01 -2.1749e-01 3.0532e-01 -1.6194e-01
       695 5.3865e+02 6.4079e-120 3.9658e-01 -2.1745e-01 3.0751e-01 -1.6176e-01
       696 2.3598e+02 3.3905e-54 3.9424e-01 -2.1783e-01 3.0569e-01 -1.6205e-01
       697 5.2084e+01 2.9032e-14 3.9432e-01 -2.1945e-01 3.0563e-01 -1.6277e-01
       698 7.8002e+00 1.1995e-04 3.9533e-01 -2.1677e-01 3.0648e-01 -1.6114e-01
       699 1.5986e+01 2.0024e-06 3.9526e-01 -2.1794e-01 3.0656e-01 -1.6209e-01
       700 2.1006e+02 1.4397e-48 3.9569e-01 -2.1852e-01 3.0683e-01 -1.6244e-01
       701 1.1903e+03 2.0188e-261 3.9362e-01 -2.1656e-01 3.0500e-01 -1.6176e-01
       702 1.8521e+03 0.0000e+00 3.9292e-01 -2.1812e-01 3.0457e-01 -1.6227e-01
       703 1.1429e+03 4.0008e-251 3.9662e-01 -2.1852e-01 3.0762e-01 -1.6192e-01
       704 8.6648e+02 4.1668e-191 3.9328e-01 -2.1800e-01 3.0478e-01 -1.6206e-01
       705 1.5583e+02 8.5841e-37 3.9414e-01 -2.1820e-01 3.0550e-01 -1.6226e-01
       706 6.1748e+01 2.3144e-16 3.9472e-01 -2.1885e-01 3.0599e-01 -1.6243e-01
       707 3.4142e+02 4.3179e-77 3.9610e-01 -2.1932e-01 3.0708e-01 -1.6236e-01
       708 6.6591e+02 1.4866e-147 3.9373e-01 -2.1830e-01 3.0513e-01 -1.6220e-01
       709 1.8712e+01 5.1224e-07 3.9563e-01 -2.1835e-01 3.0666e-01 -1.6234e-01
       710 2.1194e+00 2.0539e-03 3.9482e-01 -2.1908e-01 3.0606e-01 -1.6252e-01
       711 4.9221e+01 1.2148e-13 3.9548e-01 -2.1817e-01 3.0667e-01 -1.6201e-01
       712 9.3206e+02 2.3898e-205 3.9338e-01 -2.1852e-01 3.0472e-01 -1.6224e-01
       713 4.1552e+02 3.4929e-93 3.9611e-01 -2.1904e-01 3.0704e-01 -1.6257e-01
       714 1.1406e+03 1.2369e-250 3.9325e-01 -2.1778e-01 3.0474e-01 -1.6184e-01
       715 5.4172e+01 1.0219e-14 3.9573e-01 -2.1840e-01 3.0677e-01 -1.6247e-01
       716 3.4697e+02 2.6850e-78 3.9617e-01 -2.1798e-01 3.0716e-01 -1.6205e-01
       717 1.1872e+03 9.2384e-261 3.9315e-01 -2.1799e-01 3.0467e-01 -1.6213e-01
       718 4.3461e+00 6.7460e-04 3.9452e-01 -2.1922e-01 3.0592e-01 -1.6252e-01
       719 8.4419e+02 2.8835e-186 3.9686e-01 -2.1879e-01 3.0757e-01 -1.6256e-01
       720 3.8795e+02 3.3931e-87 3.9420e-01 -2.1712e-01 3.0541e-01 -1.6159e-01
       721 2.9603e+01 2.2107e-09 3.9520e-01 -2.1827e-01 3.0636e-01 -1.6237e-01
       722 1.0633e+03 7.7273e-234 3.9357e-01 -2.1731e-01 3.0490e-01 -1.6181e-01
       723 9.1686e+01 7.3007e-23 3.9412e-01 -2.1869e-01 3.0557e-01 -1.6251e-01
       724 8.5399e+02 2.1466e-188 3.9675e-01 -2.1787e-01 3.0754e-01 -1.6200e-01
       725 1.3554e+03 2.8953e-297 3.9727e-01 -2.1797e-01 3.0804e-01 -1.6231e-01
       726 1.7141e+02 3.5553e-40 3.9491e-01 -2.1717e-01 3.0602e-01 -1.6150e-01
       727 1.4972e+01 3.3247e-06 3.9500e-01 -2.1873e-01 3.0616e-01 -1.6256e-01
       728 4.8409e+02 4.5124e-108 3.9634e-01 -2.1712e-01 3.0736e-01 -1.6164e-01
       729 6.6456e+00 2.1365e-04 3.9497e-01 -2.1791e-01 3.0604e-01 -1.6190e-01
       730 2.6972e+03 0.0000e+00 3.9831e-01 -2.1678e-01 3.0913e-01 -1.6145e-01
       731 4.5013e+02 1.0681e-100 3.9616e-01 -2.1879e-01 3.0729e-01 -1.6240e-01
       732 2.0631e+02 9.3937e-48 3.9593e-01 -2.1851e-01 3.0693e-01 -1.6213e-01
       733 1.8345e+03 0.0000e+00 3.9302e-01 -2.1748e-01 3.0445e-01 -1.6182e-01
       734 2.7265e+01 7.1179e-09 3.9440e-01 -2.1847e-01 3.0585e-01 -1.6241e-01
       735 9.8563e+02 5.5669e-217 3.9319e-01 -2.1892e-01 3.0461e-01 -1.6231e-01
       736 5.5255e+00 3.7406e-04 3.9538e-01 -2.1797e-01 3.0643e-01 -1.6219e-01
       737 3.6712e+02 1.1312e-82 3.9392e-01 -2.1809e-01 3.0523e-01 -1.6217e-01
       738 5.2075e+02 4.9249e-116 3.9389e-01 -2.1820e-01 3.0524e-01 -1.6226e-01
       739 1.2358e+03 2.6162e-271 3.9284e-01 -2.1843e-01 3.0435e-01 -1.6223e-01
       740 3.9981e+01 1.2331e-11 3.9531e-01 -2.1753e-01 3.0660e-01 -1.6171e-01
       741 2.9397e+02 8.6526e-67 3.9367e-01 -2.1949e-01 3.0507e-01 -1.6279e-01
       742 6.1379e+01 2.7829e-16 3.9455e-01 -2.1857e-01 3.0593e-01 -1.6249e-01
       743 1.1737e+02 1.9370e-28 3.9451e-01 -2.1855e-01 3.0579e-01 -1.6241e-01
       744 3.9321e+01 1.7156e-11 3.9453e-01 -2.1848e-01 3.0574e-01 -1.6241e-01
       745 1.0006e+03 3.1705e-220 3.9338e-01 -2.1815e-01 3.0493e-01 -1.6213e-01
       746 1.6286e+02 2.5559e-38 3.9391e-01 -2.1885e-01 3.0532e-01 -1.6233e-01
       747 1.4183e+02 9.4320e-34 3.9438e-01 -2.1849e-01 3.0563e-01 -1.6235e-01
       748 6.0727e+01 3.8554e-16 3.9597e-01 -2.1754e-01 3.0689e-01 -1.6185e-01
       749 2.3858e+02 9.2509e-55 3.9403e-01 -2.1849e-01 3.0532e-01 -1.6245e-01
       750 7.9439e+02 1.8786e-175 3.9330e-01 -2.1779e-01 3.0491e-01 -1.6207e-01
       751 3.4985e+02 6.3685e-79 3.9604e-01 -2.1782e-01 3.0713e-01 -1.6215e-01
       752 8.5946e+02 1.3930e-189 3.9351e-01 -2.1752e-01 3.0491e-01 -1.6195e-01
       753 7.6060e-01 4.0516e-03 3.9465e-01 -2.1808e-01 3.0601e-01 -1.6192e-01
       754 2.4089e+03 0.0000e+00 3.9753e-01 -2.2033e-01 3.0849e-01 -1.6307e-01
       755 2.5204e+03 0.0000e+00 3.9222e-01 -2.1851e-01 3.0396e-01 -1.6220e-01
       756 5.1168e+02 4.6126e-114 3.9609e-01 -2.1855e-01 3.0707e-01 -1.6256e-01
       757 4.0746e+02 1.9636e-91 3.9403e-01 -2.1874e-01 3.0522e-01 -1.6253e-01
       758 2.3744e+02 1.6359e-54 3.9416e-01 -2.1833e-01 3.0544e-01 -1.6245e-01
       759 7.0311e+01 3.1986e-18 3.9476e-01 -2.1840e-01 3.0602e-01 -1.6220e-01
       760 8.0540e+01 1.9218e-20 3.9461e-01 -2.1865e-01 3.0587e-01 -1.6236e-01
       761 5.7858e+00 3.2841e-04 3.9495e-01 -2.1909e-01 3.0621e-01 -1.6269e-01
       762 1.3501e+03 4.0404e-296 3.9694e-01 -2.1925e-01 3.0783e-01 -1.6262e-01
       763 3.1163e-02 5.8347e-03 3.9491e-01 -2.1943e-01 3.0608e-01 -1.6275e-01
       764 9.9959e+02 5.1709e-220 3.9655e-01 -2.1870e-01 3.0745e-01 -1.6245e-01
       765 1.9023e+03 0.0000e+00 3.9267e-01 -2.1882e-01 3.0411e-01 -1.6265e-01
       766 9.8760e+02 2.0794e-217 3.9679e-01 -2.1813e-01 3.0772e-01 -1.6185e-01
       767 3.0296e+01 1.5638e-09 3.9491e-01 -2.1835e-01 3.0617e-01 -1.6247e-01
       768 5.8712e+01 1.0560e-15 3.9561e-01 -2.1864e-01 3.0669e-01 -1.6258e-01
       769 4.5763e+02 2.5144e-102 3.9609e-01 -2.1815e-01 3.0718e-01 -1.6220e-01
       770 4.3710e+02 7.2168e-98 3.9395e-01 -2.1853e-01 3.0534e-01 -1.6219e-01
       771 4.1679e+03 0.0000e+00 3.9132e-01 -2.1807e-01 3.0306e-01 -1.6184e-01
       772 7.4246e+02 3.5441e-164 3.9383e-01 -2.1840e-01 3.0512e-01 -1.6218e-01
       773 4.1303e+02 1.2159e-92 3.9596e-01 -2.1862e-01 3.0697e-01 -1.6241e-01
       774 2.1014e+02 1.3818e-48 3.9414e-01 -2.1859e-01 3.0552e-01 -1.6228e-01
       775 3.8680e+02 6.0338e-87 3.9382e-01 -2.1774e-01 3.0523e-01 -1.6169e-01
       776 4.4690e+03 0.0000e+00 3.9124e-01 -2.1748e-01 3.0306e-01 -1.6212e-01
       777 1.5122e+02 8.6342e-36 3.9570e-01 -2.1765e-01 3.0674e-01 -1.6198e-01
       778 1.1624e+02 3.4015e-28 3.9430e-01 -2.1994e-01 3.0548e-01 -1.6298e-01
       779 3.8378e+02 2.7318e-86 3.9620e-01 -2.1846e-01 3.0717e-01 -1.6240e-01
       780 2.6526e+01 1.0296e-08 3.9482e-01 -2.1745e-01 3.0609e-01 -1.6147e-01
       781 2.1486e+03 0.0000e+00 3.9273e-01 -2.1768e-01 3.0418e-01 -1.6230e-01
       782 1.5533e+03 0.0000e+00 3.9756e-01 -2.1707e-01 3.0836e-01 -1.6159e-01
       783 5.1534e+01 3.8218e-14 3.9549e-01 -2.1880e-01 3.0651e-01 -1.6231e-01
       784 1.2335e+01 1.2425e-05 3.9455e-01 -2.1832e-01 3.0600e-01 -1.6215e-01
       785 2.3474e+02 6.2887e-54 3.9625e-01 -2.1786e-01 3.0721e-01 -1.6230e-01
       786 3.0829e+02 6.7442e-70 3.9615e-01 -2.1712e-01 3.0727e-01 -1.6163e-01
       787 4.9431e+00 5.0049e-04 3.9490e-01 -2.1887e-01 3.0604e-01 -1.6259e-01
       788 4.2718e+02 1.0272e-95 3.9435e-01 -2.1760e-01 3.0549e-01 -1.6154e-01
       789 1.5735e+02 4.0154e-37 3.9417e-01 -2.1932e-01 3.0548e-01 -1.6268e-01
       790 8.4016e+01 3.3801e-21 3.9582e-01 -2.1745e-01 3.0678e-01 -1.6200e-01
       791 7.3083e+01 7.9974e-19 3.9517e-01 -2.1865e-01 3.0632e-01 -1.6252e-01
       792 1.5125e+03 0.0000e+00 3.9333e-01 -2.1780e-01 3.0473e-01 -1.6178e-01
       793 1.6737e+02 2.6814e-39 3.9441e-01 -2.1769e-01 3.0563e-01 -1.6192e-01
       794 8.1308e+00 1.0167e-04 3.9533e-01 -2.1873e-01 3.0649e-01 -1.6240e-01
       795 2.6066e+02 1.4810e-59 3.9612e-01 -2.1833e-01 3.0718e-01 -1.6211e-01
       796 8.7762e+01 5.1944e-22 3.9542e-01 -2.1884e-01 3.0653e-01 -1.6245e-01
       797 4.0274e+01 1.0651e-11 3.9539e-01 -2.1735e-01 3.0655e-01 -1.6157e-01
       798 1.0421e+03 2.9721e-229 3.9694e-01 -2.1879e-01 3.0767e-01 -1.6230e-01
       799 9.1012e+02 1.3860e-200 3.9339e-01 -2.1828e-01 3.0479e-01 -1.6239e-01
       800 1.4941e+02 2.1335e-35 3.9618e-01 -2.1721e-01 3.0712e-01 -1.6142e-01
       801 4.8232e+02 1.0941e-107 3.9374e-01 -2.1864e-01 3.0498e-01 -1.6245e-01
       802 5.0125e+02 8.4671e-112 3.9370e-01 -2.1864e-01 3.0500e-01 -1.6245e-01
       803 5.6642e+00 3.4899e-04 3.9482e-01 -2.1868e-01 3.0602e-01 -1.6229e-01
       804 5.0066e+02 1.1355e-111 3.9373e-01 -2.1846e-01 3.0512e-01 -1.6245e-01
       805 3.5630e+02 2.5338e-80 3.9432e-01 -2.1760e-01 3.0559e-01 -1.6168e-01
       806 1.2392e+03 4.9491e-272 3.9301e-01 -2.1941e-01 3.0447e-01 -1.6284e-01
       807 1.0801e+03 1.6755e-237 3.9349e-01 -2.1765e-01 3.0479e-01 -1.6198e-01
       808 2.5418e+01 1.7922e-08 3.9489e-01 -2.1836e-01 3.0607e-01 -1.6224e-01
       809 4.0239e+02 2.4776e-90 3.9438e-01 -2.1674e-01 3.0554e-01 -1.6145e-01
       810 4.3455e+02 2.5781e-97 3.9604e-01 -2.1844e-01 3.0703e-01 -1.6247e-01
       811 4.0660e+02 3.0311e-91 3.9413e-01 -2.1786e-01 3.0542e-01 -1.6220e-01
       812 1.6494e+02 9.0339e-39 3.9453e-01 -2.1835e-01 3.0565e-01 -1.6231e-01
       813 6.2965e+01 1.2591e-16 3.9457e-01 -2.1827e-01 3.0585e-01 -1.6174e-01
       814 2.1666e+02 5.3260e-50 3.9413e-01 -2.1812e-01 3.0550e-01 -1.6212e-01
       815 1.5205e+03 0.0000e+00 3.9281e-01 -2.1798e-01 3.0428e-01 -1.6203e-01
       816 2.1912e+03 0.0000e+00 3.9234e-01 -2.1870e-01 3.0399e-01 -1.6224e-01
       817 9.7779e+01 3.4699e-24 3.9509e-01 -2.1663e-01 3.0634e-01 -1.6151e-01
       818 5.5050e+02 1.7093e-122 3.9368e-01 -2.1781e-01 3.0496e-01 -1.6184e-01
       819 2.1134e+02 7.6035e-49 3.9414e-01 -2.1982e-01 3.0548e-01 -1.6273e-01
       820 1.3101e+03 1.9305e-287 3.9711e-01 -2.1906e-01 3.0799e-01 -1.6229e-01
       821 9.7719e+02 3.7865e-215 3.9358e-01 -2.1923e-01 3.0490e-01 -1.6251e-01
       822 4.1819e+03 0.0000e+00 3.9870e-01 -2.1781e-01 3.0931e-01 -1.6191e-01
       823 3.3601e+03 0.0000e+00 3.9864e-01 -2.1811e-01 3.0931e-01 -1.6227e-01
       824 2.9870e+01 1.9346e-09 3.9502e-01 -2.1789e-01 3.0609e-01 -1.6214e-01
       825 6.4429e+01 6.0570e-17 3.9553e-01 -2.1752e-01 3.0670e-01 -1.6189e-01
       826 2.8483e+02 8.3737e-65 3.9598e-01 -2.1831e-01 3.0704e-01 -1.6235e-01
       827 7.3008e+01 8.3057e-19 3.9559e-01 -2.1960e-01 3.0661e-01 -1.6287e-01
       828 1.8022e+02 4.3439e-42 3.9414e-01 -2.1869e-01 3.0547e-01 -1.6247e-01
       829 2.0856e+02 3.0575e-48 3.9417e-01 -2.1754e-01 3.0549e-01 -1.6162e-01
       830 2.1791e+02 2.8464e-50 3.9427e-01 -2.1825e-01 3.0554e-01 -1.6210e-01
       831 4.9184e+02 9.3390e-110 3.9666e-01 -2.1752e-01 3.0757e-01 -1.6200e-01
       832 1.9034e+03 0.0000e+00 3.9264e-01 -2.1681e-01 3.0417e-01 -1.6162e-01
       833 1.2544e+01 1.1191e-05 3.9525e-01 -2.1889e-01 3.0635e-01 -1.6259e-01
       834 7.7496e+03 0.0000e+00 3.8965e-01 -2.1945e-01 3.0159e-01 -1.6282e-01
       835 1.0002e+02 1.1330e-24 3.9556e-01 -2.1780e-01 3.0665e-01 -1.6185e-01
       836 1.1339e+03 3.6201e-249 3.9699e-01 -2.1852e-01 3.0790e-01 -1.6256e-01
       837 7.4035e+02 1.0166e-163 3.9336e-01 -2.1921e-01 3.0486e-01 -1.6277e-01
       838 1.1528e+03 2.7709e-253 3.9714e-01 -2.1851e-01 3.0785e-01 -1.6232e-01
       839 2.4701e+02 1.3639e-56 3.9660e-01 -2.1689e-01 3.0740e-01 -1.6160e-01
       840 1.5529e+03 0.0000e+00 3.9288e-01 -2.1817e-01 3.0425e-01 -1.6245e-01
       841 7.8159e+00 1.1901e-04 3.9531e-01 -2.1856e-01 3.0645e-01 -1.6217e-01
       842 2.1498e+02 1.2303e-49 3.9590e-01 -2.1893e-01 3.0691e-01 -1.6265e-01
       843 1.2430e+03 7.1449e-273 3.9268e-01 -2.1921e-01 3.0428e-01 -1.6269e-01
       844 1.1040e-01 5.6081e-03 3.9472e-01 -2.1862e-01 3.0598e-01 -1.6239e-01
       845 1.7900e+02 8.0149e-42 3.9591e-01 -2.1794e-01 3.0686e-01 -1.6231e-01
       846 4.0057e+02 6.1632e-90 3.9612e-01 -2.1892e-01 3.0710e-01 -1.6250e-01
       847 4.8130e+01 2.0969e-13 3.9489e-01 -2.1848e-01 3.0608e-01 -1.6237e-01
       848 1.9698e+03 0.0000e+00 3.9779e-01 -2.1866e-01 3.0841e-01 -1.6258e-01
       849 4.6035e+02 6.4342e-103 3.9648e-01 -2.1877e-01 3.0740e-01 -1.6254e-01
       850 9.9031e+02 5.3737e-218 3.9680e-01 -2.1896e-01 3.0768e-01 -1.6265e-01
       851 1.0210e+02 4.0075e-25 3.9565e-01 -2.1815e-01 3.0682e-01 -1.6224e-01
       852 2.8556e+03 0.0000e+00 3.9797e-01 -2.1876e-01 3.0870e-01 -1.6253e-01
       853 5.7175e+02 4.1600e-127 3.9401e-01 -2.1773e-01 3.0529e-01 -1.6224e-01
       854 1.6570e+02 6.1860e-39 3.9413e-01 -2.1837e-01 3.0529e-01 -1.6238e-01
       855 1.1592e+02 3.9865e-28 3.9437e-01 -2.1741e-01 3.0565e-01 -1.6187e-01
       856 1.2392e+02 7.2920e-30 3.9453e-01 -2.1839e-01 3.0569e-01 -1.6200e-01
       857 4.2366e+00 7.1255e-04 3.9518e-01 -2.1821e-01 3.0633e-01 -1.6208e-01
       858 1.8660e+02 1.7931e-43 3.9581e-01 -2.1805e-01 3.0678e-01 -1.6206e-01
       859 3.0838e+02 6.4378e-70 3.9432e-01 -2.1742e-01 3.0557e-01 -1.6187e-01
       860 7.8242e-01 4.0076e-03 3.9509e-01 -2.1833e-01 3.0620e-01 -1.6207e-01
       861 5.5045e+01 6.6067e-15 3.9462e-01 -2.1847e-01 3.0587e-01 -1.6232e-01
       862 8.1297e+02 1.7323e-179 3.9370e-01 -2.1837e-01 3.0499e-01 -1.6241e-01
       863 1.9810e+02 5.7114e-46 3.9609e-01 -2.1795e-01 3.0706e-01 -1.6224e-01
       864 3.5510e+02 4.6026e-80 3.9626e-01 -2.1780e-01 3.0744e-01 -1.6171e-01
       865 2.0951e+03 0.0000e+00 3.9239e-01 -2.1863e-01 3.0394e-01 -1.6223e-01
       866 5.6347e+02 2.6167e-125 3.9391e-01 -2.1866e-01 3.0519e-01 -1.6222e-01
       867 2.9388e+03 0.0000e+00 3.9870e-01 -2.1871e-01 3.0914e-01 -1.6256e-01
       868 3.5551e+00 1.0019e-03 3.9521e-01 -2.1862e-01 3.0636e-01 -1.6247e-01
       869 8.3484e+02 3.0834e-184 3.9698e-01 -2.1846e-01 3.0784e-01 -1.6211e-01
       870 4.4890e+02 1.9747e-100 3.9433e-01 -2.1650e-01 3.0559e-01 -1.6166e-01
       871 4.8060e+01 2.1712e-13 3.9497e-01 -2.1737e-01 3.0621e-01 -1.6178e-01
       872 3.8970e+02 1.4153e-87 3.9377e-01 -2.1954e-01 3.0514e-01 -1.6275e-01
       873 1.6892e+01 1.2728e-06 3.9535e-01 -2.1813e-01 3.0651e-01 -1.6198e-01
       874 3.7576e+03 0.0000e+00 3.9119e-01 -2.1874e-01 3.0306e-01 -1.6231e-01
       875 8.1594e+02 3.9303e-180 3.9363e-01 -2.1897e-01 3.0491e-01 -1.6247e-01
       876 2.0393e+02 3.0913e-47 3.9599e-01 -2.1827e-01 3.0704e-01 -1.6216e-01
       877 2.0914e+03 0.0000e+00 3.9753e-01 -2.1804e-01 3.0818e-01 -1.6225e-01
       878 3.2391e+03 0.0000e+00 3.9794e-01 -2.1753e-01 3.0886e-01 -1.6175e-01
       879 3.3309e+02 2.7743e-75 3.9431e-01 -2.1671e-01 3.0558e-01 -1.6120e-01
       880 2.2702e+02 2.9860e-52 3.9610e-01 -2.1844e-01 3.0712e-01 -1.6245e-01
       881 2.5275e+02 7.7246e-58 3.9460e-01 -2.1561e-01 3.0584e-01 -1.6058e-01
       882 8.3688e+00 9.0267e-05 3.9476e-01 -2.1792e-01 3.0604e-01 -1.6208e-01
       883 4.3485e+02 2.2145e-97 3.9383e-01 -2.1774e-01 3.0522e-01 -1.6148e-01
       884 2.0240e+02 6.6434e-47 3.9423e-01 -2.1809e-01 3.0563e-01 -1.6232e-01
       885 1.2473e+02 4.8811e-30 3.9538e-01 -2.1922e-01 3.0652e-01 -1.6271e-01
       886 6.8725e+00 1.9074e-04 3.9454e-01 -2.1892e-01 3.0578e-01 -1.6247e-01
       887 1.4194e+02 8.9157e-34 3.9599e-01 -2.1778e-01 3.0691e-01 -1.6213e-01
       888 6.4845e+03 0.0000e+00 3.9066e-01 -2.1800e-01 3.0245e-01 -1.6211e-01
       889 6.8571e+02 7.4599e-152 3.9623e-01 -2.1973e-01 3.0724e-01 -1.6261e-01
       890 1.5544e+02 1.0467e-36 3.9549e-01 -2.1956e-01 3.0666e-01 -1.6285e-01
       891 3.2165e+02 8.4586e-73 3.9439e-01 -2.1802e-01 3.0567e-01 -1.6228e-01
       892 3.4667e+03 0.0000e+00 3.9187e-01 -2.1771e-01 3.0353e-01 -1.6193e-01
       893 3.1928e+02 2.7681e-72 3.9562e-01 -2.1932e-01 3.0666e-01 -1.6263e-01
       894 2.4909e+03 0.0000e+00 3.9809e-01 -2.1740e-01 3.0873e-01 -1.6178e-01
       895 2.0745e+03 0.0000e+00 3.9753e-01 -2.1818e-01 3.0839e-01 -1.6237e-01
       896 2.2630e+01 7.2234e-08 3.9550e-01 -2.1841e-01 3.0655e-01 -1.6246e-01
       897 3.0041e+02 3.4644e-68 3.9645e-01 -2.1735e-01 3.0742e-01 -1.6180e-01
       898 7.8795e+02 4.6974e-174 3.9640e-01 -2.1880e-01 3.0746e-01 -1.6259e-01
       899 2.3426e+02 8.0183e-54 3.9608e-01 -2.1618e-01 3.0709e-01 -1.6115e-01
       900 8.8791e+02 9.2410e-196 3.9654e-01 -2.1857e-01 3.0754e-01 -1.6233e-01
       901 4.9547e+02 1.5263e-110 3.9702e-01 -2.1702e-01 3.0786e-01 -1.6168e-01
       902 1.1680e+03 1.4259e-256 3.9314e-01 -2.1717e-01 3.0473e-01 -1.6165e-01
       903 1.5490e+02 1.3683e-36 3.9616e-01 -2.1726e-01 3.0710e-01 -1.6177e-01
       904 1.1181e+02 3.1188e-27 3.9595e-01 -2.1667e-01 3.0694e-01 -1.6143e-01
       905 1.8863e+02 6.4971e-44 3.9450e-01 -2.1741e-01 3.0569e-01 -1.6163e-01
       906 5.6449e+02 1.5676e-125 3.9372e-01 -2.1813e-01 3.0507e-01 -1.6203e-01
       907 7.8781e+02 5.0445e-174 3.9337e-01 -2.1940e-01 3.0472e-01 -1.6278e-01
       908 2.3103e+03 0.0000e+00 3.9269e-01 -2.1815e-01 3.0407e-01 -1.6216e-01
       909 3.7454e+02 2.7655e-84 3.9613e-01 -2.1819e-01 3.0707e-01 -1.6219e-01
       910 1.2680e+03 2.6985e-278 3.9707e-01 -2.1696e-01 3.0805e-01 -1.6172e-01
       911 3.5228e+02 1.8873e-79 3.9605e-01 -2.1833e-01 3.0713e-01 -1.6200e-01
       912 3.2387e+02 2.7816e-73 3.9631e-01 -2.1818e-01 3.0729e-01 -1.6243e-01
       913 2.0054e+03 0.0000e+00 3.9764e-01 -2.1950e-01 3.0849e-01 -1.6285e-01
       914 7.1171e-01 4.1518e-03 3.9531e-01 -2.1760e-01 3.0631e-01 -1.6199e-01
       915 2.5910e+02 3.2370e-59 3.9396e-01 -2.1835e-01 3.0533e-01 -1.6235e-01
       916 2.5782e+02 6.1353e-59 3.9442e-01 -2.1711e-01 3.0559e-01 -1.6186e-01
       917 1.2760e+03 4.9132e-280 3.9275e-01 -2.1939e-01 3.0424e-01 -1.6279e-01
       918 5.1799e+02 1.9657e-115 3.9640e-01 -2.1832e-01 3.0735e-01 -1.6245e-01
       919 1.1709e+03 3.3106e-257 3.9701e-01 -2.1843e-01 3.0774e-01 -1.6247e-01
       920 1.3684e+02 1.1450e-32 3.9453e-01 -2.1719e-01 3.0571e-01 -1.6160e-01
       921 8.8225e+02 1.5626e-194 3.9398e-01 -2.1707e-01 3.0518e-01 -1.6156e-01
       922 2.6814e+02 3.5213e-61 3.9619e-01 -2.1790e-01 3.0721e-01 -1.6225e-01
       923 5.3737e+02 1.2122e-119 3.9645e-01 -2.1826e-01 3.0728e-01 -1.6219e-01
       924 5.6756e+02 3.3775e-126 3.9632e-01 -2.1872e-01 3.0742e-01 -1.6258e-01
       925 6.1876e+01 2.1706e-16 3.9470e-01 -2.1874e-01 3.0590e-01 -1.6228e-01
       926 1.0083e+03 6.5911e-222 3.9635e-01 -2.1943e-01 3.0736e-01 -1.6235e-01
       927 7.9128e+02 8.8706e-175 3.9658e-01 -2.1829e-01 3.0751e-01 -1.6201e-01
       928 2.3514e+03 0.0000e+00 3.9798e-01 -2.1754e-01 3.0870e-01 -1.6193e-01
       929 1.1074e+03 1.9660e-243 3.9333e-01 -2.1850e-01 3.0484e-01 -1.6223e-01
       930 1.5473e+02 1.4883e-36 3.9599e-01 -2.1884e-01 3.0698e-01 -1.6256e-01
       931 1.3829e+02 5.5411e-33 3.9628e-01 -2.1705e-01 3.0731e-01 -1.6149e-01
       932 6.5977e+02 3.1979e-146 3.9347e-01 -2.1801e-01 3.0489e-01 -1.6196e-01
       933 2.7975e+01 4.9908e-09 3.9485e-01 -2.1830e-01 3.0607e-01 -1.6237e-01
       934 6.2188e+01 1.8574e-16 3.9576e-01 -2.1763e-01 3.0679e-01 -1.6150e-01
       935 2.1683e+03 0.0000e+00 3.9229e-01 -2.1744e-01 3.0390e-01 -1.6169e-01
       936 4.5170e+02 4.8658e-101 3.9365e-01 -2.1846e-01 3.0509e-01 -1.6251e-01
       937 3.7721e+02 7.2848e-85 3.9446e-01 -2.1747e-01 3.0564e-01 -1.6187e-01
       938 1.8123e+03 0.0000e+00 3.9740e-01 -2.1923e-01 3.0829e-01 -1.6255e-01
       939 6.6724e+02 7.6449e-148 3.9706e-01 -2.1772e-01 3.0791e-01 -1.6179e-01
       940 4.2608e+02 1.7771e-95 3.9364e-01 -2.1832e-01 3.0505e-01 -1.6234e-01
       941 3.5260e+02 1.6054e-79 3.9648e-01 -2.1753e-01 3.0739e-01 -1.6193e-01
       942 3.4215e+02 2.9987e-77 3.9634e-01 -2.1757e-01 3.0739e-01 -1.6169e-01
       943 3.8359e+01 2.7743e-11 3.9558e-01 -2.1821e-01 3.0668e-01 -1.6194e-01
       944 3.3881e+03 0.0000e+00 3.9856e-01 -2.1663e-01 3.0925e-01 -1.6132e-01
       945 2.6744e+02 4.9988e-61 3.9591e-01 -2.1913e-01 3.0697e-01 -1.6269e-01
       946 3.0415e+02 5.3288e-69 3.9402e-01 -2.1818e-01 3.0539e-01 -1.6231e-01
       947 2.3245e+02 1.9832e-53 3.9598e-01 -2.1699e-01 3.0703e-01 -1.6132e-01
       948 2.9982e+00 1.3235e-03 3.9484e-01 -2.1861e-01 3.0606e-01 -1.6250e-01
       949 1.6488e+03 0.0000e+00 3.9285e-01 -2.1781e-01 3.0428e-01 -1.6223e-01
       950 2.9593e+02 3.2494e-67 3.9426e-01 -2.1849e-01 3.0551e-01 -1.6228e-01
       951 2.8325e+02 1.8400e-64 3.9346e-01 -2.1935e-01 3.0490e-01 -1.6276e-01
       952 6.6937e+02 2.6384e-148 3.9671e-01 -2.1832e-01 3.0760e-01 -1.6230e-01
       953 2.8405e+03 0.0000e+00 3.9863e-01 -2.1767e-01 3.0915e-01 -1.6192e-01
       954 2.2696e+03 0.0000e+00 3.9788e-01 -2.1811e-01 3.0857e-01 -1.6227e-01
       955 6.8834e+02 2.0053e-152 3.9349e-01 -2.1877e-01 3.0490e-01 -1.6240e-01
       956 7.8545e+02 1.6396e-173 3.9334e-01 -2.1885e-01 3.0483e-01 -1.6266e-01
       957 2.8930e+03 0.0000e+00 3.9188e-01 -2.1847e-01 3.0346e-01 -1.6245e-01
       958 4.5232e+02 3.5648e-101 3.9336e-01 -2.1963e-01 3.0481e-01 -1.6288e-01
       959 1.0352e+03 9.4109e-228 3.9335e-01 -2.1838e-01 3.0486e-01 -1.6239e-01
       960 3.4103e+02 5.2412e-77 3.9418e-01 -2.1763e-01 3.0549e-01 -1.6164e-01
       961 6.6111e+02 1.6395e-146 3.9692e-01 -2.1868e-01 3.0765e-01 -1.6241e-01
       962 9.6536e+01 6.4589e-24 3.9394e-01 -2.1850e-01 3.0539e-01 -1.6222e-01
       963 1.4386e+03 2.3672e-315 3.9293e-01 -2.1795e-01 3.0438e-01 -1.6218e-01
       964 7.8595e+02 1.2785e-173 3.9705e-01 -2.1851e-01 3.0778e-01 -1.6256e-01
       965 5.8158e+01 1.3930e-15 3.9513e-01 -2.1671e-01 3.0621e-01 -1.6140e-01
       966 1.9294e+02 7.5113e-45 3.9443e-01 -2.1785e-01 3.0575e-01 -1.6203e-01
       967 1.4791e+03 4.9407e-324 3.9702e-01 -2.1859e-01 3.0793e-01 -1.6237e-01
       968 1.7519e+02 5.3738e-41 3.9599e-01 -2.1783e-01 3.0701e-01 -1.6196e-01
       969 2.1964e+03 0.0000e+00 3.9257e-01 -2.1840e-01 3.0395e-01 -1.6253e-01
       970 1.0355e+02 1.9403e-25 3.9572e-01 -2.1880e-01 3.0675e-01 -1.6255e-01
       971 4.6547e+00 5.7815e-04 3.9510e-01 -2.1696e-01 3.0620e-01 -1.6149e-01
       972 1.8403e+00 2.3613e-03 3.9518e-01 -2.1886e-01 3.0629e-01 -1.6231e-01
       973 1.8785e+02 9.5719e-44 3.9589e-01 -2.1806e-01 3.0703e-01 -1.6233e-01
       974 1.8914e+02 5.0331e-44 3.9438e-01 -2.1823e-01 3.0571e-01 -1.6228e-01
       975 1.2813e+02 8.9239e-31 3.9446e-01 -2.1847e-01 3.0572e-01 -1.6235e-01
       976 4.7366e+02 8.3144e-106 3.9646e-01 -2.1760e-01 3.0753e-01 -1.6183e-01
       977 5.8474e+02 6.2789e-130 3.9421e-01 -2.1667e-01 3.0552e-01 -1.6158e-01
       978 1.9221e+02 1.0862e-44 3.9431e-01 -2.1857e-01 3.0564e-01 -1.6245e-01
       979 7.3746e+02 4.3136e-163 3.9672e-01 -2.1719e-01 3.0762e-01 -1.6165e-01
       980 4.4526e+02 1.2190e-99 3.9646e-01 -2.1794e-01 3.0750e-01 -1.6181e-01
       981 8.6660e+01 9.0119e-22 3.9542e-01 -2.1954e-01 3.0654e-01 -1.6285e-01
       982 1.3922e+03 2.8375e-305 3.9727e-01 -2.1795e-01 3.0807e-01 -1.6187e-01
       983 1.1193e+02 2.9351e-27 3.9549e-01 -2.1941e-01 3.0671e-01 -1.6259e-01
       984 1.1592e+02 3.9826e-28 3.9588e-01 -2.1765e-01 3.0680e-01 -1.6181e-01
       985 2.0496e+02 1.8462e-47 3.9609e-01 -2.1830e-01 3.0706e-01 -1.6219e-01
       986 2.0704e+01 1.8924e-07 3.9523e-01 -2.1861e-01 3.0634e-01 -1.6207e-01
       987 4.4841e+01 1.0855e-12 3.9563e-01 -2.1907e-01 3.0656e-01 -1.6267e-01
       988 1.5867e+03 0.0000e+00 3.9287e-01 -2.1840e-01 3.0440e-01 -1.6188e-01
       989 2.6603e+02 1.0098e-60 3.9403e-01 -2.1871e-01 3.0535e-01 -1.6252e-01
       990 1.8772e+02 1.0222e-43 3.9381e-01 -2.1883e-01 3.0511e-01 -1.6236e-01
       991 4.4779e+02 3.4304e-100 3.9419e-01 -2.1785e-01 3.0546e-01 -1.6216e-01
       992 1.2151e+01 1.3621e-05 3.9502e-01 -2.1849e-01 3.0630e-01 -1.6238e-01
       993 3.0842e+00 1.2678e-03 3.9517e-01 -2.1837e-01 3.0627e-01 -1.6191e-01
       994 5.0736e+01 5.6970e-14 3.9386e-01 -2.1939e-01 3.0530e-01 -1.6254e-01
       995 5.4189e+01 1.0135e-14 3.9459e-01 -2.1907e-01 3.0565e-01 -1.6273e-01
       996 2.1237e+03 0.0000e+00 3.9781e-01 -2.1849e-01 3.0856e-01 -1.6217e-01
       997 7.3722e+02 4.8754e-163 3.9364e-01 -2.1805e-01 3.0505e-01 -1.6239e-01
       998 4.4140e+02 8.4055e-99 3.9651e-01 -2.1775e-01 3.0739e-01 -1.6205e-01
       999 5.9783e+02 9.0295e-133 3.9370e-01 -2.1890e-01 3.0498e-01 -1.6243e-01
      1000 3.1644e+01 7.9677e-10 3.9467e-01 -2.1865e-01 3.0606e-01 -1.6234e-01
      1001 5.1492e+01 3.9031e-14 3.9613e-01 -2.1720e-01 3.0702e-01 -1.6141e-01
      1002 1.7977e+00 2.4123e-03 3.9532e-01 -2.1797e-01 3.0635e-01 -1.6195e-01
      1003 1.3868e+01 5.7724e-06 3.9511e-01 -2.1896e-01 3.0632e-01 -1.6245e-01
      1004 9.2933e+02 9.3719e-205 3.9670e-01 -2.1843e-01 3.0756e-01 -1.6205e-01
      1005 7.0087e+00 1.7819e-04 3.9489e-01 -2.1898e-01 3.0611e-01 -1.6242e-01
      1006 5.2027e+02 6.2747e-116 3.9649e-01 -2.1734e-01 3.0749e-01 -1.6199e-01
      1007 7.6116e+02 3.0775e-168 3.9696e-01 -2.1789e-01 3.0780e-01 -1.6203e-01
      1008 4.2868e+02 4.8520e-96 3.9403e-01 -2.1729e-01 3.0529e-01 -1.6192e-01
      1009 5.5973e+01 4.1537e-15 3.9582e-01 -2.1819e-01 3.0673e-01 -1.6226e-01
      1010 3.3154e+01 3.7459e-10 3.9529e-01 -2.1806e-01 3.0647e-01 -1.6198e-01
      1011 7.3313e+00 1.5164e-04 3.9519e-01 -2.1714e-01 3.0641e-01 -1.6173e-01
      1012 2.2977e+02 7.5820e-53 3.9620e-01 -2.1766e-01 3.0712e-01 -1.6146e-01
      1013 2.9217e+02 2.1318e-66 3.9389e-01 -2.1795e-01 3.0514e-01 -1.6174e-01
      1014 2.3291e+02 1.5706e-53 3.9451e-01 -2.1820e-01 3.0562e-01 -1.6241e-01
      1015 9.6502e+01 6.5711e-24 3.9591e-01 -2.1839e-01 3.0690e-01 -1.6199e-01
      1016 4.4905e+02 1.8354e-100 3.9363e-01 -2.1893e-01 3.0512e-01 -1.6247e-01
      1017 9.3925e+01 2.3837e-23 3.9439e-01 -2.1913e-01 3.0568e-01 -1.6254e-01
      1018 1.6840e+03 0.0000e+00 3.9253e-01 -2.1774e-01 3.0406e-01 -1.6163e-01
      1019 5.5322e+02 4.3829e-123 3.9673e-01 -2.1680e-01 3.0771e-01 -1.6106e-01
      1020 4.5080e+02 7.6422e-101 3.9395e-01 -2.1871e-01 3.0516e-01 -1.6250e-01
      1021 1.2950e+01 9.1363e-06 3.9590e-01 -2.1688e-01 3.0684e-01 -1.6168e-01
      1022 1.0815e+03 8.2694e-238 3.9381e-01 -2.1581e-01 3.0509e-01 -1.6068e-01
      1023 1.9881e-01 5.3655e-03 3.9487e-01 -2.1879e-01 3.0603e-01 -1.6221e-01
      1024 1.6894e+03 0.0000e+00 3.9723e-01 -2.1822e-01 3.0821e-01 -1.6245e-01
      1025 4.6482e+01 4.7782e-13 3.9483e-01 -2.1785e-01 3.0602e-01 -1.6220e-01
      1026 1.2870e+03 1.9690e-282 3.9313e-01 -2.1817e-01 3.0457e-01 -1.6182e-01
      1027 1.9399e+03 0.0000e+00 3.9221e-01 -2.1881e-01 3.0388e-01 -1.6214e-01
      1028 5.0959e+02 1.3065e-113 3.9371e-01 -2.1817e-01 3.0505e-01 -1.6220e-01
      1029 6.6740e+02 7.0481e-148 3.9347e-01 -2.1939e-01 3.0474e-01 -1.6282e-01
      1030 2.1962e+02 1.2124e-50 3.9599e-01 -2.1895e-01 3.0711e-01 -1.6256e-01
      1031 2.9826e+02 1.0134e-67 3.9428e-01 -2.1810e-01 3.0563e-01 -1.6226e-01
      1032 1.1444e+02 8.3737e-28 3.9483e-01 -2.1760e-01 3.0589e-01 -1.6205e-01
      1033 1.1413e+03 8.7288e-251 3.9674e-01 -2.1899e-01 3.0763e-01 -1.6261e-01
      1034 8.4539e+02 1.5806e-186 3.9666e-01 -2.1707e-01 3.0761e-01 -1.6131e-01
      1035 1.0411e+03 5.0041e-229 3.9361e-01 -2.1715e-01 3.0490e-01 -1.6190e-01
      1036 1.3765e+02 7.6142e-33 3.9439e-01 -2.1888e-01 3.0570e-01 -1.6249e-01
      1037 2.0292e+03 0.0000e+00 3.9294e-01 -2.1650e-01 3.0434e-01 -1.6098e-01
      1038 2.6054e+01 1.3040e-08 3.9505e-01 -2.1855e-01 3.0617e-01 -1.6214e-01
      1039 5.8586e+00 3.1666e-04 3.9479e-01 -2.1925e-01 3.0596e-01 -1.6258e-01
      1040 3.5986e+03 0.0000e+00 3.9184e-01 -2.1796e-01 3.0341e-01 -1.6189e-01
      1041 2.8532e+02 6.5674e-65 3.9608e-01 -2.1856e-01 3.0716e-01 -1.6258e-01
      1042 2.7598e+02 6.9968e-63 3.9410e-01 -2.1813e-01 3.0538e-01 -1.6203e-01
      1043 2.6405e+01 1.0940e-08 3.9522e-01 -2.1796e-01 3.0648e-01 -1.6209e-01
      1044 4.5194e+01 9.1012e-13 3.9537e-01 -2.1944e-01 3.0642e-01 -1.6255e-01
      1045 1.2017e+01 1.4565e-05 3.9511e-01 -2.1887e-01 3.0623e-01 -1.6264e-01
      1046 5.8223e+02 2.2083e-129 3.9635e-01 -2.1845e-01 3.0744e-01 -1.6255e-01
      1047 1.5342e+01 2.7623e-06 3.9524e-01 -2.1724e-01 3.0639e-01 -1.6203e-01
      1048 1.1729e+03 1.2146e-257 3.9265e-01 -2.2100e-01 3.0427e-01 -1.6325e-01
      1049 2.9005e+01 2.9809e-09 3.9502e-01 -2.1887e-01 3.0634e-01 -1.6263e-01
      1050 1.6565e+02 6.3466e-39 3.9567e-01 -2.1850e-01 3.0685e-01 -1.6224e-01
      1051 2.3613e+03 0.0000e+00 3.9799e-01 -2.1795e-01 3.0874e-01 -1.6206e-01
      1052 1.4847e+03 0.0000e+00 3.9237e-01 -2.1892e-01 3.0402e-01 -1.6260e-01
      1053 3.1726e+01 7.6491e-10 3.9540e-01 -2.1846e-01 3.0651e-01 -1.6210e-01
      1054 1.7397e+03 0.0000e+00 3.9256e-01 -2.1803e-01 3.0415e-01 -1.6235e-01
      1055 7.7973e+02 2.8680e-172 3.9661e-01 -2.1894e-01 3.0747e-01 -1.6246e-01
      1056 3.3239e+03 0.0000e+00 3.9160e-01 -2.1895e-01 3.0325e-01 -1.6242e-01
      1057 2.2391e+02 1.4166e-51 3.9562e-01 -2.1888e-01 3.0668e-01 -1.6235e-01
      1058 5.4960e+01 6.8937e-15 3.9561e-01 -2.1858e-01 3.0666e-01 -1.6243e-01
      1059 5.0635e+03 0.0000e+00 3.9921e-01 -2.1905e-01 3.0974e-01 -1.6270e-01
      1060 7.2983e+02 1.9619e-161 3.9669e-01 -2.1738e-01 3.0755e-01 -1.6175e-01
      1061 9.1253e+02 4.1660e-201 3.9664e-01 -2.1850e-01 3.0762e-01 -1.6224e-01
      1062 8.5954e+02 1.3390e-189 3.9378e-01 -2.1667e-01 3.0510e-01 -1.6111e-01
      1063 5.6938e+01 2.5639e-15 3.9473e-01 -2.1843e-01 3.0589e-01 -1.6230e-01
      1064 5.6485e+01 3.2158e-15 3.9414e-01 -2.1898e-01 3.0551e-01 -1.6259e-01
      1065 1.3924e+02 3.4527e-33 3.9409e-01 -2.1839e-01 3.0548e-01 -1.6224e-01
      1066 4.4187e+02 6.6493e-99 3.9645e-01 -2.1757e-01 3.0739e-01 -1.6174e-01
      1067 2.2256e+03 0.0000e+00 3.9765e-01 -2.1837e-01 3.0841e-01 -1.6245e-01
      1068 1.5916e+02 1.6296e-37 3.9609e-01 -2.1666e-01 3.0704e-01 -1.6111e-01
      1069 1.4130e+02 1.2276e-33 3.9438e-01 -2.1922e-01 3.0557e-01 -1.6267e-01
      1070 2.9812e+03 0.0000e+00 3.9193e-01 -2.1967e-01 3.0359e-01 -1.6292e-01
      1071 2.0440e+03 0.0000e+00 3.9259e-01 -2.1778e-01 3.0416e-01 -1.6192e-01
      1072 7.1374e+02 6.1184e-158 3.9375e-01 -2.1762e-01 3.0501e-01 -1.6212e-01
      1073 1.7884e+03 0.0000e+00 3.9248e-01 -2.1810e-01 3.0406e-01 -1.6213e-01
      1074 1.1578e+03 2.2980e-254 3.9709e-01 -2.1965e-01 3.0794e-01 -1.6275e-01
      1075 1.2103e-01 5.5783e-03 3.9478e-01 -2.1864e-01 3.0604e-01 -1.6229e-01
      1076 1.2900e+02 5.7776e-31 3.9541e-01 -2.1845e-01 3.0662e-01 -1.6224e-01
      1077 1.5197e+02 5.9163e-36 3.9445e-01 -2.1782e-01 3.0571e-01 -1.6190e-01
      1078 1.9059e+02 2.4329e-44 3.9417e-01 -2.1856e-01 3.0541e-01 -1.6257e-01
      1079 8.4807e-02 5.6803e-03 3.9509e-01 -2.1774e-01 3.0630e-01 -1.6230e-01
      1080 2.7256e+03 0.0000e+00 3.9197e-01 -2.1873e-01 3.0365e-01 -1.6263e-01
      1081 3.5529e+02 4.1961e-80 3.9593e-01 -2.1808e-01 3.0704e-01 -1.6212e-01
      1082 1.1564e+02 4.5978e-28 3.9574e-01 -2.1726e-01 3.0688e-01 -1.6170e-01
      1083 1.2265e+03 2.7792e-269 3.9719e-01 -2.1804e-01 3.0812e-01 -1.6200e-01
      1084 7.4951e-01 4.0741e-03 3.9505e-01 -2.1841e-01 3.0624e-01 -1.6247e-01
      1085 1.6270e+03 0.0000e+00 3.9763e-01 -2.1754e-01 3.0838e-01 -1.6159e-01
      1086 4.0878e+02 1.0189e-91 3.9367e-01 -2.1903e-01 3.0512e-01 -1.6262e-01
      1087 9.3241e+00 5.5986e-05 3.9506e-01 -2.1822e-01 3.0614e-01 -1.6213e-01
      1088 2.3831e+02 1.0573e-54 3.9636e-01 -2.1738e-01 3.0730e-01 -1.6176e-01
      1089 7.9031e+02 1.4437e-174 3.9646e-01 -2.1796e-01 3.0734e-01 -1.6208e-01
      1090 7.8897e+01 4.3698e-20 3.9474e-01 -2.1690e-01 3.0597e-01 -1.6146e-01
      1091 1.6840e+01 1.3061e-06 3.9518e-01 -2.1822e-01 3.0636e-01 -1.6234e-01
      1092 3.7183e+00 9.2334e-04 3.9455e-01 -2.1953e-01 3.0582e-01 -1.6287e-01
      1093 1.5466e+02 1.5420e-36 3.9444e-01 -2.1849e-01 3.0564e-01 -1.6223e-01
      1094 2.1959e+02 1.2275e-50 3.9407e-01 -2.1880e-01 3.0534e-01 -1.6264e-01
      1095 8.3905e+01 3.5733e-21 3.9541e-01 -2.1887e-01 3.0658e-01 -1.6251e-01
      1096 4.5079e+01 9.6375e-13 3.9540e-01 -2.1853e-01 3.0655e-01 -1.6242e-01
      1097 1.8564e+02 2.8953e-43 3.9559e-01 -2.1860e-01 3.0681e-01 -1.6205e-01
      1098 9.1740e+02 3.6378e-202 3.9657e-01 -2.1895e-01 3.0757e-01 -1.6249e-01
      1099 1.1788e+01 1.6334e-05 3.9513e-01 -2.1851e-01 3.0640e-01 -1.6248e-01
      1100 5.7238e+00 3.3876e-04 3.9486e-01 -2.1836e-01 3.0608e-01 -1.6249e-01
      1101 5.2143e-01 4.5662e-03 3.9501e-01 -2.1779e-01 3.0620e-01 -1.6199e-01
      1102 9.7131e+02 7.1872e-214 3.9659e-01 -2.1990e-01 3.0747e-01 -1.6293e-01
      1103 5.9598e+01 6.7793e-16 3.9554e-01 -2.1919e-01 3.0662e-01 -1.6265e-01
      1104 2.7677e+03 0.0000e+00 3.9789e-01 -2.1851e-01 3.0857e-01 -1.6248e-01
      1105 1.6264e+02 2.8516e-38 3.9399e-01 -2.1841e-01 3.0544e-01 -1.6238e-01
      1106 4.3026e+02 2.2061e-96 3.9598e-01 -2.1887e-01 3.0717e-01 -1.6254e-01
      1107 6.1413e+02 2.6126e-136 3.9379e-01 -2.1807e-01 3.0520e-01 -1.6226e-01
      1108 3.6407e+02 5.1948e-82 3.9638e-01 -2.1791e-01 3.0731e-01 -1.6203e-01
      1109 4.8188e+01 2.0369e-13 3.9595e-01 -2.1685e-01 3.0689e-01 -1.6116e-01
      1110 2.4448e+01 2.9100e-08 3.9502e-01 -2.1781e-01 3.0617e-01 -1.6200e-01
      1111 4.4678e+02 5.7036e-100 3.9601e-01 -2.1920e-01 3.0709e-01 -1.6276e-01
      1112 6.4678e+01 5.3462e-17 3.9427e-01 -2.1781e-01 3.0568e-01 -1.6156e-01
      1113 2.7863e+02 1.8567e-63 3.9658e-01 -2.1696e-01 3.0753e-01 -1.6140e-01
      1114 2.1451e+02 1.5566e-49 3.9560e-01 -2.1895e-01 3.0689e-01 -1.6261e-01
      1115 1.7751e+02 1.6843e-41 3.9429e-01 -2.1888e-01 3.0558e-01 -1.6265e-01
      1116 5.3857e+02 6.6488e-120 3.9622e-01 -2.1774e-01 3.0726e-01 -1.6174e-01
      1117 3.9146e+02 5.8752e-88 3.9385e-01 -2.1944e-01 3.0519e-01 -1.6245e-01
      1118 6.2021e+03 0.0000e+00 3.9109e-01 -2.1662e-01 3.0280e-01 -1.6080e-01
      1119 2.4937e+03 0.0000e+00 3.9238e-01 -2.1923e-01 3.0408e-01 -1.6256e-01
      1120 4.4732e+02 4.3560e-100 3.9343e-01 -2.1915e-01 3.0487e-01 -1.6268e-01
      1121 3.9994e+03 0.0000e+00 3.9133e-01 -2.1840e-01 3.0299e-01 -1.6231e-01
      1122 2.1385e+03 0.0000e+00 3.9757e-01 -2.1861e-01 3.0835e-01 -1.6249e-01
      1123 4.9026e+01 1.3397e-13 3.9514e-01 -2.1886e-01 3.0631e-01 -1.6263e-01
      1124 2.6521e+02 1.5266e-60 3.9432e-01 -2.1841e-01 3.0551e-01 -1.6252e-01
      1125 6.1370e+02 3.2277e-136 3.9406e-01 -2.1631e-01 3.0541e-01 -1.6074e-01
      1126 4.9769e+02 5.0166e-111 3.9373e-01 -2.1833e-01 3.0518e-01 -1.6221e-01
      1127 3.0939e+02 3.8875e-70 3.9416e-01 -2.1829e-01 3.0547e-01 -1.6227e-01
      1128 1.4479e+02 2.1466e-34 3.9418e-01 -2.1822e-01 3.0550e-01 -1.6245e-01
      1129 2.7398e+02 1.8968e-62 3.9417e-01 -2.1877e-01 3.0531e-01 -1.6223e-01
      1130 6.5300e+02 9.4498e-145 3.9395e-01 -2.1817e-01 3.0517e-01 -1.6235e-01
      1131 6.2094e+02 8.6528e-138 3.9653e-01 -2.1841e-01 3.0751e-01 -1.6222e-01
      1132 2.3222e+01 5.3716e-08 3.9459e-01 -2.1889e-01 3.0589e-01 -1.6256e-01
      1133 1.1392e+02 1.0836e-27 3.9423e-01 -2.1935e-01 3.0555e-01 -1.6235e-01
      1134 1.2254e+03 4.8159e-269 3.9330e-01 -2.1739e-01 3.0482e-01 -1.6182e-01
      1135 7.3467e+01 6.6009e-19 3.9584e-01 -2.1836e-01 3.0690e-01 -1.6211e-01
      1136 1.4235e+02 7.2728e-34 3.9457e-01 -2.1783e-01 3.0589e-01 -1.6193e-01
      1137 2.0142e+02 1.0836e-46 3.9460e-01 -2.1804e-01 3.0589e-01 -1.6214e-01
      1138 1.6318e+02 2.1852e-38 3.9600e-01 -2.1914e-01 3.0695e-01 -1.6275e-01
      1139 2.4166e+02 1.9828e-55 3.9458e-01 -2.1721e-01 3.0574e-01 -1.6143e-01
      1140 8.3312e+02 7.2913e-184 3.9709e-01 -2.1782e-01 3.0793e-01 -1.6182e-01
      1141 1.6892e+03 0.0000e+00 3.9263e-01 -2.1802e-01 3.0421e-01 -1.6200e-01
      1142 1.5571e+03 0.0000e+00 3.9304e-01 -2.1840e-01 3.0446e-01 -1.6234e-01
      1143 1.2995e+03 3.8264e-285 3.9311e-01 -2.1905e-01 3.0445e-01 -1.6248e-01
      1144 3.6709e+00 9.4548e-04 3.9556e-01 -2.1747e-01 3.0656e-01 -1.6207e-01
      1145 6.4814e+02 1.0717e-143 3.9342e-01 -2.1815e-01 3.0482e-01 -1.6227e-01
      1146 7.2777e+01 9.3224e-19 3.9475e-01 -2.1822e-01 3.0601e-01 -1.6186e-01
      1147 9.7201e+02 5.0633e-214 3.9361e-01 -2.1828e-01 3.0501e-01 -1.6238e-01
      1148 6.3700e+00 2.4522e-04 3.9531e-01 -2.1667e-01 3.0631e-01 -1.6107e-01
      1149 7.4370e+02 1.9043e-164 3.9365e-01 -2.1774e-01 3.0492e-01 -1.6205e-01
      1150 5.7010e+02 9.4815e-127 3.9647e-01 -2.1796e-01 3.0741e-01 -1.6233e-01
      1151 2.3286e+03 0.0000e+00 3.9204e-01 -2.1880e-01 3.0375e-01 -1.6245e-01
      1152 2.9959e+02 5.2294e-68 3.9399e-01 -2.1824e-01 3.0524e-01 -1.6210e-01
      1153 4.3982e+02 1.8470e-98 3.9625e-01 -2.1712e-01 3.0727e-01 -1.6176e-01
      1154 5.8911e-01 4.4143e-03 3.9500e-01 -2.1870e-01 3.0620e-01 -1.6246e-01
      1155 6.9446e+02 9.3787e-154 3.9371e-01 -2.1652e-01 3.0507e-01 -1.6101e-01
      1156 5.1733e+00 4.4607e-04 3.9526e-01 -2.1768e-01 3.0642e-01 -1.6202e-01
      1157 1.6294e+01 1.7159e-06 3.9456e-01 -2.1931e-01 3.0587e-01 -1.6258e-01
      1158 1.1013e+02 7.2274e-27 3.9566e-01 -2.1799e-01 3.0675e-01 -1.6201e-01
      1159 3.0977e+03 0.0000e+00 3.9820e-01 -2.1841e-01 3.0895e-01 -1.6177e-01
      1160 1.4834e+03 0.0000e+00 3.9257e-01 -2.1835e-01 3.0420e-01 -1.6173e-01
      1161 1.3857e+02 4.8161e-33 3.9580e-01 -2.1879e-01 3.0686e-01 -1.6252e-01
      1162 1.6188e+02 4.1794e-38 3.9604e-01 -2.1739e-01 3.0695e-01 -1.6173e-01
      1163 3.3594e+01 3.0059e-10 3.9534e-01 -2.1893e-01 3.0643e-01 -1.6247e-01
      1164 3.9228e+03 0.0000e+00 3.9151e-01 -2.1921e-01 3.0325e-01 -1.6279e-01
      1165 1.3264e+02 9.3489e-32 3.9575e-01 -2.1879e-01 3.0678e-01 -1.6260e-01
      1166 2.4085e+03 0.0000e+00 3.9793e-01 -2.1760e-01 3.0856e-01 -1.6193e-01
      1167 2.6443e+02 2.2554e-60 3.9412e-01 -2.1855e-01 3.0538e-01 -1.6226e-01
      1168 1.1481e+03 2.9041e-252 3.9700e-01 -2.1893e-01 3.0783e-01 -1.6252e-01
      1169 2.8672e+03 0.0000e+00 3.9803e-01 -2.1832e-01 3.0879e-01 -1.6239e-01
      1170 1.1365e+01 2.0183e-05 3.9507e-01 -2.1837e-01 3.0626e-01 -1.6219e-01
      1171 3.5313e+03 0.0000e+00 3.9145e-01 -2.1980e-01 3.0304e-01 -1.6296e-01
      1172 2.1210e+03 0.0000e+00 3.9233e-01 -2.1775e-01 3.0396e-01 -1.6167e-01
      1173 4.8949e+00 5.1272e-04 3.9546e-01 -2.1820e-01 3.0655e-01 -1.6213e-01
      1174 2.6110e+03 0.0000e+00 3.9264e-01 -2.1735e-01 3.0416e-01 -1.6116e-01
      1175 2.9370e+03 0.0000e+00 3.9770e-01 -2.1885e-01 3.0873e-01 -1.6250e-01
      1176 1.9202e+02 1.1935e-44 3.9460e-01 -2.1834e-01 3.0584e-01 -1.6235e-01
      1177 1.5771e+00 2.6935e-03 3.9477e-01 -2.1843e-01 3.0599e-01 -1.6236e-01
      1178 5.6858e+00 3.4524e-04 3.9515e-01 -2.1656e-01 3.0628e-01 -1.6119e-01
      1179 2.6448e+02 2.1971e-60 3.9358e-01 -2.1972e-01 3.0486e-01 -1.6292e-01
      1180 3.2638e+01 4.8466e-10 3.9562e-01 -2.1709e-01 3.0671e-01 -1.6145e-01
      1181 2.6583e+02 1.1169e-60 3.9407e-01 -2.1810e-01 3.0535e-01 -1.6196e-01
      1182 3.4162e+01 2.2628e-10 3.9558e-01 -2.1775e-01 3.0667e-01 -1.6184e-01
      1183 7.3977e+02 1.3598e-163 3.9375e-01 -2.1796e-01 3.0508e-01 -1.6221e-01
      1184 1.5946e+02 1.4032e-37 3.9570e-01 -2.1852e-01 3.0681e-01 -1.6206e-01
      1185 1.2267e+03 2.5146e-269 3.9709e-01 -2.1865e-01 3.0796e-01 -1.6249e-01
      1186 3.4588e+02 4.6288e-78 3.9590e-01 -2.1856e-01 3.0704e-01 -1.6234e-01
      1187 4.4720e+02 4.6224e-100 3.9409e-01 -2.1593e-01 3.0552e-01 -1.6052e-01
      1188 4.1610e+01 5.4611e-12 3.9543e-01 -2.1899e-01 3.0652e-01 -1.6238e-01
      1189 1.0235e+03 3.3274e-225 3.9324e-01 -2.1719e-01 3.0464e-01 -1.6146e-01
      1190 1.1926e+03 6.3377e-262 3.9359e-01 -2.1665e-01 3.0488e-01 -1.6162e-01
      1191 1.0818e+02 1.9113e-26 3.9430e-01 -2.1879e-01 3.0558e-01 -1.6253e-01
      1192 9.9268e+01 1.6485e-24 3.9455e-01 -2.1939e-01 3.0580e-01 -1.6281e-01
      1193 2.9776e+02 1.3020e-67 3.9629e-01 -2.1790e-01 3.0720e-01 -1.6206e-01
      1194 2.1115e+02 8.3559e-49 3.9441e-01 -2.1920e-01 3.0576e-01 -1.6277e-01
      1195 2.3205e+01 5.4187e-08 3.9541e-01 -2.1810e-01 3.0651e-01 -1.6201e-01
      1196 5.9117e+01 8.6230e-16 3.9494e-01 -2.1684e-01 3.0610e-01 -1.6136e-01
      1197 6.5995e+02 2.9288e-146 3.9658e-01 -2.1754e-01 3.0744e-01 -1.6185e-01
      1198 2.1070e+03 0.0000e+00 3.9765e-01 -2.1718e-01 3.0851e-01 -1.6185e-01
      1199 2.6383e+03 0.0000e+00 3.9207e-01 -2.1895e-01 3.0372e-01 -1.6255e-01
      1200 3.5891e+02 6.8586e-81 3.9432e-01 -2.1823e-01 3.0550e-01 -1.6227e-01
      1201 2.8216e+02 3.1879e-64 3.9421e-01 -2.1823e-01 3.0547e-01 -1.6176e-01
      1202 1.5173e+02 6.6685e-36 3.9448e-01 -2.1765e-01 3.0571e-01 -1.6194e-01
      1203 2.5237e+01 1.9620e-08 3.9517e-01 -2.1890e-01 3.0628e-01 -1.6265e-01
      1204 9.8719e+01 2.1688e-24 3.9536e-01 -2.1958e-01 3.0650e-01 -1.6261e-01
      1205 5.6322e+02 2.9566e-125 3.9669e-01 -2.1753e-01 3.0767e-01 -1.6184e-01
      1206 4.0065e+02 5.9258e-90 3.9607e-01 -2.1912e-01 3.0714e-01 -1.6271e-01
      1207 9.3120e+01 3.5652e-23 3.9578e-01 -2.1854e-01 3.0689e-01 -1.6240e-01
      1208 3.5097e+01 1.4174e-10 3.9498e-01 -2.1723e-01 3.0615e-01 -1.6165e-01
      1209 2.2893e+02 1.1492e-52 3.9401e-01 -2.1877e-01 3.0538e-01 -1.6210e-01
      1210 9.9764e+01 1.2861e-24 3.9552e-01 -2.1772e-01 3.0664e-01 -1.6198e-01
      1211 7.5433e-01 4.0643e-03 3.9497e-01 -2.1801e-01 3.0621e-01 -1.6212e-01
      1212 2.2139e+02 5.0077e-51 3.9592e-01 -2.1772e-01 3.0707e-01 -1.6189e-01
      1213 1.5701e+03 0.0000e+00 3.9696e-01 -2.1893e-01 3.0800e-01 -1.6231e-01
      1214 1.5305e+03 0.0000e+00 3.9741e-01 -2.1861e-01 3.0817e-01 -1.6231e-01
      1215 1.7412e+03 0.0000e+00 3.9294e-01 -2.1743e-01 3.0446e-01 -1.6169e-01
      1216 2.6499e+03 0.0000e+00 3.9810e-01 -2.1810e-01 3.0872e-01 -1.6201e-01
      1217 3.2844e+02 2.8343e-74 3.9627e-01 -2.1834e-01 3.0723e-01 -1.6205e-01
      1218 1.3489e+03 7.2608e-296 3.9330e-01 -2.1772e-01 3.0467e-01 -1.6177e-01
      1219 3.2817e+03 0.0000e+00 3.9829e-01 -2.1850e-01 3.0889e-01 -1.6232e-01
      1220 6.0709e+02 8.8147e-135 3.9671e-01 -2.1733e-01 3.0760e-01 -1.6192e-01
      1221 2.4582e+02 2.4792e-56 3.9547e-01 -2.1995e-01 3.0671e-01 -1.6272e-01
      1222 9.3162e+01 3.4906e-23 3.9605e-01 -2.1765e-01 3.0706e-01 -1.6212e-01
      1223 8.8074e+01 4.4439e-22 3.9531e-01 -2.1879e-01 3.0638e-01 -1.6247e-01
      1224 5.8063e+01 1.4609e-15 3.9475e-01 -2.1839e-01 3.0598e-01 -1.6229e-01
      1225 3.9053e+02 9.3416e-88 3.9598e-01 -2.1877e-01 3.0700e-01 -1.6262e-01
      1226 1.7586e+03 0.0000e+00 3.9755e-01 -2.1815e-01 3.0830e-01 -1.6220e-01
      1227 1.9713e+01 3.1064e-07 3.9490e-01 -2.1890e-01 3.0599e-01 -1.6252e-01
      1228 8.1677e+02 2.5865e-180 3.9321e-01 -2.1827e-01 3.0474e-01 -1.6236e-01
      1229 9.5292e+01 1.2033e-23 3.9562e-01 -2.1791e-01 3.0675e-01 -1.6222e-01
      1230 3.0152e+02 1.9905e-68 3.9569e-01 -2.1898e-01 3.0677e-01 -1.6267e-01
      1231 2.7960e+02 1.1451e-63 3.9617e-01 -2.1864e-01 3.0714e-01 -1.6248e-01
      1232 1.6740e+03 0.0000e+00 3.9269e-01 -2.1837e-01 3.0432e-01 -1.6184e-01
      1233 3.6011e+02 3.7568e-81 3.9608e-01 -2.1844e-01 3.0699e-01 -1.6214e-01
      1234 3.4889e+02 1.0266e-78 3.9365e-01 -2.1874e-01 3.0512e-01 -1.6236e-01
      1235 4.1735e+02 1.3984e-93 3.9357e-01 -2.1934e-01 3.0497e-01 -1.6256e-01
      1236 3.9278e+02 3.0390e-88 3.9377e-01 -2.1877e-01 3.0524e-01 -1.6264e-01
      1237 1.3821e+02 5.7525e-33 3.9570e-01 -2.1856e-01 3.0683e-01 -1.6226e-01
      1238 5.5195e+01 6.1299e-15 3.9524e-01 -2.1772e-01 3.0656e-01 -1.6176e-01
      1239 3.4640e+03 0.0000e+00 3.9209e-01 -2.1813e-01 3.0362e-01 -1.6206e-01
      1240 2.4150e+01 3.3780e-08 3.9548e-01 -2.1838e-01 3.0673e-01 -1.6188e-01
      1241 1.6252e+02 3.0302e-38 3.9439e-01 -2.1783e-01 3.0566e-01 -1.6194e-01
      1242 6.2702e+01 1.4361e-16 3.9575e-01 -2.1806e-01 3.0687e-01 -1.6219e-01
      1243 9.2304e+01 5.3610e-23 3.9488e-01 -2.1799e-01 3.0604e-01 -1.6207e-01
      1244 2.8219e+03 0.0000e+00 3.9193e-01 -2.1871e-01 3.0370e-01 -1.6262e-01
      1245 3.9505e+02 9.7424e-89 3.9587e-01 -2.1907e-01 3.0692e-01 -1.6269e-01
      1246 6.3073e+02 6.4806e-140 3.9413e-01 -2.1755e-01 3.0540e-01 -1.6149e-01
      1247 7.1395e+01 1.8598e-18 3.9511e-01 -2.1656e-01 3.0612e-01 -1.6127e-01
      1248 4.8088e+03 0.0000e+00 3.9110e-01 -2.1853e-01 3.0272e-01 -1.6244e-01
      1249 1.1804e+01 1.6201e-05 3.9518e-01 -2.1833e-01 3.0635e-01 -1.6220e-01
      1250 1.2631e+02 2.2160e-30 3.9585e-01 -2.1855e-01 3.0668e-01 -1.6236e-01
      1251 9.5980e+01 8.5288e-24 3.9565e-01 -2.1848e-01 3.0683e-01 -1.6235e-01
      1252 3.0395e+02 5.9089e-69 3.9561e-01 -2.1975e-01 3.0674e-01 -1.6290e-01
      1253 6.1440e+02 2.2819e-136 3.9383e-01 -2.1677e-01 3.0535e-01 -1.6121e-01
      1254 2.8411e+02 1.1988e-64 3.9598e-01 -2.1817e-01 3.0692e-01 -1.6215e-01
      1255 1.1639e+02 3.1533e-28 3.9444e-01 -2.1776e-01 3.0566e-01 -1.6210e-01
      1256 1.3537e+03 6.5256e-297 3.9739e-01 -2.1814e-01 3.0813e-01 -1.6240e-01
      1257 1.7191e+00 2.5090e-03 3.9545e-01 -2.1827e-01 3.0650e-01 -1.6235e-01
      1258 1.8238e+03 0.0000e+00 3.9289e-01 -2.1763e-01 3.0442e-01 -1.6168e-01
      1259 1.3551e+02 2.2273e-32 3.9586e-01 -2.1724e-01 3.0681e-01 -1.6135e-01
      1260 1.0797e+01 2.6800e-05 3.9515e-01 -2.1839e-01 3.0619e-01 -1.6249e-01
      1261 6.7769e+02 4.1228e-150 3.9397e-01 -2.1757e-01 3.0527e-01 -1.6180e-01
      1262 1.2542e+02 3.4488e-30 3.9482e-01 -2.1721e-01 3.0594e-01 -1.6157e-01
      1263 2.8510e+02 7.3280e-65 3.9600e-01 -2.1873e-01 3.0691e-01 -1.6240e-01
      1264 5.8766e+01 1.0278e-15 3.9544e-01 -2.1848e-01 3.0651e-01 -1.6230e-01
      1265 1.4134e+03 7.2931e-310 3.9732e-01 -2.1821e-01 3.0809e-01 -1.6232e-01
      1266 2.6617e+01 9.8374e-09 3.9530e-01 -2.1818e-01 3.0644e-01 -1.6216e-01
      1267 1.3130e+03 4.5918e-288 3.9760e-01 -2.1772e-01 3.0841e-01 -1.6176e-01
      1268 2.5560e+03 0.0000e+00 3.9785e-01 -2.1692e-01 3.0871e-01 -1.6143e-01
      1269 4.0974e+02 6.2893e-92 3.9591e-01 -2.1932e-01 3.0690e-01 -1.6240e-01
      1270 8.3591e+01 4.1807e-21 3.9583e-01 -2.1790e-01 3.0672e-01 -1.6229e-01
