         0 0.0000e+00 2.1136e-04 3.9497e-01 -2.1892e-01 3.1562e-01 -1.6218e-01
        10 1.0821e-02 2.1022e-04 3.9515e-01 -2.1756e-01 3.1568e-01 -1.6124e-01
        11 7.0850e-01 1.4831e-04 3.9187e-01 -2.1779e-01 3.1294e-01 -1.6141e-01
        12 1.2313e-01 1.9874e-04 3.9393e-01 -2.1794e-01 3.1463e-01 -1.6160e-01
        13 6.7161e-02 2.0438e-04 3.9389e-01 -2.1903e-01 3.1478e-01 -1.6206e-01
        14 2.8939e-01 1.8289e-04 3.9298e-01 -2.1799e-01 3.1395e-01 -1.6173e-01
        15 2.0462e-02 2.0921e-04 3.9664e-01 -2.1737e-01 3.1701e-01 -1.6124e-01
        16 2.1243e-01 1.9006e-04 3.9725e-01 -2.1883e-01 3.1785e-01 -1.6202e-01
        17 5.3777e-02 2.0575e-04 3.9621e-01 -2.1885e-01 3.1672e-01 -1.6194e-01
        18 1.4032e-03 2.1121e-04 3.9568e-01 -2.1835e-01 3.1636e-01 -1.6170e-01
        19 4.6077e-03 2.1087e-04 3.9532e-01 -2.1827e-01 3.1599e-01 -1.6156e-01
        20 2.2804e-01 1.8858e-04 3.9749e-01 -2.1809e-01 3.1781e-01 -1.6173e-01
        21 2.9389e-02 2.0828e-04 3.9702e-01 -2.1767e-01 3.1739e-01 -1.6137e-01
        22 1.4917e-01 1.9617e-04 3.9416e-01 -2.1784e-01 3.1515e-01 -1.6117e-01
        23 1.5287e-02 2.0975e-04 3.9593e-01 -2.1925e-01 3.1650e-01 -1.6225e-01
        24 1.8029e-03 2.1117e-04 3.9551e-01 -2.1789e-01 3.1614e-01 -1.6179e-01
        25 1.1453e-02 2.1015e-04 3.9518e-01 -2.1796e-01 3.1569e-01 -1.6169e-01
        26 1.3353e-03 2.1122e-04 3.9489e-01 -2.1904e-01 3.1552e-01 -1.6218e-01
        27 6.4295e-02 2.0467e-04 3.9355e-01 -2.1929e-01 3.1431e-01 -1.6218e-01
        28 1.2500e-01 1.9855e-04 3.9748e-01 -2.1852e-01 3.1783e-01 -1.6170e-01
        29 5.4809e-03 2.1078e-04 3.9508e-01 -2.1954e-01 3.1582e-01 -1.6219e-01
        30 1.2776e-01 1.9828e-04 3.9463e-01 -2.1663e-01 3.1539e-01 -1.6083e-01
        31 2.3996e-02 2.0884e-04 3.9619e-01 -2.1906e-01 3.1663e-01 -1.6172e-01
        32 3.1934e-01 1.8017e-04 3.9335e-01 -2.1771e-01 3.1412e-01 -1.6112e-01
        33 1.9571e-01 1.9166e-04 3.9376e-01 -2.1777e-01 3.1463e-01 -1.6166e-01
        34 3.9314e-03 2.1094e-04 3.9645e-01 -2.1713e-01 3.1683e-01 -1.6063e-01
        35 1.4459e-02 2.0984e-04 3.9619e-01 -2.1628e-01 3.1662e-01 -1.6082e-01
        36 1.2545e-01 1.9851e-04 3.9364e-01 -2.1943e-01 3.1442e-01 -1.6224e-01
        37 4.4947e-03 2.1089e-04 3.9505e-01 -2.1872e-01 3.1579e-01 -1.6168e-01
        38 1.5624e-01 1.9548e-04 3.9775e-01 -2.1743e-01 3.1809e-01 -1.6128e-01
        39 3.4757e-02 2.0772e-04 3.9431e-01 -2.1838e-01 3.1505e-01 -1.6198e-01
        40 4.7868e-02 2.0636e-04 3.9698e-01 -2.1791e-01 3.1741e-01 -1.6139e-01
        41 1.5755e-01 1.9535e-04 3.9656e-01 -2.1989e-01 3.1702e-01 -1.6242e-01
        42 4.0840e-02 2.0709e-04 3.9548e-01 -2.1706e-01 3.1608e-01 -1.6078e-01
        43 7.5145e-02 2.0357e-04 3.9543e-01 -2.1689e-01 3.1603e-01 -1.6105e-01
        44 5.1753e-02 2.0596e-04 3.9399e-01 -2.1874e-01 3.1470e-01 -1.6213e-01
        45 3.2896e-01 1.7930e-04 3.9264e-01 -2.1831e-01 3.1353e-01 -1.6168e-01
        46 5.2307e-01 1.6272e-04 3.9861e-01 -2.1909e-01 3.1875e-01 -1.6208e-01
        47 6.9845e-04 2.1129e-04 3.9497e-01 -2.1929e-01 3.1563e-01 -1.6212e-01
        48 9.9175e-02 2.0113e-04 3.9489e-01 -2.1684e-01 3.1564e-01 -1.6082e-01
        49 3.3456e-01 1.7880e-04 3.9249e-01 -2.1817e-01 3.1343e-01 -1.6162e-01
        50 5.7159e-02 2.0540e-04 3.9628e-01 -2.1892e-01 3.1700e-01 -1.6186e-01
        51 1.5919e-02 2.0968e-04 3.9475e-01 -2.1874e-01 3.1532e-01 -1.6186e-01
        52 3.6333e-01 1.7625e-04 3.9852e-01 -2.1892e-01 3.1904e-01 -1.6189e-01
        53 2.1224e-02 2.0913e-04 3.9421e-01 -2.1779e-01 3.1493e-01 -1.6174e-01
        54 4.2848e-03 2.1091e-04 3.9531e-01 -2.1768e-01 3.1603e-01 -1.6155e-01
        55 3.7493e-01 1.7523e-04 3.9286e-01 -2.1807e-01 3.1368e-01 -1.6123e-01
        56 7.2782e-01 1.4689e-04 3.9044e-01 -2.1877e-01 3.1160e-01 -1.6209e-01
        57 2.9573e-01 1.8231e-04 3.9274e-01 -2.1746e-01 3.1364e-01 -1.6121e-01
        58 6.1023e-02 2.0501e-04 3.9395e-01 -2.1896e-01 3.1469e-01 -1.6218e-01
        59 1.9687e-01 1.9155e-04 3.9325e-01 -2.1800e-01 3.1403e-01 -1.6175e-01
        60 2.9279e-01 1.8258e-04 3.9362e-01 -2.1786e-01 3.1460e-01 -1.6104e-01
        61 1.7623e-01 1.9353e-04 3.9354e-01 -2.1825e-01 3.1437e-01 -1.6159e-01
        62 1.6032e-03 2.1119e-04 3.9494e-01 -2.1949e-01 3.1560e-01 -1.6214e-01
        63 1.0293e-02 2.1027e-04 3.9497e-01 -2.1830e-01 3.1545e-01 -1.6177e-01
        64 7.4911e-03 2.1057e-04 3.9566e-01 -2.1838e-01 3.1619e-01 -1.6189e-01
        65 7.1236e-03 2.1061e-04 3.9493e-01 -2.1865e-01 3.1560e-01 -1.6184e-01
        66 3.7160e-01 1.7552e-04 3.9245e-01 -2.1838e-01 3.1340e-01 -1.6156e-01
        67 7.9630e-02 2.0311e-04 3.9482e-01 -2.1777e-01 3.1556e-01 -1.6129e-01
        68 6.7014e-01 1.5118e-04 3.9162e-01 -2.1780e-01 3.1268e-01 -1.6174e-01
        69 3.4023e-02 2.0779e-04 3.9496e-01 -2.1849e-01 3.1576e-01 -1.6148e-01
        70 5.1951e-02 2.0594e-04 3.9407e-01 -2.1850e-01 3.1473e-01 -1.6198e-01
        71 6.2207e-02 2.0489e-04 3.9609e-01 -2.1916e-01 3.1651e-01 -1.6208e-01
        72 5.4369e-02 2.0569e-04 3.9667e-01 -2.1836e-01 3.1702e-01 -1.6170e-01
        73 2.9583e-02 2.0826e-04 3.9414e-01 -2.1863e-01 3.1489e-01 -1.6171e-01
        74 2.3719e-02 2.0887e-04 3.9592e-01 -2.1850e-01 3.1635e-01 -1.6198e-01
        75 3.0289e-01 1.8166e-04 3.9260e-01 -2.1769e-01 3.1345e-01 -1.6145e-01
        76 1.3880e-01 1.9719e-04 3.9359e-01 -2.1874e-01 3.1446e-01 -1.6177e-01
        77 3.8104e-02 2.0737e-04 3.9683e-01 -2.1784e-01 3.1737e-01 -1.6136e-01
        78 1.2913e-03 2.1122e-04 3.9554e-01 -2.1807e-01 3.1614e-01 -1.6167e-01
        79 1.0441e-01 2.0061e-04 3.9787e-01 -2.1714e-01 3.1821e-01 -1.6107e-01
        80 5.2685e-02 2.0586e-04 3.9422e-01 -2.1814e-01 3.1494e-01 -1.6166e-01
        81 3.4168e-03 2.1100e-04 3.9522e-01 -2.1825e-01 3.1587e-01 -1.6178e-01
        82 4.9835e-01 1.6474e-04 3.9365e-01 -2.1648e-01 3.1459e-01 -1.6026e-01
        83 8.6757e-02 2.0239e-04 3.9647e-01 -2.1908e-01 3.1690e-01 -1.6207e-01
        84 1.3375e-02 2.0995e-04 3.9582e-01 -2.1854e-01 3.1638e-01 -1.6173e-01
        85 5.1063e-04 2.1131e-04 3.9548e-01 -2.1873e-01 3.1623e-01 -1.6158e-01
        86 5.3060e-02 2.0583e-04 3.9677e-01 -2.1818e-01 3.1714e-01 -1.6166e-01
        87 1.0286e-01 2.0076e-04 3.9361e-01 -2.1871e-01 3.1436e-01 -1.6203e-01
        88 9.3515e-02 2.0170e-04 3.9539e-01 -2.1650e-01 3.1603e-01 -1.6091e-01
        89 4.6755e-04 2.1131e-04 3.9520e-01 -2.1884e-01 3.1568e-01 -1.6196e-01
        90 7.3302e-03 2.1059e-04 3.9612e-01 -2.1819e-01 3.1652e-01 -1.6168e-01
        91 3.9556e-01 1.7343e-04 3.9326e-01 -2.1688e-01 3.1400e-01 -1.6110e-01
        92 6.2058e-02 2.0490e-04 3.9579e-01 -2.1915e-01 3.1621e-01 -1.6207e-01
        93 4.1956e-01 1.7136e-04 3.9332e-01 -2.1707e-01 3.1401e-01 -1.6105e-01
        94 1.4316e-01 1.9676e-04 3.9716e-01 -2.1829e-01 3.1750e-01 -1.6194e-01
        95 8.9682e-03 2.1041e-04 3.9503e-01 -2.1849e-01 3.1572e-01 -1.6175e-01
        96 2.7893e-03 2.1106e-04 3.9508e-01 -2.1759e-01 3.1573e-01 -1.6170e-01
        97 5.2925e-02 2.0584e-04 3.9435e-01 -2.1809e-01 3.1502e-01 -1.6168e-01
        98 2.2382e-02 2.0901e-04 3.9464e-01 -2.1859e-01 3.1540e-01 -1.6161e-01
        99 3.3460e-01 1.7880e-04 3.9254e-01 -2.1920e-01 3.1357e-01 -1.6213e-01
       100 2.1380e-03 2.1113e-04 3.9601e-01 -2.1822e-01 3.1646e-01 -1.6168e-01
       101 2.7300e-03 2.1107e-04 3.9521e-01 -2.1839e-01 3.1576e-01 -1.6190e-01
       102 8.8287e-01 1.3593e-04 3.9079e-01 -2.1879e-01 3.1199e-01 -1.6165e-01
       103 1.2748e-02 2.1002e-04 3.9551e-01 -2.1738e-01 3.1614e-01 -1.6117e-01
       104 1.2920e-02 2.1000e-04 3.9642e-01 -2.1731e-01 3.1699e-01 -1.6139e-01
       105 8.9944e-02 2.0206e-04 3.9532e-01 -2.1695e-01 3.1596e-01 -1.6050e-01
       106 1.7444e-01 1.9371e-04 3.9354e-01 -2.1888e-01 3.1438e-01 -1.6193e-01
       107 1.8469e-02 2.0942e-04 3.9609e-01 -2.1797e-01 3.1660e-01 -1.6156e-01
       108 1.2212e-01 1.9884e-04 3.9371e-01 -2.1862e-01 3.1456e-01 -1.6153e-01
       109 2.7055e-03 2.1107e-04 3.9552e-01 -2.1858e-01 3.1613e-01 -1.6173e-01
       110 7.9536e-02 2.0312e-04 3.9407e-01 -2.1844e-01 3.1479e-01 -1.6195e-01
       111 2.0129e-01 1.9112e-04 3.9419e-01 -2.1656e-01 3.1488e-01 -1.6076e-01
       112 1.1088e-02 2.1019e-04 3.9515e-01 -2.1797e-01 3.1576e-01 -1.6184e-01
       113 3.9325e-02 2.0724e-04 3.9454e-01 -2.1854e-01 3.1534e-01 -1.6197e-01
       114 1.0272e-02 2.1028e-04 3.9498e-01 -2.1883e-01 3.1568e-01 -1.6179e-01
       115 3.3064e-01 1.7915e-04 3.9264e-01 -2.1891e-01 3.1350e-01 -1.6183e-01
       116 1.0295e-01 2.0076e-04 3.9702e-01 -2.1872e-01 3.1765e-01 -1.6202e-01
       117 8.8549e-02 2.0221e-04 3.9687e-01 -2.1914e-01 3.1739e-01 -1.6197e-01
       118 2.7388e-01 1.8431e-04 3.9846e-01 -2.1809e-01 3.1870e-01 -1.6166e-01
       119 1.8672e-01 1.9252e-04 3.9246e-01 -2.1915e-01 3.1349e-01 -1.6220e-01
       120 2.8271e-01 1.8350e-04 3.9353e-01 -2.1726e-01 3.1453e-01 -1.6120e-01
       121 4.8400e-01 1.6593e-04 3.9267e-01 -2.1785e-01 3.1360e-01 -1.6129e-01
       122 2.7128e-01 1.8455e-04 3.9311e-01 -2.1822e-01 3.1399e-01 -1.6152e-01
       123 5.1942e-01 1.6302e-04 3.9253e-01 -2.1745e-01 3.1350e-01 -1.6110e-01
       124 3.6339e-02 2.0755e-04 3.9719e-01 -2.1766e-01 3.1770e-01 -1.6119e-01
       125 1.6047e-02 2.0967e-04 3.9445e-01 -2.1895e-01 3.1521e-01 -1.6191e-01
       126 1.5333e-01 1.9576e-04 3.9696e-01 -2.1916e-01 3.1728e-01 -1.6218e-01
       127 3.0642e-03 2.1104e-04 3.9574e-01 -2.1831e-01 3.1629e-01 -1.6167e-01
       128 3.5513e-03 2.1098e-04 3.9521e-01 -2.1866e-01 3.1585e-01 -1.6210e-01
       129 1.2526e-02 2.1004e-04 3.9491e-01 -2.1776e-01 3.1559e-01 -1.6170e-01
       130 3.8860e-02 2.0729e-04 3.9504e-01 -2.1808e-01 3.1584e-01 -1.6161e-01
       131 2.1309e-01 1.9000e-04 3.9442e-01 -2.1701e-01 3.1517e-01 -1.6084e-01
       132 1.5704e-01 1.9540e-04 3.9731e-01 -2.1792e-01 3.1764e-01 -1.6173e-01
       133 8.6570e-02 2.0241e-04 3.9731e-01 -2.1849e-01 3.1772e-01 -1.6138e-01
       134 2.8166e-02 2.0840e-04 3.9442e-01 -2.1870e-01 3.1502e-01 -1.6201e-01
       135 1.4995e-01 1.9609e-04 3.9351e-01 -2.1813e-01 3.1436e-01 -1.6173e-01
       136 3.0091e-01 1.8184e-04 3.9341e-01 -2.1681e-01 3.1422e-01 -1.6087e-01
       137 3.3089e-01 1.7913e-04 3.9164e-01 -2.1912e-01 3.1268e-01 -1.6219e-01
       138 4.1859e-03 2.1092e-04 3.9588e-01 -2.1786e-01 3.1637e-01 -1.6107e-01
       139 5.2058e-02 2.0593e-04 3.9628e-01 -2.1794e-01 3.1672e-01 -1.6178e-01
       140 4.0778e-01 1.7237e-04 3.9881e-01 -2.1863e-01 3.1890e-01 -1.6163e-01
       141 8.7760e-02 2.0229e-04 3.9799e-01 -2.1662e-01 3.1832e-01 -1.6080e-01
       142 2.6609e-02 2.0857e-04 3.9581e-01 -2.1920e-01 3.1629e-01 -1.6208e-01
       143 4.0568e-02 2.0712e-04 3.9622e-01 -2.1859e-01 3.1665e-01 -1.6177e-01
       144 1.5383e-02 2.0974e-04 3.9459e-01 -2.1861e-01 3.1535e-01 -1.6195e-01
       145 1.3809e-01 1.9726e-04 3.9471e-01 -2.1799e-01 3.1539e-01 -1.6134e-01
       146 3.6313e-03 2.1098e-04 3.9465e-01 -2.1901e-01 3.1527e-01 -1.6217e-01
       147 4.8009e-03 2.1085e-04 3.9497e-01 -2.1927e-01 3.1548e-01 -1.6214e-01
       148 1.0710e-01 2.0034e-04 3.9665e-01 -2.1882e-01 3.1700e-01 -1.6201e-01
       149 2.6305e-02 2.0860e-04 3.9489e-01 -2.1834e-01 3.1561e-01 -1.6176e-01
       150 9.7350e-02 2.0132e-04 3.9675e-01 -2.1910e-01 3.1718e-01 -1.6201e-01
       151 8.9318e-02 2.0213e-04 3.9464e-01 -2.1842e-01 3.1541e-01 -1.6173e-01
       152 6.9852e-04 2.1129e-04 3.9593e-01 -2.1763e-01 3.1649e-01 -1.6136e-01
       153 1.2138e-02 2.1008e-04 3.9573e-01 -2.1891e-01 3.1626e-01 -1.6202e-01
       154 1.3858e-01 1.9721e-04 3.9368e-01 -2.1834e-01 3.1446e-01 -1.6191e-01
       155 1.8535e-01 1.9265e-04 3.9817e-01 -2.1777e-01 3.1851e-01 -1.6137e-01
       156 6.2163e-02 2.0489e-04 3.9416e-01 -2.1872e-01 3.1486e-01 -1.6209e-01
       157 5.7023e-02 2.0542e-04 3.9462e-01 -2.1791e-01 3.1511e-01 -1.6130e-01
       158 3.9964e-03 2.1094e-04 3.9476e-01 -2.1892e-01 3.1535e-01 -1.6212e-01
       159 4.6845e-03 2.1087e-04 3.9579e-01 -2.1847e-01 3.1618e-01 -1.6193e-01
       160 7.2759e-02 2.0381e-04 3.9368e-01 -2.1798e-01 3.1454e-01 -1.6175e-01
       161 1.2966e-02 2.0999e-04 3.9575e-01 -2.1861e-01 3.1623e-01 -1.6188e-01
       162 1.8397e-01 1.9278e-04 3.9285e-01 -2.1905e-01 3.1371e-01 -1.6201e-01
       163 1.6121e-01 1.9499e-04 3.9330e-01 -2.1859e-01 3.1408e-01 -1.6168e-01
       164 8.7764e-03 2.1043e-04 3.9557e-01 -2.1880e-01 3.1602e-01 -1.6209e-01
       165 4.2708e-02 2.0689e-04 3.9408e-01 -2.1960e-01 3.1491e-01 -1.6227e-01
       166 1.3473e-02 2.0994e-04 3.9615e-01 -2.1812e-01 3.1662e-01 -1.6157e-01
       167 2.4638e-01 1.8686e-04 3.9341e-01 -2.1762e-01 3.1424e-01 -1.6140e-01
       168 1.3444e-01 1.9762e-04 3.9756e-01 -2.1852e-01 3.1787e-01 -1.6195e-01
       169 1.1230e-01 1.9982e-04 3.9425e-01 -2.1789e-01 3.1494e-01 -1.6136e-01
       170 9.9379e-02 2.0111e-04 3.9724e-01 -2.1851e-01 3.1761e-01 -1.6180e-01
       171 3.2497e-01 1.7966e-04 3.9336e-01 -2.1746e-01 3.1424e-01 -1.6119e-01
       172 2.1550e-01 1.8977e-04 3.9304e-01 -2.1887e-01 3.1413e-01 -1.6193e-01
       173 1.1113e-01 1.9994e-04 3.9755e-01 -2.1787e-01 3.1788e-01 -1.6144e-01
       174 8.0283e-02 2.0304e-04 3.9497e-01 -2.1747e-01 3.1570e-01 -1.6139e-01
       175 3.5612e-02 2.0763e-04 3.9364e-01 -2.1962e-01 3.1446e-01 -1.6213e-01
       176 2.4939e-03 2.1110e-04 3.9503e-01 -2.1835e-01 3.1575e-01 -1.6183e-01
       177 4.5095e-01 1.6869e-04 3.9232e-01 -2.1786e-01 3.1342e-01 -1.6166e-01
       178 1.1249e-01 1.9980e-04 3.9388e-01 -2.1763e-01 3.1470e-01 -1.6161e-01
       179 3.3029e-02 2.0790e-04 3.9474e-01 -2.1749e-01 3.1550e-01 -1.6117e-01
       180 2.2511e-02 2.0899e-04 3.9491e-01 -2.1748e-01 3.1559e-01 -1.6168e-01
       181 1.3010e-01 1.9805e-04 3.9391e-01 -2.1769e-01 3.1472e-01 -1.6166e-01
       182 2.4546e-01 1.8695e-04 3.9251e-01 -2.1946e-01 3.1345e-01 -1.6206e-01
       183 5.9407e-03 2.1073e-04 3.9646e-01 -2.1775e-01 3.1693e-01 -1.6132e-01
       184 1.8472e-01 1.9271e-04 3.9348e-01 -2.1881e-01 3.1418e-01 -1.6192e-01
       185 3.0210e-02 2.0819e-04 3.9631e-01 -2.1834e-01 3.1704e-01 -1.6167e-01
       186 1.0526e-01 2.0052e-04 3.9429e-01 -2.1774e-01 3.1499e-01 -1.6160e-01
       187 2.3149e-01 1.8826e-04 3.9813e-01 -2.1810e-01 3.1847e-01 -1.6136e-01
       188 1.2748e-01 1.9831e-04 3.9698e-01 -2.1853e-01 3.1733e-01 -1.6177e-01
       189 1.6671e-01 1.9446e-04 3.9711e-01 -2.1866e-01 3.1765e-01 -1.6184e-01
       190 6.7811e-02 2.0431e-04 3.9636e-01 -2.1789e-01 3.1684e-01 -1.6159e-01
       191 2.8035e-01 1.8372e-04 3.9752e-01 -2.1936e-01 3.1794e-01 -1.6223e-01
       192 1.5916e-01 1.9519e-04 3.9310e-01 -2.1865e-01 3.1390e-01 -1.6194e-01
       193 6.6138e-02 2.0448e-04 3.9678e-01 -2.1784e-01 3.1725e-01 -1.6144e-01
       194 7.5264e-02 2.0355e-04 3.9600e-01 -2.1847e-01 3.1647e-01 -1.6194e-01
       195 3.9456e-02 2.0723e-04 3.9411e-01 -2.1904e-01 3.1490e-01 -1.6191e-01
       196 2.5417e-01 1.8614e-04 3.9737e-01 -2.1937e-01 3.1772e-01 -1.6217e-01
       197 9.9640e-02 2.0109e-04 3.9408e-01 -2.1869e-01 3.1488e-01 -1.6145e-01
       198 7.2098e-02 2.0388e-04 3.9622e-01 -2.1910e-01 3.1673e-01 -1.6216e-01
       199 2.0052e-01 1.9120e-04 3.9353e-01 -2.1741e-01 3.1433e-01 -1.6138e-01
       200 4.8182e-03 2.1085e-04 3.9523e-01 -2.1935e-01 3.1603e-01 -1.6187e-01
       201 2.2539e-03 2.1112e-04 3.9647e-01 -2.1751e-01 3.1689e-01 -1.6106e-01
       202 8.9874e-02 2.0207e-04 3.9424e-01 -2.1765e-01 3.1507e-01 -1.6137e-01
       203 5.2377e-01 1.6266e-04 3.9880e-01 -2.1897e-01 3.1905e-01 -1.6210e-01
       204 2.4071e-03 2.1111e-04 3.9598e-01 -2.1781e-01 3.1650e-01 -1.6153e-01
       205 5.3559e-02 2.0577e-04 3.9425e-01 -2.1873e-01 3.1508e-01 -1.6174e-01
       206 3.2511e-02 2.0795e-04 3.9587e-01 -2.1842e-01 3.1642e-01 -1.6198e-01
       207 1.1100e-01 1.9995e-04 3.9409e-01 -2.1756e-01 3.1481e-01 -1.6152e-01
       208 2.3113e-02 2.0893e-04 3.9557e-01 -2.1731e-01 3.1616e-01 -1.6111e-01
       209 9.6816e-02 2.0137e-04 3.9687e-01 -2.1842e-01 3.1724e-01 -1.6173e-01
       210 3.0664e-03 2.1104e-04 3.9488e-01 -2.1865e-01 3.1558e-01 -1.6208e-01
       211 3.4483e-03 2.1100e-04 3.9497e-01 -2.1961e-01 3.1574e-01 -1.6232e-01
       212 3.2825e-02 2.0792e-04 3.9618e-01 -2.1835e-01 3.1658e-01 -1.6193e-01
       213 1.7450e-01 1.9370e-04 3.9742e-01 -2.1954e-01 3.1782e-01 -1.6215e-01
       214 3.7368e-03 2.1096e-04 3.9505e-01 -2.1894e-01 3.1573e-01 -1.6206e-01
       215 7.9674e-02 2.0311e-04 3.9367e-01 -2.1840e-01 3.1443e-01 -1.6185e-01
       216 4.1204e-02 2.0705e-04 3.9461e-01 -2.1823e-01 3.1540e-01 -1.6175e-01
       217 3.7276e-01 1.7542e-04 3.9216e-01 -2.1884e-01 3.1312e-01 -1.6197e-01
       218 7.7271e-02 2.0335e-04 3.9488e-01 -2.1843e-01 3.1562e-01 -1.6131e-01
       219 3.1478e-02 2.0806e-04 3.9463e-01 -2.1820e-01 3.1534e-01 -1.6152e-01
       220 4.1656e-02 2.0700e-04 3.9505e-01 -2.1787e-01 3.1570e-01 -1.6161e-01
       221 2.7166e-01 1.8452e-04 3.9268e-01 -2.1904e-01 3.1373e-01 -1.6186e-01
       222 3.8297e-02 2.0735e-04 3.9524e-01 -2.1724e-01 3.1587e-01 -1.6107e-01
       223 3.1729e-03 2.1102e-04 3.9520e-01 -2.1824e-01 3.1585e-01 -1.6177e-01
       224 1.2616e-03 2.1123e-04 3.9539e-01 -2.1767e-01 3.1588e-01 -1.6161e-01
       225 3.7184e-02 2.0747e-04 3.9673e-01 -2.1816e-01 3.1722e-01 -1.6165e-01
       226 3.1131e-02 2.0810e-04 3.9645e-01 -2.1764e-01 3.1705e-01 -1.6168e-01
       227 4.0800e-02 2.0709e-04 3.9601e-01 -2.1892e-01 3.1663e-01 -1.6205e-01
       228 3.7503e-02 2.0743e-04 3.9489e-01 -2.1744e-01 3.1562e-01 -1.6143e-01
       229 4.8980e-02 2.0625e-04 3.9606e-01 -2.1924e-01 3.1664e-01 -1.6202e-01
       230 1.7372e-03 2.1118e-04 3.9601e-01 -2.1795e-01 3.1666e-01 -1.6135e-01
       231 1.4350e-01 1.9673e-04 3.9654e-01 -2.1860e-01 3.1681e-01 -1.6204e-01
       232 8.1022e-02 2.0297e-04 3.9752e-01 -2.1761e-01 3.1793e-01 -1.6127e-01
       233 1.5023e-01 1.9606e-04 3.9729e-01 -2.1779e-01 3.1765e-01 -1.6157e-01
       234 1.7454e-03 2.1118e-04 3.9557e-01 -2.1820e-01 3.1610e-01 -1.6151e-01
       235 1.3798e-01 1.9727e-04 3.9742e-01 -2.1801e-01 3.1784e-01 -1.6147e-01
       236 1.1813e-01 1.9924e-04 3.9356e-01 -2.1845e-01 3.1439e-01 -1.6176e-01
       237 8.6394e-02 2.0242e-04 3.9582e-01 -2.1610e-01 3.1649e-01 -1.6019e-01
       238 3.4523e-01 1.7785e-04 3.9819e-01 -2.1899e-01 3.1854e-01 -1.6206e-01
       239 2.0196e-02 2.0924e-04 3.9552e-01 -2.1881e-01 3.1597e-01 -1.6208e-01
       240 5.7546e-03 2.1075e-04 3.9460e-01 -2.1892e-01 3.1522e-01 -1.6180e-01
       241 4.0624e-02 2.0711e-04 3.9446e-01 -2.1755e-01 3.1513e-01 -1.6150e-01
       242 4.2536e-02 2.0691e-04 3.9437e-01 -2.1864e-01 3.1517e-01 -1.6198e-01
       243 3.0500e-02 2.0816e-04 3.9458e-01 -2.1874e-01 3.1525e-01 -1.6158e-01
       244 5.7022e-02 2.0542e-04 3.9651e-01 -2.1782e-01 3.1675e-01 -1.6167e-01
       245 5.7205e-02 2.0540e-04 3.9371e-01 -2.1919e-01 3.1454e-01 -1.6193e-01
       246 2.4844e-01 1.8667e-04 3.9749e-01 -2.1878e-01 3.1788e-01 -1.6191e-01
       247 1.4824e-03 2.1120e-04 3.9490e-01 -2.1864e-01 3.1542e-01 -1.6198e-01
       248 3.4807e-03 2.1099e-04 3.9559e-01 -2.1817e-01 3.1630e-01 -1.6151e-01
       249 3.8394e-02 2.0734e-04 3.9508e-01 -2.1771e-01 3.1562e-01 -1.6141e-01
       250 3.7296e-03 2.1097e-04 3.9677e-01 -2.1696e-01 3.1717e-01 -1.6088e-01
       251 1.2527e-01 1.9853e-04 3.9284e-01 -2.1918e-01 3.1370e-01 -1.6223e-01
       252 3.4399e-03 2.1100e-04 3.9469e-01 -2.1900e-01 3.1534e-01 -1.6203e-01
       253 5.9898e-02 2.0512e-04 3.9696e-01 -2.1773e-01 3.1733e-01 -1.6151e-01
       254 1.2669e-01 1.9839e-04 3.9724e-01 -2.1897e-01 3.1771e-01 -1.6167e-01
       255 1.1501e-02 2.1015e-04 3.9623e-01 -2.1645e-01 3.1670e-01 -1.6061e-01
       256 3.3211e-02 2.0788e-04 3.9503e-01 -2.1828e-01 3.1566e-01 -1.6134e-01
       257 2.6758e-02 2.0855e-04 3.9461e-01 -2.1749e-01 3.1535e-01 -1.6150e-01
       258 3.4201e-02 2.0778e-04 3.9447e-01 -2.1802e-01 3.1516e-01 -1.6191e-01
       259 1.5334e-01 1.9576e-04 3.9401e-01 -2.1730e-01 3.1484e-01 -1.6101e-01
       260 2.7328e-02 2.0849e-04 3.9579e-01 -2.1948e-01 3.1629e-01 -1.6227e-01
       261 9.8451e-02 2.0121e-04 3.9698e-01 -2.1839e-01 3.1758e-01 -1.6188e-01
       262 1.0955e-03 2.1124e-04 3.9599e-01 -2.1878e-01 3.1648e-01 -1.6156e-01
       263 6.7722e-04 2.1129e-04 3.9501e-01 -2.1909e-01 3.1555e-01 -1.6215e-01
       264 4.3162e-02 2.0685e-04 3.9384e-01 -2.1894e-01 3.1470e-01 -1.6217e-01
       265 1.8199e-01 1.9298e-04 3.9669e-01 -2.1932e-01 3.1710e-01 -1.6226e-01
       266 5.7886e-02 2.0533e-04 3.9691e-01 -2.1779e-01 3.1748e-01 -1.6137e-01
       267 1.7534e-02 2.0951e-04 3.9474e-01 -2.1948e-01 3.1554e-01 -1.6204e-01
       268 4.0401e-03 2.1093e-04 3.9489e-01 -2.1880e-01 3.1546e-01 -1.6167e-01
       269 6.1782e-01 1.5519e-04 3.9192e-01 -2.1822e-01 3.1301e-01 -1.6168e-01
       270 9.6764e-02 2.0138e-04 3.9729e-01 -2.1749e-01 3.1756e-01 -1.6126e-01
       271 9.3291e-02 2.0173e-04 3.9738e-01 -2.1835e-01 3.1777e-01 -1.6160e-01
       272 4.6847e-02 2.0647e-04 3.9328e-01 -2.2010e-01 3.1406e-01 -1.6250e-01
       273 1.3630e-01 1.9744e-04 3.9766e-01 -2.1861e-01 3.1809e-01 -1.6203e-01
       274 3.5743e-02 2.0762e-04 3.9437e-01 -2.1960e-01 3.1511e-01 -1.6212e-01
       275 2.8669e-01 1.8313e-04 3.9411e-01 -2.1709e-01 3.1489e-01 -1.6074e-01
       276 2.4546e-02 2.0878e-04 3.9512e-01 -2.1792e-01 3.1566e-01 -1.6129e-01
       277 9.0118e-02 2.0205e-04 3.9442e-01 -2.1822e-01 3.1506e-01 -1.6142e-01
       278 6.7418e-03 2.1065e-04 3.9548e-01 -2.1868e-01 3.1616e-01 -1.6191e-01
       279 5.4010e-01 1.6134e-04 3.9319e-01 -2.1720e-01 3.1418e-01 -1.6073e-01
       280 3.1331e-01 1.8071e-04 3.9338e-01 -2.1762e-01 3.1419e-01 -1.6115e-01
       281 1.0445e-01 2.0060e-04 3.9436e-01 -2.1733e-01 3.1507e-01 -1.6105e-01
       282 2.3671e-03 2.1111e-04 3.9509e-01 -2.1921e-01 3.1588e-01 -1.6219e-01
       283 3.8725e-01 1.7415e-04 3.9328e-01 -2.1735e-01 3.1414e-01 -1.6112e-01
       284 1.7640e-03 2.1117e-04 3.9555e-01 -2.1774e-01 3.1620e-01 -1.6143e-01
       285 3.4238e-03 2.1100e-04 3.9483e-01 -2.1826e-01 3.1557e-01 -1.6194e-01
       286 7.3617e-02 2.0372e-04 3.9384e-01 -2.1845e-01 3.1457e-01 -1.6185e-01
       287 7.1834e-02 2.0390e-04 3.9371e-01 -2.1916e-01 3.1452e-01 -1.6211e-01
       288 8.3088e-02 2.0276e-04 3.9486e-01 -2.1763e-01 3.1542e-01 -1.6110e-01
       289 2.2316e-03 2.1112e-04 3.9554e-01 -2.1834e-01 3.1627e-01 -1.6185e-01
       290 9.0462e-03 2.1041e-04 3.9509e-01 -2.1836e-01 3.1555e-01 -1.6146e-01
       291 3.8034e-01 1.7476e-04 3.9294e-01 -2.1712e-01 3.1403e-01 -1.6126e-01
       292 1.8108e-01 1.9306e-04 3.9724e-01 -2.1867e-01 3.1761e-01 -1.6181e-01
       293 3.9656e-02 2.0721e-04 3.9621e-01 -2.1889e-01 3.1689e-01 -1.6210e-01
       294 1.3768e-01 1.9730e-04 3.9398e-01 -2.1748e-01 3.1470e-01 -1.6133e-01
       295 3.3910e-02 2.0781e-04 3.9604e-01 -2.1857e-01 3.1654e-01 -1.6192e-01
       296 2.2283e-01 1.8908e-04 3.9311e-01 -2.1900e-01 3.1403e-01 -1.6193e-01
       297 1.9757e-03 2.1115e-04 3.9482e-01 -2.1850e-01 3.1542e-01 -1.6193e-01
       298 2.4601e-02 2.0878e-04 3.9618e-01 -2.1892e-01 3.1672e-01 -1.6196e-01
       299 2.1838e-02 2.0906e-04 3.9557e-01 -2.1896e-01 3.1630e-01 -1.6201e-01
       300 1.2132e-01 1.9892e-04 3.9313e-01 -2.1964e-01 3.1394e-01 -1.6225e-01
       301 6.3752e-02 2.0473e-04 3.9532e-01 -2.1687e-01 3.1594e-01 -1.6075e-01
       302 3.7386e-04 2.1132e-04 3.9480e-01 -2.1868e-01 3.1535e-01 -1.6201e-01
       303 5.9848e-03 2.1073e-04 3.9554e-01 -2.1857e-01 3.1624e-01 -1.6173e-01
       304 4.0445e-02 2.0713e-04 3.9435e-01 -2.1781e-01 3.1500e-01 -1.6151e-01
       305 1.1834e-03 2.1123e-04 3.9601e-01 -2.1736e-01 3.1661e-01 -1.6118e-01
       306 3.2765e-01 1.7942e-04 3.9816e-01 -2.1831e-01 3.1843e-01 -1.6182e-01
       307 1.3578e-01 1.9749e-04 3.9305e-01 -2.1941e-01 3.1389e-01 -1.6218e-01
       308 9.9858e-02 2.0107e-04 3.9466e-01 -2.1756e-01 3.1542e-01 -1.6130e-01
       309 3.0469e-01 1.8149e-04 3.9364e-01 -2.1798e-01 3.1452e-01 -1.6132e-01
       310 4.9082e-04 2.1131e-04 3.9513e-01 -2.1876e-01 3.1581e-01 -1.6197e-01
       311 6.0437e-01 1.5624e-04 3.9166e-01 -2.1847e-01 3.1264e-01 -1.6144e-01
       312 5.4142e-01 1.6123e-04 3.9185e-01 -2.1860e-01 3.1292e-01 -1.6201e-01
       313 7.1926e-02 2.0389e-04 3.9422e-01 -2.1756e-01 3.1491e-01 -1.6150e-01
       314 1.1954e-01 1.9910e-04 3.9776e-01 -2.1697e-01 3.1808e-01 -1.6107e-01
       315 1.5719e-01 1.9538e-04 3.9793e-01 -2.1745e-01 3.1815e-01 -1.6108e-01
       316 2.8220e-02 2.0840e-04 3.9617e-01 -2.1811e-01 3.1672e-01 -1.6177e-01
       317 1.2461e-01 1.9859e-04 3.9683e-01 -2.1922e-01 3.1722e-01 -1.6198e-01
       318 2.0010e-03 2.1115e-04 3.9540e-01 -2.1839e-01 3.1620e-01 -1.6178e-01
       319 4.5794e-01 1.6811e-04 3.9226e-01 -2.1857e-01 3.1321e-01 -1.6174e-01
       320 1.0977e-01 2.0007e-04 3.9339e-01 -2.1888e-01 3.1426e-01 -1.6184e-01
       321 8.7970e-03 2.1043e-04 3.9494e-01 -2.1758e-01 3.1563e-01 -1.6148e-01
       322 6.3433e-04 2.1129e-04 3.9528e-01 -2.1863e-01 3.1586e-01 -1.6167e-01
       323 2.5560e-01 1.8600e-04 3.9773e-01 -2.1934e-01 3.1803e-01 -1.6208e-01
       324 1.3091e-01 1.9797e-04 3.9408e-01 -2.1756e-01 3.1481e-01 -1.6143e-01
       325 7.8906e-02 2.0318e-04 3.9387e-01 -2.1797e-01 3.1473e-01 -1.6182e-01
       326 4.3708e-04 2.1131e-04 3.9539e-01 -2.1851e-01 3.1590e-01 -1.6199e-01
       327 4.6935e-01 1.6715e-04 3.9237e-01 -2.1770e-01 3.1332e-01 -1.6130e-01
       328 2.7757e-01 1.8397e-04 3.9254e-01 -2.1894e-01 3.1362e-01 -1.6191e-01
       329 1.6079e-01 1.9503e-04 3.9810e-01 -2.1701e-01 3.1833e-01 -1.6130e-01
       330 1.6660e-01 1.9447e-04 3.9407e-01 -2.1818e-01 3.1478e-01 -1.6134e-01
       331 2.3697e-03 2.1111e-04 3.9466e-01 -2.1912e-01 3.1530e-01 -1.6215e-01
       332 1.7121e-01 1.9402e-04 3.9431e-01 -2.1811e-01 3.1515e-01 -1.6128e-01
       333 2.2463e-02 2.0900e-04 3.9521e-01 -2.1769e-01 3.1590e-01 -1.6137e-01
       334 2.2316e-03 2.1112e-04 3.9596e-01 -2.1750e-01 3.1650e-01 -1.6127e-01
       335 1.9883e-01 1.9136e-04 3.9404e-01 -2.1743e-01 3.1487e-01 -1.6109e-01
       336 4.1088e-01 1.7211e-04 3.9243e-01 -2.1828e-01 3.1358e-01 -1.6180e-01
       337 7.5992e-02 2.0348e-04 3.9424e-01 -2.1815e-01 3.1505e-01 -1.6147e-01
       338 2.5048e-02 2.0873e-04 3.9522e-01 -2.1825e-01 3.1578e-01 -1.6145e-01
       339 2.8384e-01 1.8339e-04 3.9315e-01 -2.1765e-01 3.1392e-01 -1.6133e-01
       340 5.0538e-02 2.0609e-04 3.9394e-01 -2.1915e-01 3.1473e-01 -1.6206e-01
       341 7.3062e-02 2.0378e-04 3.9604e-01 -2.1657e-01 3.1662e-01 -1.6029e-01
       342 1.8287e-03 2.1117e-04 3.9499e-01 -2.1920e-01 3.1563e-01 -1.6203e-01
       343 7.0546e-02 2.0403e-04 3.9612e-01 -2.1918e-01 3.1663e-01 -1.6210e-01
       344 6.6292e-03 2.1066e-04 3.9452e-01 -2.1902e-01 3.1520e-01 -1.6218e-01
       345 3.7724e-02 2.0741e-04 3.9822e-01 -2.1582e-01 3.1847e-01 -1.6045e-01
       346 9.2847e-02 2.0177e-04 3.9670e-01 -2.1860e-01 3.1722e-01 -1.6200e-01
       347 6.0548e-02 2.0506e-04 3.9408e-01 -2.1891e-01 3.1490e-01 -1.6210e-01
       348 1.4810e-01 1.9627e-04 3.9331e-01 -2.1926e-01 3.1426e-01 -1.6211e-01
       349 6.2225e-03 2.1070e-04 3.9622e-01 -2.1805e-01 3.1681e-01 -1.6156e-01
       350 1.5478e-01 1.9562e-04 3.9398e-01 -2.1764e-01 3.1481e-01 -1.6112e-01
       351 3.7319e-01 1.7538e-04 3.9259e-01 -2.1801e-01 3.1360e-01 -1.6176e-01
       352 1.4531e-01 1.9655e-04 3.9362e-01 -2.1770e-01 3.1433e-01 -1.6153e-01
       353 4.7143e-04 2.1131e-04 3.9501e-01 -2.1875e-01 3.1576e-01 -1.6204e-01
       354 9.6700e-02 2.0138e-04 3.9814e-01 -2.1729e-01 3.1839e-01 -1.6106e-01
       355 1.1483e-02 2.1015e-04 3.9610e-01 -2.1801e-01 3.1669e-01 -1.6173e-01
       356 3.6168e-01 1.7639e-04 3.9179e-01 -2.1913e-01 3.1290e-01 -1.6219e-01
       357 8.3682e-02 2.0270e-04 3.9363e-01 -2.1898e-01 3.1445e-01 -1.6204e-01
       358 2.6008e-03 2.1108e-04 3.9449e-01 -2.1903e-01 3.1521e-01 -1.6218e-01
       359 1.7205e-01 1.9394e-04 3.9316e-01 -2.1878e-01 3.1411e-01 -1.6198e-01
       360 6.6096e-02 2.0449e-04 3.9351e-01 -2.1926e-01 3.1430e-01 -1.6224e-01
       361 1.4454e-01 1.9662e-04 3.9238e-01 -2.2012e-01 3.1346e-01 -1.6246e-01
       362 9.4994e-01 1.3145e-04 3.9096e-01 -2.1746e-01 3.1205e-01 -1.6153e-01
       363 1.9057e-01 1.9215e-04 3.9354e-01 -2.1811e-01 3.1438e-01 -1.6157e-01
       364 2.0093e-02 2.0925e-04 3.9380e-01 -2.1882e-01 3.1451e-01 -1.6209e-01
       365 1.9576e-02 2.0930e-04 3.9409e-01 -2.1896e-01 3.1501e-01 -1.6211e-01
       366 4.0240e-02 2.0715e-04 3.9371e-01 -2.1957e-01 3.1455e-01 -1.6225e-01
       367 7.3330e-02 2.0375e-04 3.9383e-01 -2.1874e-01 3.1466e-01 -1.6179e-01
       368 1.0329e-01 2.0072e-04 3.9407e-01 -2.1866e-01 3.1474e-01 -1.6161e-01
       369 7.5943e-03 2.1056e-04 3.9611e-01 -2.1646e-01 3.1651e-01 -1.6086e-01
       370 3.3287e-03 2.1101e-04 3.9483e-01 -2.1939e-01 3.1550e-01 -1.6226e-01
       371 6.9805e-02 2.0411e-04 3.9342e-01 -2.1910e-01 3.1429e-01 -1.6213e-01
       372 5.8874e-03 2.1074e-04 3.9516e-01 -2.1763e-01 3.1577e-01 -1.6157e-01
       373 4.9360e-02 2.0621e-04 3.9413e-01 -2.1865e-01 3.1481e-01 -1.6197e-01
       374 2.3721e-01 1.8772e-04 3.9489e-01 -2.1655e-01 3.1556e-01 -1.6002e-01
       375 1.2960e-01 1.9810e-04 3.9621e-01 -2.1938e-01 3.1670e-01 -1.6226e-01
       376 1.3781e-01 1.9729e-04 3.9396e-01 -2.1751e-01 3.1472e-01 -1.6138e-01
       377 2.2247e-01 1.8911e-04 3.9417e-01 -2.1719e-01 3.1489e-01 -1.6096e-01
       378 2.5723e-02 2.0866e-04 3.9608e-01 -2.1889e-01 3.1673e-01 -1.6184e-01
       379 9.4078e-03 2.1037e-04 3.9483e-01 -2.1849e-01 3.1556e-01 -1.6184e-01
       380 1.3385e-03 2.1122e-04 3.9577e-01 -2.1812e-01 3.1618e-01 -1.6123e-01
       381 3.3952e-02 2.0780e-04 3.9390e-01 -2.1944e-01 3.1482e-01 -1.6224e-01
       382 4.7428e-01 1.6674e-04 3.9338e-01 -2.1615e-01 3.1424e-01 -1.6038e-01
       383 4.1324e-01 1.7191e-04 3.9238e-01 -2.1772e-01 3.1337e-01 -1.6145e-01
       384 1.3291e-01 1.9777e-04 3.9319e-01 -2.1894e-01 3.1405e-01 -1.6214e-01
       385 1.6637e-02 2.0961e-04 3.9509e-01 -2.1892e-01 3.1582e-01 -1.6182e-01
       386 4.0429e-01 1.7268e-04 3.9256e-01 -2.1822e-01 3.1366e-01 -1.6154e-01
       387 1.3648e-03 2.1122e-04 3.9592e-01 -2.1792e-01 3.1639e-01 -1.6164e-01
       388 5.5623e-01 1.6004e-04 3.9108e-01 -2.1886e-01 3.1225e-01 -1.6207e-01
       389 4.5521e-03 2.1088e-04 3.9537e-01 -2.1846e-01 3.1598e-01 -1.6186e-01
       390 5.9639e-03 2.1073e-04 3.9592e-01 -2.1829e-01 3.1646e-01 -1.6198e-01
       391 2.7854e-02 2.0844e-04 3.9564e-01 -2.1695e-01 3.1617e-01 -1.6087e-01
       392 1.9718e-02 2.0929e-04 3.9661e-01 -2.1754e-01 3.1714e-01 -1.6176e-01
       393 2.2685e-01 1.8870e-04 3.9320e-01 -2.1819e-01 3.1413e-01 -1.6172e-01
       394 5.1243e-02 2.0601e-04 3.9451e-01 -2.1857e-01 3.1543e-01 -1.6182e-01
       395 3.5672e-01 1.7683e-04 3.9306e-01 -2.1709e-01 3.1394e-01 -1.6127e-01
       396 2.0445e-01 1.9082e-04 3.9443e-01 -2.1650e-01 3.1515e-01 -1.6112e-01
       397 1.7072e-01 1.9407e-04 3.9780e-01 -2.1829e-01 3.1810e-01 -1.6143e-01
       398 3.5305e-01 1.7716e-04 3.9874e-01 -2.1792e-01 3.1900e-01 -1.6159e-01
       399 3.2650e-01 1.7952e-04 3.9414e-01 -2.1690e-01 3.1490e-01 -1.6065e-01
       400 1.1049e+00 1.2164e-04 3.9058e-01 -2.1751e-01 3.1167e-01 -1.6149e-01
       401 5.7809e-02 2.0534e-04 3.9421e-01 -2.1862e-01 3.1505e-01 -1.6160e-01
       402 1.2164e-02 2.1008e-04 3.9437e-01 -2.1853e-01 3.1512e-01 -1.6205e-01
       403 1.5053e-02 2.0977e-04 3.9497e-01 -2.1813e-01 3.1542e-01 -1.6171e-01
       404 7.7404e-02 2.0334e-04 3.9678e-01 -2.1871e-01 3.1749e-01 -1.6200e-01
       405 3.2180e-01 1.7995e-04 3.9358e-01 -2.1753e-01 3.1439e-01 -1.6144e-01
       406 1.3212e-01 1.9785e-04 3.9726e-01 -2.1850e-01 3.1774e-01 -1.6201e-01
       407 1.0645e-02 2.1024e-04 3.9598e-01 -2.1679e-01 3.1644e-01 -1.6098e-01
       408 1.3246e-01 1.9781e-04 3.9370e-01 -2.1774e-01 3.1458e-01 -1.6178e-01
       409 7.0649e-02 2.0402e-04 3.9460e-01 -2.1797e-01 3.1537e-01 -1.6145e-01
       410 1.2170e-02 2.1008e-04 3.9445e-01 -2.1825e-01 3.1514e-01 -1.6198e-01
       411 1.4641e-01 1.9644e-04 3.9734e-01 -2.1909e-01 3.1778e-01 -1.6212e-01
       412 1.4552e-01 1.9653e-04 3.9713e-01 -2.1865e-01 3.1751e-01 -1.6170e-01
       413 6.5613e-03 2.1067e-04 3.9622e-01 -2.1737e-01 3.1655e-01 -1.6115e-01
       414 8.5097e-03 2.1046e-04 3.9598e-01 -2.1678e-01 3.1642e-01 -1.6095e-01
       415 1.6222e-02 2.0965e-04 3.9586e-01 -2.1888e-01 3.1636e-01 -1.6213e-01
       416 5.4955e-02 2.0563e-04 3.9611e-01 -2.1919e-01 3.1661e-01 -1.6216e-01
       417 1.4720e-01 1.9636e-04 3.9520e-01 -2.1566e-01 3.1580e-01 -1.6005e-01
       418 9.3317e-02 2.0172e-04 3.9378e-01 -2.1798e-01 3.1458e-01 -1.6186e-01
       419 9.6538e-02 2.0140e-04 3.9386e-01 -2.1832e-01 3.1475e-01 -1.6165e-01
       420 2.1484e-01 1.8983e-04 3.9426e-01 -2.1723e-01 3.1505e-01 -1.6079e-01
       421 1.2467e-02 2.1005e-04 3.9435e-01 -2.1901e-01 3.1509e-01 -1.6211e-01
       422 1.1736e-02 2.1012e-04 3.9526e-01 -2.1913e-01 3.1586e-01 -1.6215e-01
       423 2.8216e-02 2.0840e-04 3.9443e-01 -2.1857e-01 3.1514e-01 -1.6204e-01
       424 1.8251e-02 2.0944e-04 3.9589e-01 -2.1845e-01 3.1637e-01 -1.6183e-01
       425 2.6333e-02 2.0859e-04 3.9447e-01 -2.1821e-01 3.1513e-01 -1.6171e-01
       426 5.7592e-02 2.0536e-04 3.9426e-01 -2.1809e-01 3.1494e-01 -1.6156e-01
       427 4.9695e-02 2.0617e-04 3.9646e-01 -2.1907e-01 3.1696e-01 -1.6210e-01
       428 4.1169e-02 2.0705e-04 3.9602e-01 -2.1926e-01 3.1654e-01 -1.6223e-01
       429 6.0920e-03 2.1072e-04 3.9607e-01 -2.1712e-01 3.1659e-01 -1.6134e-01
       430 3.8802e-02 2.0730e-04 3.9441e-01 -2.1866e-01 3.1508e-01 -1.6199e-01
       431 3.7125e-02 2.0747e-04 3.9446e-01 -2.1812e-01 3.1519e-01 -1.6192e-01
       432 1.5527e-01 1.9557e-04 3.9369e-01 -2.1711e-01 3.1443e-01 -1.6135e-01
       433 1.2558e-01 1.9850e-04 3.9372e-01 -2.1842e-01 3.1453e-01 -1.6169e-01
       434 2.7778e-03 2.1107e-04 3.9519e-01 -2.1848e-01 3.1559e-01 -1.6201e-01
       435 8.0597e-02 2.0301e-04 3.9415e-01 -2.1875e-01 3.1485e-01 -1.6179e-01
       436 5.0175e-02 2.0612e-04 3.9606e-01 -2.1903e-01 3.1657e-01 -1.6209e-01
       437 1.9802e-03 2.1115e-04 3.9636e-01 -2.1783e-01 3.1700e-01 -1.6132e-01
       438 2.6328e-02 2.0860e-04 3.9535e-01 -2.1739e-01 3.1597e-01 -1.6122e-01
       439 1.3484e-02 2.0994e-04 3.9644e-01 -2.1812e-01 3.1704e-01 -1.6145e-01
       440 1.3971e-03 2.1121e-04 3.9541e-01 -2.1769e-01 3.1583e-01 -1.6177e-01
       441 1.9298e-01 1.9192e-04 3.9787e-01 -2.1781e-01 3.1806e-01 -1.6150e-01
       442 3.8798e-03 2.1095e-04 3.9469e-01 -2.1861e-01 3.1534e-01 -1.6176e-01
       443 5.8218e-03 2.1075e-04 3.9582e-01 -2.1803e-01 3.1630e-01 -1.6136e-01
       444 1.7179e-02 2.0955e-04 3.9648e-01 -2.1769e-01 3.1705e-01 -1.6128e-01
       445 1.5142e-01 1.9595e-04 3.9280e-01 -2.1862e-01 3.1357e-01 -1.6197e-01
       446 3.4622e-03 2.1099e-04 3.9436e-01 -2.1921e-01 3.1506e-01 -1.6225e-01
       447 4.4861e-02 2.0667e-04 3.9500e-01 -2.1757e-01 3.1566e-01 -1.6118e-01
       448 5.1388e-01 1.6347e-04 3.9869e-01 -2.1842e-01 3.1888e-01 -1.6200e-01
       449 8.1618e-03 2.1050e-04 3.9469e-01 -2.1847e-01 3.1543e-01 -1.6184e-01
       450 3.9726e-02 2.0720e-04 3.9455e-01 -2.1822e-01 3.1523e-01 -1.6176e-01
       451 7.2770e-03 2.1059e-04 3.9505e-01 -2.1813e-01 3.1581e-01 -1.6191e-01
       452 1.0052e-02 2.1030e-04 3.9582e-01 -2.1877e-01 3.1639e-01 -1.6212e-01
       453 1.8554e-01 1.9263e-04 3.9322e-01 -2.1768e-01 3.1397e-01 -1.6153e-01
       454 1.2169e-01 1.9888e-04 3.9338e-01 -2.1846e-01 3.1419e-01 -1.6203e-01
       455 1.7746e-02 2.0949e-04 3.9611e-01 -2.1877e-01 3.1681e-01 -1.6184e-01
       456 1.8748e-02 2.0939e-04 3.9466e-01 -2.1882e-01 3.1540e-01 -1.6207e-01
       457 4.5996e-02 2.0655e-04 3.9668e-01 -2.1792e-01 3.1714e-01 -1.6184e-01
       458 1.2896e-01 1.9816e-04 3.9689e-01 -2.1924e-01 3.1742e-01 -1.6200e-01
       459 6.9113e-01 1.4960e-04 3.9214e-01 -2.1741e-01 3.1319e-01 -1.6116e-01
       460 5.1500e-02 2.0599e-04 3.9427e-01 -2.1827e-01 3.1512e-01 -1.6187e-01
       461 2.7747e-03 2.1107e-04 3.9693e-01 -2.1752e-01 3.1741e-01 -1.6104e-01
       462 5.1366e-03 2.1082e-04 3.9530e-01 -2.1886e-01 3.1579e-01 -1.6200e-01
       463 4.7026e-01 1.6707e-04 3.9151e-01 -2.1894e-01 3.1262e-01 -1.6207e-01
       464 8.1170e-01 1.4085e-04 3.9171e-01 -2.1707e-01 3.1267e-01 -1.6106e-01
       465 1.7260e-03 2.1118e-04 3.9597e-01 -2.1778e-01 3.1652e-01 -1.6138e-01
       466 1.9172e-02 2.0934e-04 3.9463e-01 -2.1927e-01 3.1539e-01 -1.6218e-01
       467 2.3338e-02 2.0891e-04 3.9361e-01 -2.1975e-01 3.1443e-01 -1.6222e-01
       468 1.6512e-01 1.9461e-04 3.9410e-01 -2.1731e-01 3.1499e-01 -1.6116e-01
       469 1.8454e-02 2.0942e-04 3.9574e-01 -2.1826e-01 3.1634e-01 -1.6178e-01
       470 6.0094e-04 2.1130e-04 3.9529e-01 -2.1814e-01 3.1584e-01 -1.6174e-01
       471 2.6141e-02 2.0861e-04 3.9469e-01 -2.1839e-01 3.1546e-01 -1.6174e-01
       472 1.4352e-01 1.9672e-04 3.9695e-01 -2.1903e-01 3.1748e-01 -1.6209e-01
       473 4.5094e-02 2.0665e-04 3.9632e-01 -2.1836e-01 3.1677e-01 -1.6198e-01
       474 1.3135e-01 1.9792e-04 3.9380e-01 -2.1786e-01 3.1444e-01 -1.6162e-01
       475 8.5337e-02 2.0253e-04 3.9394e-01 -2.1939e-01 3.1479e-01 -1.6202e-01
       476 2.1562e-02 2.0909e-04 3.9386e-01 -2.1868e-01 3.1476e-01 -1.6207e-01
       477 1.1300e-02 2.1017e-04 3.9622e-01 -2.1814e-01 3.1674e-01 -1.6164e-01
       478 1.4824e-01 1.9626e-04 3.9689e-01 -2.1880e-01 3.1729e-01 -1.6209e-01
       479 1.3938e-01 1.9713e-04 3.9418e-01 -2.1705e-01 3.1491e-01 -1.6118e-01
       480 7.4830e-03 2.1057e-04 3.9597e-01 -2.1751e-01 3.1657e-01 -1.6131e-01
       481 1.5123e-02 2.0977e-04 3.9516e-01 -2.1826e-01 3.1592e-01 -1.6148e-01
       482 4.3870e-02 2.0677e-04 3.9662e-01 -2.1724e-01 3.1707e-01 -1.6138e-01
       483 6.7713e-01 1.5066e-04 3.9127e-01 -2.1825e-01 3.1240e-01 -1.6178e-01
       484 9.3068e-02 2.0175e-04 3.9334e-01 -2.1899e-01 3.1408e-01 -1.6200e-01
       485 3.9218e-01 1.7372e-04 3.9277e-01 -2.1821e-01 3.1381e-01 -1.6151e-01
       486 3.5828e-02 2.0761e-04 3.9412e-01 -2.1882e-01 3.1479e-01 -1.6210e-01
       487 3.4744e-01 1.7765e-04 3.9261e-01 -2.1778e-01 3.1363e-01 -1.6143e-01
       488 8.1165e-02 2.0295e-04 3.9397e-01 -2.1891e-01 3.1469e-01 -1.6199e-01
       489 1.0295e-02 2.1027e-04 3.9581e-01 -2.1847e-01 3.1633e-01 -1.6171e-01
       490 3.0342e-01 1.8161e-04 3.9184e-01 -2.1893e-01 3.1266e-01 -1.6199e-01
       491 8.5543e-03 2.1046e-04 3.9530e-01 -2.1896e-01 3.1588e-01 -1.6215e-01
       492 9.6308e-03 2.1034e-04 3.9602e-01 -2.1726e-01 3.1652e-01 -1.6095e-01
       493 2.6217e-02 2.0861e-04 3.9596e-01 -2.1845e-01 3.1646e-01 -1.6171e-01
       494 8.6049e-03 2.1045e-04 3.9503e-01 -2.1836e-01 3.1558e-01 -1.6183e-01
       495 2.9728e-03 2.1105e-04 3.9487e-01 -2.1925e-01 3.1543e-01 -1.6227e-01
       496 4.1624e-02 2.0701e-04 3.9454e-01 -2.1872e-01 3.1527e-01 -1.6192e-01
       497 7.1995e-03 2.1060e-04 3.9514e-01 -2.1826e-01 3.1572e-01 -1.6176e-01
       498 6.9413e-02 2.0415e-04 3.9550e-01 -2.1656e-01 3.1624e-01 -1.6054e-01
       499 5.4402e-02 2.0569e-04 3.9341e-01 -2.1913e-01 3.1438e-01 -1.6217e-01
       500 8.6296e-03 2.1045e-04 3.9513e-01 -2.1935e-01 3.1590e-01 -1.6224e-01
       501 1.5829e-01 1.9528e-04 3.9382e-01 -2.1855e-01 3.1465e-01 -1.6174e-01
       502 1.6401e-01 1.9472e-04 3.9371e-01 -2.1738e-01 3.1452e-01 -1.6129e-01
       503 2.3675e-02 2.0887e-04 3.9432e-01 -2.1854e-01 3.1502e-01 -1.6165e-01
       504 6.9188e-03 2.1063e-04 3.9485e-01 -2.1854e-01 3.1557e-01 -1.6205e-01
       505 1.7964e-01 1.9320e-04 3.9330e-01 -2.1880e-01 3.1422e-01 -1.6201e-01
       506 8.9585e-02 2.0210e-04 3.9413e-01 -2.1774e-01 3.1478e-01 -1.6176e-01
       507 1.5231e-01 1.9586e-04 3.9337e-01 -2.1868e-01 3.1424e-01 -1.6205e-01
       508 1.0335e-01 2.0071e-04 3.9399e-01 -2.1819e-01 3.1478e-01 -1.6152e-01
       509 5.2758e-03 2.1080e-04 3.9663e-01 -2.1684e-01 3.1706e-01 -1.6103e-01
       510 1.6320e-01 1.9480e-04 3.9427e-01 -2.1666e-01 3.1493e-01 -1.6098e-01
       511 8.3229e-02 2.0274e-04 3.9696e-01 -2.1765e-01 3.1738e-01 -1.6165e-01
       512 2.8199e-01 1.8356e-04 3.9328e-01 -2.1819e-01 3.1412e-01 -1.6138e-01
       513 4.0265e-02 2.0715e-04 3.9462e-01 -2.1851e-01 3.1525e-01 -1.6196e-01
       514 9.9379e-02 2.0111e-04 3.9722e-01 -2.1804e-01 3.1780e-01 -1.6184e-01
       515 1.5948e-01 1.9516e-04 3.9704e-01 -2.1825e-01 3.1748e-01 -1.6190e-01
       516 4.0464e-02 2.0713e-04 3.9706e-01 -2.1816e-01 3.1751e-01 -1.6137e-01
       517 1.3093e-03 2.1122e-04 3.9445e-01 -2.1912e-01 3.1521e-01 -1.6222e-01
       518 4.0812e-02 2.0709e-04 3.9660e-01 -2.1840e-01 3.1713e-01 -1.6181e-01
       519 1.8516e-01 1.9267e-04 3.9290e-01 -2.1924e-01 3.1396e-01 -1.6204e-01
       520 9.0233e-02 2.0204e-04 3.9445e-01 -2.1773e-01 3.1497e-01 -1.6132e-01
       521 4.9889e-02 2.0615e-04 3.9561e-01 -2.1981e-01 3.1613e-01 -1.6240e-01
       522 2.6297e-03 2.1108e-04 3.9625e-01 -2.1714e-01 3.1687e-01 -1.6112e-01
       523 4.5054e-03 2.1088e-04 3.9533e-01 -2.1802e-01 3.1588e-01 -1.6145e-01
       524 1.8676e-02 2.0940e-04 3.9716e-01 -2.1644e-01 3.1742e-01 -1.6044e-01
       525 1.3588e-01 1.9748e-04 3.9406e-01 -2.1842e-01 3.1483e-01 -1.6185e-01
       526 7.9476e-02 2.0313e-04 3.9678e-01 -2.1817e-01 3.1721e-01 -1.6168e-01
       527 9.6050e-01 1.3075e-04 3.8987e-01 -2.1991e-01 3.1111e-01 -1.6244e-01
       528 8.6956e-03 2.1044e-04 3.9570e-01 -2.1874e-01 3.1636e-01 -1.6191e-01
       529 3.8322e-02 2.0735e-04 3.9617e-01 -2.1825e-01 3.1647e-01 -1.6185e-01
       530 1.6289e-01 1.9483e-04 3.9436e-01 -2.1754e-01 3.1500e-01 -1.6067e-01
       531 2.7249e-01 1.8444e-04 3.9256e-01 -2.1914e-01 3.1361e-01 -1.6186e-01
       532 7.1096e-03 2.1061e-04 3.9571e-01 -2.1877e-01 3.1634e-01 -1.6188e-01
       533 5.3166e-03 2.1080e-04 3.9633e-01 -2.1686e-01 3.1688e-01 -1.6081e-01
       534 1.0023e-01 2.0103e-04 3.9651e-01 -2.1910e-01 3.1704e-01 -1.6212e-01
       535 2.6176e-02 2.0861e-04 3.9593e-01 -2.1865e-01 3.1647e-01 -1.6209e-01
       536 5.3677e-01 1.6161e-04 3.9163e-01 -2.1848e-01 3.1270e-01 -1.6194e-01
       537 2.6796e-02 2.0855e-04 3.9460e-01 -2.1875e-01 3.1529e-01 -1.6210e-01
       538 2.5658e-03 2.1109e-04 3.9607e-01 -2.1804e-01 3.1666e-01 -1.6124e-01
       539 7.5619e-03 2.1056e-04 3.9567e-01 -2.1897e-01 3.1626e-01 -1.6212e-01
       540 3.6386e-01 1.7620e-04 3.9263e-01 -2.1829e-01 3.1358e-01 -1.6191e-01
       541 2.4791e-03 2.1110e-04 3.9584e-01 -2.1850e-01 3.1643e-01 -1.6188e-01
       542 3.6684e-01 1.7594e-04 3.9774e-01 -2.1866e-01 3.1792e-01 -1.6192e-01
       543 4.3824e-02 2.0678e-04 3.9459e-01 -2.1871e-01 3.1534e-01 -1.6173e-01
       544 5.2199e-03 2.1081e-04 3.9532e-01 -2.1907e-01 3.1598e-01 -1.6210e-01
       545 1.2147e-02 2.1008e-04 3.9639e-01 -2.1806e-01 3.1694e-01 -1.6132e-01
       546 3.3194e-01 1.7904e-04 3.9222e-01 -2.1824e-01 3.1315e-01 -1.6188e-01
       547 3.0520e-01 1.8145e-04 3.9330e-01 -2.1737e-01 3.1429e-01 -1.6155e-01
       548 1.3505e-02 2.0994e-04 3.9689e-01 -2.1796e-01 3.1737e-01 -1.6144e-01
       549 3.3467e-02 2.0785e-04 3.9599e-01 -2.1859e-01 3.1658e-01 -1.6206e-01
       550 5.6382e-03 2.1076e-04 3.9509e-01 -2.1935e-01 3.1578e-01 -1.6218e-01
       551 4.8314e-02 2.0631e-04 3.9739e-01 -2.1728e-01 3.1763e-01 -1.6137e-01
       552 7.5940e-01 1.4458e-04 3.9249e-01 -2.1729e-01 3.1332e-01 -1.6103e-01
       553 1.6791e-01 1.9434e-04 3.9337e-01 -2.1834e-01 3.1423e-01 -1.6193e-01
       554 6.7706e-02 2.0432e-04 3.9423e-01 -2.1844e-01 3.1502e-01 -1.6162e-01
       555 1.3867e-01 1.9720e-04 3.9717e-01 -2.1910e-01 3.1763e-01 -1.6206e-01
       556 1.4265e-02 2.0986e-04 3.9607e-01 -2.1835e-01 3.1661e-01 -1.6187e-01
       557 2.2523e-01 1.8885e-04 3.9319e-01 -2.1784e-01 3.1403e-01 -1.6140e-01
       558 1.1473e-01 1.9958e-04 3.9705e-01 -2.1857e-01 3.1729e-01 -1.6178e-01
       559 1.2616e-03 2.1123e-04 3.9511e-01 -2.1794e-01 3.1584e-01 -1.6162e-01
       560 8.5437e-04 2.1127e-04 3.9568e-01 -2.1851e-01 3.1626e-01 -1.6167e-01
       561 1.0487e-01 2.0056e-04 3.9434e-01 -2.1809e-01 3.1493e-01 -1.6148e-01
       562 6.8489e-03 2.1064e-04 3.9636e-01 -2.1798e-01 3.1695e-01 -1.6165e-01
       563 6.7377e-04 2.1129e-04 3.9572e-01 -2.1811e-01 3.1612e-01 -1.6149e-01
       564 3.2920e-01 1.7928e-04 3.9267e-01 -2.1853e-01 3.1375e-01 -1.6176e-01
       565 2.1521e-01 1.8980e-04 3.9297e-01 -2.1813e-01 3.1364e-01 -1.6178e-01
       566 1.8575e-02 2.0941e-04 3.9490e-01 -2.1884e-01 3.1564e-01 -1.6194e-01
       567 3.4945e-01 1.7748e-04 3.9238e-01 -2.1829e-01 3.1326e-01 -1.6178e-01
       568 5.8398e-03 2.1074e-04 3.9568e-01 -2.1855e-01 3.1626e-01 -1.6190e-01
       569 1.8920e-03 2.1116e-04 3.9588e-01 -2.1712e-01 3.1645e-01 -1.6111e-01
       570 8.9936e-02 2.0207e-04 3.9334e-01 -2.1831e-01 3.1404e-01 -1.6174e-01
       571 1.7002e-01 1.9413e-04 3.9345e-01 -2.1840e-01 3.1435e-01 -1.6153e-01
       572 1.0294e-01 2.0076e-04 3.9408e-01 -2.1804e-01 3.1485e-01 -1.6150e-01
       573 1.7539e-03 2.1117e-04 3.9569e-01 -2.1834e-01 3.1603e-01 -1.6187e-01
       574 8.1827e-02 2.0289e-04 3.9360e-01 -2.1912e-01 3.1451e-01 -1.6219e-01
       575 1.1719e-01 1.9933e-04 3.9409e-01 -2.1800e-01 3.1478e-01 -1.6155e-01
       576 4.7281e-02 2.0642e-04 3.9436e-01 -2.1771e-01 3.1510e-01 -1.6159e-01
       577 1.7805e-02 2.0949e-04 3.9543e-01 -2.1772e-01 3.1608e-01 -1.6108e-01
       578 6.8489e-04 2.1129e-04 3.9548e-01 -2.1817e-01 3.1595e-01 -1.6156e-01
       579 9.7361e-02 2.0132e-04 3.9738e-01 -2.1816e-01 3.1788e-01 -1.6181e-01
       580 3.0394e-01 1.8156e-04 3.9332e-01 -2.1762e-01 3.1406e-01 -1.6130e-01
       581 1.1120e-01 1.9993e-04 3.9779e-01 -2.1759e-01 3.1823e-01 -1.6138e-01
       582 2.1166e-02 2.0913e-04 3.9596e-01 -2.1804e-01 3.1652e-01 -1.6182e-01
       583 3.3562e-02 2.0784e-04 3.9448e-01 -2.1864e-01 3.1507e-01 -1.6196e-01
       584 2.8614e-02 2.0836e-04 3.9575e-01 -2.1673e-01 3.1632e-01 -1.6068e-01
       585 3.7120e-02 2.0747e-04 3.9466e-01 -2.1857e-01 3.1536e-01 -1.6156e-01
       586 2.3552e-01 1.8788e-04 3.9412e-01 -2.1696e-01 3.1481e-01 -1.6124e-01
       587 6.7285e-03 2.1065e-04 3.9645e-01 -2.1820e-01 3.1686e-01 -1.6152e-01
       588 2.7566e-02 2.0847e-04 3.9530e-01 -2.1746e-01 3.1595e-01 -1.6103e-01
       589 3.7918e-03 2.1096e-04 3.9590e-01 -2.1757e-01 3.1630e-01 -1.6132e-01
       590 2.4362e-02 2.0880e-04 3.9459e-01 -2.1839e-01 3.1532e-01 -1.6184e-01
       591 7.4826e-03 2.1057e-04 3.9519e-01 -2.1868e-01 3.1598e-01 -1.6158e-01
       592 9.7725e-02 2.0128e-04 3.9732e-01 -2.1766e-01 3.1764e-01 -1.6119e-01
       593 9.6844e-02 2.0137e-04 3.9382e-01 -2.1830e-01 3.1461e-01 -1.6153e-01
       594 1.7724e-02 2.0949e-04 3.9603e-01 -2.1669e-01 3.1657e-01 -1.6104e-01
       595 6.7535e-03 2.1065e-04 3.9486e-01 -2.1849e-01 3.1559e-01 -1.6175e-01
       596 2.2645e-04 2.1134e-04 3.9470e-01 -2.1938e-01 3.1532e-01 -1.6229e-01
       597 3.1317e-01 1.8072e-04 3.9318e-01 -2.1771e-01 3.1417e-01 -1.6141e-01
       598 1.3942e-01 1.9713e-04 3.9441e-01 -2.1738e-01 3.1502e-01 -1.6113e-01
       599 1.6427e-01 1.9469e-04 3.9410e-01 -2.1767e-01 3.1494e-01 -1.6108e-01
       600 1.3449e-02 2.0994e-04 3.9638e-01 -2.1862e-01 3.1702e-01 -1.6165e-01
       601 1.7622e-01 1.9353e-04 3.9388e-01 -2.1768e-01 3.1484e-01 -1.6123e-01
       602 5.4131e-03 2.1079e-04 3.9460e-01 -2.1937e-01 3.1520e-01 -1.6230e-01
       603 1.7683e-03 2.1117e-04 3.9523e-01 -2.1837e-01 3.1585e-01 -1.6197e-01
       604 1.0473e-01 2.0058e-04 3.9557e-01 -2.1615e-01 3.1606e-01 -1.6040e-01
       605 1.4483e-02 2.0983e-04 3.9466e-01 -2.1878e-01 3.1550e-01 -1.6212e-01
       606 1.1070e-01 1.9998e-04 3.9311e-01 -2.1938e-01 3.1401e-01 -1.6228e-01
       607 7.6419e-03 2.1055e-04 3.9577e-01 -2.1876e-01 3.1634e-01 -1.6190e-01
       608 2.3695e-03 2.1111e-04 3.9567e-01 -2.1774e-01 3.1613e-01 -1.6134e-01
       609 3.9485e-03 2.1094e-04 3.9461e-01 -2.1922e-01 3.1523e-01 -1.6221e-01
       610 9.7787e-02 2.0127e-04 3.9430e-01 -2.1776e-01 3.1491e-01 -1.6155e-01
       611 1.2116e-03 2.1123e-04 3.9578e-01 -2.1825e-01 3.1630e-01 -1.6143e-01
       612 1.9004e-02 2.0936e-04 3.9504e-01 -2.1841e-01 3.1572e-01 -1.6176e-01
       613 3.6676e-03 2.1097e-04 3.9496e-01 -2.1845e-01 3.1558e-01 -1.6196e-01
       614 3.3850e-02 2.0781e-04 3.9424e-01 -2.1831e-01 3.1480e-01 -1.6190e-01
       615 1.0785e-01 2.0026e-04 3.9428e-01 -2.1703e-01 3.1489e-01 -1.6104e-01
       616 4.1144e-02 2.0706e-04 3.9397e-01 -2.1868e-01 3.1468e-01 -1.6211e-01
       617 3.0158e-01 1.8177e-04 3.9299e-01 -2.1765e-01 3.1373e-01 -1.6134e-01
       618 1.0035e-01 2.0102e-04 3.9841e-01 -2.1628e-01 3.1858e-01 -1.6056e-01
       619 4.7152e-02 2.0643e-04 3.9388e-01 -2.1887e-01 3.1473e-01 -1.6212e-01
       620 6.7649e-01 1.5070e-04 3.9213e-01 -2.1666e-01 3.1311e-01 -1.6065e-01
       621 1.4487e-02 2.0983e-04 3.9569e-01 -2.1930e-01 3.1632e-01 -1.6207e-01
       622 2.2708e-02 2.0897e-04 3.9547e-01 -2.1910e-01 3.1597e-01 -1.6222e-01
       623 3.4953e-03 2.1099e-04 3.9653e-01 -2.1760e-01 3.1705e-01 -1.6154e-01
       624 9.3893e-02 2.0167e-04 3.9384e-01 -2.1805e-01 3.1466e-01 -1.6157e-01
       625 4.3745e-01 1.6984e-04 3.9193e-01 -2.1881e-01 3.1319e-01 -1.6197e-01
       626 5.7049e-03 2.1076e-04 3.9592e-01 -2.1765e-01 3.1646e-01 -1.6150e-01
       627 1.5897e-02 2.0969e-04 3.9558e-01 -2.1897e-01 3.1618e-01 -1.6216e-01
       628 1.3828e-01 1.9724e-04 3.9395e-01 -2.1781e-01 3.1463e-01 -1.6139e-01
       629 9.4935e-02 2.0156e-04 3.9339e-01 -2.1925e-01 3.1422e-01 -1.6217e-01
       630 1.4976e-02 2.0978e-04 3.9510e-01 -2.1730e-01 3.1572e-01 -1.6140e-01
       631 2.2880e-02 2.0896e-04 3.9476e-01 -2.1838e-01 3.1546e-01 -1.6177e-01
       632 8.0549e-03 2.1051e-04 3.9502e-01 -2.1820e-01 3.1570e-01 -1.6186e-01
       633 1.7822e-01 1.9334e-04 3.9500e-01 -2.1645e-01 3.1570e-01 -1.6037e-01
       634 3.7837e-03 2.1096e-04 3.9560e-01 -2.1736e-01 3.1626e-01 -1.6124e-01
       635 1.7516e-01 1.9364e-04 3.9424e-01 -2.1762e-01 3.1502e-01 -1.6107e-01
       636 7.0198e-02 2.0407e-04 3.9620e-01 -2.1905e-01 3.1662e-01 -1.6216e-01
       637 7.7140e-02 2.0336e-04 3.9488e-01 -2.1713e-01 3.1550e-01 -1.6099e-01
       638 2.9920e-01 1.8199e-04 3.9277e-01 -2.1765e-01 3.1381e-01 -1.6170e-01
       639 4.3703e-01 1.6987e-04 3.9267e-01 -2.1832e-01 3.1359e-01 -1.6149e-01
       640 3.6451e-02 2.0754e-04 3.9563e-01 -2.1947e-01 3.1623e-01 -1.6210e-01
       641 4.1184e-02 2.0705e-04 3.9567e-01 -2.1673e-01 3.1629e-01 -1.6111e-01
       642 7.2258e-02 2.0386e-04 3.9655e-01 -2.1923e-01 3.1692e-01 -1.6197e-01
       643 1.6848e-03 2.1118e-04 3.9569e-01 -2.1896e-01 3.1629e-01 -1.6205e-01
       644 6.4994e-03 2.1067e-04 3.9431e-01 -2.1863e-01 3.1507e-01 -1.6188e-01
       645 2.6763e-02 2.0855e-04 3.9392e-01 -2.1997e-01 3.1478e-01 -1.6243e-01
       646 1.0890e-03 2.1124e-04 3.9594e-01 -2.1785e-01 3.1645e-01 -1.6143e-01
       647 4.0301e-03 2.1093e-04 3.9581e-01 -2.1741e-01 3.1629e-01 -1.6121e-01
       648 2.5933e-01 1.8566e-04 3.9325e-01 -2.1744e-01 3.1414e-01 -1.6120e-01
       649 2.6996e-03 2.1107e-04 3.9583e-01 -2.1747e-01 3.1621e-01 -1.6143e-01
       650 8.7719e-03 2.1043e-04 3.9630e-01 -2.1786e-01 3.1685e-01 -1.6131e-01
       651 1.4504e-01 1.9657e-04 3.9402e-01 -2.1741e-01 3.1490e-01 -1.6138e-01
       652 1.1504e-02 2.1015e-04 3.9611e-01 -2.1723e-01 3.1670e-01 -1.6082e-01
       653 1.4900e-01 1.9619e-04 3.9331e-01 -2.1790e-01 3.1405e-01 -1.6165e-01
       654 1.0747e-01 2.0030e-04 3.9763e-01 -2.1746e-01 3.1799e-01 -1.6129e-01
       655 3.9901e-02 2.0718e-04 3.9458e-01 -2.1829e-01 3.1520e-01 -1.6160e-01
       656 4.4015e-02 2.0676e-04 3.9371e-01 -2.1939e-01 3.1457e-01 -1.6224e-01
       657 3.5040e-03 2.1099e-04 3.9496e-01 -2.1871e-01 3.1555e-01 -1.6194e-01
       658 1.6952e-03 2.1118e-04 3.9500e-01 -2.1842e-01 3.1562e-01 -1.6198e-01
       659 3.8709e-01 1.7417e-04 3.9268e-01 -2.1804e-01 3.1349e-01 -1.6164e-01
       660 2.2699e-02 2.0897e-04 3.9643e-01 -2.1777e-01 3.1695e-01 -1.6131e-01
       661 5.5134e-01 1.6043e-04 3.9099e-01 -2.1955e-01 3.1212e-01 -1.6223e-01
       662 1.4361e-02 2.0985e-04 3.9616e-01 -2.1864e-01 3.1664e-01 -1.6170e-01
       663 1.3743e-02 2.0991e-04 3.9531e-01 -2.1846e-01 3.1587e-01 -1.6198e-01
       664 1.6409e-02 2.0963e-04 3.9519e-01 -2.1719e-01 3.1596e-01 -1.6123e-01
       665 1.5440e-03 2.1120e-04 3.9576e-01 -2.1719e-01 3.1636e-01 -1.6122e-01
       666 2.6945e-02 2.0853e-04 3.9433e-01 -2.1884e-01 3.1520e-01 -1.6193e-01
       667 1.7604e-01 1.9355e-04 3.9724e-01 -2.1869e-01 3.1760e-01 -1.6199e-01
       668 7.3243e-04 2.1128e-04 3.9586e-01 -2.1820e-01 3.1637e-01 -1.6169e-01
       669 4.5961e-03 2.1087e-04 3.9615e-01 -2.1740e-01 3.1666e-01 -1.6106e-01
       670 3.3283e-01 1.7896e-04 3.9315e-01 -2.1793e-01 3.1406e-01 -1.6158e-01
       671 1.7829e-01 1.9333e-04 3.9478e-01 -2.1632e-01 3.1553e-01 -1.6071e-01
       672 7.7547e-02 2.0332e-04 3.9364e-01 -2.1930e-01 3.1459e-01 -1.6226e-01
       673 3.6478e-02 2.0754e-04 3.9580e-01 -2.1882e-01 3.1634e-01 -1.6212e-01
       674 1.0632e-02 2.1024e-04 3.9428e-01 -2.1872e-01 3.1498e-01 -1.6204e-01
       675 1.0933e-01 2.0012e-04 3.9381e-01 -2.1798e-01 3.1457e-01 -1.6172e-01
       676 1.9946e-01 1.9130e-04 3.9367e-01 -2.1724e-01 3.1440e-01 -1.6125e-01
       677 3.7568e-01 1.7516e-04 3.9335e-01 -2.1740e-01 3.1409e-01 -1.6066e-01
       678 2.6417e-02 2.0859e-04 3.9383e-01 -2.1901e-01 3.1445e-01 -1.6215e-01
       679 1.2006e-01 1.9904e-04 3.9359e-01 -2.1912e-01 3.1442e-01 -1.6215e-01
       680 2.1096e-02 2.0914e-04 3.9671e-01 -2.1757e-01 3.1721e-01 -1.6131e-01
       681 1.2073e-01 1.9898e-04 3.9698e-01 -2.1870e-01 3.1737e-01 -1.6189e-01
       682 2.0578e-01 1.9069e-04 3.9395e-01 -2.1778e-01 3.1463e-01 -1.6124e-01
       683 6.6139e-03 2.1066e-04 3.9428e-01 -2.1866e-01 3.1498e-01 -1.6195e-01
       684 6.6926e-02 2.0440e-04 3.9723e-01 -2.1670e-01 3.1760e-01 -1.6120e-01
       685 2.8125e-02 2.0841e-04 3.9609e-01 -2.1905e-01 3.1670e-01 -1.6207e-01
       686 5.8833e-02 2.0523e-04 3.9479e-01 -2.1731e-01 3.1542e-01 -1.6136e-01
       687 3.1783e-03 2.1102e-04 3.9527e-01 -2.1792e-01 3.1581e-01 -1.6153e-01
       688 1.1877e-01 1.9917e-04 3.9415e-01 -2.1793e-01 3.1483e-01 -1.6158e-01
       689 1.8349e-01 1.9283e-04 3.9332e-01 -2.1815e-01 3.1409e-01 -1.6159e-01
       690 9.8956e-02 2.0116e-04 3.9445e-01 -2.1795e-01 3.1524e-01 -1.6177e-01
       691 5.8556e-04 2.1130e-04 3.9550e-01 -2.1843e-01 3.1601e-01 -1.6177e-01
       692 4.6921e-01 1.6716e-04 3.9255e-01 -2.1794e-01 3.1354e-01 -1.6118e-01
       693 1.0830e-01 2.0022e-04 3.9717e-01 -2.1868e-01 3.1766e-01 -1.6206e-01
       694 1.6088e-01 1.9502e-04 3.9391e-01 -2.1749e-01 3.1476e-01 -1.6143e-01
       695 2.5512e-02 2.0868e-04 3.9658e-01 -2.1745e-01 3.1703e-01 -1.6124e-01
       696 9.2256e-02 2.0183e-04 3.9424e-01 -2.1783e-01 3.1515e-01 -1.6154e-01
       697 2.9154e-02 2.0830e-04 3.9432e-01 -2.1945e-01 3.1508e-01 -1.6225e-01
       698 1.4229e-01 1.9684e-04 3.9533e-01 -2.1677e-01 3.1595e-01 -1.6062e-01
       699 1.2058e-02 2.1009e-04 3.9526e-01 -2.1794e-01 3.1605e-01 -1.6157e-01
       700 1.9984e-03 2.1115e-04 3.9569e-01 -2.1852e-01 3.1632e-01 -1.6192e-01
       701 2.4316e-01 1.8716e-04 3.9362e-01 -2.1656e-01 3.1442e-01 -1.6126e-01
       702 2.5609e-01 1.8596e-04 3.9292e-01 -2.1812e-01 3.1399e-01 -1.6176e-01
       703 3.0823e-02 2.0813e-04 3.9662e-01 -2.1852e-01 3.1714e-01 -1.6139e-01
       704 3.2172e-01 1.7995e-04 3.9328e-01 -2.1800e-01 3.1421e-01 -1.6155e-01
       705 8.7585e-02 2.0230e-04 3.9414e-01 -2.1820e-01 3.1494e-01 -1.6175e-01
       706 5.8228e-03 2.1075e-04 3.9472e-01 -2.1885e-01 3.1545e-01 -1.6192e-01
       707 1.7855e-02 2.0948e-04 3.9610e-01 -2.1932e-01 3.1657e-01 -1.6183e-01
       708 1.3076e-01 1.9798e-04 3.9373e-01 -2.1830e-01 3.1457e-01 -1.6169e-01
       709 6.9798e-03 2.1062e-04 3.9563e-01 -2.1835e-01 3.1614e-01 -1.6182e-01
       710 1.2708e-04 2.1135e-04 3.9482e-01 -2.1908e-01 3.1553e-01 -1.6200e-01
       711 5.0473e-04 2.1131e-04 3.9548e-01 -2.1817e-01 3.1616e-01 -1.6149e-01
       712 1.7367e-01 1.9378e-04 3.9338e-01 -2.1852e-01 3.1414e-01 -1.6173e-01
       713 3.8447e-02 2.0734e-04 3.9611e-01 -2.1904e-01 3.1654e-01 -1.6205e-01
       714 3.7243e-01 1.7545e-04 3.9325e-01 -2.1778e-01 3.1416e-01 -1.6133e-01
       715 1.4165e-02 2.0987e-04 3.9573e-01 -2.1840e-01 3.1625e-01 -1.6195e-01
       716 1.1733e-02 2.1012e-04 3.9617e-01 -2.1798e-01 3.1666e-01 -1.6153e-01
       717 2.1289e-01 1.9002e-04 3.9315e-01 -2.1799e-01 3.1409e-01 -1.6162e-01
       718 2.3061e-02 2.0894e-04 3.9452e-01 -2.1922e-01 3.1539e-01 -1.6200e-01
       719 1.0774e-01 2.0027e-04 3.9686e-01 -2.1879e-01 3.1707e-01 -1.6204e-01
       720 1.2839e-01 1.9822e-04 3.9420e-01 -2.1712e-01 3.1484e-01 -1.6108e-01
       721 1.1675e-03 2.1124e-04 3.9520e-01 -2.1827e-01 3.1583e-01 -1.6186e-01
       722 1.6067e-01 1.9504e-04 3.9357e-01 -2.1731e-01 3.1432e-01 -1.6130e-01
       723 6.4092e-02 2.0469e-04 3.9412e-01 -2.1869e-01 3.1503e-01 -1.6200e-01
       724 4.0381e-02 2.0713e-04 3.9675e-01 -2.1787e-01 3.1705e-01 -1.6148e-01
       725 1.0903e-01 2.0015e-04 3.9727e-01 -2.1797e-01 3.1757e-01 -1.6179e-01
       726 3.6524e-02 2.0753e-04 3.9491e-01 -2.1717e-01 3.1547e-01 -1.6099e-01
       727 2.2686e-03 2.1112e-04 3.9500e-01 -2.1873e-01 3.1563e-01 -1.6205e-01
       728 8.2702e-03 2.1049e-04 3.9634e-01 -2.1712e-01 3.1687e-01 -1.6113e-01
       729 1.2505e-02 2.1004e-04 3.9497e-01 -2.1791e-01 3.1549e-01 -1.6139e-01
       730 1.3482e-01 1.9758e-04 3.9831e-01 -2.1678e-01 3.1870e-01 -1.6093e-01
       731 3.2173e-02 2.0799e-04 3.9616e-01 -2.1879e-01 3.1681e-01 -1.6188e-01
       732 1.6558e-02 2.0962e-04 3.9593e-01 -2.1851e-01 3.1642e-01 -1.6161e-01
       733 3.9971e-01 1.7307e-04 3.9302e-01 -2.1748e-01 3.1385e-01 -1.6132e-01
       734 8.5326e-02 2.0253e-04 3.9440e-01 -2.1847e-01 3.1532e-01 -1.6189e-01
       735 1.9247e-01 1.9197e-04 3.9319e-01 -2.1892e-01 3.1402e-01 -1.6180e-01
       736 2.8421e-03 2.1106e-04 3.9538e-01 -2.1797e-01 3.1590e-01 -1.6168e-01
       737 1.1910e-01 1.9914e-04 3.9392e-01 -2.1809e-01 3.1467e-01 -1.6166e-01
       738 7.8129e-02 2.0326e-04 3.9389e-01 -2.1820e-01 3.1467e-01 -1.6175e-01
       739 2.9383e-01 1.8248e-04 3.9284e-01 -2.1843e-01 3.1376e-01 -1.6172e-01
       740 6.9034e-02 2.0419e-04 3.9531e-01 -2.1753e-01 3.1609e-01 -1.6119e-01
       741 4.8950e-02 2.0625e-04 3.9367e-01 -2.1949e-01 3.1450e-01 -1.6228e-01
       742 2.4077e-02 2.0883e-04 3.9455e-01 -2.1857e-01 3.1540e-01 -1.6198e-01
       743 1.9934e-02 2.0926e-04 3.9451e-01 -2.1855e-01 3.1524e-01 -1.6190e-01
       744 1.2544e-02 2.1004e-04 3.9453e-01 -2.1848e-01 3.1519e-01 -1.6190e-01
       745 1.4474e-01 1.9660e-04 3.9338e-01 -2.1815e-01 3.1436e-01 -1.6162e-01
       746 9.5302e-02 2.0152e-04 3.9391e-01 -2.1885e-01 3.1476e-01 -1.6181e-01
       747 5.1183e-02 2.0602e-04 3.9438e-01 -2.1849e-01 3.1507e-01 -1.6184e-01
       748 2.8856e-03 2.1105e-04 3.9597e-01 -2.1754e-01 3.1638e-01 -1.6134e-01
       749 5.1667e-02 2.0597e-04 3.9403e-01 -2.1849e-01 3.1476e-01 -1.6194e-01
       750 2.5714e-01 1.8586e-04 3.9330e-01 -2.1779e-01 3.1435e-01 -1.6156e-01
       751 8.2842e-03 2.1049e-04 3.9604e-01 -2.1782e-01 3.1663e-01 -1.6163e-01
       752 2.0105e-01 1.9115e-04 3.9351e-01 -2.1752e-01 3.1433e-01 -1.6145e-01
       753 9.3295e-02 2.0173e-04 3.9465e-01 -2.1808e-01 3.1548e-01 -1.6141e-01
       754 4.0686e-01 1.7245e-04 3.9753e-01 -2.2033e-01 3.1805e-01 -1.6254e-01
       755 4.1566e-01 1.7170e-04 3.9222e-01 -2.1851e-01 3.1336e-01 -1.6168e-01
       756 2.4556e-02 2.0878e-04 3.9609e-01 -2.1855e-01 3.1657e-01 -1.6204e-01
       757 4.4144e-02 2.0675e-04 3.9403e-01 -2.1874e-01 3.1465e-01 -1.6202e-01
       758 2.0809e-02 2.0917e-04 3.9416e-01 -2.1833e-01 3.1488e-01 -1.6194e-01
       759 2.2068e-02 2.0904e-04 3.9476e-01 -2.1840e-01 3.1548e-01 -1.6169e-01
       760 4.1421e-02 2.0703e-04 3.9461e-01 -2.1865e-01 3.1533e-01 -1.6185e-01
       761 3.9395e-04 2.1132e-04 3.9495e-01 -2.1909e-01 3.1568e-01 -1.6217e-01
       762 9.6207e-02 2.0143e-04 3.9694e-01 -2.1925e-01 3.1736e-01 -1.6210e-01
       763 3.3856e-03 2.1100e-04 3.9491e-01 -2.1943e-01 3.1554e-01 -1.6223e-01
       764 4.1338e-02 2.0704e-04 3.9655e-01 -2.1870e-01 3.1695e-01 -1.6193e-01
       765 2.2359e-01 1.8900e-04 3.9267e-01 -2.1882e-01 3.1350e-01 -1.6214e-01
       766 2.2884e-02 2.0895e-04 3.9679e-01 -2.1813e-01 3.1724e-01 -1.6133e-01
       767 2.9739e-03 2.1105e-04 3.9491e-01 -2.1835e-01 3.1564e-01 -1.6196e-01
       768 2.5302e-02 2.0870e-04 3.9561e-01 -2.1864e-01 3.1618e-01 -1.6206e-01
       769 1.2729e-03 2.1123e-04 3.9609e-01 -2.1815e-01 3.1668e-01 -1.6168e-01
       770 1.1507e-01 1.9954e-04 3.9395e-01 -2.1853e-01 3.1478e-01 -1.6167e-01
       771 8.7944e-01 1.3616e-04 3.9132e-01 -2.1807e-01 3.1242e-01 -1.6133e-01
       772 1.1307e-01 1.9974e-04 3.9383e-01 -2.1840e-01 3.1455e-01 -1.6167e-01
       773 3.1743e-02 2.0803e-04 3.9596e-01 -2.1862e-01 3.1647e-01 -1.6189e-01
       774 6.4478e-02 2.0465e-04 3.9414e-01 -2.1859e-01 3.1498e-01 -1.6176e-01
       775 2.6093e-01 1.8551e-04 3.9382e-01 -2.1774e-01 3.1467e-01 -1.6118e-01
       776 6.9743e-01 1.4913e-04 3.9124e-01 -2.1748e-01 3.1242e-01 -1.6162e-01
       777 6.0956e-04 2.1130e-04 3.9570e-01 -2.1765e-01 3.1623e-01 -1.6147e-01
       778 1.1495e-03 2.1124e-04 3.9430e-01 -2.1994e-01 3.1491e-01 -1.6246e-01
       779 2.1160e-02 2.0914e-04 3.9620e-01 -2.1846e-01 3.1667e-01 -1.6188e-01
       780 1.3822e-01 1.9725e-04 3.9482e-01 -2.1745e-01 3.1556e-01 -1.6096e-01
       781 3.8870e-01 1.7403e-04 3.9273e-01 -2.1768e-01 3.1357e-01 -1.6181e-01
       782 9.6377e-02 2.0142e-04 3.9756e-01 -2.1707e-01 3.1790e-01 -1.6108e-01
       783 4.7422e-04 2.1131e-04 3.9549e-01 -2.1880e-01 3.1599e-01 -1.6179e-01
       784 1.0890e-01 2.0016e-04 3.9455e-01 -2.1832e-01 3.1547e-01 -1.6163e-01
       785 2.7527e-02 2.0847e-04 3.9625e-01 -2.1786e-01 3.1671e-01 -1.6179e-01
       786 1.0280e-02 2.1028e-04 3.9615e-01 -2.1712e-01 3.1679e-01 -1.6112e-01
       787 3.9038e-03 2.1095e-04 3.9490e-01 -2.1887e-01 3.1550e-01 -1.6208e-01
       788 6.8986e-02 2.0419e-04 3.9435e-01 -2.1760e-01 3.1493e-01 -1.6103e-01
       789 1.8405e-02 2.0942e-04 3.9417e-01 -2.1932e-01 3.1493e-01 -1.6217e-01
       790 8.3387e-04 2.1127e-04 3.9582e-01 -2.1745e-01 3.1627e-01 -1.6149e-01
       791 1.2730e-03 2.1123e-04 3.9517e-01 -2.1865e-01 3.1579e-01 -1.6200e-01
       792 3.3155e-01 1.7907e-04 3.9333e-01 -2.1780e-01 3.1415e-01 -1.6128e-01
       793 1.0622e-01 2.0043e-04 3.9441e-01 -2.1769e-01 3.1507e-01 -1.6141e-01
       794 2.5731e-04 2.1133e-04 3.9533e-01 -2.1873e-01 3.1597e-01 -1.6188e-01
       795 1.8678e-02 2.0939e-04 3.9612e-01 -2.1833e-01 3.1668e-01 -1.6159e-01
       796 6.8812e-03 2.1063e-04 3.9542e-01 -2.1884e-01 3.1600e-01 -1.6194e-01
       797 9.7248e-02 2.0133e-04 3.9539e-01 -2.1735e-01 3.1603e-01 -1.6106e-01
       798 1.2490e-01 1.9856e-04 3.9694e-01 -2.1879e-01 3.1718e-01 -1.6178e-01
       799 1.0850e-01 2.0020e-04 3.9339e-01 -2.1828e-01 3.1422e-01 -1.6189e-01
       800 2.7397e-03 2.1107e-04 3.9618e-01 -2.1721e-01 3.1662e-01 -1.6091e-01
       801 1.1260e-01 1.9979e-04 3.9374e-01 -2.1864e-01 3.1439e-01 -1.6194e-01
       802 6.5098e-02 2.0459e-04 3.9370e-01 -2.1864e-01 3.1442e-01 -1.6194e-01
       803 5.5267e-02 2.0560e-04 3.9482e-01 -2.1868e-01 3.1548e-01 -1.6177e-01
       804 7.6383e-02 2.0344e-04 3.9373e-01 -2.1846e-01 3.1456e-01 -1.6194e-01
       805 7.5790e-02 2.0350e-04 3.9432e-01 -2.1760e-01 3.1503e-01 -1.6117e-01
       806 1.0716e-01 2.0033e-04 3.9301e-01 -2.1941e-01 3.1388e-01 -1.6233e-01
       807 2.2267e-01 1.8909e-04 3.9349e-01 -2.1765e-01 3.1421e-01 -1.6147e-01
       808 9.6642e-02 2.0139e-04 3.9489e-01 -2.1836e-01 3.1553e-01 -1.6173e-01
       809 1.1054e-01 1.9999e-04 3.9438e-01 -2.1674e-01 3.1498e-01 -1.6094e-01
       810 2.6775e-02 2.0855e-04 3.9604e-01 -2.1844e-01 3.1652e-01 -1.6195e-01
       811 8.0639e-02 2.0301e-04 3.9413e-01 -2.1786e-01 3.1485e-01 -1.6169e-01
       812 3.5533e-02 2.0764e-04 3.9453e-01 -2.1835e-01 3.1509e-01 -1.6180e-01
       813 1.1836e-01 1.9921e-04 3.9457e-01 -2.1827e-01 3.1531e-01 -1.6122e-01
       814 1.3799e-01 1.9727e-04 3.9413e-01 -2.1812e-01 3.1495e-01 -1.6160e-01
       815 3.0023e-01 1.8190e-04 3.9281e-01 -2.1798e-01 3.1368e-01 -1.6153e-01
       816 3.6408e-01 1.7618e-04 3.9234e-01 -2.1870e-01 3.1338e-01 -1.6173e-01
       817 1.0003e-01 2.0105e-04 3.9509e-01 -2.1663e-01 3.1582e-01 -1.6101e-01
       818 2.3361e-01 1.8806e-04 3.9368e-01 -2.1781e-01 3.1438e-01 -1.6134e-01
       819 1.3592e-02 2.0993e-04 3.9414e-01 -2.1982e-01 3.1493e-01 -1.6220e-01
       820 7.3884e-02 2.0369e-04 3.9711e-01 -2.1906e-01 3.1752e-01 -1.6177e-01
       821 4.8489e-02 2.0630e-04 3.9358e-01 -2.1923e-01 3.1432e-01 -1.6201e-01
       822 2.7884e-01 1.8385e-04 3.9870e-01 -2.1781e-01 3.1888e-01 -1.6138e-01
       823 3.3678e-01 1.7860e-04 3.9864e-01 -2.1811e-01 3.1888e-01 -1.6175e-01
       824 3.8566e-03 2.1095e-04 3.9502e-01 -2.1789e-01 3.1554e-01 -1.6163e-01
       825 4.4565e-03 2.1089e-04 3.9553e-01 -2.1752e-01 3.1619e-01 -1.6138e-01
       826 2.3536e-02 2.0889e-04 3.9598e-01 -2.1831e-01 3.1654e-01 -1.6183e-01
       827 5.6455e-02 2.0548e-04 3.9559e-01 -2.1960e-01 3.1609e-01 -1.6235e-01
       828 4.7562e-02 2.0639e-04 3.9414e-01 -2.1869e-01 3.1492e-01 -1.6195e-01
       829 1.8382e-01 1.9280e-04 3.9417e-01 -2.1754e-01 3.1493e-01 -1.6111e-01
       830 7.1526e-02 2.0393e-04 3.9427e-01 -2.1825e-01 3.1499e-01 -1.6159e-01
       831 3.1007e-02 2.0811e-04 3.9666e-01 -2.1752e-01 3.1709e-01 -1.6149e-01
       832 5.8910e-01 1.5743e-04 3.9264e-01 -2.1681e-01 3.1357e-01 -1.6112e-01
       833 2.2086e-03 2.1113e-04 3.9525e-01 -2.1889e-01 3.1582e-01 -1.6207e-01
       834 1.0862e+00 1.2279e-04 3.8965e-01 -2.1945e-01 3.1090e-01 -1.6232e-01
       835 8.0886e-03 2.1051e-04 3.9556e-01 -2.1780e-01 3.1613e-01 -1.6133e-01
       836 1.2326e-01 1.9873e-04 3.9699e-01 -2.1852e-01 3.1743e-01 -1.6204e-01
       837 8.6210e-02 2.0244e-04 3.9336e-01 -2.1921e-01 3.1429e-01 -1.6226e-01
       838 1.4197e-01 1.9688e-04 3.9714e-01 -2.1851e-01 3.1737e-01 -1.6180e-01
       839 1.6467e-02 2.0963e-04 3.9660e-01 -2.1689e-01 3.1690e-01 -1.6109e-01
       840 1.5187e-01 1.9590e-04 3.9288e-01 -2.1817e-01 3.1365e-01 -1.6195e-01
       841 1.2696e-02 2.1002e-04 3.9531e-01 -2.1856e-01 3.1592e-01 -1.6165e-01
       842 2.5959e-02 2.0863e-04 3.9590e-01 -2.1893e-01 3.1640e-01 -1.6214e-01
       843 1.8781e-01 1.9242e-04 3.9268e-01 -2.1921e-01 3.1368e-01 -1.6217e-01
       844 3.3810e-02 2.0782e-04 3.9472e-01 -2.1862e-01 3.1544e-01 -1.6187e-01
       845 4.4771e-03 2.1089e-04 3.9591e-01 -2.1794e-01 3.1634e-01 -1.6180e-01
       846 3.6626e-02 2.0752e-04 3.9612e-01 -2.1892e-01 3.1660e-01 -1.6198e-01
       847 1.7490e-03 2.1117e-04 3.9489e-01 -2.1848e-01 3.1555e-01 -1.6186e-01
       848 3.8198e-01 1.7461e-04 3.9779e-01 -2.1866e-01 3.1794e-01 -1.6206e-01
       849 7.1747e-02 2.0391e-04 3.9648e-01 -2.1877e-01 3.1690e-01 -1.6203e-01
       850 1.8298e-01 1.9288e-04 3.9680e-01 -2.1896e-01 3.1720e-01 -1.6213e-01
       851 3.0949e-03 2.1103e-04 3.9565e-01 -2.1815e-01 3.1631e-01 -1.6173e-01
       852 3.0149e-01 1.8178e-04 3.9797e-01 -2.1876e-01 3.1825e-01 -1.6201e-01
       853 5.6504e-02 2.0547e-04 3.9401e-01 -2.1773e-01 3.1472e-01 -1.6173e-01
       854 8.7697e-02 2.0229e-04 3.9413e-01 -2.1837e-01 3.1472e-01 -1.6187e-01
       855 1.0957e-01 2.0009e-04 3.9437e-01 -2.1741e-01 3.1511e-01 -1.6136e-01
       856 8.8036e-02 2.0226e-04 3.9453e-01 -2.1839e-01 3.1513e-01 -1.6149e-01
       857 2.0591e-02 2.0919e-04 3.9518e-01 -2.1821e-01 3.1581e-01 -1.6157e-01
       858 8.6794e-04 2.1127e-04 3.9581e-01 -2.1805e-01 3.1626e-01 -1.6154e-01
       859 9.8116e-02 2.0124e-04 3.9432e-01 -2.1742e-01 3.1502e-01 -1.6136e-01
       860 1.4970e-02 2.0978e-04 3.9509e-01 -2.1833e-01 3.1566e-01 -1.6156e-01
       861 3.9092e-02 2.0727e-04 3.9462e-01 -2.1847e-01 3.1533e-01 -1.6181e-01
       862 8.9611e-02 2.0210e-04 3.9370e-01 -2.1837e-01 3.1441e-01 -1.6190e-01
       863 2.4119e-02 2.0883e-04 3.9609e-01 -2.1795e-01 3.1655e-01 -1.6173e-01
       864 1.8461e-03 2.1116e-04 3.9626e-01 -2.1780e-01 3.1697e-01 -1.6119e-01
       865 3.9067e-01 1.7386e-04 3.9239e-01 -2.1863e-01 3.1333e-01 -1.6172e-01
       866 9.2997e-02 2.0176e-04 3.9391e-01 -2.1866e-01 3.1461e-01 -1.6171e-01
       867 6.3860e-01 1.5359e-04 3.9870e-01 -2.1871e-01 3.1869e-01 -1.6204e-01
       868 1.8692e-03 2.1116e-04 3.9521e-01 -2.1862e-01 3.1583e-01 -1.6195e-01
       869 6.6579e-02 2.0444e-04 3.9698e-01 -2.1846e-01 3.1737e-01 -1.6159e-01
       870 1.9239e-01 1.9198e-04 3.9433e-01 -2.1650e-01 3.1503e-01 -1.6116e-01
       871 4.6565e-02 2.0650e-04 3.9497e-01 -2.1737e-01 3.1568e-01 -1.6127e-01
       872 6.9141e-02 2.0418e-04 3.9377e-01 -2.1954e-01 3.1457e-01 -1.6223e-01
       873 1.7606e-02 2.0951e-04 3.9535e-01 -2.1813e-01 3.1599e-01 -1.6147e-01
       874 6.8811e-01 1.4983e-04 3.9119e-01 -2.1874e-01 3.1242e-01 -1.6179e-01
       875 8.7515e-02 2.0231e-04 3.9363e-01 -2.1897e-01 3.1433e-01 -1.6196e-01
       876 2.2082e-02 2.0904e-04 3.9599e-01 -2.1827e-01 3.1654e-01 -1.6164e-01
       877 1.1364e-01 1.9968e-04 3.9753e-01 -2.1804e-01 3.1771e-01 -1.6173e-01
       878 8.8968e-02 2.0216e-04 3.9794e-01 -2.1753e-01 3.1843e-01 -1.6123e-01
       879 2.4202e-01 1.8727e-04 3.9431e-01 -2.1671e-01 3.1503e-01 -1.6070e-01
       880 8.4712e-03 2.1047e-04 3.9610e-01 -2.1844e-01 3.1661e-01 -1.6194e-01
       881 3.8669e-01 1.7420e-04 3.9460e-01 -2.1561e-01 3.1529e-01 -1.6008e-01
       882 2.9363e-02 2.0828e-04 3.9476e-01 -2.1792e-01 3.1550e-01 -1.6157e-01
       883 2.9143e-01 1.8270e-04 3.9383e-01 -2.1774e-01 3.1466e-01 -1.6097e-01
       884 3.1833e-02 2.0802e-04 3.9423e-01 -2.1809e-01 3.1508e-01 -1.6181e-01
       885 1.8448e-02 2.0942e-04 3.9538e-01 -2.1922e-01 3.1600e-01 -1.6219e-01
       886 2.9689e-02 2.0825e-04 3.9454e-01 -2.1892e-01 3.1523e-01 -1.6195e-01
       887 5.0313e-03 2.1083e-04 3.9599e-01 -2.1778e-01 3.1640e-01 -1.6162e-01
       888 1.0418e+00 1.2554e-04 3.9066e-01 -2.1800e-01 3.1179e-01 -1.6162e-01
       889 1.0952e-01 2.0010e-04 3.9623e-01 -2.1973e-01 3.1674e-01 -1.6208e-01
       890 1.0706e-02 2.1023e-04 3.9549e-01 -2.1956e-01 3.1615e-01 -1.6234e-01
       891 4.8220e-02 2.0632e-04 3.9439e-01 -2.1802e-01 3.1512e-01 -1.6178e-01
       892 6.1552e-01 1.5537e-04 3.9187e-01 -2.1771e-01 3.1291e-01 -1.6143e-01
       893 1.6199e-02 2.0965e-04 3.9562e-01 -2.1932e-01 3.1614e-01 -1.6211e-01
       894 1.8863e-01 1.9234e-04 3.9809e-01 -2.1740e-01 3.1828e-01 -1.6126e-01
       895 1.9204e-01 1.9201e-04 3.9753e-01 -2.1818e-01 3.1793e-01 -1.6185e-01
       896 1.5051e-03 2.1120e-04 3.9550e-01 -2.1841e-01 3.1602e-01 -1.6195e-01
       897 1.0922e-02 2.1021e-04 3.9645e-01 -2.1735e-01 3.1693e-01 -1.6129e-01
       898 4.7544e-02 2.0639e-04 3.9640e-01 -2.1880e-01 3.1698e-01 -1.6207e-01
       899 4.7176e-02 2.0643e-04 3.9608e-01 -2.1618e-01 3.1658e-01 -1.6064e-01
       900 5.8806e-02 2.0524e-04 3.9654e-01 -2.1857e-01 3.1706e-01 -1.6181e-01
       901 6.6662e-02 2.0443e-04 3.9702e-01 -2.1702e-01 3.1738e-01 -1.6117e-01
       902 4.2380e-01 1.7100e-04 3.9314e-01 -2.1717e-01 3.1416e-01 -1.6114e-01
       903 2.4573e-03 2.1110e-04 3.9616e-01 -2.1726e-01 3.1660e-01 -1.6126e-01
       904 1.9509e-02 2.0931e-04 3.9595e-01 -2.1667e-01 3.1642e-01 -1.6092e-01
       905 6.7088e-02 2.0439e-04 3.9450e-01 -2.1741e-01 3.1513e-01 -1.6112e-01
       906 1.6881e-01 1.9425e-04 3.9372e-01 -2.1813e-01 3.1450e-01 -1.6152e-01
       907 6.0166e-02 2.0510e-04 3.9337e-01 -2.1940e-01 3.1413e-01 -1.6226e-01
       908 4.4825e-01 1.6892e-04 3.9269e-01 -2.1815e-01 3.1346e-01 -1.6165e-01
       909 5.7522e-03 2.1075e-04 3.9613e-01 -2.1819e-01 3.1656e-01 -1.6168e-01
       910 1.2192e-02 2.1008e-04 3.9707e-01 -2.1696e-01 3.1759e-01 -1.6120e-01
       911 4.0275e-03 2.1093e-04 3.9605e-01 -2.1833e-01 3.1664e-01 -1.6148e-01
       912 3.8973e-02 2.0728e-04 3.9631e-01 -2.1818e-01 3.1680e-01 -1.6192e-01
       913 2.3676e-01 1.8776e-04 3.9764e-01 -2.1950e-01 3.1804e-01 -1.6233e-01
       914 1.9537e-02 2.0930e-04 3.9531e-01 -2.1760e-01 3.1577e-01 -1.6148e-01
       915 8.1331e-02 2.0294e-04 3.9396e-01 -2.1835e-01 3.1477e-01 -1.6184e-01
       916 1.4930e-01 1.9616e-04 3.9442e-01 -2.1711e-01 3.1503e-01 -1.6136e-01
       917 1.9532e-01 1.9169e-04 3.9275e-01 -2.1939e-01 3.1364e-01 -1.6228e-01
       918 3.2523e-02 2.0795e-04 3.9640e-01 -2.1832e-01 3.1686e-01 -1.6193e-01
       919 1.5082e-01 1.9601e-04 3.9701e-01 -2.1843e-01 3.1726e-01 -1.6195e-01
       920 1.7749e-01 1.9341e-04 3.9453e-01 -2.1719e-01 3.1516e-01 -1.6110e-01
       921 1.7470e-01 1.9368e-04 3.9398e-01 -2.1707e-01 3.1461e-01 -1.6106e-01
       922 2.2025e-02 2.0904e-04 3.9619e-01 -2.1790e-01 3.1671e-01 -1.6174e-01
       923 2.8477e-02 2.0837e-04 3.9645e-01 -2.1826e-01 3.1678e-01 -1.6167e-01
       924 3.1678e-02 2.0804e-04 3.9632e-01 -2.1872e-01 3.1694e-01 -1.6206e-01
       925 4.0859e-03 2.1093e-04 3.9470e-01 -2.1874e-01 3.1536e-01 -1.6176e-01
       926 3.3728e-02 2.0783e-04 3.9635e-01 -2.1943e-01 3.1687e-01 -1.6182e-01
       927 3.6249e-02 2.0756e-04 3.9658e-01 -2.1829e-01 3.1703e-01 -1.6149e-01
       928 1.7848e-01 1.9332e-04 3.9798e-01 -2.1754e-01 3.1825e-01 -1.6141e-01
       929 1.8454e-01 1.9273e-04 3.9333e-01 -2.1850e-01 3.1427e-01 -1.6172e-01
       930 3.0609e-02 2.0815e-04 3.9599e-01 -2.1884e-01 3.1647e-01 -1.6204e-01
       931 6.4688e-03 2.1068e-04 3.9628e-01 -2.1705e-01 3.1682e-01 -1.6098e-01
       932 2.6263e-01 1.8535e-04 3.9347e-01 -2.1801e-01 3.1431e-01 -1.6145e-01
       933 1.9840e-03 2.1115e-04 3.9485e-01 -2.1830e-01 3.1553e-01 -1.6186e-01
       934 1.0383e-02 2.1027e-04 3.9576e-01 -2.1763e-01 3.1627e-01 -1.6099e-01
       935 7.5257e-01 1.4508e-04 3.9229e-01 -2.1744e-01 3.1329e-01 -1.6118e-01
       936 8.8282e-02 2.0223e-04 3.9365e-01 -2.1846e-01 3.1453e-01 -1.6200e-01
       937 8.5498e-02 2.0251e-04 3.9446e-01 -2.1747e-01 3.1509e-01 -1.6136e-01
       938 1.6894e-01 1.9424e-04 3.9740e-01 -2.1923e-01 3.1784e-01 -1.6202e-01
       939 9.4047e-02 2.0165e-04 3.9706e-01 -2.1772e-01 3.1744e-01 -1.6127e-01
       940 1.5354e-01 1.9574e-04 3.9364e-01 -2.1832e-01 3.1448e-01 -1.6183e-01
       941 6.7152e-03 2.1065e-04 3.9648e-01 -2.1753e-01 3.1690e-01 -1.6142e-01
       942 1.9327e-03 2.1116e-04 3.9634e-01 -2.1757e-01 3.1691e-01 -1.6117e-01
       943 1.6053e-03 2.1119e-04 3.9558e-01 -2.1821e-01 3.1616e-01 -1.6142e-01
       944 1.3338e-01 1.9772e-04 3.9856e-01 -2.1663e-01 3.1882e-01 -1.6081e-01
       945 6.7094e-02 2.0439e-04 3.9591e-01 -2.1913e-01 3.1647e-01 -1.6217e-01
       946 9.3802e-02 2.0168e-04 3.9402e-01 -2.1818e-01 3.1484e-01 -1.6181e-01
       947 4.2317e-03 2.1091e-04 3.9598e-01 -2.1699e-01 3.1653e-01 -1.6081e-01
       948 1.8761e-03 2.1116e-04 3.9484e-01 -2.1861e-01 3.1552e-01 -1.6198e-01
       949 2.0824e-01 1.9046e-04 3.9285e-01 -2.1781e-01 3.1367e-01 -1.6172e-01
       950 4.2419e-02 2.0692e-04 3.9426e-01 -2.1849e-01 3.1496e-01 -1.6177e-01
       951 5.7809e-02 2.0534e-04 3.9346e-01 -2.1935e-01 3.1433e-01 -1.6224e-01
       952 1.1026e-01 2.0002e-04 3.9671e-01 -2.1832e-01 3.1712e-01 -1.6178e-01
       953 3.2064e-01 1.8005e-04 3.9863e-01 -2.1767e-01 3.1872e-01 -1.6140e-01
       954 2.4089e-01 1.8738e-04 3.9788e-01 -2.1811e-01 3.1812e-01 -1.6176e-01
       955 1.7500e-01 1.9365e-04 3.9349e-01 -2.1877e-01 3.1432e-01 -1.6188e-01
       956 1.4755e-01 1.9633e-04 3.9334e-01 -2.1885e-01 3.1426e-01 -1.6215e-01
       957 4.8680e-01 1.6570e-04 3.9188e-01 -2.1847e-01 3.1283e-01 -1.6195e-01
       958 7.0408e-02 2.0405e-04 3.9336e-01 -2.1963e-01 3.1423e-01 -1.6236e-01
       959 1.6122e-01 1.9499e-04 3.9335e-01 -2.1838e-01 3.1429e-01 -1.6188e-01
       960 1.7611e-01 1.9354e-04 3.9418e-01 -2.1763e-01 3.1493e-01 -1.6112e-01
       961 1.6991e-01 1.9414e-04 3.9692e-01 -2.1868e-01 3.1715e-01 -1.6189e-01
       962 1.1821e-01 1.9923e-04 3.9394e-01 -2.1850e-01 3.1483e-01 -1.6170e-01
       963 2.7450e-01 1.8425e-04 3.9293e-01 -2.1795e-01 3.1378e-01 -1.6167e-01
       964 2.9062e-01 1.8277e-04 3.9705e-01 -2.1851e-01 3.1729e-01 -1.6204e-01
       965 1.0113e-01 2.0094e-04 3.9513e-01 -2.1671e-01 3.1568e-01 -1.6090e-01
       966 5.8855e-02 2.0523e-04 3.9443e-01 -2.1785e-01 3.1521e-01 -1.6152e-01
       967 1.0086e-01 2.0097e-04 3.9702e-01 -2.1859e-01 3.1746e-01 -1.6185e-01
       968 3.9058e-03 2.1095e-04 3.9599e-01 -2.1783e-01 3.1650e-01 -1.6145e-01
       969 2.5085e-01 1.8645e-04 3.9257e-01 -2.1840e-01 3.1333e-01 -1.6203e-01
       970 6.5310e-03 2.1067e-04 3.9572e-01 -2.1880e-01 3.1623e-01 -1.6204e-01
       971 1.2549e-01 1.9850e-04 3.9510e-01 -2.1696e-01 3.1566e-01 -1.6098e-01
       972 1.3180e-03 2.1122e-04 3.9518e-01 -2.1886e-01 3.1576e-01 -1.6179e-01
       973 1.5808e-02 2.0970e-04 3.9589e-01 -2.1806e-01 3.1653e-01 -1.6182e-01
       974 6.1138e-02 2.0500e-04 3.9438e-01 -2.1823e-01 3.1517e-01 -1.6177e-01
       975 3.3487e-02 2.0785e-04 3.9446e-01 -2.1847e-01 3.1517e-01 -1.6184e-01
       976 2.6295e-02 2.0860e-04 3.9646e-01 -2.1760e-01 3.1705e-01 -1.6131e-01
       977 2.1314e-01 1.8999e-04 3.9421e-01 -2.1667e-01 3.1496e-01 -1.6108e-01
       978 4.1776e-02 2.0699e-04 3.9431e-01 -2.1857e-01 3.1510e-01 -1.6194e-01
       979 3.6759e-03 2.1097e-04 3.9672e-01 -2.1719e-01 3.1714e-01 -1.6114e-01
       980 1.3040e-02 2.0999e-04 3.9646e-01 -2.1794e-01 3.1702e-01 -1.6129e-01
       981 6.6022e-02 2.0450e-04 3.9542e-01 -2.1954e-01 3.1602e-01 -1.6233e-01
       982 6.8390e-02 2.0425e-04 3.9727e-01 -2.1795e-01 3.1761e-01 -1.6135e-01
       983 2.1907e-02 2.0906e-04 3.9549e-01 -2.1941e-01 3.1620e-01 -1.6206e-01
       984 6.7039e-03 2.1065e-04 3.9588e-01 -2.1765e-01 3.1628e-01 -1.6130e-01
       985 4.4840e-03 2.1089e-04 3.9609e-01 -2.1830e-01 3.1655e-01 -1.6167e-01
       986 7.2894e-03 2.1059e-04 3.9523e-01 -2.1861e-01 3.1581e-01 -1.6156e-01
       987 3.6479e-02 2.0754e-04 3.9563e-01 -2.1907e-01 3.1603e-01 -1.6215e-01
       988 3.8350e-01 1.7448e-04 3.9287e-01 -2.1840e-01 3.1381e-01 -1.6137e-01
       989 5.7248e-02 2.0540e-04 3.9403e-01 -2.1871e-01 3.1479e-01 -1.6200e-01
       990 8.2317e-02 2.0284e-04 3.9381e-01 -2.1883e-01 3.1454e-01 -1.6184e-01
       991 3.8170e-02 2.0736e-04 3.9419e-01 -2.1785e-01 3.1490e-01 -1.6165e-01
       992 1.2232e-02 2.1007e-04 3.9502e-01 -2.1849e-01 3.1578e-01 -1.6186e-01
       993 1.7938e-02 2.0947e-04 3.9517e-01 -2.1837e-01 3.1574e-01 -1.6140e-01
       994 9.8252e-02 2.0123e-04 3.9386e-01 -2.1939e-01 3.1474e-01 -1.6202e-01
       995 5.7033e-03 2.1076e-04 3.9459e-01 -2.1907e-01 3.1509e-01 -1.6221e-01
       996 3.4730e-01 1.7767e-04 3.9781e-01 -2.1849e-01 3.1810e-01 -1.6164e-01
       997 8.7218e-02 2.0234e-04 3.9364e-01 -2.1805e-01 3.1447e-01 -1.6188e-01
       998 4.5754e-02 2.0658e-04 3.9651e-01 -2.1775e-01 3.1688e-01 -1.6153e-01
       999 7.8746e-02 2.0320e-04 3.9370e-01 -2.1890e-01 3.1440e-01 -1.6192e-01
      1000 2.7210e-02 2.0850e-04 3.9467e-01 -2.1865e-01 3.1553e-01 -1.6182e-01
      1001 6.5343e-03 2.1067e-04 3.9613e-01 -2.1720e-01 3.1650e-01 -1.6090e-01
      1002 1.9413e-02 2.0932e-04 3.9532e-01 -2.1797e-01 3.1581e-01 -1.6143e-01
      1003 1.5092e-03 2.1120e-04 3.9511e-01 -2.1896e-01 3.1580e-01 -1.6194e-01
      1004 2.6783e-02 2.0855e-04 3.9670e-01 -2.1843e-01 3.1708e-01 -1.6153e-01
      1005 6.0855e-03 2.1072e-04 3.9489e-01 -2.1898e-01 3.1558e-01 -1.6190e-01
      1006 5.5420e-03 2.1077e-04 3.9649e-01 -2.1734e-01 3.1701e-01 -1.6148e-01
      1007 9.6812e-02 2.0137e-04 3.9696e-01 -2.1789e-01 3.1732e-01 -1.6152e-01
      1008 1.4012e-01 1.9706e-04 3.9403e-01 -2.1729e-01 3.1473e-01 -1.6141e-01
      1009 1.5237e-02 2.0976e-04 3.9582e-01 -2.1819e-01 3.1621e-01 -1.6174e-01
      1010 1.4018e-02 2.0988e-04 3.9529e-01 -2.1806e-01 3.1596e-01 -1.6146e-01
      1011 4.0074e-02 2.0717e-04 3.9519e-01 -2.1714e-01 3.1588e-01 -1.6122e-01
      1012 2.0274e-03 2.1115e-04 3.9620e-01 -2.1766e-01 3.1661e-01 -1.6094e-01
      1013 1.3921e-01 1.9715e-04 3.9389e-01 -2.1795e-01 3.1457e-01 -1.6123e-01
      1014 1.5328e-02 2.0975e-04 3.9451e-01 -2.1820e-01 3.1505e-01 -1.6191e-01
      1015 1.6938e-03 2.1118e-04 3.9591e-01 -2.1839e-01 3.1639e-01 -1.6147e-01
      1016 1.0072e-01 2.0098e-04 3.9363e-01 -2.1893e-01 3.1456e-01 -1.6196e-01
      1017 3.1382e-02 2.0807e-04 3.9439e-01 -2.1913e-01 3.1513e-01 -1.6202e-01
      1018 5.4657e-01 1.6082e-04 3.9253e-01 -2.1774e-01 3.1345e-01 -1.6112e-01
      1019 1.0981e-02 2.1020e-04 3.9673e-01 -2.1680e-01 3.1723e-01 -1.6055e-01
      1020 3.7185e-02 2.0747e-04 3.9395e-01 -2.1871e-01 3.1459e-01 -1.6199e-01
      1021 5.9437e-03 2.1073e-04 3.9590e-01 -2.1688e-01 3.1632e-01 -1.6118e-01
      1022 3.7083e-01 1.7559e-04 3.9381e-01 -2.1581e-01 3.1451e-01 -1.6018e-01
      1023 2.2269e-02 2.0902e-04 3.9487e-01 -2.1879e-01 3.1549e-01 -1.6169e-01
      1024 8.9065e-02 2.0215e-04 3.9723e-01 -2.1822e-01 3.1775e-01 -1.6193e-01
      1025 1.7619e-02 2.0951e-04 3.9483e-01 -2.1785e-01 3.1547e-01 -1.6169e-01
      1026 2.7944e-01 1.8380e-04 3.9313e-01 -2.1817e-01 3.1398e-01 -1.6131e-01
      1027 4.3645e-01 1.6992e-04 3.9221e-01 -2.1881e-01 3.1327e-01 -1.6163e-01
      1028 1.1920e-01 1.9913e-04 3.9371e-01 -2.1817e-01 3.1448e-01 -1.6169e-01
      1029 8.4001e-02 2.0267e-04 3.9347e-01 -2.1939e-01 3.1414e-01 -1.6231e-01
      1030 2.9700e-02 2.0824e-04 3.9599e-01 -2.1895e-01 3.1661e-01 -1.6204e-01
      1031 5.9615e-02 2.0515e-04 3.9428e-01 -2.1810e-01 3.1508e-01 -1.6175e-01
      1032 2.4438e-02 2.0879e-04 3.9483e-01 -2.1760e-01 3.1534e-01 -1.6154e-01
      1033 1.0348e-01 2.0070e-04 3.9674e-01 -2.1899e-01 3.1715e-01 -1.6209e-01
      1034 6.4359e-03 2.1068e-04 3.9666e-01 -2.1707e-01 3.1713e-01 -1.6079e-01
      1035 1.9066e-01 1.9214e-04 3.9361e-01 -2.1715e-01 3.1432e-01 -1.6140e-01
      1036 8.2533e-03 2.1049e-04 3.9439e-01 -2.1888e-01 3.1515e-01 -1.6197e-01
      1037 6.8617e-01 1.4998e-04 3.9294e-01 -2.1650e-01 3.1375e-01 -1.6048e-01
      1038 3.7684e-02 2.0741e-04 3.9505e-01 -2.1855e-01 3.1564e-01 -1.6162e-01
      1039 2.5131e-02 2.0872e-04 3.9479e-01 -2.1925e-01 3.1541e-01 -1.6206e-01
      1040 5.7509e-01 1.5854e-04 3.9184e-01 -2.1796e-01 3.1278e-01 -1.6139e-01
      1041 5.5201e-02 2.0561e-04 3.9608e-01 -2.1856e-01 3.1667e-01 -1.6206e-01
      1042 1.0104e-01 2.0095e-04 3.9410e-01 -2.1813e-01 3.1481e-01 -1.6152e-01
      1043 9.3739e-03 2.1037e-04 3.9522e-01 -2.1796e-01 3.1596e-01 -1.6158e-01
      1044 5.4734e-03 2.1078e-04 3.9537e-01 -2.1944e-01 3.1589e-01 -1.6203e-01
      1045 5.1456e-03 2.1082e-04 3.9511e-01 -2.1887e-01 3.1569e-01 -1.6212e-01
      1046 2.7412e-02 2.0848e-04 3.9635e-01 -2.1845e-01 3.1695e-01 -1.6203e-01
      1047 1.2817e-02 2.1001e-04 3.9524e-01 -2.1724e-01 3.1587e-01 -1.6152e-01
      1048 1.1762e-01 1.9929e-04 3.9265e-01 -2.2100e-01 3.1368e-01 -1.6273e-01
      1049 1.4025e-03 2.1121e-04 3.9502e-01 -2.1887e-01 3.1582e-01 -1.6211e-01
      1050 1.1761e-03 2.1124e-04 3.9567e-01 -2.1850e-01 3.1635e-01 -1.6172e-01
      1051 1.1903e-01 1.9915e-04 3.9799e-01 -2.1795e-01 3.1829e-01 -1.6154e-01
      1052 3.1786e-01 1.8030e-04 3.9237e-01 -2.1892e-01 3.1342e-01 -1.6209e-01
      1053 5.0201e-04 2.1131e-04 3.9540e-01 -2.1846e-01 3.1599e-01 -1.6158e-01
      1054 3.7029e-01 1.7564e-04 3.9256e-01 -2.1803e-01 3.1355e-01 -1.6185e-01
      1055 1.0829e-01 2.0022e-04 3.9661e-01 -2.1894e-01 3.1698e-01 -1.6194e-01
      1056 4.8598e-01 1.6576e-04 3.9160e-01 -2.1895e-01 3.1261e-01 -1.6191e-01
      1057 1.2475e-02 2.1005e-04 3.9562e-01 -2.1888e-01 3.1616e-01 -1.6183e-01
      1058 3.8884e-03 2.1095e-04 3.9561e-01 -2.1858e-01 3.1615e-01 -1.6191e-01
      1059 7.2830e-01 1.4685e-04 3.9921e-01 -2.1905e-01 3.1933e-01 -1.6217e-01
      1060 6.7665e-03 2.1065e-04 3.9669e-01 -2.1738e-01 3.1705e-01 -1.6124e-01
      1061 5.1895e-02 2.0595e-04 3.9664e-01 -2.1850e-01 3.1714e-01 -1.6172e-01
      1062 4.1911e-01 1.7140e-04 3.9378e-01 -2.1667e-01 3.1453e-01 -1.6061e-01
      1063 1.6870e-02 2.0958e-04 3.9473e-01 -2.1843e-01 3.1535e-01 -1.6179e-01
      1064 5.5757e-02 2.0555e-04 3.9414e-01 -2.1898e-01 3.1496e-01 -1.6207e-01
      1065 6.6022e-02 2.0450e-04 3.9409e-01 -2.1839e-01 3.1493e-01 -1.6173e-01
      1066 8.0530e-03 2.1051e-04 3.9645e-01 -2.1757e-01 3.1689e-01 -1.6122e-01
      1067 1.7107e-01 1.9403e-04 3.9765e-01 -2.1837e-01 3.1795e-01 -1.6193e-01
      1068 1.3392e-02 2.0995e-04 3.9609e-01 -2.1666e-01 3.1654e-01 -1.6060e-01
      1069 2.1454e-03 2.1113e-04 3.9438e-01 -2.1922e-01 3.1501e-01 -1.6215e-01
      1070 3.0210e-01 1.8173e-04 3.9193e-01 -2.1967e-01 3.1297e-01 -1.6241e-01
      1071 4.5719e-01 1.6817e-04 3.9259e-01 -2.1778e-01 3.1355e-01 -1.6142e-01
      1072 1.1439e-01 1.9961e-04 3.9375e-01 -2.1762e-01 3.1443e-01 -1.6161e-01
      1073 3.9408e-01 1.7356e-04 3.9248e-01 -2.1810e-01 3.1346e-01 -1.6162e-01
      1074 1.8062e-01 1.9311e-04 3.9709e-01 -2.1965e-01 3.1746e-01 -1.6223e-01
      1075 2.4327e-02 2.0880e-04 3.9478e-01 -2.1864e-01 3.1551e-01 -1.6177e-01
      1076 9.4536e-04 2.1126e-04 3.9541e-01 -2.1845e-01 3.1611e-01 -1.6172e-01
      1077 7.4080e-02 2.0367e-04 3.9445e-01 -2.1782e-01 3.1516e-01 -1.6139e-01
      1078 6.4665e-02 2.0464e-04 3.9417e-01 -2.1856e-01 3.1485e-01 -1.6206e-01
      1079 1.2652e-02 2.1003e-04 3.9509e-01 -2.1774e-01 3.1577e-01 -1.6179e-01
      1080 4.2333e-01 1.7104e-04 3.9197e-01 -2.1873e-01 3.1303e-01 -1.6212e-01
      1081 7.9265e-04 2.1128e-04 3.9593e-01 -2.1808e-01 3.1655e-01 -1.6160e-01
      1082 2.0082e-02 2.0925e-04 3.9574e-01 -2.1726e-01 3.1638e-01 -1.6119e-01
      1083 9.4225e-02 2.0163e-04 3.9719e-01 -2.1804e-01 3.1766e-01 -1.6148e-01
      1084 1.8025e-03 2.1117e-04 3.9505e-01 -2.1841e-01 3.1571e-01 -1.6195e-01
      1085 4.5153e-02 2.0664e-04 3.9763e-01 -2.1754e-01 3.1792e-01 -1.6107e-01
      1086 9.0346e-02 2.0202e-04 3.9367e-01 -2.1903e-01 3.1456e-01 -1.6211e-01
      1087 1.3914e-02 2.0989e-04 3.9506e-01 -2.1822e-01 3.1560e-01 -1.6162e-01
      1088 5.2031e-03 2.1081e-04 3.9636e-01 -2.1738e-01 3.1680e-01 -1.6124e-01
      1089 8.7491e-03 2.1044e-04 3.9646e-01 -2.1796e-01 3.1684e-01 -1.6156e-01
      1090 9.8829e-02 2.0117e-04 3.9474e-01 -2.1690e-01 3.1544e-01 -1.6095e-01
      1091 2.9844e-03 2.1104e-04 3.9518e-01 -2.1822e-01 3.1584e-01 -1.6182e-01
      1092 8.6968e-03 2.1044e-04 3.9455e-01 -2.1953e-01 3.1528e-01 -1.6235e-01
      1093 1.6927e-02 2.0958e-04 3.9444e-01 -2.1849e-01 3.1508e-01 -1.6171e-01
      1094 2.3186e-02 2.0892e-04 3.9407e-01 -2.1880e-01 3.1477e-01 -1.6213e-01
      1095 9.4691e-03 2.1036e-04 3.9541e-01 -2.1887e-01 3.1607e-01 -1.6199e-01
      1096 1.4522e-03 2.1121e-04 3.9540e-01 -2.1853e-01 3.1604e-01 -1.6190e-01
      1097 7.9766e-04 2.1128e-04 3.9559e-01 -2.1860e-01 3.1630e-01 -1.6153e-01
      1098 7.8874e-02 2.0319e-04 3.9657e-01 -2.1895e-01 3.1709e-01 -1.6196e-01
      1099 5.5849e-04 2.1130e-04 3.9513e-01 -2.1851e-01 3.1588e-01 -1.6197e-01
      1100 3.6123e-03 2.1098e-04 3.9486e-01 -2.1836e-01 3.1554e-01 -1.6198e-01
      1101 3.1005e-02 2.0811e-04 3.9501e-01 -2.1779e-01 3.1567e-01 -1.6148e-01
      1102 9.5566e-02 2.0150e-04 3.9659e-01 -2.1990e-01 3.1698e-01 -1.6241e-01
      1103 1.1984e-02 2.1010e-04 3.9554e-01 -2.1919e-01 3.1610e-01 -1.6214e-01
      1104 2.0755e-01 1.9053e-04 3.9789e-01 -2.1851e-01 3.1811e-01 -1.6195e-01
      1105 1.2031e-01 1.9902e-04 3.9399e-01 -2.1841e-01 3.1488e-01 -1.6187e-01
      1106 1.2556e-02 2.1004e-04 3.9598e-01 -2.1887e-01 3.1668e-01 -1.6202e-01
      1107 1.3211e-01 1.9785e-04 3.9379e-01 -2.1807e-01 3.1463e-01 -1.6176e-01
      1108 2.6505e-02 2.0858e-04 3.9638e-01 -2.1791e-01 3.1681e-01 -1.6151e-01
      1109 2.7519e-02 2.0847e-04 3.9595e-01 -2.1685e-01 3.1637e-01 -1.6065e-01
      1110 5.2297e-03 2.1081e-04 3.9502e-01 -2.1781e-01 3.1564e-01 -1.6148e-01
      1111 3.3262e-02 2.0787e-04 3.9601e-01 -2.1920e-01 3.1659e-01 -1.6224e-01
      1112 1.5102e-01 1.9599e-04 3.9427e-01 -2.1781e-01 3.1513e-01 -1.6104e-01
      1113 1.2103e-02 2.1008e-04 3.9658e-01 -2.1696e-01 3.1705e-01 -1.6088e-01
      1114 1.6249e-03 2.1119e-04 3.9560e-01 -2.1895e-01 3.1639e-01 -1.6209e-01
      1115 1.0648e-02 2.1024e-04 3.9429e-01 -2.1888e-01 3.1502e-01 -1.6214e-01
      1116 1.0041e-02 2.1030e-04 3.9622e-01 -2.1774e-01 3.1677e-01 -1.6122e-01
      1117 3.7391e-02 2.0744e-04 3.9385e-01 -2.1944e-01 3.1462e-01 -1.6193e-01
      1118 1.3443e+00 1.0792e-04 3.9109e-01 -2.1662e-01 3.1214e-01 -1.6031e-01
      1119 2.6425e-01 1.8520e-04 3.9238e-01 -2.1923e-01 3.1349e-01 -1.6205e-01
      1120 1.3602e-01 1.9746e-04 3.9343e-01 -2.1915e-01 3.1430e-01 -1.6217e-01
      1121 6.8795e-01 1.4984e-04 3.9133e-01 -2.1840e-01 3.1234e-01 -1.6181e-01
      1122 2.3733e-01 1.8771e-04 3.9757e-01 -2.1861e-01 3.1789e-01 -1.6196e-01
      1123 1.0636e-03 2.1125e-04 3.9514e-01 -2.1886e-01 3.1578e-01 -1.6211e-01
      1124 2.1610e-02 2.0909e-04 3.9432e-01 -2.1841e-01 3.1494e-01 -1.6201e-01
      1125 3.8531e-01 1.7432e-04 3.9406e-01 -2.1631e-01 3.1485e-01 -1.6023e-01
      1126 1.2463e-01 1.9859e-04 3.9373e-01 -2.1833e-01 3.1461e-01 -1.6170e-01
      1127 1.0235e-01 2.0082e-04 3.9416e-01 -2.1829e-01 3.1492e-01 -1.6176e-01
      1128 6.2650e-02 2.0484e-04 3.9418e-01 -2.1822e-01 3.1494e-01 -1.6194e-01
      1129 2.5733e-02 2.0866e-04 3.9417e-01 -2.1877e-01 3.1473e-01 -1.6172e-01
      1130 3.6456e-02 2.0754e-04 3.9395e-01 -2.1817e-01 3.1459e-01 -1.6185e-01
      1131 3.7687e-02 2.0741e-04 3.9653e-01 -2.1841e-01 3.1703e-01 -1.6171e-01
      1132 7.1717e-03 2.1060e-04 3.9459e-01 -2.1889e-01 3.1536e-01 -1.6205e-01
      1133 3.7371e-02 2.0745e-04 3.9423e-01 -2.1935e-01 3.1500e-01 -1.6183e-01
      1134 1.9276e-01 1.9194e-04 3.9330e-01 -2.1739e-01 3.1425e-01 -1.6131e-01
      1135 4.0345e-03 2.1093e-04 3.9584e-01 -2.1836e-01 3.1639e-01 -1.6160e-01
      1136 1.0233e-01 2.0082e-04 3.9457e-01 -2.1783e-01 3.1536e-01 -1.6142e-01
      1137 1.5881e-02 2.0969e-04 3.9460e-01 -2.1804e-01 3.1536e-01 -1.6162e-01
      1138 1.0368e-01 2.0068e-04 3.9600e-01 -2.1914e-01 3.1643e-01 -1.6223e-01
      1139 1.0760e-01 2.0029e-04 3.9458e-01 -2.1721e-01 3.1519e-01 -1.6092e-01
      1140 3.2370e-02 2.0797e-04 3.9709e-01 -2.1782e-01 3.1745e-01 -1.6130e-01
      1141 2.9568e-01 1.8231e-04 3.9263e-01 -2.1802e-01 3.1361e-01 -1.6149e-01
      1142 1.6368e-01 1.9475e-04 3.9304e-01 -2.1840e-01 3.1387e-01 -1.6184e-01
      1143 1.1880e-01 1.9917e-04 3.9311e-01 -2.1905e-01 3.1385e-01 -1.6197e-01
      1144 4.8592e-03 2.1085e-04 3.9556e-01 -2.1747e-01 3.1603e-01 -1.6156e-01
      1145 1.7152e-01 1.9399e-04 3.9342e-01 -2.1815e-01 3.1424e-01 -1.6176e-01
      1146 6.0693e-02 2.0504e-04 3.9475e-01 -2.1822e-01 3.1548e-01 -1.6135e-01
      1147 7.6411e-02 2.0344e-04 3.9361e-01 -2.1828e-01 3.1444e-01 -1.6187e-01
      1148 5.6978e-02 2.0542e-04 3.9531e-01 -2.1667e-01 3.1578e-01 -1.6056e-01
      1149 7.6791e-02 2.0340e-04 3.9365e-01 -2.1774e-01 3.1434e-01 -1.6154e-01
      1150 4.3448e-02 2.0682e-04 3.9647e-01 -2.1796e-01 3.1692e-01 -1.6182e-01
      1151 4.4142e-01 1.6950e-04 3.9204e-01 -2.1880e-01 3.1314e-01 -1.6194e-01
      1152 1.1075e-01 1.9997e-04 3.9399e-01 -2.1824e-01 3.1467e-01 -1.6159e-01
      1153 2.6510e-03 2.1108e-04 3.9625e-01 -2.1712e-01 3.1677e-01 -1.6125e-01
      1154 6.6600e-03 2.1066e-04 3.9500e-01 -2.1870e-01 3.1567e-01 -1.6194e-01
      1155 3.8665e-01 1.7421e-04 3.9371e-01 -2.1652e-01 3.1449e-01 -1.6050e-01
      1156 1.1771e-02 2.1012e-04 3.9526e-01 -2.1768e-01 3.1589e-01 -1.6151e-01
      1157 3.4203e-02 2.0778e-04 3.9456e-01 -2.1931e-01 3.1533e-01 -1.6206e-01
      1158 5.8374e-03 2.1074e-04 3.9566e-01 -2.1799e-01 3.1624e-01 -1.6150e-01
      1159 2.1849e-01 1.8949e-04 3.9820e-01 -2.1841e-01 3.1852e-01 -1.6125e-01
      1160 5.1081e-01 1.6372e-04 3.9257e-01 -2.1835e-01 3.1360e-01 -1.6121e-01
      1161 4.1821e-02 2.0699e-04 3.9580e-01 -2.1879e-01 3.1635e-01 -1.6200e-01
      1162 2.6976e-03 2.1107e-04 3.9604e-01 -2.1739e-01 3.1644e-01 -1.6122e-01
      1163 7.0880e-03 2.1061e-04 3.9534e-01 -2.1893e-01 3.1590e-01 -1.6195e-01
      1164 4.7674e-01 1.6653e-04 3.9151e-01 -2.1921e-01 3.1263e-01 -1.6229e-01
      1165 3.6627e-02 2.0752e-04 3.9575e-01 -2.1879e-01 3.1626e-01 -1.6209e-01
      1166 1.4358e-01 1.9672e-04 3.9793e-01 -2.1760e-01 3.1810e-01 -1.6141e-01
      1167 6.0911e-02 2.0502e-04 3.9412e-01 -2.1855e-01 3.1481e-01 -1.6175e-01
      1168 1.1328e-01 1.9972e-04 3.9700e-01 -2.1893e-01 3.1736e-01 -1.6200e-01
      1169 2.3022e-01 1.8838e-04 3.9803e-01 -2.1832e-01 3.1835e-01 -1.6187e-01
      1170 1.0488e-03 2.1125e-04 3.9507e-01 -2.1837e-01 3.1573e-01 -1.6168e-01
      1171 3.9066e-01 1.7386e-04 3.9145e-01 -2.1980e-01 3.1239e-01 -1.6245e-01
      1172 5.4361e-01 1.6106e-04 3.9233e-01 -2.1775e-01 3.1336e-01 -1.6115e-01
      1173 6.0009e-03 2.1073e-04 3.9546e-01 -2.1820e-01 3.1603e-01 -1.6162e-01
      1174 6.1011e-01 1.5579e-04 3.9264e-01 -2.1735e-01 3.1356e-01 -1.6065e-01
      1175 2.1347e-01 1.8996e-04 3.9770e-01 -2.1885e-01 3.1830e-01 -1.6197e-01
      1176 1.3680e-02 2.0992e-04 3.9460e-01 -2.1834e-01 3.1529e-01 -1.6184e-01
      1177 3.1205e-02 2.0809e-04 3.9477e-01 -2.1843e-01 3.1545e-01 -1.6185e-01
      1178 7.8186e-02 2.0326e-04 3.9515e-01 -2.1656e-01 3.1575e-01 -1.6068e-01
      1179 7.0021e-02 2.0409e-04 3.9358e-01 -2.1972e-01 3.1427e-01 -1.6240e-01
      1180 4.6899e-02 2.0646e-04 3.9562e-01 -2.1709e-01 3.1620e-01 -1.6094e-01
      1181 1.0336e-01 2.0071e-04 3.9407e-01 -2.1810e-01 3.1479e-01 -1.6145e-01
      1182 1.1509e-02 2.1015e-04 3.9558e-01 -2.1775e-01 3.1616e-01 -1.6132e-01
      1183 6.8377e-02 2.0426e-04 3.9375e-01 -2.1796e-01 3.1451e-01 -1.6171e-01
      1184 5.4974e-03 2.1078e-04 3.9570e-01 -2.1852e-01 3.1630e-01 -1.6154e-01
      1185 1.7057e-01 1.9408e-04 3.9709e-01 -2.1865e-01 3.1749e-01 -1.6197e-01
      1186 1.4508e-02 2.0983e-04 3.9590e-01 -2.1856e-01 3.1654e-01 -1.6182e-01
      1187 3.9658e-01 1.7334e-04 3.9409e-01 -2.1593e-01 3.1497e-01 -1.6001e-01
      1188 7.8720e-03 2.1053e-04 3.9543e-01 -2.1899e-01 3.1600e-01 -1.6186e-01
      1189 3.6962e-01 1.7570e-04 3.9324e-01 -2.1719e-01 3.1405e-01 -1.6095e-01
      1190 2.3399e-01 1.8802e-04 3.9359e-01 -2.1665e-01 3.1429e-01 -1.6112e-01
      1191 2.2531e-02 2.0899e-04 3.9430e-01 -2.1879e-01 3.1502e-01 -1.6202e-01
      1192 2.1613e-03 2.1113e-04 3.9455e-01 -2.1939e-01 3.1525e-01 -1.6230e-01
      1193 4.9006e-02 2.0624e-04 3.9629e-01 -2.1790e-01 3.1670e-01 -1.6154e-01
      1194 1.8110e-02 2.0945e-04 3.9441e-01 -2.1920e-01 3.1522e-01 -1.6226e-01
      1195 3.1895e-03 2.1102e-04 3.9541e-01 -2.1810e-01 3.1599e-01 -1.6149e-01
      1196 1.8171e-01 1.9300e-04 3.9494e-01 -2.1684e-01 3.1557e-01 -1.6085e-01
      1197 3.8747e-02 2.0730e-04 3.9658e-01 -2.1754e-01 3.1695e-01 -1.6133e-01
      1198 1.0588e-01 2.0046e-04 3.9765e-01 -2.1718e-01 3.1806e-01 -1.6134e-01
      1199 2.9989e-01 1.8193e-04 3.9207e-01 -2.1895e-01 3.1311e-01 -1.6204e-01
      1200 1.9247e-02 2.0934e-04 3.9432e-01 -2.1823e-01 3.1493e-01 -1.6176e-01
      1201 1.2905e-01 1.9815e-04 3.9421e-01 -2.1823e-01 3.1491e-01 -1.6124e-01
      1202 7.9125e-02 2.0316e-04 3.9448e-01 -2.1765e-01 3.1516e-01 -1.6143e-01
      1203 5.3390e-03 2.1080e-04 3.9517e-01 -2.1890e-01 3.1575e-01 -1.6213e-01
      1204 6.6849e-03 2.1065e-04 3.9536e-01 -2.1958e-01 3.1597e-01 -1.6209e-01
      1205 2.4297e-02 2.0881e-04 3.9669e-01 -2.1753e-01 3.1719e-01 -1.6132e-01
      1206 6.5751e-02 2.0452e-04 3.9607e-01 -2.1912e-01 3.1664e-01 -1.6219e-01
      1207 3.8621e-03 2.1095e-04 3.9578e-01 -2.1854e-01 3.1639e-01 -1.6188e-01
      1208 7.3328e-02 2.0375e-04 3.9498e-01 -2.1723e-01 3.1562e-01 -1.6113e-01
      1209 8.7950e-02 2.0227e-04 3.9401e-01 -2.1877e-01 3.1483e-01 -1.6159e-01
      1210 4.7048e-03 2.1086e-04 3.9552e-01 -2.1772e-01 3.1613e-01 -1.6146e-01
      1211 3.2360e-02 2.0797e-04 3.9497e-01 -2.1801e-01 3.1568e-01 -1.6161e-01
      1212 7.3555e-04 2.1128e-04 3.9592e-01 -2.1772e-01 3.1657e-01 -1.6137e-01
      1213 9.1171e-02 2.0194e-04 3.9696e-01 -2.1893e-01 3.1754e-01 -1.6178e-01
      1214 9.1238e-02 2.0193e-04 3.9741e-01 -2.1861e-01 3.1770e-01 -1.6179e-01
      1215 4.6916e-01 1.6716e-04 3.9294e-01 -2.1743e-01 3.1387e-01 -1.6118e-01
      1216 2.4212e-01 1.8726e-04 3.9810e-01 -2.1810e-01 3.1826e-01 -1.6149e-01
      1217 2.2118e-03 2.1113e-04 3.9627e-01 -2.1834e-01 3.1673e-01 -1.6153e-01
      1218 1.9415e-01 1.9181e-04 3.9330e-01 -2.1772e-01 3.1409e-01 -1.6126e-01
      1219 3.3204e-01 1.7903e-04 3.9829e-01 -2.1850e-01 3.1844e-01 -1.6180e-01
      1220 3.1162e-02 2.0809e-04 3.9671e-01 -2.1733e-01 3.1711e-01 -1.6140e-01
      1221 7.9345e-03 2.1052e-04 3.9547e-01 -2.1995e-01 3.1621e-01 -1.6220e-01
      1222 8.1243e-03 2.1050e-04 3.9605e-01 -2.1765e-01 3.1656e-01 -1.6161e-01
      1223 4.4395e-04 2.1131e-04 3.9531e-01 -2.1879e-01 3.1585e-01 -1.6195e-01
      1224 4.9822e-02 2.0616e-04 3.9475e-01 -2.1839e-01 3.1544e-01 -1.6178e-01
      1225 1.3940e-02 2.0989e-04 3.9598e-01 -2.1877e-01 3.1649e-01 -1.6210e-01
      1226 1.8527e-01 1.9266e-04 3.9755e-01 -2.1815e-01 3.1783e-01 -1.6168e-01
      1227 5.8937e-03 2.1074e-04 3.9490e-01 -2.1890e-01 3.1544e-01 -1.6201e-01
      1228 1.9519e-01 1.9171e-04 3.9321e-01 -2.1827e-01 3.1416e-01 -1.6185e-01
      1229 2.7875e-03 2.1107e-04 3.9562e-01 -2.1791e-01 3.1624e-01 -1.6171e-01
      1230 1.5232e-02 2.0976e-04 3.9569e-01 -2.1898e-01 3.1625e-01 -1.6215e-01
      1231 6.4993e-02 2.0460e-04 3.9617e-01 -2.1864e-01 3.1663e-01 -1.6196e-01
      1232 4.4998e-01 1.6878e-04 3.9269e-01 -2.1837e-01 3.1373e-01 -1.6133e-01
      1233 3.5338e-02 2.0766e-04 3.9608e-01 -2.1844e-01 3.1648e-01 -1.6161e-01
      1234 1.2589e-01 1.9847e-04 3.9365e-01 -2.1874e-01 3.1456e-01 -1.6184e-01
      1235 4.5698e-02 2.0658e-04 3.9357e-01 -2.1934e-01 3.1440e-01 -1.6204e-01
      1236 9.6520e-02 2.0140e-04 3.9377e-01 -2.1877e-01 3.1468e-01 -1.6213e-01
      1237 1.4742e-02 2.0981e-04 3.9570e-01 -2.1856e-01 3.1632e-01 -1.6175e-01
      1238 3.2766e-02 2.0792e-04 3.9524e-01 -2.1772e-01 3.1605e-01 -1.6124e-01
      1239 4.7448e-01 1.6672e-04 3.9209e-01 -2.1813e-01 3.1300e-01 -1.6156e-01
      1240 8.7533e-03 2.1044e-04 3.9548e-01 -2.1838e-01 3.1623e-01 -1.6136e-01
      1241 7.2022e-02 2.0388e-04 3.9439e-01 -2.1783e-01 3.1511e-01 -1.6143e-01
      1242 2.9737e-03 2.1105e-04 3.9575e-01 -2.1806e-01 3.1637e-01 -1.6168e-01
      1243 1.2996e-02 2.0999e-04 3.9488e-01 -2.1799e-01 3.1550e-01 -1.6156e-01
      1244 4.2357e-01 1.7102e-04 3.9193e-01 -2.1871e-01 3.1309e-01 -1.6211e-01
      1245 1.6187e-02 2.0966e-04 3.9587e-01 -2.1907e-01 3.1642e-01 -1.6217e-01
      1246 1.8367e-01 1.9281e-04 3.9413e-01 -2.1755e-01 3.1484e-01 -1.6098e-01
      1247 6.9146e-02 2.0418e-04 3.9511e-01 -2.1656e-01 3.1558e-01 -1.6076e-01
      1248 6.2828e-01 1.5438e-04 3.9110e-01 -2.1853e-01 3.1206e-01 -1.6194e-01
      1249 6.3958e-03 2.1068e-04 3.9518e-01 -2.1833e-01 3.1582e-01 -1.6168e-01
      1250 7.0172e-03 2.1062e-04 3.9585e-01 -2.1855e-01 3.1615e-01 -1.6184e-01
      1251 3.1024e-03 2.1103e-04 3.9565e-01 -2.1848e-01 3.1633e-01 -1.6183e-01
      1252 1.5712e-02 2.0971e-04 3.9561e-01 -2.1975e-01 3.1623e-01 -1.6238e-01
      1253 3.4205e-01 1.7813e-04 3.9383e-01 -2.1677e-01 3.1480e-01 -1.6070e-01
      1254 3.8752e-04 2.1132e-04 3.9598e-01 -2.1817e-01 3.1640e-01 -1.6164e-01
      1255 7.7642e-02 2.0331e-04 3.9444e-01 -2.1776e-01 3.1511e-01 -1.6159e-01
      1256 2.1364e-01 1.8995e-04 3.9739e-01 -2.1814e-01 3.1765e-01 -1.6188e-01
      1257 1.0313e-02 2.1027e-04 3.9545e-01 -2.1827e-01 3.1598e-01 -1.6183e-01
      1258 3.4758e-01 1.7764e-04 3.9289e-01 -2.1763e-01 3.1383e-01 -1.6118e-01
      1259 1.5262e-03 2.1120e-04 3.9586e-01 -2.1724e-01 3.1629e-01 -1.6083e-01
      1260 2.6704e-03 2.1108e-04 3.9515e-01 -2.1839e-01 3.1565e-01 -1.6199e-01
      1261 1.2178e-01 1.9887e-04 3.9397e-01 -2.1757e-01 3.1471e-01 -1.6129e-01
      1262 7.1059e-02 2.0398e-04 3.9482e-01 -2.1721e-01 3.1539e-01 -1.6106e-01
      1263 3.5395e-02 2.0765e-04 3.9600e-01 -2.1873e-01 3.1639e-01 -1.6188e-01
      1264 5.1366e-04 2.1131e-04 3.9544e-01 -2.1848e-01 3.1599e-01 -1.6179e-01
      1265 1.6395e-01 1.9472e-04 3.9732e-01 -2.1821e-01 3.1761e-01 -1.6181e-01
      1266 5.9004e-03 2.1074e-04 3.9530e-01 -2.1818e-01 3.1592e-01 -1.6165e-01
      1267 6.3944e-02 2.0471e-04 3.9760e-01 -2.1772e-01 3.1796e-01 -1.6124e-01
      1268 5.0444e-02 2.0610e-04 3.9785e-01 -2.1692e-01 3.1828e-01 -1.6091e-01
      1269 3.2232e-02 2.0798e-04 3.9591e-01 -2.1932e-01 3.1639e-01 -1.6187e-01
      1270 2.2851e-02 2.0896e-04 3.9583e-01 -2.1790e-01 3.1619e-01 -1.6179e-01
      1271 3.1488e-02 2.0806e-04 3.9754e-01 -2.1705e-01 3.1777e-01 -1.6084e-01
      1272 6.6294e-03 2.1066e-04 3.9640e-01 -2.1689e-01 3.1690e-01 -1.6070e-01
      1273 3.7268e-02 2.0746e-04 3.9523e-01 -2.1702e-01 3.1578e-01 -1.6098e-01
