         0   455.8536     0.0000 3.9497e-01 -2.1892e-01 3.2134e-01 -1.7174e-01
         1 12312296.3766     0.0000 4.3461e-01 -1.8674e-01 3.5832e-01 -1.5577e-01
         2 9273427.6133     0.0000 4.3039e-01 -1.8181e-01 3.4943e-01 -1.5147e-01
         3 44618878.4593     0.0000 4.0979e-01 -2.1313e-01 3.3408e-01 -1.4997e-01
         4 1839984.1632     0.0000 4.2761e-01 -1.8352e-01 3.4840e-01 -1.4442e-01
         5 5031242.1845     0.0000 4.0812e-01 -1.8419e-01 3.2396e-01 -1.4560e-01
         6 34885981.1385     0.0000 4.5032e-01 -1.9562e-01 3.7573e-01 -1.5686e-01
         7 5193210.2643     0.0000 4.1367e-01 -2.0788e-01 3.3694e-01 -1.5473e-01
         8 10087131.7272     0.0000 4.3302e-01 -1.8204e-01 3.5536e-01 -1.5145e-01
         9 7256299.3727     0.0000 4.1996e-01 -1.7615e-01 3.4519e-01 -1.4230e-01
        10 17016906.3505     0.0000 4.3833e-01 -1.8767e-01 3.5862e-01 -1.5388e-01
        11 16512514.5077     0.0000 4.5640e-01 -1.7901e-01 3.7616e-01 -1.4718e-01
        12 13242873.2508     0.0000 4.1816e-01 -1.8212e-01 3.4335e-01 -1.4924e-01
        13 1850860.5375     0.0000 4.4511e-01 -2.0591e-01 3.6057e-01 -1.6302e-01
        14 3219621.3197     0.0000 4.2873e-01 -2.0889e-01 3.4745e-01 -1.6264e-01
        15 18534064.0687     0.0000 4.1544e-01 -1.9459e-01 3.4112e-01 -1.4630e-01
        16 4374468.0831     0.0000 4.2308e-01 -2.0522e-01 3.4730e-01 -1.6092e-01
        17 33454871.1848     0.0000 4.4942e-01 -1.8486e-01 3.7110e-01 -1.3820e-01
        18 20385231.3537     0.0000 4.2868e-01 -2.3213e-01 3.5038e-01 -1.7343e-01
        19 5619252.1016     0.0000 4.4128e-01 -2.2593e-01 3.5738e-01 -1.7335e-01
        20 5909196.6386     0.0000 3.9872e-01 -2.2074e-01 3.2607e-01 -1.6750e-01
        21 6347358.2220     0.0000 3.8712e-01 -1.9114e-01 3.1617e-01 -1.5875e-01
        22 26989986.8429     0.0000 4.4037e-01 -2.0551e-01 3.6533e-01 -1.5873e-01
        23 26973894.4507     0.0000 4.4151e-01 -1.9626e-01 3.6412e-01 -1.4821e-01
        24 5432531.3942     0.0000 4.1095e-01 -2.0909e-01 3.3604e-01 -1.6639e-01
        25 28741500.1136     0.0000 4.2819e-01 -1.9021e-01 3.5438e-01 -1.4556e-01
        26 32101732.3138     0.0000 4.3612e-01 -2.0888e-01 3.5963e-01 -1.5923e-01
        27 33861063.8653     0.0000 4.5041e-01 -2.0538e-01 3.6985e-01 -1.6034e-01
        28 7352137.7126     0.0000 4.2481e-01 -1.7452e-01 3.4572e-01 -1.4012e-01
        29 24800074.2534     0.0000 4.0977e-01 -1.2923e-01 3.3080e-01 -1.1079e-01
        30 10716063.3605     0.0000 4.0819e-01 -1.6274e-01 3.3287e-01 -1.2550e-01
        31 3742424.6203     0.0000 4.1393e-01 -2.0808e-01 3.3918e-01 -1.6194e-01
        32 24645326.5272     0.0000 4.6993e-01 -2.0221e-01 3.9141e-01 -1.5160e-01
        33 3390194.6162     0.0000 4.1937e-01 -2.1067e-01 3.4242e-01 -1.6386e-01
        34 22945815.7559     0.0000 4.5003e-01 -1.6938e-01 3.7167e-01 -1.4180e-01
        35 10152797.0622     0.0000 4.0398e-01 -2.1239e-01 3.3289e-01 -1.6712e-01
        36 61015742.9435     0.0000 4.5414e-01 -2.1007e-01 3.7735e-01 -1.5050e-01
        37 19884483.2234     0.0000 4.3140e-01 -1.9698e-01 3.5509e-01 -1.6054e-01
        38 3394038.1697     0.0000 4.0665e-01 -1.9675e-01 3.3186e-01 -1.5782e-01
        39 27422927.2773     0.0000 4.5650e-01 -1.8612e-01 3.7698e-01 -1.4711e-01
        40 4918281.9335     0.0000 4.2216e-01 -1.6737e-01 3.4484e-01 -1.3488e-01
        41 3161689.9043     0.0000 4.1036e-01 -1.9626e-01 3.3466e-01 -1.5811e-01
        42 3897159.7006     0.0000 4.2448e-01 -1.8648e-01 3.5018e-01 -1.4872e-01
        43 11412042.0297     0.0000 3.9371e-01 -1.8737e-01 3.2465e-01 -1.4472e-01
        44 9808787.9982     0.0000 4.1117e-01 -1.8015e-01 3.3534e-01 -1.4705e-01
        45 26617367.1178     0.0000 4.3816e-01 -2.1470e-01 3.6380e-01 -1.6787e-01
        46 5512346.5244     0.0000 4.0499e-01 -2.0937e-01 3.2991e-01 -1.6597e-01
        47 1904751.3203     0.0000 4.1130e-01 -2.0399e-01 3.3381e-01 -1.6539e-01
        48 19372850.5823     0.0000 4.1113e-01 -1.6719e-01 3.4159e-01 -1.3236e-01
        49 3188398.8742     0.0000 4.0644e-01 -2.0554e-01 3.3146e-01 -1.6320e-01
        50 6618538.8025     0.0000 3.9041e-01 -1.8745e-01 3.1602e-01 -1.4655e-01
        51 21323270.6310     0.0000 4.2673e-01 -2.2944e-01 3.5077e-01 -1.7402e-01
        52 9979149.3787     0.0000 4.2165e-01 -1.8524e-01 3.4453e-01 -1.4743e-01
        53 8126015.4564     0.0000 4.3036e-01 -1.9354e-01 3.5038e-01 -1.5815e-01
        54 2392879.4883     0.0000 3.9605e-01 -2.0460e-01 3.2343e-01 -1.5818e-01
        55 6377990.6543     0.0000 3.7674e-01 -1.6532e-01 3.0797e-01 -1.3250e-01
        56 5512940.5212     0.0000 3.9224e-01 -2.1279e-01 3.2284e-01 -1.6567e-01
        57 9066858.7144     0.0000 4.4620e-01 -1.8629e-01 3.6842e-01 -1.4402e-01
        58 9423601.6534     0.0000 4.1894e-01 -1.8537e-01 3.4381e-01 -1.4866e-01
        59 14813680.0302     0.0000 4.1013e-01 -1.5627e-01 3.3763e-01 -1.2904e-01
        60 12384463.9901     0.0000 3.9396e-01 -2.0769e-01 3.2571e-01 -1.5696e-01
        61 4311875.4003     0.0000 4.4486e-01 -2.1151e-01 3.6184e-01 -1.6385e-01
        62 6381990.8691     0.0000 4.2747e-01 -1.8694e-01 3.4832e-01 -1.5354e-01
        63 17633775.5259     0.0000 4.5024e-01 -1.8286e-01 3.7327e-01 -1.4755e-01
        64 32559737.7946     0.0000 4.4982e-01 -1.8545e-01 3.7231e-01 -1.4703e-01
        65 22810176.5284     0.0000 4.3374e-01 -1.8765e-01 3.5691e-01 -1.5107e-01
        66 6006467.2875     0.0000 3.9977e-01 -1.8756e-01 3.2600e-01 -1.5320e-01
        67 7699093.0115     0.0000 4.0981e-01 -1.6985e-01 3.3611e-01 -1.3197e-01
        68 25342323.9048     0.0000 4.3587e-01 -1.9957e-01 3.6182e-01 -1.5740e-01
        69 17713943.2329     0.0000 4.4259e-01 -1.8974e-01 3.6193e-01 -1.4769e-01
        70 11115998.5762     0.0000 4.3510e-01 -1.9294e-01 3.5598e-01 -1.5498e-01
        71 1034327.1864     0.0000 3.8743e-01 -2.1151e-01 3.1596e-01 -1.6627e-01
        72 7676176.1172     0.0000 4.3435e-01 -1.8049e-01 3.5633e-01 -1.4669e-01
        73 7070700.8978     0.0000 4.1318e-01 -2.1845e-01 3.3875e-01 -1.6366e-01
        74 12670806.2586     0.0000 4.3114e-01 -1.9287e-01 3.5466e-01 -1.5034e-01
        75 29344858.5149     0.0000 4.5947e-01 -1.8927e-01 3.8210e-01 -1.4909e-01
        76 19055929.1249     0.0000 4.5280e-01 -2.0831e-01 3.7419e-01 -1.6684e-01
        77 5535749.8856     0.0000 4.1596e-01 -2.1072e-01 3.3607e-01 -1.6736e-01
        78 16900092.6191     0.0000 4.3164e-01 -2.0098e-01 3.5689e-01 -1.6105e-01
        79 2563433.4756     0.0000 3.6997e-01 -1.8287e-01 3.0361e-01 -1.4275e-01
        80 5889756.7704     0.0000 3.8499e-01 -1.6947e-01 3.0906e-01 -1.3550e-01
        81 29167728.2737     0.0000 4.6533e-01 -1.8559e-01 3.8397e-01 -1.5002e-01
        82 40289976.9997     0.0000 4.3337e-01 -2.0265e-01 3.5994e-01 -1.4789e-01
        83 20713076.6806     0.0000 4.5393e-01 -1.5710e-01 3.7393e-01 -1.3000e-01
        84 14385989.2725     0.0000 4.4224e-01 -2.1097e-01 3.6206e-01 -1.6208e-01
        85 24430872.0146     0.0000 4.0907e-01 -1.8943e-01 3.3611e-01 -1.4408e-01
        86 6776390.3966     0.0000 4.1086e-01 -1.8126e-01 3.3576e-01 -1.4184e-01
        87 14768995.9343     0.0000 4.1715e-01 -1.8119e-01 3.3924e-01 -1.4249e-01
        88 7790514.0981     0.0000 4.1706e-01 -1.8447e-01 3.4135e-01 -1.4766e-01
        89 11509638.2147     0.0000 4.1276e-01 -1.8837e-01 3.4194e-01 -1.5205e-01
        90 22726473.3575     0.0000 4.2083e-01 -1.6446e-01 3.4482e-01 -1.2925e-01
        91 21368671.2159     0.0000 4.1245e-01 -1.7599e-01 3.3765e-01 -1.3340e-01
        92 13041380.7459     0.0000 4.2735e-01 -1.8176e-01 3.5215e-01 -1.4598e-01
        93 23459287.2975     0.0000 4.5904e-01 -1.9250e-01 3.8378e-01 -1.5673e-01
        94 7083926.2649     0.0000 4.0699e-01 -1.8505e-01 3.3001e-01 -1.4120e-01
        95 14308007.4839     0.0000 4.5456e-01 -1.6998e-01 3.7202e-01 -1.3891e-01
        96 6533850.1032     0.0000 4.0778e-01 -1.8246e-01 3.2582e-01 -1.5008e-01
        97 15305040.6331     0.0000 4.2420e-01 -1.7867e-01 3.4888e-01 -1.3929e-01
        98 1843907.1290     0.0000 3.9563e-01 -2.0572e-01 3.2270e-01 -1.6292e-01
        99 46529628.0151     0.0000 4.2392e-01 -2.2007e-01 3.4752e-01 -1.5468e-01
       100 7313038.1797     0.0000 4.2836e-01 -1.8510e-01 3.5111e-01 -1.4802e-01
       101 8978598.5663     0.0000 4.1991e-01 -1.6928e-01 3.4413e-01 -1.3764e-01
       102 30720167.4501     0.0000 4.6193e-01 -2.0222e-01 3.7967e-01 -1.5838e-01
       103 20981668.1385     0.0000 4.2721e-01 -2.0184e-01 3.5351e-01 -1.5766e-01
       104 15862617.3253     0.0000 4.6001e-01 -1.8094e-01 3.8291e-01 -1.4870e-01
       105 1932060.7500     0.0000 4.2770e-01 -2.0544e-01 3.5140e-01 -1.6307e-01
       106 45051941.0295     0.0000 4.1441e-01 -2.1495e-01 3.4009e-01 -1.4945e-01
       107 8585281.1334     0.0000 4.3081e-01 -1.8946e-01 3.5142e-01 -1.5516e-01
       108 8342143.5789     0.0000 4.0258e-01 -2.1141e-01 3.2872e-01 -1.6122e-01
       109 13594947.4433     0.0000 3.9710e-01 -1.6328e-01 3.2411e-01 -1.3160e-01
       110 7619183.6264     0.0000 4.3801e-01 -1.6573e-01 3.5546e-01 -1.3516e-01
       111 4326460.2239     0.0000 3.7307e-01 -2.0452e-01 3.0604e-01 -1.5520e-01
       112 15947064.4805     0.0000 3.9514e-01 -2.3473e-01 3.2183e-01 -1.7532e-01
       113 18956608.4381     0.0000 4.4705e-01 -2.1408e-01 3.7069e-01 -1.6675e-01
       114 27474221.1989     0.0000 4.3119e-01 -1.8763e-01 3.5751e-01 -1.4681e-01
       115 24034523.5776     0.0000 4.6577e-01 -1.7114e-01 3.8145e-01 -1.4913e-01
       116 21805195.6992     0.0000 4.3387e-01 -2.0520e-01 3.5477e-01 -1.5896e-01
       117 36107840.8684     0.0000 4.6353e-01 -2.2554e-01 3.8284e-01 -1.7040e-01
       118 9264411.3266     0.0000 3.7549e-01 -1.9506e-01 3.0690e-01 -1.5210e-01
       119 20519940.6892     0.0000 4.1404e-01 -2.0528e-01 3.4024e-01 -1.5685e-01
       120 12396367.4843     0.0000 4.1557e-01 -1.6843e-01 3.3731e-01 -1.2868e-01
       121 24642866.7325     0.0000 4.3580e-01 -1.9836e-01 3.5665e-01 -1.4683e-01
       122 13671852.4736     0.0000 4.6242e-01 -1.7933e-01 3.8109e-01 -1.4448e-01
       123 12115281.4076     0.0000 4.4104e-01 -2.0074e-01 3.6191e-01 -1.5928e-01
       124 49826289.8347     0.0000 4.6972e-01 -1.9471e-01 3.8759e-01 -1.4613e-01
       125 2648112.6742     0.0000 4.1272e-01 -1.8623e-01 3.3724e-01 -1.4511e-01
       126 10394444.7272     0.0000 3.8253e-01 -2.3165e-01 3.1261e-01 -1.7224e-01
       127 4348373.2804     0.0000 3.9960e-01 -1.9571e-01 3.2424e-01 -1.5007e-01
       128 16718298.4724     0.0000 4.7050e-01 -1.8200e-01 3.8318e-01 -1.4663e-01
       129 17194973.8466     0.0000 4.1324e-01 -2.1509e-01 3.4036e-01 -1.6299e-01
       130 17951394.0109     0.0000 4.1299e-01 -2.3355e-01 3.3848e-01 -1.6985e-01
       131 2421874.7898     0.0000 4.3206e-01 -2.1535e-01 3.5240e-01 -1.6741e-01
       132 8844676.7332     0.0000 4.1323e-01 -1.8642e-01 3.3977e-01 -1.5319e-01
       133 38087466.0186     0.0000 4.3587e-01 -1.7758e-01 3.6257e-01 -1.3735e-01
       134 2999307.1373     0.0000 4.0740e-01 -1.9227e-01 3.3099e-01 -1.5596e-01
       135 21163341.7314     0.0000 4.1329e-01 -2.1670e-01 3.3550e-01 -1.6186e-01
       136 14604636.6685     0.0000 3.8417e-01 -1.6354e-01 3.1827e-01 -1.2410e-01
       137 6098502.0850     0.0000 4.3102e-01 -2.0404e-01 3.5165e-01 -1.6372e-01
       138 9215413.7045     0.0000 4.4560e-01 -1.8138e-01 3.6582e-01 -1.4720e-01
       139 1993702.8963     0.0000 3.7815e-01 -1.9625e-01 3.0949e-01 -1.5316e-01
       140 19846159.1466     0.0000 4.2440e-01 -1.8584e-01 3.4703e-01 -1.4441e-01
       141 37537393.8795     0.0000 4.3676e-01 -2.1179e-01 3.6405e-01 -1.5853e-01
       142 18174333.1475     0.0000 4.7808e-01 -1.9983e-01 3.9228e-01 -1.6266e-01
       143 17356013.6447     0.0000 4.6601e-01 -2.0434e-01 3.8414e-01 -1.5849e-01
       144 24398978.9856     0.0000 3.9489e-01 -1.7784e-01 3.2355e-01 -1.3517e-01
       145 8026407.2369     0.0000 4.7679e-01 -1.7724e-01 3.9150e-01 -1.4318e-01
       146 26006361.3823     0.0000 4.1196e-01 -2.0575e-01 3.4231e-01 -1.5480e-01
       147 2272239.6274     0.0000 4.1832e-01 -1.9724e-01 3.4018e-01 -1.5902e-01
       148 28073441.7218     0.0000 4.3322e-01 -1.9282e-01 3.5805e-01 -1.4993e-01
       149 13401885.6642     0.0000 4.0509e-01 -2.0525e-01 3.3410e-01 -1.6001e-01
       150 5100883.3274     0.0000 4.3134e-01 -2.1444e-01 3.5161e-01 -1.6955e-01
       151 4533942.3825     0.0000 3.9593e-01 -2.0083e-01 3.2103e-01 -1.5525e-01
       152 22021031.9816     0.0000 3.7023e-01 -2.2917e-01 3.0394e-01 -1.7228e-01
       153 6264991.7843     0.0000 4.2087e-01 -2.0764e-01 3.4824e-01 -1.6495e-01
       154 28197611.1222     0.0000 3.9559e-01 -2.3140e-01 3.2542e-01 -1.7291e-01
       155 13293071.1738     0.0000 3.7464e-01 -2.0314e-01 3.0607e-01 -1.5327e-01
       156 4910436.8379     0.0000 4.1270e-01 -2.3190e-01 3.3453e-01 -1.7383e-01
       157 27050915.6069     0.0000 4.5448e-01 -2.3794e-01 3.7308e-01 -1.7665e-01
       158 6256870.0216     0.0000 4.3386e-01 -2.1492e-01 3.5625e-01 -1.6754e-01
       159 12347872.3610     0.0000 4.2558e-01 -1.7264e-01 3.4764e-01 -1.3640e-01
       160 9978309.4779     0.0000 4.4305e-01 -1.8701e-01 3.6335e-01 -1.4857e-01
       161 2433166.2937     0.0000 4.2496e-01 -1.8777e-01 3.4868e-01 -1.4926e-01
       162 25394612.5897     0.0000 4.2462e-01 -2.0429e-01 3.4976e-01 -1.5816e-01
       163 45830544.3538     0.0000 4.6327e-01 -1.6556e-01 3.8556e-01 -1.3026e-01
       164 5257592.3287     0.0000 4.2697e-01 -1.9244e-01 3.5106e-01 -1.5621e-01
       165 74700758.7497     0.0000 4.8538e-01 -2.4012e-01 4.0120e-01 -1.6867e-01
       166 40537352.8145     0.0000 4.6489e-01 -2.0901e-01 3.8593e-01 -1.6193e-01
       167 9738753.0363     0.0000 4.4649e-01 -1.7489e-01 3.6825e-01 -1.4040e-01
       168 5536500.1217     0.0000 4.0017e-01 -2.1677e-01 3.2528e-01 -1.6934e-01
       169 18206442.4313     0.0000 4.2433e-01 -2.1136e-01 3.5231e-01 -1.6704e-01
       170 800443.6235     0.0000 4.0060e-01 -2.1537e-01 3.2656e-01 -1.6670e-01
       171 13296829.8363     0.0000 4.2700e-01 -1.7342e-01 3.5097e-01 -1.4449e-01
       172 20310916.8691     0.0000 4.4158e-01 -1.6299e-01 3.6780e-01 -1.3262e-01
       173 25343773.9005     0.0000 4.1086e-01 -2.2618e-01 3.3962e-01 -1.6814e-01
       174 27772335.7479     0.0000 4.4305e-01 -1.9362e-01 3.6953e-01 -1.5832e-01
       175 20605556.6756     0.0000 4.3227e-01 -2.0520e-01 3.5430e-01 -1.6043e-01
       176 8494550.6961     0.0000 4.0355e-01 -1.8133e-01 3.3159e-01 -1.4360e-01
       177 11275982.2711     0.0000 4.3398e-01 -2.0994e-01 3.5993e-01 -1.6619e-01
       178 11459839.5403     0.0000 3.9524e-01 -1.7610e-01 3.2547e-01 -1.4666e-01
       179 6840606.8152     0.0000 4.3289e-01 -1.9398e-01 3.5400e-01 -1.5394e-01
       180 18071208.5482     0.0000 4.4093e-01 -2.0186e-01 3.6512e-01 -1.5894e-01
       181 3449994.7319     0.0000 4.2187e-01 -1.9392e-01 3.4546e-01 -1.5501e-01
       182 12357066.4465     0.0000 4.2050e-01 -1.6277e-01 3.4323e-01 -1.3585e-01
       183 7219069.0707     0.0000 4.3316e-01 -1.7153e-01 3.5602e-01 -1.3566e-01
       184 11762725.2613     0.0000 4.1674e-01 -2.1181e-01 3.4300e-01 -1.6486e-01
       185 19292345.6823     0.0000 4.4510e-01 -2.0999e-01 3.6603e-01 -1.6272e-01
       186 19576019.4191     0.0000 4.5476e-01 -2.0983e-01 3.7580e-01 -1.6434e-01
       187 2002526.2953     0.0000 4.1109e-01 -2.0542e-01 3.3457e-01 -1.6158e-01
       188 7836414.4514     0.0000 4.4153e-01 -1.9082e-01 3.5971e-01 -1.5157e-01
       189 8155229.6010     0.0000 4.1853e-01 -2.1040e-01 3.4407e-01 -1.6739e-01
       190 37516490.9483     0.0000 4.2688e-01 -1.9047e-01 3.5375e-01 -1.4389e-01
       191 5398863.0355     0.0000 3.8361e-01 -2.1723e-01 3.1599e-01 -1.6606e-01
       192 4341983.7164     0.0000 4.1459e-01 -1.8894e-01 3.4061e-01 -1.5199e-01
       193 188075.4318     0.0000 3.7946e-01 -2.1636e-01 3.1093e-01 -1.7006e-01
       194 15589725.6735     0.0000 4.2308e-01 -2.0936e-01 3.4658e-01 -1.5784e-01
       195 26683180.7068     0.0000 4.5198e-01 -2.1954e-01 3.7192e-01 -1.6802e-01
       196 28634573.0221     0.0000 4.7943e-01 -1.9580e-01 3.9763e-01 -1.5195e-01
       197 1146840.6474     0.0000 4.0779e-01 -2.0159e-01 3.3444e-01 -1.6113e-01
       198 2765952.6820     0.0000 3.8889e-01 -1.9202e-01 3.1694e-01 -1.4558e-01
       199 8132070.2166     0.0000 4.0550e-01 -2.1435e-01 3.3211e-01 -1.6651e-01
       200 14105104.8516     0.0000 4.1201e-01 -2.1370e-01 3.3933e-01 -1.6681e-01
       201 16631578.7971     0.0000 4.3818e-01 -1.8851e-01 3.5953e-01 -1.4794e-01
       202 24476895.4307     0.0000 4.6925e-01 -2.1281e-01 3.8739e-01 -1.6475e-01
       203 44334482.7137     0.0000 4.5633e-01 -2.1966e-01 3.7879e-01 -1.6469e-01
       204 7291796.4808     0.0000 4.4355e-01 -2.0604e-01 3.6257e-01 -1.6237e-01
       205 6227001.7855     0.0000 4.0516e-01 -1.6577e-01 3.2982e-01 -1.3145e-01
       206 14395989.4363     0.0000 4.3231e-01 -1.7311e-01 3.5260e-01 -1.3802e-01
       207 7348876.5866     0.0000 4.0876e-01 -2.0633e-01 3.3163e-01 -1.5923e-01
       208 19979109.1489     0.0000 4.3982e-01 -2.1168e-01 3.6299e-01 -1.6678e-01
       209 7849077.3227     0.0000 4.0141e-01 -1.7726e-01 3.2625e-01 -1.4022e-01
       210 5933191.3132     0.0000 3.8082e-01 -1.8294e-01 3.0939e-01 -1.4298e-01
       211 7172698.1020     0.0000 4.0323e-01 -1.8370e-01 3.2930e-01 -1.4296e-01
       212 21633492.4092     0.0000 4.1466e-01 -2.0245e-01 3.3813e-01 -1.4812e-01
       213 6757481.3403     0.0000 4.0790e-01 -2.1951e-01 3.3652e-01 -1.6687e-01
       214 7671212.1513     0.0000 4.3931e-01 -1.7514e-01 3.5611e-01 -1.4403e-01
       215 17847996.5217     0.0000 4.1343e-01 -1.7625e-01 3.3876e-01 -1.4092e-01
       216 8076601.0379     0.0000 4.0749e-01 -2.0419e-01 3.3156e-01 -1.6439e-01
       217 8552632.6230     0.0000 4.1503e-01 -2.3525e-01 3.3931e-01 -1.7555e-01
       218 11359274.7676     0.0000 4.2628e-01 -2.1512e-01 3.5206e-01 -1.6798e-01
       219 12853787.4029     0.0000 4.4369e-01 -1.6961e-01 3.6696e-01 -1.3741e-01
       220 6619759.1648     0.0000 4.3059e-01 -1.8594e-01 3.4983e-01 -1.4923e-01
       221 34019379.6351     0.0000 4.6099e-01 -2.2686e-01 3.8250e-01 -1.7357e-01
       222 3418394.5109     0.0000 4.3083e-01 -2.1907e-01 3.5110e-01 -1.7045e-01
       223 11849980.9002     0.0000 4.0097e-01 -2.0489e-01 3.2920e-01 -1.6091e-01
       224 28195690.5768     0.0000 4.2995e-01 -1.5325e-01 3.5414e-01 -1.2890e-01
       225 7844949.1395     0.0000 4.1202e-01 -1.9562e-01 3.3718e-01 -1.5555e-01
       226 12554090.9016     0.0000 4.4475e-01 -1.9662e-01 3.6692e-01 -1.6152e-01
       227 17585120.6896     0.0000 4.5089e-01 -2.1061e-01 3.7193e-01 -1.5850e-01
       228 4373175.2982     0.0000 3.8759e-01 -1.8542e-01 3.1675e-01 -1.4847e-01
       229 5417094.7957     0.0000 3.8547e-01 -2.1010e-01 3.1659e-01 -1.6533e-01
       230 17474408.8684     0.0000 4.3971e-01 -1.7474e-01 3.6012e-01 -1.3225e-01
       231 19840553.6353     0.0000 4.2615e-01 -2.1639e-01 3.4819e-01 -1.6778e-01
       232 17205369.5780     0.0000 4.0876e-01 -2.1932e-01 3.3447e-01 -1.6420e-01
       233 4312957.3180     0.0000 4.4024e-01 -1.8031e-01 3.5790e-01 -1.4684e-01
       234 9776469.5095     0.0000 4.1940e-01 -2.1529e-01 3.4273e-01 -1.6637e-01
       235 18370382.6524     0.0000 4.6408e-01 -1.8492e-01 3.8051e-01 -1.5158e-01
       236 4370194.1239     0.0000 3.9798e-01 -2.0446e-01 3.2541e-01 -1.5885e-01
       237 24538327.2239     0.0000 3.7455e-01 -2.3380e-01 3.0631e-01 -1.6767e-01
       238 13786669.0125     0.0000 4.0396e-01 -2.1343e-01 3.3024e-01 -1.6085e-01
       239 6204925.8805     0.0000 4.1845e-01 -1.7243e-01 3.4150e-01 -1.3870e-01
       240 35643937.1318     0.0000 4.5251e-01 -2.1003e-01 3.7447e-01 -1.5860e-01
       241 17581660.2996     0.0000 4.2918e-01 -1.8907e-01 3.5135e-01 -1.5546e-01
       242 31361875.6073     0.0000 4.4649e-01 -2.2328e-01 3.6844e-01 -1.6873e-01
       243 11379554.2170     0.0000 3.8921e-01 -1.7800e-01 3.2248e-01 -1.3452e-01
       244 28380849.4416     0.0000 4.2889e-01 -1.9225e-01 3.5334e-01 -1.5118e-01
       245 4963660.4040     0.0000 4.5178e-01 -2.0496e-01 3.7095e-01 -1.6614e-01
       246 41219826.4213     0.0000 4.3895e-01 -1.5725e-01 3.6311e-01 -1.2012e-01
       247 6003039.7498     0.0000 4.3309e-01 -1.9600e-01 3.5672e-01 -1.5875e-01
       248 16198468.6193     0.0000 4.4331e-01 -1.8087e-01 3.6446e-01 -1.4600e-01
       249 11183570.9216     0.0000 4.6914e-01 -2.0244e-01 3.8377e-01 -1.5694e-01
       250 1937382.3661     0.0000 3.8605e-01 -2.0452e-01 3.1264e-01 -1.6230e-01
       251 17178629.9008     0.0000 4.1688e-01 -2.0073e-01 3.3993e-01 -1.6009e-01
       252 13422147.6673     0.0000 4.2145e-01 -2.0340e-01 3.4835e-01 -1.5363e-01
       253 14432352.8471     0.0000 4.6080e-01 -2.0595e-01 3.8063e-01 -1.6227e-01
       254 17377811.6818     0.0000 4.1350e-01 -2.2961e-01 3.3650e-01 -1.6697e-01
       255 6097438.3701     0.0000 4.0878e-01 -1.8627e-01 3.3337e-01 -1.4848e-01
       256 7152259.2312     0.0000 4.2958e-01 -1.7789e-01 3.5508e-01 -1.4431e-01
       257 11678171.6828     0.0000 3.9911e-01 -1.5143e-01 3.2678e-01 -1.2482e-01
       258 25068082.2386     0.0000 4.3142e-01 -1.9607e-01 3.5703e-01 -1.5614e-01
       259 18392217.1244     0.0000 4.1725e-01 -1.7935e-01 3.4405e-01 -1.3691e-01
       260 5989035.6064     0.0000 4.3888e-01 -1.8884e-01 3.5869e-01 -1.5257e-01
       261 3936510.6298     0.0000 4.0248e-01 -1.8333e-01 3.2906e-01 -1.5016e-01
       262 5312687.5071     0.0000 4.1177e-01 -2.0704e-01 3.3742e-01 -1.6315e-01
       263 8846468.9173     0.0000 3.9542e-01 -1.7962e-01 3.2171e-01 -1.4938e-01
       264 11987102.8410     0.0000 4.0849e-01 -1.9429e-01 3.3897e-01 -1.5532e-01
       265 12384628.8335     0.0000 4.2299e-01 -1.8672e-01 3.4434e-01 -1.4445e-01
       266 60766025.9102     0.0000 4.3422e-01 -2.4286e-01 3.5828e-01 -1.6834e-01
       267 2896841.8517     0.0000 3.8827e-01 -1.8263e-01 3.1471e-01 -1.4542e-01
       268 18416732.3858     0.0000 4.3428e-01 -1.9994e-01 3.5639e-01 -1.5656e-01
       269 38708197.6981     0.0000 4.8241e-01 -1.4955e-01 4.0023e-01 -1.1845e-01
       270 32219360.9991     0.0000 4.8091e-01 -1.5984e-01 3.9514e-01 -1.2915e-01
       271 12745677.8279     0.0000 4.0501e-01 -2.1237e-01 3.3314e-01 -1.6855e-01
       272 9049896.7650     0.0000 4.0163e-01 -2.1429e-01 3.2738e-01 -1.6744e-01
       273 10886697.7208     0.0000 4.2140e-01 -2.1580e-01 3.4772e-01 -1.6348e-01
       274 8291000.5241     0.0000 4.3250e-01 -2.1332e-01 3.5513e-01 -1.6478e-01
       275 12694953.7145     0.0000 3.9930e-01 -2.0311e-01 3.3028e-01 -1.6256e-01
       276 19628443.1657     0.0000 4.5174e-01 -1.8976e-01 3.7254e-01 -1.5122e-01
       277 20359330.1598     0.0000 4.4261e-01 -1.9847e-01 3.6746e-01 -1.5611e-01
       278 9089746.9535     0.0000 4.3020e-01 -2.0939e-01 3.4999e-01 -1.6552e-01
       279 12540574.5429     0.0000 4.3095e-01 -2.0548e-01 3.5675e-01 -1.6370e-01
       280 42491854.4914     0.0000 4.4727e-01 -2.3870e-01 3.7174e-01 -1.7503e-01
       281 16011819.3084     0.0000 4.3061e-01 -2.0641e-01 3.5095e-01 -1.5900e-01
       282 9243061.4204     0.0000 4.0933e-01 -2.1683e-01 3.3814e-01 -1.7006e-01
       283 12914604.8980     0.0000 4.1889e-01 -2.2900e-01 3.4222e-01 -1.7133e-01
       284 8885266.0899     0.0000 4.6167e-01 -2.1439e-01 3.7788e-01 -1.6498e-01
       285 12724265.7612     0.0000 4.1572e-01 -2.0634e-01 3.3933e-01 -1.5732e-01
       286 18228802.5295     0.0000 4.1080e-01 -1.6592e-01 3.3776e-01 -1.3119e-01
       287 28047777.9933     0.0000 4.8477e-01 -1.9157e-01 4.0035e-01 -1.5259e-01
       288 6727554.5767     0.0000 3.8029e-01 -1.9850e-01 3.1392e-01 -1.5480e-01
       289 11457905.3598     0.0000 4.2247e-01 -2.2742e-01 3.4468e-01 -1.7302e-01
       290 7056963.4475     0.0000 4.0118e-01 -1.9658e-01 3.2722e-01 -1.5235e-01
       291 3964177.9162     0.0000 4.0696e-01 -2.0036e-01 3.3348e-01 -1.5491e-01
       292 1410300.2306     0.0000 4.2363e-01 -2.0069e-01 3.4406e-01 -1.5478e-01
       293 36675449.5378     0.0000 4.8004e-01 -1.9292e-01 3.9810e-01 -1.5573e-01
       294 13497284.7056     0.0000 4.3545e-01 -1.8043e-01 3.5849e-01 -1.4090e-01
       295 23317457.8082     0.0000 4.4960e-01 -2.0120e-01 3.7136e-01 -1.5948e-01
       296 36374669.6219     0.0000 4.2925e-01 -2.1253e-01 3.5650e-01 -1.6165e-01
       297 6406878.7788     0.0000 4.3044e-01 -1.7210e-01 3.5508e-01 -1.3314e-01
       298 2998131.7395     0.0000 4.1102e-01 -2.0633e-01 3.3669e-01 -1.6328e-01
       299 10072790.3103     0.0000 4.1182e-01 -1.6684e-01 3.3525e-01 -1.3892e-01
       300 1211051.3497     0.0000 3.8854e-01 -1.9338e-01 3.1596e-01 -1.5516e-01
       301 2995661.1779     0.0000 4.1606e-01 -1.9989e-01 3.3904e-01 -1.6415e-01
       302 49536512.1243     0.0000 4.5215e-01 -1.6522e-01 3.7857e-01 -1.1888e-01
       303 1835771.0165     0.0000 3.9461e-01 -2.1834e-01 3.2228e-01 -1.6699e-01
       304 8242218.4965     0.0000 4.4005e-01 -1.8728e-01 3.6275e-01 -1.5260e-01
       305 3076348.3230     0.0000 3.7906e-01 -2.1606e-01 3.0982e-01 -1.6968e-01
       306 9312975.8161     0.0000 4.0738e-01 -1.8182e-01 3.3209e-01 -1.4992e-01
       307 45561087.4869     0.0000 4.8069e-01 -1.9563e-01 3.9890e-01 -1.5788e-01
       308 28149226.0362     0.0000 4.2140e-01 -2.0191e-01 3.4468e-01 -1.5488e-01
       309 12545521.1767     0.0000 4.2144e-01 -1.8448e-01 3.4713e-01 -1.4812e-01
       310 12861788.1562     0.0000 4.1777e-01 -1.7590e-01 3.4251e-01 -1.4010e-01
       311 12599072.8294     0.0000 4.3416e-01 -1.7559e-01 3.5455e-01 -1.4597e-01
       312 9288466.5739     0.0000 4.1453e-01 -2.1323e-01 3.3997e-01 -1.6366e-01
       313 25663545.8598     0.0000 4.3689e-01 -1.9438e-01 3.5868e-01 -1.5088e-01
       314 10489298.7492     0.0000 4.3301e-01 -1.6565e-01 3.5437e-01 -1.3736e-01
       315 10487414.7586     0.0000 4.4642e-01 -1.7019e-01 3.6779e-01 -1.3668e-01
       316 14270956.4849     0.0000 4.2034e-01 -2.1094e-01 3.4829e-01 -1.6467e-01
       317 8103802.7584     0.0000 4.0530e-01 -1.7405e-01 3.3368e-01 -1.4247e-01
       318 2257099.3529     0.0000 4.0975e-01 -1.9123e-01 3.2989e-01 -1.5046e-01
       319 18015797.0632     0.0000 4.5288e-01 -1.5307e-01 3.7512e-01 -1.2039e-01
       320 32244263.0977     0.0000 4.7271e-01 -1.7165e-01 3.9115e-01 -1.4074e-01
       321 8857112.7973     0.0000 4.2601e-01 -1.8441e-01 3.4797e-01 -1.5009e-01
       322 10494610.4325     0.0000 4.2082e-01 -2.1308e-01 3.4417e-01 -1.6120e-01
       323 20155467.8037     0.0000 4.2012e-01 -1.8004e-01 3.4392e-01 -1.3759e-01
       324 9922215.9826     0.0000 4.2608e-01 -2.0506e-01 3.4547e-01 -1.5357e-01
       325 11657555.0708     0.0000 3.9365e-01 -1.9612e-01 3.2265e-01 -1.4906e-01
       326 7716228.1258     0.0000 4.1714e-01 -2.0194e-01 3.4264e-01 -1.6065e-01
       327 14657788.3079     0.0000 3.9668e-01 -1.5175e-01 3.2227e-01 -1.2811e-01
       328 18822837.0588     0.0000 4.3168e-01 -1.8376e-01 3.5707e-01 -1.3451e-01
       329 4815503.1861     0.0000 4.2432e-01 -1.7596e-01 3.4531e-01 -1.3791e-01
       330 15482133.7487     0.0000 4.3054e-01 -1.8218e-01 3.5511e-01 -1.4325e-01
       331 2058434.9069     0.0000 3.7314e-01 -1.8686e-01 3.0556e-01 -1.4568e-01
       332 15354463.8474     0.0000 4.3054e-01 -1.8785e-01 3.5263e-01 -1.4535e-01
       333 3722094.1542     0.0000 4.0468e-01 -1.7350e-01 3.2764e-01 -1.3914e-01
       334 9334949.5633     0.0000 4.1833e-01 -1.8454e-01 3.4418e-01 -1.5302e-01
       335 12321718.4307     0.0000 4.0314e-01 -1.4560e-01 3.2772e-01 -1.2003e-01
       336 37260172.1939     0.0000 4.2712e-01 -2.1142e-01 3.5594e-01 -1.5812e-01
       337 7590530.8749     0.0000 3.9558e-01 -1.9010e-01 3.2154e-01 -1.5873e-01
       338 14854875.2110     0.0000 4.4680e-01 -1.9248e-01 3.7129e-01 -1.5331e-01
       339 17904921.4211     0.0000 3.9522e-01 -2.1582e-01 3.2582e-01 -1.5707e-01
       340 741374.1928     0.0000 4.2190e-01 -2.0231e-01 3.4435e-01 -1.5651e-01
       341 8731730.1797     0.0000 4.1689e-01 -1.6346e-01 3.4519e-01 -1.3263e-01
       342 16231621.8647     0.0000 4.3986e-01 -1.6139e-01 3.6408e-01 -1.2928e-01
       343 12602236.6954     0.0000 4.3213e-01 -1.7581e-01 3.5382e-01 -1.4405e-01
       344 539913.4716     0.0000 4.1252e-01 -2.0985e-01 3.3730e-01 -1.6616e-01
       345 26615296.3173     0.0000 4.4061e-01 -1.6904e-01 3.6405e-01 -1.3218e-01
       346 74899082.4187     0.0000 3.5893e-01 -2.8388e-01 2.9548e-01 -1.8665e-01
       347 19522743.7701     0.0000 4.5914e-01 -1.8027e-01 3.7673e-01 -1.4451e-01
       348 21268729.2226     0.0000 4.3041e-01 -1.5264e-01 3.5248e-01 -1.2178e-01
       349 14091682.5543     0.0000 4.3564e-01 -1.8316e-01 3.6164e-01 -1.4087e-01
       350 17433771.5825     0.0000 4.5367e-01 -1.8937e-01 3.7601e-01 -1.5178e-01
       351 615230.4330     0.0000 4.1678e-01 -1.9947e-01 3.3834e-01 -1.5823e-01
       352 12272363.0270     0.0000 4.1335e-01 -2.1026e-01 3.3898e-01 -1.6278e-01
       353 18596117.9487     0.0000 4.0030e-01 -1.5403e-01 3.2796e-01 -1.3215e-01
       354 4091259.3517     0.0000 3.8725e-01 -2.0037e-01 3.1590e-01 -1.5619e-01
       355 22261053.1632     0.0000 4.0556e-01 -1.9389e-01 3.3144e-01 -1.4560e-01
       356 7042740.0046     0.0000 4.1007e-01 -1.7835e-01 3.3625e-01 -1.4467e-01
       357 22765503.4628     0.0000 4.2739e-01 -2.0013e-01 3.5614e-01 -1.6033e-01
       358 14320785.3553     0.0000 4.3989e-01 -1.9075e-01 3.6093e-01 -1.4516e-01
       359 10982638.0431     0.0000 4.3928e-01 -1.9300e-01 3.5515e-01 -1.5255e-01
       360 6595011.1428     0.0000 4.1544e-01 -2.1947e-01 3.3571e-01 -1.6813e-01
       361 8652469.0470     0.0000 3.8905e-01 -1.8710e-01 3.1811e-01 -1.4786e-01
       362 24700402.5032     0.0000 4.4739e-01 -1.7331e-01 3.6844e-01 -1.4148e-01
       363 5416870.7271     0.0000 4.2952e-01 -2.1179e-01 3.5258e-01 -1.6812e-01
       364 16707771.1761     0.0000 4.0690e-01 -1.9539e-01 3.3305e-01 -1.4946e-01
       365 29742747.5229     0.0000 4.3809e-01 -1.8376e-01 3.6540e-01 -1.4452e-01
       366 9089968.2622     0.0000 4.2340e-01 -1.8153e-01 3.4336e-01 -1.5130e-01
       367 24328147.5311     0.0000 4.1982e-01 -2.1796e-01 3.4766e-01 -1.6125e-01
       368 21994035.3487     0.0000 4.3819e-01 -1.8002e-01 3.6223e-01 -1.3605e-01
       369 14506539.6018     0.0000 3.7972e-01 -2.2098e-01 3.1032e-01 -1.6229e-01
       370 14132887.3166     0.0000 4.5076e-01 -1.9636e-01 3.7291e-01 -1.5907e-01
       371 4616120.5663     0.0000 4.5466e-01 -2.0269e-01 3.6852e-01 -1.6331e-01
       372 13725594.3058     0.0000 3.9833e-01 -2.4095e-01 3.2394e-01 -1.7823e-01
       373 18016228.6741     0.0000 4.3280e-01 -1.9554e-01 3.5384e-01 -1.6210e-01
       374 2605464.6153     0.0000 3.8716e-01 -1.9027e-01 3.1506e-01 -1.4809e-01
       375 33135344.2688     0.0000 4.0331e-01 -2.3137e-01 3.3189e-01 -1.6809e-01
       376 24065000.2145     0.0000 4.5486e-01 -2.0292e-01 3.7263e-01 -1.5888e-01
       377 34780194.0512     0.0000 4.2036e-01 -1.9003e-01 3.4425e-01 -1.3682e-01
       378 19898452.9756     0.0000 4.2092e-01 -2.1560e-01 3.4880e-01 -1.6536e-01
       379 36023990.3256     0.0000 4.4013e-01 -2.0417e-01 3.6323e-01 -1.5549e-01
       380 15516300.3054     0.0000 4.5413e-01 -1.8274e-01 3.7380e-01 -1.5188e-01
       381 1003985.9094     0.0000 4.0142e-01 -2.0182e-01 3.2642e-01 -1.6121e-01
       382 10068277.6101     0.0000 4.0631e-01 -1.8389e-01 3.3372e-01 -1.5185e-01
       383 17352604.1854     0.0000 4.3109e-01 -1.8309e-01 3.5624e-01 -1.4551e-01
       384 1692003.7537     0.0000 4.1779e-01 -1.9590e-01 3.4543e-01 -1.5632e-01
       385 15161694.6761     0.0000 4.2555e-01 -1.8816e-01 3.4747e-01 -1.4901e-01
       386 6089331.6072     0.0000 4.4230e-01 -1.7069e-01 3.5846e-01 -1.3730e-01
       387 20891947.8472     0.0000 4.1467e-01 -2.4223e-01 3.4110e-01 -1.7702e-01
       388 12006686.6609     0.0000 4.4609e-01 -1.4556e-01 3.6286e-01 -1.1907e-01
       389 23017348.6596     0.0000 4.3451e-01 -1.9113e-01 3.5579e-01 -1.4798e-01
       390 38536368.6280     0.0000 4.4598e-01 -2.3902e-01 3.6839e-01 -1.7585e-01
       391 36638838.7828     0.0000 4.5453e-01 -1.8263e-01 3.7525e-01 -1.3852e-01
       392 15447579.3881     0.0000 4.1491e-01 -1.7256e-01 3.4188e-01 -1.3378e-01
       393 10175452.0436     0.0000 3.8429e-01 -1.6424e-01 3.1172e-01 -1.3646e-01
       394 14798633.9305     0.0000 4.2713e-01 -1.9734e-01 3.5097e-01 -1.5897e-01
       395 8435928.2136     0.0000 4.3863e-01 -2.0895e-01 3.5573e-01 -1.6110e-01
       396 18886870.3150     0.0000 4.6904e-01 -2.0607e-01 3.8748e-01 -1.6092e-01
       397 13752461.3792     0.0000 4.2604e-01 -1.8813e-01 3.5136e-01 -1.5585e-01
       398 6258275.7971     0.0000 4.4963e-01 -1.6753e-01 3.6474e-01 -1.3511e-01
       399 18780718.6905     0.0000 4.0373e-01 -2.5093e-01 3.2678e-01 -1.7969e-01
       400 6698684.6223     0.0000 4.0423e-01 -1.9317e-01 3.3063e-01 -1.5932e-01
       401 14867208.7059     0.0000 4.3883e-01 -1.6957e-01 3.6174e-01 -1.3406e-01
       402 40254699.0389     0.0000 4.2779e-01 -2.0032e-01 3.5166e-01 -1.5105e-01
       403 19338769.0958     0.0000 4.5698e-01 -1.6105e-01 3.7670e-01 -1.3030e-01
       404 2814214.7507     0.0000 4.2638e-01 -2.1573e-01 3.4848e-01 -1.6920e-01
       405 11077112.2873     0.0000 4.6611e-01 -1.9383e-01 3.8326e-01 -1.5280e-01
       406 25346314.9989     0.0000 4.1699e-01 -2.3162e-01 3.4176e-01 -1.7071e-01
       407 12912339.7822     0.0000 4.2262e-01 -2.1080e-01 3.4917e-01 -1.6327e-01
       408 5716421.8577     0.0000 4.2472e-01 -2.0305e-01 3.5075e-01 -1.5964e-01
       409 9993287.7498     0.0000 4.5336e-01 -2.0141e-01 3.7136e-01 -1.5976e-01
       410 37152697.3887     0.0000 4.5476e-01 -1.6981e-01 3.7866e-01 -1.3379e-01
       411 1721805.5094     0.0000 3.9820e-01 -2.1914e-01 3.2051e-01 -1.6875e-01
       412 9082233.6748     0.0000 4.4311e-01 -1.8177e-01 3.6692e-01 -1.5230e-01
       413 16139556.3170     0.0000 3.9579e-01 -1.9180e-01 3.2513e-01 -1.5515e-01
       414 5500122.8949     0.0000 3.9729e-01 -1.8340e-01 3.2164e-01 -1.4468e-01
       415 12451259.6130     0.0000 4.0713e-01 -1.9294e-01 3.3322e-01 -1.5654e-01
       416 3245351.0912     0.0000 4.0373e-01 -2.0714e-01 3.3101e-01 -1.6229e-01
       417 34413277.3631     0.0000 4.5311e-01 -1.9059e-01 3.7821e-01 -1.5098e-01
       418 5050022.9904     0.0000 4.7644e-01 -1.8983e-01 3.8841e-01 -1.4717e-01
       419 6533262.8912     0.0000 4.3083e-01 -2.0930e-01 3.5346e-01 -1.6117e-01
       420 8359314.4255     0.0000 4.0354e-01 -2.2265e-01 3.3010e-01 -1.6834e-01
       421 11161028.5801     0.0000 4.3985e-01 -1.8571e-01 3.5958e-01 -1.4766e-01
       422 14352932.9101     0.0000 4.3458e-01 -1.7918e-01 3.5294e-01 -1.4671e-01
       423 6812965.8967     0.0000 3.7749e-01 -1.6819e-01 3.0875e-01 -1.3677e-01
       424 6423614.3363     0.0000 3.8713e-01 -1.9736e-01 3.1695e-01 -1.5399e-01
       425 26733225.9947     0.0000 4.7909e-01 -1.9315e-01 3.9557e-01 -1.5609e-01
       426 10755616.9086     0.0000 3.9557e-01 -1.9212e-01 3.2442e-01 -1.4694e-01
       427 4437674.5713     0.0000 4.3620e-01 -2.0403e-01 3.5555e-01 -1.6426e-01
       428 7695265.6530     0.0000 3.5430e-01 -1.6545e-01 2.8976e-01 -1.3638e-01
       429 4836864.1316     0.0000 4.4168e-01 -1.8732e-01 3.6032e-01 -1.5013e-01
       430 10625827.3506     0.0000 4.1477e-01 -1.9281e-01 3.4073e-01 -1.5382e-01
       431 22925450.1288     0.0000 4.4653e-01 -1.7516e-01 3.6833e-01 -1.3879e-01
       432 31039909.5449     0.0000 4.2147e-01 -1.8265e-01 3.4741e-01 -1.3404e-01
       433 14561479.0807     0.0000 4.3668e-01 -1.9410e-01 3.5713e-01 -1.5045e-01
       434 23336980.7226     0.0000 4.4713e-01 -1.4463e-01 3.6546e-01 -1.1396e-01
       435 7821532.5668     0.0000 4.1603e-01 -1.9445e-01 3.4054e-01 -1.5959e-01
       436 9147624.4917     0.0000 4.1287e-01 -1.9400e-01 3.3549e-01 -1.4969e-01
       437 8123226.2010     0.0000 4.0014e-01 -1.6845e-01 3.2941e-01 -1.3473e-01
       438 30362586.3511     0.0000 4.6383e-01 -1.6442e-01 3.8512e-01 -1.2690e-01
       439 16253495.4810     0.0000 4.3010e-01 -1.5715e-01 3.5042e-01 -1.2793e-01
       440 32860902.7943     0.0000 4.4229e-01 -2.0452e-01 3.6423e-01 -1.6351e-01
       441 37607123.9880     0.0000 3.9672e-01 -2.5186e-01 3.2334e-01 -1.7994e-01
       442 14988341.3550     0.0000 4.5200e-01 -1.7089e-01 3.7316e-01 -1.4414e-01
       443 33042962.9836     0.0000 4.4122e-01 -2.3308e-01 3.6425e-01 -1.7475e-01
       444 15949671.5163     0.0000 4.5816e-01 -1.4151e-01 3.7405e-01 -1.1903e-01
       445 31456052.7616     0.0000 4.4375e-01 -2.0990e-01 3.6746e-01 -1.6174e-01
       446 23603766.9974     0.0000 4.0551e-01 -2.1225e-01 3.3246e-01 -1.6189e-01
       447 25616170.4562     0.0000 4.1962e-01 -1.4482e-01 3.4607e-01 -1.1425e-01
       448 3735741.3280     0.0000 4.0430e-01 -1.7228e-01 3.3086e-01 -1.3413e-01
       449 4300005.2258     0.0000 4.0926e-01 -2.2701e-01 3.3584e-01 -1.7173e-01
       450 40615064.0413     0.0000 4.2835e-01 -2.0589e-01 3.5680e-01 -1.5386e-01
       451 83428768.7111     0.0000 4.8529e-01 -2.1955e-01 4.0105e-01 -1.5286e-01
       452 4682639.3963     0.0000 4.2517e-01 -1.7606e-01 3.4582e-01 -1.4135e-01
       453 29742108.8605     0.0000 3.9778e-01 -2.3905e-01 3.2860e-01 -1.6676e-01
       454 15283820.3050     0.0000 3.9472e-01 -2.4138e-01 3.2199e-01 -1.7597e-01
       455 45671251.9782     0.0000 3.9563e-01 -2.2045e-01 3.2450e-01 -1.4946e-01
       456 22384910.2829     0.0000 4.4640e-01 -1.5130e-01 3.6799e-01 -1.2202e-01
       457 1853706.9615     0.0000 4.0362e-01 -2.2286e-01 3.3111e-01 -1.7175e-01
       458 16719628.5277     0.0000 4.2290e-01 -1.8046e-01 3.4890e-01 -1.4455e-01
       459 30792826.4614     0.0000 4.4717e-01 -2.0486e-01 3.7226e-01 -1.6002e-01
       460 31325504.5598     0.0000 4.5527e-01 -2.2949e-01 3.7311e-01 -1.7195e-01
       461 18870802.6964     0.0000 4.2198e-01 -1.5402e-01 3.4606e-01 -1.2201e-01
       462 16525881.9986     0.0000 4.0973e-01 -1.9099e-01 3.3514e-01 -1.4376e-01
       463 28784458.4918     0.0000 4.4705e-01 -1.6383e-01 3.6975e-01 -1.3018e-01
       464 2203752.5405     0.0000 3.8363e-01 -1.8792e-01 3.1119e-01 -1.5162e-01
       465 18695391.7157     0.0000 3.9055e-01 -2.0128e-01 3.2229e-01 -1.5429e-01
       466 7399153.8602     0.0000 4.2186e-01 -1.9545e-01 3.4733e-01 -1.6012e-01
       467 11683456.8845     0.0000 4.3528e-01 -2.0585e-01 3.5465e-01 -1.6595e-01
       468 26334230.6144     0.0000 4.0523e-01 -2.1313e-01 3.3566e-01 -1.6252e-01
       469 12945784.5127     0.0000 4.3251e-01 -2.0962e-01 3.5832e-01 -1.6341e-01
       470 4238200.9286     0.0000 4.1474e-01 -1.8118e-01 3.3742e-01 -1.4705e-01
       471 4082526.9652     0.0000 3.7754e-01 -1.7962e-01 3.0866e-01 -1.4366e-01
       472 9709549.9808     0.0000 4.1785e-01 -1.9979e-01 3.4597e-01 -1.5637e-01
       473 14929681.3317     0.0000 4.2417e-01 -1.7836e-01 3.4798e-01 -1.4413e-01
       474 18279459.4780     0.0000 4.5977e-01 -1.8016e-01 3.7734e-01 -1.4837e-01
       475 27457015.7230     0.0000 4.7140e-01 -1.9862e-01 3.9103e-01 -1.5669e-01
       476 9233263.9138     0.0000 4.0756e-01 -2.0969e-01 3.3692e-01 -1.5572e-01
       477 13109978.1461     0.0000 3.9878e-01 -1.4990e-01 3.2864e-01 -1.1680e-01
       478 12073709.2770     0.0000 4.1851e-01 -1.9942e-01 3.4275e-01 -1.5397e-01
       479 2455656.8854     0.0000 4.2246e-01 -2.0723e-01 3.4478e-01 -1.6261e-01
       480 18415780.9270     0.0000 4.6213e-01 -1.7626e-01 3.8048e-01 -1.3918e-01
       481 8702832.3770     0.0000 4.2711e-01 -1.7668e-01 3.5043e-01 -1.4155e-01
       482 5115333.2737     0.0000 4.2186e-01 -1.8366e-01 3.4558e-01 -1.4965e-01
       483 4558290.4759     0.0000 4.3507e-01 -2.0311e-01 3.4898e-01 -1.6488e-01
       484 14882702.7597     0.0000 4.0710e-01 -2.1248e-01 3.3498e-01 -1.5679e-01
       485 14565944.2599     0.0000 4.3771e-01 -1.7702e-01 3.6105e-01 -1.4298e-01
       486 7056685.0246     0.0000 3.9229e-01 -1.8466e-01 3.2244e-01 -1.5281e-01
       487 12165930.1013     0.0000 4.3683e-01 -2.0061e-01 3.5936e-01 -1.5649e-01
       488 16217448.4252     0.0000 4.2185e-01 -1.9737e-01 3.4979e-01 -1.6099e-01
       489 10088396.0488     0.0000 3.9481e-01 -1.5385e-01 3.2360e-01 -1.2375e-01
       490 4859773.8212     0.0000 4.2865e-01 -2.1018e-01 3.5249e-01 -1.6642e-01
       491 14896786.7958     0.0000 4.4810e-01 -1.7372e-01 3.6871e-01 -1.3295e-01
       492 20782872.4530     0.0000 4.3739e-01 -1.7863e-01 3.6057e-01 -1.4356e-01
       493 11169717.8821     0.0000 4.3286e-01 -1.7657e-01 3.5768e-01 -1.4525e-01
       494 26792101.4955     0.0000 4.0072e-01 -2.2166e-01 3.3202e-01 -1.6665e-01
       495 18212741.7564     0.0000 4.1946e-01 -2.2132e-01 3.4363e-01 -1.6728e-01
       496 10867725.4085     0.0000 4.3295e-01 -2.0753e-01 3.5703e-01 -1.6308e-01
       497 5718229.1146     0.0000 4.1843e-01 -1.9126e-01 3.4130e-01 -1.5579e-01
       498 5367612.2483     0.0000 4.1878e-01 -2.1007e-01 3.4389e-01 -1.6102e-01
       499 27113314.4757     0.0000 4.1915e-01 -2.3715e-01 3.3724e-01 -1.7575e-01
       500 11982632.8538     0.0000 4.3231e-01 -1.6173e-01 3.5397e-01 -1.3418e-01
       501 41377086.2177     0.0000 4.4440e-01 -2.0961e-01 3.6603e-01 -1.5208e-01
       502 24907746.0608     0.0000 4.3474e-01 -2.2268e-01 3.5928e-01 -1.6698e-01
       503 15430987.7531     0.0000 4.1631e-01 -2.0544e-01 3.4208e-01 -1.5732e-01
       504 20576112.1789     0.0000 4.3314e-01 -1.9283e-01 3.5573e-01 -1.5574e-01
       505 36114843.7635     0.0000 4.4989e-01 -1.9920e-01 3.7338e-01 -1.5293e-01
       506 5922996.9522     0.0000 4.1705e-01 -1.9028e-01 3.4167e-01 -1.5063e-01
       507 31334568.4562     0.0000 4.1958e-01 -2.1911e-01 3.4820e-01 -1.7042e-01
       508 14993172.9667     0.0000 4.0966e-01 -1.7016e-01 3.3579e-01 -1.2944e-01
       509 24188238.1249     0.0000 4.4546e-01 -1.7796e-01 3.6766e-01 -1.4250e-01
       510 7525621.1972     0.0000 4.1022e-01 -1.9148e-01 3.3700e-01 -1.5118e-01
       511 17186058.6549     0.0000 4.3798e-01 -2.0760e-01 3.6228e-01 -1.6583e-01
       512 16689788.5525     0.0000 4.3159e-01 -1.6661e-01 3.5685e-01 -1.3732e-01
       513 17868219.4173     0.0000 4.4594e-01 -1.7753e-01 3.6522e-01 -1.4477e-01
       514 7442714.3390     0.0000 3.9343e-01 -2.2232e-01 3.2236e-01 -1.7032e-01
       515 7165370.8683     0.0000 4.4395e-01 -1.7961e-01 3.6130e-01 -1.4796e-01
       516 58143135.3441     0.0000 4.5052e-01 -2.2738e-01 3.7831e-01 -1.6991e-01
       517 21107787.7411     0.0000 4.4758e-01 -1.7144e-01 3.7046e-01 -1.3864e-01
       518 15590575.4464     0.0000 4.1500e-01 -1.7074e-01 3.4281e-01 -1.3546e-01
       519 12945043.2031     0.0000 4.2366e-01 -2.2063e-01 3.4464e-01 -1.6492e-01
       520 23673663.5001     0.0000 4.5731e-01 -1.8265e-01 3.7929e-01 -1.4669e-01
       521 2153338.4460     0.0000 4.2260e-01 -2.0691e-01 3.4255e-01 -1.6694e-01
       522 5625522.6768     0.0000 3.8145e-01 -2.1407e-01 3.1073e-01 -1.6724e-01
       523 14004945.3603     0.0000 4.3289e-01 -2.0117e-01 3.5900e-01 -1.5950e-01
       524 16081562.8750     0.0000 4.4160e-01 -1.7858e-01 3.6406e-01 -1.4449e-01
       525 5960715.6301     0.0000 4.1327e-01 -2.2213e-01 3.3791e-01 -1.7254e-01
       526 8789055.7645     0.0000 3.9929e-01 -1.8217e-01 3.2651e-01 -1.5260e-01
       527 5943611.0970     0.0000 4.2317e-01 -1.9837e-01 3.4595e-01 -1.5929e-01
       528 4190536.7922     0.0000 4.1602e-01 -1.9146e-01 3.3717e-01 -1.5372e-01
       529 50508197.0243     0.0000 4.3830e-01 -2.1463e-01 3.6290e-01 -1.5881e-01
       530 37333761.4355     0.0000 4.7312e-01 -2.1961e-01 3.8944e-01 -1.6351e-01
       531 7646254.0549     0.0000 3.8981e-01 -1.7978e-01 3.1963e-01 -1.3783e-01
       532 10958678.7858     0.0000 4.0821e-01 -2.0524e-01 3.3701e-01 -1.6156e-01
       533 24738937.8686     0.0000 4.6308e-01 -1.9114e-01 3.8413e-01 -1.5421e-01
       534 4679912.7277     0.0000 4.1833e-01 -2.1927e-01 3.3746e-01 -1.6841e-01
       535 25465056.4458     0.0000 4.6670e-01 -1.4196e-01 3.8428e-01 -1.1690e-01
       536 17828507.9929     0.0000 4.1054e-01 -1.6881e-01 3.3943e-01 -1.2896e-01
       537 1398532.2732     0.0000 4.1623e-01 -2.0085e-01 3.3717e-01 -1.5826e-01
       538 19944192.0207     0.0000 4.2506e-01 -1.9674e-01 3.4937e-01 -1.4776e-01
       539 5721850.3071     0.0000 3.6556e-01 -2.2394e-01 2.9770e-01 -1.6937e-01
       540 9458906.8609     0.0000 4.1238e-01 -1.5867e-01 3.3535e-01 -1.3123e-01
       541 34111364.1491     0.0000 4.5280e-01 -2.0484e-01 3.7414e-01 -1.5945e-01
       542 4494609.9099     0.0000 4.1172e-01 -1.8027e-01 3.3694e-01 -1.3914e-01
       543 37661099.2034     0.0000 3.9553e-01 -2.3834e-01 3.2350e-01 -1.7009e-01
       544 8075698.1046     0.0000 4.0325e-01 -2.1837e-01 3.3068e-01 -1.6618e-01
       545 537074.9714     0.0000 4.2219e-01 -2.1022e-01 3.4571e-01 -1.6376e-01
       546 27562550.4343     0.0000 4.5038e-01 -1.6733e-01 3.7458e-01 -1.3399e-01
       547 13454970.9766     0.0000 4.1143e-01 -1.6145e-01 3.3266e-01 -1.3479e-01
       548 22680014.5137     0.0000 4.2781e-01 -2.2910e-01 3.4601e-01 -1.6928e-01
       549 20498850.4796     0.0000 4.1766e-01 -2.1729e-01 3.4638e-01 -1.6644e-01
       550 16992383.9345     0.0000 4.2248e-01 -2.1564e-01 3.4947e-01 -1.6605e-01
       551 6541420.4836     0.0000 4.1802e-01 -1.6556e-01 3.4544e-01 -1.2653e-01
       552 22239632.4170     0.0000 4.3205e-01 -1.5600e-01 3.5526e-01 -1.2794e-01
       553 4185131.3615     0.0000 4.3097e-01 -1.8511e-01 3.5426e-01 -1.5045e-01
       554 11727190.2123     0.0000 4.2276e-01 -2.0663e-01 3.5123e-01 -1.6415e-01
       555 18453019.0741     0.0000 4.2277e-01 -1.4931e-01 3.4581e-01 -1.2142e-01
       556 13242271.7853     0.0000 4.0510e-01 -1.7006e-01 3.3158e-01 -1.3050e-01
       557 25009001.4268     0.0000 4.0886e-01 -2.2531e-01 3.3848e-01 -1.7201e-01
       558 2764977.0254     0.0000 4.1360e-01 -2.2668e-01 3.3156e-01 -1.7300e-01
       559 12360608.2103     0.0000 3.9196e-01 -1.8915e-01 3.2217e-01 -1.4813e-01
       560 14938810.4890     0.0000 4.6711e-01 -2.0801e-01 3.8535e-01 -1.6157e-01
       561 10019926.0377     0.0000 3.9748e-01 -2.2452e-01 3.2658e-01 -1.7360e-01
       562 24794379.8441     0.0000 4.3037e-01 -2.1492e-01 3.5348e-01 -1.6543e-01
       563 4880063.1156     0.0000 4.4039e-01 -2.1232e-01 3.6062e-01 -1.6772e-01
       564 24539421.8129     0.0000 4.8482e-01 -2.0805e-01 3.9926e-01 -1.6595e-01
       565 6389387.1449     0.0000 4.1612e-01 -2.0397e-01 3.4197e-01 -1.6369e-01
       566 26166210.4151     0.0000 4.3088e-01 -2.3037e-01 3.5181e-01 -1.7368e-01
       567 6135742.4503     0.0000 3.7111e-01 -2.1494e-01 3.0455e-01 -1.6376e-01
       568 10281433.4105     0.0000 4.0866e-01 -1.8846e-01 3.3196e-01 -1.4742e-01
       569 30891188.1520     0.0000 4.5916e-01 -1.9237e-01 3.8065e-01 -1.5562e-01
       570 15124752.4118     0.0000 4.1264e-01 -2.3007e-01 3.4008e-01 -1.7244e-01
       571 11539222.4922     0.0000 3.9281e-01 -2.0598e-01 3.2352e-01 -1.5860e-01
       572 6268351.3163     0.0000 3.7579e-01 -2.1252e-01 3.0766e-01 -1.6113e-01
       573 8578205.5110     0.0000 4.3432e-01 -1.9652e-01 3.5411e-01 -1.5428e-01
       574 10048182.4196     0.0000 4.3428e-01 -2.1035e-01 3.5746e-01 -1.6517e-01
       575 9163332.6712     0.0000 4.0143e-01 -1.8083e-01 3.2580e-01 -1.4316e-01
       576 10760481.6147     0.0000 4.2797e-01 -1.7152e-01 3.5384e-01 -1.3862e-01
       577 32910934.7593     0.0000 4.4623e-01 -1.7475e-01 3.6469e-01 -1.2846e-01
       578 8893085.2272     0.0000 3.5914e-01 -1.8533e-01 2.9280e-01 -1.3868e-01
       579 11170339.7542     0.0000 4.1877e-01 -1.9788e-01 3.4004e-01 -1.5114e-01
       580 2949734.1391     0.0000 3.9665e-01 -2.0089e-01 3.2561e-01 -1.6074e-01
       581 35039359.6998     0.0000 4.1602e-01 -2.3703e-01 3.4198e-01 -1.7353e-01
       582 2391825.7668     0.0000 4.2839e-01 -2.1444e-01 3.4954e-01 -1.6920e-01
       583 4860341.9983     0.0000 4.2578e-01 -1.8471e-01 3.4595e-01 -1.4942e-01
       584 21127282.5942     0.0000 4.2126e-01 -2.1674e-01 3.5009e-01 -1.6618e-01
       585 2547304.4188     0.0000 4.1303e-01 -2.0146e-01 3.3617e-01 -1.5977e-01
       586 8559344.8268     0.0000 4.1152e-01 -1.9630e-01 3.3468e-01 -1.5392e-01
       587 7840176.5623     0.0000 3.9117e-01 -1.8625e-01 3.1968e-01 -1.3862e-01
       588 12603080.1046     0.0000 4.3563e-01 -1.9966e-01 3.5724e-01 -1.6048e-01
       589 7351421.3653     0.0000 3.8622e-01 -2.0502e-01 3.1489e-01 -1.5505e-01
       590 56596208.8921     0.0000 4.0722e-01 -2.6260e-01 3.3541e-01 -1.7438e-01
       591 13775768.8715     0.0000 4.3267e-01 -2.0356e-01 3.5671e-01 -1.6427e-01
       592 10926259.6283     0.0000 4.2984e-01 -2.0497e-01 3.5186e-01 -1.5390e-01
       593 3119506.3217     0.0000 3.9408e-01 -1.9434e-01 3.2180e-01 -1.5577e-01
       594 7029212.2941     0.0000 4.0609e-01 -1.7614e-01 3.3183e-01 -1.3295e-01
       595 42607185.2835     0.0000 4.3106e-01 -2.4137e-01 3.5400e-01 -1.7194e-01
       596 9417606.6901     0.0000 4.1017e-01 -2.0592e-01 3.3509e-01 -1.6473e-01
       597 6817370.2666     0.0000 4.1411e-01 -2.0734e-01 3.4004e-01 -1.6592e-01
       598 4264443.9984     0.0000 4.2852e-01 -2.0019e-01 3.5034e-01 -1.5831e-01
       599 4069570.2226     0.0000 4.3268e-01 -2.0603e-01 3.5381e-01 -1.5649e-01
       600 5305826.3449     0.0000 3.6096e-01 -1.8770e-01 2.9272e-01 -1.5355e-01
       601 20156687.9835     0.0000 4.2803e-01 -1.4040e-01 3.5117e-01 -1.1961e-01
       602 9416461.6375     0.0000 3.9254e-01 -1.7334e-01 3.2142e-01 -1.4224e-01
       603 75797770.7300     0.0000 3.8624e-01 -2.6726e-01 3.1207e-01 -1.7905e-01
       604 31712546.4918     0.0000 4.7386e-01 -2.1815e-01 3.8783e-01 -1.6590e-01
       605 7497935.5262     0.0000 4.0727e-01 -2.0757e-01 3.2989e-01 -1.5810e-01
       606 4929419.7985     0.0000 4.0840e-01 -1.8572e-01 3.3502e-01 -1.5066e-01
       607 13178678.9274     0.0000 4.2149e-01 -2.1178e-01 3.4917e-01 -1.6612e-01
       608 22937655.5443     0.0000 4.2197e-01 -2.0316e-01 3.4759e-01 -1.5646e-01
       609 3154051.6342     0.0000 4.2384e-01 -2.0145e-01 3.4880e-01 -1.5773e-01
       610 1413566.3596     0.0000 4.0497e-01 -2.0189e-01 3.3108e-01 -1.6170e-01
       611 9413680.0984     0.0000 3.9766e-01 -1.9584e-01 3.2273e-01 -1.4212e-01
       612 27348464.8781     0.0000 4.2378e-01 -1.9557e-01 3.4810e-01 -1.5304e-01
       613 3195791.9666     0.0000 4.0345e-01 -1.9037e-01 3.3073e-01 -1.5227e-01
       614 25326692.2089     0.0000 4.7323e-01 -1.4274e-01 3.8898e-01 -1.1734e-01
       615 11087225.8864     0.0000 4.1365e-01 -2.0340e-01 3.3945e-01 -1.6057e-01
       616 5272896.1988     0.0000 4.3023e-01 -1.9373e-01 3.4783e-01 -1.6034e-01
       617 8746025.6258     0.0000 4.1228e-01 -2.0980e-01 3.3731e-01 -1.6451e-01
       618 12282320.3543     0.0000 4.4003e-01 -1.6977e-01 3.6006e-01 -1.4342e-01
       619 17738921.0104     0.0000 4.6963e-01 -1.8473e-01 3.8557e-01 -1.5311e-01
       620 21655197.1295     0.0000 4.3381e-01 -1.9429e-01 3.5977e-01 -1.5680e-01
       621 2441099.0013     0.0000 4.0258e-01 -1.9137e-01 3.2781e-01 -1.5323e-01
       622 4552356.2824     0.0000 4.1117e-01 -2.0115e-01 3.3672e-01 -1.5601e-01
       623 21906730.1001     0.0000 4.1695e-01 -1.7394e-01 3.4241e-01 -1.3587e-01
       624 57567933.0224     0.0000 3.8807e-01 -2.3709e-01 3.2250e-01 -1.6981e-01
       625 11900879.0140     0.0000 4.0768e-01 -2.4500e-01 3.2631e-01 -1.7882e-01
       626 4249464.9800     0.0000 3.9723e-01 -2.0259e-01 3.2397e-01 -1.6199e-01
       627 12241232.9790     0.0000 3.9466e-01 -2.1169e-01 3.1779e-01 -1.5697e-01
       628 16825211.6527     0.0000 4.3786e-01 -1.9182e-01 3.6161e-01 -1.5630e-01
       629 7016579.6555     0.0000 4.0413e-01 -1.6885e-01 3.3253e-01 -1.3766e-01
       630 27718267.8491     0.0000 4.4495e-01 -2.0204e-01 3.7119e-01 -1.5536e-01
       631 8531373.0217     0.0000 4.5163e-01 -1.9451e-01 3.7047e-01 -1.5338e-01
       632 17174384.1648     0.0000 4.3001e-01 -2.2669e-01 3.5251e-01 -1.7228e-01
       633 29057157.0941     0.0000 4.3679e-01 -1.6614e-01 3.6219e-01 -1.3396e-01
       634 17640634.4215     0.0000 4.0480e-01 -2.1424e-01 3.3418e-01 -1.6746e-01
       635 17597672.7033     0.0000 4.1357e-01 -1.9272e-01 3.4008e-01 -1.4674e-01
       636 14664762.2126     0.0000 4.1169e-01 -1.6317e-01 3.3567e-01 -1.2554e-01
       637 12825397.4443     0.0000 4.2534e-01 -1.8117e-01 3.4999e-01 -1.4434e-01
       638 4903082.7463     0.0000 4.0076e-01 -1.9985e-01 3.2917e-01 -1.6097e-01
       639 22657542.7360     0.0000 4.5497e-01 -1.7478e-01 3.7584e-01 -1.4379e-01
       640 2257643.7477     0.0000 3.7548e-01 -2.1746e-01 3.0638e-01 -1.6681e-01
       641 11382672.7630     0.0000 4.2498e-01 -2.1340e-01 3.5150e-01 -1.6875e-01
       642 21726342.1217     0.0000 3.8014e-01 -2.3102e-01 3.1292e-01 -1.7409e-01
       643 1122104.6032     0.0000 4.2718e-01 -2.1038e-01 3.4941e-01 -1.6686e-01
       644 29626062.2921     0.0000 4.5410e-01 -1.7516e-01 3.7155e-01 -1.4056e-01
       645 34317362.9787     0.0000 4.4405e-01 -2.1790e-01 3.6440e-01 -1.6456e-01
       646 16523243.8916     0.0000 4.5045e-01 -1.4241e-01 3.6894e-01 -1.1904e-01
       647 9468810.8003     0.0000 4.5524e-01 -1.8843e-01 3.7360e-01 -1.5195e-01
       648 14580700.9793     0.0000 4.2393e-01 -2.0888e-01 3.4683e-01 -1.6367e-01
       649 6754094.2861     0.0000 4.1991e-01 -1.9844e-01 3.4266e-01 -1.5679e-01
       650 10919788.6805     0.0000 4.1803e-01 -1.9583e-01 3.4321e-01 -1.5271e-01
       651 2562743.2551     0.0000 4.0111e-01 -2.0043e-01 3.2778e-01 -1.6116e-01
       652 7980536.5403     0.0000 3.9704e-01 -1.7152e-01 3.2945e-01 -1.3974e-01
       653 7119840.0044     0.0000 3.6622e-01 -1.8954e-01 3.0142e-01 -1.4732e-01
       654 9028463.6886     0.0000 3.9110e-01 -1.7788e-01 3.1994e-01 -1.3856e-01
       655 21501179.2729     0.0000 4.4000e-01 -1.8029e-01 3.6357e-01 -1.4635e-01
       656 6449251.1292     0.0000 4.2343e-01 -1.9128e-01 3.4545e-01 -1.5323e-01
       657 13476788.1401     0.0000 3.9132e-01 -2.3097e-01 3.1760e-01 -1.6684e-01
       658 8556414.0638     0.0000 4.1176e-01 -1.4857e-01 3.3746e-01 -1.2028e-01
       659 18329942.1237     0.0000 4.5943e-01 -1.9059e-01 3.7715e-01 -1.5872e-01
       660 27809485.8912     0.0000 4.4629e-01 -2.1295e-01 3.7126e-01 -1.6285e-01
       661 21505680.3788     0.0000 4.5610e-01 -1.8453e-01 3.7870e-01 -1.5102e-01
       662 13351687.1188     0.0000 3.8786e-01 -2.1782e-01 3.1647e-01 -1.6323e-01
       663 35216575.4270     0.0000 4.8513e-01 -1.8116e-01 4.0442e-01 -1.4462e-01
       664 18954519.4034     0.0000 4.7613e-01 -1.9657e-01 3.8698e-01 -1.5155e-01
       665 1970244.5022     0.0000 4.2502e-01 -1.9251e-01 3.4790e-01 -1.4718e-01
       666 13572320.4086     0.0000 4.1607e-01 -2.1803e-01 3.4044e-01 -1.6966e-01
       667 1965831.7911     0.0000 4.0238e-01 -2.1750e-01 3.2456e-01 -1.6807e-01
       668 26478273.5538     0.0000 4.3105e-01 -2.1595e-01 3.5816e-01 -1.6337e-01
       669 7098236.4984     0.0000 4.1609e-01 -1.9274e-01 3.3905e-01 -1.4946e-01
       670 7237335.7960     0.0000 3.7354e-01 -1.7699e-01 3.0459e-01 -1.3924e-01
       671 7467210.4965     0.0000 4.3271e-01 -1.9297e-01 3.5281e-01 -1.5209e-01
       672 7064529.3735     0.0000 4.3063e-01 -1.8185e-01 3.5399e-01 -1.4836e-01
       673 9466104.9957     0.0000 3.8189e-01 -1.8471e-01 3.1163e-01 -1.5271e-01
       674 1883085.6637     0.0000 4.3396e-01 -2.0652e-01 3.5633e-01 -1.6528e-01
       675 17691943.0343     0.0000 3.7645e-01 -2.1998e-01 3.0772e-01 -1.5954e-01
       676 22777965.6536     0.0000 4.4988e-01 -1.4538e-01 3.7119e-01 -1.1739e-01
       677 35127583.8564     0.0000 4.5958e-01 -1.7454e-01 3.8111e-01 -1.3820e-01
       678 6721128.2704     0.0000 4.3312e-01 -1.9468e-01 3.5589e-01 -1.5028e-01
       679 16878541.2948     0.0000 3.9286e-01 -2.3295e-01 3.1846e-01 -1.6963e-01
       680 2776056.5375     0.0000 4.2073e-01 -2.0403e-01 3.4706e-01 -1.5837e-01
       681 4631584.4811     0.0000 4.1500e-01 -2.1170e-01 3.3919e-01 -1.6742e-01
       682 2230990.8452     0.0000 4.1402e-01 -2.0893e-01 3.3867e-01 -1.6764e-01
       683 15443659.3685     0.0000 3.9917e-01 -2.3541e-01 3.2487e-01 -1.7586e-01
       684 23429669.1462     0.0000 4.6668e-01 -2.0819e-01 3.8616e-01 -1.6185e-01
       685 37569673.3142     0.0000 4.4565e-01 -1.8648e-01 3.6869e-01 -1.4805e-01
       686 6779294.4729     0.0000 4.0776e-01 -2.1719e-01 3.3178e-01 -1.7001e-01
       687 15648838.4493     0.0000 4.0659e-01 -1.9187e-01 3.3394e-01 -1.4541e-01
       688 17225303.9310     0.0000 4.1918e-01 -1.8233e-01 3.4347e-01 -1.3982e-01
       689 44404207.2987     0.0000 4.6579e-01 -2.0482e-01 3.8465e-01 -1.5421e-01
       690 14351802.1053     0.0000 4.4874e-01 -2.0578e-01 3.7118e-01 -1.5914e-01
       691 12551709.5081     0.0000 4.4387e-01 -1.5788e-01 3.5826e-01 -1.3365e-01
       692 25903944.1490     0.0000 4.0600e-01 -2.2454e-01 3.3326e-01 -1.6129e-01
       693 18779334.3497     0.0000 4.2647e-01 -1.5790e-01 3.4995e-01 -1.2788e-01
       694 11559124.1949     0.0000 4.0248e-01 -2.2560e-01 3.2760e-01 -1.7176e-01
       695 22878118.6259     0.0000 4.1562e-01 -1.9062e-01 3.4309e-01 -1.4936e-01
       696 1140281.2818     0.0000 3.7995e-01 -2.1973e-01 3.0806e-01 -1.6941e-01
       697 8611015.6404     0.0000 4.1824e-01 -1.7783e-01 3.3734e-01 -1.4217e-01
       698 7076561.0673     0.0000 4.0876e-01 -2.0353e-01 3.3599e-01 -1.5536e-01
       699 4107705.6355     0.0000 4.0231e-01 -2.0196e-01 3.3091e-01 -1.5825e-01
       700 31958397.1353     0.0000 4.3108e-01 -1.8463e-01 3.5587e-01 -1.4439e-01
       701 25293817.2393     0.0000 4.8923e-01 -1.7638e-01 4.0084e-01 -1.3945e-01
       702 8384559.7425     0.0000 3.8197e-01 -1.4868e-01 3.1107e-01 -1.1430e-01
       703 28291418.3886     0.0000 4.6255e-01 -1.6955e-01 3.8395e-01 -1.4133e-01
       704 5407197.5769     0.0000 4.1354e-01 -1.8874e-01 3.4049e-01 -1.5162e-01
       705 3175015.4448     0.0000 3.9168e-01 -1.9071e-01 3.2150e-01 -1.5002e-01
       706 28080193.0773     0.0000 4.6282e-01 -1.9475e-01 3.8278e-01 -1.4973e-01
       707 4996381.5647     0.0000 3.9922e-01 -1.8752e-01 3.2598e-01 -1.5453e-01
       708 8215891.5849     0.0000 4.1625e-01 -1.5813e-01 3.4043e-01 -1.2938e-01
       709 26666341.8160     0.0000 4.1148e-01 -2.3067e-01 3.3836e-01 -1.7313e-01
       710 21097180.9722     0.0000 4.2586e-01 -1.7675e-01 3.5391e-01 -1.3952e-01
       711 35912220.9178     0.0000 4.3314e-01 -2.2080e-01 3.5633e-01 -1.6540e-01
       712 5107586.1607     0.0000 4.1734e-01 -1.8578e-01 3.4223e-01 -1.4776e-01
       713 8786076.5846     0.0000 4.4419e-01 -2.0822e-01 3.6512e-01 -1.6111e-01
       714 14740213.1299     0.0000 4.6326e-01 -1.8391e-01 3.7801e-01 -1.4219e-01
       715 23102093.2333     0.0000 4.4033e-01 -2.0468e-01 3.6238e-01 -1.5599e-01
       716 10424968.8944     0.0000 4.3131e-01 -1.6319e-01 3.5321e-01 -1.3190e-01
       717 4400039.3138     0.0000 4.0764e-01 -2.0535e-01 3.3634e-01 -1.6618e-01
       718 15540304.9046     0.0000 4.4523e-01 -2.1737e-01 3.6289e-01 -1.6756e-01
       719 9010577.2883     0.0000 3.8711e-01 -1.6753e-01 3.1431e-01 -1.3290e-01
       720 14195762.4477     0.0000 3.8449e-01 -1.8917e-01 3.1515e-01 -1.4668e-01
       721 7419413.1414     0.0000 3.9938e-01 -1.7156e-01 3.2153e-01 -1.3474e-01
       722 20865572.8445     0.0000 4.5654e-01 -1.7421e-01 3.8011e-01 -1.4193e-01
       723 2125512.6989     0.0000 3.7297e-01 -2.2244e-01 3.0506e-01 -1.7290e-01
       724 26612124.2231     0.0000 4.5648e-01 -2.1868e-01 3.7532e-01 -1.6649e-01
       725 22026584.8020     0.0000 4.6590e-01 -2.1127e-01 3.8404e-01 -1.6356e-01
       726 6676215.9672     0.0000 4.1125e-01 -1.6831e-01 3.3207e-01 -1.2787e-01
       727 16585441.4153     0.0000 4.8858e-01 -1.7204e-01 4.0298e-01 -1.4097e-01
       728 3793295.4932     0.0000 4.3455e-01 -2.1934e-01 3.5514e-01 -1.7119e-01
       729 9830720.4234     0.0000 4.1095e-01 -1.6001e-01 3.3458e-01 -1.3314e-01
       730 16045991.5287     0.0000 4.4653e-01 -1.5227e-01 3.6796e-01 -1.2784e-01
       731 19952648.1648     0.0000 4.6358e-01 -1.8255e-01 3.8485e-01 -1.5157e-01
       732 7501589.6252     0.0000 4.1208e-01 -1.9362e-01 3.3773e-01 -1.5539e-01
       733 27737777.5341     0.0000 4.4796e-01 -1.8486e-01 3.7062e-01 -1.4798e-01
       734 1006364.5476     0.0000 4.1271e-01 -1.9808e-01 3.3380e-01 -1.5402e-01
       735 15734137.8601     0.0000 4.3712e-01 -1.6910e-01 3.5438e-01 -1.4412e-01
       736 10784997.5123     0.0000 4.2725e-01 -1.7889e-01 3.5525e-01 -1.4130e-01
       737 12649958.1950     0.0000 4.1131e-01 -2.0688e-01 3.3860e-01 -1.6576e-01
       738 38680950.3061     0.0000 4.4874e-01 -2.2500e-01 3.7051e-01 -1.6925e-01
       739 12504012.4661     0.0000 4.3988e-01 -1.7403e-01 3.5984e-01 -1.4170e-01
       740 5316995.4911     0.0000 3.9987e-01 -1.8119e-01 3.2440e-01 -1.4093e-01
       741 23082243.0479     0.0000 4.6344e-01 -2.0290e-01 3.8323e-01 -1.6372e-01
       742 24622502.4326     0.0000 4.1999e-01 -2.0893e-01 3.4113e-01 -1.5401e-01
       743 16832090.5686     0.0000 4.1887e-01 -2.0569e-01 3.4638e-01 -1.6267e-01
       744 8707432.9464     0.0000 4.4419e-01 -1.8790e-01 3.6419e-01 -1.5201e-01
       745 11187932.9699     0.0000 4.1900e-01 -2.0402e-01 3.4341e-01 -1.6232e-01
       746 22718391.1883     0.0000 4.4662e-01 -1.9036e-01 3.6580e-01 -1.5018e-01
       747 10881287.2806     0.0000 4.4024e-01 -1.6591e-01 3.6202e-01 -1.3642e-01
       748 14574869.2803     0.0000 4.1615e-01 -1.8855e-01 3.4285e-01 -1.4708e-01
       749 23563181.4979     0.0000 3.9726e-01 -2.1929e-01 3.2722e-01 -1.5891e-01
       750 8943315.6779     0.0000 4.6076e-01 -1.7920e-01 3.8062e-01 -1.4641e-01
       751 23677571.2081     0.0000 4.1821e-01 -1.2567e-01 3.4091e-01 -9.2449e-02
       752 33912796.8996     0.0000 4.2511e-01 -1.9906e-01 3.4899e-01 -1.4204e-01
       753 8313794.9951     0.0000 4.4334e-01 -1.6956e-01 3.6051e-01 -1.3931e-01
       754 7458860.5836     0.0000 4.1035e-01 -1.7496e-01 3.3408e-01 -1.3747e-01
       755 37972261.7100     0.0000 4.5977e-01 -2.2567e-01 3.7526e-01 -1.6318e-01
       756 30153175.7061     0.0000 4.5210e-01 -1.8310e-01 3.7990e-01 -1.4896e-01
       757 6786031.4299     0.0000 4.1771e-01 -1.7883e-01 3.4123e-01 -1.4676e-01
       758 11348876.5396     0.0000 4.1805e-01 -2.4147e-01 3.3952e-01 -1.7725e-01
       759 30746042.9878     0.0000 4.0309e-01 -2.2226e-01 3.3218e-01 -1.6965e-01
       760 8733600.8402     0.0000 4.2126e-01 -1.5848e-01 3.4101e-01 -1.2656e-01
       761 37148179.6878     0.0000 4.5610e-01 -2.1346e-01 3.7841e-01 -1.6677e-01
       762 3492963.1275     0.0000 4.2048e-01 -1.7868e-01 3.4399e-01 -1.4300e-01
       763 7105705.0141     0.0000 3.9669e-01 -1.8742e-01 3.2248e-01 -1.5612e-01
       764 23718350.8067     0.0000 4.0258e-01 -1.9386e-01 3.3075e-01 -1.4455e-01
       765 3280351.0336     0.0000 4.0575e-01 -2.0911e-01 3.2817e-01 -1.6315e-01
       766 13487589.5539     0.0000 4.3839e-01 -1.9723e-01 3.5746e-01 -1.5617e-01
       767 4054863.9984     0.0000 4.3257e-01 -1.7783e-01 3.5286e-01 -1.4269e-01
       768 14937930.4130     0.0000 4.5009e-01 -1.5737e-01 3.7019e-01 -1.3217e-01
       769 27721120.1452     0.0000 4.4423e-01 -1.8697e-01 3.6907e-01 -1.4000e-01
       770 18671446.1992     0.0000 3.9933e-01 -2.4388e-01 3.2428e-01 -1.7561e-01
       771 17714996.9508     0.0000 4.0392e-01 -1.8958e-01 3.3260e-01 -1.5043e-01
       772 2374528.8457     0.0000 3.7865e-01 -2.0458e-01 3.0755e-01 -1.5913e-01
       773 2316372.2817     0.0000 4.0353e-01 -2.0568e-01 3.2807e-01 -1.6043e-01
       774 29582883.2529     0.0000 4.6912e-01 -1.7434e-01 3.8829e-01 -1.4097e-01
       775 4566217.6913     0.0000 4.2302e-01 -2.2800e-01 3.4379e-01 -1.7235e-01
       776 50731744.6228     0.0000 4.5334e-01 -2.1450e-01 3.7788e-01 -1.6085e-01
       777 14739532.8677     0.0000 4.3745e-01 -1.8487e-01 3.5857e-01 -1.4892e-01
       778 5114872.9678     0.0000 4.2646e-01 -1.8328e-01 3.4943e-01 -1.4376e-01
       779 9396409.4752     0.0000 4.5210e-01 -1.8144e-01 3.6690e-01 -1.4775e-01
       780 28365433.0661     0.0000 4.4264e-01 -2.1366e-01 3.6818e-01 -1.6881e-01
       781 10699610.7528     0.0000 4.2431e-01 -1.9767e-01 3.5090e-01 -1.6083e-01
       782 41392523.5019     0.0000 4.6994e-01 -2.2775e-01 3.9081e-01 -1.6867e-01
       783 7203077.1332     0.0000 4.2676e-01 -2.2262e-01 3.4554e-01 -1.7066e-01
       784 19990381.6095     0.0000 4.5284e-01 -2.0167e-01 3.7088e-01 -1.5871e-01
       785 5642276.9445     0.0000 3.9537e-01 -2.2332e-01 3.2338e-01 -1.7135e-01
       786 24151455.2936     0.0000 4.1532e-01 -1.9598e-01 3.4174e-01 -1.4411e-01
       787 13863296.1115     0.0000 4.5756e-01 -1.8776e-01 3.7841e-01 -1.5791e-01
       788 29723645.3119     0.0000 4.2383e-01 -2.2766e-01 3.4853e-01 -1.6957e-01
       789 9520465.0104     0.0000 3.9016e-01 -1.4582e-01 3.2004e-01 -1.1327e-01
       790 14727534.3977     0.0000 4.5016e-01 -2.1927e-01 3.6551e-01 -1.7142e-01
       791 20380488.0753     0.0000 4.3606e-01 -1.7593e-01 3.5737e-01 -1.3850e-01
       792 17413427.2634     0.0000 4.3383e-01 -2.0346e-01 3.5659e-01 -1.6242e-01
       793 26054471.2047     0.0000 4.3819e-01 -1.9252e-01 3.6124e-01 -1.5140e-01
       794 26352103.9890     0.0000 4.7324e-01 -1.5613e-01 3.9240e-01 -1.2940e-01
       795 35799293.7012     0.0000 4.5451e-01 -1.4969e-01 3.7613e-01 -1.1545e-01
       796 10433325.2042     0.0000 4.2711e-01 -1.9158e-01 3.4939e-01 -1.5534e-01
       797 19879416.5880     0.0000 4.5926e-01 -1.7660e-01 3.7876e-01 -1.3842e-01
       798 6923921.8196     0.0000 3.9953e-01 -2.1260e-01 3.2757e-01 -1.6811e-01
       799 20938629.9062     0.0000 4.6097e-01 -1.5122e-01 3.7730e-01 -1.2716e-01
       800 12180014.1688     0.0000 4.1745e-01 -2.2001e-01 3.4240e-01 -1.6412e-01
       801 8609471.0789     0.0000 4.4227e-01 -1.8976e-01 3.6175e-01 -1.5383e-01
       802 15094662.9613     0.0000 4.6604e-01 -1.9077e-01 3.8380e-01 -1.5756e-01
       803 6318772.9968     0.0000 3.9277e-01 -1.5611e-01 3.2158e-01 -1.2510e-01
       804 9816615.8296     0.0000 4.0074e-01 -2.1200e-01 3.2797e-01 -1.6496e-01
       805 3386112.6093     0.0000 3.8320e-01 -2.0089e-01 3.1137e-01 -1.5970e-01
       806 11855393.6156     0.0000 4.2159e-01 -2.0100e-01 3.4564e-01 -1.5197e-01
       807 16131167.1066     0.0000 4.4570e-01 -2.1704e-01 3.6554e-01 -1.6067e-01
       808 7307194.3404     0.0000 4.1391e-01 -2.2332e-01 3.3887e-01 -1.6700e-01
       809 2614148.9009     0.0000 4.4558e-01 -2.0348e-01 3.6015e-01 -1.6308e-01
       810 4603099.7750     0.0000 3.9764e-01 -1.8838e-01 3.2805e-01 -1.4449e-01
       811 6768590.3049     0.0000 4.0301e-01 -1.5960e-01 3.3184e-01 -1.2764e-01
       812 7527510.6504     0.0000 4.3202e-01 -1.7731e-01 3.5315e-01 -1.4810e-01
       813 4225671.4430     0.0000 4.0128e-01 -1.7387e-01 3.2771e-01 -1.3710e-01
       814 16641715.5849     0.0000 4.3335e-01 -1.9054e-01 3.5694e-01 -1.4474e-01
       815 6916984.8063     0.0000 3.8307e-01 -1.7748e-01 3.1328e-01 -1.4184e-01
       816 11678192.2516     0.0000 4.3690e-01 -1.6639e-01 3.5506e-01 -1.3876e-01
       817 4612345.5484     0.0000 3.7316e-01 -1.7392e-01 3.0454e-01 -1.3897e-01
       818 46945752.7239     0.0000 4.5204e-01 -2.3333e-01 3.7126e-01 -1.6825e-01
       819 7612598.1439     0.0000 3.9890e-01 -1.8151e-01 3.2587e-01 -1.4186e-01
       820 9790561.1423     0.0000 4.3564e-01 -2.0466e-01 3.5962e-01 -1.6133e-01
       821 30198345.9684     0.0000 4.5950e-01 -1.8071e-01 3.8338e-01 -1.4404e-01
       822 12347640.7001     0.0000 3.8833e-01 -2.1301e-01 3.1759e-01 -1.6289e-01
       823 9906421.5585     0.0000 4.3770e-01 -2.0502e-01 3.5814e-01 -1.6156e-01
       824 8030763.6837     0.0000 4.0129e-01 -1.8137e-01 3.2843e-01 -1.3750e-01
       825 16269614.1889     0.0000 4.4358e-01 -1.9769e-01 3.6858e-01 -1.5866e-01
       826 40673219.6403     0.0000 4.0582e-01 -2.4557e-01 3.3348e-01 -1.7439e-01
       827 9195770.7615     0.0000 4.5013e-01 -1.7948e-01 3.6636e-01 -1.4788e-01
       828 35887318.9097     0.0000 4.5456e-01 -2.1841e-01 3.7755e-01 -1.6640e-01
       829 4491896.9101     0.0000 3.9547e-01 -1.9182e-01 3.2538e-01 -1.5477e-01
       830 8445262.5641     0.0000 3.7539e-01 -1.7969e-01 3.0761e-01 -1.4954e-01
       831 5534654.7865     0.0000 4.5942e-01 -1.8931e-01 3.7621e-01 -1.5511e-01
       832 640901.2938     0.0000 3.9514e-01 -2.0894e-01 3.1929e-01 -1.6276e-01
       833 29622188.4353     0.0000 4.3552e-01 -2.2517e-01 3.5921e-01 -1.7164e-01
       834 48589825.1419     0.0000 4.5801e-01 -1.7042e-01 3.8400e-01 -1.2938e-01
       835 13077149.8678     0.0000 4.2457e-01 -1.8470e-01 3.4723e-01 -1.4831e-01
       836 6034946.6543     0.0000 4.3253e-01 -1.9417e-01 3.5332e-01 -1.5908e-01
       837 17033144.0930     0.0000 4.4311e-01 -1.6294e-01 3.6659e-01 -1.2973e-01
       838 3391570.7111     0.0000 4.0356e-01 -2.0993e-01 3.2724e-01 -1.6142e-01
       839 45223853.4574     0.0000 4.8333e-01 -2.0140e-01 3.9646e-01 -1.5015e-01
       840 12361659.4051     0.0000 4.4441e-01 -1.9084e-01 3.6559e-01 -1.5130e-01
       841 6051330.7535     0.0000 3.9083e-01 -1.7179e-01 3.1951e-01 -1.3459e-01
       842 17855002.5417     0.0000 3.9791e-01 -2.0882e-01 3.2636e-01 -1.5051e-01
       843 8664023.2852     0.0000 4.0810e-01 -1.9231e-01 3.3646e-01 -1.5512e-01
       844 51926468.8881     0.0000 4.6589e-01 -2.1540e-01 3.8988e-01 -1.6611e-01
       845 30087744.1337     0.0000 4.3812e-01 -2.0202e-01 3.6100e-01 -1.6086e-01
       846 15187856.4959     0.0000 4.3748e-01 -2.1741e-01 3.5995e-01 -1.6654e-01
       847 8680882.7009     0.0000 4.3054e-01 -2.2253e-01 3.5476e-01 -1.7234e-01
       848 7330198.0279     0.0000 4.1327e-01 -2.0750e-01 3.3555e-01 -1.6655e-01
       849 12168604.3137     0.0000 4.0749e-01 -1.6555e-01 3.3653e-01 -1.3457e-01
       850 21203961.5744     0.0000 4.3077e-01 -1.6851e-01 3.5477e-01 -1.3140e-01
       851 36288945.7390     0.0000 4.6391e-01 -2.1213e-01 3.8374e-01 -1.6082e-01
       852 43224449.1339     0.0000 4.2881e-01 -2.4991e-01 3.5461e-01 -1.7425e-01
       853 33302052.9592     0.0000 4.4790e-01 -2.2327e-01 3.7303e-01 -1.7233e-01
       854 22221551.1932     0.0000 4.5790e-01 -1.8056e-01 3.7921e-01 -1.4816e-01
       855 7349979.4395     0.0000 4.2782e-01 -2.1726e-01 3.4928e-01 -1.6483e-01
       856 6785049.0469     0.0000 4.0898e-01 -2.0329e-01 3.3494e-01 -1.6210e-01
       857 29503068.5157     0.0000 4.3206e-01 -2.0387e-01 3.5660e-01 -1.5512e-01
       858 10027750.3927     0.0000 4.2868e-01 -2.0072e-01 3.5216e-01 -1.5809e-01
       859 823159.4066     0.0000 3.7332e-01 -2.0412e-01 3.0528e-01 -1.6098e-01
       860 5160555.6572     0.0000 3.8225e-01 -1.9687e-01 3.0944e-01 -1.5145e-01
       861 20777790.5457     0.0000 4.3645e-01 -2.0468e-01 3.6199e-01 -1.6136e-01
       862 15350593.2824     0.0000 4.4985e-01 -2.0315e-01 3.7410e-01 -1.6362e-01
       863 30619006.9935     0.0000 4.2138e-01 -1.5935e-01 3.4399e-01 -1.1958e-01
       864 10307128.3130     0.0000 4.0140e-01 -1.8694e-01 3.2951e-01 -1.4964e-01
       865 31143118.5873     0.0000 4.7044e-01 -2.1710e-01 3.9005e-01 -1.6752e-01
       866 3125978.3930     0.0000 3.8097e-01 -1.8635e-01 3.1360e-01 -1.4394e-01
       867 9024081.4057     0.0000 4.4744e-01 -1.9155e-01 3.6464e-01 -1.5533e-01
       868 6129878.1398     0.0000 3.7664e-01 -1.7312e-01 3.0639e-01 -1.3626e-01
       869 27388634.9612     0.0000 4.4316e-01 -1.9396e-01 3.6687e-01 -1.5643e-01
       870 3736413.0996     0.0000 4.3071e-01 -1.9787e-01 3.5435e-01 -1.6247e-01
       871 3898684.3477     0.0000 4.1038e-01 -2.2116e-01 3.3491e-01 -1.7153e-01
       872 4132014.5269     0.0000 3.8520e-01 -1.9429e-01 3.1366e-01 -1.5530e-01
       873 4482890.1821     0.0000 3.8070e-01 -1.9927e-01 3.1116e-01 -1.6295e-01
       874 37018701.2906     0.0000 4.3569e-01 -1.8755e-01 3.6560e-01 -1.5023e-01
       875 1805668.7413     0.0000 4.1264e-01 -1.9764e-01 3.3748e-01 -1.5560e-01
       876 4016215.9029     0.0000 3.9453e-01 -1.9721e-01 3.2169e-01 -1.6174e-01
       877 17480922.7450     0.0000 3.9599e-01 -1.9448e-01 3.2750e-01 -1.3956e-01
       878 6340269.3992     0.0000 4.2352e-01 -1.9745e-01 3.4666e-01 -1.6107e-01
       879 20986126.2110     0.0000 4.0630e-01 -1.8139e-01 3.3430e-01 -1.3802e-01
       880 4633336.6512     0.0000 4.1392e-01 -1.7093e-01 3.3765e-01 -1.3792e-01
       881 17435972.0465     0.0000 4.1802e-01 -1.9222e-01 3.4236e-01 -1.4848e-01
       882 35303989.1583     0.0000 4.2463e-01 -2.3760e-01 3.4973e-01 -1.7489e-01
       883 5479947.9140     0.0000 4.0992e-01 -1.9365e-01 3.3576e-01 -1.5699e-01
       884 14552840.4514     0.0000 3.9445e-01 -2.1048e-01 3.2261e-01 -1.5817e-01
       885 9865934.9659     0.0000 4.0404e-01 -2.0455e-01 3.3094e-01 -1.5182e-01
       886 9684492.5016     0.0000 3.7999e-01 -1.5708e-01 3.1218e-01 -1.2168e-01
       887 26393656.5293     0.0000 3.8209e-01 -2.3632e-01 3.1351e-01 -1.7011e-01
       888 6084376.1973     0.0000 4.3182e-01 -2.0784e-01 3.5243e-01 -1.6574e-01
       889 16440831.8984     0.0000 4.8743e-01 -2.0671e-01 3.9915e-01 -1.6311e-01
       890 32845938.1557     0.0000 4.4786e-01 -1.8357e-01 3.7297e-01 -1.4451e-01
       891 20783890.9517     0.0000 4.1640e-01 -1.8645e-01 3.4163e-01 -1.4582e-01
       892 18484749.3321     0.0000 4.6279e-01 -1.8429e-01 3.8045e-01 -1.5034e-01
       893 3552182.4599     0.0000 4.3315e-01 -2.2494e-01 3.5367e-01 -1.7218e-01
       894 31316624.2767     0.0000 4.5453e-01 -2.0709e-01 3.7316e-01 -1.6253e-01
       895 29258465.6286     0.0000 4.7483e-01 -2.1212e-01 3.9383e-01 -1.6407e-01
       896 26972020.6551     0.0000 4.0919e-01 -2.4978e-01 3.3542e-01 -1.7998e-01
       897 32769756.1844     0.0000 4.7789e-01 -1.8789e-01 3.9561e-01 -1.5181e-01
       898 18343602.9809     0.0000 4.1121e-01 -2.1821e-01 3.3565e-01 -1.5729e-01
       899 31126184.6789     0.0000 4.1318e-01 -1.7685e-01 3.3995e-01 -1.2876e-01
       900 8332439.8449     0.0000 4.0702e-01 -1.7526e-01 3.3511e-01 -1.4006e-01
       901 17071783.8908     0.0000 4.7483e-01 -1.9782e-01 3.9199e-01 -1.5705e-01
       902 4249581.8700     0.0000 4.2938e-01 -1.7651e-01 3.5309e-01 -1.4311e-01
       903 7925160.5470     0.0000 3.9241e-01 -1.9746e-01 3.2265e-01 -1.5174e-01
       904 4304966.5176     0.0000 4.1526e-01 -1.9810e-01 3.4188e-01 -1.5915e-01
       905 3508393.9649     0.0000 4.1137e-01 -2.0203e-01 3.3740e-01 -1.6292e-01
       906 24152474.2742     0.0000 4.4051e-01 -2.0263e-01 3.6012e-01 -1.6177e-01
       907 38260476.8923     0.0000 4.7157e-01 -1.5784e-01 3.8862e-01 -1.2545e-01
       908 6543230.1797     0.0000 4.1412e-01 -1.9368e-01 3.4073e-01 -1.5463e-01
       909 9258930.0475     0.0000 4.0894e-01 -1.7762e-01 3.3156e-01 -1.4791e-01
       910 19395336.9916     0.0000 3.9659e-01 -1.8608e-01 3.2424e-01 -1.3812e-01
       911 12974536.1295     0.0000 4.4246e-01 -1.8846e-01 3.6575e-01 -1.5824e-01
       912 7691986.1808     0.0000 3.9368e-01 -2.0030e-01 3.2342e-01 -1.5645e-01
       913 14328904.5339     0.0000 4.1351e-01 -1.9090e-01 3.3774e-01 -1.5136e-01
       914 18266944.3391     0.0000 4.5149e-01 -2.0826e-01 3.7051e-01 -1.6390e-01
       915 35182518.3279     0.0000 4.3898e-01 -1.7910e-01 3.6589e-01 -1.4277e-01
       916 24715025.6191     0.0000 4.2863e-01 -1.5736e-01 3.5212e-01 -1.2790e-01
       917 25264157.6275     0.0000 4.0675e-01 -2.2239e-01 3.3394e-01 -1.6720e-01
       918 34198900.3735     0.0000 4.4843e-01 -1.8625e-01 3.7503e-01 -1.4731e-01
       919 5381852.9085     0.0000 4.0876e-01 -1.7931e-01 3.3044e-01 -1.4716e-01
       920 605303.0895     0.0000 3.8806e-01 -2.0466e-01 3.1552e-01 -1.6189e-01
       921 10308641.7902     0.0000 4.3046e-01 -1.8741e-01 3.5293e-01 -1.5439e-01
       922 27180756.4498     0.0000 4.5277e-01 -1.9802e-01 3.7133e-01 -1.5425e-01
       923 9952946.1166     0.0000 4.0412e-01 -1.8067e-01 3.3139e-01 -1.5253e-01
       924 12593218.4164     0.0000 4.2846e-01 -2.2396e-01 3.5086e-01 -1.7247e-01
       925 8016660.9732     0.0000 4.4727e-01 -2.0669e-01 3.6550e-01 -1.6697e-01
       926 23995998.1918     0.0000 4.5308e-01 -2.0598e-01 3.7217e-01 -1.5432e-01
       927 7529676.2012     0.0000 3.9472e-01 -1.9276e-01 3.2296e-01 -1.5046e-01
       928 9200793.5570     0.0000 4.4958e-01 -1.8040e-01 3.6991e-01 -1.5046e-01
       929 4097430.3627     0.0000 4.3662e-01 -2.1223e-01 3.5617e-01 -1.6732e-01
       930 12266254.7610     0.0000 4.2393e-01 -1.9093e-01 3.4903e-01 -1.5795e-01
       931 12156393.1984     0.0000 4.5167e-01 -1.9462e-01 3.6971e-01 -1.5741e-01
       932 7150691.5390     0.0000 4.0607e-01 -2.1759e-01 3.3201e-01 -1.6725e-01
       933 8669648.2442     0.0000 3.9846e-01 -1.5915e-01 3.2495e-01 -1.2676e-01
       934 26919578.2143     0.0000 4.5463e-01 -1.8187e-01 3.7286e-01 -1.3832e-01
       935 18972193.4616     0.0000 4.5733e-01 -2.0814e-01 3.7984e-01 -1.6596e-01
       936 10383850.0269     0.0000 4.5563e-01 -1.9022e-01 3.7131e-01 -1.5977e-01
       937 4938202.1107     0.0000 3.9834e-01 -1.8568e-01 3.2636e-01 -1.5015e-01
       938 1763164.2072     0.0000 4.2318e-01 -2.0181e-01 3.4230e-01 -1.6351e-01
       939 3583458.2459     0.0000 4.0204e-01 -2.1008e-01 3.2708e-01 -1.6410e-01
       940 9674807.2044     0.0000 4.2369e-01 -1.8088e-01 3.4546e-01 -1.4533e-01
       941 5023729.8123     0.0000 4.2441e-01 -2.0498e-01 3.4690e-01 -1.6131e-01
       942 14171283.0493     0.0000 4.0129e-01 -1.8699e-01 3.2857e-01 -1.4559e-01
       943 6295265.4445     0.0000 3.5022e-01 -1.8236e-01 2.8215e-01 -1.4921e-01
       944 46632846.8270     0.0000 4.7140e-01 -1.5313e-01 3.9306e-01 -1.1863e-01
       945 10660672.4175     0.0000 3.9454e-01 -1.6127e-01 3.2246e-01 -1.3214e-01
       946 20995051.0482     0.0000 4.5114e-01 -2.1346e-01 3.7435e-01 -1.6170e-01
       947 24753307.8392     0.0000 4.2891e-01 -1.5249e-01 3.5574e-01 -1.2158e-01
       948 5893897.5863     0.0000 3.9621e-01 -1.8260e-01 3.2344e-01 -1.4071e-01
       949 30212674.2437     0.0000 4.4435e-01 -2.0872e-01 3.7005e-01 -1.6539e-01
       950 12271850.9396     0.0000 4.3670e-01 -1.6213e-01 3.5955e-01 -1.3435e-01
       951 19662020.4752     0.0000 4.3323e-01 -2.0020e-01 3.5554e-01 -1.5198e-01
       952 6428864.7449     0.0000 4.3426e-01 -1.9905e-01 3.6073e-01 -1.6285e-01
       953 17383425.5061     0.0000 4.2982e-01 -1.8871e-01 3.5401e-01 -1.5605e-01
       954 14053518.6250     0.0000 3.7916e-01 -1.7253e-01 3.0905e-01 -1.2643e-01
       955 19858828.6169     0.0000 4.2794e-01 -1.9317e-01 3.5495e-01 -1.4224e-01
       956 12769462.3623     0.0000 4.2144e-01 -1.9786e-01 3.4545e-01 -1.5955e-01
       957 7619562.6427     0.0000 4.4712e-01 -1.8236e-01 3.6492e-01 -1.4246e-01
       958 4538792.1044     0.0000 4.0708e-01 -1.8056e-01 3.3022e-01 -1.4512e-01
       959 9190221.9613     0.0000 4.0335e-01 -1.9630e-01 3.3355e-01 -1.5404e-01
       960 15944077.8015     0.0000 4.3529e-01 -2.3335e-01 3.5361e-01 -1.7359e-01
       961 28813783.7618     0.0000 4.2107e-01 -2.0071e-01 3.4730e-01 -1.5190e-01
       962 43410950.4468     0.0000 4.4355e-01 -1.9745e-01 3.6591e-01 -1.4599e-01
       963 47565646.3055     0.0000 4.5973e-01 -2.1691e-01 3.8180e-01 -1.5939e-01
       964 4912342.7161     0.0000 4.3328e-01 -1.7064e-01 3.5160e-01 -1.3927e-01
       965 16538720.6596     0.0000 4.1897e-01 -2.0802e-01 3.4513e-01 -1.5992e-01
       966 23639211.3829     0.0000 4.6671e-01 -2.1209e-01 3.8413e-01 -1.6836e-01
       967 18909401.8737     0.0000 4.2103e-01 -2.2176e-01 3.4902e-01 -1.7224e-01
       968 24636003.4441     0.0000 4.4388e-01 -2.0296e-01 3.6558e-01 -1.6265e-01
       969 23985870.9012     0.0000 3.9492e-01 -2.2003e-01 3.2320e-01 -1.5849e-01
       970 5879666.9242     0.0000 3.8667e-01 -2.2963e-01 3.1621e-01 -1.7469e-01
       971 205908.7592     0.0000 3.9494e-01 -2.1847e-01 3.2118e-01 -1.7125e-01
       972 17170690.5847     0.0000 4.2334e-01 -1.7645e-01 3.4718e-01 -1.4050e-01
       973 23236727.5205     0.0000 4.3410e-01 -1.9376e-01 3.5831e-01 -1.5108e-01
       974 30354324.6925     0.0000 4.4748e-01 -2.0373e-01 3.6927e-01 -1.5817e-01
       975 65756598.1513     0.0000 4.2732e-01 -2.3289e-01 3.5175e-01 -1.6187e-01
       976 2268189.3721     0.0000 4.1429e-01 -2.1405e-01 3.3903e-01 -1.6593e-01
       977 6956026.8942     0.0000 4.4107e-01 -2.2758e-01 3.5754e-01 -1.7417e-01
       978 3869891.5718     0.0000 4.0380e-01 -2.0911e-01 3.3186e-01 -1.6245e-01
       979 34514948.9641     0.0000 3.9276e-01 -1.9455e-01 3.2295e-01 -1.3722e-01
       980 7279702.5153     0.0000 4.0456e-01 -1.6084e-01 3.2799e-01 -1.2258e-01
       981 4642163.6109     0.0000 4.0092e-01 -2.0479e-01 3.3045e-01 -1.5945e-01
       982 8390105.5065     0.0000 4.0487e-01 -2.0827e-01 3.3023e-01 -1.6500e-01
       983 2248094.6608     0.0000 3.9836e-01 -2.1306e-01 3.2175e-01 -1.6246e-01
       984 6451417.4370     0.0000 4.1405e-01 -1.6838e-01 3.3732e-01 -1.3350e-01
       985 3754760.0066     0.0000 4.1834e-01 -2.1283e-01 3.4308e-01 -1.6795e-01
       986 9751584.1995     0.0000 4.2385e-01 -1.9315e-01 3.4219e-01 -1.5407e-01
       987 28409395.4817     0.0000 4.6639e-01 -2.2394e-01 3.8086e-01 -1.6997e-01
       988 8508487.5896     0.0000 4.4292e-01 -1.9151e-01 3.6342e-01 -1.5275e-01
       989 12272597.3215     0.0000 4.3794e-01 -1.8649e-01 3.6141e-01 -1.5650e-01
       990 14243427.3146     0.0000 4.3600e-01 -1.8262e-01 3.5770e-01 -1.4238e-01
       991 2661592.6724     0.0000 4.0663e-01 -1.9329e-01 3.3051e-01 -1.5439e-01
       992 31185957.4687     0.0000 4.4310e-01 -2.0083e-01 3.6597e-01 -1.5093e-01
       993 15756394.1217     0.0000 4.2293e-01 -2.0187e-01 3.4891e-01 -1.6465e-01
       994 13549180.8896     0.0000 4.5294e-01 -1.5133e-01 3.7055e-01 -1.2554e-01
       995 18280759.2656     0.0000 4.3069e-01 -2.0480e-01 3.5470e-01 -1.5928e-01
       996 4745030.7433     0.0000 4.1926e-01 -2.0125e-01 3.4372e-01 -1.5909e-01
       997 32236898.8345     0.0000 4.4755e-01 -2.0022e-01 3.7121e-01 -1.5348e-01
       998 4675030.7056     0.0000 3.9841e-01 -1.9124e-01 3.2629e-01 -1.4952e-01
       999 22365008.1404     0.0000 4.4476e-01 -1.8788e-01 3.6697e-01 -1.5168e-01
      1000 13110388.5987     0.0000 4.2132e-01 -1.8319e-01 3.4819e-01 -1.5030e-01
      1001 17304426.9009     0.0000 4.3508e-01 -2.0818e-01 3.6071e-01 -1.6163e-01
      1002 6917039.9594     0.0000 4.2268e-01 -1.8624e-01 3.4660e-01 -1.5026e-01
      1003 29019120.0227     0.0000 4.1692e-01 -2.4550e-01 3.4180e-01 -1.7541e-01
      1004 5360332.9266     0.0000 3.8856e-01 -2.3048e-01 3.1621e-01 -1.7478e-01
      1005 11142560.2420     0.0000 4.6255e-01 -1.9473e-01 3.8105e-01 -1.5996e-01
      1006 4297709.0606     0.0000 4.1497e-01 -2.3013e-01 3.3452e-01 -1.7416e-01
      1007 49325478.9792     0.0000 4.6958e-01 -2.0945e-01 3.8499e-01 -1.5200e-01
      1008 7930769.0695     0.0000 4.2911e-01 -2.2038e-01 3.5140e-01 -1.7214e-01
      1009 9766336.9636     0.0000 4.3792e-01 -1.8162e-01 3.5730e-01 -1.4866e-01
      1010 8145953.7814     0.0000 3.8241e-01 -1.8733e-01 3.1219e-01 -1.4961e-01
      1011 11243870.6898     0.0000 4.1241e-01 -1.7076e-01 3.3541e-01 -1.2940e-01
      1012 32354709.1763     0.0000 4.2083e-01 -1.3562e-01 3.4770e-01 -1.0795e-01
      1013 9683029.0913     0.0000 4.0024e-01 -2.1377e-01 3.2941e-01 -1.6446e-01
      1014 8613196.8072     0.0000 4.5485e-01 -1.8853e-01 3.6994e-01 -1.5355e-01
      1015 24281015.9741     0.0000 4.3268e-01 -1.7092e-01 3.5666e-01 -1.3978e-01
      1016 8166729.5223     0.0000 4.2293e-01 -1.6367e-01 3.4496e-01 -1.2194e-01
      1017 11482128.7885     0.0000 4.0892e-01 -2.2425e-01 3.3123e-01 -1.6833e-01
      1018 21937845.9115     0.0000 4.8761e-01 -1.6927e-01 4.0219e-01 -1.4569e-01
      1019 32960276.1836     0.0000 4.5150e-01 -2.0165e-01 3.7362e-01 -1.5959e-01
      1020 9744215.1469     0.0000 3.9591e-01 -1.7718e-01 3.2465e-01 -1.4756e-01
      1021 13289153.4221     0.0000 4.2493e-01 -2.2138e-01 3.4618e-01 -1.6619e-01
      1022 52958809.3173     0.0000 4.3516e-01 -2.2291e-01 3.5904e-01 -1.6038e-01
      1023 28052300.1104     0.0000 4.3242e-01 -2.1945e-01 3.5582e-01 -1.6787e-01
      1024 9151904.9508     0.0000 4.2586e-01 -1.6463e-01 3.4864e-01 -1.2801e-01
      1025 35237067.3477     0.0000 4.4795e-01 -1.9403e-01 3.7064e-01 -1.5202e-01
      1026 16677258.5186     0.0000 4.2234e-01 -2.0963e-01 3.4935e-01 -1.6393e-01
      1027 5876571.2390     0.0000 4.4786e-01 -1.8235e-01 3.6486e-01 -1.4965e-01
      1028 17018603.7680     0.0000 3.8378e-01 -1.6580e-01 3.1426e-01 -1.4152e-01
      1029 14069335.4660     0.0000 3.9624e-01 -1.5396e-01 3.2646e-01 -1.1807e-01
      1030 21452162.0120     0.0000 4.4277e-01 -1.4331e-01 3.6100e-01 -1.1826e-01
      1031 24544636.0108     0.0000 4.3029e-01 -2.0685e-01 3.5248e-01 -1.5915e-01
      1032 29171722.7174     0.0000 4.2001e-01 -2.2695e-01 3.4254e-01 -1.6650e-01
      1033 5553175.1032     0.0000 3.9786e-01 -1.9699e-01 3.2448e-01 -1.6206e-01
      1034 2367739.8888     0.0000 3.7722e-01 -1.8384e-01 3.0382e-01 -1.4445e-01
      1035 5211804.6627     0.0000 4.3309e-01 -1.7052e-01 3.5226e-01 -1.3257e-01
      1036 32828358.8056     0.0000 4.5111e-01 -1.7102e-01 3.7536e-01 -1.3317e-01
      1037 39021241.3800     0.0000 4.6741e-01 -1.7821e-01 3.8734e-01 -1.3295e-01
      1038 22132853.3016     0.0000 4.4899e-01 -2.0691e-01 3.7273e-01 -1.6478e-01
      1039 25724719.7553     0.0000 4.3568e-01 -1.6944e-01 3.5857e-01 -1.3687e-01
      1040 22731365.8072     0.0000 3.7110e-01 -2.2074e-01 3.0511e-01 -1.5771e-01
      1041 15300007.9399     0.0000 4.4716e-01 -1.9573e-01 3.7005e-01 -1.6055e-01
      1042 20944384.0079     0.0000 4.3606e-01 -2.0780e-01 3.5920e-01 -1.6366e-01
      1043 15798506.4536     0.0000 4.5308e-01 -2.0583e-01 3.7295e-01 -1.6202e-01
      1044 7197451.6109     0.0000 4.2234e-01 -2.1283e-01 3.4711e-01 -1.6577e-01
      1045 17446424.3592     0.0000 4.4728e-01 -2.3385e-01 3.6641e-01 -1.7497e-01
      1046 6023321.7175     0.0000 4.0389e-01 -1.8716e-01 3.3135e-01 -1.5502e-01
      1047 20836763.7028     0.0000 4.4057e-01 -1.7500e-01 3.6504e-01 -1.4456e-01
      1048 7305264.5048     0.0000 3.9289e-01 -1.8142e-01 3.2002e-01 -1.4243e-01
      1049 4005628.8662     0.0000 3.8654e-01 -1.9433e-01 3.1355e-01 -1.5720e-01
      1050 5667199.1919     0.0000 3.9518e-01 -2.1233e-01 3.2330e-01 -1.6487e-01
      1051 27621371.7943     0.0000 4.7642e-01 -1.9932e-01 3.9155e-01 -1.6035e-01
      1052 1571817.0020     0.0000 4.3706e-01 -1.9284e-01 3.5813e-01 -1.5347e-01
      1053 14578489.8409     0.0000 4.1756e-01 -2.0885e-01 3.4328e-01 -1.6570e-01
      1054 5454665.7875     0.0000 4.0503e-01 -1.9706e-01 3.3194e-01 -1.5984e-01
      1055 9233199.5894     0.0000 4.0728e-01 -2.1553e-01 3.3330e-01 -1.6608e-01
      1056 4654795.3109     0.0000 4.2276e-01 -2.0173e-01 3.4800e-01 -1.6132e-01
      1057 3948195.8969     0.0000 3.9655e-01 -1.7694e-01 3.2036e-01 -1.4093e-01
      1058 9967673.7022     0.0000 4.4722e-01 -1.8679e-01 3.6553e-01 -1.4598e-01
      1059 32046137.8326     0.0000 4.3537e-01 -1.9320e-01 3.5991e-01 -1.4645e-01
      1060 19019817.9701     0.0000 4.1758e-01 -2.4606e-01 3.4123e-01 -1.7903e-01
      1061 34284851.1280     0.0000 4.7140e-01 -1.8406e-01 3.8954e-01 -1.4281e-01
      1062 5116989.2810     0.0000 4.3209e-01 -1.7580e-01 3.5428e-01 -1.4126e-01
      1063 13696568.9332     0.0000 4.0896e-01 -1.9050e-01 3.3603e-01 -1.4742e-01
      1064 5815183.6922     0.0000 4.0376e-01 -1.7649e-01 3.2831e-01 -1.4479e-01
      1065 12951026.8993     0.0000 4.6629e-01 -1.5926e-01 3.8233e-01 -1.3006e-01
      1066 23188853.0450     0.0000 4.5053e-01 -1.9927e-01 3.7310e-01 -1.6134e-01
      1067 6864129.0201     0.0000 4.1346e-01 -1.7821e-01 3.3625e-01 -1.4563e-01
      1068 10533038.5079     0.0000 4.3233e-01 -1.7730e-01 3.5657e-01 -1.4334e-01
      1069 40586228.8185     0.0000 4.6803e-01 -2.1735e-01 3.8738e-01 -1.6060e-01
      1070 23855861.8490     0.0000 4.2563e-01 -1.9929e-01 3.4721e-01 -1.4647e-01
      1071 13153534.6003     0.0000 4.1730e-01 -2.2567e-01 3.4099e-01 -1.6787e-01
      1072 11332536.6386     0.0000 4.2368e-01 -1.7012e-01 3.4696e-01 -1.4255e-01
      1073 2749738.5288     0.0000 4.2271e-01 -1.8094e-01 3.4766e-01 -1.4189e-01
      1074 1144669.6637     0.0000 4.5884e-01 -2.0232e-01 3.7005e-01 -1.6093e-01
      1075 13656086.2738     0.0000 4.8936e-01 -1.6788e-01 3.9991e-01 -1.4104e-01
      1076 27114857.7392     0.0000 4.4840e-01 -2.1462e-01 3.7020e-01 -1.6452e-01
      1077 26358282.3317     0.0000 4.6738e-01 -2.0889e-01 3.8633e-01 -1.6557e-01
      1078 19636517.0264     0.0000 4.5997e-01 -1.8839e-01 3.7581e-01 -1.4770e-01
      1079 6452815.9462     0.0000 4.2767e-01 -1.8879e-01 3.4804e-01 -1.5138e-01
      1080 15840739.8963     0.0000 4.3308e-01 -1.9934e-01 3.5654e-01 -1.6337e-01
      1081 68126297.1237     0.0000 4.5465e-01 -2.4134e-01 3.7758e-01 -1.7320e-01
      1082 22527700.1095     0.0000 4.0835e-01 -1.9004e-01 3.3674e-01 -1.4425e-01
      1083 29154093.6544     0.0000 3.9983e-01 -2.5602e-01 3.2770e-01 -1.8166e-01
      1084 13215070.6091     0.0000 3.7029e-01 -2.2779e-01 3.0183e-01 -1.6742e-01
      1085 8288076.0007     0.0000 4.2847e-01 -2.0892e-01 3.5213e-01 -1.6660e-01
      1086 20940296.4610     0.0000 4.3426e-01 -2.1720e-01 3.6056e-01 -1.6915e-01
      1087 38798067.0353     0.0000 4.3037e-01 -2.0711e-01 3.6034e-01 -1.6032e-01
      1088 15104229.5560     0.0000 4.1968e-01 -2.0336e-01 3.4149e-01 -1.5221e-01
      1089 4300790.6137     0.0000 3.9106e-01 -1.8529e-01 3.1850e-01 -1.4956e-01
      1090 1148231.6569     0.0000 4.3121e-01 -2.1512e-01 3.5026e-01 -1.6689e-01
      1091 24867918.8617     0.0000 4.7183e-01 -1.6914e-01 3.8985e-01 -1.3426e-01
      1092 25853290.8261     0.0000 4.2175e-01 -1.8260e-01 3.4767e-01 -1.3934e-01
      1093 12055965.8632     0.0000 4.0073e-01 -1.8265e-01 3.3059e-01 -1.5250e-01
      1094 7500584.4827     0.0000 4.0413e-01 -1.8745e-01 3.2995e-01 -1.4075e-01
      1095 33427256.9946     0.0000 4.4944e-01 -2.1881e-01 3.7142e-01 -1.6772e-01
      1096 10237457.7211     0.0000 3.9828e-01 -1.7140e-01 3.2600e-01 -1.4312e-01
      1097 5594097.0142     0.0000 4.2826e-01 -1.9581e-01 3.4816e-01 -1.5577e-01
      1098 3495166.0827     0.0000 3.8752e-01 -2.0132e-01 3.1222e-01 -1.6177e-01
      1099 32797501.6438     0.0000 4.4263e-01 -2.0641e-01 3.6628e-01 -1.5602e-01
      1100 11361338.7603     0.0000 4.5192e-01 -1.8378e-01 3.7244e-01 -1.4970e-01
      1101 13675389.8167     0.0000 3.9155e-01 -1.9435e-01 3.2256e-01 -1.5352e-01
      1102 7064691.4632     0.0000 4.4041e-01 -2.0018e-01 3.6113e-01 -1.6049e-01
      1103 2302187.7112     0.0000 4.0854e-01 -2.1336e-01 3.3635e-01 -1.6952e-01
      1104 6352111.4021     0.0000 4.2730e-01 -1.8852e-01 3.5296e-01 -1.5387e-01
      1105 1532291.9863     0.0000 4.0416e-01 -2.0053e-01 3.2721e-01 -1.5592e-01
      1106 31837883.2541     0.0000 4.6312e-01 -1.7699e-01 3.8422e-01 -1.3774e-01
      1107 5297501.1619     0.0000 4.0782e-01 -2.2139e-01 3.3212e-01 -1.6933e-01
      1108 17768752.2015     0.0000 4.4380e-01 -1.9901e-01 3.6512e-01 -1.6067e-01
      1109 31685951.4232     0.0000 4.7707e-01 -1.9889e-01 3.9544e-01 -1.5815e-01
      1110 15614697.1279     0.0000 4.2000e-01 -2.2335e-01 3.4334e-01 -1.6248e-01
      1111 18529519.6208     0.0000 3.8243e-01 -1.3109e-01 3.1215e-01 -1.0645e-01
      1112 12771165.0639     0.0000 4.3499e-01 -1.8556e-01 3.5968e-01 -1.5034e-01
      1113 3162630.9302     0.0000 3.6784e-01 -1.8814e-01 3.0095e-01 -1.5294e-01
      1114 1416803.9346     0.0000 3.7802e-01 -1.9697e-01 3.0544e-01 -1.5575e-01
      1115 17457398.3411     0.0000 4.3463e-01 -2.0087e-01 3.5729e-01 -1.5186e-01
      1116 4916700.8695     0.0000 4.0293e-01 -1.9525e-01 3.2739e-01 -1.5140e-01
      1117 19488379.0429     0.0000 4.2507e-01 -2.2325e-01 3.4905e-01 -1.7062e-01
      1118 9234925.0910     0.0000 4.3571e-01 -1.8903e-01 3.6019e-01 -1.5055e-01
      1119 12931627.7911     0.0000 4.6015e-01 -1.8190e-01 3.8200e-01 -1.5000e-01
      1120 10302636.5868     0.0000 4.1051e-01 -2.2173e-01 3.3868e-01 -1.6943e-01
      1121 20297235.8679     0.0000 4.6114e-01 -1.6707e-01 3.8116e-01 -1.3750e-01
      1122 27031196.3903     0.0000 4.1577e-01 -2.1453e-01 3.4294e-01 -1.6337e-01
      1123 44824113.9428     0.0000 4.9046e-01 -1.8912e-01 4.0633e-01 -1.5078e-01
      1124 8651265.4546     0.0000 4.1783e-01 -2.1116e-01 3.4394e-01 -1.6397e-01
      1125 3252824.3589     0.0000 4.0916e-01 -1.8786e-01 3.3488e-01 -1.5073e-01
      1126 5703213.0989     0.0000 4.3232e-01 -1.8933e-01 3.5247e-01 -1.5167e-01
      1127 15996405.2546     0.0000 4.3562e-01 -1.9565e-01 3.5963e-01 -1.5507e-01
      1128 2747440.3348     0.0000 4.2272e-01 -1.9711e-01 3.4398e-01 -1.5651e-01
      1129 3299808.3176     0.0000 3.9481e-01 -2.0013e-01 3.2162e-01 -1.6167e-01
      1130 26531658.2038     0.0000 4.6823e-01 -1.9085e-01 3.8635e-01 -1.5064e-01
      1131 4016039.8310     0.0000 4.2513e-01 -2.1808e-01 3.4671e-01 -1.7063e-01
      1132 4469183.6882     0.0000 4.3869e-01 -1.8460e-01 3.5724e-01 -1.4325e-01
      1133 16904743.9291     0.0000 4.2158e-01 -1.7844e-01 3.4664e-01 -1.4378e-01
      1134 4457886.9400     0.0000 3.6949e-01 -1.9506e-01 3.0224e-01 -1.4961e-01
      1135 9691393.2382     0.0000 4.3081e-01 -1.7457e-01 3.5362e-01 -1.3488e-01
      1136 24997567.2093     0.0000 4.1380e-01 -1.8318e-01 3.4372e-01 -1.5351e-01
      1137 12420554.5676     0.0000 4.2752e-01 -1.5488e-01 3.5210e-01 -1.2303e-01
      1138 15316440.7598     0.0000 4.3363e-01 -2.0557e-01 3.5504e-01 -1.5477e-01
      1139 14440739.9436     0.0000 4.0687e-01 -1.7655e-01 3.3328e-01 -1.5045e-01
      1140 39605580.9550     0.0000 4.2425e-01 -2.2678e-01 3.5180e-01 -1.6434e-01
      1141 7865913.0122     0.0000 3.9985e-01 -1.8064e-01 3.2938e-01 -1.3530e-01
      1142 16455734.0545     0.0000 4.1000e-01 -2.2764e-01 3.3451e-01 -1.7303e-01
      1143 24252050.6271     0.0000 4.2357e-01 -2.0248e-01 3.4915e-01 -1.5251e-01
      1144 7335259.9663     0.0000 4.1402e-01 -2.1280e-01 3.4116e-01 -1.6356e-01
      1145 12746079.3493     0.0000 4.2571e-01 -2.0825e-01 3.4878e-01 -1.6480e-01
      1146 8417465.3961     0.0000 3.8186e-01 -1.8059e-01 3.1324e-01 -1.4303e-01
      1147 33861411.8464     0.0000 4.2157e-01 -2.3386e-01 3.4295e-01 -1.7176e-01
      1148 13347257.4381     0.0000 4.0336e-01 -2.3459e-01 3.3064e-01 -1.7586e-01
      1149 17375129.9227     0.0000 4.4334e-01 -2.1111e-01 3.6498e-01 -1.6657e-01
      1150 18442238.2346     0.0000 4.3560e-01 -1.4877e-01 3.6030e-01 -1.2096e-01
      1151 9300668.8435     0.0000 4.1905e-01 -2.0067e-01 3.4528e-01 -1.6388e-01
      1152 8190091.8298     0.0000 4.3789e-01 -1.8574e-01 3.5607e-01 -1.5294e-01
      1153 8856611.7231     0.0000 4.1675e-01 -1.8965e-01 3.4289e-01 -1.4492e-01
      1154 10039517.1940     0.0000 4.2678e-01 -1.7555e-01 3.5207e-01 -1.3775e-01
      1155 30546790.7399     0.0000 4.7217e-01 -1.9821e-01 3.8992e-01 -1.5566e-01
      1156 1638006.1463     0.0000 3.8539e-01 -2.1746e-01 3.1508e-01 -1.6906e-01
      1157 13636640.7625     0.0000 4.3429e-01 -1.8932e-01 3.5728e-01 -1.5340e-01
      1158 12433480.6029     0.0000 4.2171e-01 -2.0418e-01 3.4586e-01 -1.6138e-01
      1159 6217489.4304     0.0000 4.1115e-01 -1.8356e-01 3.3987e-01 -1.4716e-01
      1160 10509965.1546     0.0000 4.2575e-01 -1.8564e-01 3.4941e-01 -1.4444e-01
      1161 32408241.5085     0.0000 4.6094e-01 -2.1310e-01 3.7996e-01 -1.6206e-01
      1162 8960302.1093     0.0000 4.4775e-01 -1.8772e-01 3.6798e-01 -1.5524e-01
      1163 9164508.9139     0.0000 4.1657e-01 -1.9564e-01 3.4284e-01 -1.5110e-01
      1164 13443687.0155     0.0000 4.2067e-01 -2.0389e-01 3.4433e-01 -1.6038e-01
      1165 30215384.3558     0.0000 4.5277e-01 -1.9933e-01 3.7670e-01 -1.6370e-01
      1166 10272720.3178     0.0000 4.3524e-01 -1.7860e-01 3.5707e-01 -1.4143e-01
      1167 2091227.7806     0.0000 4.0416e-01 -2.0155e-01 3.2945e-01 -1.6432e-01
      1168 15717319.4009     0.0000 4.2081e-01 -1.6547e-01 3.4396e-01 -1.3658e-01
      1169 12633592.2687     0.0000 3.8811e-01 -1.5779e-01 3.1932e-01 -1.2929e-01
      1170 6156460.9295     0.0000 4.1171e-01 -1.9600e-01 3.3842e-01 -1.6092e-01
      1171 12889124.0832     0.0000 4.2407e-01 -1.7506e-01 3.5323e-01 -1.4330e-01
      1172 16423731.0702     0.0000 3.8876e-01 -1.7319e-01 3.2178e-01 -1.3637e-01
      1173 4599310.0203     0.0000 4.0218e-01 -1.7778e-01 3.2780e-01 -1.4122e-01
      1174 30315231.4284     0.0000 4.4492e-01 -2.0292e-01 3.6714e-01 -1.5126e-01
      1175 32663558.0075     0.0000 4.5878e-01 -1.8362e-01 3.8049e-01 -1.3799e-01
      1176 7429802.0182     0.0000 4.0022e-01 -1.8718e-01 3.2830e-01 -1.5249e-01
      1177 13592835.0087     0.0000 4.5394e-01 -1.8915e-01 3.7422e-01 -1.5073e-01
      1178 12631030.3316     0.0000 4.0376e-01 -1.9206e-01 3.3153e-01 -1.5529e-01
      1179 9569887.0261     0.0000 4.4958e-01 -1.9676e-01 3.6815e-01 -1.5507e-01
      1180 15780441.6434     0.0000 4.0108e-01 -1.7668e-01 3.3097e-01 -1.3145e-01
      1181 10486425.4733     0.0000 4.3330e-01 -1.5455e-01 3.5560e-01 -1.2298e-01
      1182 2293613.1001     0.0000 4.0269e-01 -1.9700e-01 3.2941e-01 -1.5360e-01
      1183 7225864.7003     0.0000 4.1627e-01 -2.0779e-01 3.4239e-01 -1.6235e-01
      1184 10425167.7316     0.0000 4.0154e-01 -1.6648e-01 3.2547e-01 -1.3923e-01
      1185 1945810.4054     0.0000 4.0462e-01 -2.0225e-01 3.2784e-01 -1.6415e-01
      1186 36547239.9461     0.0000 4.4333e-01 -1.8820e-01 3.6619e-01 -1.4605e-01
      1187 18299247.4534     0.0000 4.4510e-01 -2.1050e-01 3.7079e-01 -1.6497e-01
      1188 4344634.7087     0.0000 3.9861e-01 -1.8480e-01 3.2778e-01 -1.5118e-01
      1189 29484094.8159     0.0000 4.3292e-01 -2.0337e-01 3.5563e-01 -1.5275e-01
      1190 12763437.2573     0.0000 4.3906e-01 -2.0565e-01 3.6300e-01 -1.6488e-01
      1191 12966654.7512     0.0000 4.3160e-01 -1.8075e-01 3.5449e-01 -1.5296e-01
      1192 6854385.5352     0.0000 3.8640e-01 -1.8680e-01 3.1739e-01 -1.4423e-01
      1193 35860749.5591     0.0000 4.5618e-01 -2.2573e-01 3.7900e-01 -1.7142e-01
      1194 21600514.0630     0.0000 3.8750e-01 -2.3426e-01 3.1639e-01 -1.6836e-01
      1195 30259474.1779     0.0000 4.2238e-01 -2.1453e-01 3.5054e-01 -1.6079e-01
      1196 7691973.1570     0.0000 3.8497e-01 -2.1136e-01 3.1638e-01 -1.6045e-01
      1197 24384206.8113     0.0000 4.4697e-01 -1.9297e-01 3.6993e-01 -1.5878e-01
      1198 11446377.4483     0.0000 4.3547e-01 -2.0054e-01 3.5814e-01 -1.6045e-01
      1199 23436416.5926     0.0000 4.3887e-01 -2.0298e-01 3.6447e-01 -1.6178e-01
      1200 4783085.6377     0.0000 4.5628e-01 -1.9055e-01 3.7457e-01 -1.5376e-01
      1201 31082123.3212     0.0000 4.5442e-01 -1.8349e-01 3.7400e-01 -1.4372e-01
      1202 10820146.7565     0.0000 4.1640e-01 -1.5833e-01 3.4006e-01 -1.2899e-01
      1203 13631362.4003     0.0000 4.2982e-01 -2.0507e-01 3.5378e-01 -1.6305e-01
      1204 5449629.9776     0.0000 4.1700e-01 -1.8440e-01 3.4534e-01 -1.5119e-01
      1205 20860017.7773     0.0000 4.2546e-01 -1.9884e-01 3.5074e-01 -1.4688e-01
      1206 26389114.7506     0.0000 4.4204e-01 -2.1466e-01 3.6569e-01 -1.6708e-01
      1207 7683980.3015     0.0000 4.3272e-01 -1.8519e-01 3.5474e-01 -1.5053e-01
      1208 18007931.0704     0.0000 4.5566e-01 -1.9392e-01 3.7933e-01 -1.5980e-01
      1209 36064121.2390     0.0000 4.2063e-01 -2.1443e-01 3.4585e-01 -1.5597e-01
      1210 16258653.5963     0.0000 3.8926e-01 -2.2400e-01 3.1922e-01 -1.6026e-01
      1211 20231581.0611     0.0000 4.5439e-01 -1.7849e-01 3.7637e-01 -1.4992e-01
      1212 5611773.8549     0.0000 4.2139e-01 -1.8310e-01 3.4608e-01 -1.5058e-01
      1213 31677647.5108     0.0000 4.6600e-01 -2.0712e-01 3.8637e-01 -1.5906e-01
      1214 5987382.9715     0.0000 4.0964e-01 -1.9285e-01 3.3607e-01 -1.5032e-01
      1215 33700072.0081     0.0000 4.2869e-01 -2.0758e-01 3.5174e-01 -1.5918e-01
      1216 6786960.5499     0.0000 4.1014e-01 -1.8416e-01 3.3601e-01 -1.5019e-01
      1217 11420299.1764     0.0000 4.2764e-01 -2.0099e-01 3.4971e-01 -1.5413e-01
      1218 7134705.0923     0.0000 3.7246e-01 -2.1164e-01 3.0545e-01 -1.5907e-01
      1219 32615266.9746     0.0000 4.5086e-01 -1.7508e-01 3.7780e-01 -1.4164e-01
      1220 4022347.3152     0.0000 4.3425e-01 -1.9512e-01 3.5707e-01 -1.5992e-01
      1221 14814365.7009     0.0000 4.1304e-01 -1.9695e-01 3.3930e-01 -1.5103e-01
      1222 1867791.6023     0.0000 4.2914e-01 -1.9990e-01 3.5055e-01 -1.6127e-01
      1223 7872892.6020     0.0000 3.6685e-01 -1.9130e-01 2.9740e-01 -1.4463e-01
      1224 11240894.3470     0.0000 4.3318e-01 -2.0281e-01 3.5244e-01 -1.5509e-01
