         0 0.0000e+00 5.6311e-03 3.9554e-01 -2.1873e-01 3.0671e-01 -1.6245e-01
        10 1.6145e+02 4.9224e-38 3.9515e-01 -2.1756e-01 3.0622e-01 -1.6175e-01
        11 4.9683e+03 0.0000e+00 3.9187e-01 -2.1779e-01 3.0356e-01 -1.6191e-01
        12 6.7504e+02 1.4703e-149 3.9393e-01 -2.1794e-01 3.0520e-01 -1.6211e-01
        13 6.6028e+02 2.3628e-146 3.9389e-01 -2.1903e-01 3.0534e-01 -1.6257e-01
        14 2.2210e+03 0.0000e+00 3.9298e-01 -2.1799e-01 3.0454e-01 -1.6223e-01
        15 1.8078e+02 3.1191e-42 3.9664e-01 -2.1737e-01 3.0751e-01 -1.6175e-01
        16 1.2406e+03 2.2952e-272 3.9725e-01 -2.1883e-01 3.0829e-01 -1.6255e-01
        17 3.9685e+02 3.7612e-89 3.9621e-01 -2.1885e-01 3.0721e-01 -1.6246e-01
        18 5.6870e-01 4.2374e-03 3.9568e-01 -2.1835e-01 3.0686e-01 -1.6221e-01
        19 2.6349e+01 1.0693e-08 3.9532e-01 -2.1827e-01 3.0651e-01 -1.6208e-01
        20 8.4221e+02 7.3571e-186 3.9749e-01 -2.1809e-01 3.0827e-01 -1.6224e-01
        21 6.1422e+02 2.3687e-136 3.9702e-01 -2.1767e-01 3.0787e-01 -1.6189e-01
        22 5.8769e+02 1.3658e-130 3.9416e-01 -2.1784e-01 3.0569e-01 -1.6168e-01
        23 4.3372e+01 2.1500e-12 3.9593e-01 -2.1925e-01 3.0700e-01 -1.6277e-01
        24 7.3573e+00 1.4222e-04 3.9551e-01 -2.1789e-01 3.0666e-01 -1.6231e-01
        25 7.1526e+01 1.6555e-18 3.9518e-01 -2.1796e-01 3.0623e-01 -1.6220e-01
        26 1.2568e+01 1.0505e-05 3.9489e-01 -2.1904e-01 3.0606e-01 -1.6270e-01
        27 1.2767e+03 3.2301e-280 3.9355e-01 -2.1929e-01 3.0489e-01 -1.6269e-01
        28 1.3329e+03 2.0152e-292 3.9748e-01 -2.1852e-01 3.0829e-01 -1.6222e-01
        29 2.0407e+00 2.0299e-03 3.9508e-01 -2.1954e-01 3.0634e-01 -1.6271e-01
        30 5.5014e+02 1.9507e-122 3.9463e-01 -2.1663e-01 3.0593e-01 -1.6134e-01
        31 2.5539e+02 1.9615e-58 3.9619e-01 -2.1906e-01 3.0714e-01 -1.6224e-01
        32 1.1647e+03 6.9585e-256 3.9335e-01 -2.1771e-01 3.0471e-01 -1.6163e-01
        33 1.0940e+03 1.5691e-240 3.9376e-01 -2.1777e-01 3.0519e-01 -1.6216e-01
        34 1.5090e+02 9.6264e-36 3.9645e-01 -2.1713e-01 3.0734e-01 -1.6114e-01
        35 1.0425e-01 5.3451e-03 3.9619e-01 -2.1628e-01 3.0712e-01 -1.6132e-01
        36 9.8204e+02 3.1792e-216 3.9364e-01 -2.1943e-01 3.0499e-01 -1.6275e-01
        37 7.0618e+01 2.6067e-18 3.9505e-01 -2.1872e-01 3.0631e-01 -1.6220e-01
        38 1.1031e+03 1.6268e-242 3.9775e-01 -2.1743e-01 3.0854e-01 -1.6180e-01
        39 6.6913e+02 2.8171e-148 3.9431e-01 -2.1838e-01 3.0560e-01 -1.6250e-01
        40 1.0233e+03 3.5219e-225 3.9698e-01 -2.1791e-01 3.0789e-01 -1.6192e-01
        41 5.7713e+02 2.6763e-128 3.9656e-01 -2.1989e-01 3.0751e-01 -1.6294e-01
        42 1.1348e+01 1.9334e-05 3.9548e-01 -2.1706e-01 3.0660e-01 -1.6129e-01
        43 5.4985e+01 6.4684e-15 3.9543e-01 -2.1689e-01 3.0655e-01 -1.6156e-01
        44 1.0498e+03 6.2410e-231 3.9399e-01 -2.1874e-01 3.0527e-01 -1.6264e-01
        45 2.4060e+03 0.0000e+00 3.9264e-01 -2.1831e-01 3.0414e-01 -1.6219e-01
        46 3.2504e+03 0.0000e+00 3.9861e-01 -2.1909e-01 3.0919e-01 -1.6261e-01
        47 1.0324e+01 3.2272e-05 3.9497e-01 -2.1929e-01 3.0616e-01 -1.6264e-01
        48 7.5073e+01 2.8099e-19 3.9489e-01 -2.1684e-01 3.0617e-01 -1.6134e-01
        49 2.9093e+03 0.0000e+00 3.9249e-01 -2.1817e-01 3.0403e-01 -1.6212e-01
        50 1.9634e+02 1.3086e-45 3.9628e-01 -2.1892e-01 3.0748e-01 -1.6239e-01
        51 1.8056e+02 3.4917e-42 3.9475e-01 -2.1874e-01 3.0586e-01 -1.6237e-01
        52 3.4895e+03 0.0000e+00 3.9852e-01 -2.1892e-01 3.0944e-01 -1.6242e-01
        53 5.9996e+02 2.9619e-133 3.9421e-01 -2.1779e-01 3.0549e-01 -1.6225e-01
        54 5.3913e+01 1.1056e-14 3.9531e-01 -2.1768e-01 3.0655e-01 -1.6206e-01
        55 2.1333e+03 0.0000e+00 3.9286e-01 -2.1807e-01 3.0428e-01 -1.6174e-01
        56 7.6754e+03 0.0000e+00 3.9044e-01 -2.1877e-01 3.0227e-01 -1.6259e-01
        57 2.9490e+03 0.0000e+00 3.9274e-01 -2.1746e-01 3.0424e-01 -1.6172e-01
        58 6.5770e+02 8.5824e-146 3.9395e-01 -2.1896e-01 3.0526e-01 -1.6270e-01
        59 1.5191e+03 0.0000e+00 3.9325e-01 -2.1800e-01 3.0462e-01 -1.6226e-01
        60 1.0938e+03 1.6969e-240 3.9362e-01 -2.1786e-01 3.0515e-01 -1.6156e-01
        61 1.5054e+03 0.0000e+00 3.9354e-01 -2.1825e-01 3.0495e-01 -1.6210e-01
        62 9.5850e+01 8.6495e-24 3.9494e-01 -2.1949e-01 3.0613e-01 -1.6266e-01
        63 1.1992e+02 5.1215e-29 3.9497e-01 -2.1830e-01 3.0600e-01 -1.6228e-01
        64 3.9490e+00 7.8176e-04 3.9566e-01 -2.1838e-01 3.0671e-01 -1.6241e-01
        65 8.1315e+01 1.2395e-20 3.9493e-01 -2.1865e-01 3.0613e-01 -1.6236e-01
        66 2.3957e+03 0.0000e+00 3.9245e-01 -2.1838e-01 3.0401e-01 -1.6207e-01
        67 3.1955e+01 6.4813e-10 3.9482e-01 -2.1777e-01 3.0609e-01 -1.6181e-01
        68 5.1366e+03 0.0000e+00 3.9162e-01 -2.1780e-01 3.0331e-01 -1.6224e-01
        69 6.6255e+01 2.3097e-17 3.9496e-01 -2.1849e-01 3.0628e-01 -1.6200e-01
        70 5.5850e+02 2.9785e-124 3.9407e-01 -2.1850e-01 3.0530e-01 -1.6249e-01
        71 9.8025e+01 2.9154e-24 3.9609e-01 -2.1916e-01 3.0701e-01 -1.6260e-01
        72 2.6268e+02 5.1426e-60 3.9667e-01 -2.1836e-01 3.0751e-01 -1.6221e-01
        73 8.3986e+02 2.3829e-185 3.9414e-01 -2.1863e-01 3.0545e-01 -1.6222e-01
        74 4.0381e+01 9.5916e-12 3.9592e-01 -2.1850e-01 3.0687e-01 -1.6250e-01
        75 2.4266e+03 0.0000e+00 3.9260e-01 -2.1769e-01 3.0406e-01 -1.6195e-01
        76 9.4088e+02 2.7627e-207 3.9359e-01 -2.1874e-01 3.0503e-01 -1.6229e-01
        77 3.2186e+02 7.2244e-73 3.9683e-01 -2.1784e-01 3.0783e-01 -1.6188e-01
        78 1.6364e-01 5.1887e-03 3.9554e-01 -2.1807e-01 3.0666e-01 -1.6219e-01
        79 1.1559e+03 5.6164e-254 3.9787e-01 -2.1714e-01 3.0866e-01 -1.6158e-01
        80 7.4626e+02 5.0404e-165 3.9422e-01 -2.1814e-01 3.0550e-01 -1.6217e-01
        81 4.6980e+00 5.3758e-04 3.9522e-01 -2.1825e-01 3.0640e-01 -1.6230e-01
        82 1.4345e+03 1.8091e-314 3.9365e-01 -2.1648e-01 3.0515e-01 -1.6076e-01
        83 2.5706e+02 8.5221e-59 3.9647e-01 -2.1908e-01 3.0739e-01 -1.6259e-01
        84 2.3719e+01 3.9817e-08 3.9582e-01 -2.1854e-01 3.0689e-01 -1.6225e-01
        85 1.1605e+01 1.7004e-05 3.9548e-01 -2.1873e-01 3.0673e-01 -1.6211e-01
        86 5.1707e+02 2.9535e-115 3.9677e-01 -2.1818e-01 3.0763e-01 -1.6218e-01
        87 1.2274e+03 1.6905e-269 3.9361e-01 -2.1871e-01 3.0494e-01 -1.6254e-01
        88 1.2038e+02 4.0786e-29 3.9539e-01 -2.1650e-01 3.0655e-01 -1.6142e-01
        89 2.7538e+01 5.8985e-09 3.9520e-01 -2.1884e-01 3.0622e-01 -1.6247e-01
        90 3.5166e+01 1.3013e-10 3.9612e-01 -2.1819e-01 3.0703e-01 -1.6219e-01
        91 2.3890e+03 0.0000e+00 3.9326e-01 -2.1688e-01 3.0459e-01 -1.6160e-01
        92 1.3200e+00 2.9105e-03 3.9579e-01 -2.1915e-01 3.0673e-01 -1.6259e-01
        93 1.6430e+03 0.0000e+00 3.9332e-01 -2.1707e-01 3.0461e-01 -1.6156e-01
        94 6.8433e+02 1.4136e-151 3.9716e-01 -2.1829e-01 3.0798e-01 -1.6246e-01
        95 2.2946e+01 5.8593e-08 3.9503e-01 -2.1849e-01 3.0624e-01 -1.6226e-01
        96 1.0282e+02 2.6579e-25 3.9508e-01 -2.1759e-01 3.0626e-01 -1.6221e-01
        97 2.6780e+02 3.9700e-61 3.9435e-01 -2.1809e-01 3.0558e-01 -1.6219e-01
        98 2.7738e+02 3.2909e-63 3.9464e-01 -2.1859e-01 3.0594e-01 -1.6212e-01
        99 1.8628e+03 0.0000e+00 3.9254e-01 -2.1920e-01 3.0416e-01 -1.6265e-01
       100 8.9303e+01 2.2836e-22 3.9601e-01 -2.1822e-01 3.0698e-01 -1.6219e-01
       101 1.1816e+02 1.2377e-28 3.9521e-01 -2.1839e-01 3.0629e-01 -1.6241e-01
       102 6.3327e+03 0.0000e+00 3.9079e-01 -2.1879e-01 3.0264e-01 -1.6215e-01
       103 2.0234e+00 2.0475e-03 3.9551e-01 -2.1738e-01 3.0665e-01 -1.6168e-01
       104 2.9727e+02 1.5827e-67 3.9642e-01 -2.1731e-01 3.0747e-01 -1.6191e-01
       105 1.3205e+01 7.6418e-06 3.9532e-01 -2.1695e-01 3.0648e-01 -1.6102e-01
       106 1.0638e+03 5.6344e-234 3.9354e-01 -2.1888e-01 3.0495e-01 -1.6245e-01
       107 4.2769e+01 2.9065e-12 3.9609e-01 -2.1797e-01 3.0711e-01 -1.6208e-01
       108 9.8959e+02 7.2980e-218 3.9371e-01 -2.1862e-01 3.0513e-01 -1.6204e-01
       109 2.2535e+00 1.8249e-03 3.9552e-01 -2.1858e-01 3.0665e-01 -1.6225e-01
       110 5.9561e+02 2.6038e-132 3.9407e-01 -2.1844e-01 3.0535e-01 -1.6246e-01
       111 1.3382e+03 1.4427e-293 3.9419e-01 -2.1656e-01 3.0543e-01 -1.6126e-01
       112 7.6669e+01 1.2650e-19 3.9515e-01 -2.1797e-01 3.0628e-01 -1.6235e-01
       113 3.1408e+02 3.5438e-71 3.9454e-01 -2.1854e-01 3.0588e-01 -1.6248e-01
       114 3.6521e+01 6.6098e-11 3.9498e-01 -2.1883e-01 3.0621e-01 -1.6231e-01
       115 2.5543e+03 0.0000e+00 3.9264e-01 -2.1891e-01 3.0411e-01 -1.6234e-01
       116 1.2898e+03 4.6271e-283 3.9702e-01 -2.1872e-01 3.0810e-01 -1.6255e-01
       117 8.3547e+02 2.1395e-184 3.9687e-01 -2.1914e-01 3.0786e-01 -1.6250e-01
       118 2.8066e+03 0.0000e+00 3.9846e-01 -2.1809e-01 3.0913e-01 -1.6219e-01
       119 2.6570e+03 0.0000e+00 3.9246e-01 -2.1915e-01 3.0409e-01 -1.6271e-01
       120 1.3741e+03 2.3083e-301 3.9353e-01 -2.1726e-01 3.0509e-01 -1.6170e-01
       121 2.3085e+03 0.0000e+00 3.9267e-01 -2.1785e-01 3.0420e-01 -1.6180e-01
       122 1.5342e+03 0.0000e+00 3.9311e-01 -2.1822e-01 3.0458e-01 -1.6203e-01
       123 3.6747e+03 0.0000e+00 3.9253e-01 -2.1745e-01 3.0410e-01 -1.6161e-01
       124 7.4199e+02 4.2637e-164 3.9719e-01 -2.1766e-01 3.0816e-01 -1.6171e-01
       125 4.0778e+02 1.5969e-91 3.9445e-01 -2.1895e-01 3.0576e-01 -1.6243e-01
       126 4.8901e+02 3.6647e-109 3.9696e-01 -2.1916e-01 3.0777e-01 -1.6270e-01
       127 3.9580e-01 4.6200e-03 3.9574e-01 -2.1831e-01 3.0680e-01 -1.6219e-01
       128 6.1143e+01 2.9748e-16 3.9521e-01 -2.1866e-01 3.0637e-01 -1.6261e-01
       129 1.3617e+02 1.5219e-32 3.9491e-01 -2.1776e-01 3.0612e-01 -1.6221e-01
       130 5.4449e+01 8.4553e-15 3.9504e-01 -2.1808e-01 3.0636e-01 -1.6212e-01
       131 5.8615e+02 2.9516e-130 3.9442e-01 -2.1701e-01 3.0571e-01 -1.6135e-01
       132 7.7171e+02 1.5029e-170 3.9731e-01 -2.1792e-01 3.0811e-01 -1.6225e-01
       133 1.0667e+03 1.3334e-234 3.9731e-01 -2.1849e-01 3.0819e-01 -1.6190e-01
       134 4.2415e+02 4.4525e-95 3.9442e-01 -2.1870e-01 3.0558e-01 -1.6252e-01
       135 1.2469e+03 9.9773e-274 3.9351e-01 -2.1813e-01 3.0493e-01 -1.6224e-01
       136 2.1213e+03 0.0000e+00 3.9341e-01 -2.1681e-01 3.0480e-01 -1.6137e-01
       137 4.7392e+03 0.0000e+00 3.9164e-01 -2.1912e-01 3.0331e-01 -1.6270e-01
       138 2.9411e+01 2.3120e-09 3.9588e-01 -2.1786e-01 3.0688e-01 -1.6159e-01
       139 3.1377e+01 8.6520e-10 3.9628e-01 -2.1794e-01 3.0722e-01 -1.6229e-01
       140 3.5571e+03 0.0000e+00 3.9881e-01 -2.1863e-01 3.0934e-01 -1.6215e-01
       141 1.4453e+03 7.9298e-317 3.9799e-01 -2.1662e-01 3.0876e-01 -1.6132e-01
       142 6.2227e+01 1.7301e-16 3.9581e-01 -2.1920e-01 3.0680e-01 -1.6260e-01
       143 1.0107e+02 6.3758e-25 3.9622e-01 -2.1859e-01 3.0716e-01 -1.6229e-01
       144 2.4925e+02 4.2244e-57 3.9459e-01 -2.1861e-01 3.0589e-01 -1.6247e-01
       145 2.4719e+02 1.1883e-56 3.9471e-01 -2.1799e-01 3.0593e-01 -1.6185e-01
       146 2.2213e+02 3.2752e-51 3.9465e-01 -2.1901e-01 3.0582e-01 -1.6268e-01
       147 1.4024e+02 1.9866e-33 3.9497e-01 -2.1927e-01 3.0603e-01 -1.6266e-01
       148 5.1519e+02 7.5554e-115 3.9665e-01 -2.1882e-01 3.0750e-01 -1.6253e-01
       149 6.7869e+01 1.0306e-17 3.9489e-01 -2.1834e-01 3.0614e-01 -1.6228e-01
       150 3.0891e+02 4.6864e-70 3.9675e-01 -2.1910e-01 3.0766e-01 -1.6253e-01
       151 1.7886e+02 8.1408e-42 3.9464e-01 -2.1842e-01 3.0595e-01 -1.6224e-01
       152 8.0574e+00 1.0022e-04 3.9593e-01 -2.1763e-01 3.0699e-01 -1.6188e-01
       153 1.3456e+01 6.7398e-06 3.9573e-01 -2.1891e-01 3.0678e-01 -1.6254e-01
       154 8.5335e+02 2.7991e-188 3.9368e-01 -2.1834e-01 3.0503e-01 -1.6242e-01
       155 2.2724e+03 0.0000e+00 3.9817e-01 -2.1777e-01 3.0895e-01 -1.6190e-01
       156 6.0270e+02 7.5328e-134 3.9416e-01 -2.1872e-01 3.0542e-01 -1.6260e-01
       157 3.3372e+02 1.9243e-75 3.9462e-01 -2.1791e-01 3.0567e-01 -1.6181e-01
       158 3.0069e+02 2.8551e-68 3.9476e-01 -2.1892e-01 3.0590e-01 -1.6263e-01
       159 5.9293e+01 7.5043e-16 3.9579e-01 -2.1847e-01 3.0671e-01 -1.6245e-01
       160 9.4490e+02 3.7065e-208 3.9368e-01 -2.1798e-01 3.0511e-01 -1.6226e-01
       161 6.0156e+01 4.8738e-16 3.9575e-01 -2.1861e-01 3.0675e-01 -1.6240e-01
       162 1.6525e+03 0.0000e+00 3.9285e-01 -2.1905e-01 3.0431e-01 -1.6252e-01
       163 1.8332e+03 0.0000e+00 3.9330e-01 -2.1859e-01 3.0467e-01 -1.6220e-01
       164 6.0668e+01 3.7732e-16 3.9557e-01 -2.1880e-01 3.0655e-01 -1.6261e-01
       165 4.8102e+02 1.9898e-107 3.9408e-01 -2.1960e-01 3.0546e-01 -1.6279e-01
       166 5.5784e+01 4.3375e-15 3.9615e-01 -2.1812e-01 3.0712e-01 -1.6209e-01
       167 1.9793e+03 0.0000e+00 3.9341e-01 -2.1762e-01 3.0482e-01 -1.6191e-01
       168 1.3205e+03 1.0094e-289 3.9756e-01 -2.1852e-01 3.0833e-01 -1.6246e-01
       169 7.2713e+02 7.1835e-161 3.9425e-01 -2.1789e-01 3.0550e-01 -1.6187e-01
       170 8.8151e+02 2.1497e-194 3.9724e-01 -2.1851e-01 3.0808e-01 -1.6232e-01
       171 1.7613e+03 0.0000e+00 3.9336e-01 -2.1746e-01 3.0482e-01 -1.6170e-01
       172 1.4934e+03 0.0000e+00 3.9304e-01 -2.1887e-01 3.0470e-01 -1.6244e-01
       173 1.1809e+03 2.1026e-259 3.9755e-01 -2.1787e-01 3.0834e-01 -1.6196e-01
       174 1.2303e+02 1.0829e-29 3.9497e-01 -2.1747e-01 3.0623e-01 -1.6190e-01
       175 1.0398e+03 9.2099e-229 3.9364e-01 -2.1962e-01 3.0504e-01 -1.6265e-01
       176 4.7471e+01 2.7690e-13 3.9503e-01 -2.1835e-01 3.0627e-01 -1.6235e-01
       177 3.8210e+03 0.0000e+00 3.9232e-01 -2.1786e-01 3.0401e-01 -1.6217e-01
       178 1.0482e+03 1.3831e-230 3.9388e-01 -2.1763e-01 3.0526e-01 -1.6212e-01
       179 4.8782e+02 6.6498e-109 3.9474e-01 -2.1749e-01 3.0604e-01 -1.6168e-01
       180 1.5047e+02 1.1923e-35 3.9491e-01 -2.1748e-01 3.0613e-01 -1.6218e-01
       181 7.6144e+02 2.5427e-168 3.9391e-01 -2.1769e-01 3.0528e-01 -1.6216e-01
       182 2.4462e+03 0.0000e+00 3.9251e-01 -2.1946e-01 3.0405e-01 -1.6257e-01
       183 2.2977e+02 7.1724e-53 3.9646e-01 -2.1775e-01 3.0742e-01 -1.6184e-01
       184 1.3973e+03 2.1055e-306 3.9348e-01 -2.1881e-01 3.0477e-01 -1.6243e-01
       185 3.0154e+02 1.8698e-68 3.9631e-01 -2.1834e-01 3.0750e-01 -1.6220e-01
       186 6.4022e+02 5.3627e-142 3.9429e-01 -2.1774e-01 3.0554e-01 -1.6211e-01
       187 2.0046e+03 0.0000e+00 3.9813e-01 -2.1810e-01 3.0891e-01 -1.6188e-01
       188 5.7616e+02 4.3641e-128 3.9698e-01 -2.1853e-01 3.0781e-01 -1.6229e-01
       189 7.3273e+02 4.3611e-162 3.9711e-01 -2.1866e-01 3.0811e-01 -1.6237e-01
       190 1.8020e+02 4.1836e-42 3.9636e-01 -2.1789e-01 3.0733e-01 -1.6211e-01
       191 1.4227e+03 6.6812e-312 3.9752e-01 -2.1936e-01 3.0839e-01 -1.6276e-01
       192 1.7068e+03 0.0000e+00 3.9310e-01 -2.1865e-01 3.0449e-01 -1.6245e-01
       193 4.4732e+02 4.1280e-100 3.9678e-01 -2.1784e-01 3.0773e-01 -1.6196e-01
       194 6.8169e+01 8.8676e-18 3.9600e-01 -2.1847e-01 3.0698e-01 -1.6245e-01
       195 4.9515e+02 1.7014e-110 3.9411e-01 -2.1904e-01 3.0546e-01 -1.6243e-01
       196 1.2055e+03 9.5248e-265 3.9737e-01 -2.1937e-01 3.0818e-01 -1.6269e-01
       197 5.1885e+02 1.2153e-115 3.9408e-01 -2.1869e-01 3.0544e-01 -1.6197e-01
       198 3.8844e+02 2.5212e-87 3.9622e-01 -2.1910e-01 3.0722e-01 -1.6268e-01
       199 1.4501e+03 7.3713e-318 3.9353e-01 -2.1741e-01 3.0490e-01 -1.6189e-01
       200 7.6682e-01 3.8378e-03 3.9523e-01 -2.1935e-01 3.0654e-01 -1.6239e-01
       201 2.0546e+02 1.3644e-47 3.9647e-01 -2.1751e-01 3.0738e-01 -1.6158e-01
       202 7.6906e+02 5.6455e-170 3.9424e-01 -2.1765e-01 3.0561e-01 -1.6189e-01
       203 4.1711e+03 0.0000e+00 3.9880e-01 -2.1897e-01 3.0947e-01 -1.6263e-01
       204 9.0283e+01 1.3991e-22 3.9598e-01 -2.1781e-01 3.0701e-01 -1.6205e-01
       205 4.3801e+02 4.3457e-98 3.9425e-01 -2.1873e-01 3.0562e-01 -1.6226e-01
       206 1.1080e+01 2.2115e-05 3.9587e-01 -2.1842e-01 3.0693e-01 -1.6249e-01
       207 7.8485e+02 2.1010e-173 3.9409e-01 -2.1756e-01 3.0537e-01 -1.6203e-01
       208 1.1896e+01 1.4702e-05 3.9557e-01 -2.1731e-01 3.0667e-01 -1.6163e-01
       209 4.5594e+02 5.5464e-102 3.9687e-01 -2.1842e-01 3.0773e-01 -1.6225e-01
       210 4.9388e+01 1.0622e-13 3.9488e-01 -2.1865e-01 3.0611e-01 -1.6259e-01
       211 5.0725e-01 4.3696e-03 3.9497e-01 -2.1961e-01 3.0626e-01 -1.6284e-01
       212 1.3883e+02 4.0167e-33 3.9618e-01 -2.1835e-01 3.0709e-01 -1.6244e-01
       213 1.4122e+03 1.2314e-309 3.9742e-01 -2.1954e-01 3.0828e-01 -1.6268e-01
       214 2.1947e+02 1.2426e-50 3.9505e-01 -2.1894e-01 3.0625e-01 -1.6258e-01
       215 1.1105e+03 4.0423e-244 3.9367e-01 -2.1840e-01 3.0500e-01 -1.6237e-01
       216 3.7844e+02 3.7501e-85 3.9461e-01 -2.1823e-01 3.0594e-01 -1.6227e-01
       217 3.8723e+03 0.0000e+00 3.9216e-01 -2.1884e-01 3.0374e-01 -1.6247e-01
       218 2.8514e+01 3.6218e-09 3.9488e-01 -2.1843e-01 3.0615e-01 -1.6182e-01
       219 2.3497e+02 5.3301e-54 3.9463e-01 -2.1820e-01 3.0588e-01 -1.6203e-01
       220 2.5224e+01 1.8763e-08 3.9505e-01 -2.1787e-01 3.0623e-01 -1.6212e-01
       221 2.3277e+03 0.0000e+00 3.9268e-01 -2.1904e-01 3.0431e-01 -1.6237e-01
       222 1.9674e+02 1.0690e-45 3.9524e-01 -2.1724e-01 3.0639e-01 -1.6157e-01
       223 7.4489e+01 3.7631e-19 3.9520e-01 -2.1824e-01 3.0637e-01 -1.6229e-01
       224 5.0328e+01 6.6366e-14 3.9539e-01 -2.1767e-01 3.0641e-01 -1.6212e-01
       225 3.8552e+02 1.0889e-86 3.9673e-01 -2.1816e-01 3.0771e-01 -1.6216e-01
       226 1.3284e+02 8.0213e-32 3.9645e-01 -2.1764e-01 3.0752e-01 -1.6219e-01
       227 1.5816e+02 2.5517e-37 3.9601e-01 -2.1892e-01 3.0713e-01 -1.6257e-01
       228 6.6334e+01 2.2197e-17 3.9489e-01 -2.1744e-01 3.0615e-01 -1.6194e-01
       229 1.0526e+02 7.8172e-26 3.9606e-01 -2.1924e-01 3.0714e-01 -1.6255e-01
       230 8.9357e+01 2.2229e-22 3.9601e-01 -2.1795e-01 3.0715e-01 -1.6187e-01
       231 1.0413e+02 1.3770e-25 3.9654e-01 -2.1860e-01 3.0731e-01 -1.6255e-01
       232 1.0593e+03 5.2663e-233 3.9752e-01 -2.1761e-01 3.0838e-01 -1.6179e-01
       233 6.0255e+02 8.0811e-134 3.9729e-01 -2.1779e-01 3.0812e-01 -1.6209e-01
       234 1.9409e+01 3.4352e-07 3.9557e-01 -2.1820e-01 3.0662e-01 -1.6203e-01
       235 9.3428e+02 7.4764e-206 3.9742e-01 -2.1801e-01 3.0830e-01 -1.6199e-01
       236 1.2076e+03 3.2742e-265 3.9356e-01 -2.1845e-01 3.0496e-01 -1.6227e-01
       237 2.0552e+01 1.9398e-07 3.9582e-01 -2.1610e-01 3.0699e-01 -1.6070e-01
       238 2.8423e+03 0.0000e+00 3.9819e-01 -2.1899e-01 3.0898e-01 -1.6259e-01
       239 1.2446e+01 1.1168e-05 3.9552e-01 -2.1881e-01 3.0650e-01 -1.6260e-01
       240 2.2910e+02 1.0051e-52 3.9460e-01 -2.1892e-01 3.0577e-01 -1.6231e-01
       241 5.1908e+02 1.0797e-115 3.9446e-01 -2.1755e-01 3.0568e-01 -1.6201e-01
       242 5.1104e+02 6.0269e-114 3.9437e-01 -2.1864e-01 3.0571e-01 -1.6250e-01
       243 1.2347e+02 8.6944e-30 3.9458e-01 -2.1874e-01 3.0580e-01 -1.6210e-01
       244 9.0036e+01 1.5828e-22 3.9651e-01 -2.1782e-01 3.0726e-01 -1.6218e-01
       245 6.8173e+02 5.1762e-151 3.9371e-01 -2.1919e-01 3.0510e-01 -1.6245e-01
       246 1.4444e+03 1.2433e-316 3.9749e-01 -2.1878e-01 3.0834e-01 -1.6243e-01
       247 6.3466e+01 9.3126e-17 3.9490e-01 -2.1864e-01 3.0597e-01 -1.6249e-01
       248 7.7552e+00 1.1657e-04 3.9559e-01 -2.1817e-01 3.0680e-01 -1.6203e-01
       249 2.9375e+01 2.3543e-09 3.9508e-01 -2.1771e-01 3.0617e-01 -1.6192e-01
       250 2.6044e+02 1.5693e-59 3.9677e-01 -2.1696e-01 3.0766e-01 -1.6139e-01
       251 1.9409e+03 0.0000e+00 3.9284e-01 -2.1918e-01 3.0429e-01 -1.6274e-01
       252 1.3816e+02 5.6251e-33 3.9469e-01 -2.1900e-01 3.0589e-01 -1.6255e-01
       253 6.0736e+02 7.2955e-135 3.9696e-01 -2.1773e-01 3.0781e-01 -1.6203e-01
       254 1.4361e+03 7.8714e-315 3.9724e-01 -2.1897e-01 3.0817e-01 -1.6220e-01
       255 8.2729e-01 3.7235e-03 3.9623e-01 -2.1645e-01 3.0720e-01 -1.6112e-01
       256 6.1895e+01 2.0430e-16 3.9503e-01 -2.1828e-01 3.0620e-01 -1.6185e-01
       257 5.2209e+02 2.3977e-116 3.9461e-01 -2.1749e-01 3.0589e-01 -1.6201e-01
       258 4.0956e+02 6.5277e-92 3.9447e-01 -2.1802e-01 3.0571e-01 -1.6242e-01
       259 1.2994e+03 3.8290e-285 3.9401e-01 -2.1730e-01 3.0539e-01 -1.6152e-01
       260 1.5875e+01 2.0108e-06 3.9579e-01 -2.1948e-01 3.0681e-01 -1.6279e-01
       261 7.8067e+02 1.6979e-172 3.9698e-01 -2.1839e-01 3.0804e-01 -1.6240e-01
       262 1.2250e+02 1.4130e-29 3.9599e-01 -2.1878e-01 3.0699e-01 -1.6208e-01
       263 2.3262e+01 5.0036e-08 3.9501e-01 -2.1909e-01 3.0609e-01 -1.6267e-01
       264 6.7823e+02 2.9786e-150 3.9384e-01 -2.1894e-01 3.0526e-01 -1.6268e-01
       265 5.7248e+02 2.7459e-127 3.9669e-01 -2.1932e-01 3.0759e-01 -1.6278e-01
       266 4.0842e+02 1.1593e-91 3.9691e-01 -2.1779e-01 3.0795e-01 -1.6189e-01
       267 5.0732e+01 5.4222e-14 3.9474e-01 -2.1948e-01 3.0607e-01 -1.6256e-01
       268 8.9304e+01 2.2831e-22 3.9489e-01 -2.1880e-01 3.0601e-01 -1.6219e-01
       269 4.0979e+03 0.0000e+00 3.9192e-01 -2.1822e-01 3.0363e-01 -1.6219e-01
       270 5.5511e+02 1.6200e-123 3.9729e-01 -2.1749e-01 3.0804e-01 -1.6178e-01
       271 1.2173e+03 2.6300e-267 3.9738e-01 -2.1835e-01 3.0823e-01 -1.6212e-01
       272 1.0025e+03 1.1385e-220 3.9328e-01 -2.2010e-01 3.0465e-01 -1.6301e-01
       273 1.6342e+03 0.0000e+00 3.9766e-01 -2.1861e-01 3.0854e-01 -1.6255e-01
       274 8.6016e+01 1.1813e-21 3.9437e-01 -2.1960e-01 3.0566e-01 -1.6264e-01
       275 1.1670e+03 2.1847e-256 3.9411e-01 -2.1709e-01 3.0544e-01 -1.6125e-01
       276 6.5616e+01 3.1786e-17 3.9512e-01 -2.1792e-01 3.0620e-01 -1.6180e-01
       277 3.9246e+02 3.3849e-88 3.9442e-01 -2.1822e-01 3.0562e-01 -1.6193e-01
       278 1.3182e+00 2.9130e-03 3.9548e-01 -2.1868e-01 3.0667e-01 -1.6243e-01
       279 1.6022e+03 0.0000e+00 3.9319e-01 -2.1720e-01 3.0475e-01 -1.6124e-01
       280 1.6609e+03 0.0000e+00 3.9338e-01 -2.1762e-01 3.0477e-01 -1.6166e-01
       281 7.4523e+02 8.4359e-165 3.9436e-01 -2.1733e-01 3.0562e-01 -1.6156e-01
       282 1.6341e+01 1.5932e-06 3.9509e-01 -2.1921e-01 3.0640e-01 -1.6271e-01
       283 1.9621e+03 0.0000e+00 3.9328e-01 -2.1735e-01 3.0472e-01 -1.6162e-01
       284 1.8175e+00 2.2695e-03 3.9555e-01 -2.1774e-01 3.0671e-01 -1.6195e-01
       285 2.0036e+02 1.7510e-46 3.9483e-01 -2.1826e-01 3.0610e-01 -1.6246e-01
       286 1.3423e+03 1.8435e-294 3.9384e-01 -2.1845e-01 3.0514e-01 -1.6237e-01
       287 6.0269e+02 7.5391e-134 3.9371e-01 -2.1916e-01 3.0509e-01 -1.6263e-01
       288 1.4418e+02 2.7684e-34 3.9486e-01 -2.1763e-01 3.0597e-01 -1.6162e-01
       289 2.3847e+01 3.7341e-08 3.9554e-01 -2.1834e-01 3.0677e-01 -1.6237e-01
       290 1.6922e+02 1.0119e-39 3.9509e-01 -2.1836e-01 3.0609e-01 -1.6198e-01
       291 2.3025e+03 0.0000e+00 3.9294e-01 -2.1712e-01 3.0460e-01 -1.6176e-01
       292 1.1296e+03 2.9371e-248 3.9724e-01 -2.1867e-01 3.0808e-01 -1.6233e-01
       293 2.3523e+02 4.6843e-54 3.9621e-01 -2.1889e-01 3.0738e-01 -1.6262e-01
       294 1.0741e+03 3.2791e-236 3.9398e-01 -2.1748e-01 3.0527e-01 -1.6183e-01
       295 7.3450e+01 6.3253e-19 3.9604e-01 -2.1857e-01 3.0704e-01 -1.6243e-01
       296 1.6870e+03 0.0000e+00 3.9311e-01 -2.1900e-01 3.0462e-01 -1.6244e-01
       297 1.5871e+02 1.9364e-37 3.9482e-01 -2.1850e-01 3.0596e-01 -1.6244e-01
       298 2.6896e+02 2.2207e-61 3.9618e-01 -2.1892e-01 3.0722e-01 -1.6248e-01
       299 5.0514e+00 4.5050e-04 3.9557e-01 -2.1896e-01 3.0680e-01 -1.6253e-01
       300 1.4141e+03 4.8969e-310 3.9313e-01 -2.1964e-01 3.0453e-01 -1.6277e-01
       301 5.8445e+01 1.1469e-15 3.9532e-01 -2.1687e-01 3.0646e-01 -1.6126e-01
       302 1.4317e+02 4.5808e-34 3.9480e-01 -2.1868e-01 3.0590e-01 -1.6253e-01
       303 3.7879e+01 3.3510e-11 3.9554e-01 -2.1857e-01 3.0674e-01 -1.6226e-01
       304 1.0998e+03 8.7497e-242 3.9435e-01 -2.1781e-01 3.0556e-01 -1.6202e-01
       305 5.6565e+01 2.9353e-15 3.9601e-01 -2.1736e-01 3.0711e-01 -1.6169e-01
       306 1.7187e+03 0.0000e+00 3.9816e-01 -2.1831e-01 3.0887e-01 -1.6234e-01
       307 1.6107e+03 0.0000e+00 3.9305e-01 -2.1941e-01 3.0448e-01 -1.6269e-01
       308 5.2452e+02 7.1133e-117 3.9466e-01 -2.1756e-01 3.0596e-01 -1.6181e-01
       309 8.2649e+02 1.9083e-182 3.9364e-01 -2.1798e-01 3.0508e-01 -1.6184e-01
       310 6.1008e+00 2.6657e-04 3.9513e-01 -2.1876e-01 3.0634e-01 -1.6249e-01
       311 4.8646e+03 0.0000e+00 3.9166e-01 -2.1847e-01 3.0328e-01 -1.6194e-01
       312 3.5926e+03 0.0000e+00 3.9185e-01 -2.1860e-01 3.0354e-01 -1.6252e-01
       313 8.2258e+02 1.3487e-181 3.9422e-01 -2.1756e-01 3.0547e-01 -1.6201e-01
       314 7.0329e+02 1.0799e-155 3.9776e-01 -2.1697e-01 3.0853e-01 -1.6158e-01
       315 9.1766e+02 3.0468e-202 3.9793e-01 -2.1745e-01 3.0860e-01 -1.6159e-01
       316 2.2551e+01 7.1394e-08 3.9617e-01 -2.1811e-01 3.0721e-01 -1.6229e-01
       317 3.6276e+02 9.5259e-82 3.9683e-01 -2.1922e-01 3.0770e-01 -1.6250e-01
       318 6.5076e+00 2.1752e-04 3.9540e-01 -2.1839e-01 3.0670e-01 -1.6231e-01
       319 3.1655e+03 0.0000e+00 3.9226e-01 -2.1857e-01 3.0382e-01 -1.6225e-01
       320 1.6737e+03 0.0000e+00 3.9339e-01 -2.1888e-01 3.0484e-01 -1.6236e-01
       321 1.0284e+02 2.6234e-25 3.9494e-01 -2.1758e-01 3.0616e-01 -1.6199e-01
       322 4.7471e+01 2.7697e-13 3.9528e-01 -2.1863e-01 3.0639e-01 -1.6219e-01
       323 1.9730e+03 0.0000e+00 3.9773e-01 -2.1934e-01 3.0849e-01 -1.6260e-01
       324 8.8870e+02 5.9162e-196 3.9408e-01 -2.1756e-01 3.0538e-01 -1.6193e-01
       325 1.1427e+03 4.0878e-251 3.9387e-01 -2.1797e-01 3.0529e-01 -1.6232e-01
       326 4.5546e+00 5.7752e-04 3.9539e-01 -2.1851e-01 3.0642e-01 -1.6251e-01
       327 3.6474e+03 0.0000e+00 3.9237e-01 -2.1770e-01 3.0393e-01 -1.6181e-01
       328 2.3096e+03 0.0000e+00 3.9254e-01 -2.1894e-01 3.0421e-01 -1.6242e-01
       329 1.8517e+03 0.0000e+00 3.9810e-01 -2.1701e-01 3.0878e-01 -1.6182e-01
       330 5.2148e+02 3.2493e-116 3.9407e-01 -2.1818e-01 3.0534e-01 -1.6186e-01
       331 7.7870e+01 6.9392e-20 3.9466e-01 -2.1912e-01 3.0585e-01 -1.6267e-01
       332 2.7612e+02 6.2045e-63 3.9431e-01 -2.1811e-01 3.0569e-01 -1.6179e-01
       333 8.1653e+01 1.0466e-20 3.9521e-01 -2.1769e-01 3.0642e-01 -1.6189e-01
       334 1.3586e+00 2.8549e-03 3.9596e-01 -2.1750e-01 3.0700e-01 -1.6178e-01
       335 8.6548e+02 6.5030e-191 3.9404e-01 -2.1743e-01 3.0543e-01 -1.6160e-01
       336 2.4436e+03 0.0000e+00 3.9243e-01 -2.1828e-01 3.0417e-01 -1.6231e-01
       337 3.8406e+02 2.2556e-86 3.9424e-01 -2.1815e-01 3.0560e-01 -1.6199e-01
       338 4.6648e+01 4.1796e-13 3.9522e-01 -2.1825e-01 3.0631e-01 -1.6197e-01
       339 1.9564e+03 0.0000e+00 3.9315e-01 -2.1765e-01 3.0451e-01 -1.6183e-01
       340 4.5317e+02 2.2219e-101 3.9394e-01 -2.1915e-01 3.0529e-01 -1.6258e-01
       341 4.5277e+01 8.2946e-13 3.9604e-01 -2.1657e-01 3.0712e-01 -1.6080e-01
       342 9.4725e+01 1.5179e-23 3.9499e-01 -2.1920e-01 3.0617e-01 -1.6255e-01
       343 2.6048e+02 1.5443e-59 3.9612e-01 -2.1918e-01 3.0713e-01 -1.6263e-01
       344 2.5496e+02 2.4375e-58 3.9452e-01 -2.1902e-01 3.0575e-01 -1.6269e-01
       345 1.6867e+03 0.0000e+00 3.9822e-01 -2.1582e-01 3.0891e-01 -1.6096e-01
       346 5.7356e+02 1.5966e-127 3.9670e-01 -2.1860e-01 3.0769e-01 -1.6251e-01
       347 3.9775e+02 2.3955e-89 3.9408e-01 -2.1891e-01 3.0546e-01 -1.6262e-01
       348 1.1086e+03 1.0721e-243 3.9331e-01 -2.1926e-01 3.0483e-01 -1.6262e-01
       349 2.2295e+02 2.1807e-51 3.9622e-01 -2.1805e-01 3.0730e-01 -1.6208e-01
       350 1.0041e+03 5.0954e-221 3.9398e-01 -2.1764e-01 3.0537e-01 -1.6163e-01
       351 2.5833e+03 0.0000e+00 3.9259e-01 -2.1801e-01 3.0419e-01 -1.6227e-01
       352 1.6575e+03 0.0000e+00 3.9362e-01 -2.1770e-01 3.0491e-01 -1.6203e-01
       353 2.3275e+01 4.9712e-08 3.9501e-01 -2.1875e-01 3.0628e-01 -1.6256e-01
       354 1.9032e+03 0.0000e+00 3.9814e-01 -2.1729e-01 3.0884e-01 -1.6158e-01
       355 1.9534e+02 2.1558e-45 3.9610e-01 -2.1801e-01 3.0718e-01 -1.6224e-01
       356 4.3112e+03 0.0000e+00 3.9179e-01 -2.1913e-01 3.0352e-01 -1.6270e-01
       357 6.5383e+02 5.9305e-145 3.9363e-01 -2.1898e-01 3.0502e-01 -1.6256e-01
       358 2.2156e+02 4.3514e-51 3.9449e-01 -2.1903e-01 3.0575e-01 -1.6270e-01
       359 1.4029e+03 1.3117e-307 3.9316e-01 -2.1878e-01 3.0469e-01 -1.6249e-01
       360 1.4103e+03 3.2772e-309 3.9351e-01 -2.1926e-01 3.0488e-01 -1.6275e-01
       361 2.1766e+03 0.0000e+00 3.9238e-01 -2.2012e-01 3.0405e-01 -1.6298e-01
       362 6.6587e+03 0.0000e+00 3.9096e-01 -2.1746e-01 3.0270e-01 -1.6203e-01
       363 1.2573e+03 5.3932e-276 3.9354e-01 -2.1811e-01 3.0495e-01 -1.6208e-01
       364 9.9772e+02 1.2539e-219 3.9380e-01 -2.1882e-01 3.0509e-01 -1.6260e-01
       365 3.1409e+02 3.5188e-71 3.9409e-01 -2.1896e-01 3.0556e-01 -1.6263e-01
       366 8.9260e+02 8.4108e-197 3.9371e-01 -2.1957e-01 3.0512e-01 -1.6277e-01
       367 1.0132e+03 5.5220e-223 3.9383e-01 -2.1874e-01 3.0522e-01 -1.6230e-01
       368 6.1707e+02 5.6943e-137 3.9407e-01 -2.1866e-01 3.0531e-01 -1.6213e-01
       369 1.2038e+01 1.3699e-05 3.9611e-01 -2.1646e-01 3.0702e-01 -1.6137e-01
       370 2.3300e+02 1.4298e-53 3.9483e-01 -2.1939e-01 3.0604e-01 -1.6278e-01
       371 1.2358e+03 2.5156e-271 3.9342e-01 -2.1910e-01 3.0486e-01 -1.6264e-01
       372 1.7658e+02 2.5570e-41 3.9516e-01 -2.1763e-01 3.0630e-01 -1.6208e-01
       373 5.7849e+02 1.3612e-128 3.9413e-01 -2.1865e-01 3.0537e-01 -1.6248e-01
       374 1.6420e+02 1.2465e-38 3.9489e-01 -2.1655e-01 3.0610e-01 -1.6053e-01
       375 2.5729e+02 7.6118e-59 3.9621e-01 -2.1938e-01 3.0720e-01 -1.6279e-01
       376 1.0324e+03 3.6758e-227 3.9396e-01 -2.1751e-01 3.0528e-01 -1.6189e-01
       377 7.5567e+02 4.5605e-167 3.9417e-01 -2.1719e-01 3.0546e-01 -1.6147e-01
       378 6.4732e+01 4.9444e-17 3.9608e-01 -2.1889e-01 3.0722e-01 -1.6236e-01
       379 2.3231e+02 2.0223e-53 3.9483e-01 -2.1849e-01 3.0609e-01 -1.6235e-01
       380 9.5186e-01 3.4986e-03 3.9577e-01 -2.1812e-01 3.0671e-01 -1.6174e-01
       381 6.0329e+02 5.5830e-134 3.9390e-01 -2.1944e-01 3.0537e-01 -1.6276e-01
       382 1.6337e+03 0.0000e+00 3.9338e-01 -2.1615e-01 3.0482e-01 -1.6089e-01
       383 3.5669e+03 0.0000e+00 3.9238e-01 -2.1772e-01 3.0398e-01 -1.6195e-01
       384 1.4215e+03 1.2141e-311 3.9319e-01 -2.1894e-01 3.0463e-01 -1.6265e-01
       385 5.3880e+01 1.1237e-14 3.9509e-01 -2.1892e-01 3.0634e-01 -1.6234e-01
       386 2.2976e+03 0.0000e+00 3.9256e-01 -2.1822e-01 3.0425e-01 -1.6205e-01
       387 3.7567e+01 3.9184e-11 3.9592e-01 -2.1792e-01 3.0690e-01 -1.6215e-01
       388 6.3887e+03 0.0000e+00 3.9108e-01 -2.1886e-01 3.0289e-01 -1.6257e-01
       389 3.1126e+01 9.8124e-10 3.9537e-01 -2.1846e-01 3.0650e-01 -1.6237e-01
       390 6.4624e+01 5.2206e-17 3.9592e-01 -2.1829e-01 3.0697e-01 -1.6250e-01
       391 5.8641e+00 3.0006e-04 3.9564e-01 -2.1695e-01 3.0669e-01 -1.6138e-01
       392 2.4084e+02 2.8410e-55 3.9661e-01 -2.1754e-01 3.0762e-01 -1.6227e-01
       393 1.9311e+03 0.0000e+00 3.9320e-01 -2.1819e-01 3.0471e-01 -1.6223e-01
       394 1.4087e+02 1.4477e-33 3.9451e-01 -2.1857e-01 3.0595e-01 -1.6234e-01
       395 2.4082e+03 0.0000e+00 3.9306e-01 -2.1709e-01 3.0453e-01 -1.6177e-01
       396 5.1930e+02 9.6967e-116 3.9443e-01 -2.1650e-01 3.0570e-01 -1.6162e-01
       397 1.4384e+03 2.5869e-315 3.9780e-01 -2.1829e-01 3.0856e-01 -1.6196e-01
       398 3.0776e+03 0.0000e+00 3.9874e-01 -2.1792e-01 3.0941e-01 -1.6211e-01
       399 6.4170e+02 2.5536e-142 3.9414e-01 -2.1690e-01 3.0546e-01 -1.6116e-01
       400 7.7751e+03 0.0000e+00 3.9058e-01 -2.1751e-01 3.0233e-01 -1.6198e-01
       401 2.5996e+02 2.0046e-59 3.9421e-01 -2.1862e-01 3.0560e-01 -1.6212e-01
       402 4.4157e+02 7.3145e-99 3.9437e-01 -2.1853e-01 3.0567e-01 -1.6256e-01
       403 2.7570e+02 7.6221e-63 3.9497e-01 -2.1813e-01 3.0597e-01 -1.6221e-01
       404 7.2801e+02 4.6224e-161 3.9678e-01 -2.1871e-01 3.0795e-01 -1.6252e-01
       405 1.0412e+03 4.5706e-229 3.9358e-01 -2.1753e-01 3.0496e-01 -1.6194e-01
       406 6.2470e+02 1.2542e-138 3.9726e-01 -2.1850e-01 3.0819e-01 -1.6252e-01
       407 3.0995e+01 1.0473e-09 3.9598e-01 -2.1679e-01 3.0695e-01 -1.6149e-01
       408 1.1506e+03 8.1485e-253 3.9370e-01 -2.1774e-01 3.0514e-01 -1.6229e-01
       409 2.5851e+02 4.1314e-59 3.9460e-01 -2.1797e-01 3.0591e-01 -1.6196e-01
       410 3.8214e+02 5.8802e-86 3.9445e-01 -2.1825e-01 3.0569e-01 -1.6249e-01
       411 1.0483e+03 1.2976e-230 3.9734e-01 -2.1909e-01 3.0824e-01 -1.6264e-01
       412 8.0208e+02 3.8049e-177 3.9713e-01 -2.1865e-01 3.0798e-01 -1.6222e-01
       413 5.2969e+01 1.7725e-14 3.9622e-01 -2.1737e-01 3.0706e-01 -1.6166e-01
       414 9.5268e+00 4.8070e-05 3.9598e-01 -2.1678e-01 3.0694e-01 -1.6146e-01
       415 1.6714e+02 2.8583e-39 3.9586e-01 -2.1888e-01 3.0687e-01 -1.6265e-01
       416 2.3982e+02 4.7197e-55 3.9611e-01 -2.1919e-01 3.0712e-01 -1.6268e-01
       417 4.1091e+02 3.3391e-92 3.9520e-01 -2.1566e-01 3.0633e-01 -1.6055e-01
       418 1.4637e+03 7.9792e-321 3.9378e-01 -2.1798e-01 3.0515e-01 -1.6236e-01
       419 6.0096e+02 1.7930e-133 3.9386e-01 -2.1832e-01 3.0531e-01 -1.6216e-01
       420 5.4769e+02 6.6348e-122 3.9426e-01 -2.1723e-01 3.0560e-01 -1.6130e-01
       421 6.2085e+02 8.6027e-138 3.9435e-01 -2.1901e-01 3.0564e-01 -1.6263e-01
       422 4.2972e+00 6.5685e-04 3.9526e-01 -2.1913e-01 3.0638e-01 -1.6267e-01
       423 3.8686e+02 5.5620e-87 3.9443e-01 -2.1857e-01 3.0569e-01 -1.6255e-01
       424 2.3860e+00 1.7080e-03 3.9589e-01 -2.1845e-01 3.0688e-01 -1.6235e-01
       425 3.0453e+02 4.2032e-69 3.9447e-01 -2.1821e-01 3.0568e-01 -1.6222e-01
       426 5.2515e+02 5.1963e-117 3.9426e-01 -2.1809e-01 3.0550e-01 -1.6207e-01
       427 4.1910e+02 5.5573e-94 3.9646e-01 -2.1907e-01 3.0745e-01 -1.6262e-01
       428 4.2845e+02 5.1831e-96 3.9602e-01 -2.1926e-01 3.0705e-01 -1.6276e-01
       429 9.3074e-01 3.5358e-03 3.9607e-01 -2.1712e-01 3.0709e-01 -1.6185e-01
       430 4.8694e+02 1.0295e-108 3.9441e-01 -2.1866e-01 3.0563e-01 -1.6251e-01
       431 3.1351e+02 4.6964e-71 3.9446e-01 -2.1812e-01 3.0574e-01 -1.6243e-01
       432 1.7703e+03 0.0000e+00 3.9369e-01 -2.1711e-01 3.0500e-01 -1.6185e-01
       433 9.2560e+02 5.7300e-204 3.9372e-01 -2.1842e-01 3.0510e-01 -1.6220e-01
       434 6.5065e+01 4.1872e-17 3.9519e-01 -2.1848e-01 3.0614e-01 -1.6252e-01
       435 6.4989e+02 4.2549e-144 3.9415e-01 -2.1875e-01 3.0541e-01 -1.6230e-01
       436 2.0502e+02 1.7024e-47 3.9606e-01 -2.1903e-01 3.0707e-01 -1.6261e-01
       437 2.4149e+02 2.0492e-55 3.9636e-01 -2.1783e-01 3.0748e-01 -1.6184e-01
       438 1.8198e+02 1.7162e-42 3.9535e-01 -2.1739e-01 3.0649e-01 -1.6173e-01
       439 2.0883e+02 2.5352e-48 3.9644e-01 -2.1812e-01 3.0752e-01 -1.6197e-01
       440 3.8095e+01 3.0081e-11 3.9541e-01 -2.1769e-01 3.0636e-01 -1.6228e-01
       441 1.4494e+03 1.0153e-317 3.9787e-01 -2.1781e-01 3.0852e-01 -1.6203e-01
       442 1.6958e+02 8.4592e-40 3.9469e-01 -2.1861e-01 3.0589e-01 -1.6228e-01
       443 5.5151e+01 5.9536e-15 3.9582e-01 -2.1803e-01 3.0681e-01 -1.6188e-01
       444 1.8849e+02 6.6005e-44 3.9648e-01 -2.1769e-01 3.0753e-01 -1.6180e-01
       445 2.0874e+03 0.0000e+00 3.9280e-01 -2.1862e-01 3.0418e-01 -1.6248e-01
       446 2.0381e+02 3.1239e-47 3.9436e-01 -2.1921e-01 3.0561e-01 -1.6277e-01
       447 2.3175e+02 2.6755e-53 3.9500e-01 -2.1757e-01 3.0619e-01 -1.6170e-01
       448 2.7599e+03 0.0000e+00 3.9869e-01 -2.1842e-01 3.0931e-01 -1.6252e-01
       449 1.1685e+02 2.3812e-28 3.9469e-01 -2.1847e-01 3.0597e-01 -1.6235e-01
       450 4.0383e+02 1.1506e-90 3.9455e-01 -2.1822e-01 3.0578e-01 -1.6227e-01
       451 1.3060e+02 2.4638e-31 3.9505e-01 -2.1813e-01 3.0633e-01 -1.6242e-01
       452 6.1255e+01 2.8137e-16 3.9582e-01 -2.1877e-01 3.0689e-01 -1.6264e-01
       453 1.4862e+03 0.0000e+00 3.9322e-01 -2.1768e-01 3.0456e-01 -1.6204e-01
       454 1.2064e+03 5.9495e-265 3.9338e-01 -2.1846e-01 3.0477e-01 -1.6254e-01
       455 3.2664e+02 6.6171e-74 3.9611e-01 -2.1877e-01 3.0729e-01 -1.6236e-01
       456 3.8247e+02 4.9990e-86 3.9466e-01 -2.1882e-01 3.0594e-01 -1.6259e-01
       457 2.5373e+02 4.4960e-58 3.9668e-01 -2.1792e-01 3.0762e-01 -1.6236e-01
       458 6.9923e+02 8.2193e-155 3.9689e-01 -2.1924e-01 3.0788e-01 -1.6253e-01
       459 4.4476e+03 0.0000e+00 3.9214e-01 -2.1741e-01 3.0380e-01 -1.6167e-01
       460 4.0179e+02 3.1863e-90 3.9427e-01 -2.1827e-01 3.0566e-01 -1.6238e-01
       461 6.5522e+02 2.9623e-145 3.9693e-01 -2.1752e-01 3.0788e-01 -1.6156e-01
       462 9.6543e+00 4.5101e-05 3.9530e-01 -2.1886e-01 3.0633e-01 -1.6252e-01
       463 5.2693e+03 0.0000e+00 3.9151e-01 -2.1894e-01 3.0325e-01 -1.6258e-01
       464 5.2674e+03 0.0000e+00 3.9171e-01 -2.1707e-01 3.0330e-01 -1.6156e-01
       465 1.9603e+01 3.1175e-07 3.9597e-01 -2.1778e-01 3.0702e-01 -1.6190e-01
       466 1.8087e+02 2.9872e-42 3.9463e-01 -2.1927e-01 3.0593e-01 -1.6270e-01
       467 7.6364e+02 8.4568e-169 3.9361e-01 -2.1975e-01 3.0500e-01 -1.6274e-01
       468 7.1390e+02 5.3529e-158 3.9410e-01 -2.1731e-01 3.0554e-01 -1.6167e-01
       469 4.1967e+00 6.9071e-04 3.9574e-01 -2.1826e-01 3.0685e-01 -1.6229e-01
       470 8.0307e+01 2.0523e-20 3.9529e-01 -2.1814e-01 3.0637e-01 -1.6225e-01
       471 1.8274e+02 1.1699e-42 3.9469e-01 -2.1839e-01 3.0600e-01 -1.6226e-01
       472 8.7930e+02 6.5176e-194 3.9695e-01 -2.1903e-01 3.0795e-01 -1.6261e-01
       473 3.4200e+02 3.0632e-77 3.9632e-01 -2.1836e-01 3.0727e-01 -1.6250e-01
       474 1.3643e+03 3.2077e-299 3.9380e-01 -2.1786e-01 3.0502e-01 -1.6213e-01
       475 3.8857e+02 2.3631e-87 3.9394e-01 -2.1939e-01 3.0535e-01 -1.6254e-01
       476 1.1622e+03 2.4353e-255 3.9386e-01 -2.1868e-01 3.0531e-01 -1.6258e-01
       477 2.1295e+02 3.2364e-49 3.9622e-01 -2.1814e-01 3.0724e-01 -1.6215e-01
       478 6.5762e+02 8.9375e-146 3.9689e-01 -2.1880e-01 3.0777e-01 -1.6261e-01
       479 8.7058e+02 5.0879e-192 3.9418e-01 -2.1705e-01 3.0547e-01 -1.6168e-01
       480 3.2963e+01 3.9148e-10 3.9597e-01 -2.1751e-01 3.0706e-01 -1.6183e-01
       481 1.0502e-01 5.3430e-03 3.9516e-01 -2.1826e-01 3.0643e-01 -1.6200e-01
       482 2.7235e+01 6.8633e-09 3.9662e-01 -2.1724e-01 3.0755e-01 -1.6189e-01
       483 5.8395e+03 0.0000e+00 3.9127e-01 -2.1825e-01 3.0304e-01 -1.6228e-01
       484 9.7369e+02 2.0709e-214 3.9334e-01 -2.1899e-01 3.0468e-01 -1.6251e-01
       485 1.8936e+03 0.0000e+00 3.9277e-01 -2.1821e-01 3.0440e-01 -1.6201e-01
       486 8.1005e+02 7.1033e-179 3.9412e-01 -2.1882e-01 3.0535e-01 -1.6261e-01
       487 2.9709e+03 0.0000e+00 3.9261e-01 -2.1778e-01 3.0422e-01 -1.6194e-01
       488 7.1761e+02 8.3915e-159 3.9397e-01 -2.1891e-01 3.0526e-01 -1.6251e-01
       489 1.1463e+01 1.8261e-05 3.9581e-01 -2.1847e-01 3.0684e-01 -1.6223e-01
       490 4.2998e+03 0.0000e+00 3.9184e-01 -2.1893e-01 3.0331e-01 -1.6249e-01
       491 7.7492e+00 1.1691e-04 3.9530e-01 -2.1896e-01 3.0641e-01 -1.6267e-01
       492 6.1216e+01 2.8690e-16 3.9602e-01 -2.1726e-01 3.0702e-01 -1.6147e-01
       493 3.9248e+01 1.6901e-11 3.9596e-01 -2.1845e-01 3.0697e-01 -1.6223e-01
       494 1.4208e+02 7.8985e-34 3.9503e-01 -2.1836e-01 3.0612e-01 -1.6234e-01
       495 1.4803e+02 4.0420e-35 3.9487e-01 -2.1925e-01 3.0598e-01 -1.6279e-01
       496 6.0166e+02 1.2662e-133 3.9454e-01 -2.1872e-01 3.0581e-01 -1.6243e-01
       497 8.0107e+01 2.2676e-20 3.9514e-01 -2.1826e-01 3.0625e-01 -1.6227e-01
       498 1.1582e+01 1.7201e-05 3.9550e-01 -2.1656e-01 3.0674e-01 -1.6106e-01
       499 1.2997e+03 3.2701e-285 3.9341e-01 -2.1913e-01 3.0495e-01 -1.6269e-01
       500 8.4480e+00 8.2438e-05 3.9513e-01 -2.1935e-01 3.0642e-01 -1.6276e-01
       501 6.1088e+02 1.2601e-135 3.9382e-01 -2.1855e-01 3.0522e-01 -1.6225e-01
       502 1.3707e+03 1.2571e-300 3.9371e-01 -2.1738e-01 3.0509e-01 -1.6180e-01
       503 5.3108e+02 2.6753e-118 3.9432e-01 -2.1854e-01 3.0557e-01 -1.6217e-01
       504 3.4116e+02 4.6543e-77 3.9485e-01 -2.1854e-01 3.0610e-01 -1.6256e-01
       505 1.1656e+03 4.4640e-256 3.9330e-01 -2.1880e-01 3.0480e-01 -1.6252e-01
       506 8.0651e+02 4.1556e-178 3.9413e-01 -2.1774e-01 3.0535e-01 -1.6226e-01
       507 1.5444e+03 0.0000e+00 3.9337e-01 -2.1868e-01 3.0482e-01 -1.6256e-01
       508 8.1028e+02 6.3183e-179 3.9399e-01 -2.1819e-01 3.0534e-01 -1.6203e-01
       509 2.1298e+02 3.1796e-49 3.9663e-01 -2.1684e-01 3.0755e-01 -1.6154e-01
       510 8.5680e+02 5.0009e-189 3.9427e-01 -2.1666e-01 3.0549e-01 -1.6148e-01
       511 4.7371e+02 7.6914e-106 3.9696e-01 -2.1765e-01 3.0785e-01 -1.6217e-01
       512 1.5600e+03 0.0000e+00 3.9328e-01 -2.1819e-01 3.0471e-01 -1.6189e-01
       513 2.9618e+02 2.7297e-67 3.9462e-01 -2.1851e-01 3.0580e-01 -1.6247e-01
       514 8.3771e+02 6.9945e-185 3.9722e-01 -2.1804e-01 3.0825e-01 -1.6236e-01
       515 6.0718e+02 7.9815e-135 3.9704e-01 -2.1825e-01 3.0795e-01 -1.6242e-01
       516 8.0622e+02 4.8118e-178 3.9706e-01 -2.1816e-01 3.0798e-01 -1.6189e-01
       517 2.1473e+02 1.3272e-49 3.9445e-01 -2.1912e-01 3.0575e-01 -1.6274e-01
       518 3.4572e+02 4.7622e-78 3.9660e-01 -2.1840e-01 3.0761e-01 -1.6233e-01
       519 1.4541e+03 1.0176e-318 3.9290e-01 -2.1924e-01 3.0454e-01 -1.6256e-01
       520 4.6170e+02 3.1127e-103 3.9445e-01 -2.1773e-01 3.0554e-01 -1.6183e-01
       521 7.5002e+01 2.9113e-19 3.9561e-01 -2.1981e-01 3.0665e-01 -1.6292e-01
       522 7.1755e+01 1.4767e-18 3.9625e-01 -2.1714e-01 3.0736e-01 -1.6164e-01
       523 4.3221e+01 2.3192e-12 3.9533e-01 -2.1802e-01 3.0640e-01 -1.6197e-01
       524 3.2754e+02 4.2274e-74 3.9716e-01 -2.1644e-01 3.0791e-01 -1.6095e-01
       525 6.1863e+02 2.6120e-137 3.9406e-01 -2.1842e-01 3.0539e-01 -1.6236e-01
       526 4.6201e+02 2.6678e-103 3.9678e-01 -2.1817e-01 3.0769e-01 -1.6220e-01
       527 8.4458e+03 0.0000e+00 3.8987e-01 -2.1991e-01 3.0179e-01 -1.6295e-01
       528 3.4223e+01 2.0852e-10 3.9570e-01 -2.1874e-01 3.0686e-01 -1.6243e-01
       529 4.5831e+01 6.2870e-13 3.9617e-01 -2.1825e-01 3.0699e-01 -1.6236e-01
       530 5.8637e+02 2.6431e-130 3.9436e-01 -2.1754e-01 3.0556e-01 -1.6118e-01
       531 2.4027e+03 0.0000e+00 3.9256e-01 -2.1914e-01 3.0420e-01 -1.6237e-01
       532 1.1255e+02 2.0406e-27 3.9571e-01 -2.1877e-01 3.0685e-01 -1.6240e-01
       533 6.0863e+01 3.4222e-16 3.9633e-01 -2.1686e-01 3.0736e-01 -1.6132e-01
       534 4.8958e+02 2.7482e-109 3.9651e-01 -2.1910e-01 3.0752e-01 -1.6264e-01
       535 3.2121e+01 5.9641e-10 3.9593e-01 -2.1865e-01 3.0697e-01 -1.6260e-01
       536 5.4472e+03 0.0000e+00 3.9163e-01 -2.1848e-01 3.0332e-01 -1.6244e-01
       537 2.2844e+02 1.3981e-52 3.9460e-01 -2.1875e-01 3.0583e-01 -1.6261e-01
       538 4.5371e+01 7.9141e-13 3.9607e-01 -2.1804e-01 3.0715e-01 -1.6176e-01
       539 4.8266e+01 1.8614e-13 3.9567e-01 -2.1897e-01 3.0677e-01 -1.6265e-01
       540 2.5440e+03 0.0000e+00 3.9263e-01 -2.1829e-01 3.0418e-01 -1.6242e-01
       541 5.7585e+00 3.1634e-04 3.9584e-01 -2.1850e-01 3.0693e-01 -1.6239e-01
       542 1.2960e+03 2.1040e-284 3.9774e-01 -2.1866e-01 3.0839e-01 -1.6244e-01
       543 1.5142e+02 7.4248e-36 3.9459e-01 -2.1871e-01 3.0588e-01 -1.6224e-01
       544 1.0519e+01 2.9273e-05 3.9532e-01 -2.1907e-01 3.0649e-01 -1.6262e-01
       545 2.0110e+02 1.2093e-46 3.9639e-01 -2.1806e-01 3.0742e-01 -1.6184e-01
       546 3.5277e+03 0.0000e+00 3.9222e-01 -2.1824e-01 3.0377e-01 -1.6238e-01
       547 1.2643e+03 1.6484e-277 3.9330e-01 -2.1737e-01 3.0486e-01 -1.6206e-01
       548 6.1633e+02 8.2365e-137 3.9689e-01 -2.1796e-01 3.0785e-01 -1.6195e-01
       549 7.8632e+01 4.7399e-20 3.9599e-01 -2.1859e-01 3.0708e-01 -1.6258e-01
       550 1.0722e-02 5.6010e-03 3.9509e-01 -2.1935e-01 3.0630e-01 -1.6270e-01
       551 1.2328e+03 1.1478e-270 3.9739e-01 -2.1728e-01 3.0811e-01 -1.6188e-01
       552 3.2010e+03 0.0000e+00 3.9249e-01 -2.1729e-01 3.0394e-01 -1.6154e-01
       553 1.5978e+03 0.0000e+00 3.9337e-01 -2.1834e-01 3.0481e-01 -1.6244e-01
       554 3.9212e+02 4.0025e-88 3.9423e-01 -2.1844e-01 3.0557e-01 -1.6213e-01
       555 1.1988e+03 2.7422e-263 3.9717e-01 -2.1910e-01 3.0810e-01 -1.6258e-01
       556 7.4519e+01 3.7072e-19 3.9607e-01 -2.1835e-01 3.0711e-01 -1.6239e-01
       557 1.9549e+03 0.0000e+00 3.9319e-01 -2.1784e-01 3.0462e-01 -1.6191e-01
       558 5.1713e+02 2.8624e-115 3.9705e-01 -2.1857e-01 3.0778e-01 -1.6230e-01
       559 1.0672e+02 3.7715e-26 3.9511e-01 -2.1794e-01 3.0636e-01 -1.6213e-01
       560 1.1477e+01 1.8126e-05 3.9568e-01 -2.1851e-01 3.0677e-01 -1.6218e-01
       561 3.6119e+02 2.0829e-81 3.9434e-01 -2.1809e-01 3.0550e-01 -1.6199e-01
       562 1.8311e+02 9.7485e-43 3.9636e-01 -2.1798e-01 3.0743e-01 -1.6216e-01
       563 2.8200e-01 4.8905e-03 3.9572e-01 -2.1811e-01 3.0665e-01 -1.6200e-01
       564 2.9107e+03 0.0000e+00 3.9267e-01 -2.1853e-01 3.0433e-01 -1.6227e-01
       565 2.3093e+03 0.0000e+00 3.9297e-01 -2.1813e-01 3.0425e-01 -1.6229e-01
       566 4.3204e+01 2.3386e-12 3.9490e-01 -2.1884e-01 3.0617e-01 -1.6246e-01
       567 3.0100e+03 0.0000e+00 3.9238e-01 -2.1829e-01 3.0388e-01 -1.6228e-01
       568 1.2679e+01 9.9389e-06 3.9568e-01 -2.1855e-01 3.0677e-01 -1.6242e-01
       569 1.0575e+01 2.8461e-05 3.9588e-01 -2.1712e-01 3.0695e-01 -1.6162e-01
       570 1.9934e+03 0.0000e+00 3.9334e-01 -2.1831e-01 3.0463e-01 -1.6225e-01
       571 1.1564e+03 4.3231e-254 3.9345e-01 -2.1840e-01 3.0492e-01 -1.6205e-01
       572 7.7301e+02 7.8258e-171 3.9408e-01 -2.1804e-01 3.0541e-01 -1.6201e-01
       573 4.4851e-01 4.4999e-03 3.9569e-01 -2.1834e-01 3.0656e-01 -1.6238e-01
       574 6.9800e+02 1.5194e-154 3.9360e-01 -2.1912e-01 3.0508e-01 -1.6271e-01
       575 1.0136e+03 4.5043e-223 3.9409e-01 -2.1800e-01 3.0534e-01 -1.6206e-01
       576 5.6948e+02 1.2292e-126 3.9436e-01 -2.1771e-01 3.0565e-01 -1.6210e-01
       577 3.1274e+00 1.1789e-03 3.9543e-01 -2.1772e-01 3.0660e-01 -1.6160e-01
       578 1.8313e+00 2.2538e-03 3.9548e-01 -2.1817e-01 3.0648e-01 -1.6207e-01
       579 1.0987e+03 1.5084e-241 3.9738e-01 -2.1816e-01 3.0833e-01 -1.6233e-01
       580 1.8326e+03 0.0000e+00 3.9332e-01 -2.1762e-01 3.0465e-01 -1.6181e-01
       581 1.5496e+03 0.0000e+00 3.9779e-01 -2.1759e-01 3.0867e-01 -1.6190e-01
       582 6.4968e-01 4.0693e-03 3.9596e-01 -2.1804e-01 3.0702e-01 -1.6234e-01
       583 4.5111e+02 6.2097e-101 3.9448e-01 -2.1864e-01 3.0563e-01 -1.6247e-01
       584 3.2856e+01 4.1301e-10 3.9575e-01 -2.1673e-01 3.0683e-01 -1.6119e-01
       585 1.7029e+02 5.9372e-40 3.9466e-01 -2.1857e-01 3.0591e-01 -1.6208e-01
       586 1.1470e+03 4.9133e-252 3.9412e-01 -2.1696e-01 3.0537e-01 -1.6174e-01
       587 2.2356e+02 1.6078e-51 3.9645e-01 -2.1820e-01 3.0736e-01 -1.6204e-01
       588 5.5717e+01 4.4857e-15 3.9530e-01 -2.1746e-01 3.0647e-01 -1.6154e-01
       589 8.9800e+00 6.3184e-05 3.9590e-01 -2.1757e-01 3.0682e-01 -1.6183e-01
       590 2.4591e+02 2.2509e-56 3.9459e-01 -2.1839e-01 3.0586e-01 -1.6235e-01
       591 3.7914e+00 8.4585e-04 3.9519e-01 -2.1868e-01 3.0649e-01 -1.6210e-01
       592 5.1507e+02 8.0317e-115 3.9732e-01 -2.1766e-01 3.0811e-01 -1.6170e-01
       593 8.8208e+02 1.6187e-194 3.9382e-01 -2.1830e-01 3.0518e-01 -1.6204e-01
       594 1.2958e+01 8.6443e-06 3.9603e-01 -2.1669e-01 3.0707e-01 -1.6154e-01
       595 2.5446e+02 3.1331e-58 3.9486e-01 -2.1849e-01 3.0612e-01 -1.6226e-01
       596 2.1223e+02 4.6200e-49 3.9470e-01 -2.1938e-01 3.0587e-01 -1.6281e-01
       597 1.3894e+03 1.1109e-304 3.9318e-01 -2.1771e-01 3.0475e-01 -1.6192e-01
       598 4.4711e+02 4.5941e-100 3.9441e-01 -2.1738e-01 3.0558e-01 -1.6164e-01
       599 6.7906e+02 1.9669e-150 3.9410e-01 -2.1767e-01 3.0550e-01 -1.6159e-01
       600 4.4803e+02 2.8925e-100 3.9638e-01 -2.1862e-01 3.0750e-01 -1.6217e-01
       601 1.0416e+03 3.6736e-229 3.9388e-01 -2.1768e-01 3.0539e-01 -1.6175e-01
       602 2.3518e+02 4.8018e-54 3.9460e-01 -2.1937e-01 3.0575e-01 -1.6281e-01
       603 1.0316e+01 3.2404e-05 3.9523e-01 -2.1837e-01 3.0638e-01 -1.6248e-01
       604 6.1105e+01 3.0333e-16 3.9557e-01 -2.1615e-01 3.0659e-01 -1.6090e-01
       605 1.8541e+02 3.0808e-43 3.9466e-01 -2.1878e-01 3.0602e-01 -1.6264e-01
       606 1.5754e+03 0.0000e+00 3.9311e-01 -2.1938e-01 3.0459e-01 -1.6280e-01
       607 3.3333e+01 3.2542e-10 3.9577e-01 -2.1876e-01 3.0685e-01 -1.6242e-01
       608 9.4196e+00 5.0717e-05 3.9567e-01 -2.1774e-01 3.0665e-01 -1.6185e-01
       609 2.2161e+02 4.2589e-51 3.9461e-01 -2.1922e-01 3.0578e-01 -1.6272e-01
       610 8.3899e+02 3.6871e-185 3.9430e-01 -2.1776e-01 3.0547e-01 -1.6206e-01
       611 1.7006e+01 1.1425e-06 3.9578e-01 -2.1825e-01 3.0682e-01 -1.6195e-01
       612 1.3050e+02 2.5897e-31 3.9504e-01 -2.1841e-01 3.0625e-01 -1.6228e-01
       613 1.3480e+02 3.0176e-32 3.9496e-01 -2.1845e-01 3.0612e-01 -1.6247e-01
       614 9.3198e+02 2.3702e-205 3.9424e-01 -2.1831e-01 3.0537e-01 -1.6240e-01
       615 5.8062e+02 4.6870e-129 3.9428e-01 -2.1703e-01 3.0546e-01 -1.6155e-01
       616 1.0099e+03 2.8213e-222 3.9397e-01 -2.1868e-01 3.0525e-01 -1.6262e-01
       617 2.1079e+03 0.0000e+00 3.9299e-01 -2.1765e-01 3.0434e-01 -1.6185e-01
       618 2.0625e+03 0.0000e+00 3.9841e-01 -2.1628e-01 3.0902e-01 -1.6108e-01
       619 8.1851e+02 1.0310e-180 3.9388e-01 -2.1887e-01 3.0529e-01 -1.6263e-01
       620 4.2418e+03 0.0000e+00 3.9213e-01 -2.1666e-01 3.0373e-01 -1.6116e-01
       621 4.3806e+01 1.7308e-12 3.9569e-01 -2.1930e-01 3.0683e-01 -1.6259e-01
       622 1.6447e+01 1.5103e-06 3.9547e-01 -2.1910e-01 3.0649e-01 -1.6273e-01
       623 4.2303e+02 7.7636e-95 3.9653e-01 -2.1760e-01 3.0754e-01 -1.6205e-01
       624 1.2924e+03 1.2644e-283 3.9384e-01 -2.1805e-01 3.0522e-01 -1.6208e-01
       625 3.9314e+03 0.0000e+00 3.9193e-01 -2.1881e-01 3.0379e-01 -1.6248e-01
       626 1.2529e-01 5.2891e-03 3.9592e-01 -2.1765e-01 3.0697e-01 -1.6201e-01
       627 3.1400e-02 5.5434e-03 3.9558e-01 -2.1897e-01 3.0669e-01 -1.6267e-01
       628 9.0583e+02 1.1248e-199 3.9395e-01 -2.1781e-01 3.0520e-01 -1.6190e-01
       629 8.2601e+02 2.4254e-182 3.9339e-01 -2.1925e-01 3.0480e-01 -1.6268e-01
       630 1.8268e+02 1.2072e-42 3.9510e-01 -2.1730e-01 3.0625e-01 -1.6191e-01
       631 3.8061e+02 1.2627e-85 3.9476e-01 -2.1838e-01 3.0600e-01 -1.6228e-01
       632 1.3829e+02 5.2747e-33 3.9502e-01 -2.1820e-01 3.0623e-01 -1.6237e-01
       633 1.3957e+02 2.7813e-33 3.9500e-01 -2.1645e-01 3.0623e-01 -1.6088e-01
       634 1.5981e-01 5.1986e-03 3.9560e-01 -2.1736e-01 3.0677e-01 -1.6175e-01
       635 5.4166e+02 1.3481e-120 3.9424e-01 -2.1762e-01 3.0557e-01 -1.6158e-01
       636 2.0790e+02 4.0245e-48 3.9620e-01 -2.1905e-01 3.0713e-01 -1.6268e-01
       637 4.2039e+02 2.9092e-94 3.9488e-01 -2.1713e-01 3.0604e-01 -1.6150e-01
       638 2.9921e+03 0.0000e+00 3.9277e-01 -2.1765e-01 3.0439e-01 -1.6221e-01
       639 2.3190e+03 0.0000e+00 3.9267e-01 -2.1832e-01 3.0419e-01 -1.6200e-01
       640 8.5270e+00 7.9247e-05 3.9563e-01 -2.1947e-01 3.0674e-01 -1.6262e-01
       641 6.4324e-01 4.0824e-03 3.9567e-01 -2.1673e-01 3.0680e-01 -1.6162e-01
       642 4.3873e+02 3.0352e-98 3.9655e-01 -2.1923e-01 3.0742e-01 -1.6249e-01
       643 1.0522e+01 2.9221e-05 3.9569e-01 -2.1896e-01 3.0680e-01 -1.6257e-01
       644 5.6767e+02 3.0373e-126 3.9431e-01 -2.1863e-01 3.0563e-01 -1.6240e-01
       645 4.7605e+02 2.3826e-106 3.9392e-01 -2.1997e-01 3.0533e-01 -1.6295e-01
       646 1.5515e+01 2.4068e-06 3.9594e-01 -2.1785e-01 3.0696e-01 -1.6195e-01
       647 8.1327e-02 5.4067e-03 3.9581e-01 -2.1741e-01 3.0680e-01 -1.6172e-01
       648 2.1010e+03 0.0000e+00 3.9325e-01 -2.1744e-01 3.0472e-01 -1.6170e-01
       649 8.5459e+00 7.8501e-05 3.9583e-01 -2.1747e-01 3.0674e-01 -1.6193e-01
       650 1.1112e+02 4.1745e-27 3.9630e-01 -2.1786e-01 3.0734e-01 -1.6182e-01
       651 1.1095e+03 6.7904e-244 3.9402e-01 -2.1741e-01 3.0545e-01 -1.6189e-01
       652 8.5924e+01 1.2371e-21 3.9611e-01 -2.1723e-01 3.0719e-01 -1.6134e-01
       653 1.6944e+03 0.0000e+00 3.9331e-01 -2.1790e-01 3.0464e-01 -1.6216e-01
       654 1.0457e+03 4.6707e-230 3.9763e-01 -2.1746e-01 3.0844e-01 -1.6181e-01
       655 4.0482e+02 6.9880e-91 3.9458e-01 -2.1829e-01 3.0575e-01 -1.6212e-01
       656 6.9641e+02 3.3638e-154 3.9371e-01 -2.1939e-01 3.0513e-01 -1.6276e-01
       657 4.6962e+01 3.5712e-13 3.9496e-01 -2.1871e-01 3.0609e-01 -1.6245e-01
       658 3.7889e+01 3.3342e-11 3.9500e-01 -2.1842e-01 3.0616e-01 -1.6249e-01
       659 2.5345e+03 0.0000e+00 3.9268e-01 -2.1804e-01 3.0410e-01 -1.6214e-01
       660 1.1170e+02 3.1348e-27 3.9643e-01 -2.1777e-01 3.0744e-01 -1.6183e-01
       661 5.9766e+03 0.0000e+00 3.9099e-01 -2.1955e-01 3.0277e-01 -1.6275e-01
       662 2.1161e+02 6.3246e-49 3.9616e-01 -2.1864e-01 3.0714e-01 -1.6222e-01
       663 1.2921e+01 8.8050e-06 3.9531e-01 -2.1846e-01 3.0641e-01 -1.6249e-01
       664 6.6017e+01 2.6017e-17 3.9519e-01 -2.1719e-01 3.0648e-01 -1.6175e-01
       665 1.9015e+00 2.1761e-03 3.9576e-01 -2.1719e-01 3.0687e-01 -1.6174e-01
       666 3.8142e+02 8.4494e-86 3.9433e-01 -2.1884e-01 3.0574e-01 -1.6244e-01
       667 9.8124e+02 4.7542e-216 3.9724e-01 -2.1869e-01 3.0806e-01 -1.6251e-01
       668 7.6134e+01 1.6532e-19 3.9586e-01 -2.1820e-01 3.0689e-01 -1.6221e-01
       669 7.6069e+01 1.7075e-19 3.9615e-01 -2.1740e-01 3.0716e-01 -1.6157e-01
       670 2.2574e+03 0.0000e+00 3.9315e-01 -2.1793e-01 3.0465e-01 -1.6209e-01
       671 7.9039e+02 1.3170e-174 3.9478e-01 -2.1632e-01 3.0606e-01 -1.6121e-01
       672 5.6837e+02 2.1370e-126 3.9364e-01 -2.1930e-01 3.0515e-01 -1.6278e-01
       673 1.7091e+01 1.0950e-06 3.9580e-01 -2.1882e-01 3.0685e-01 -1.6264e-01
       674 3.9110e+02 6.6603e-88 3.9428e-01 -2.1872e-01 3.0553e-01 -1.6255e-01
       675 7.4230e+02 3.6547e-164 3.9381e-01 -2.1798e-01 3.0514e-01 -1.6223e-01
       676 1.7277e+03 0.0000e+00 3.9367e-01 -2.1724e-01 3.0497e-01 -1.6175e-01
       677 1.6816e+03 0.0000e+00 3.9335e-01 -2.1740e-01 3.0468e-01 -1.6117e-01
       678 6.8813e+02 2.1157e-152 3.9383e-01 -2.1901e-01 3.0503e-01 -1.6266e-01
       679 7.4314e+02 2.3997e-164 3.9359e-01 -2.1912e-01 3.0499e-01 -1.6267e-01
       680 3.7209e+02 8.9805e-84 3.9671e-01 -2.1757e-01 3.0769e-01 -1.6182e-01
       681 8.6390e+02 1.4324e-190 3.9698e-01 -2.1870e-01 3.0784e-01 -1.6241e-01
       682 1.0087e+03 5.2709e-222 3.9395e-01 -2.1778e-01 3.0520e-01 -1.6176e-01
       683 7.1937e+02 3.4807e-159 3.9428e-01 -2.1866e-01 3.0554e-01 -1.6246e-01
       684 4.3446e+02 2.5592e-97 3.9723e-01 -2.1670e-01 3.0807e-01 -1.6171e-01
       685 3.7062e+02 1.8651e-83 3.9609e-01 -2.1905e-01 3.0719e-01 -1.6259e-01
       686 1.7230e+02 2.1638e-40 3.9479e-01 -2.1731e-01 3.0596e-01 -1.6187e-01
       687 6.0605e+01 3.8945e-16 3.9527e-01 -2.1792e-01 3.0634e-01 -1.6204e-01
       688 7.0946e+02 4.9295e-157 3.9415e-01 -2.1793e-01 3.0539e-01 -1.6209e-01
       689 1.8683e+03 0.0000e+00 3.9332e-01 -2.1815e-01 3.0468e-01 -1.6210e-01
       690 2.3858e+02 8.7734e-55 3.9445e-01 -2.1795e-01 3.0578e-01 -1.6228e-01
       691 1.0758e+01 2.5978e-05 3.9550e-01 -2.1843e-01 3.0653e-01 -1.6229e-01
       692 2.8714e+03 0.0000e+00 3.9255e-01 -2.1794e-01 3.0414e-01 -1.6170e-01
       693 1.0258e+03 1.0146e-225 3.9717e-01 -2.1868e-01 3.0812e-01 -1.6258e-01
       694 1.1617e+03 3.1062e-255 3.9391e-01 -2.1749e-01 3.0532e-01 -1.6194e-01
       695 2.1968e+02 1.1177e-50 3.9658e-01 -2.1745e-01 3.0751e-01 -1.6176e-01
       696 5.6398e+02 1.9231e-125 3.9424e-01 -2.1783e-01 3.0569e-01 -1.6205e-01
       697 2.4349e+02 7.5492e-56 3.9432e-01 -2.1945e-01 3.0563e-01 -1.6277e-01
       698 3.1418e+01 8.4773e-10 3.9533e-01 -2.1677e-01 3.0648e-01 -1.6114e-01
       699 1.9386e+01 3.4759e-07 3.9526e-01 -2.1794e-01 3.0656e-01 -1.6209e-01
       700 3.7290e+01 4.5006e-11 3.9569e-01 -2.1852e-01 3.0683e-01 -1.6244e-01
       701 1.8394e+03 0.0000e+00 3.9362e-01 -2.1656e-01 3.0500e-01 -1.6176e-01
       702 2.6443e+03 0.0000e+00 3.9292e-01 -2.1812e-01 3.0457e-01 -1.6227e-01
       703 6.4612e+02 2.7964e-143 3.9662e-01 -2.1852e-01 3.0762e-01 -1.6192e-01
       704 1.4306e+03 1.2541e-313 3.9328e-01 -2.1800e-01 3.0478e-01 -1.6206e-01
       705 4.3559e+02 1.4565e-97 3.9414e-01 -2.1820e-01 3.0550e-01 -1.6226e-01
       706 2.6391e+02 2.7703e-60 3.9472e-01 -2.1885e-01 3.0599e-01 -1.6243e-01
       707 1.0183e+02 4.3487e-25 3.9610e-01 -2.1932e-01 3.0708e-01 -1.6236e-01
       708 1.1691e+03 7.4989e-257 3.9373e-01 -2.1830e-01 3.0513e-01 -1.6220e-01
       709 1.6502e+01 1.4697e-06 3.9563e-01 -2.1835e-01 3.0666e-01 -1.6234e-01
       710 4.8080e+01 2.0429e-13 3.9482e-01 -2.1908e-01 3.0606e-01 -1.6252e-01
       711 1.8882e+00 2.1906e-03 3.9548e-01 -2.1817e-01 3.0667e-01 -1.6201e-01
       712 1.5145e+03 0.0000e+00 3.9338e-01 -2.1852e-01 3.0472e-01 -1.6224e-01
       713 1.4393e+02 3.1324e-34 3.9611e-01 -2.1904e-01 3.0704e-01 -1.6257e-01
       714 1.7775e+03 0.0000e+00 3.9325e-01 -2.1778e-01 3.0474e-01 -1.6184e-01
       715 1.0606e+00 3.3135e-03 3.9573e-01 -2.1840e-01 3.0677e-01 -1.6247e-01
       716 1.0486e+02 9.5834e-26 3.9617e-01 -2.1798e-01 3.0716e-01 -1.6205e-01
       717 1.8356e+03 0.0000e+00 3.9315e-01 -2.1799e-01 3.0467e-01 -1.6213e-01
       718 1.0965e+02 8.7338e-27 3.9452e-01 -2.1922e-01 3.0592e-01 -1.6252e-01
       719 4.2715e+02 9.9159e-96 3.9686e-01 -2.1879e-01 3.0757e-01 -1.6256e-01
       720 7.8871e+02 3.0573e-174 3.9420e-01 -2.1712e-01 3.0541e-01 -1.6159e-01
       721 8.6923e+00 7.2960e-05 3.9520e-01 -2.1827e-01 3.0636e-01 -1.6237e-01
       722 1.6806e+03 0.0000e+00 3.9357e-01 -2.1731e-01 3.0490e-01 -1.6181e-01
       723 3.2264e+02 4.8905e-73 3.9412e-01 -2.1869e-01 3.0557e-01 -1.6251e-01
       724 4.3412e+02 3.0310e-97 3.9675e-01 -2.1787e-01 3.0754e-01 -1.6200e-01
       725 8.0814e+02 1.8445e-178 3.9727e-01 -2.1797e-01 3.0804e-01 -1.6231e-01
       726 4.6138e+02 3.6593e-103 3.9491e-01 -2.1717e-01 3.0602e-01 -1.6150e-01
       727 1.5023e+02 1.3460e-35 3.9500e-01 -2.1873e-01 3.0616e-01 -1.6256e-01
       728 1.8537e+02 3.1480e-43 3.9634e-01 -2.1712e-01 3.0736e-01 -1.6164e-01
       729 1.2018e+02 4.5076e-29 3.9497e-01 -2.1791e-01 3.0604e-01 -1.6190e-01
       730 1.8963e+03 0.0000e+00 3.9831e-01 -2.1678e-01 3.0913e-01 -1.6145e-01
       731 1.6458e+02 1.0276e-38 3.9616e-01 -2.1879e-01 3.0729e-01 -1.6240e-01
       732 3.5731e+01 9.8127e-11 3.9593e-01 -2.1851e-01 3.0693e-01 -1.6213e-01
       733 2.6233e+03 0.0000e+00 3.9302e-01 -2.1748e-01 3.0445e-01 -1.6182e-01
       734 1.8509e+02 3.6197e-43 3.9440e-01 -2.1847e-01 3.0585e-01 -1.6241e-01
       735 1.5826e+03 0.0000e+00 3.9319e-01 -2.1892e-01 3.0461e-01 -1.6231e-01
       736 3.6452e+01 6.8420e-11 3.9538e-01 -2.1797e-01 3.0643e-01 -1.6219e-01
       737 7.5888e+02 9.1388e-168 3.9392e-01 -2.1809e-01 3.0523e-01 -1.6217e-01
       738 9.7391e+02 1.8573e-214 3.9389e-01 -2.1820e-01 3.0524e-01 -1.6226e-01
       739 1.8959e+03 0.0000e+00 3.9284e-01 -2.1843e-01 3.0435e-01 -1.6223e-01
       740 4.3808e+00 6.2996e-04 3.9531e-01 -2.1753e-01 3.0660e-01 -1.6171e-01
       741 6.5193e+02 1.5336e-144 3.9367e-01 -2.1949e-01 3.0507e-01 -1.6279e-01
       742 2.6312e+02 4.1251e-60 3.9455e-01 -2.1857e-01 3.0593e-01 -1.6249e-01
       743 3.6944e+02 3.3656e-83 3.9451e-01 -2.1855e-01 3.0579e-01 -1.6241e-01
       744 2.1485e+02 1.2497e-49 3.9453e-01 -2.1848e-01 3.0574e-01 -1.6241e-01
       745 1.6015e+03 0.0000e+00 3.9338e-01 -2.1815e-01 3.0493e-01 -1.6213e-01
       746 4.4729e+02 4.2038e-100 3.9391e-01 -2.1885e-01 3.0532e-01 -1.6233e-01
       747 4.1196e+02 1.9748e-92 3.9438e-01 -2.1849e-01 3.0563e-01 -1.6235e-01
       748 3.7537e-01 4.6675e-03 3.9597e-01 -2.1754e-01 3.0689e-01 -1.6185e-01
       749 5.6803e+02 2.5329e-126 3.9403e-01 -2.1849e-01 3.0532e-01 -1.6245e-01
       750 1.3375e+03 2.0500e-293 3.9330e-01 -2.1779e-01 3.0491e-01 -1.6207e-01
       751 1.0645e+02 4.3225e-26 3.9604e-01 -2.1782e-01 3.0713e-01 -1.6215e-01
       752 1.4216e+03 1.1423e-311 3.9351e-01 -2.1752e-01 3.0491e-01 -1.6195e-01
       753 5.6653e+01 2.8090e-15 3.9465e-01 -2.1808e-01 3.0601e-01 -1.6192e-01
       754 1.6559e+03 0.0000e+00 3.9753e-01 -2.2033e-01 3.0849e-01 -1.6307e-01
       755 3.4329e+03 0.0000e+00 3.9222e-01 -2.1851e-01 3.0396e-01 -1.6220e-01
       756 2.0257e+02 5.7885e-47 3.9609e-01 -2.1855e-01 3.0707e-01 -1.6256e-01
       757 8.1643e+02 2.9238e-180 3.9403e-01 -2.1874e-01 3.0522e-01 -1.6253e-01
       758 5.6627e+02 6.1046e-126 3.9416e-01 -2.1833e-01 3.0544e-01 -1.6245e-01
       759 2.8132e+02 4.6042e-64 3.9476e-01 -2.1840e-01 3.0602e-01 -1.6220e-01
       760 3.0142e+02 1.9858e-68 3.9461e-01 -2.1865e-01 3.0587e-01 -1.6236e-01
       761 3.5791e+01 9.5226e-11 3.9495e-01 -2.1909e-01 3.0621e-01 -1.6269e-01
       762 8.0406e+02 1.4153e-177 3.9694e-01 -2.1925e-01 3.0783e-01 -1.6262e-01
       763 7.0367e+01 2.9547e-18 3.9491e-01 -2.1943e-01 3.0608e-01 -1.6275e-01
       764 5.3958e+02 3.8162e-120 3.9655e-01 -2.1870e-01 3.0745e-01 -1.6245e-01
       765 2.7043e+03 0.0000e+00 3.9267e-01 -2.1882e-01 3.0411e-01 -1.6265e-01
       766 5.3078e+02 3.1140e-118 3.9679e-01 -2.1813e-01 3.0772e-01 -1.6185e-01
       767 1.9293e+02 7.1731e-45 3.9491e-01 -2.1835e-01 3.0617e-01 -1.6247e-01
       768 5.3289e-01 4.3140e-03 3.9561e-01 -2.1864e-01 3.0669e-01 -1.6258e-01
       769 1.6914e+02 1.0546e-39 3.9609e-01 -2.1815e-01 3.0718e-01 -1.6220e-01
       770 8.5816e+02 2.5359e-189 3.9395e-01 -2.1853e-01 3.0534e-01 -1.6219e-01
       771 5.3212e+03 0.0000e+00 3.9132e-01 -2.1807e-01 3.0306e-01 -1.6184e-01
       772 1.2699e+03 9.9078e-279 3.9383e-01 -2.1840e-01 3.0512e-01 -1.6218e-01
       773 1.4246e+02 6.5386e-34 3.9596e-01 -2.1862e-01 3.0697e-01 -1.6241e-01
       774 5.2367e+02 1.0900e-116 3.9414e-01 -2.1859e-01 3.0552e-01 -1.6228e-01
       775 7.8706e+02 6.9660e-174 3.9382e-01 -2.1774e-01 3.0523e-01 -1.6169e-01
       776 5.6608e+03 0.0000e+00 3.9124e-01 -2.1748e-01 3.0306e-01 -1.6212e-01
       777 1.5289e+01 2.6956e-06 3.9570e-01 -2.1765e-01 3.0674e-01 -1.6198e-01
       778 3.6739e+02 9.4140e-83 3.9430e-01 -2.1994e-01 3.0548e-01 -1.6298e-01
       779 1.2550e+02 3.1465e-30 3.9620e-01 -2.1846e-01 3.0717e-01 -1.6240e-01
       780 1.8324e+02 9.1410e-43 3.9482e-01 -2.1745e-01 3.0609e-01 -1.6147e-01
       781 2.9965e+03 0.0000e+00 3.9273e-01 -2.1768e-01 3.0418e-01 -1.6230e-01
       782 9.6256e+02 5.4245e-212 3.9756e-01 -2.1707e-01 3.0836e-01 -1.6159e-01
       783 1.5030e+00 2.6559e-03 3.9549e-01 -2.1880e-01 3.0651e-01 -1.6231e-01
       784 1.4147e+02 1.0730e-33 3.9455e-01 -2.1832e-01 3.0600e-01 -1.6215e-01
       785 4.8113e+01 2.0093e-13 3.9625e-01 -2.1786e-01 3.0721e-01 -1.6230e-01
       786 8.4153e+01 2.9996e-21 3.9615e-01 -2.1712e-01 3.0727e-01 -1.6163e-01
       787 1.1259e+02 2.0075e-27 3.9490e-01 -2.1887e-01 3.0604e-01 -1.6259e-01
       788 8.4424e+02 2.6717e-186 3.9435e-01 -2.1760e-01 3.0549e-01 -1.6154e-01
       789 4.3813e+02 4.0985e-98 3.9417e-01 -2.1932e-01 3.0548e-01 -1.6268e-01
       790 6.1974e-01 4.1306e-03 3.9582e-01 -2.1745e-01 3.0678e-01 -1.6200e-01
       791 2.9407e-02 5.5489e-03 3.9517e-01 -2.1865e-01 3.0632e-01 -1.6252e-01
       792 2.2352e+03 0.0000e+00 3.9333e-01 -2.1780e-01 3.0473e-01 -1.6178e-01
       793 4.5474e+02 1.0123e-101 3.9441e-01 -2.1769e-01 3.0563e-01 -1.6192e-01
       794 3.0651e+01 1.2441e-09 3.9533e-01 -2.1873e-01 3.0649e-01 -1.6240e-01
       795 6.0182e+01 4.8099e-16 3.9612e-01 -2.1833e-01 3.0718e-01 -1.6211e-01
       796 9.6550e-01 3.4749e-03 3.9542e-01 -2.1884e-01 3.0653e-01 -1.6245e-01
       797 4.1946e+00 6.9143e-04 3.9539e-01 -2.1735e-01 3.0655e-01 -1.6157e-01
       798 5.7098e+02 5.8048e-127 3.9694e-01 -2.1879e-01 3.0767e-01 -1.6230e-01
       799 1.4865e+03 0.0000e+00 3.9339e-01 -2.1828e-01 3.0479e-01 -1.6239e-01
       800 1.4720e+01 3.5832e-06 3.9618e-01 -2.1721e-01 3.0712e-01 -1.6142e-01
       801 9.2107e+02 5.5306e-203 3.9374e-01 -2.1864e-01 3.0498e-01 -1.6245e-01
       802 9.4717e+02 1.1915e-208 3.9370e-01 -2.1864e-01 3.0500e-01 -1.6245e-01
       803 1.1592e+02 3.7902e-28 3.9482e-01 -2.1868e-01 3.0602e-01 -1.6229e-01
       804 9.4636e+02 1.7823e-208 3.9373e-01 -2.1846e-01 3.0512e-01 -1.6245e-01
       805 7.4329e+02 2.2286e-164 3.9432e-01 -2.1760e-01 3.0559e-01 -1.6168e-01
       806 1.9000e+03 0.0000e+00 3.9301e-01 -2.1941e-01 3.0447e-01 -1.6284e-01
       807 1.7018e+03 0.0000e+00 3.9349e-01 -2.1765e-01 3.0479e-01 -1.6198e-01
       808 1.8032e+02 3.9342e-42 3.9489e-01 -2.1836e-01 3.0607e-01 -1.6224e-01
       809 8.0924e+02 1.0607e-178 3.9438e-01 -2.1674e-01 3.0554e-01 -1.6145e-01
       810 1.5521e+02 1.1131e-36 3.9604e-01 -2.1844e-01 3.0703e-01 -1.6247e-01
       811 8.1519e+02 5.4300e-180 3.9413e-01 -2.1786e-01 3.0542e-01 -1.6220e-01
       812 4.5073e+02 7.5011e-101 3.9453e-01 -2.1835e-01 3.0565e-01 -1.6231e-01
       813 2.6642e+02 7.9205e-61 3.9457e-01 -2.1827e-01 3.0585e-01 -1.6174e-01
       814 5.3391e+02 6.5198e-119 3.9413e-01 -2.1812e-01 3.0550e-01 -1.6212e-01
       815 2.2450e+03 0.0000e+00 3.9281e-01 -2.1798e-01 3.0428e-01 -1.6203e-01
       816 3.0467e+03 0.0000e+00 3.9234e-01 -2.1870e-01 3.0399e-01 -1.6224e-01
       817 3.3383e+02 1.8231e-75 3.9509e-01 -2.1663e-01 3.0634e-01 -1.6151e-01
       818 1.0144e+03 2.9402e-223 3.9368e-01 -2.1781e-01 3.0496e-01 -1.6184e-01
       819 5.2552e+02 4.3087e-117 3.9414e-01 -2.1982e-01 3.0548e-01 -1.6273e-01
       820 7.7329e+02 6.8196e-171 3.9711e-01 -2.1906e-01 3.0799e-01 -1.6229e-01
       821 1.5719e+03 0.0000e+00 3.9358e-01 -2.1923e-01 3.0490e-01 -1.6251e-01
       822 3.1675e+03 0.0000e+00 3.9870e-01 -2.1781e-01 3.0931e-01 -1.6191e-01
       823 2.4581e+03 0.0000e+00 3.9864e-01 -2.1811e-01 3.0931e-01 -1.6227e-01
       824 1.9190e+02 1.2037e-44 3.9502e-01 -2.1789e-01 3.0609e-01 -1.6214e-01
       825 1.8034e-01 5.1456e-03 3.9553e-01 -2.1752e-01 3.0670e-01 -1.6189e-01
       826 7.2072e+01 1.2599e-18 3.9598e-01 -2.1831e-01 3.0704e-01 -1.6235e-01
       827 6.0346e-02 5.4637e-03 3.9559e-01 -2.1960e-01 3.0661e-01 -1.6287e-01
       828 4.7577e+02 2.7439e-106 3.9414e-01 -2.1869e-01 3.0547e-01 -1.6247e-01
       829 5.2116e+02 3.8247e-116 3.9417e-01 -2.1754e-01 3.0549e-01 -1.6162e-01
       830 5.3589e+02 2.4217e-119 3.9427e-01 -2.1825e-01 3.0554e-01 -1.6210e-01
       831 1.9019e+02 2.8296e-44 3.9666e-01 -2.1752e-01 3.0757e-01 -1.6200e-01
       832 2.7056e+03 0.0000e+00 3.9264e-01 -2.1681e-01 3.0417e-01 -1.6162e-01
       833 2.3486e+01 4.4736e-08 3.9525e-01 -2.1889e-01 3.0635e-01 -1.6259e-01
       834 9.2966e+03 0.0000e+00 3.8965e-01 -2.1945e-01 3.0159e-01 -1.6282e-01
       835 2.6072e+00 1.5291e-03 3.9556e-01 -2.1780e-01 3.0665e-01 -1.6185e-01
       836 6.3935e+02 8.2621e-142 3.9699e-01 -2.1852e-01 3.0790e-01 -1.6256e-01
       837 1.2671e+03 3.9332e-278 3.9336e-01 -2.1921e-01 3.0486e-01 -1.6277e-01
       838 6.5361e+02 6.6302e-145 3.9714e-01 -2.1851e-01 3.0785e-01 -1.6232e-01
       839 5.3735e+01 1.2082e-14 3.9660e-01 -2.1689e-01 3.0740e-01 -1.6160e-01
       840 2.2843e+03 0.0000e+00 3.9288e-01 -2.1817e-01 3.0425e-01 -1.6245e-01
       841 3.1271e+01 9.1218e-10 3.9531e-01 -2.1856e-01 3.0645e-01 -1.6217e-01
       842 3.9375e+01 1.5860e-11 3.9590e-01 -2.1893e-01 3.0691e-01 -1.6265e-01
       843 1.9048e+03 0.0000e+00 3.9268e-01 -2.1921e-01 3.0428e-01 -1.6269e-01
       844 6.4936e+01 4.4664e-17 3.9472e-01 -2.1862e-01 3.0598e-01 -1.6239e-01
       845 2.4919e+01 2.1858e-08 3.9591e-01 -2.1794e-01 3.0686e-01 -1.6231e-01
       846 1.3518e+02 2.4867e-32 3.9612e-01 -2.1892e-01 3.0710e-01 -1.6250e-01
       847 2.3485e+02 5.6617e-54 3.9489e-01 -2.1848e-01 3.0608e-01 -1.6237e-01
       848 1.2956e+03 2.5826e-284 3.9779e-01 -2.1866e-01 3.0841e-01 -1.6258e-01
       849 1.7078e+02 4.6279e-40 3.9648e-01 -2.1877e-01 3.0740e-01 -1.6254e-01
       850 5.3277e+02 1.1522e-118 3.9680e-01 -2.1896e-01 3.0768e-01 -1.6265e-01
       851 2.9548e+00 1.2852e-03 3.9565e-01 -2.1815e-01 3.0682e-01 -1.6224e-01
       852 2.0295e+03 0.0000e+00 3.9797e-01 -2.1876e-01 3.0870e-01 -1.6253e-01
       853 1.0432e+03 1.6624e-229 3.9401e-01 -2.1773e-01 3.0529e-01 -1.6224e-01
       854 4.5198e+02 4.0198e-101 3.9413e-01 -2.1837e-01 3.0529e-01 -1.6238e-01
       855 3.6686e+02 1.2253e-82 3.9437e-01 -2.1741e-01 3.0565e-01 -1.6187e-01
       856 3.8101e+02 1.0351e-85 3.9453e-01 -2.1839e-01 3.0569e-01 -1.6200e-01
       857 4.0065e+01 1.1238e-11 3.9518e-01 -2.1821e-01 3.0633e-01 -1.6208e-01
       858 2.7803e+01 5.1679e-09 3.9581e-01 -2.1805e-01 3.0678e-01 -1.6206e-01
       859 6.7330e+02 3.5080e-149 3.9432e-01 -2.1742e-01 3.0557e-01 -1.6187e-01
       860 8.5876e+01 1.2672e-21 3.9509e-01 -2.1833e-01 3.0620e-01 -1.6207e-01
       861 2.4985e+02 3.1427e-57 3.9462e-01 -2.1847e-01 3.0587e-01 -1.6232e-01
       862 1.3616e+03 1.1990e-298 3.9370e-01 -2.1837e-01 3.0499e-01 -1.6241e-01
       863 3.2353e+01 5.3109e-10 3.9609e-01 -2.1795e-01 3.0706e-01 -1.6224e-01
       864 1.0936e+02 1.0063e-26 3.9626e-01 -2.1780e-01 3.0744e-01 -1.6171e-01
       865 2.9333e+03 0.0000e+00 3.9239e-01 -2.1863e-01 3.0394e-01 -1.6223e-01
       866 1.0320e+03 4.4999e-227 3.9391e-01 -2.1866e-01 3.0519e-01 -1.6222e-01
       867 2.0997e+03 0.0000e+00 3.9870e-01 -2.1871e-01 3.0914e-01 -1.6256e-01
       868 1.0553e+02 6.8297e-26 3.9521e-01 -2.1862e-01 3.0636e-01 -1.6247e-01
       869 4.2051e+02 2.7481e-94 3.9698e-01 -2.1846e-01 3.0784e-01 -1.6211e-01
       870 8.7462e+02 6.7610e-193 3.9433e-01 -2.1650e-01 3.0559e-01 -1.6166e-01
       871 2.3462e+02 6.3764e-54 3.9497e-01 -2.1737e-01 3.0621e-01 -1.6178e-01
       872 7.9119e+02 8.8213e-175 3.9377e-01 -2.1954e-01 3.0514e-01 -1.6275e-01
       873 1.8305e+01 5.9661e-07 3.9535e-01 -2.1813e-01 3.0651e-01 -1.6198e-01
       874 4.8563e+03 0.0000e+00 3.9119e-01 -2.1874e-01 3.0306e-01 -1.6231e-01
       875 1.3655e+03 1.7625e-299 3.9363e-01 -2.1897e-01 3.0491e-01 -1.6247e-01
       876 3.4728e+01 1.6199e-10 3.9599e-01 -2.1827e-01 3.0704e-01 -1.6216e-01
       877 1.3946e+03 8.2894e-306 3.9753e-01 -2.1804e-01 3.0818e-01 -1.6225e-01
       878 2.3547e+03 0.0000e+00 3.9794e-01 -2.1753e-01 3.0886e-01 -1.6175e-01
       879 7.0957e+02 4.6635e-157 3.9431e-01 -2.1671e-01 3.0558e-01 -1.6120e-01
       880 4.4627e+01 1.1481e-12 3.9610e-01 -2.1844e-01 3.0712e-01 -1.6245e-01
       881 5.8974e+02 4.9093e-131 3.9460e-01 -2.1561e-01 3.0584e-01 -1.6058e-01
       882 1.2721e+02 1.3426e-30 3.9476e-01 -2.1792e-01 3.0604e-01 -1.6208e-01
       883 8.5501e+02 1.2222e-188 3.9383e-01 -2.1774e-01 3.0522e-01 -1.6148e-01
       884 5.1138e+02 5.0702e-114 3.9423e-01 -2.1809e-01 3.0563e-01 -1.6232e-01
       885 7.7482e+00 1.1698e-04 3.9538e-01 -2.1922e-01 3.0652e-01 -1.6271e-01
       886 1.2115e+02 2.7705e-29 3.9454e-01 -2.1892e-01 3.0578e-01 -1.6247e-01
       887 1.2442e+01 1.1192e-05 3.9599e-01 -2.1778e-01 3.0691e-01 -1.6213e-01
       888 7.9056e+03 0.0000e+00 3.9066e-01 -2.1800e-01 3.0245e-01 -1.6211e-01
       889 3.1683e+02 8.9554e-72 3.9623e-01 -2.1973e-01 3.0724e-01 -1.6261e-01
       890 1.6647e+01 1.3672e-06 3.9549e-01 -2.1956e-01 3.0666e-01 -1.6285e-01
       891 6.9284e+02 2.0010e-153 3.9439e-01 -2.1802e-01 3.0567e-01 -1.6228e-01
       892 4.5248e+03 0.0000e+00 3.9187e-01 -2.1771e-01 3.0353e-01 -1.6193e-01
       893 8.9906e+01 1.6897e-22 3.9562e-01 -2.1932e-01 3.0666e-01 -1.6263e-01
       894 1.7241e+03 0.0000e+00 3.9809e-01 -2.1740e-01 3.0873e-01 -1.6178e-01
       895 1.3808e+03 8.0027e-303 3.9753e-01 -2.1818e-01 3.0839e-01 -1.6237e-01
       896 1.3191e+01 7.6933e-06 3.9550e-01 -2.1841e-01 3.0655e-01 -1.6246e-01
       897 8.0036e+01 2.3501e-20 3.9645e-01 -2.1735e-01 3.0742e-01 -1.6180e-01
       898 3.8742e+02 4.2020e-87 3.9640e-01 -2.1880e-01 3.0746e-01 -1.6259e-01
       899 4.7904e+01 2.2308e-13 3.9608e-01 -2.1618e-01 3.0709e-01 -1.6115e-01
       900 4.5840e+02 1.6205e-102 3.9654e-01 -2.1857e-01 3.0754e-01 -1.6233e-01
       901 1.9245e+02 9.1540e-45 3.9702e-01 -2.1702e-01 3.0786e-01 -1.6168e-01
       902 1.8116e+03 0.0000e+00 3.9314e-01 -2.1717e-01 3.0473e-01 -1.6165e-01
       903 1.6484e+01 1.4829e-06 3.9616e-01 -2.1726e-01 3.0710e-01 -1.6177e-01
       904 4.8120e+00 5.0779e-04 3.9595e-01 -2.1667e-01 3.0694e-01 -1.6143e-01
       905 4.8937e+02 3.0613e-109 3.9450e-01 -2.1741e-01 3.0569e-01 -1.6163e-01
       906 1.0334e+03 2.2459e-227 3.9372e-01 -2.1813e-01 3.0507e-01 -1.6203e-01
       907 1.3290e+03 1.4643e-291 3.9337e-01 -2.1940e-01 3.0472e-01 -1.6278e-01
       908 3.1870e+03 0.0000e+00 3.9269e-01 -2.1815e-01 3.0407e-01 -1.6216e-01
       909 1.2025e+02 4.3574e-29 3.9613e-01 -2.1819e-01 3.0707e-01 -1.6219e-01
       910 7.4104e+02 6.8516e-164 3.9707e-01 -2.1696e-01 3.0805e-01 -1.6172e-01
       911 1.0778e+02 2.2207e-26 3.9605e-01 -2.1833e-01 3.0713e-01 -1.6200e-01
       912 9.2355e+01 4.9654e-23 3.9631e-01 -2.1818e-01 3.0729e-01 -1.6243e-01
       913 1.3245e+03 1.3604e-290 3.9764e-01 -2.1950e-01 3.0849e-01 -1.6285e-01
       914 8.5026e+01 1.9379e-21 3.9531e-01 -2.1760e-01 3.0631e-01 -1.6199e-01
       915 5.9946e+02 3.7921e-133 3.9396e-01 -2.1835e-01 3.0533e-01 -1.6235e-01
       916 5.9750e+02 1.0112e-132 3.9442e-01 -2.1711e-01 3.0559e-01 -1.6186e-01
       917 1.9456e+03 0.0000e+00 3.9275e-01 -2.1939e-01 3.0424e-01 -1.6279e-01
       918 2.0655e+02 7.9186e-48 3.9640e-01 -2.1832e-01 3.0735e-01 -1.6245e-01
       919 6.6723e+02 7.3146e-148 3.9701e-01 -2.1843e-01 3.0774e-01 -1.6247e-01
       920 4.0341e+02 1.4194e-90 3.9453e-01 -2.1719e-01 3.0571e-01 -1.6160e-01
       921 1.4509e+03 5.0052e-318 3.9398e-01 -2.1707e-01 3.0518e-01 -1.6156e-01
       922 6.3823e+01 7.7922e-17 3.9619e-01 -2.1790e-01 3.0721e-01 -1.6225e-01
       923 2.1886e+02 1.6788e-50 3.9645e-01 -2.1826e-01 3.0728e-01 -1.6219e-01
       924 2.3828e+02 1.0189e-54 3.9632e-01 -2.1872e-01 3.0742e-01 -1.6258e-01
       925 2.6416e+02 2.4455e-60 3.9470e-01 -2.1874e-01 3.0590e-01 -1.6228e-01
       926 5.4601e+02 1.5338e-121 3.9635e-01 -2.1943e-01 3.0736e-01 -1.6235e-01
       927 3.8976e+02 1.3051e-87 3.9658e-01 -2.1829e-01 3.0751e-01 -1.6201e-01
       928 1.6083e+03 0.0000e+00 3.9798e-01 -2.1754e-01 3.0870e-01 -1.6193e-01
       929 1.7360e+03 0.0000e+00 3.9333e-01 -2.1850e-01 3.0484e-01 -1.6223e-01
       930 1.6418e+01 1.5324e-06 3.9599e-01 -2.1884e-01 3.0698e-01 -1.6256e-01
       931 1.1408e+01 1.8762e-05 3.9628e-01 -2.1705e-01 3.0731e-01 -1.6149e-01
       932 1.1610e+03 4.3898e-255 3.9347e-01 -2.1801e-01 3.0489e-01 -1.6196e-01
       933 1.8704e+02 1.3626e-43 3.9485e-01 -2.1830e-01 3.0607e-01 -1.6237e-01
       934 2.5674e-01 4.9527e-03 3.9576e-01 -2.1763e-01 3.0679e-01 -1.6150e-01
       935 3.0198e+03 0.0000e+00 3.9229e-01 -2.1744e-01 3.0390e-01 -1.6169e-01
       936 8.7857e+02 9.3571e-194 3.9365e-01 -2.1846e-01 3.0509e-01 -1.6251e-01
       937 7.7336e+02 6.5670e-171 3.9446e-01 -2.1747e-01 3.0564e-01 -1.6187e-01
       938 1.1685e+03 1.0212e-256 3.9740e-01 -2.1923e-01 3.0829e-01 -1.6255e-01
       939 3.0428e+02 4.7481e-69 3.9706e-01 -2.1772e-01 3.0791e-01 -1.6179e-01
       940 8.4270e+02 5.7720e-186 3.9364e-01 -2.1832e-01 3.0505e-01 -1.6234e-01
       941 1.0797e+02 2.0147e-26 3.9648e-01 -2.1753e-01 3.0739e-01 -1.6193e-01
       942 1.0222e+02 3.5706e-25 3.9634e-01 -2.1757e-01 3.0739e-01 -1.6169e-01
       943 4.8158e+00 5.0682e-04 3.9558e-01 -2.1821e-01 3.0668e-01 -1.6194e-01
       944 2.4821e+03 0.0000e+00 3.9856e-01 -2.1663e-01 3.0925e-01 -1.6132e-01
       945 6.3462e+01 9.3333e-17 3.9591e-01 -2.1913e-01 3.0697e-01 -1.6269e-01
       946 6.6704e+02 8.0380e-148 3.9402e-01 -2.1818e-01 3.0539e-01 -1.6231e-01
       947 4.7047e+01 3.4239e-13 3.9598e-01 -2.1699e-01 3.0703e-01 -1.6132e-01
       948 1.0239e+02 3.2852e-25 3.9484e-01 -2.1861e-01 3.0606e-01 -1.6250e-01
       949 2.4003e+03 0.0000e+00 3.9285e-01 -2.1781e-01 3.0428e-01 -1.6223e-01
       950 6.5486e+02 3.5493e-145 3.9426e-01 -2.1849e-01 3.0551e-01 -1.6228e-01
       951 6.3591e+02 4.6218e-141 3.9346e-01 -2.1935e-01 3.0490e-01 -1.6276e-01
       952 3.0572e+02 2.3190e-69 3.9671e-01 -2.1832e-01 3.0760e-01 -1.6230e-01
       953 2.0168e+03 0.0000e+00 3.9863e-01 -2.1767e-01 3.0915e-01 -1.6192e-01
       954 1.5408e+03 0.0000e+00 3.9788e-01 -2.1811e-01 3.0857e-01 -1.6227e-01
       955 1.1988e+03 2.7232e-263 3.9349e-01 -2.1877e-01 3.0490e-01 -1.6240e-01
       956 1.3259e+03 6.7488e-291 3.9334e-01 -2.1885e-01 3.0483e-01 -1.6266e-01
       957 3.8656e+03 0.0000e+00 3.9188e-01 -2.1847e-01 3.0346e-01 -1.6245e-01
       958 8.7942e+02 6.1355e-194 3.9336e-01 -2.1963e-01 3.0481e-01 -1.6288e-01
       959 1.6453e+03 0.0000e+00 3.9335e-01 -2.1838e-01 3.0486e-01 -1.6239e-01
       960 7.2116e+02 1.4225e-159 3.9418e-01 -2.1763e-01 3.0549e-01 -1.6164e-01
       961 3.0015e+02 3.7473e-68 3.9692e-01 -2.1868e-01 3.0765e-01 -1.6241e-01
       962 3.3170e+02 5.2844e-75 3.9394e-01 -2.1850e-01 3.0539e-01 -1.6222e-01
       963 2.1453e+03 0.0000e+00 3.9293e-01 -2.1795e-01 3.0438e-01 -1.6218e-01
       964 3.8602e+02 8.4463e-87 3.9705e-01 -2.1851e-01 3.0778e-01 -1.6256e-01
       965 2.5640e+02 1.1839e-58 3.9513e-01 -2.1671e-01 3.0621e-01 -1.6140e-01
       966 4.9629e+02 9.6162e-111 3.9443e-01 -2.1785e-01 3.0575e-01 -1.6203e-01
       967 9.0428e+02 2.4517e-199 3.9702e-01 -2.1859e-01 3.0793e-01 -1.6237e-01
       968 2.3515e+01 4.4085e-08 3.9599e-01 -2.1783e-01 3.0701e-01 -1.6196e-01
       969 3.0529e+03 0.0000e+00 3.9257e-01 -2.1840e-01 3.0395e-01 -1.6253e-01
       970 3.2049e+00 1.1341e-03 3.9572e-01 -2.1880e-01 3.0675e-01 -1.6255e-01
       971 1.1110e+02 4.2209e-27 3.9510e-01 -2.1696e-01 3.0620e-01 -1.6149e-01
       972 4.9520e+01 9.9413e-14 3.9518e-01 -2.1886e-01 3.0629e-01 -1.6231e-01
       973 2.8304e+01 4.0212e-09 3.9589e-01 -2.1806e-01 3.0703e-01 -1.6233e-01
       974 4.9017e+02 2.0498e-109 3.9438e-01 -2.1823e-01 3.0571e-01 -1.6228e-01
       975 3.8836e+02 2.6306e-87 3.9446e-01 -2.1847e-01 3.0572e-01 -1.6235e-01
       976 1.7893e+02 7.8753e-42 3.9646e-01 -2.1760e-01 3.0753e-01 -1.6183e-01
       977 1.0607e+03 2.6754e-233 3.9421e-01 -2.1667e-01 3.0552e-01 -1.6158e-01
       978 4.9511e+02 1.7343e-110 3.9431e-01 -2.1857e-01 3.0564e-01 -1.6245e-01
       979 3.5228e+02 1.7952e-79 3.9672e-01 -2.1719e-01 3.0762e-01 -1.6165e-01
       980 1.6165e+02 4.4464e-38 3.9646e-01 -2.1794e-01 3.0750e-01 -1.6181e-01
       981 8.8575e-01 3.6162e-03 3.9542e-01 -2.1954e-01 3.0654e-01 -1.6285e-01
       982 8.3667e+02 1.1763e-184 3.9727e-01 -2.1795e-01 3.0807e-01 -1.6187e-01
       983 4.8089e+00 5.0858e-04 3.9549e-01 -2.1941e-01 3.0671e-01 -1.6259e-01
       984 5.6698e+00 3.3068e-04 3.9588e-01 -2.1765e-01 3.0680e-01 -1.6181e-01
       985 3.5155e+01 1.3088e-10 3.9609e-01 -2.1830e-01 3.0706e-01 -1.6219e-01
       986 1.4741e+01 3.5449e-06 3.9523e-01 -2.1861e-01 3.0634e-01 -1.6207e-01
       987 2.9042e+00 1.3181e-03 3.9563e-01 -2.1907e-01 3.0656e-01 -1.6267e-01
       988 2.3253e+03 0.0000e+00 3.9287e-01 -2.1840e-01 3.0440e-01 -1.6188e-01
       989 6.0999e+02 1.9608e-135 3.9403e-01 -2.1871e-01 3.0535e-01 -1.6252e-01
       990 4.8787e+02 6.4732e-109 3.9381e-01 -2.1883e-01 3.0511e-01 -1.6236e-01
       991 8.7312e+02 1.4282e-192 3.9419e-01 -2.1785e-01 3.0546e-01 -1.6216e-01
       992 2.4056e+01 3.3651e-08 3.9502e-01 -2.1849e-01 3.0630e-01 -1.6238e-01
       993 4.4041e+01 1.5391e-12 3.9517e-01 -2.1837e-01 3.0627e-01 -1.6191e-01
       994 2.4053e+02 3.3188e-55 3.9386e-01 -2.1939e-01 3.0530e-01 -1.6254e-01
       995 2.4798e+02 7.9819e-57 3.9459e-01 -2.1907e-01 3.0565e-01 -1.6273e-01
       996 1.4210e+03 1.5396e-311 3.9781e-01 -2.1849e-01 3.0856e-01 -1.6217e-01
       997 1.2630e+03 3.0632e-277 3.9364e-01 -2.1805e-01 3.0505e-01 -1.6239e-01
       998 1.5932e+02 1.4296e-37 3.9651e-01 -2.1775e-01 3.0739e-01 -1.6205e-01
       999 1.0783e+03 3.9294e-237 3.9370e-01 -2.1890e-01 3.0498e-01 -1.6243e-01
      1000 1.9635e+02 1.3019e-45 3.9467e-01 -2.1865e-01 3.0606e-01 -1.6234e-01
      1001 1.4817e+00 2.6843e-03 3.9613e-01 -2.1720e-01 3.0702e-01 -1.6141e-01
      1002 9.4613e+01 1.6056e-23 3.9532e-01 -2.1797e-01 3.0635e-01 -1.6195e-01
      1003 2.1750e+01 1.0656e-07 3.9511e-01 -2.1896e-01 3.0632e-01 -1.6245e-01
      1004 4.8830e+02 5.2243e-109 3.9670e-01 -2.1843e-01 3.0756e-01 -1.6205e-01
      1005 3.3006e+01 3.8317e-10 3.9489e-01 -2.1898e-01 3.0611e-01 -1.6242e-01
      1006 2.0802e+02 3.7905e-48 3.9649e-01 -2.1734e-01 3.0749e-01 -1.6199e-01
      1007 3.6871e+02 4.8464e-83 3.9696e-01 -2.1789e-01 3.0780e-01 -1.6203e-01
      1008 8.4635e+02 9.3091e-187 3.9403e-01 -2.1729e-01 3.0529e-01 -1.6192e-01
      1009 8.3940e-01 3.7010e-03 3.9582e-01 -2.1819e-01 3.0673e-01 -1.6226e-01
      1010 6.9192e+00 1.7706e-04 3.9529e-01 -2.1806e-01 3.0647e-01 -1.6198e-01
      1011 1.2283e+02 1.2008e-29 3.9519e-01 -2.1714e-01 3.0641e-01 -1.6173e-01
      1012 4.5849e+01 6.2310e-13 3.9620e-01 -2.1766e-01 3.0712e-01 -1.6146e-01
      1013 6.4924e+02 5.8845e-144 3.9389e-01 -2.1795e-01 3.0514e-01 -1.6174e-01
      1014 5.5928e+02 2.0203e-124 3.9451e-01 -2.1820e-01 3.0562e-01 -1.6241e-01
      1015 2.0671e+00 2.0032e-03 3.9591e-01 -2.1839e-01 3.0690e-01 -1.6199e-01
      1016 8.7487e+02 5.9657e-193 3.9363e-01 -2.1893e-01 3.0512e-01 -1.6247e-01
      1017 3.2685e+02 5.9785e-74 3.9439e-01 -2.1913e-01 3.0568e-01 -1.6254e-01
      1018 2.4427e+03 0.0000e+00 3.9253e-01 -2.1774e-01 3.0406e-01 -1.6163e-01
      1019 2.2902e+02 1.0442e-52 3.9673e-01 -2.1680e-01 3.0771e-01 -1.6106e-01
      1020 8.7731e+02 1.7563e-193 3.9395e-01 -2.1871e-01 3.0516e-01 -1.6250e-01
      1021 2.3004e+01 5.6924e-08 3.9590e-01 -2.1688e-01 3.0684e-01 -1.6168e-01
      1022 1.7036e+03 0.0000e+00 3.9381e-01 -2.1581e-01 3.0509e-01 -1.6068e-01
      1023 6.3301e+01 1.0113e-16 3.9487e-01 -2.1879e-01 3.0603e-01 -1.6221e-01
      1024 1.0703e+03 2.2245e-235 3.9723e-01 -2.1822e-01 3.0821e-01 -1.6245e-01
      1025 2.3119e+02 3.5291e-53 3.9483e-01 -2.1785e-01 3.0602e-01 -1.6220e-01
      1026 1.9592e+03 0.0000e+00 3.9313e-01 -2.1817e-01 3.0457e-01 -1.6182e-01
      1027 2.7491e+03 0.0000e+00 3.9221e-01 -2.1881e-01 3.0388e-01 -1.6214e-01
      1028 9.5862e+02 3.8746e-211 3.9371e-01 -2.1817e-01 3.0505e-01 -1.6220e-01
      1029 1.1711e+03 2.7946e-257 3.9347e-01 -2.1939e-01 3.0474e-01 -1.6282e-01
      1030 4.1373e+01 5.8434e-12 3.9599e-01 -2.1895e-01 3.0711e-01 -1.6256e-01
      1031 6.5831e+02 6.3028e-146 3.9428e-01 -2.1810e-01 3.0563e-01 -1.6226e-01
      1032 3.6423e+02 4.5573e-82 3.9483e-01 -2.1760e-01 3.0589e-01 -1.6205e-01
      1033 6.4495e+02 5.0364e-143 3.9674e-01 -2.1899e-01 3.0763e-01 -1.6261e-01
      1034 4.2800e+02 6.4664e-96 3.9666e-01 -2.1707e-01 3.0761e-01 -1.6131e-01
      1035 1.6527e+03 0.0000e+00 3.9361e-01 -2.1715e-01 3.0490e-01 -1.6190e-01
      1036 4.0481e+02 7.0201e-91 3.9439e-01 -2.1888e-01 3.0570e-01 -1.6249e-01
      1037 2.8552e+03 0.0000e+00 3.9294e-01 -2.1650e-01 3.0434e-01 -1.6098e-01
      1038 1.0813e+01 2.5270e-05 3.9505e-01 -2.1855e-01 3.0617e-01 -1.6214e-01
      1039 1.1677e+02 2.4746e-28 3.9479e-01 -2.1925e-01 3.0596e-01 -1.6258e-01
      1040 4.6753e+03 0.0000e+00 3.9184e-01 -2.1796e-01 3.0341e-01 -1.6189e-01
      1041 7.2325e+01 1.1101e-18 3.9608e-01 -2.1856e-01 3.0716e-01 -1.6258e-01
      1042 6.2500e+02 1.0788e-138 3.9410e-01 -2.1813e-01 3.0538e-01 -1.6203e-01
      1043 1.0607e+01 2.8015e-05 3.9522e-01 -2.1796e-01 3.0648e-01 -1.6209e-01
      1044 2.8501e+00 1.3543e-03 3.9537e-01 -2.1944e-01 3.0642e-01 -1.6255e-01
      1045 2.4236e+01 3.0749e-08 3.9511e-01 -2.1887e-01 3.0623e-01 -1.6264e-01
      1046 2.4783e+02 8.5929e-57 3.9635e-01 -2.1845e-01 3.0744e-01 -1.6255e-01
      1047 2.0117e+01 2.4114e-07 3.9524e-01 -2.1724e-01 3.0639e-01 -1.6203e-01
      1048 1.8177e+03 0.0000e+00 3.9265e-01 -2.2100e-01 3.0427e-01 -1.6325e-01
      1049 9.0182e+00 6.1990e-05 3.9502e-01 -2.1887e-01 3.0634e-01 -1.6263e-01
      1050 2.0099e+01 2.4334e-07 3.9567e-01 -2.1850e-01 3.0685e-01 -1.6224e-01
      1051 1.6165e+03 0.0000e+00 3.9799e-01 -2.1795e-01 3.0874e-01 -1.6206e-01
      1052 2.2014e+03 0.0000e+00 3.9237e-01 -2.1892e-01 3.0402e-01 -1.6260e-01
      1053 7.6144e+00 1.2507e-04 3.9540e-01 -2.1846e-01 3.0651e-01 -1.6210e-01
      1054 2.5098e+03 0.0000e+00 3.9256e-01 -2.1803e-01 3.0415e-01 -1.6235e-01
      1055 3.8167e+02 7.4606e-86 3.9661e-01 -2.1894e-01 3.0747e-01 -1.6246e-01
      1056 4.3613e+03 0.0000e+00 3.9160e-01 -2.1895e-01 3.0325e-01 -1.6242e-01
      1057 4.3267e+01 2.2663e-12 3.9562e-01 -2.1888e-01 3.0668e-01 -1.6235e-01
      1058 9.5065e-01 3.5008e-03 3.9561e-01 -2.1858e-01 3.0666e-01 -1.6243e-01
      1059 3.9402e+03 0.0000e+00 3.9921e-01 -2.1905e-01 3.0974e-01 -1.6270e-01
      1060 3.4700e+02 2.5120e-78 3.9669e-01 -2.1738e-01 3.0755e-01 -1.6175e-01
      1061 4.7614e+02 2.2810e-106 3.9664e-01 -2.1850e-01 3.0762e-01 -1.6224e-01
      1062 1.4217e+03 1.0854e-311 3.9378e-01 -2.1667e-01 3.0510e-01 -1.6111e-01
      1063 2.5386e+02 4.2311e-58 3.9473e-01 -2.1843e-01 3.0589e-01 -1.6230e-01
      1064 2.5290e+02 6.8225e-58 3.9414e-01 -2.1898e-01 3.0551e-01 -1.6259e-01
      1065 4.0752e+02 1.8125e-91 3.9409e-01 -2.1839e-01 3.0548e-01 -1.6224e-01
      1066 1.5960e+02 1.2418e-37 3.9645e-01 -2.1757e-01 3.0739e-01 -1.6174e-01
      1067 1.5046e+03 0.0000e+00 3.9765e-01 -2.1837e-01 3.0841e-01 -1.6245e-01
      1068 1.7888e+01 7.3494e-07 3.9609e-01 -2.1666e-01 3.0704e-01 -1.6111e-01
      1069 4.1103e+02 3.1386e-92 3.9438e-01 -2.1922e-01 3.0557e-01 -1.6267e-01
      1070 3.9675e+03 0.0000e+00 3.9193e-01 -2.1967e-01 3.0359e-01 -1.6292e-01
      1071 2.8727e+03 0.0000e+00 3.9259e-01 -2.1778e-01 3.0416e-01 -1.6192e-01
      1072 1.2322e+03 1.4866e-270 3.9375e-01 -2.1762e-01 3.0501e-01 -1.6212e-01
      1073 2.5681e+03 0.0000e+00 3.9248e-01 -2.1810e-01 3.0406e-01 -1.6213e-01
      1074 6.5736e+02 1.0174e-145 3.9709e-01 -2.1965e-01 3.0794e-01 -1.6275e-01
      1075 7.6263e+01 1.5495e-19 3.9478e-01 -2.1864e-01 3.0604e-01 -1.6229e-01
      1076 8.8230e+00 6.8345e-05 3.9541e-01 -2.1845e-01 3.0662e-01 -1.6224e-01
      1077 4.2912e+02 3.7051e-96 3.9445e-01 -2.1782e-01 3.0571e-01 -1.6190e-01
      1078 4.9253e+02 6.2958e-110 3.9417e-01 -2.1856e-01 3.0541e-01 -1.6257e-01
      1079 7.0664e+01 2.5478e-18 3.9509e-01 -2.1774e-01 3.0630e-01 -1.6230e-01
      1080 3.6717e+03 0.0000e+00 3.9197e-01 -2.1873e-01 3.0365e-01 -1.6263e-01
      1081 1.0945e+02 9.6124e-27 3.9593e-01 -2.1808e-01 3.0704e-01 -1.6212e-01
      1082 5.6589e+00 3.3249e-04 3.9574e-01 -2.1726e-01 3.0688e-01 -1.6170e-01
      1083 7.0936e+02 5.1797e-157 3.9719e-01 -2.1804e-01 3.0812e-01 -1.6200e-01
      1084 8.5539e+01 1.4999e-21 3.9505e-01 -2.1841e-01 3.0624e-01 -1.6247e-01
      1085 1.0207e+03 1.2691e-224 3.9763e-01 -2.1754e-01 3.0838e-01 -1.6159e-01
      1086 8.1828e+02 1.1552e-180 3.9367e-01 -2.1903e-01 3.0512e-01 -1.6262e-01
      1087 1.3089e+02 2.1315e-31 3.9506e-01 -2.1822e-01 3.0614e-01 -1.6213e-01
      1088 4.9726e+01 8.9706e-14 3.9636e-01 -2.1738e-01 3.0730e-01 -1.6176e-01
      1089 3.8908e+02 1.8364e-87 3.9646e-01 -2.1796e-01 3.0734e-01 -1.6208e-01
      1090 2.9822e+02 9.8199e-68 3.9474e-01 -2.1690e-01 3.0597e-01 -1.6146e-01
      1091 1.8370e+01 5.7750e-07 3.9518e-01 -2.1822e-01 3.0636e-01 -1.6234e-01
      1092 1.0637e+02 4.4877e-26 3.9455e-01 -2.1953e-01 3.0582e-01 -1.6287e-01
      1093 4.3363e+02 3.8907e-97 3.9444e-01 -2.1849e-01 3.0564e-01 -1.6223e-01
      1094 5.3852e+02 6.4808e-120 3.9407e-01 -2.1880e-01 3.0534e-01 -1.6264e-01
      1095 5.9800e-01 4.1758e-03 3.9541e-01 -2.1887e-01 3.0658e-01 -1.6251e-01
      1096 2.8032e+00 1.3864e-03 3.9540e-01 -2.1853e-01 3.0655e-01 -1.6242e-01
      1097 2.7432e+01 6.2218e-09 3.9559e-01 -2.1860e-01 3.0681e-01 -1.6205e-01
      1098 4.7966e+02 3.9175e-107 3.9657e-01 -2.1895e-01 3.0757e-01 -1.6249e-01
      1099 2.4588e+01 2.5783e-08 3.9513e-01 -2.1851e-01 3.0640e-01 -1.6248e-01
      1100 1.1617e+02 3.3475e-28 3.9486e-01 -2.1836e-01 3.0608e-01 -1.6249e-01
      1101 8.2870e+01 5.6950e-21 3.9501e-01 -2.1779e-01 3.0620e-01 -1.6199e-01
      1102 5.1886e+02 1.2085e-115 3.9659e-01 -2.1990e-01 3.0747e-01 -1.6293e-01
      1103 4.5034e-01 4.4957e-03 3.9554e-01 -2.1919e-01 3.0662e-01 -1.6265e-01
      1104 1.9555e+03 0.0000e+00 3.9789e-01 -2.1851e-01 3.0857e-01 -1.6248e-01
      1105 4.4692e+02 5.0589e-100 3.9399e-01 -2.1841e-01 3.0544e-01 -1.6238e-01
      1106 1.5266e+02 3.9976e-36 3.9598e-01 -2.1887e-01 3.0717e-01 -1.6254e-01
      1107 1.1002e+03 7.0832e-242 3.9379e-01 -2.1807e-01 3.0520e-01 -1.6226e-01
      1108 1.1435e+02 8.3222e-28 3.9638e-01 -2.1791e-01 3.0731e-01 -1.6203e-01
      1109 2.1018e+00 1.9687e-03 3.9595e-01 -2.1685e-01 3.0689e-01 -1.6116e-01
      1110 1.7774e+02 1.4276e-41 3.9502e-01 -2.1781e-01 3.0617e-01 -1.6200e-01
      1111 1.6255e+02 2.8351e-38 3.9601e-01 -2.1920e-01 3.0709e-01 -1.6276e-01
      1112 2.6993e+02 1.3667e-61 3.9427e-01 -2.1781e-01 3.0568e-01 -1.6156e-01
      1113 6.8988e+01 5.8903e-18 3.9658e-01 -2.1696e-01 3.0753e-01 -1.6140e-01
      1114 3.9197e+01 1.7343e-11 3.9560e-01 -2.1895e-01 3.0689e-01 -1.6261e-01
      1115 4.7136e+02 2.4867e-105 3.9429e-01 -2.1888e-01 3.0558e-01 -1.6265e-01
      1116 2.1963e+02 1.1463e-50 3.9622e-01 -2.1774e-01 3.0726e-01 -1.6174e-01
      1117 7.9367e+02 2.5518e-175 3.9385e-01 -2.1944e-01 3.0519e-01 -1.6245e-01
      1118 7.5936e+03 0.0000e+00 3.9109e-01 -2.1662e-01 3.0280e-01 -1.6080e-01
      1119 3.4018e+03 0.0000e+00 3.9238e-01 -2.1923e-01 3.0408e-01 -1.6256e-01
      1120 8.7245e+02 1.9963e-192 3.9343e-01 -2.1915e-01 3.0487e-01 -1.6268e-01
      1121 5.1306e+03 0.0000e+00 3.9133e-01 -2.1840e-01 3.0299e-01 -1.6231e-01
      1122 1.4331e+03 3.6338e-314 3.9757e-01 -2.1861e-01 3.0835e-01 -1.6249e-01
      1123 1.9218e+00 2.1542e-03 3.9514e-01 -2.1886e-01 3.0631e-01 -1.6263e-01
      1124 6.0874e+02 3.6664e-135 3.9432e-01 -2.1841e-01 3.0551e-01 -1.6252e-01
      1125 1.0996e+03 9.4135e-242 3.9406e-01 -2.1631e-01 3.0541e-01 -1.6074e-01
      1126 9.4227e+02 1.3762e-207 3.9373e-01 -2.1833e-01 3.0518e-01 -1.6221e-01
      1127 6.7480e+02 1.6614e-149 3.9416e-01 -2.1829e-01 3.0547e-01 -1.6227e-01
      1128 4.1698e+02 1.6041e-93 3.9418e-01 -2.1822e-01 3.0550e-01 -1.6245e-01
      1129 6.2197e+02 4.9221e-138 3.9417e-01 -2.1877e-01 3.0531e-01 -1.6223e-01
      1130 1.1520e+03 3.9188e-253 3.9395e-01 -2.1817e-01 3.0517e-01 -1.6235e-01
      1131 2.7328e+02 2.5581e-62 3.9653e-01 -2.1841e-01 3.0751e-01 -1.6222e-01
      1132 1.7441e+02 7.5682e-41 3.9459e-01 -2.1889e-01 3.0589e-01 -1.6256e-01
      1133 3.6329e+02 7.2816e-82 3.9423e-01 -2.1935e-01 3.0555e-01 -1.6235e-01
      1134 1.8829e+03 0.0000e+00 3.9330e-01 -2.1739e-01 3.0482e-01 -1.6182e-01
      1135 3.8847e-02 5.5228e-03 3.9584e-01 -2.1836e-01 3.0690e-01 -1.6211e-01
      1136 4.1281e+02 1.2868e-92 3.9457e-01 -2.1783e-01 3.0589e-01 -1.6193e-01
      1137 5.0984e+02 1.0991e-113 3.9460e-01 -2.1804e-01 3.0589e-01 -1.6214e-01
      1138 1.9250e+01 3.7202e-07 3.9600e-01 -2.1914e-01 3.0695e-01 -1.6275e-01
      1139 5.7278e+02 2.3600e-127 3.9458e-01 -2.1721e-01 3.0574e-01 -1.6143e-01
      1140 4.1929e+02 5.0544e-94 3.9709e-01 -2.1782e-01 3.0793e-01 -1.6182e-01
      1141 2.4490e+03 0.0000e+00 3.9263e-01 -2.1802e-01 3.0421e-01 -1.6200e-01
      1142 2.2894e+03 0.0000e+00 3.9304e-01 -2.1840e-01 3.0446e-01 -1.6234e-01
      1143 1.9746e+03 0.0000e+00 3.9311e-01 -2.1905e-01 3.0445e-01 -1.6248e-01
      1144 4.1986e+01 4.3003e-12 3.9556e-01 -2.1747e-01 3.0656e-01 -1.6207e-01
      1145 1.1456e+03 9.8951e-252 3.9342e-01 -2.1815e-01 3.0482e-01 -1.6227e-01
      1146 2.8623e+02 3.9548e-65 3.9475e-01 -2.1822e-01 3.0601e-01 -1.6186e-01
      1147 1.5653e+03 0.0000e+00 3.9361e-01 -2.1828e-01 3.0501e-01 -1.6238e-01
      1148 1.1903e+02 7.9961e-29 3.9531e-01 -2.1667e-01 3.0631e-01 -1.6107e-01
      1149 1.2715e+03 4.4028e-279 3.9365e-01 -2.1774e-01 3.0492e-01 -1.6205e-01
      1150 2.3993e+02 4.4719e-55 3.9647e-01 -2.1796e-01 3.0741e-01 -1.6233e-01
      1151 3.2084e+03 0.0000e+00 3.9204e-01 -2.1880e-01 3.0375e-01 -1.6245e-01
      1152 6.6028e+02 2.3571e-146 3.9399e-01 -2.1824e-01 3.0524e-01 -1.6210e-01
      1153 1.5838e+02 2.2837e-37 3.9625e-01 -2.1712e-01 3.0727e-01 -1.6176e-01
      1154 5.8080e+01 1.3759e-15 3.9500e-01 -2.1870e-01 3.0620e-01 -1.6246e-01
      1155 1.2069e+03 4.7999e-265 3.9371e-01 -2.1652e-01 3.0507e-01 -1.6101e-01
      1156 1.1361e+02 1.2036e-27 3.9526e-01 -2.1768e-01 3.0642e-01 -1.6202e-01
      1157 1.5435e+02 1.7144e-36 3.9456e-01 -2.1931e-01 3.0587e-01 -1.6258e-01
      1158 4.4436e+00 6.1050e-04 3.9566e-01 -2.1799e-01 3.0675e-01 -1.6201e-01
      1159 2.2344e+03 0.0000e+00 3.9820e-01 -2.1841e-01 3.0895e-01 -1.6177e-01
      1160 2.1998e+03 0.0000e+00 3.9257e-01 -2.1835e-01 3.0420e-01 -1.6173e-01
      1161 1.1457e+01 1.8308e-05 3.9580e-01 -2.1879e-01 3.0686e-01 -1.6252e-01
      1162 1.8803e+01 4.6514e-07 3.9604e-01 -2.1739e-01 3.0695e-01 -1.6173e-01
      1163 6.7455e+00 1.9312e-04 3.9534e-01 -2.1893e-01 3.0643e-01 -1.6247e-01
      1164 5.0438e+03 0.0000e+00 3.9151e-01 -2.1921e-01 3.0325e-01 -1.6279e-01
      1165 9.7991e+00 4.1950e-05 3.9575e-01 -2.1879e-01 3.0678e-01 -1.6260e-01
      1166 1.6556e+03 0.0000e+00 3.9793e-01 -2.1760e-01 3.0856e-01 -1.6193e-01
      1167 6.0755e+02 6.6441e-135 3.9412e-01 -2.1855e-01 3.0538e-01 -1.6226e-01
      1168 6.5007e+02 3.8968e-144 3.9700e-01 -2.1893e-01 3.0783e-01 -1.6252e-01
      1169 2.0393e+03 0.0000e+00 3.9803e-01 -2.1832e-01 3.0879e-01 -1.6239e-01
      1170 1.3826e+02 5.3415e-33 3.9507e-01 -2.1837e-01 3.0626e-01 -1.6219e-01
      1171 4.5985e+03 0.0000e+00 3.9145e-01 -2.1980e-01 3.0304e-01 -1.6296e-01
      1172 2.9639e+03 0.0000e+00 3.9233e-01 -2.1775e-01 3.0396e-01 -1.6167e-01
      1173 3.8188e+01 2.8723e-11 3.9546e-01 -2.1820e-01 3.0655e-01 -1.6213e-01
      1174 3.5385e+03 0.0000e+00 3.9264e-01 -2.1735e-01 3.0416e-01 -1.6116e-01
      1175 2.0983e+03 0.0000e+00 3.9770e-01 -2.1885e-01 3.0873e-01 -1.6250e-01
      1176 4.9481e+02 2.0096e-110 3.9460e-01 -2.1834e-01 3.0584e-01 -1.6235e-01
      1177 9.2961e+01 3.6682e-23 3.9477e-01 -2.1843e-01 3.0599e-01 -1.6236e-01
      1178 1.1596e+02 3.7095e-28 3.9515e-01 -2.1656e-01 3.0628e-01 -1.6119e-01
      1179 6.0759e+02 6.5079e-135 3.9358e-01 -2.1972e-01 3.0486e-01 -1.6292e-01
      1180 7.2113e+00 1.5300e-04 3.9562e-01 -2.1709e-01 3.0671e-01 -1.6145e-01
      1181 6.0969e+02 2.2865e-135 3.9407e-01 -2.1810e-01 3.0535e-01 -1.6196e-01
      1182 6.4913e+00 2.1929e-04 3.9558e-01 -2.1775e-01 3.0667e-01 -1.6184e-01
      1183 1.2664e+03 5.7553e-278 3.9375e-01 -2.1796e-01 3.0508e-01 -1.6221e-01
      1184 1.7984e+01 7.0064e-07 3.9570e-01 -2.1852e-01 3.0681e-01 -1.6206e-01
      1185 7.0951e+02 4.8071e-157 3.9709e-01 -2.1865e-01 3.0796e-01 -1.6249e-01
      1186 1.0425e+02 1.2944e-25 3.9590e-01 -2.1856e-01 3.0704e-01 -1.6234e-01
      1187 8.7227e+02 2.1856e-192 3.9409e-01 -2.1593e-01 3.0552e-01 -1.6052e-01
      1188 3.7988e+00 8.4272e-04 3.9543e-01 -2.1899e-01 3.0652e-01 -1.6238e-01
      1189 1.6305e+03 0.0000e+00 3.9324e-01 -2.1719e-01 3.0464e-01 -1.6146e-01
      1190 1.8423e+03 0.0000e+00 3.9359e-01 -2.1665e-01 3.0488e-01 -1.6162e-01
      1191 3.5301e+02 1.2469e-79 3.9430e-01 -2.1879e-01 3.0558e-01 -1.6253e-01
      1192 3.3675e+02 4.2248e-76 3.9455e-01 -2.1939e-01 3.0580e-01 -1.6281e-01
      1193 7.8653e+01 4.6925e-20 3.9629e-01 -2.1790e-01 3.0720e-01 -1.6206e-01
      1194 5.2525e+02 4.9324e-117 3.9441e-01 -2.1920e-01 3.0576e-01 -1.6277e-01
      1195 1.2749e+01 9.5985e-06 3.9541e-01 -2.1810e-01 3.0651e-01 -1.6201e-01
      1196 2.5839e+02 4.3784e-59 3.9494e-01 -2.1684e-01 3.0610e-01 -1.6136e-01
      1197 2.9936e+02 5.5612e-68 3.9658e-01 -2.1754e-01 3.0744e-01 -1.6185e-01
      1198 1.4073e+03 1.4211e-308 3.9765e-01 -2.1718e-01 3.0851e-01 -1.6185e-01
      1199 3.5703e+03 0.0000e+00 3.9207e-01 -2.1895e-01 3.0372e-01 -1.6255e-01
      1200 7.4706e+02 3.3758e-165 3.9432e-01 -2.1823e-01 3.0550e-01 -1.6227e-01
      1201 6.3428e+02 1.0447e-140 3.9421e-01 -2.1823e-01 3.0547e-01 -1.6176e-01
      1202 4.2871e+02 4.5340e-96 3.9448e-01 -2.1765e-01 3.0571e-01 -1.6194e-01
      1203 1.1328e+01 1.9529e-05 3.9517e-01 -2.1890e-01 3.0628e-01 -1.6265e-01
      1204 2.4572e+00 1.6482e-03 3.9536e-01 -2.1958e-01 3.0650e-01 -1.6261e-01
      1205 2.3548e+02 4.1439e-54 3.9669e-01 -2.1753e-01 3.0767e-01 -1.6184e-01
      1206 1.3523e+02 2.4320e-32 3.9607e-01 -2.1912e-01 3.0714e-01 -1.6271e-01
      1207 1.6044e+00 2.5246e-03 3.9578e-01 -2.1854e-01 3.0689e-01 -1.6240e-01
      1208 2.0480e+02 1.8984e-47 3.9498e-01 -2.1723e-01 3.0615e-01 -1.6165e-01
      1209 5.5309e+02 4.4460e-123 3.9401e-01 -2.1877e-01 3.0538e-01 -1.6210e-01
      1210 2.5788e+00 1.5510e-03 3.9552e-01 -2.1772e-01 3.0664e-01 -1.6198e-01
      1211 5.6775e+01 2.6430e-15 3.9497e-01 -2.1801e-01 3.0621e-01 -1.6212e-01
      1212 4.2152e+01 3.9565e-12 3.9592e-01 -2.1772e-01 3.0707e-01 -1.6189e-01
      1213 9.7573e+02 7.4722e-215 3.9696e-01 -2.1893e-01 3.0800e-01 -1.6231e-01
      1214 9.4459e+02 4.3196e-208 3.9741e-01 -2.1861e-01 3.0817e-01 -1.6231e-01
      1215 2.5116e+03 0.0000e+00 3.9294e-01 -2.1743e-01 3.0446e-01 -1.6169e-01
      1216 1.8567e+03 0.0000e+00 3.9810e-01 -2.1810e-01 3.0872e-01 -1.6201e-01
      1217 9.4782e+01 1.4752e-23 3.9627e-01 -2.1834e-01 3.0723e-01 -1.6205e-01
      1218 2.0354e+03 0.0000e+00 3.9330e-01 -2.1772e-01 3.0467e-01 -1.6177e-01
      1219 2.3911e+03 0.0000e+00 3.9829e-01 -2.1850e-01 3.0889e-01 -1.6232e-01
      1220 2.6413e+02 2.4919e-60 3.9671e-01 -2.1733e-01 3.0760e-01 -1.6192e-01
      1221 5.3164e+01 1.6077e-14 3.9547e-01 -2.1995e-01 3.0671e-01 -1.6272e-01
      1222 1.6199e+00 2.5052e-03 3.9605e-01 -2.1765e-01 3.0706e-01 -1.6212e-01
      1223 1.0046e+00 3.4076e-03 3.9531e-01 -2.1879e-01 3.0638e-01 -1.6247e-01
      1224 2.5623e+02 1.2903e-58 3.9475e-01 -2.1839e-01 3.0598e-01 -1.6229e-01
      1225 1.2938e+02 4.5370e-31 3.9598e-01 -2.1877e-01 3.0700e-01 -1.6262e-01
      1226 1.1255e+03 2.2443e-247 3.9755e-01 -2.1815e-01 3.0830e-01 -1.6220e-01
      1227 1.6453e+02 1.0561e-38 3.9490e-01 -2.1890e-01 3.0599e-01 -1.6252e-01
      1228 1.3665e+03 1.0282e-299 3.9321e-01 -2.1827e-01 3.0474e-01 -1.6236e-01
      1229 1.9607e+00 2.1127e-03 3.9562e-01 -2.1791e-01 3.0675e-01 -1.6222e-01
      1230 8.0585e+01 1.7859e-20 3.9569e-01 -2.1898e-01 3.0677e-01 -1.6267e-01
      1231 6.9454e+01 4.6656e-18 3.9617e-01 -2.1864e-01 3.0714e-01 -1.6248e-01
      1232 2.4307e+03 0.0000e+00 3.9269e-01 -2.1837e-01 3.0432e-01 -1.6184e-01
      1233 1.1216e+02 2.4795e-27 3.9608e-01 -2.1844e-01 3.0699e-01 -1.6214e-01
      1234 7.3258e+02 4.7165e-162 3.9365e-01 -2.1874e-01 3.0512e-01 -1.6236e-01
      1235 8.3038e+02 2.7275e-183 3.9357e-01 -2.1934e-01 3.0497e-01 -1.6256e-01
      1236 7.9557e+02 9.8818e-176 3.9377e-01 -2.1877e-01 3.0524e-01 -1.6264e-01
      1237 1.1351e+01 1.9311e-05 3.9570e-01 -2.1856e-01 3.0683e-01 -1.6226e-01
      1238 9.3757e-01 3.5237e-03 3.9524e-01 -2.1772e-01 3.0656e-01 -1.6176e-01
      1239 4.5217e+03 0.0000e+00 3.9209e-01 -2.1813e-01 3.0362e-01 -1.6206e-01
      1240 1.2082e+01 1.3398e-05 3.9548e-01 -2.1838e-01 3.0673e-01 -1.6188e-01
      1241 4.4673e+02 5.5620e-100 3.9439e-01 -2.1783e-01 3.0566e-01 -1.6194e-01
      1242 2.7577e-01 4.9058e-03 3.9575e-01 -2.1806e-01 3.0687e-01 -1.6219e-01
      1243 3.2382e+02 2.7174e-73 3.9488e-01 -2.1799e-01 3.0604e-01 -1.6207e-01
      1244 3.7833e+03 0.0000e+00 3.9193e-01 -2.1871e-01 3.0370e-01 -1.6262e-01
      1245 1.3199e+02 1.2302e-31 3.9587e-01 -2.1907e-01 3.0692e-01 -1.6269e-01
      1246 1.1224e+03 1.0744e-246 3.9413e-01 -2.1755e-01 3.0540e-01 -1.6149e-01
      1247 2.8348e+02 1.5641e-64 3.9511e-01 -2.1656e-01 3.0612e-01 -1.6127e-01
      1248 6.0424e+03 0.0000e+00 3.9110e-01 -2.1853e-01 3.0272e-01 -1.6244e-01
      1249 2.4527e+01 2.6580e-08 3.9518e-01 -2.1833e-01 3.0635e-01 -1.6220e-01
      1250 8.1652e+00 9.4961e-05 3.9585e-01 -2.1855e-01 3.0668e-01 -1.6236e-01
      1251 2.0022e+00 2.0693e-03 3.9565e-01 -2.1848e-01 3.0683e-01 -1.6235e-01
      1252 8.1848e+01 9.4935e-21 3.9561e-01 -2.1975e-01 3.0674e-01 -1.6290e-01
      1253 1.1005e+03 5.9591e-242 3.9383e-01 -2.1677e-01 3.0535e-01 -1.6121e-01
      1254 7.1713e+01 1.5080e-18 3.9598e-01 -2.1817e-01 3.0692e-01 -1.6215e-01
      1255 3.6771e+02 7.9942e-83 3.9444e-01 -2.1776e-01 3.0566e-01 -1.6210e-01
      1256 8.0688e+02 3.4585e-178 3.9739e-01 -2.1814e-01 3.0813e-01 -1.6240e-01
      1257 5.0089e+01 7.4793e-14 3.9545e-01 -2.1827e-01 3.0650e-01 -1.6235e-01
      1258 2.6106e+03 0.0000e+00 3.9289e-01 -2.1763e-01 3.0442e-01 -1.6168e-01
      1259 1.0608e+01 2.7994e-05 3.9586e-01 -2.1724e-01 3.0681e-01 -1.6135e-01
      1260 1.3625e+02 1.4575e-32 3.9515e-01 -2.1839e-01 3.0619e-01 -1.6249e-01
      1261 1.1847e+03 3.0951e-260 3.9397e-01 -2.1757e-01 3.0527e-01 -1.6180e-01
      1262 3.8363e+02 2.7887e-86 3.9482e-01 -2.1721e-01 3.0594e-01 -1.6157e-01
      1263 7.2225e+01 1.1672e-18 3.9600e-01 -2.1873e-01 3.0691e-01 -1.6240e-01
      1264 5.2434e-01 4.3324e-03 3.9544e-01 -2.1848e-01 3.0651e-01 -1.6230e-01
      1265 8.5307e+02 3.2209e-188 3.9732e-01 -2.1821e-01 3.0809e-01 -1.6232e-01
      1266 1.0437e+01 3.0494e-05 3.9530e-01 -2.1818e-01 3.0644e-01 -1.6216e-01
      1267 7.7550e+02 2.2545e-171 3.9760e-01 -2.1772e-01 3.0841e-01 -1.6176e-01
      1268 1.7783e+03 0.0000e+00 3.9785e-01 -2.1692e-01 3.0871e-01 -1.6143e-01
